booster[0]
0:[Marital=Married] yes=2,no=1
	1:[Income<50490.8398] yes=3,no=4,missing=4
		3:[Occupation=Executive] yes=8,no=7
			7:[Age<37] yes=15,no=16,missing=16
				15:[Hours<48] yes=31,no=32,missing=31
					31:[Age<35] yes=55,no=56,missing=56
						55:leaf=-0.522580683
						56:leaf=-0.150000006
					32:[Hours<51] yes=57,no=58,missing=58
						57:leaf=0.0666666701
						58:leaf=-0.163636371
				16:[Education=Bachelor] yes=34,no=33
					33:[Occupation=Professional] yes=60,no=59
						59:leaf=-0.300000012
						60:leaf=0.0315789506
					34:[Hours<55] yes=61,no=62,missing=62
						61:leaf=0.257142872
						62:leaf=-0.138461545
			8:[Income<11710.415] yes=17,no=18,missing=18
				17:leaf=-0.300000012
				18:[Age<48] yes=35,no=36,missing=35
					35:[Employment=Private] yes=64,no=63
						63:leaf=0.0400000028
						64:leaf=0.342857182
					36:[Age<57] yes=65,no=66,missing=66
						65:leaf=-0.150000006
						66:leaf=-0
		4:[Education=Doctorate] yes=10,no=9
			9:[Occupation=Executive] yes=20,no=19
				19:[Occupation=Professional] yes=38,no=37
					37:[Education=Master] yes=68,no=67
						67:leaf=-0.538882017
						68:leaf=-0.0545454584
					38:[Age<55] yes=69,no=70,missing=69
						69:leaf=-0.400000036
						70:leaf=0.120000005
				20:[Hours<54] yes=39,no=40,missing=39
					39:[Hours<49] yes=71,no=72,missing=72
						71:leaf=-0.463636369
						72:leaf=-0.221052632
					40:leaf=0.120000005
			10:[Marital=Absent] yes=22,no=21
				21:leaf=0.300000012
				22:leaf=-0
	2:[Occupation=Executive] yes=6,no=5
		5:[Occupation=Professional] yes=12,no=11
			11:[Education=Master] yes=24,no=23
				23:[Education=Bachelor] yes=42,no=41
					41:[Occupation=Clerical] yes=74,no=73
						73:leaf=-0.224644557
						74:leaf=0.135483876
					42:[Age<30] yes=75,no=76,missing=76
						75:leaf=-0.333333373
						76:leaf=0.13636364
				24:[Age<35] yes=43,no=44,missing=43
					43:leaf=-0
					44:leaf=0.440000027
			12:[Age<63] yes=25,no=26,missing=26
				25:[Age<32] yes=45,no=46,missing=46
					45:leaf=-0
					46:[Hours<39] yes=77,no=78,missing=78
						77:leaf=-0
						78:leaf=0.353846192
				26:[Hours<41] yes=47,no=48,missing=47
					47:[Education=Bachelor] yes=80,no=79
						79:leaf=-0.272727281
						80:leaf=-0
					48:leaf=0.150000006
		6:[Hours<31] yes=13,no=14,missing=13
			13:[Education=Master] yes=28,no=27
				27:[Income<57928.9414] yes=49,no=50,missing=49
					49:[Age<50] yes=81,no=82,missing=82
						81:leaf=-0
						82:leaf=-0.400000036
					50:leaf=0.120000005
				28:leaf=0.272727281
			14:[Income<384797.469] yes=29,no=30,missing=30
				29:[Age<51] yes=51,no=52,missing=51
					51:[Income<29142.0059] yes=83,no=84,missing=84
						83:leaf=0.221052632
						84:leaf=0.514285743
					52:[Age<58] yes=85,no=86,missing=86
						85:leaf=-0
						86:leaf=0.333333373
				30:[Age<43] yes=53,no=54,missing=54
					53:[Age<33] yes=87,no=88,missing=88
						87:leaf=-0
						88:leaf=-0.120000005
					54:[Gender=Male] yes=90,no=89
						89:leaf=0.300000012
						90:leaf=0.100000009
booster[1]
0:[Marital=Married] yes=2,no=1
	1:[Income<50490.8398] yes=3,no=4,missing=4
		3:[Age<29] yes=7,no=8,missing=8
			7:leaf=-0.407950133
			8:[Hours<41] yes=15,no=16,missing=15
				15:[Education=Bachelor] yes=28,no=27
					27:[Hours<20] yes=41,no=42,missing=41
						41:leaf=-0.106476702
						42:leaf=-0.314528614
					28:[Age<34] yes=43,no=44,missing=43
						43:leaf=-0.190825999
						44:leaf=0.232151061
				16:[Income<20658.3359] yes=29,no=30,missing=30
					29:[Income<17056.6055] yes=45,no=46,missing=46
						45:leaf=0.0832187831
						46:leaf=0.370619714
					30:[Employment=Private] yes=48,no=47
						47:leaf=-0.22555466
						48:leaf=0.0580603182
		4:[Education=Doctorate] yes=10,no=9
			9:[Education=Bachelor] yes=18,no=17
				17:[Education=Professional] yes=32,no=31
					31:[Education=Master] yes=50,no=49
						49:leaf=-0.408628225
						50:leaf=-0.183478504
					32:leaf=0.060954351
				18:[Age<58] yes=33,no=34,missing=33
					33:[Employment=Private] yes=52,no=51
						51:leaf=-0.359044492
						52:leaf=-0.160338581
					34:leaf=0.0887046158
			10:leaf=0.171490133
	2:[Education=Master] yes=6,no=5
		5:[Education=Bachelor] yes=12,no=11
			11:[Hours<37] yes=19,no=20,missing=20
				19:[Income<200540.844] yes=35,no=36,missing=36
					35:leaf=-0.451913208
					36:[Age<46] yes=53,no=54,missing=54
						53:leaf=0.106408037
						54:leaf=-0.163717568
				20:[Employment=Private] yes=38,no=37
					37:[Age<45] yes=55,no=56,missing=55
						55:leaf=-0.063665241
						56:leaf=0.08998245
					38:[Age<36] yes=57,no=58,missing=58
						57:leaf=-0.284936726
						58:leaf=-0.0890321434
			12:[Age<32] yes=21,no=22,missing=22
				21:leaf=-0.213996574
				22:[Income<45911.1797] yes=39,no=40,missing=40
					39:[Income<41996.8516] yes=59,no=60,missing=60
						59:leaf=0.10292571
						60:leaf=-0.25726977
					40:[Age<54] yes=61,no=62,missing=61
						61:leaf=0.364030212
						62:leaf=0.0234892182
		6:[Income<42217.7734] yes=13,no=14,missing=13
			13:[Income<4613.76025] yes=23,no=24,missing=23
				23:leaf=0.107309453
				24:leaf=0.434201241
			14:[Hours<29] yes=25,no=26,missing=25
				25:leaf=-0.200819656
				26:leaf=0.290958583
booster[2]
0:[Marital=Married] yes=2,no=1
	1:[Income<53177.4375] yes=3,no=4,missing=4
		3:[Gender=Female] yes=8,no=7
			7:[Employment=SelfEmp] yes=16,no=15
				15:[Age<37] yes=31,no=32,missing=31
					31:[Occupation=Professional] yes=56,no=55
						55:leaf=-0.234917089
						56:leaf=0.0708817914
					32:[Income<31535.8398] yes=57,no=58,missing=58
						57:leaf=-0.103191845
						58:leaf=0.115129694
				16:leaf=0.325768322
			8:[Education=Bachelor] yes=18,no=17
				17:leaf=-0.408679187
				18:leaf=-0.133547544
		4:[Hours<50] yes=9,no=10,missing=9
			9:[Education=Doctorate] yes=20,no=19
				19:[Education=Bachelor] yes=34,no=33
					33:[Education=Master] yes=60,no=59
						59:leaf=-0.353827327
						60:leaf=-0.12452095
					34:[Employment=Private] yes=62,no=61
						61:leaf=-0.313109338
						62:leaf=-0.111598782
				20:leaf=0.0641097054
			10:[Occupation=Executive] yes=22,no=21
				21:[Age<39] yes=35,no=36,missing=35
					35:[Occupation=Professional] yes=64,no=63
						63:leaf=-0.358744025
						64:leaf=0.101860903
					36:[Marital=Absent] yes=66,no=65
						65:leaf=0.158264175
						66:leaf=-0.265971929
				22:[Income<75569.8594] yes=37,no=38,missing=37
					37:leaf=0.320328712
					38:leaf=-0.289366841
	2:[Occupation=Executive] yes=6,no=5
		5:[Hours<42] yes=11,no=12,missing=12
			11:[Gender=Female] yes=24,no=23
				23:[Income<20632.7734] yes=39,no=40,missing=40
					39:[Income<14116.2646] yes=67,no=68,missing=68
						67:leaf=-0.296803594
						68:leaf=0.233579665
					40:[Education=Master] yes=70,no=69
						69:leaf=-0.217934251
						70:leaf=0.118857555
				24:[Age<33] yes=41,no=42,missing=42
					41:leaf=-0.19309935
					42:[Hours<37] yes=71,no=72,missing=72
						71:leaf=-0.012177092
						72:leaf=0.2228425
			12:[Occupation=Transport] yes=26,no=25
				25:[Education=HSgrad] yes=44,no=43
					43:[Education=College] yes=74,no=73
						73:leaf=0.134170175
						74:leaf=-0.106954359
					44:[Income<29738.5664] yes=75,no=76,missing=76
						75:leaf=-0.261749029
						76:leaf=0.000687917985
				26:[Age<45] yes=45,no=46,missing=45
					45:[Hours<58] yes=77,no=78,missing=78
						77:leaf=-0.102986641
						78:leaf=-0.381523401
					46:leaf=-0.00878557656
		6:[Hours<31] yes=13,no=14,missing=13
			13:[Age<52] yes=27,no=28,missing=28
				27:[Age<36] yes=47,no=48,missing=48
					47:leaf=-0.176859573
					48:leaf=0.271040052
				28:[Income<31185.8828] yes=49,no=50,missing=49
					49:leaf=-0.272788703
					50:[Age<72] yes=79,no=80,missing=80
						79:leaf=-0.20196791
						80:leaf=0.0859096646
			14:[Income<384797.469] yes=29,no=30,missing=30
				29:[Age<51] yes=51,no=52,missing=51
					51:[Income<29142.0059] yes=81,no=82,missing=82
						81:leaf=0.185519308
						82:leaf=0.405441344
					52:[Age<58] yes=83,no=84,missing=84
						83:leaf=-0.0231537763
						84:leaf=0.276845455
				30:[Gender=Male] yes=54,no=53
					53:leaf=0.225134358
					54:[Age<39] yes=85,no=86,missing=85
						85:leaf=-0.216353342
						86:leaf=0.109106697
booster[3]
0:[Marital=Married] yes=2,no=1
	1:[Age<27] yes=3,no=4,missing=4
		3:[Hours<53] yes=7,no=8,missing=7
			7:[Marital=Unmarried] yes=16,no=15
				15:leaf=-0.373710155
				16:leaf=-0.112758875
			8:leaf=-0.047779277
		4:[Income<79492.5469] yes=9,no=10,missing=9
			9:[Gender=Female] yes=18,no=17
				17:[Age<39] yes=29,no=30,missing=29
					29:[Occupation=Executive] yes=46,no=45
						45:leaf=-0.18201679
						46:leaf=0.0931123793
					30:[Hours<42] yes=47,no=48,missing=48
						47:leaf=-0.0801592022
						48:leaf=0.138440683
				18:[Education=Bachelor] yes=32,no=31
					31:[Hours<48] yes=49,no=50,missing=49
						49:leaf=-0.345019132
						50:leaf=-0.0676197112
					32:[Occupation=Professional] yes=52,no=51
						51:leaf=-0.167905256
						52:leaf=0.1655581
			10:[Age<29] yes=19,no=20,missing=20
				19:[Income<108263.102] yes=33,no=34,missing=34
					33:[Hours<48] yes=53,no=54,missing=54
						53:leaf=-0.0609149262
						54:leaf=0.325831592
					34:[Income<154685.5] yes=55,no=56,missing=56
						55:leaf=-0.250460267
						56:leaf=-0.0463433601
				20:[Hours<17] yes=35,no=36,missing=36
					35:leaf=-0.0718608722
					36:[Employment=PSState] yes=58,no=57
						57:leaf=-0.306158334
						58:leaf=-0.0761668161
	2:[Education=Master] yes=6,no=5
		5:[Age<31] yes=11,no=12,missing=12
			11:[Employment=Private] yes=22,no=21
				21:[Income<61977.8281] yes=37,no=38,missing=38
					37:[Hours<136] yes=59,no=60,missing=60
						59:leaf=-0.317470253
						60:leaf=0.17403388
					38:leaf=0.231898889
				22:[Occupation=Machinist] yes=40,no=39
					39:[Income<648854.812] yes=61,no=62,missing=62
						61:leaf=-0.353983164
						62:leaf=-0.143021315
					40:leaf=-0.0268808156
			12:[Occupation=Service] yes=24,no=23
				23:[Income<59663.8164] yes=41,no=42,missing=41
					41:[Hours<49] yes=63,no=64,missing=63
						63:leaf=-0.0596183613
						64:leaf=0.0836161003
					42:[Age<53] yes=65,no=66,missing=65
						65:leaf=0.269162267
						66:leaf=-0.171437442
				24:[Age<45] yes=43,no=44,missing=43
					43:leaf=-0.348106146
					44:leaf=-0.0562534668
		6:[Income<42217.7734] yes=13,no=14,missing=13
			13:[Income<4613.76025] yes=25,no=26,missing=25
				25:leaf=0.0716177151
				26:leaf=0.351803124
			14:[Hours<29] yes=27,no=28,missing=27
				27:leaf=-0.178066477
				28:leaf=0.232186243
booster[4]
0:[Marital=Married] yes=2,no=1
	1:[Age<28] yes=3,no=4,missing=4
		3:[Hours<54] yes=7,no=8,missing=7
			7:[Income<257047.719] yes=15,no=16,missing=15
				15:[Marital=Unmarried] yes=30,no=29
					29:leaf=-0.33984983
					30:leaf=-0.0954795629
				16:leaf=-0.052232746
			8:leaf=-0.0411606058
		4:[Income<79492.5469] yes=9,no=10,missing=9
			9:[Gender=Female] yes=18,no=17
				17:[Occupation=Executive] yes=32,no=31
					31:[Occupation=Professional] yes=54,no=53
						53:leaf=-0.117768228
						54:leaf=0.115586609
					32:[Hours<54] yes=55,no=56,missing=56
						55:leaf=0.0114851519
						56:leaf=0.246120781
				18:[Education=Bachelor] yes=34,no=33
					33:[Age<32] yes=57,no=58,missing=58
						57:leaf=0.0177049823
						58:leaf=-0.314809978
					34:[Marital=Absent] yes=60,no=59
						59:leaf=0.0996310413
						60:leaf=-0.204405859
			10:[Age<29] yes=19,no=20,missing=20
				19:[Income<104138.719] yes=35,no=36,missing=36
					35:leaf=0.0970138758
					36:leaf=-0.0575368553
				20:[Employment=Consultant] yes=38,no=37
					37:[Age<33] yes=61,no=62,missing=61
						61:leaf=-0.306610823
						62:leaf=-0.208253533
					38:[Hours<39] yes=63,no=64,missing=64
						63:leaf=0.090934813
						64:leaf=-0.181269705
	2:[Occupation=Executive] yes=6,no=5
		5:[Occupation=Professional] yes=12,no=11
			11:[Age<26] yes=21,no=22,missing=22
				21:leaf=-0.344821185
				22:[Occupation=Clerical] yes=40,no=39
					39:[Hours<37] yes=65,no=66,missing=66
						65:leaf=-0.248245016
						66:leaf=-0.0482337549
					40:[Income<34966.5156] yes=67,no=68,missing=68
						67:leaf=-0.248694479
						68:leaf=0.304948509
			12:[Age<63] yes=23,no=24,missing=24
				23:[Income<46008.7031] yes=41,no=42,missing=42
					41:[Income<32602.4043] yes=69,no=70,missing=70
						69:leaf=0.18115066
						70:leaf=-0.0764704347
					42:[Gender=Male] yes=72,no=71
						71:leaf=0.118723229
						72:leaf=0.359211147
				24:[Hours<46] yes=43,no=44,missing=44
					43:leaf=-0.169962183
					44:leaf=0.0437651873
		6:[Hours<31] yes=13,no=14,missing=13
			13:[Age<52] yes=25,no=26,missing=26
				25:[Age<36] yes=45,no=46,missing=46
					45:leaf=-0.141985506
					46:leaf=0.218308717
				26:[Education=HSgrad] yes=48,no=47
					47:[Income<31185.8828] yes=73,no=74,missing=73
						73:leaf=-0.200865224
						74:leaf=0.0697249621
					48:leaf=-0.252812326
			14:[Income<384797.469] yes=27,no=28,missing=28
				27:[Age<51] yes=49,no=50,missing=49
					49:[Income<29142.0059] yes=75,no=76,missing=76
						75:leaf=0.14755699
						76:leaf=0.345384449
					50:[Age<58] yes=77,no=78,missing=78
						77:leaf=-0.0347062871
						78:leaf=0.248287231
				28:[Gender=Male] yes=52,no=51
					51:leaf=0.18204692
					52:[Age<39] yes=79,no=80,missing=79
						79:leaf=-0.184893668
						80:leaf=0.0871444494
booster[5]
0:[Marital=Absent] yes=2,no=1
	1:[Age<26] yes=3,no=4,missing=4
		3:[Marital=Unmarried] yes=8,no=7
			7:leaf=-0.306708515
			8:leaf=-0.0648915693
		4:[Education=HSgrad] yes=10,no=9
			9:[Hours<49] yes=15,no=16,missing=16
				15:[Income<20654.7949] yes=25,no=26,missing=26
					25:[Age<47] yes=37,no=38,missing=38
						37:leaf=0.0157709848
						38:leaf=0.335871756
					26:[Age<43] yes=39,no=40,missing=40
						39:leaf=-0.194216356
						40:leaf=-0.0370278358
				16:[Education=College] yes=28,no=27
					27:[Age<59] yes=41,no=42,missing=41
						41:leaf=0.0637489632
						42:leaf=0.348286241
					28:[Employment=Private] yes=44,no=43
						43:leaf=0.0949368849
						44:leaf=-0.242911726
			10:[Employment=SelfEmp] yes=18,no=17
				17:[Income<40285.5156] yes=29,no=30,missing=29
					29:[Income<29738.5664] yes=45,no=46,missing=45
						45:leaf=-0.15632391
						46:leaf=0.0709855855
					30:[Marital=Married] yes=48,no=47
						47:leaf=-0.307847023
						48:leaf=-0.119849198
				18:leaf=0.292734087
	2:[Age<26] yes=5,no=6,missing=5
		5:[Employment=Consultant] yes=12,no=11
			11:[Income<34488.1719] yes=19,no=20,missing=20
				19:leaf=-0.117429808
				20:[Occupation=Cleaner] yes=32,no=31
					31:leaf=-0.323468775
					32:leaf=-0.126368642
			12:leaf=-0.0857045203
		6:[Income<117855.625] yes=13,no=14,missing=14
			13:[Hours<50] yes=21,no=22,missing=21
				21:[Education=Bachelor] yes=34,no=33
					33:[Education=Master] yes=50,no=49
						49:leaf=-0.245060086
						50:leaf=0.049934186
					34:[Income<70833.7344] yes=51,no=52,missing=52
						51:leaf=-0.0310844481
						52:leaf=0.193783224
				22:[Gender=Male] yes=36,no=35
					35:leaf=-0.13294892
					36:leaf=0.31240052
			14:[Income<194386.391] yes=23,no=24,missing=23
				23:leaf=-0.291848898
				24:leaf=-0.108142398
booster[6]
0:[Age<26] yes=1,no=2,missing=2
	1:[Marital=Unmarried] yes=4,no=3
		3:[Occupation=Executive] yes=8,no=7
			7:[Occupation=Cleaner] yes=14,no=13
				13:leaf=-0.321365565
				14:leaf=-0.131793365
			8:leaf=-0.0985700563
		4:leaf=-0.0557134524
	2:[Marital=Married] yes=6,no=5
		5:[Education=Doctorate] yes=10,no=9
			9:[Gender=Female] yes=16,no=15
				15:[Income<119603.695] yes=21,no=22,missing=21
					21:[Age<50] yes=27,no=28,missing=27
						27:leaf=-0.0709468201
						28:leaf=0.0819575638
					22:[Employment=Consultant] yes=30,no=29
						29:leaf=-0.316342026
						30:leaf=-0.00203909562
				16:[Income<115874.875] yes=23,no=24,missing=23
					23:[Hours<48] yes=31,no=32,missing=31
						31:leaf=-0.259449273
						32:leaf=-0.0390937924
					24:[Hours<140] yes=33,no=34,missing=34
						33:leaf=-0.21193181
						34:leaf=0.206939563
			10:[Income<66304.8438] yes=17,no=18,missing=17
				17:leaf=0.28950128
				18:leaf=0.0844794512
		6:[Education=Yr9] yes=12,no=11
			11:[Education=Yr7t8] yes=20,no=19
				19:[Education=HSgrad] yes=26,no=25
					25:[Education=Yr10] yes=36,no=35
						35:leaf=0.0585435405
						36:leaf=-0.2680628
					26:[Income<18889.3047] yes=37,no=38,missing=38
						37:leaf=-0.323186129
						38:leaf=-0.0315582715
				20:leaf=-0.314996302
			12:leaf=-0.32354638
booster[7]
0:[Age<26] yes=1,no=2,missing=2
	1:[Marital=Unmarried] yes=4,no=3
		3:[Occupation=Executive] yes=8,no=7
			7:[Occupation=Cleaner] yes=14,no=13
				13:leaf=-0.307403475
				14:leaf=-0.11384169
			8:leaf=-0.0822825879
		4:leaf=-0.0478404686
	2:[Occupation=Service] yes=6,no=5
		5:[Marital=Absent] yes=10,no=9
			9:[Education=Yr10] yes=16,no=15
				15:[Occupation=Cleaner] yes=24,no=23
					23:[Marital=Divorced] yes=34,no=33
						33:leaf=0.0183144473
						34:leaf=-0.138084963
					24:[Age<56] yes=35,no=36,missing=35
						35:leaf=-0.303468287
						36:leaf=0.0298024341
				16:[Income<149890.312] yes=25,no=26,missing=26
					25:leaf=-0.330087423
					26:leaf=-0.0620856173
			10:[Income<117855.625] yes=17,no=18,missing=18
				17:[Income<73737.6172] yes=27,no=28,missing=28
					27:[Age<33] yes=37,no=38,missing=37
						37:leaf=-0.245757982
						38:leaf=0.0353830308
					28:[Gender=Female] yes=40,no=39
						39:leaf=0.11380928
						40:leaf=-0.201979741
				18:[Occupation=Clerical] yes=30,no=29
					29:[Age<30] yes=41,no=42,missing=42
						41:leaf=-0.10132055
						42:leaf=-0.309409261
					30:leaf=0.0601597317
		6:[Age<52] yes=11,no=12,missing=11
			11:[Income<26828.3984] yes=19,no=20,missing=20
				19:leaf=-0.0244088043
				20:[Age<46] yes=31,no=32,missing=31
					31:leaf=-0.305714786
					32:leaf=-0.0814201236
			12:[Income<40015.2031] yes=21,no=22,missing=21
				21:leaf=-0.230705038
				22:leaf=0.214201257
booster[8]
0:[Age<26] yes=1,no=2,missing=2
	1:[Marital=Unmarried] yes=4,no=3
		3:[Occupation=Executive] yes=8,no=7
			7:[Occupation=Cleaner] yes=14,no=13
				13:leaf=-0.295253456
				14:leaf=-0.0981073529
			8:leaf=-0.0685675442
		4:leaf=-0.041085016
	2:[Occupation=Executive] yes=6,no=5
		5:[Occupation=Service] yes=10,no=9
			9:[Occupation=Farming] yes=16,no=15
				15:[Education=Yr10] yes=24,no=23
					23:[Occupation=Cleaner] yes=36,no=35
						35:leaf=-0.0191739611
						36:leaf=-0.2286468
					24:[Income<224025.172] yes=37,no=38,missing=38
						37:leaf=-0.298475862
						38:leaf=-0.0506962724
				16:[Hours<53] yes=25,no=26,missing=25
					25:leaf=-0.339485914
					26:leaf=0.0125044882
			10:[Age<52] yes=17,no=18,missing=17
				17:[Income<26828.3984] yes=27,no=28,missing=28
					27:leaf=-0.0201708116
					28:[Age<46] yes=39,no=40,missing=39
						39:leaf=-0.278638393
						40:leaf=-0.0701002628
				18:[Income<40015.2031] yes=29,no=30,missing=29
					29:leaf=-0.206605211
					30:leaf=0.174515128
		6:[Employment=Consultant] yes=12,no=11
			11:[Education=HSgrad] yes=20,no=19
				19:[Education=College] yes=32,no=31
					31:[Employment=Private] yes=42,no=41
						41:leaf=0.0569976978
						42:leaf=0.228707716
					32:[Employment=Private] yes=44,no=43
						43:leaf=0.025699066
						44:leaf=-0.22327818
				20:[Income<35791.5508] yes=33,no=34,missing=34
					33:leaf=0.147904739
					34:leaf=-0.215312555
			12:[Gender=Male] yes=22,no=21
				21:leaf=-0.224600926
				22:leaf=-0.0666001588
booster[9]
0:[Marital=Absent] yes=2,no=1
	1:[Hours<38] yes=3,no=4,missing=4
		3:[Income<200617.656] yes=7,no=8,missing=8
			7:[Education=Bachelor] yes=16,no=15
				15:[Hours<17] yes=29,no=30,missing=30
					29:[Marital=Married] yes=52,no=51
						51:leaf=0.138713181
						52:leaf=-0.193942681
					30:leaf=-0.297441453
				16:[Employment=Private] yes=32,no=31
					31:leaf=-0.255931884
					32:leaf=0.242739215
			8:[Age<46] yes=17,no=18,missing=17
				17:[Age<43] yes=33,no=34,missing=34
					33:[Marital=Married] yes=54,no=53
						53:leaf=-0.186020911
						54:leaf=0.120255381
					34:[Income<823566.5] yes=55,no=56,missing=56
						55:leaf=0.366316497
						56:leaf=0.05063143
				18:leaf=-0.174825817
		4:[Employment=PSState] yes=10,no=9
			9:[Occupation=Transport] yes=20,no=19
				19:[Occupation=Machinist] yes=36,no=35
					35:[Education=HSgrad] yes=58,no=57
						57:leaf=0.0300823096
						58:leaf=-0.0617544279
					36:[Age<48] yes=59,no=60,missing=59
						59:leaf=-0.0601598807
						60:leaf=-0.326351941
				20:[Age<43] yes=37,no=38,missing=37
					37:[Hours<43] yes=61,no=62,missing=61
						61:leaf=-0.314098358
						62:leaf=-0.0903961509
					38:[Income<50143.5312] yes=63,no=64,missing=64
						63:leaf=0.179679558
						64:leaf=-0.192041054
			10:[Age<66] yes=21,no=22,missing=22
				21:[Occupation=Executive] yes=40,no=39
					39:[Age<46] yes=65,no=66,missing=66
						65:leaf=0.0975093618
						66:leaf=0.468353808
					40:leaf=0.032264024
				22:leaf=-0.137795061
	2:[Age<27] yes=5,no=6,missing=5
		5:[Income<35584.4688] yes=11,no=12,missing=12
			11:leaf=-0.0225990005
			12:[Occupation=Clerical] yes=24,no=23
				23:[Occupation=Cleaner] yes=42,no=41
					41:leaf=-0.262940705
					42:leaf=-0.0422564819
				24:[Gender=Male] yes=44,no=43
					43:leaf=-0.189351559
					44:leaf=0.086502865
		6:[Income<90457.6797] yes=13,no=14,missing=14
			13:[Occupation=Clerical] yes=26,no=25
				25:[Gender=Female] yes=46,no=45
					45:[Age<40] yes=67,no=68,missing=68
						67:leaf=0.20093587
						68:leaf=-0.0547919348
					46:[Age<41] yes=69,no=70,missing=70
						69:leaf=-0.196152762
						70:leaf=0.0430792011
				26:leaf=-0.231300175
			14:[Age<31] yes=27,no=28,missing=28
				27:[Hours<43] yes=47,no=48,missing=48
					47:leaf=0.0775302351
					48:[Income<105457.719] yes=71,no=72,missing=72
						71:leaf=0.0163639598
						72:leaf=-0.172862113
				28:[Hours<37] yes=49,no=50,missing=49
					49:leaf=-0.0152786383
					50:leaf=-0.273025662
booster[10]
0:[Age<26] yes=1,no=2,missing=2
	1:[Hours<39] yes=3,no=4,missing=3
		3:leaf=-0.27819252
		4:[Income<165257.078] yes=7,no=8,missing=8
			7:leaf=-0.234630272
			8:[Age<24] yes=13,no=14,missing=14
				13:leaf=-0.0141021907
				14:leaf=0.067276679
	2:[Education=Doctorate] yes=6,no=5
		5:[Marital=Married] yes=10,no=9
			9:[Education=Bachelor] yes=16,no=15
				15:[Income<53177.4375] yes=21,no=22,missing=21
					21:[Marital=Divorced] yes=30,no=29
						29:leaf=-0.00556630036
						30:leaf=-0.237846062
					22:[Hours<53] yes=31,no=32,missing=32
						31:leaf=-0.205923483
						32:leaf=-0.0397301242
				16:[Employment=Private] yes=24,no=23
					23:[Income<91207.5312] yes=33,no=34,missing=34
						33:leaf=-0.0409990363
						34:leaf=-0.262101799
					24:[Age<43] yes=35,no=36,missing=36
						35:leaf=0.0477692522
						36:leaf=0.262768298
			10:[Age<64] yes=17,no=18,missing=17
				17:[Education=Yr7t8] yes=26,no=25
					25:[Occupation=Farming] yes=38,no=37
						37:leaf=0.0272900555
						38:leaf=-0.22325325
					26:leaf=-0.258067489
				18:[Income<49936.5391] yes=27,no=28,missing=28
					27:[Age<69] yes=39,no=40,missing=40
						39:leaf=-0.0940023884
						40:leaf=0.0151390554
					28:leaf=-0.29831475
		6:[Income<174557.406] yes=11,no=12,missing=12
			11:[Age<51] yes=19,no=20,missing=20
				19:leaf=-0.0644985586
				20:leaf=0.156757936
			12:leaf=0.336380988
booster[11]
0:[Age<24] yes=1,no=2,missing=2
	1:[Income<685879.438] yes=3,no=4,missing=4
		3:leaf=-0.265920073
		4:leaf=-0.0607429408
	2:[Occupation=Service] yes=6,no=5
		5:[Education=Yr10] yes=8,no=7
			7:[Occupation=Cleaner] yes=12,no=11
				11:[Age<65] yes=17,no=18,missing=17
					17:[Age<37] yes=23,no=24,missing=23
						23:leaf=-0.0260290485
						24:leaf=0.0409817584
					18:[Income<49162.6172] yes=25,no=26,missing=26
						25:leaf=-0.0319823399
						26:leaf=-0.311306
				12:[Age<55] yes=19,no=20,missing=19
					19:[Hours<29] yes=27,no=28,missing=27
						27:leaf=-0.0404353403
						28:leaf=-0.286929905
					20:leaf=0.0594559871
			8:[Gender=Male] yes=14,no=13
				13:leaf=-0.0399508737
				14:leaf=-0.267665386
		6:[Age<52] yes=9,no=10,missing=9
			9:[Income<26828.3984] yes=15,no=16,missing=16
				15:leaf=-0.0317787677
				16:[Employment=Private] yes=22,no=21
					21:[Marital=Married] yes=30,no=29
						29:leaf=-0.196198821
						30:leaf=0.0883245766
					22:leaf=-0.285507321
			10:leaf=-0.00542422105
booster[12]
0:[Marital=Absent] yes=2,no=1
	1:[Education=Yr7t8] yes=4,no=3
		3:[Occupation=Repair] yes=8,no=7
			7:[Employment=SelfEmp] yes=14,no=13
				13:[Income<42017.5] yes=23,no=24,missing=23
					23:[Education=College] yes=40,no=39
						39:leaf=0.0435949899
						40:leaf=-0.0836874396
					24:[Education=HSgrad] yes=42,no=41
						41:leaf=-0.0128141986
						42:leaf=-0.167608872
				14:[Age<39] yes=25,no=26,missing=25
					25:leaf=0.397629887
					26:[Age<45] yes=43,no=44,missing=44
						43:leaf=-0.280673921
						44:leaf=0.0934787318
			8:[Income<34699.2188] yes=15,no=16,missing=15
				15:[Gender=Male] yes=28,no=27
					27:[Hours<120] yes=45,no=46,missing=46
						45:leaf=-0.123625033
						46:leaf=0.317926258
					28:[Age<59] yes=47,no=48,missing=48
						47:leaf=-0.345893502
						48:leaf=-0.0465049669
				16:[Employment=Private] yes=30,no=29
					29:[Age<44] yes=49,no=50,missing=49
						49:leaf=-0.194978729
						50:leaf=0.0718822554
					30:[Age<41] yes=51,no=52,missing=52
						51:leaf=0.429355979
						52:leaf=0.0851809904
		4:leaf=-0.261266172
	2:[Income<105867.188] yes=5,no=6,missing=6
		5:[Income<74004.1094] yes=9,no=10,missing=10
			9:[Hours<41] yes=17,no=18,missing=17
				17:[Education=Bachelor] yes=32,no=31
					31:[Income<62935.7109] yes=53,no=54,missing=54
						53:leaf=-0.279238939
						54:leaf=-0.0855744854
					32:[Income<46307.0195] yes=55,no=56,missing=56
						55:leaf=0.127362639
						56:leaf=-0.189485699
				18:[Age<29] yes=33,no=34,missing=33
					33:leaf=-0.174569026
					34:leaf=0.289524615
			10:[Gender=Female] yes=20,no=19
				19:[Income<79761.1562] yes=35,no=36,missing=36
					35:leaf=0.320623726
					36:[Income<88274.1328] yes=57,no=58,missing=58
						57:leaf=-0.190522209
						58:leaf=0.133687168
				20:leaf=-0.151913941
		6:[Occupation=Clerical] yes=12,no=11
			11:[Age<31] yes=21,no=22,missing=22
				21:[Age<28] yes=37,no=38,missing=38
					37:leaf=-0.181643397
					38:leaf=0.108663596
				22:leaf=-0.277342379
			12:leaf=0.063188754
booster[13]
0:[Age<24] yes=1,no=2,missing=2
	1:[Income<685879.438] yes=3,no=4,missing=4
		3:leaf=-0.2470925
		4:leaf=-0.0377142727
	2:[Occupation=Service] yes=6,no=5
		5:[Occupation=Farming] yes=8,no=7
			7:[Education=Yr10] yes=12,no=11
				11:[Occupation=Cleaner] yes=18,no=17
					17:[Age<65] yes=25,no=26,missing=25
						25:leaf=0.0126664117
						26:leaf=-0.167106852
					18:[Hours<45] yes=27,no=28,missing=28
						27:leaf=-0.26088655
						28:leaf=0.00492831506
				12:[Income<103535.281] yes=19,no=20,missing=20
					19:leaf=-0.24147211
					20:leaf=-0.0372060612
			8:[Age<44] yes=13,no=14,missing=14
				13:leaf=0.00518957991
				14:leaf=-0.303451687
		6:[Hours<44] yes=9,no=10,missing=10
			9:[Income<59761.7969] yes=15,no=16,missing=16
				15:[Age<41] yes=21,no=22,missing=21
					21:leaf=0.224375397
					22:leaf=-0.0963144004
				16:[Age<46] yes=23,no=24,missing=23
					23:leaf=-0.225455746
					24:leaf=0.0365321673
			10:leaf=-0.253360987
booster[14]
0:[Hours<38] yes=1,no=2,missing=2
	1:[Income<200617.656] yes=3,no=4,missing=3
		3:[Income<40782.9766] yes=7,no=8,missing=7
			7:[Education=Bachelor] yes=16,no=15
				15:[Employment=Consultant] yes=24,no=23
					23:[Hours<18] yes=37,no=38,missing=38
						37:leaf=0.0693668276
						38:leaf=-0.207533583
					24:leaf=0.101623639
				16:[Employment=Private] yes=26,no=25
					25:leaf=-0.0445762314
					26:leaf=0.305132389
			8:[Hours<36] yes=17,no=18,missing=18
				17:[Employment=Consultant] yes=28,no=27
					27:[Age<57] yes=39,no=40,missing=39
						39:leaf=-0.30278033
						40:leaf=-0.0575225353
					28:leaf=-0.0662836209
				18:leaf=0.0778749883
		4:[Age<126] yes=9,no=10,missing=10
			9:leaf=-0.0910838097
			10:leaf=0.311156809
	2:[Income<218236.219] yes=5,no=6,missing=5
		5:[Occupation=Transport] yes=12,no=11
			11:[Education=Professional] yes=20,no=19
				19:[Marital=Married] yes=30,no=29
					29:[Income<13304.0898] yes=41,no=42,missing=42
						41:leaf=-0.294027001
						42:leaf=-0.0158387888
					30:[Income<46681.6016] yes=43,no=44,missing=43
						43:leaf=-0.00310234819
						44:leaf=0.172485381
				20:[Income<110921.484] yes=31,no=32,missing=32
					31:leaf=0.325049043
					32:leaf=-0.0589998327
			12:[Age<43] yes=21,no=22,missing=21
				21:[Hours<43] yes=33,no=34,missing=33
					33:leaf=-0.284787863
					34:[Age<29] yes=45,no=46,missing=45
						45:leaf=0.156279773
						46:leaf=-0.236820579
				22:[Age<55] yes=35,no=36,missing=36
					35:[Income<50143.5312] yes=47,no=48,missing=48
						47:leaf=0.234806791
						48:leaf=-0.0452589914
					36:leaf=-0.266722977
		6:[Income<272097.281] yes=13,no=14,missing=14
			13:leaf=-0.258796096
			14:leaf=-0.0340613835
booster[15]
0:[Education=Doctorate] yes=2,no=1
	1:[Hours<69] yes=3,no=4,missing=3
		3:[Occupation=Farming] yes=8,no=7
			7:[Age<37] yes=11,no=12,missing=12
				11:[Education=College] yes=14,no=13
					13:[Occupation=Executive] yes=18,no=17
						17:leaf=-0.0642299429
						18:leaf=0.137938216
					14:[Income<15944.9707] yes=19,no=20,missing=20
						19:leaf=0.119450554
						20:leaf=-0.25968501
				12:[Hours<59] yes=15,no=16,missing=15
					15:[Marital=Unmarried] yes=22,no=21
						21:leaf=0.0162338801
						22:leaf=-0.257971525
					16:[Income<35372.5156] yes=23,no=24,missing=24
						23:leaf=0.0933691636
						24:leaf=-0.2268814
			8:leaf=-0.275802583
		4:[Income<32927.8633] yes=9,no=10,missing=10
			9:leaf=-0.155532569
			10:leaf=0.306066453
	2:[Income<53413.7148] yes=5,no=6,missing=6
		5:leaf=-0.0091815684
		6:leaf=0.254084677
booster[16]
0:[Education=Yr7t8] yes=2,no=1
	1:[Occupation=Service] yes=4,no=3
		3:[Education=Yr11] yes=6,no=5
			5:[Education=HSgrad] yes=10,no=9
				9:[Occupation=Clerical] yes=18,no=17
					17:[Occupation=Repair] yes=26,no=25
						25:leaf=0.0383792818
						26:leaf=-0.069586508
					18:[Age<39] yes=27,no=28,missing=27
						27:leaf=-0.252006978
						28:leaf=0.120309435
				10:[Income<18714.3398] yes=19,no=20,missing=20
					19:leaf=-0.250441104
					20:[Income<67088.8594] yes=29,no=30,missing=29
						29:leaf=0.014264497
						30:leaf=-0.150384337
			6:[Income<97700.6406] yes=11,no=12,missing=12
				11:leaf=-0.255049169
				12:leaf=-0.0491314903
		4:[Hours<44] yes=7,no=8,missing=8
			7:[Income<59761.7969] yes=13,no=14,missing=14
				13:[Age<39] yes=21,no=22,missing=21
					21:leaf=0.22661148
					22:leaf=-0.0894917697
				14:[Age<46] yes=23,no=24,missing=23
					23:leaf=-0.208144888
					24:leaf=0.0273616631
			8:[Income<57994.0312] yes=15,no=16,missing=15
				15:leaf=-0.258737475
				16:leaf=-0.0656264797
	2:leaf=-0.239383996
booster[17]
0:[Education=Yr10] yes=2,no=1
	1:[Education=Yr7t8] yes=4,no=3
		3:[Age<24] yes=7,no=8,missing=8
			7:[Income<13359.1846] yes=9,no=10,missing=9
				9:leaf=-0.0150604453
				10:leaf=-0.217279077
			8:[Education=Yr5t6] yes=12,no=11
				11:[Marital=Absent] yes=14,no=13
					13:[Occupation=Protective] yes=16,no=15
						15:leaf=0.00633536
						16:leaf=0.166242957
					14:[Income<117855.625] yes=17,no=18,missing=18
						17:leaf=-0.0175673421
						18:leaf=-0.157010108
				12:leaf=-0.204929337
		4:leaf=-0.218494132
	2:[Income<96070.9062] yes=5,no=6,missing=6
		5:leaf=-0.231601566
		6:leaf=-0.0328355804
booster[18]
0:[Education=Professional] yes=2,no=1
	1:[Education=Master] yes=4,no=3
		3:[Marital=Divorced] yes=8,no=7
			7:[Employment=SelfEmp] yes=12,no=11
				11:[Education=Yr5t6] yes=18,no=17
					17:[Hours<51] yes=29,no=30,missing=29
						29:leaf=-0.000848060299
						30:leaf=-0.0923095569
					18:leaf=-0.271721989
				12:[Age<39] yes=19,no=20,missing=19
					19:[Age<36] yes=31,no=32,missing=32
						31:leaf=0.07872729
						32:leaf=0.305426806
					20:[Hours<37] yes=33,no=34,missing=33
						33:leaf=-0.211116105
						34:leaf=0.0860126019
			8:[Age<37] yes=13,no=14,missing=13
				13:[Income<67517.9141] yes=21,no=22,missing=22
					21:leaf=-0.0327640288
					22:leaf=-0.273050904
				14:[Age<45] yes=23,no=24,missing=24
					23:[Gender=Female] yes=36,no=35
						35:leaf=0.23012197
						36:leaf=-0.0554718785
					24:[Occupation=Professional] yes=38,no=37
						37:leaf=-0.222039148
						38:leaf=0.154630229
		4:[Gender=Female] yes=10,no=9
			9:[Occupation=Professional] yes=16,no=15
				15:[Age<58] yes=25,no=26,missing=26
					25:leaf=0.256738871
					26:[Income<40320.9375] yes=39,no=40,missing=39
						39:leaf=-0.0675510988
						40:leaf=0.123037234
				16:[Age<55] yes=27,no=28,missing=28
					27:[Income<26881.0742] yes=41,no=42,missing=41
						41:leaf=-0.276601851
						42:leaf=-0.0198024735
					28:leaf=0.232444391
			10:leaf=-0.13785322
	2:[Income<110921.484] yes=5,no=6,missing=6
		5:leaf=0.255998433
		6:leaf=-0.0460542068
booster[19]
0:[Education=Yr9] yes=2,no=1
	1:[Hours<38] yes=3,no=4,missing=4
		3:[Income<73744.6172] yes=7,no=8,missing=8
			7:[Income<40782.9766] yes=11,no=12,missing=12
				11:[Hours<26] yes=19,no=20,missing=20
					19:[Income<24240.5195] yes=29,no=30,missing=30
						29:leaf=0.00130311726
						30:leaf=0.162502706
					20:[Employment=Private] yes=32,no=31
						31:leaf=-0.258615434
						32:leaf=0.00937230512
				12:leaf=-0.291693538
			8:[Age<32] yes=13,no=14,missing=14
				13:leaf=-0.196534917
				14:[Age<45] yes=21,no=22,missing=21
					21:[Education=HSgrad] yes=34,no=33
						33:leaf=0.194176272
						34:leaf=-0.0323145799
					22:[Gender=Female] yes=36,no=35
						35:leaf=0.0441990234
						36:leaf=-0.203090757
		4:[Employment=PSState] yes=10,no=9
			9:[Employment=Consultant] yes=16,no=15
				15:[Occupation=Machinist] yes=24,no=23
					23:[Hours<49] yes=37,no=38,missing=37
						37:leaf=-0.000584608992
						38:leaf=0.0623159297
					24:[Age<32] yes=39,no=40,missing=40
						39:leaf=0.176169977
						40:leaf=-0.158385247
				16:[Hours<67] yes=25,no=26,missing=26
					25:[Age<49] yes=41,no=42,missing=41
						41:leaf=-0.286203086
						42:leaf=0.070546113
					26:[Income<83188.4531] yes=43,no=44,missing=44
						43:leaf=0.208106235
						44:leaf=-0.0458528548
			10:[Age<66] yes=17,no=18,missing=18
				17:[Age<42] yes=27,no=28,missing=28
					27:leaf=0.0193598494
					28:leaf=0.293360263
				18:leaf=-0.115497336
	2:[Age<40] yes=5,no=6,missing=5
		5:leaf=-0.0544630997
		6:leaf=-0.22267428
booster[20]
0:[Occupation=Farming] yes=2,no=1
	1:[Occupation=Service] yes=4,no=3
		3:[Education=Yr11] yes=8,no=7
			7:[Age<44] yes=11,no=12,missing=12
				11:[Employment=Consultant] yes=18,no=17
					17:[Marital=Married] yes=24,no=23
						23:leaf=-0.0621314794
						24:leaf=0.0377626531
					18:[Hours<38] yes=25,no=26,missing=25
						25:leaf=-0.0163527448
						26:leaf=-0.289534867
				12:[Marital=Absent] yes=20,no=19
					19:[Education=Yr10] yes=28,no=27
						27:leaf=0.0359460115
						28:leaf=-0.201499656
					20:[Education=Bachelor] yes=30,no=29
						29:leaf=-0.148602068
						30:leaf=0.0222208761
			8:[Income<81724.7188] yes=13,no=14,missing=14
				13:leaf=-0.220744446
				14:leaf=-0.04372067
		4:[Hours<39] yes=9,no=10,missing=9
			9:leaf=-0.197693601
			10:[Income<38435.8672] yes=15,no=16,missing=15
				15:[Gender=Male] yes=22,no=21
					21:leaf=-0.00615104055
					22:leaf=-0.221697122
				16:leaf=0.147258863
	2:[Age<44] yes=5,no=6,missing=6
		5:leaf=0.0229533762
		6:leaf=-0.248878345
booster[21]
0:[Education=Doctorate] yes=2,no=1
	1:[Hours<69] yes=3,no=4,missing=3
		3:[Occupation=Farming] yes=8,no=7
			7:[Age<65] yes=11,no=12,missing=11
				11:[Age<58] yes=13,no=14,missing=13
					13:[Age<56] yes=17,no=18,missing=17
						17:leaf=-0.00529889809
						18:leaf=-0.120409444
					14:[Age<61] yes=19,no=20,missing=20
						19:leaf=0.17599842
						20:leaf=-0.0467821695
				12:[Hours<45] yes=15,no=16,missing=16
					15:leaf=-0.222010136
					16:[Age<69] yes=21,no=22,missing=22
						21:leaf=-0.0916834399
						22:leaf=0.139039636
			8:leaf=-0.23469831
		4:[Age<41] yes=9,no=10,missing=9
			9:leaf=0.299150676
			10:leaf=-0.100518048
	2:[Income<53413.7148] yes=5,no=6,missing=6
		5:leaf=-0.0248965304
		6:leaf=0.211038768
booster[22]
0:[Education=Yr7t8] yes=2,no=1
	1:[Age<24] yes=3,no=4,missing=4
		3:[Income<248971] yes=5,no=6,missing=6
			5:leaf=-0.193963245
			6:leaf=-0.0112153422
		4:[Income<4095.86499] yes=7,no=8,missing=8
			7:leaf=-0.173529804
			8:[Income<20620.3164] yes=9,no=10,missing=10
				9:[Hours<38] yes=11,no=12,missing=11
					11:[Income<9242.69922] yes=15,no=16,missing=16
						15:leaf=0.134613439
						16:leaf=-0.123816952
					12:[Income<12641.4951] yes=17,no=18,missing=18
						17:leaf=-0.0219506584
						18:leaf=0.21973826
				10:[Income<26129.6602] yes=13,no=14,missing=14
					13:[Hours<53] yes=19,no=20,missing=20
						19:leaf=-0.0863519236
						20:leaf=-0.3377859
					14:[Income<27803.4297] yes=21,no=22,missing=22
						21:leaf=0.226334527
						22:leaf=-0.0019132063
	2:leaf=-0.188412979
booster[23]
0:[Education=Yr9] yes=2,no=1
	1:[Education=College] yes=4,no=3
		3:[Education=Yr10] yes=8,no=7
			7:[Education=HSgrad] yes=12,no=11
				11:[Occupation=Clerical] yes=20,no=19
					19:[Employment=Private] yes=30,no=29
						29:leaf=-0.00807333551
						30:leaf=0.067222856
					20:[Employment=Private] yes=32,no=31
						31:leaf=0.0479437411
						32:leaf=-0.253319442
				12:[Occupation=Clerical] yes=22,no=21
					21:[Income<69738.1328] yes=33,no=34,missing=33
						33:leaf=-0.0132054901
						34:leaf=-0.25702098
					22:[Hours<39] yes=35,no=36,missing=36
						35:leaf=-0.0314305276
						36:leaf=0.235717043
			8:[Income<69538.9922] yes=13,no=14,missing=14
				13:leaf=-0.190983877
				14:leaf=-0.0288888291
		4:[Age<45] yes=9,no=10,missing=9
			9:[Employment=SelfEmp] yes=16,no=15
				15:[Income<15186.5195] yes=23,no=24,missing=24
					23:leaf=0.103673801
					24:[Income<33086.0508] yes=37,no=38,missing=38
						37:leaf=-0.321691453
						38:leaf=-0.0726460665
				16:leaf=0.175149634
			10:[Hours<37] yes=17,no=18,missing=17
				17:[Age<54] yes=25,no=26,missing=26
					25:leaf=0.0194863714
					26:leaf=-0.241688356
				18:[Income<30095.2031] yes=27,no=28,missing=27
					27:leaf=0.338222891
					28:[Age<54] yes=39,no=40,missing=40
						39:leaf=0.183623493
						40:leaf=-0.0797086656
	2:[Income<48154.3242] yes=5,no=6,missing=5
		5:leaf=-0.0313054472
		6:leaf=-0.202610239
booster[24]
0:[Occupation=Service] yes=2,no=1
	1:[Education=Yr11] yes=4,no=3
		3:[Income<62994.1172] yes=7,no=8,missing=8
			7:[Gender=Female] yes=16,no=15
				15:[Income<53660.0312] yes=21,no=22,missing=22
					21:[Income<51546.0078] yes=27,no=28,missing=28
						27:leaf=-0.00154337054
						28:leaf=0.218028471
					22:[Occupation=Executive] yes=30,no=29
						29:leaf=-0.168011501
						30:leaf=0.058342196
				16:[Income<29165.875] yes=23,no=24,missing=24
					23:leaf=0.0351363085
					24:leaf=-0.28289479
			8:[Income<64708.4219] yes=17,no=18,missing=18
				17:leaf=0.328245848
				18:[Occupation=Protective] yes=26,no=25
					25:[Age<64] yes=31,no=32,missing=31
						31:leaf=0.0113873789
						32:leaf=-0.187805191
					26:[Gender=Male] yes=34,no=33
						33:leaf=0.33440116
						34:leaf=-0.00140858965
		4:[Income<76148.5] yes=9,no=10,missing=10
			9:leaf=-0.209849909
			10:leaf=-0.0410792828
	2:[Income<59792.3047] yes=5,no=6,missing=6
		5:[Income<38371.5859] yes=11,no=12,missing=12
			11:[Age<41] yes=19,no=20,missing=20
				19:leaf=0.0521755107
				20:leaf=-0.200104177
			12:leaf=0.148863167
		6:[Age<46] yes=13,no=14,missing=13
			13:leaf=-0.227085009
			14:leaf=0.000804829528
booster[25]
0:[Employment=PSFederal] yes=2,no=1
	1:[Age<26] yes=3,no=4,missing=4
		3:[Income<164341.469] yes=7,no=8,missing=7
			7:[Age<23] yes=13,no=14,missing=14
				13:leaf=-0.0185065623
				14:leaf=-0.221754774
			8:leaf=0.053174153
		4:[Marital=Unmarried] yes=10,no=9
			9:[Income<62994.1172] yes=15,no=16,missing=16
				15:[Gender=Female] yes=24,no=23
					23:[Age<47] yes=27,no=28,missing=28
						27:leaf=-0.0415682681
						28:leaf=0.0288839899
					24:leaf=-0.228321329
				16:[Income<64708.4219] yes=25,no=26,missing=26
					25:leaf=0.247251987
					26:[Occupation=Protective] yes=30,no=29
						29:leaf=0.0122851254
						30:leaf=0.211034283
			10:[Income<79020.9062] yes=17,no=18,missing=18
				17:leaf=0.0337390527
				18:leaf=-0.223570317
	2:[Education=Bachelor] yes=6,no=5
		5:[Marital=Married] yes=12,no=11
			11:[Income<57583.0508] yes=19,no=20,missing=20
				19:leaf=0.013286083
				20:leaf=-0.203419551
			12:[Income<29342.4199] yes=21,no=22,missing=22
				21:leaf=-0.0530177467
				22:leaf=0.181712151
		6:leaf=-0.278230846
booster[26]
0:[Marital=Divorced] yes=2,no=1
	1:[Income<105320.922] yes=3,no=4,missing=3
		3:[Income<91394.5312] yes=7,no=8,missing=7
			7:[Income<89654.2109] yes=13,no=14,missing=13
				13:[Income<79476.6016] yes=25,no=26,missing=25
					25:[Income<71383.9688] yes=37,no=38,missing=37
						37:leaf=-0.00289694988
						38:leaf=0.191731781
					26:leaf=-0.19815357
				14:leaf=0.294354737
			8:[Income<100341.562] yes=15,no=16,missing=16
				15:leaf=-0.227621064
				16:leaf=-0.076027967
		4:[Income<129192.375] yes=9,no=10,missing=10
			9:[Income<115889.117] yes=17,no=18,missing=18
				17:[Income<108020.57] yes=27,no=28,missing=28
					27:leaf=0.232539013
					28:leaf=-0.115136631
				18:leaf=0.303115904
			10:[Age<48] yes=19,no=20,missing=19
				19:[Hours<28] yes=29,no=30,missing=29
					29:[Age<32] yes=39,no=40,missing=40
						39:leaf=-0.0443723314
						40:leaf=0.24819243
					30:[Marital=Married] yes=42,no=41
						41:leaf=-0.183126509
						42:leaf=0.145589635
				20:leaf=-0.195508659
	2:[Hours<53] yes=5,no=6,missing=5
		5:[Income<99596.0156] yes=11,no=12,missing=12
			11:[Income<63259.8594] yes=21,no=22,missing=22
				21:[Income<28890.0742] yes=31,no=32,missing=32
					31:leaf=-0.0230506361
					32:leaf=-0.21835655
				22:[Age<45] yes=33,no=34,missing=33
					33:leaf=0.254069835
					34:leaf=-0.0981369242
			12:[Income<216941.703] yes=23,no=24,missing=23
				23:[Education=Bachelor] yes=36,no=35
					35:[Gender=Male] yes=44,no=43
						43:leaf=-0.276122928
						44:leaf=-0.0720194206
					36:leaf=-0.0109278047
				24:leaf=0.0673621818
		6:leaf=0.136504754
booster[27]
0:[Education=Yr7t8] yes=2,no=1
	1:[Occupation=Transport] yes=4,no=3
		3:[Hours<50] yes=5,no=6,missing=6
			5:[Income<20632.7734] yes=9,no=10,missing=9
				9:[Income<18375.5391] yes=17,no=18,missing=17
					17:[Occupation=Repair] yes=32,no=31
						31:leaf=0.0487138443
						32:leaf=-0.138352931
					18:[Age<45] yes=33,no=34,missing=34
						33:leaf=0.0820472986
						34:leaf=0.32929939
				10:[Income<33715.7305] yes=19,no=20,missing=20
					19:[Income<30289.5195] yes=35,no=36,missing=36
						35:leaf=-0.0219235346
						36:leaf=-0.331143796
					20:[Income<47347.3594] yes=37,no=38,missing=38
						37:leaf=0.0625135079
						38:leaf=-0.0627430454
			6:[Income<26718.2148] yes=11,no=12,missing=11
				11:[Income<23022.1602] yes=21,no=22,missing=21
					21:[Hours<52] yes=39,no=40,missing=40
						39:leaf=0.110569797
						40:leaf=-0.0459924713
					22:[Marital=Married] yes=42,no=41
						41:leaf=-0.00437839143
						42:leaf=-0.282594025
				12:[Income<27840.1016] yes=23,no=24,missing=24
					23:[Age<40] yes=43,no=44,missing=43
						43:leaf=0.426884919
						44:leaf=0.0697809607
					24:[Income<29804.9453] yes=45,no=46,missing=46
						45:leaf=-0.153031096
						46:leaf=0.0540958755
		4:[Age<45] yes=7,no=8,missing=7
			7:[Income<41503.5859] yes=13,no=14,missing=13
				13:[Gender=Male] yes=26,no=25
					25:leaf=-0.0692290664
					26:leaf=-0.265800774
				14:[Income<50272.7812] yes=27,no=28,missing=28
					27:leaf=0.059545815
					28:leaf=-0.10777159
			8:[Age<55] yes=15,no=16,missing=16
				15:[Income<43006.7812] yes=29,no=30,missing=30
					29:leaf=0.295804769
					30:leaf=-0.00878904574
				16:leaf=-0.224466547
	2:leaf=-0.170353234
booster[28]
0:[Education=Professional] yes=2,no=1
	1:[Income<4095.86499] yes=3,no=4,missing=4
		3:leaf=-0.147018209
		4:[Income<21493.7891] yes=7,no=8,missing=8
			7:[Education=HSgrad] yes=10,no=9
				9:[Hours<52] yes=13,no=14,missing=14
					13:[Age<57] yes=21,no=22,missing=22
						21:leaf=0.0672844723
						22:leaf=0.276839465
					14:[Income<9242.69922] yes=23,no=24,missing=24
						23:leaf=0.151193798
						24:leaf=-0.0859593228
				10:[Income<18714.3398] yes=15,no=16,missing=16
					15:leaf=-0.222671032
					16:leaf=0.120902076
			8:[Income<26133.2598] yes=11,no=12,missing=12
				11:[Age<47] yes=17,no=18,missing=17
					17:[Education=HSgrad] yes=26,no=25
						25:leaf=-0.301065892
						26:leaf=-0.0248920545
					18:[Occupation=Repair] yes=28,no=27
						27:leaf=0.176132649
						28:leaf=-0.199702516
				12:[Income<30489.6094] yes=19,no=20,missing=20
					19:[Hours<54] yes=29,no=30,missing=30
						29:leaf=0.00261443667
						30:leaf=0.25290069
					20:[Income<33563.8672] yes=31,no=32,missing=32
						31:leaf=-0.186034128
						32:leaf=0.000868728152
	2:[Income<110921.484] yes=5,no=6,missing=6
		5:leaf=0.228845239
		6:leaf=-0.057521794
booster[29]
0:[Education=Yr9] yes=2,no=1
	1:[Hours<25] yes=3,no=4,missing=4
		3:[Income<37455.0039] yes=5,no=6,missing=6
			5:leaf=0.0891619399
			6:[Income<118594.555] yes=9,no=10,missing=9
				9:leaf=-0.235591546
				10:[Age<20] yes=15,no=16,missing=15
					15:leaf=0.0758357421
					16:leaf=0.00661985204
		4:[Education=Doctorate] yes=8,no=7
			7:[Hours<69] yes=11,no=12,missing=11
				11:[Occupation=Farming] yes=18,no=17
					17:[Hours<59] yes=21,no=22,missing=21
						21:leaf=0.00499827694
						22:leaf=-0.0726743788
					18:leaf=-0.213980436
				12:[Income<32927.8633] yes=19,no=20,missing=19
					19:leaf=-0.0742089823
					20:leaf=0.257794261
			8:[Income<53413.7148] yes=13,no=14,missing=14
				13:leaf=-0.0470514745
				14:leaf=0.215400472
	2:leaf=-0.134873882
booster[30]
0:[Education=Yr10] yes=2,no=1
	1:[Employment=PSLocal] yes=4,no=3
		3:[Income<4095.86499] yes=5,no=6,missing=6
			5:leaf=-0.179607674
			6:[Education=Master] yes=10,no=9
				9:[Marital=Divorced] yes=14,no=13
					13:[Income<105320.922] yes=21,no=22,missing=21
						21:leaf=0.000667189364
						22:leaf=0.0648699105
					14:[Age<39] yes=23,no=24,missing=23
						23:leaf=-0.159221545
						24:leaf=-0.00331684225
				10:[Age<42] yes=15,no=16,missing=15
					15:[Age<37] yes=25,no=26,missing=26
						25:leaf=-0.0579804704
						26:leaf=0.203306332
					16:[Income<23505.7812] yes=27,no=28,missing=27
						27:leaf=-0.166300267
						28:leaf=0.111693233
		4:[Age<32] yes=7,no=8,missing=7
			7:leaf=-0.28854683
			8:[Marital=Married] yes=12,no=11
				11:[Gender=Female] yes=18,no=17
					17:leaf=-0.193263158
					18:leaf=-0.0432394594
				12:[Income<30439.9414] yes=19,no=20,missing=19
					19:leaf=0.271251708
					20:leaf=0.0145458439
	2:leaf=-0.126946524
booster[31]
0:[Education=Professional] yes=2,no=1
	1:[Employment=PSFederal] yes=4,no=3
		3:[Education=Vocational] yes=8,no=7
			7:[Occupation=Machinist] yes=12,no=11
				11:[Education=College] yes=18,no=17
					17:[Occupation=Support] yes=30,no=29
						29:leaf=0.0200390052
						30:leaf=-0.213648126
					18:[Age<36] yes=31,no=32,missing=32
						31:leaf=-0.215483919
						32:leaf=0.00167262193
				12:[Income<49140.6211] yes=19,no=20,missing=19
					19:[Income<38554.3047] yes=33,no=34,missing=33
						33:leaf=-0.0544083752
						34:leaf=0.265241146
					20:leaf=-0.254043967
			8:[Income<5717.30469] yes=13,no=14,missing=13
				13:[Hours<39] yes=21,no=22,missing=21
					21:leaf=0.168326855
					22:leaf=0.0386744216
				14:[Age<50] yes=23,no=24,missing=24
					23:leaf=-0.29964599
					24:[Marital=Married] yes=36,no=35
						35:leaf=-0.175945535
						36:leaf=0.136223063
		4:[Education=Bachelor] yes=10,no=9
			9:[Marital=Married] yes=16,no=15
				15:[Hours<140] yes=25,no=26,missing=26
					25:leaf=-0.18641305
					26:leaf=-0.00150204834
				16:[Income<51471.9102] yes=27,no=28,missing=28
					27:leaf=-0.0243693702
					28:leaf=0.18811743
			10:leaf=-0.222176686
	2:[Hours<53] yes=5,no=6,missing=6
		5:leaf=-0.0488365181
		6:leaf=0.246219665
booster[32]
0:[Education=Yr5t6] yes=2,no=1
	1:[Education=Yr11] yes=4,no=3
		3:[Occupation=Service] yes=6,no=5
			5:[Hours<25] yes=9,no=10,missing=10
				9:[Hours<17] yes=13,no=14,missing=14
					13:[Marital=Married] yes=20,no=19
						19:leaf=0.124798551
						20:leaf=-0.0919970572
					14:leaf=-0.192149103
				10:[Occupation=Farming] yes=16,no=15
					15:[Occupation=Repair] yes=22,no=21
						21:leaf=0.0130205201
						22:leaf=-0.0294726454
					16:[Age<47] yes=23,no=24,missing=24
						23:leaf=0.0234862641
						24:leaf=-0.18045257
			6:[Income<59792.3047] yes=11,no=12,missing=12
				11:[Hours<43] yes=17,no=18,missing=18
					17:leaf=0.12581785
					18:leaf=-0.104115546
				12:leaf=-0.191219643
		4:[Income<55338.1094] yes=7,no=8,missing=7
			7:leaf=-0.228032514
			8:leaf=0.0750226676
	2:leaf=-0.137347966
booster[33]
0:[Age<65] yes=1,no=2,missing=1
	1:[Occupation=Cleaner] yes=4,no=3
		3:[Age<24] yes=7,no=8,missing=8
			7:leaf=-0.189116195
			8:[Education=Yr10] yes=14,no=13
				13:[Income<12641.4951] yes=19,no=20,missing=20
					19:[Marital=Married] yes=22,no=21
						21:leaf=-0.217640907
						22:leaf=0.00766227813
					20:[Income<15243.3496] yes=23,no=24,missing=24
						23:leaf=0.182770088
						24:leaf=0.0056898836
				14:leaf=-0.185572177
		4:[Age<43] yes=9,no=10,missing=10
			9:[Hours<36] yes=15,no=16,missing=15
				15:leaf=0.102695808
				16:leaf=-0.02968999
			10:leaf=-0.222657755
	2:[Income<76135.0938] yes=5,no=6,missing=6
		5:[Income<37478.0391] yes=11,no=12,missing=12
			11:[Income<19683.7109] yes=17,no=18,missing=18
				17:leaf=0.0105208727
				18:leaf=-0.149444416
			12:leaf=0.157769531
		6:leaf=-0.219752148
booster[34]
0:[Education=Professional] yes=2,no=1
	1:[Education=Yr9] yes=4,no=3
		3:[Employment=PSFederal] yes=8,no=7
			7:[Education=Yr5t6] yes=10,no=9
				9:[Education=Yr11] yes=14,no=13
					13:[Income<31045.1992] yes=17,no=18,missing=17
						17:leaf=0.0154600209
						18:leaf=-0.0109545486
					14:[Income<70595.4062] yes=19,no=20,missing=19
						19:leaf=-0.206850156
						20:leaf=0.0687696263
				10:leaf=-0.118441798
			8:[Age<38] yes=11,no=12,missing=12
				11:leaf=0.0699832067
				12:[Gender=Male] yes=16,no=15
					15:leaf=0.0265858583
					16:[Income<43567.9375] yes=21,no=22,missing=22
						21:leaf=-0.0485234261
						22:leaf=-0.258332223
		4:leaf=-0.114617437
	2:[Income<110921.484] yes=5,no=6,missing=6
		5:leaf=0.195946082
		6:leaf=-0.0571478792
booster[35]
0:[Marital=Unmarried] yes=2,no=1
	1:[Age<26] yes=3,no=4,missing=4
		3:[Hours<39] yes=7,no=8,missing=7
			7:leaf=-0.178805679
			8:leaf=0.0106066596
		4:[Age<27] yes=9,no=10,missing=10
			9:[Income<34537.125] yes=11,no=12,missing=11
				11:leaf=0.239466757
				12:leaf=-0.0823168308
			10:[Income<46681.6016] yes=13,no=14,missing=13
				13:[Income<44313.9531] yes=15,no=16,missing=15
					15:[Income<42787.7852] yes=19,no=20,missing=19
						19:leaf=-0.00712507172
						20:leaf=0.142539918
					16:[Employment=Private] yes=22,no=21
						21:leaf=-0.00792592671
						22:leaf=-0.302965134
				14:[Income<47558.6758] yes=17,no=18,missing=18
					17:leaf=0.311145186
					18:[Hours<50] yes=23,no=24,missing=24
						23:leaf=-0.0342977941
						24:leaf=0.0485732295
	2:[Hours<38] yes=5,no=6,missing=5
		5:leaf=-0.208879873
		6:leaf=0.0462544113
booster[36]
0:[Marital=Widowed] yes=2,no=1
	1:[Education=HSgrad] yes=4,no=3
		3:[Age<31] yes=7,no=8,missing=7
			7:[Hours<45] yes=11,no=12,missing=11
				11:[Employment=PSLocal] yes=20,no=19
					19:[Employment=Consultant] yes=30,no=29
						29:leaf=0.0178785808
						30:leaf=0.261814326
					20:leaf=-0.242408261
				12:[Occupation=Executive] yes=22,no=21
					21:[Hours<51] yes=31,no=32,missing=32
						31:leaf=-0.0755566508
						32:leaf=-0.253314972
					22:[Gender=Male] yes=34,no=33
						33:leaf=0.133181363
						34:leaf=-0.09299393
			8:[Occupation=Protective] yes=14,no=13
				13:[Employment=Consultant] yes=24,no=23
					23:[Occupation=Machinist] yes=36,no=35
						35:leaf=0.033014033
						36:leaf=-0.171895772
					24:[Age<57] yes=37,no=38,missing=38
						37:leaf=-0.175406411
						38:leaf=0.150751114
				14:leaf=0.307114005
		4:[Occupation=Clerical] yes=10,no=9
			9:[Income<69738.1328] yes=15,no=16,missing=15
				15:[Income<18714.3398] yes=25,no=26,missing=25
					25:[Marital=Married] yes=40,no=39
						39:leaf=-0.225867584
						40:leaf=-0.00893556606
					26:[Age<41] yes=41,no=42,missing=41
						41:leaf=0.0904367939
						42:leaf=-0.0455930308
				16:leaf=-0.229496166
			10:[Age<58] yes=17,no=18,missing=18
				17:leaf=-0.0213332176
				18:[Income<119332.875] yes=27,no=28,missing=28
					27:leaf=0.0638713762
					28:leaf=0.238562673
	2:[Employment=Private] yes=6,no=5
		5:leaf=0.112997629
		6:leaf=-0.225679964
booster[37]
0:[Age<65] yes=1,no=2,missing=1
	1:[Employment=PSState] yes=4,no=3
		3:[Occupation=Service] yes=8,no=7
			7:[Education=Yr11] yes=14,no=13
				13:[Age<37] yes=21,no=22,missing=22
					21:[Age<34] yes=27,no=28,missing=28
						27:leaf=0.0132272942
						28:leaf=-0.120872907
					22:[Age<41] yes=29,no=30,missing=30
						29:leaf=0.0776294991
						30:leaf=-0.00121003715
				14:leaf=-0.1214948
			8:[Income<59792.3047] yes=15,no=16,missing=16
				15:[Age<54] yes=23,no=24,missing=24
					23:leaf=-0.0652931035
					24:leaf=0.13279289
				16:[Income<89643.7812] yes=25,no=26,missing=25
					25:leaf=-0.202807859
					26:leaf=-0.0545754246
		4:[Age<47] yes=9,no=10,missing=9
			9:[Hours<42] yes=17,no=18,missing=18
				17:leaf=-0.189942405
				18:leaf=0.157545716
			10:leaf=0.2345296
	2:[Income<76135.0938] yes=5,no=6,missing=6
		5:[Income<37478.0391] yes=11,no=12,missing=12
			11:[Income<19683.7109] yes=19,no=20,missing=20
				19:leaf=0.0137393503
				20:leaf=-0.13724111
			12:leaf=0.126690805
		6:leaf=-0.201274499
booster[38]
0:[Employment=PSFederal] yes=2,no=1
	1:[Income<88155.2656] yes=3,no=4,missing=3
		3:[Income<79511.2969] yes=7,no=8,missing=7
			7:[Hours<34] yes=13,no=14,missing=14
				13:[Income<40782.9766] yes=19,no=20,missing=20
					19:[Hours<26] yes=25,no=26,missing=26
						25:leaf=0.0810115486
						26:leaf=-0.059716519
					20:[Gender=Female] yes=28,no=27
						27:leaf=-0.267405391
						28:leaf=0.0445555225
				14:[Age<43] yes=21,no=22,missing=22
					21:[Hours<49] yes=29,no=30,missing=30
						29:leaf=-0.0777134001
						30:leaf=0.023772059
					22:[Education=Bachelor] yes=32,no=31
						31:leaf=0.00543082459
						32:leaf=0.107123531
			8:leaf=-0.232991442
		4:[Income<91394.5312] yes=9,no=10,missing=10
			9:leaf=0.367460102
			10:[Income<99065.75] yes=15,no=16,missing=16
				15:leaf=-0.199711353
				16:[Occupation=Machinist] yes=24,no=23
					23:[Occupation=Professional] yes=34,no=33
						33:leaf=0.0792746544
						34:leaf=-0.0865150541
					24:leaf=-0.190908954
	2:[Education=Bachelor] yes=6,no=5
		5:[Marital=Married] yes=12,no=11
			11:leaf=-0.113462821
			12:[Income<51471.9102] yes=17,no=18,missing=18
				17:leaf=-0.0134908613
				18:leaf=0.161805138
		6:leaf=-0.19316332
booster[39]
0:[Education=Professional] yes=2,no=1
	1:[Marital=Divorced] yes=4,no=3
		3:[Income<105320.922] yes=7,no=8,missing=8
			7:[Income<91394.5312] yes=11,no=12,missing=12
				11:[Gender=Female] yes=20,no=19
					19:[Occupation=Sales] yes=32,no=31
						31:leaf=-0.00785559975
						32:leaf=0.10371884
					20:[Income<42601.1719] yes=33,no=34,missing=34
						33:leaf=0.00716434978
						34:leaf=-0.18138434
				12:[Gender=Female] yes=22,no=21
					21:leaf=-0.206443325
					22:leaf=-0.0500566959
			8:[Income<129192.375] yes=13,no=14,missing=14
				13:[Income<115889.117] yes=23,no=24,missing=24
					23:[Income<107911.703] yes=35,no=36,missing=36
						35:leaf=0.201553941
						36:leaf=-0.118636452
					24:leaf=0.228864357
				14:[Occupation=Sales] yes=26,no=25
					25:[Age<48] yes=37,no=38,missing=37
						37:leaf=0.0424206294
						38:leaf=-0.0703929663
					26:[Hours<39] yes=39,no=40,missing=39
						39:leaf=-0.240269214
						40:leaf=-0.0246161483
		4:[Education=Bachelor] yes=10,no=9
			9:[Income<63259.8594] yes=15,no=16,missing=15
				15:[Occupation=Executive] yes=28,no=27
					27:leaf=-0.258516818
					28:leaf=0.0175826661
				16:[Income<71224.0156] yes=29,no=30,missing=30
					29:leaf=0.247352466
					30:[Hours<58] yes=41,no=42,missing=42
						41:leaf=0.0373465382
						42:leaf=-0.218404904
			10:[Hours<43] yes=17,no=18,missing=18
				17:leaf=-0.0695019811
				18:leaf=0.178007379
	2:[Income<110921.484] yes=5,no=6,missing=6
		5:leaf=0.180295616
		6:leaf=-0.0505252779
booster[40]
0:[Occupation=Farming] yes=2,no=1
	1:[Income<218067.469] yes=3,no=4,missing=3
		3:[Income<193089.312] yes=5,no=6,missing=5
			5:[Income<166201.062] yes=9,no=10,missing=9
				9:[Marital=Unmarried] yes=16,no=15
					15:[Income<88155.2656] yes=19,no=20,missing=19
						19:leaf=-0.00264981762
						20:leaf=0.0608381219
					16:[Income<79020.9062] yes=21,no=22,missing=22
						21:leaf=0.0175986867
						22:leaf=-0.200907052
				10:[Gender=Female] yes=18,no=17
					17:leaf=-0.0149807623
					18:leaf=-0.213957369
			6:[Age<25] yes=11,no=12,missing=11
				11:leaf=0.219678238
				12:leaf=0.0421952754
		4:[Hours<29] yes=7,no=8,missing=8
			7:leaf=0.114805505
			8:[Income<272097.281] yes=13,no=14,missing=14
				13:leaf=-0.227118492
				14:leaf=-0.0141568808
	2:leaf=-0.0969617516
booster[41]
0:[Marital=Absent] yes=2,no=1
	1:[Income<20620.3164] yes=3,no=4,missing=4
		3:[Income<18711.9141] yes=7,no=8,missing=8
			7:[Education=HSgrad] yes=16,no=15
				15:[Age<38] yes=31,no=32,missing=31
					31:[Age<36] yes=47,no=48,missing=48
						47:leaf=-0.00623038178
						48:leaf=0.163021773
					32:[Occupation=Repair] yes=50,no=49
						49:leaf=0.0887956843
						50:leaf=-0.276884079
				16:[Age<46] yes=33,no=34,missing=34
					33:leaf=-0.0564943478
					34:leaf=-0.212185293
			8:[Age<45] yes=17,no=18,missing=18
				17:leaf=0.0196488351
				18:leaf=0.285787672
		4:[Income<26245.6504] yes=9,no=10,missing=10
			9:[Income<25291.7051] yes=19,no=20,missing=20
				19:[Hours<53] yes=35,no=36,missing=36
					35:[Income<22124.0352] yes=51,no=52,missing=52
						51:leaf=-0.144360855
						52:leaf=0.218476802
					36:leaf=-0.245883718
				20:[Hours<40] yes=37,no=38,missing=37
					37:leaf=-0.0687004179
					38:leaf=-0.307352513
			10:[Income<30489.6094] yes=21,no=22,missing=22
				21:[Hours<54] yes=39,no=40,missing=40
					39:[Age<42] yes=53,no=54,missing=53
						53:leaf=-0.1157263
						54:leaf=0.197272047
					40:[Occupation=Executive] yes=56,no=55
						55:leaf=0.3011612
						56:leaf=-0.212907985
				22:[Income<33563.8672] yes=41,no=42,missing=42
					41:[Hours<48] yes=57,no=58,missing=57
						57:leaf=-0.202485204
						58:leaf=0.0300115291
					42:[Income<34032.8672] yes=59,no=60,missing=60
						59:leaf=0.191699848
						60:leaf=0.00232192595
	2:[Age<44] yes=5,no=6,missing=6
		5:[Age<39] yes=11,no=12,missing=12
			11:[Hours<39] yes=23,no=24,missing=23
				23:leaf=-0.170143828
				24:[Occupation=Professional] yes=44,no=43
					43:[Gender=Male] yes=62,no=61
						61:leaf=-0.212491199
						62:leaf=0.102660082
					44:leaf=0.260164499
			12:[Gender=Male] yes=26,no=25
				25:leaf=0.0405008532
				26:leaf=0.2105591
		6:[Education=Bachelor] yes=14,no=13
			13:[Income<89687.9922] yes=27,no=28,missing=28
				27:leaf=-0.222778767
				28:[Income<91812.2891] yes=45,no=46,missing=45
					45:leaf=0.110678077
					46:leaf=-0.198836491
			14:[Hours<17] yes=29,no=30,missing=29
				29:leaf=0.168709859
				30:leaf=-0.141979322
booster[42]
0:[Education=Doctorate] yes=2,no=1
	1:[Age<65] yes=3,no=4,missing=3
		3:[Hours<69] yes=7,no=8,missing=7
			7:[Occupation=Farming] yes=12,no=11
				11:[Age<44] yes=15,no=16,missing=15
					15:[Age<41] yes=17,no=18,missing=17
						17:leaf=-0.0038461017
						18:leaf=-0.0876775086
					16:[Occupation=Protective] yes=20,no=19
						19:leaf=0.0147838136
						20:leaf=0.218600705
				12:leaf=-0.182740897
			8:[Hours<78] yes=13,no=14,missing=14
				13:leaf=0.200689301
				14:leaf=-0.0658394545
		4:[Hours<45] yes=9,no=10,missing=10
			9:leaf=-0.155664355
			10:leaf=-0.00197335915
	2:[Income<53413.7148] yes=5,no=6,missing=6
		5:leaf=-0.0565832183
		6:leaf=0.163390324
booster[43]
0:[Occupation=Transport] yes=2,no=1
	1:[Education=College] yes=4,no=3
		3:[Income<26202.4297] yes=7,no=8,missing=8
			7:[Income<25018.1602] yes=15,no=16,missing=16
				15:[Hours<52] yes=27,no=28,missing=28
					27:[Age<45] yes=41,no=42,missing=41
						41:leaf=0.122963421
						42:leaf=-0.0332879126
					28:[Income<9231.84961] yes=43,no=44,missing=44
						43:leaf=0.0712264031
						44:leaf=-0.138246655
				16:[Hours<63] yes=29,no=30,missing=30
					29:leaf=-0.319149375
					30:leaf=-0.031583935
			8:[Income<40991.5234] yes=17,no=18,missing=18
				17:[Income<36532.7266] yes=31,no=32,missing=32
					31:[Employment=Private] yes=46,no=45
						45:leaf=-0.0776428282
						46:leaf=0.0784708336
					32:[Age<32] yes=47,no=48,missing=48
						47:leaf=-0.0640413016
						48:leaf=0.199042007
				18:[Income<42563.0703] yes=33,no=34,missing=34
					33:[Occupation=Executive] yes=50,no=49
						49:leaf=-0.254040092
						50:leaf=-0.0395959876
					34:[Occupation=Support] yes=52,no=51
						51:leaf=0.0137388958
						52:leaf=-0.128117487
		4:[Employment=Private] yes=10,no=9
			9:[Employment=Consultant] yes=20,no=19
				19:[Age<40] yes=35,no=36,missing=36
					35:[Income<56187.4766] yes=53,no=54,missing=54
						53:leaf=0.0592764355
						54:leaf=-0.214345202
					36:[Age<54] yes=55,no=56,missing=55
						55:leaf=0.185987756
						56:leaf=-0.156461567
				20:leaf=-0.191305116
			10:[Income<15944.9707] yes=21,no=22,missing=21
				21:[Hours<44] yes=37,no=38,missing=38
					37:[Gender=Male] yes=58,no=57
						57:leaf=0.301218241
						58:leaf=0.0437076874
					38:[Hours<120] yes=59,no=60,missing=60
						59:leaf=-0.210119829
						60:leaf=-0.0276322905
				22:[Hours<48] yes=39,no=40,missing=39
					39:[Income<43322.1641] yes=61,no=62,missing=62
						61:leaf=-0.303368509
						62:leaf=-0.112468757
					40:leaf=0.0446592271
	2:[Age<55] yes=5,no=6,missing=6
		5:[Age<45] yes=11,no=12,missing=12
			11:[Income<46680.9453] yes=23,no=24,missing=23
				23:leaf=-0.234645128
				24:leaf=0.0504286401
			12:[Income<43006.7812] yes=25,no=26,missing=26
				25:leaf=0.233222499
				26:leaf=0.0162923113
		6:[Income<42015.4648] yes=13,no=14,missing=14
			13:leaf=0.0524280407
			14:leaf=-0.266250461
booster[44]
0:[Employment=PSState] yes=2,no=1
	1:[Occupation=Service] yes=4,no=3
		3:[Education=Yr11] yes=8,no=7
			7:[Income<129192.375] yes=13,no=14,missing=13
				13:[Income<115889.117] yes=17,no=18,missing=17
					17:[Income<105867.188] yes=21,no=22,missing=21
						21:leaf=0.00122152257
						22:leaf=-0.160334468
					18:[Age<35] yes=23,no=24,missing=23
						23:leaf=0.186505511
						24:leaf=0.00793731771
				14:[Age<48] yes=19,no=20,missing=19
					19:[Marital=Married] yes=26,no=25
						25:leaf=-0.0711607933
						26:leaf=0.128378645
					20:leaf=-0.202281818
			8:leaf=-0.112419635
		4:[Hours<41] yes=9,no=10,missing=10
			9:[Income<59761.7969] yes=15,no=16,missing=16
				15:leaf=0.0926089287
				16:leaf=-0.100653924
			10:leaf=-0.182851508
	2:[Age<66] yes=5,no=6,missing=6
		5:[Age<47] yes=11,no=12,missing=12
			11:leaf=0.0250672754
			12:leaf=0.216610521
		6:leaf=-0.109315775
booster[45]
0:[Education=Vocational] yes=2,no=1
	1:[Age<51] yes=3,no=4,missing=4
		3:[Income<12641.4951] yes=7,no=8,missing=8
			7:[Age<38] yes=15,no=16,missing=16
				15:leaf=0.0205502771
				16:leaf=-0.236744955
			8:[Income<15186.5195] yes=17,no=18,missing=18
				17:leaf=0.202400148
				18:[Age<47] yes=23,no=24,missing=24
					23:[Income<27612.6699] yes=31,no=32,missing=32
						31:leaf=-0.0804661065
						32:leaf=0.0129785771
					24:[Income<48193.1016] yes=33,no=34,missing=33
						33:leaf=0.139195591
						34:leaf=-0.0117737399
		4:[Employment=PSLocal] yes=10,no=9
			9:[Marital=Married] yes=20,no=19
				19:[Income<126385.211] yes=25,no=26,missing=25
					25:[Hours<49] yes=35,no=36,missing=35
						35:leaf=0.074993141
						36:leaf=-0.0409824252
					26:[Income<239300.688] yes=37,no=38,missing=38
						37:leaf=-0.220664382
						38:leaf=0.0409643278
				20:[Occupation=Repair] yes=28,no=27
					27:[Education=College] yes=40,no=39
						39:leaf=0.00994854793
						40:leaf=-0.163095176
					28:[Education=College] yes=42,no=41
						41:leaf=-0.256370187
						42:leaf=0.0741908327
			10:[Age<57] yes=21,no=22,missing=21
				21:[Income<26363.2852] yes=29,no=30,missing=29
					29:leaf=-0.0524341762
					30:leaf=-0.297426254
				22:leaf=0.0910104513
	2:[Income<20926.2402] yes=5,no=6,missing=5
		5:[Age<50] yes=11,no=12,missing=12
			11:leaf=-0.0534987077
			12:leaf=0.192043185
		6:[Age<50] yes=13,no=14,missing=14
			13:leaf=-0.259934902
			14:leaf=-0.058940921
booster[46]
0:[Marital=Absent] yes=2,no=1
	1:[Income<21493.7891] yes=3,no=4,missing=4
		3:[Income<18711.9141] yes=7,no=8,missing=8
			7:[Education=HSgrad] yes=16,no=15
				15:[Education=Bachelor] yes=30,no=29
					29:[Age<38] yes=39,no=40,missing=39
						39:leaf=0.122061826
						40:leaf=-0.0507982373
					30:leaf=-0.0963196233
				16:[Employment=Private] yes=32,no=31
					31:leaf=-0.0487952977
					32:leaf=-0.187018752
			8:[Hours<53] yes=17,no=18,missing=18
				17:leaf=0.198692873
				18:leaf=-0.0171459746
		4:[Income<22124.0352] yes=9,no=10,missing=10
			9:leaf=-0.248954266
			10:[Income<23022.1602] yes=19,no=20,missing=20
				19:leaf=0.20733805
				20:[Income<24137.5801] yes=33,no=34,missing=34
					33:leaf=-0.221567035
					34:[Income<25018.1602] yes=41,no=42,missing=42
						41:leaf=0.173030287
						42:leaf=-0.00281848386
	2:[Age<44] yes=5,no=6,missing=6
		5:[Age<37] yes=11,no=12,missing=12
			11:[Hours<39] yes=21,no=22,missing=21
				21:leaf=-0.187945619
				22:[Hours<41] yes=35,no=36,missing=36
					35:[Income<76841.9688] yes=43,no=44,missing=43
						43:leaf=0.193000838
						44:leaf=0.0291722156
					36:[Gender=Male] yes=46,no=45
						45:leaf=-0.181767166
						46:leaf=0.0348164402
			12:[Hours<39] yes=23,no=24,missing=23
				23:leaf=0.232871458
				24:leaf=0.000775823428
		6:[Income<91812.2891] yes=13,no=14,missing=14
			13:[Income<76019.0312] yes=25,no=26,missing=26
				25:[Hours<42] yes=37,no=38,missing=38
					37:leaf=-0.220458999
					38:leaf=0.00212710025
				26:leaf=0.182833031
			14:[Gender=Male] yes=28,no=27
				27:leaf=-0.211621776
				28:leaf=-0.0567607768
booster[47]
0:[Income<4095.86499] yes=1,no=2,missing=2
	1:leaf=-0.0992721021
	2:[Income<9242.69922] yes=3,no=4,missing=4
		3:[Age<52] yes=5,no=6,missing=6
			5:leaf=-0.00364278466
			6:leaf=0.174628198
		4:[Income<12641.4951] yes=7,no=8,missing=8
			7:[Hours<52] yes=9,no=10,missing=10
				9:leaf=-0.00766521599
				10:leaf=-0.234923109
			8:[Age<65] yes=11,no=12,missing=11
				11:[Income<21493.7891] yes=13,no=14,missing=14
					13:[Age<36] yes=17,no=18,missing=18
						17:leaf=-0.0772584379
						18:leaf=0.0945950076
					14:[Income<22124.0352] yes=19,no=20,missing=20
						19:leaf=-0.216046065
						20:leaf=-0.000406898063
				12:[Income<37478.0391] yes=15,no=16,missing=15
					15:leaf=-0.175557375
					16:leaf=0.0422030054
booster[48]
0:[Occupation=Transport] yes=2,no=1
	1:[Education=College] yes=4,no=3
		3:[Age<34] yes=7,no=8,missing=8
			7:[Age<31] yes=15,no=16,missing=16
				15:[Age<29] yes=27,no=28,missing=28
					27:[Income<88089.8281] yes=39,no=40,missing=40
						39:leaf=-0.100906745
						40:leaf=0.102435023
					28:[Marital=Absent] yes=42,no=41
						41:leaf=-0.183398858
						42:leaf=0.0525924973
				16:[Hours<49] yes=29,no=30,missing=29
					29:[Age<32] yes=43,no=44,missing=44
						43:leaf=0.181293711
						44:leaf=-0.00319389789
					30:[Income<26589.6445] yes=45,no=46,missing=45
						45:leaf=0.0445854142
						46:leaf=0.285341054
			8:[Age<37] yes=17,no=18,missing=18
				17:[Occupation=Executive] yes=32,no=31
					31:[Income<49642.5547] yes=47,no=48,missing=48
						47:leaf=-0.185193479
						48:leaf=-0.0227765515
					32:leaf=0.0719237402
				18:[Age<41] yes=33,no=34,missing=34
					33:[Hours<67] yes=49,no=50,missing=50
						49:leaf=-0.0346633792
						50:leaf=0.201056972
					34:[Age<42] yes=51,no=52,missing=52
						51:leaf=-0.167566672
						52:leaf=0.00428911066
		4:[Occupation=Clerical] yes=10,no=9
			9:[Age<45] yes=19,no=20,missing=20
				19:[Hours<71] yes=35,no=36,missing=36
					35:[Gender=Male] yes=54,no=53
						53:leaf=-0.0482911803
						54:leaf=-0.267540216
					36:leaf=0.079086341
				20:[Hours<37] yes=37,no=38,missing=37
					37:[Income<67578.2578] yes=55,no=56,missing=56
						55:leaf=-0.256478161
						56:leaf=-0.0206882916
					38:[Age<61] yes=57,no=58,missing=58
						57:leaf=0.203871161
						58:leaf=0.0346039571
			10:[Age<40] yes=21,no=22,missing=21
				21:leaf=-0.0663452446
				22:leaf=0.208686277
	2:[Age<55] yes=5,no=6,missing=6
		5:[Age<45] yes=11,no=12,missing=12
			11:[Income<46680.9453] yes=23,no=24,missing=23
				23:leaf=-0.211750403
				24:leaf=0.0403150246
			12:[Employment=Private] yes=26,no=25
				25:leaf=0.0100913271
				26:leaf=0.214333504
		6:[Income<42015.4648] yes=13,no=14,missing=14
			13:leaf=0.044391606
			14:leaf=-0.239080817
booster[49]
0:[Marital=Absent] yes=2,no=1
	1:[Occupation=Support] yes=4,no=3
		3:[Education=Vocational] yes=8,no=7
			7:[Age<51] yes=15,no=16,missing=16
				15:[Hours<42] yes=27,no=28,missing=28
					27:[Employment=Private] yes=38,no=37
						37:leaf=-0.0815642774
						38:leaf=0.0382033624
					28:[Employment=Private] yes=40,no=39
						39:leaf=0.0876067877
						40:leaf=-0.00658802688
				16:[Age<53] yes=29,no=30,missing=30
					29:[Income<63312.3398] yes=41,no=42,missing=42
						41:leaf=-0.195110276
						42:leaf=-0.0107456213
					30:[Employment=SelfEmp] yes=44,no=43
						43:leaf=-0.0131208031
						44:leaf=0.163880229
			8:[Gender=Male] yes=18,no=17
				17:leaf=-0.246669769
				18:[Income<22228.0254] yes=31,no=32,missing=31
					31:leaf=0.115951456
					32:leaf=-0.129858598
		4:[Gender=Male] yes=10,no=9
			9:leaf=0.241893396
			10:leaf=-0.133716822
	2:[Age<44] yes=5,no=6,missing=6
		5:[Age<39] yes=11,no=12,missing=12
			11:[Occupation=Professional] yes=20,no=19
				19:[Gender=Male] yes=34,no=33
					33:leaf=-0.1790791
					34:[Hours<39] yes=45,no=46,missing=45
						45:leaf=-0.106128789
						46:leaf=0.0487230718
				20:leaf=0.0969900265
			12:[Gender=Male] yes=22,no=21
				21:leaf=0.0227381624
				22:leaf=0.165701389
		6:[Income<91812.2891] yes=13,no=14,missing=14
			13:[Income<76019.0312] yes=23,no=24,missing=24
				23:[Hours<42] yes=35,no=36,missing=36
					35:leaf=-0.203967214
					36:leaf=0.00491916714
				24:leaf=0.14840132
			14:[Gender=Male] yes=26,no=25
				25:leaf=-0.196191385
				26:leaf=-0.0486804545
booster[50]
0:[Marital=Divorced] yes=2,no=1
	1:[Income<250060.875] yes=3,no=4,missing=3
		3:[Income<105320.922] yes=7,no=8,missing=7
			7:[Income<91394.5312] yes=13,no=14,missing=13
				13:[Income<89654.2109] yes=21,no=22,missing=21
					21:[Income<79476.6016] yes=33,no=34,missing=33
						33:leaf=0.00138429296
						34:leaf=-0.164632604
					22:leaf=0.130054742
				14:[Gender=Female] yes=24,no=23
					23:leaf=-0.180413738
					24:leaf=-0.0336189494
			8:[Gender=Male] yes=16,no=15
				15:[Age<31] yes=25,no=26,missing=26
					25:leaf=-0.0894147009
					26:[Marital=Absent] yes=36,no=35
						35:leaf=0.172399148
						36:leaf=-0.0462450981
				16:[Employment=Private] yes=28,no=27
					27:leaf=-0.164283246
					28:[Income<116331.148] yes=37,no=38,missing=38
						37:leaf=0.116077751
						38:leaf=-0.0490043275
		4:[Age<47] yes=9,no=10,missing=10
			9:leaf=0.078075245
			10:leaf=-0.219911918
	2:[Hours<53] yes=5,no=6,missing=5
		5:[Income<71224.0156] yes=11,no=12,missing=12
			11:[Income<63259.8594] yes=17,no=18,missing=18
				17:leaf=-0.110797599
				18:leaf=0.188128367
			12:[Age<45] yes=19,no=20,missing=20
				19:[Age<40] yes=29,no=30,missing=30
					29:leaf=-0.113358006
					30:leaf=0.133874238
				20:[Income<163287.125] yes=31,no=32,missing=31
					31:leaf=-0.229133815
					32:leaf=0.0375355594
		6:leaf=0.0932927579
booster[51]
0:[Education=Doctorate] yes=2,no=1
	1:[Marital=Widowed] yes=4,no=3
		3:[Income<38413.9141] yes=7,no=8,missing=8
			7:[Income<36356.0312] yes=11,no=12,missing=12
				11:[Income<35322.6484] yes=15,no=16,missing=16
					15:[Occupation=Machinist] yes=22,no=21
						21:leaf=0.0182969347
						22:leaf=-0.129576162
					16:[Age<40] yes=23,no=24,missing=24
						23:leaf=0.0502849519
						24:leaf=-0.289917886
				12:[Hours<48] yes=17,no=18,missing=17
					17:[Age<34] yes=25,no=26,missing=25
						25:leaf=0.426091552
						26:leaf=0.0306209289
					18:leaf=-0.120418511
			8:[Income<39080.6719] yes=13,no=14,missing=14
				13:leaf=-0.213456929
				14:[Age<43] yes=19,no=20,missing=19
					19:[Age<41] yes=27,no=28,missing=27
						27:leaf=-0.00607741438
						28:leaf=-0.191162795
					20:[Age<48] yes=29,no=30,missing=30
						29:leaf=0.0964681357
						30:leaf=-0.0134999026
		4:[Hours<39] yes=9,no=10,missing=9
			9:leaf=-0.18254438
			10:leaf=0.0250453092
	2:[Income<53413.7148] yes=5,no=6,missing=6
		5:leaf=-0.0632476285
		6:leaf=0.159013778
booster[52]
0:[Education=Professional] yes=2,no=1
	1:[Hours<51] yes=3,no=4,missing=3
		3:[Marital=Unmarried] yes=6,no=5
			5:[Occupation=Protective] yes=10,no=9
				9:[Marital=Divorced] yes=18,no=17
					17:[Income<45042] yes=25,no=26,missing=26
						25:leaf=-0.0119036818
						26:leaf=0.0193978418
					18:[Age<45] yes=27,no=28,missing=28
						27:leaf=0.0149677675
						28:leaf=-0.136039764
				10:[Hours<42] yes=19,no=20,missing=20
					19:leaf=0.175159782
					20:leaf=0.000527782773
			6:[Age<34] yes=11,no=12,missing=12
				11:leaf=0.0377337709
				12:leaf=-0.195707008
		4:[Occupation=Executive] yes=8,no=7
			7:[Income<57584.8359] yes=13,no=14,missing=13
				13:[Income<44557.0117] yes=21,no=22,missing=22
					21:[Employment=Private] yes=30,no=29
						29:leaf=-0.119989358
						30:leaf=0.0930536985
					22:[Age<112] yes=31,no=32,missing=32
						31:leaf=-0.297452211
						32:leaf=0.0279037375
				14:[Age<39] yes=23,no=24,missing=23
					23:leaf=-0.082626231
					24:leaf=0.170383006
			8:[Age<46] yes=15,no=16,missing=16
				15:leaf=-0.0141612794
				16:leaf=0.227298304
	2:leaf=0.0775250494
booster[53]
0:[Marital=Absent] yes=2,no=1
	1:[Employment=PSState] yes=4,no=3
		3:[Income<31045.1992] yes=7,no=8,missing=8
			7:[Income<29426.9102] yes=15,no=16,missing=16
				15:[Occupation=Repair] yes=26,no=25
					25:[Income<28461.1562] yes=39,no=40,missing=40
						39:leaf=0.036836952
						40:leaf=-0.121965177
					26:[Age<59] yes=41,no=42,missing=42
						41:leaf=-0.204984576
						42:leaf=0.0953673199
				16:[Age<36] yes=27,no=28,missing=28
					27:leaf=-0.130648509
					28:[Hours<41] yes=43,no=44,missing=43
						43:leaf=0.288634896
						44:leaf=0.0537296161
			8:[Income<33563.8672] yes=17,no=18,missing=18
				17:[Age<39] yes=29,no=30,missing=30
					29:leaf=-0.00173393555
					30:[Education=HSgrad] yes=46,no=45
						45:leaf=-0.261313736
						46:leaf=-0.0035063501
				18:[Income<34032.8672] yes=31,no=32,missing=32
					31:[Age<56] yes=47,no=48,missing=48
						47:leaf=0.00683806697
						48:leaf=0.262992769
					32:[Hours<69] yes=49,no=50,missing=49
						49:leaf=-0.00606263848
						50:leaf=0.123911597
		4:[Age<66] yes=9,no=10,missing=10
			9:[Age<47] yes=19,no=20,missing=20
				19:leaf=0.0337511078
				20:leaf=0.196775943
			10:leaf=-0.0727164
	2:[Age<44] yes=5,no=6,missing=6
		5:[Age<39] yes=11,no=12,missing=12
			11:[Hours<39] yes=21,no=22,missing=21
				21:[Income<77748.4297] yes=33,no=34,missing=33
					33:leaf=-0.178110421
					34:leaf=-0.029954521
				22:[Occupation=Professional] yes=36,no=35
					35:[Gender=Male] yes=52,no=51
						51:leaf=-0.177840814
						52:leaf=0.0394104458
					36:leaf=0.178138614
			12:leaf=0.110242017
		6:[Education=Bachelor] yes=14,no=13
			13:[Income<89687.9922] yes=23,no=24,missing=24
				23:leaf=-0.200050488
				24:[Hours<41] yes=37,no=38,missing=38
					37:leaf=0.10484647
					38:leaf=-0.165293604
			14:leaf=0.00680448161
booster[54]
0:[Education=Doctorate] yes=2,no=1
	1:[Marital=Widowed] yes=4,no=3
		3:[Age<65] yes=7,no=8,missing=7
			7:[Age<58] yes=9,no=10,missing=9
				9:[Age<57] yes=13,no=14,missing=13
					13:[Income<67006.5312] yes=17,no=18,missing=18
						17:leaf=0.0118380757
						18:leaf=-0.0172201693
					14:[Income<27674.6992] yes=19,no=20,missing=19
						19:leaf=0.0873983279
						20:leaf=-0.172339663
				10:[Income<44621.7539] yes=15,no=16,missing=15
					15:[Income<31177.9453] yes=21,no=22,missing=22
						21:leaf=-0.0288756937
						22:leaf=0.164656848
					16:[Gender=Male] yes=24,no=23
						23:leaf=0.0675098747
						24:leaf=-0.11929293
			8:[Hours<45] yes=11,no=12,missing=12
				11:leaf=-0.12337555
				12:leaf=0.0107769426
		4:leaf=-0.0921003371
	2:[Marital=Married] yes=6,no=5
		5:leaf=0.140320465
		6:leaf=-0.0370900035
booster[55]
0:[Occupation=Service] yes=2,no=1
	1:[Occupation=Farming] yes=4,no=3
		3:[Income<4095.86499] yes=7,no=8,missing=8
			7:leaf=-0.0898942575
			8:[Income<9242.69922] yes=11,no=12,missing=12
				11:[Hours<45] yes=13,no=14,missing=14
					13:leaf=-0.0111649735
					14:leaf=0.147806153
				12:[Income<12641.4951] yes=15,no=16,missing=16
					15:[Hours<52] yes=17,no=18,missing=18
						17:leaf=-0.00887517538
						18:leaf=-0.212565482
					16:[Age<34] yes=19,no=20,missing=20
						19:leaf=0.0266360063
						20:leaf=-0.00222625141
		4:leaf=-0.0853153616
	2:[Hours<44] yes=5,no=6,missing=6
		5:[Income<59761.7969] yes=9,no=10,missing=10
			9:leaf=0.0643580928
			10:leaf=-0.0503852591
		6:leaf=-0.14991571
booster[56]
0:[Employment=PSFederal] yes=2,no=1
	1:[Education=Associate] yes=4,no=3
		3:[Employment=PSLocal] yes=8,no=7
			7:[Education=Yr10] yes=14,no=13
				13:[Income<3958.44482] yes=19,no=20,missing=20
					19:leaf=-0.130485922
					20:[Age<61] yes=23,no=24,missing=23
						23:leaf=0.0125669418
						24:leaf=-0.0476620756
				14:leaf=-0.167872399
			8:[Marital=Married] yes=16,no=15
				15:leaf=-0.259136111
				16:[Education=HSgrad] yes=22,no=21
					21:[Age<51] yes=25,no=26,missing=26
						25:leaf=0.251078069
						26:leaf=-0.00850359071
					22:leaf=-0.125019416
		4:[Marital=Married] yes=10,no=9
			9:leaf=-0.19592917
			10:[Income<45425.0352] yes=17,no=18,missing=17
				17:leaf=0.173373327
				18:leaf=-0.0920391455
	2:[Income<56890.8086] yes=5,no=6,missing=6
		5:[Income<26754.1055] yes=11,no=12,missing=12
			11:leaf=-0.11960607
			12:leaf=0.135980815
		6:leaf=-0.151831388
booster[57]
0:[Marital=Absent] yes=2,no=1
	1:[Hours<42] yes=3,no=4,missing=3
		3:[Occupation=Protective] yes=8,no=7
			7:[Occupation=Professional] yes=16,no=15
				15:[Age<32] yes=25,no=26,missing=26
					25:[Age<31] yes=45,no=46,missing=46
						45:leaf=0.00962731987
						46:leaf=0.17905961
					26:[Income<70823.4375] yes=47,no=48,missing=47
						47:leaf=-0.0427050889
						48:leaf=0.0501377396
				16:[Income<74620.4141] yes=27,no=28,missing=27
					27:[Income<26349.0254] yes=49,no=50,missing=50
						49:leaf=-0.124563478
						50:leaf=0.14988026
					28:[Employment=Private] yes=52,no=51
						51:leaf=-0.0398715436
						52:leaf=-0.209650099
			8:leaf=0.136587366
		4:[Gender=Male] yes=10,no=9
			9:[Age<35] yes=17,no=18,missing=18
				17:[Income<38882.7266] yes=29,no=30,missing=30
					29:leaf=0.0430456251
					30:leaf=0.209482357
				18:[Hours<46] yes=31,no=32,missing=32
					31:[Age<50] yes=53,no=54,missing=54
						53:leaf=0.276082873
						54:leaf=0.011707087
					32:[Income<35467.4453] yes=55,no=56,missing=56
						55:leaf=0.117108144
						56:leaf=-0.119443938
			10:[Age<33] yes=19,no=20,missing=19
				19:[Income<34697.4062] yes=33,no=34,missing=34
					33:[Income<20322.4609] yes=57,no=58,missing=58
						57:leaf=-0.0103124715
						58:leaf=-0.253793716
					34:[Income<42015.4648] yes=59,no=60,missing=60
						59:leaf=0.120594226
						60:leaf=-0.0816334262
				20:[Hours<56] yes=35,no=36,missing=36
					35:[Income<34978.4258] yes=61,no=62,missing=61
						61:leaf=0.00139527943
						62:leaf=0.220758811
					36:[Age<41] yes=63,no=64,missing=64
						63:leaf=0.072209172
						64:leaf=-0.136871189
	2:[Hours<44] yes=5,no=6,missing=5
		5:[Income<74004.1094] yes=11,no=12,missing=12
			11:[Age<33] yes=21,no=22,missing=21
				21:[Income<41448.9688] yes=37,no=38,missing=38
					37:leaf=-0.0472757593
					38:leaf=-0.195163921
				22:[Income<43297.0938] yes=39,no=40,missing=40
					39:leaf=-0.0241679084
					40:leaf=0.0636914745
			12:[Income<105867.188] yes=23,no=24,missing=23
				23:[Hours<28] yes=41,no=42,missing=41
					41:[Income<95896.5234] yes=65,no=66,missing=66
						65:leaf=0.0597268306
						66:leaf=-0.101893023
					42:[Age<33] yes=67,no=68,missing=67
						67:leaf=0.237544328
						68:leaf=0.0105606085
				24:[Age<30] yes=43,no=44,missing=43
					43:leaf=-0.161302
					44:leaf=0.0376197919
		6:[Education=HSgrad] yes=14,no=13
			13:leaf=-0.173081741
			14:leaf=0.0499173962
booster[58]
0:[Age<42] yes=1,no=2,missing=2
	1:[Employment=Consultant] yes=4,no=3
		3:[Marital=Married] yes=8,no=7
			7:[Income<19421.2109] yes=15,no=16,missing=15
				15:[Occupation=Executive] yes=24,no=23
					23:[Marital=Absent] yes=36,no=35
						35:leaf=-0.264662653
						36:leaf=0.0149175338
					24:[Age<32] yes=37,no=38,missing=38
						37:leaf=0.12252374
						38:leaf=-0.0171286948
				16:[Income<27803.4297] yes=25,no=26,missing=26
					25:[Education=Bachelor] yes=40,no=39
						39:leaf=0.0519931875
						40:leaf=0.245154873
					26:[Hours<54] yes=41,no=42,missing=42
						41:leaf=-0.0993149281
						42:leaf=0.0554052703
			8:[Income<16138.3594] yes=17,no=18,missing=17
				17:[Gender=Female] yes=28,no=27
					27:[Income<12641.4951] yes=43,no=44,missing=43
						43:leaf=0.00648336532
						44:leaf=0.236142531
					28:leaf=0.31484735
				18:[Occupation=Repair] yes=30,no=29
					29:[Income<51099.2695] yes=45,no=46,missing=46
						45:leaf=-0.127895325
						46:leaf=0.0713462234
					30:[Income<39455.125] yes=47,no=48,missing=48
						47:leaf=0.221288353
						48:leaf=-0.0108965738
		4:[Hours<67] yes=9,no=10,missing=10
			9:leaf=-0.257377386
			10:leaf=-0.0199380647
	2:[Occupation=Support] yes=6,no=5
		5:[Employment=PSFederal] yes=12,no=11
			11:[Education=Vocational] yes=20,no=19
				19:[Age<51] yes=31,no=32,missing=32
					31:[Hours<59] yes=49,no=50,missing=49
						49:leaf=0.0635782778
						50:leaf=-0.144263849
					32:[Marital=Married] yes=52,no=51
						51:leaf=0.0316947475
						52:leaf=-0.0260805674
				20:[Age<50] yes=33,no=34,missing=34
					33:leaf=-0.166563973
					34:[Marital=Married] yes=54,no=53
						53:leaf=-0.0993218049
						54:leaf=0.105563909
			12:[Gender=Male] yes=22,no=21
				21:leaf=0.0349743143
				22:leaf=-0.170694843
		6:[Income<37662.2578] yes=13,no=14,missing=13
			13:leaf=0.291713119
			14:leaf=-0.0995649472
booster[59]
0:[Income<247382.422] yes=1,no=2,missing=1
	1:[Income<192150.938] yes=3,no=4,missing=3
		3:[Income<151605.688] yes=7,no=8,missing=7
			7:[Income<144184.172] yes=11,no=12,missing=11
				11:[Income<129192.375] yes=17,no=18,missing=17
					17:[Income<122839.781] yes=19,no=20,missing=19
						19:leaf=-0.000185190918
						20:leaf=0.122018576
					18:leaf=-0.144733191
				12:leaf=0.144569546
			8:[Marital=Married] yes=14,no=13
				13:leaf=-0.198931471
				14:leaf=0.0370429195
		4:[Age<25] yes=9,no=10,missing=9
			9:leaf=0.20206587
			10:[Employment=Private] yes=16,no=15
				15:leaf=0.0978758484
				16:leaf=-0.163780451
	2:[Age<47] yes=5,no=6,missing=6
		5:leaf=0.0416163132
		6:leaf=-0.149230152
booster[60]
0:[Education=Doctorate] yes=2,no=1
	1:[Hours<69] yes=3,no=4,missing=3
		3:[Income<31045.1992] yes=7,no=8,missing=8
			7:[Income<29426.9102] yes=11,no=12,missing=12
				11:[Income<28790.8438] yes=15,no=16,missing=16
					15:[Income<28247.7188] yes=21,no=22,missing=22
						21:leaf=-0.00491079967
						22:leaf=0.174881607
					16:leaf=-0.140096515
				12:[Age<36] yes=17,no=18,missing=18
					17:leaf=-0.0937012956
					18:[Income<30316.5801] yes=23,no=24,missing=24
						23:leaf=0.254474401
						24:leaf=0.0557548441
			8:[Income<31572.1914] yes=13,no=14,missing=14
				13:leaf=-0.205524459
				14:[Employment=PSLocal] yes=20,no=19
					19:[Education=Associate] yes=26,no=25
						25:leaf=0.000451043161
						26:leaf=-0.0985849798
					20:[Age<32] yes=27,no=28,missing=27
						27:leaf=-0.220712155
						28:leaf=0.0179823395
		4:[Hours<78] yes=9,no=10,missing=10
			9:leaf=0.178235605
			10:leaf=-0.0406789072
	2:[Income<53413.7148] yes=5,no=6,missing=6
		5:leaf=-0.0417772569
		6:leaf=0.137732446
booster[61]
0:[Education=Professional] yes=2,no=1
	1:[Income<218067.469] yes=3,no=4,missing=3
		3:[Income<192150.938] yes=5,no=6,missing=5
			5:[Income<160829.531] yes=9,no=10,missing=9
				9:[Income<144184.172] yes=15,no=16,missing=15
					15:[Income<129192.375] yes=19,no=20,missing=19
						19:leaf=-3.47970745e-05
						20:leaf=-0.128827885
					16:leaf=0.0925164074
				10:[Employment=Private] yes=18,no=17
					17:leaf=-0.0100261457
					18:leaf=-0.184657887
			6:[Hours<31] yes=11,no=12,missing=11
				11:leaf=0.0232184827
				12:leaf=0.144634902
		4:[Hours<29] yes=7,no=8,missing=8
			7:leaf=0.0823971331
			8:[Income<272097.281] yes=13,no=14,missing=14
				13:leaf=-0.20291622
				14:leaf=0.003567565
	2:leaf=0.0730360374
booster[62]
0:[Hours<27] yes=1,no=2,missing=2
	1:[Income<40782.9766] yes=3,no=4,missing=3
		3:[Age<37] yes=7,no=8,missing=7
			7:leaf=0.0896461904
			8:leaf=-0.0561624989
		4:[Income<119489.25] yes=9,no=10,missing=10
			9:leaf=-0.19492583
			10:leaf=0.00239656679
	2:[Age<47] yes=5,no=6,missing=6
		5:[Education=Vocational] yes=12,no=11
			11:[Hours<40] yes=15,no=16,missing=16
				15:[Age<42] yes=21,no=22,missing=22
					21:leaf=-0.166181222
					22:leaf=-0.00159577921
				16:[Hours<51] yes=23,no=24,missing=23
					23:[Marital=Married] yes=30,no=29
						29:leaf=-0.025183687
						30:leaf=0.0297023971
					24:[Income<33666.6328] yes=31,no=32,missing=31
						31:leaf=-0.156659111
						32:leaf=0.0588822067
			12:leaf=-0.145815447
		6:[Occupation=Support] yes=14,no=13
			13:[Income<16377.3008] yes=17,no=18,missing=18
				17:[Income<11423.8008] yes=25,no=26,missing=26
					25:[Hours<120] yes=33,no=34,missing=34
						33:leaf=0.18088825
						34:leaf=-0.0722231865
					26:[Age<66] yes=35,no=36,missing=36
						35:leaf=-0.0488066263
						36:leaf=-0.278762162
				18:[Income<22623.8945] yes=27,no=28,missing=28
					27:[Age<51] yes=37,no=38,missing=37
						37:leaf=0.292544067
						38:leaf=-0.0758951455
					28:[Income<24826.3809] yes=39,no=40,missing=40
						39:leaf=-0.192596942
						40:leaf=0.00899005402
			14:[Income<37662.2578] yes=19,no=20,missing=19
				19:leaf=0.268898606
				20:leaf=-0.0632020757
booster[63]
0:[Hours<42] yes=1,no=2,missing=1
	1:[Education=HSgrad] yes=4,no=3
		3:[Income<70249.3906] yes=7,no=8,missing=7
			7:[Income<64004.7852] yes=15,no=16,missing=15
				15:[Income<62994.1172] yes=29,no=30,missing=29
					29:[Income<38179.1406] yes=47,no=48,missing=47
						47:leaf=0.00955934636
						48:leaf=-0.0547248051
					30:leaf=0.18619822
				16:leaf=-0.168044627
			8:[Occupation=Professional] yes=18,no=17
				17:[Hours<7] yes=31,no=32,missing=31
					31:[Marital=Divorced] yes=50,no=49
						49:leaf=0.16867879
						50:leaf=-0.00906645507
					32:[Age<33] yes=51,no=52,missing=51
						51:leaf=-0.0541746244
						52:leaf=0.106235802
				18:[Education=Bachelor] yes=34,no=33
					33:[Age<35] yes=53,no=54,missing=53
						53:leaf=-0.174761415
						54:leaf=-0.0468261987
					34:leaf=0.0900338888
		4:[Age<32] yes=9,no=10,missing=9
			9:[Occupation=Repair] yes=20,no=19
				19:[Income<67411.9375] yes=35,no=36,missing=35
					35:[Hours<39] yes=55,no=56,missing=55
						55:leaf=0.00749827083
						56:leaf=0.21721752
					36:[Gender=Female] yes=58,no=57
						57:leaf=-0.124234729
						58:leaf=-0.00998778362
				20:leaf=-0.188807711
			10:[Age<37] yes=21,no=22,missing=22
				21:leaf=-0.256237686
				22:[Employment=Consultant] yes=38,no=37
					37:[Age<41] yes=59,no=60,missing=60
						59:leaf=0.0673505813
						60:leaf=-0.105803736
					38:leaf=0.135786384
	2:[Age<48] yes=5,no=6,missing=5
		5:[Hours<43] yes=11,no=12,missing=12
			11:leaf=0.157812208
			12:[Income<21429.2949] yes=23,no=24,missing=24
				23:[Income<13304.0898] yes=39,no=40,missing=40
					39:leaf=-0.00407077977
					40:leaf=0.152875245
				24:[Occupation=Professional] yes=42,no=41
					41:[Income<33735.3672] yes=61,no=62,missing=62
						61:leaf=-0.0939129591
						62:leaf=0.0152635593
					42:[Employment=Private] yes=64,no=63
						63:leaf=-0.199445993
						64:leaf=-0.00219007372
		6:[Income<26097.5449] yes=13,no=14,missing=13
			13:[Hours<58] yes=25,no=26,missing=26
				25:leaf=-0.13261345
				26:leaf=0.0932442844
			14:[Marital=Married] yes=28,no=27
				27:[Income<67007.8672] yes=43,no=44,missing=44
					43:leaf=-0.101160303
					44:leaf=0.126470834
				28:[Age<56] yes=45,no=46,missing=46
					45:leaf=0.263869971
					46:leaf=0.0659114569
booster[64]
0:[Age<58] yes=1,no=2,missing=1
	1:[Education=Master] yes=4,no=3
		3:[Age<56] yes=7,no=8,missing=7
			7:[Income<55810.1758] yes=13,no=14,missing=14
				13:[Income<51574.8828] yes=25,no=26,missing=26
					25:[Occupation=Executive] yes=44,no=43
						43:leaf=-0.0132417493
						44:leaf=0.0578124411
					26:[Age<29] yes=45,no=46,missing=45
						45:leaf=-0.0406005904
						46:leaf=0.281021833
				14:[Income<58035.5312] yes=27,no=28,missing=28
					27:leaf=-0.211693779
					28:[Occupation=Sales] yes=48,no=47
						47:leaf=-0.000150177846
						48:leaf=-0.106604829
			8:[Employment=Private] yes=16,no=15
				15:[Hours<42] yes=29,no=30,missing=29
					29:leaf=-0.0415420905
					30:leaf=0.11303059
				16:[Income<42563.0703] yes=31,no=32,missing=32
					31:leaf=-0.245605469
					32:leaf=0.020421451
		4:[Gender=Male] yes=10,no=9
			9:[Hours<53] yes=17,no=18,missing=18
				17:leaf=-0.131236225
				18:[Income<37355.2891] yes=33,no=34,missing=33
					33:leaf=0.148358613
					34:leaf=-0.0412827022
			10:[Income<31570.3301] yes=19,no=20,missing=20
				19:leaf=-0.0710785836
				20:[Age<31] yes=35,no=36,missing=35
					35:leaf=0.022847794
					36:leaf=0.262798041
	2:[Gender=Female] yes=6,no=5
		5:[Employment=Private] yes=12,no=11
			11:[Hours<16] yes=21,no=22,missing=21
				21:[Age<62] yes=37,no=38,missing=38
					37:leaf=-0.190665349
					38:leaf=-0.00177583657
				22:[Marital=Married] yes=40,no=39
					39:leaf=-0.0237776302
					40:[Income<25468.9297] yes=49,no=50,missing=49
						49:leaf=0.0370013379
						50:leaf=0.171412155
			12:[Marital=Married] yes=24,no=23
				23:leaf=0.232638031
				24:[Income<40442.9688] yes=41,no=42,missing=41
					41:leaf=-0.11296989
					42:leaf=0.118555263
		6:leaf=-0.131114036
booster[65]
0:[Education=College] yes=2,no=1
	1:[Occupation=Transport] yes=4,no=3
		3:[Hours<50] yes=7,no=8,missing=7
			7:[Hours<48] yes=13,no=14,missing=13
				13:[Age<54] yes=23,no=24,missing=24
					23:[Age<52] yes=39,no=40,missing=40
						39:leaf=-0.0050440249
						40:leaf=-0.184028596
					24:[Income<16377.3008] yes=41,no=42,missing=42
						41:leaf=-0.10506434
						42:leaf=0.0386846475
				14:leaf=-0.259059429
			8:[Age<37] yes=15,no=16,missing=16
				15:[Age<32] yes=25,no=26,missing=26
					25:[Age<29] yes=43,no=44,missing=44
						43:leaf=0.090827845
						44:leaf=-0.0598569959
					26:[Age<35] yes=45,no=46,missing=46
						45:leaf=0.246348947
						46:leaf=0.0481011569
				16:[Income<23022.1602] yes=27,no=28,missing=28
					27:[Hours<53] yes=47,no=48,missing=48
						47:leaf=0.168692738
						48:leaf=0.0110470457
					28:[Income<33738.8789] yes=49,no=50,missing=50
						49:leaf=-0.170774326
						50:leaf=0.0171301868
		4:[Age<55] yes=9,no=10,missing=10
			9:[Age<45] yes=17,no=18,missing=18
				17:leaf=-0.0768159479
				18:[Age<52] yes=29,no=30,missing=30
					29:leaf=0.0406862274
					30:leaf=0.174872592
			10:leaf=-0.189743802
	2:[Hours<37] yes=5,no=6,missing=6
		5:leaf=-0.1733803
		6:[Age<45] yes=11,no=12,missing=12
			11:[Hours<71] yes=19,no=20,missing=20
				19:[Age<31] yes=31,no=32,missing=32
					31:leaf=-0.0033712869
					32:[Age<40] yes=51,no=52,missing=52
						51:leaf=-0.232056454
						52:leaf=-0.0518771708
				20:[Income<86295.5469] yes=33,no=34,missing=34
					33:leaf=0.0884898156
					34:leaf=0.00903310347
			12:[Hours<53] yes=21,no=22,missing=22
				21:[Gender=Female] yes=36,no=35
					35:[Marital=Married] yes=54,no=53
						53:leaf=0.274073243
						54:leaf=0.0191563144
					36:leaf=-0.057683859
				22:[Income<67578.2578] yes=37,no=38,missing=38
					37:leaf=-0.184059128
					38:[Marital=Married] yes=56,no=55
						55:leaf=-0.0222364441
						56:leaf=0.150146753
booster[66]
0:[Hours<42] yes=1,no=2,missing=1
	1:[Occupation=Protective] yes=4,no=3
		3:[Education=HSgrad] yes=8,no=7
			7:[Marital=Widowed] yes=14,no=13
				13:[Income<191756.531] yes=25,no=26,missing=25
					25:[Marital=Unmarried] yes=38,no=37
						37:leaf=0.00194897212
						38:leaf=-0.175754294
					26:[Hours<26] yes=39,no=40,missing=40
						39:leaf=-0.0486217998
						40:leaf=0.118933208
				14:leaf=-0.136050031
			8:[Income<53083.375] yes=15,no=16,missing=15
				15:[Income<46471.6797] yes=27,no=28,missing=27
					27:[Occupation=Repair] yes=42,no=41
						41:leaf=-0.00293791527
						42:leaf=-0.171120241
					28:[Age<43] yes=43,no=44,missing=43
						43:leaf=0.0598532856
						44:leaf=0.237190485
				16:[Occupation=Clerical] yes=30,no=29
					29:[Employment=Private] yes=46,no=45
						45:leaf=-0.0538056232
						46:leaf=-0.236289591
					30:leaf=0.0301674176
		4:leaf=0.100221805
	2:[Employment=Consultant] yes=6,no=5
		5:[Age<33] yes=9,no=10,missing=9
			9:[Income<50490.8398] yes=17,no=18,missing=17
				17:[Hours<47] yes=31,no=32,missing=32
					31:[Employment=Private] yes=48,no=47
						47:leaf=-0.262319982
						48:leaf=0.0536032729
					32:[Gender=Male] yes=50,no=49
						49:leaf=0.130584821
						50:leaf=-0.00793487392
				18:[Marital=Married] yes=34,no=33
					33:[Income<86970.125] yes=51,no=52,missing=52
						51:leaf=-0.187596872
						52:leaf=-0.00846331473
					34:leaf=0.0172846913
			10:[Hours<45] yes=19,no=20,missing=20
				19:leaf=0.217312813
				20:[Age<35] yes=35,no=36,missing=36
					35:leaf=0.180482686
					36:[Income<19183.8789] yes=53,no=54,missing=54
						53:leaf=0.167244941
						54:leaf=0.00105272804
		6:[Age<49] yes=11,no=12,missing=12
			11:[Income<43347.5859] yes=21,no=22,missing=21
				21:leaf=-0.18818979
				22:leaf=-0.039944455
			12:[Income<51459.1055] yes=23,no=24,missing=24
				23:leaf=-0.0792569816
				24:leaf=0.06546624
booster[67]
0:[Income<194682.531] yes=1,no=2,missing=1
	1:[Income<187263.562] yes=3,no=4,missing=3
		3:[Income<160829.531] yes=7,no=8,missing=7
			7:[Marital=Unmarried] yes=12,no=11
				11:[Income<144184.172] yes=15,no=16,missing=15
					15:[Education=Yr11] yes=18,no=17
						17:leaf=0.0017671549
						18:leaf=-0.0999346748
					16:leaf=0.0986977443
				12:leaf=-0.086665228
			8:leaf=-0.123046063
		4:leaf=0.146212548
	2:[Hours<29] yes=5,no=6,missing=6
		5:leaf=0.0614837073
		6:[Age<44] yes=9,no=10,missing=9
			9:[Hours<34] yes=13,no=14,missing=13
				13:leaf=-0.0242371541
				14:leaf=-0.174877286
			10:leaf=0.00109341636
booster[68]
0:[Income<194682.531] yes=1,no=2,missing=1
	1:[Income<188279.984] yes=3,no=4,missing=3
		3:[Income<151605.688] yes=7,no=8,missing=7
			7:[Income<144184.172] yes=11,no=12,missing=11
				11:[Income<119603.695] yes=17,no=18,missing=17
					17:[Income<115773.695] yes=19,no=20,missing=19
						19:leaf=-0.000877975312
						20:leaf=0.146975711
					18:[Age<34] yes=21,no=22,missing=21
						21:leaf=0.00127744745
						22:leaf=-0.141723648
				12:leaf=0.089546293
			8:[Age<32] yes=13,no=14,missing=13
				13:leaf=-0.0138838552
				14:leaf=-0.127698466
		4:leaf=0.139240831
	2:[Age<126] yes=5,no=6,missing=6
		5:[Income<270434.281] yes=9,no=10,missing=10
			9:[Age<42] yes=15,no=16,missing=16
				15:leaf=-0.198685065
				16:leaf=-0.037047632
			10:leaf=0.0463486835
		6:leaf=0.0475569218
booster[69]
0:[Occupation=Service] yes=2,no=1
	1:[Hours<25] yes=3,no=4,missing=4
		3:[Hours<17] yes=7,no=8,missing=8
			7:[Marital=Married] yes=14,no=13
				13:leaf=0.0917374268
				14:leaf=-0.0603754185
			8:leaf=-0.162152052
		4:[Age<68] yes=9,no=10,missing=9
			9:[Income<13678.9297] yes=15,no=16,missing=16
				15:[Education=HSgrad] yes=18,no=17
					17:[Hours<52] yes=21,no=22,missing=22
						21:leaf=0.0821090117
						22:leaf=-0.0970394686
					18:leaf=-0.180284053
				16:[Income<15243.3496] yes=19,no=20,missing=20
					19:leaf=0.110538647
					20:[Income<16377.3008] yes=23,no=24,missing=24
						23:leaf=-0.0843204632
						24:leaf=0.00280739926
			10:leaf=0.0830643177
	2:[Hours<39] yes=5,no=6,missing=5
		5:leaf=-0.136397332
		6:[Income<38435.8672] yes=11,no=12,missing=11
			11:leaf=-0.0863285512
			12:leaf=0.134991452
booster[70]
0:[Marital=Absent] yes=2,no=1
	1:[Occupation=Cleaner] yes=4,no=3
		3:[Age<65] yes=7,no=8,missing=7
			7:[Income<13678.9297] yes=15,no=16,missing=16
				15:[Marital=Married] yes=28,no=27
					27:leaf=-0.13730669
					28:[Income<9321.05469] yes=35,no=36,missing=36
						35:leaf=0.0690670982
						36:leaf=-0.097421214
				16:[Income<20551.3359] yes=29,no=30,missing=30
					29:[Age<36] yes=37,no=38,missing=38
						37:leaf=-0.058053758
						38:leaf=0.127996877
					30:[Income<22124.0352] yes=39,no=40,missing=40
						39:leaf=-0.126756012
						40:leaf=0.0053519723
			8:[Income<35048.7656] yes=17,no=18,missing=17
				17:leaf=-0.10472402
				18:leaf=0.0160037335
		4:[Hours<120] yes=9,no=10,missing=10
			9:leaf=-0.1682069
			10:leaf=0.10644298
	2:[Age<44] yes=5,no=6,missing=6
		5:[Hours<43] yes=11,no=12,missing=12
			11:[Age<29] yes=19,no=20,missing=20
				19:leaf=-0.0151943406
				20:[Age<34] yes=31,no=32,missing=32
					31:leaf=0.169501513
					32:leaf=0.0108162165
			12:[Employment=Private] yes=22,no=21
				21:leaf=0.0539531298
				22:[Income<95089.5469] yes=33,no=34,missing=33
					33:leaf=-0.149579406
					34:leaf=-0.0122462362
		6:[Income<91812.2891] yes=13,no=14,missing=14
			13:[Hours<32] yes=23,no=24,missing=23
				23:leaf=0.096854426
				24:leaf=-0.107848823
			14:[Gender=Male] yes=26,no=25
				25:leaf=-0.179630309
				26:leaf=-0.0480253659
