{"learner":{"attributes":{"niter":"30"},"gradient_booster":{"gbtree":{"model":{"gbtree_model_param":{"num_trees":"31","size_leaf_vector":"0"},"tree_info":[0,0,0,0,0,0,0,0,0,0,0,0,0,0,0,0,0,0,0,0,0,0,0,0,0,0,0,0,0,0,0],"trees":[{"base_weights":[2.2887531E1,2.8016144E1,1.6065496E1,3.0824032E1,2.390842E1,1.8685333E1,1.3874227E1,2.6375E1,3.305244E1],"categories":[],"categories_nodes":[],"categories_segments":[],"categories_sizes":[],"default_left":[true,true,true,true,false,false,false,false,false],"id":0,"left_children":[1,3,5,7,-1,-1,-1,-1,-1],"loss_changes":[1.3300016E4,1.835125E3,7.224297E2,4.071797E2,0E0,0E0,0E0,0E0,0E0],"parents":[2147483647,0,0,1,1,2,2,3,3],"right_children":[2,4,6,8,-1,-1,-1,-1,-1],"split_conditions":[1.905E2,8.45E1,1.27E2,7.65E1,7.1725264E0,5.6056004E0,4.162268E0,7.9125004E0,9.915732E0],"split_indices":[5,6,6,9,0,0,0,0,0],"split_type":[0,0,0,0,0,0,0,0,0],"sum_hessian":[3.92E2,2.22E2,1.7E2,1.28E2,9.4E1,7.4E1,9.6E1,4.7E1,8.1E1],"tree_param":{"num_deleted":"0","num_feature":"13","num_nodes":"9","size_leaf_vector":"0"}},{"base_weights":[1.6109741E1,1.1748506E1,2.0259592E1,1.3440518E1,9.467368E0,2.2920462E1,1.7683722E1,1.2266417E1,1.6716827E1,8.30927E0,1.059145E1,2.0030973E1,2.5224245E1,1.5587262E1,2.0392784E1,8.395608E0,2.168866E0],"categories":[],"categories_nodes":[],"categories_segments":[],"categories_sizes":[],"default_left":[true,true,true,true,true,true,true,false,false,true,false,false,false,false,false,false,false],"id":1,"left_children":[1,3,5,7,9,11,13,-1,-1,15,-1,-1,-1,-1,-1,-1,-1],"loss_changes":[6.8746797E3,6.215371E2,9.654922E2,2.1423828E2,2.3947266E1,1.27125E2,2.8415234E2,0E0,0E0,6.708008E0,0E0,0E0,0E0,0E0,0E0,0E0,0E0],"parents":[2147483647,0,0,1,1,2,2,3,3,4,4,5,5,6,6,9,9],"right_children":[2,4,6,8,10,12,14,-1,-1,16,-1,-1,-1,-1,-1,-1,-1],"split_conditions":[-9.536743E-7,3.745E3,2.2195E3,7.85E1,7.35E1,7.75E1,7.85E1,3.6799252E0,5.0150485E0,1.725E1,3.1774352E0,6.009292E0,7.5672736E0,4.676179E0,6.1178355E0,2.5186825E0,6.506598E-1],"split_indices":[1,7,7,9,9,9,9,0,0,8,0,0,0,0,0,0,0],"split_type":[0,0,0,0,0,0,0,0,0,0,0,0,0,0,0,0,0],"sum_hessian":[3.92E2,1.93E2,1.99E2,1.08E2,8.5E1,9.4E1,1.05E2,8.3E1,2.5E1,4.6E1,3.9E1,4.6E1,4.8E1,6.3E1,4.2E1,4.5E1,1E0],"tree_param":{"num_deleted":"0","num_feature":"13","num_nodes":"17","size_leaf_vector":"0"}},{"base_weights":[1.1377105E1,1.3962159E1,7.7204113E0,1.6893253E1,1.2565493E1,6.605428E0,9.068855E0,1.1236287E1,1.47469425E1,7.1419067E0,5.284782E0,1.1458318E1,7.1673927E0,1.2223861E1,9.366661E0,1.230835E1,3.3237743E0],"categories":[],"categories_nodes":[],"categories_segments":[],"categories_sizes":[],"default_left":[true,true,true,false,true,true,false,true,false,false,false,true,false,true,false,false,false],"id":2,"left_children":[1,3,5,-1,7,9,-1,11,-1,-1,-1,13,-1,15,-1,-1,-1],"loss_changes":[3.6071406E3,7.251992E2,1.8817285E2,0E0,2.9533594E2,2.8855469E1,0E0,1.0924805E1,0E0,0E0,0E0,3.9223633E1,0E0,9.470703E0,0E0,0E0,0E0],"parents":[2147483647,0,0,1,1,2,2,4,4,5,5,7,7,11,11,13,13],"right_children":[2,4,6,-1,8,10,-1,12,-1,-1,-1,14,-1,16,-1,-1,-1],"split_conditions":[3.018E3,7.05E1,7.55E1,5.067976E0,7.85E1,4.3585E3,2.7206566E0,1.835E1,4.4240828E0,2.1425722E0,1.5854347E0,9.65E1,2.150218E0,-9.536743E-7,2.8099985E0,3.6925051E0,9.9713236E-1],"split_indices":[7,6,9,0,9,7,0,8,0,0,0,6,0,0,0,0,0],"split_type":[0,0,0,0,0,0,0,0,0,0,0,0,0,0,0,0,0],"sum_hessian":[3.92E2,2.28E2,1.64E2,7E1,1.58E2,9.3E1,7.1E1,1.02E2,5.6E1,6.3E1,3E1,9.5E1,7E0,6.6E1,2.9E1,6.5E1,1E0],"tree_param":{"num_deleted":"0","num_feature":"13","num_nodes":"17","size_leaf_vector":"0"}},{"base_weights":[8.02909E0,1.0299846E1,5.8309994E0,8.729336E0,1.1912037E1,5.031481E0,7.639334E0,1.0238763E1,7.9473424E0,1.281063E1,9.27429E0,6.0709763E0,4.332563E0,6.629435E0,9.082368E0,4.340154E0,1.0495903E1,8.327943E0,5.382062E0,1.2906358E1,3.2941723E0,2.529395E0,9.436424E0,6.534427E0,4.399478E0,4.454117E0,2.7571814E0,3.4959888E0,8.434286E0,4.6618752E0,3.39774E0,2.9476273E0,6.1680746E-1,6.1680746E-1,3.5329976E0],"categories":[],"categories_nodes":[],"categories_segments":[],"categories_sizes":[],"default_left":[true,true,true,true,true,true,true,true,true,true,true,true,true,false,false,false,false,true,false,false,false,false,false,false,false,true,true,false,false,false,true,false,false,false,false],"id":3,"left_children":[1,3,5,7,9,11,13,15,17,19,21,23,25,-1,-1,-1,-1,27,-1,-1,-1,-1,-1,-1,-1,29,31,-1,-1,-1,33,-1,-1,-1,-1],"loss_changes":[1.9015332E3,3.8215234E2,2.5361377E2,3.7845703E1,9.925391E1,7.75896E1,2.7228027E1,1.4660645E0,2.4499023E1,1.7609375E1,5.658203E0,1.3858154E1,4.762085E0,0E0,0E0,0E0,0E0,1.3447266E0,0E0,0E0,0E0,0E0,0E0,0E0,0E0,1.9373779E0,1.8505096E0,0E0,0E0,0E0,4.2152557E0,0E0,0E0,0E0,0E0],"parents":[2147483647,0,0,1,1,2,2,3,3,4,4,5,5,6,6,7,7,8,8,9,9,10,10,11,11,12,12,17,17,25,25,26,26,30,30],"right_children":[2,4,6,8,10,12,14,16,18,20,22,24,26,-1,-1,-1,-1,28,-1,-1,-1,-1,-1,-1,-1,30,32,-1,-1,-1,34,-1,-1,-1,-1],"split_conditions":[2.7645E3,7.75E1,7.75E1,2.104E3,2.5075E3,1.11E2,7.95E1,4.75E1,1.785E1,-9.536743E-7,2.52E3,1.775E1,1.495E1,1.9888306E0,2.7247105E0,1.3020463E0,3.148771E0,7.5E1,1.6146187E0,3.8719075E0,9.8825175E-1,7.5881857E-1,2.8309274E0,1.9603282E0,1.3198434E0,4.4985E3,3.055E2,1.0487967E0,2.5302858E0,1.3985627E0,7.05E1,8.8428825E-1,1.8504225E-1,1.8504225E-1,1.0598993E0],"split_indices":[7,9,9,7,7,6,9,6,8,0,7,8,8,0,0,0,0,5,0,0,0,0,0,0,0,7,5,0,0,0,9,0,0,0,0],"split_type":[0,0,0,0,0,0,0,0,0,0,0,0,0,0,0,0,0,0,0,0,0,0,0,0,0,0,0,0,0,0,0,0,0,0,0],"sum_hessian":[3.92E2,1.91E2,2.01E2,1E2,9.1E1,1.42E2,5.9E1,3E1,7E1,6.5E1,2.6E1,5.4E1,8.8E1,3.8E1,2.1E1,2E0,2.8E1,5.9E1,1.1E1,6.4E1,1E0,1E0,2.5E1,4E1,1.4E1,8E1,8E0,2E0,5.7E1,6.4E1,1.6E1,7E0,1E0,1E0,1.5E1],"tree_param":{"num_deleted":"0","num_feature":"13","num_nodes":"35","size_leaf_vector":"0"}},{"base_weights":[5.6961923E0,7.351948E0,4.172895E0,6.201531E0,8.549019E0,3.504066E0,5.234111E0,6.732491E0,5.0382757E0,8.144762E0,1.37115755E1,4.269074E0,3.0041947E0,4.657372E0,6.337717E0,6.7872376E0,1.6143637E0,1.4432297E0,5.1015644E0,8.456036E0,5.9621553E0,1.1680393E0,4.3761806E0,3.0262547E0,6.086743E-1,5.5609393E0,9.921514E0,8.51279E0,2.213274E0,3.0944576E0,1.8631848E0,7.4916773E0,4.160483E0,1.7085165E0,3.1484754E0,5.169916E-1,4.3838043E0],"categories":[],"categories_nodes":[],"categories_segments":[],"categories_sizes":[],"default_left":[true,true,true,true,true,true,true,true,true,true,false,true,true,false,true,false,false,false,false,true,false,false,false,true,false,true,false,false,false,true,false,false,true,false,false,false,false],"id":4,"left_children":[1,3,5,7,9,11,13,15,17,19,-1,21,23,-1,25,-1,-1,-1,-1,27,-1,-1,-1,29,-1,31,-1,-1,-1,33,-1,-1,35,-1,-1,-1,-1],"loss_changes":[9.605488E2,2.0450586E2,1.2858228E2,2.7226318E1,7.406543E1,3.6887573E1,2.0129395E1,7.2558594E0,6.00708E-1,7.331543E0,0E0,1.1163452E1,2.491272E0,0E0,1.163855E1,0E0,0E0,0E0,0E0,6.668457E0,0E0,0E0,0E0,6.598511E-1,0E0,2.8317139E1,0E0,0E0,0E0,2.3565674E-1,0E0,0E0,9.938629E0,0E0,0E0,0E0,0E0],"parents":[2147483647,0,0,1,1,2,2,3,3,4,4,5,5,6,6,7,7,8,8,9,9,11,11,12,12,14,14,19,19,23,23,25,25,29,29,32,32],"right_children":[2,4,6,8,10,12,14,16,18,20,-1,22,24,-1,26,-1,-1,-1,-1,28,-1,-1,-1,30,-1,32,-1,-1,-1,34,-1,-1,36,-1,-1,-1,-1],"split_conditions":[2.7225E3,7.75E1,7.65E1,2.305E3,2.11E1,1.11E2,7.95E1,2.285E1,2.32E3,2.6175E3,4.113473E0,7.5E1,1.76E1,1.3972117E0,2.47E2,2.0361714E0,4.843091E-1,4.329689E-1,1.5304694E0,2.0150002E1,1.7886467E0,3.504118E-1,1.3128543E0,4.826E3,1.8260229E-1,-9.536743E-7,2.9764543E0,2.553837E0,6.639822E-1,1.21E2,5.589555E-1,2.2475033E0,8.55E1,5.1255494E-1,9.4454265E-1,1.5509748E-1,1.3151413E0],"split_indices":[7,9,9,7,8,6,9,8,7,7,0,6,8,0,5,0,0,0,0,8,0,0,0,7,0,10,0,0,0,6,0,0,6,0,0,0,0],"split_type":[0,0,0,0,0,0,0,0,0,0,0,0,0,0,0,0,0,0,0,0,0,0,0,0,0,0,0,0,0,0,0,0,0,0,0,0,0],"sum_hessian":[3.92E2,1.86E2,2.06E2,9.8E1,8.8E1,1.29E2,7.7E1,6.4E1,3.4E1,8.4E1,4E0,4.8E1,8.1E1,5.4E1,2.3E1,6.3E1,1E0,1E0,3.3E1,7.1E1,1.3E1,2E0,4.6E1,8E1,1E0,2.1E1,2E0,7E1,1E0,7.4E1,6E0,7E0,1.4E1,4E0,7E1,1E0,1.3E1],"tree_param":{"num_deleted":"0","num_feature":"13","num_nodes":"37","size_leaf_vector":"0"}},{"base_weights":[5.6961923E0,7.351948E0,4.172895E0,6.201531E0,8.549019E0,3.504066E0,5.234111E0,6.732491E0,5.0382757E0,8.144762E0,1.37115755E1,4.269074E0,3.0041947E0,4.657372E0,6.337717E0,6.7872376E0,1.6143637E0,1.4432297E0,5.1015644E0,8.456036E0,5.9621553E0,1.1680393E0,4.3761806E0,3.0262547E0,6.086743E-1,5.5609393E0,9.921514E0,8.51279E0,2.213274E0,3.0944576E0,1.8631848E0,7.4916773E0,4.160483E0,1.7085165E0,3.1484754E0,5.169916E-1,4.3838043E0],"categories":[],"categories_nodes":[],"categories_segments":[],"categories_sizes":[],"default_left":[true,true,true,true,true,true,true,true,true,true,false,true,true,false,true,false,false,false,false,true,false,false,false,true,false,true,false,false,false,true,false,false,true,false,false,false,false],"id":5,"left_children":[1,3,5,7,9,11,13,15,17,19,-1,21,23,-1,25,-1,-1,-1,-1,27,-1,-1,-1,29,-1,31,-1,-1,-1,33,-1,-1,35,-1,-1,-1,-1],"loss_changes":[9.605488E2,2.0450586E2,1.2858228E2,2.7226318E1,7.406543E1,3.6887573E1,2.0129395E1,7.2558594E0,6.00708E-1,7.331543E0,0E0,1.1163452E1,2.491272E0,0E0,1.163855E1,0E0,0E0,0E0,0E0,6.668457E0,0E0,0E0,0E0,6.598511E-1,0E0,2.8317139E1,0E0,0E0,0E0,2.3565674E-1,0E0,0E0,9.938629E0,0E0,0E0,0E0,0E0],"parents":[2147483647,0,0,1,1,2,2,3,3,4,4,5,5,6,6,7,7,8,8,9,9,11,11,12,12,14,14,19,19,23,23,25,25,29,29,32,32],"right_children":[2,4,6,8,10,12,14,16,18,20,-1,22,24,-1,26,-1,-1,-1,-1,28,-1,-1,-1,30,-1,32,-1,-1,-1,34,-1,-1,36,-1,-1,-1,-1],"split_conditions":[2.7225E3,7.75E1,7.65E1,2.305E3,2.11E1,1.11E2,7.95E1,2.285E1,2.32E3,2.6175E3,4.113473E0,7.5E1,1.76E1,1.3972117E0,2.47E2,2.0361714E0,4.843091E-1,4.329689E-1,1.5304694E0,2.0150002E1,1.7886467E0,3.504118E-1,1.3128543E0,4.826E3,1.8260229E-1,-9.536743E-7,2.9764543E0,2.553837E0,6.639822E-1,1.21E2,5.589555E-1,2.2475033E0,8.55E1,5.1255494E-1,9.4454265E-1,1.5509748E-1,1.3151413E0],"split_indices":[7,9,9,7,8,6,9,8,7,7,0,6,8,0,5,0,0,0,0,8,0,0,0,7,0,10,0,0,0,6,0,0,6,0,0,0,0],"split_type":[0,0,0,0,0,0,0,0,0,0,0,0,0,0,0,0,0,0,0,0,0,0,0,0,0,0,0,0,0,0,0,0,0,0,0,0,0],"sum_hessian":[3.92E2,1.86E2,2.06E2,9.8E1,8.8E1,1.29E2,7.7E1,6.4E1,3.4E1,8.4E1,4E0,4.8E1,8.1E1,5.4E1,2.3E1,6.3E1,1E0,1E0,3.3E1,7.1E1,1.3E1,2E0,4.6E1,8E1,1E0,2.1E1,2E0,7E1,1E0,7.4E1,6E0,7E0,1.4E1,4E0,7E1,1E0,1.3E1],"tree_param":{"num_deleted":"0","num_feature":"13","num_nodes":"37","size_leaf_vector":"0"}},{"base_weights":[3.1672275E0,3.999373E0,2.1500292E0,5.360942E0,3.5542858E0,3.0976093E0,1.9226811E0,3.9350326E0,6.580661E0,3.4686222E0,7.0239005E0,3.3443234E0,1.7034819E0,4.120303E-1,2.0182161E0,4.665812E0,2.036248E0,2.8610954E0,6.9414263E0,3.9319615E0,2.9971821E0,1.0350984E0,3.4876575E0,9.179114E-1,-1.0743294E0,1.7677708E0,2.982352E0,1.1590048E0,5.0317254E0,4.165418E0,-5.259361E-1,8.447072E0,5.133463E0,3.3706067E0,5.15219E0,3.1462917E0,1.3884468E0,3.8226E0,2.2980802E0,1.0694064E0,-7.1276665E-2,2.389708E0,1.5891893E0,3.1703691E0,1.5210018E0,1.1444378E-1,1.6240635E0,5.303965E0,4.7406387E-1,8.835443E0,2.281683E0,5.129232E0,3.0218146E0,3.6697516E0,6.712385E0,-4.2593575E-1,3.198899E0,1.1444378E-1,1.5333917E0,4.702034E-1,2.4920335E0,2.6256762E0,-5.863921E-2,1.6882982E0,1.2061116E0],"categories":[],"categories_nodes":[],"categories_segments":[],"categories_sizes":[],"default_left":[true,true,true,true,true,true,true,true,true,true,false,true,false,true,true,true,false,true,true,true,true,false,true,true,false,true,true,true,true,false,false,true,false,true,true,true,true,false,true,false,false,true,true,false,false,false,false,false,false,false,false,false,false,false,false,false,false,false,false,false,false,false,false,false,false],"id":6,"left_children":[1,3,5,7,9,11,13,15,17,19,-1,21,-1,23,25,27,-1,29,31,33,35,-1,37,39,-1,41,43,45,47,-1,-1,49,-1,51,53,55,57,-1,59,-1,-1,61,63,-1,-1,-1,-1,-1,-1,-1,-1,-1,-1,-1,-1,-1,-1,-1,-1,-1,-1,-1,-1,-1,-1],"loss_changes":[3.2405884E2,1.112395E2,3.2606323E1,6.2804565E1,2.4677734E1,5.6533813E0,2.0383484E1,2.657666E1,1.5029053E1,2.3820435E1,0E0,5.3266907E0,0E0,8.505352E0,2.8049805E1,1.7265594E1,0E0,1.986187E1,1.9246826E1,3.6747437E1,1.6021118E1,0E0,1.1763611E0,1.2750797E0,0E0,8.641724E0,2.5963593E0,1.2714825E0,1.7337982E1,0E0,0E0,6.1793213E0,0E0,1.9463928E1,2.8563782E1,1.5832825E1,1.4864559E0,0E0,1.6644173E0,0E0,0E0,1.3441818E1,1.3807068E0,0E0,0E0,0E0,0E0,0E0,0E0,0E0,0E0,0E0,0E0,0E0,0E0,0E0,0E0,0E0,0E0,0E0,0E0,0E0,0E0,0E0,0E0],"parents":[2147483647,0,0,1,1,2,2,3,3,4,4,5,5,6,6,7,7,8,8,9,9,11,11,13,13,14,14,15,15,17,17,18,18,19,19,20,20,22,22,23,23,25,25,26,26,27,27,28,28,31,31,33,33,34,34,35,35,36,36,38,38,41,41,42,42],"right_children":[2,4,6,8,10,12,14,16,18,20,-1,22,-1,24,26,28,-1,30,32,34,36,-1,38,40,-1,42,44,46,48,-1,-1,50,-1,52,54,56,58,-1,60,-1,-1,62,64,-1,-1,-1,-1,-1,-1,-1,-1,-1,-1,-1,-1,-1,-1,-1,-1,-1,-1,-1,-1,-1,-1],"split_conditions":[9.65E1,6.75E1,2.922E3,7.95E1,2.59E2,1.86E2,1.76E2,9.4E1,1.8475E3,-9.536743E-7,2.1071703E0,7.5E1,5.110446E-1,1.225E2,7.75E1,1.575E1,6.108744E-1,8.5E1,8.05E1,7.95E1,1.945E1,3.1052953E-1,1.485E1,1.695E2,-3.2229882E-1,3.512E3,3.9475E3,8.25E1,7.85E1,1.2496254E0,-1.5778084E-1,1.335E2,1.540039E0,8.85E1,7.55E1,6.9E1,1.015E2,1.14678E0,2.447E3,3.2082194E-1,-2.1383E-2,1.695E1,1.775E2,9.511108E-1,4.5630056E-1,3.4333136E-2,4.8721907E-1,1.5911896E0,1.4221917E-1,2.6506329E0,6.845049E-1,1.5387696E0,9.065444E-1,1.1009256E0,2.0137157E0,-1.2778074E-1,9.5966977E-1,3.4333136E-2,4.6001753E-1,1.4106102E-1,7.476101E-1,7.8770286E-1,-1.7591763E-2,5.064895E-1,3.6183348E-1],"split_indices":[6,6,7,9,5,5,5,5,7,10,0,5,0,6,9,8,0,5,9,9,8,0,8,5,0,7,7,5,9,0,0,5,0,5,6,6,5,0,7,0,0,8,6,0,0,0,0,0,0,0,0,0,0,0,0,0,0,0,0,0,0,0,0,0,0],"split_type":[0,0,0,0,0,0,0,0,0,0,0,0,0,0,0,0,0,0,0,0,0,0,0,0,0,0,0,0,0,0,0,0,0,0,0,0,0,0,0,0,0,0,0,0,0,0,0,0,0,0,0,0,0,0,0,0,0,0,0,0,0,0,0,0,0],"sum_hessian":[3.92E2,2.14E2,1.78E2,5E1,1.64E2,3.2E1,1.46E2,2.5E1,2.5E1,1.62E2,2E0,2.6E1,6E0,9E0,1.37E2,1.7E1,8E0,3E0,2.2E1,7.8E1,8.4E1,2E0,2.4E1,7E0,2E0,1.11E2,2.6E1,2E0,1.5E1,2E0,1E0,1E1,1.2E1,5.6E1,2.2E1,7.6E1,8E0,1.7E1,7E0,6E0,1E0,2.2E1,8.9E1,2.2E1,4E0,1E0,1E0,1.4E1,1E0,9E0,1E0,7E0,4.9E1,1.3E1,9E0,1E0,7.5E1,1E0,7E0,1E0,6E0,2E1,2E0,6.8E1,2.1E1],"tree_param":{"num_deleted":"0","num_feature":"13","num_nodes":"65","size_leaf_vector":"0"}},{"base_weights":[5.625396E0,6.917256E0,3.700892E0,8.559586E0,6.164069E0,3.145675E0,4.387545E0,9.251666E0,7.0059204E0,5.4676332E0,7.3425965E0,3.408336E0,2.5188801E0,9.1573E-1,4.4251347E0,1.6203547E0,5.5254827E0,7.4122615E0,1.6858387E0,9.71349E-1,2.649996E0,1.2025661E0,4.455284E0,4.6370506E-1,1.9668269E0,5.6601324E0,3.1853414E0,6.104178E0,4.450156E0],"categories":[],"categories_nodes":[],"categories_segments":[],"categories_sizes":[],"default_left":[true,true,true,true,true,true,true,false,false,true,true,false,true,false,true,true,true,false,false,false,false,false,false,false,false,true,false,false,false],"id":7,"left_children":[1,3,5,7,9,11,13,-1,-1,15,17,-1,19,-1,21,23,25,-1,-1,-1,-1,-1,-1,-1,-1,27,-1,-1,-1],"loss_changes":[9.514717E2,2.3669238E2,4.719702E1,1.1527344E1,9.445947E1,6.561157E0,4.9525146E0,0E0,0E0,1.4861084E1,1.0360596E1,0E0,3.7160187E0,0E0,1.2489014E0,2.9021406E-1,1.5055908E1,0E0,0E0,0E0,0E0,0E0,0E0,0E0,0E0,2.5489258E1,0E0,0E0,0E0],"parents":[2147483647,0,0,1,1,2,2,3,3,4,4,5,5,6,6,9,9,10,10,12,12,14,14,15,15,16,16,25,25],"right_children":[2,4,6,8,10,12,14,-1,-1,16,18,-1,20,-1,22,24,26,-1,-1,-1,-1,-1,-1,-1,-1,28,-1,-1,-1],"split_conditions":[3.0855E3,7.05E1,7.55E1,9.35E1,7.85E1,4.3585E3,3.145E3,2.7754998E0,2.1017761E0,7.5E1,3.0375E3,1.0225009E0,4.3835E3,2.74719E-1,1.25E2,9.35E1,1.835E1,2.2236786E0,5.057516E-1,2.9140472E-1,7.949988E-1,3.6076987E-1,1.3365853E0,1.3911152E-1,5.900481E-1,9.65E1,9.5560247E-1,1.8312534E0,1.3350469E0],"split_indices":[7,6,9,5,9,7,7,0,0,5,7,0,7,0,5,6,8,0,0,0,0,0,0,0,0,6,0,0,0],"split_type":[0,0,0,0,0,0,0,0,0,0,0,0,0,0,0,0,0,0,0,0,0,0,0,0,0,0,0,0,0],"sum_hessian":[3.92E2,2.33E2,1.59E2,7E1,1.63E2,9.1E1,6.8E1,4.5E1,2.5E1,1.06E2,5.7E1,6.1E1,3E1,1E0,6.7E1,2E0,1.04E2,5.6E1,1E0,3E0,2.7E1,1E0,6.6E1,1E0,1E0,9.7E1,7E0,6.8E1,2.9E1],"tree_param":{"num_deleted":"0","num_feature":"13","num_nodes":"29","size_leaf_vector":"0"}},{"base_weights":[3.0499992E0,3.786074E0,1.9544278E0,3.2825818E0,4.732386E0,1.7434975E0,2.5641475E0,4.3286324E0,2.8969016E0,5.5734124E0,3.515856E0,1.9194226E0,1.3880068E0,-1.3067627E-1,2.6385028E0,5.5575757E0,3.7925658E0,6.4411086E-1,2.9709463E0,4.869437E0,7.103558E0,2.3797646E0,4.2489367E0,1.9550653E0,3.6478773E-1,8.6108965E-1,1.8316666E0,8.937731E-1,3.8593998E0,-5.444412E-1,1.0773592E0,2.372514E0,3.3763652E0,5.1333284E0,4.3145242E-1,3.49348E0,1.7174026E0,4.8353534E0,1.5226154E0,1.561594E-1,1.9766804E0,4.605999E-1,8.658171E-2,1.0715312E0,-3.5378027E-1,1.8513346E-1,1.8980938E0,1.5211477E0,4.2238045E-1,3.075128E0,1.8653468E0,8.4207535E-2,3.4264894E0,5.2471113E0,8.0302715E-1,1.0836792E-1,5.3881073E-1,2.7687797E-1,2.4030552E0,5.3727565E0,2.5785153E0,2.8822982E0,1.8723087E0,-5.174615E-1,1.2889104E0],"categories":[],"categories_nodes":[],"categories_segments":[],"categories_sizes":[],"default_left":[true,true,true,true,true,true,true,true,true,true,true,true,true,false,false,false,true,true,true,true,false,true,true,true,true,true,true,false,false,false,true,true,true,true,true,false,true,true,false,false,true,false,false,true,false,false,false,false,false,false,false,false,false,false,false,false,false,false,false,false,false,false,false,false,false],"id":8,"left_children":[1,3,5,7,9,11,13,15,17,19,21,23,25,-1,-1,-1,27,29,31,33,-1,35,37,39,41,43,45,-1,-1,-1,47,49,51,53,55,-1,57,59,-1,-1,61,-1,-1,63,-1,-1,-1,-1,-1,-1,-1,-1,-1,-1,-1,-1,-1,-1,-1,-1,-1,-1,-1,-1,-1],"loss_changes":[3.095244E2,9.5957275E1,1.610675E1,5.0397217E1,6.12323E1,4.9656677E0,8.159393E0,5.274353E0,1.7602844E1,1.3882935E1,1.9038177E1,3.6643066E0,8.708733E0,0E0,0E0,0E0,2.5564575E0,3.1612499E0,1.940509E1,3.7604187E1,0E0,5.803215E0,2.4612823E1,2.6853638E0,4.0087044E-2,6.0035877E0,2.164215E0,0E0,0E0,0E0,5.201855E-1,1.1724609E1,1.0437561E1,1.1553284E1,4.566759E-2,0E0,1.1187042E1,5.5515747E0,0E0,0E0,1.7870178E0,0E0,0E0,7.229828E0,0E0,0E0,0E0,0E0,0E0,0E0,0E0,0E0,0E0,0E0,0E0,0E0,0E0,0E0,0E0,0E0,0E0,0E0,0E0,0E0,0E0],"parents":[2147483647,0,0,1,1,2,2,3,3,4,4,5,5,6,6,7,7,8,8,9,9,10,10,11,11,12,12,16,16,17,17,18,18,19,19,21,21,22,22,23,23,24,24,25,25,26,26,30,30,31,31,32,32,33,33,34,34,36,36,37,37,40,40,43,43],"right_children":[2,4,6,8,10,12,14,16,18,20,22,24,26,-1,-1,-1,28,30,32,34,-1,36,38,40,42,44,46,-1,-1,-1,48,50,52,54,56,-1,58,60,-1,-1,62,-1,-1,64,-1,-1,-1,-1,-1,-1,-1,-1,-1,-1,-1,-1,-1,-1,-1,-1,-1,-1,-1,-1,-1],"split_conditions":[3.0855E3,7.95E1,7.75E1,2.0875E3,-9.536743E-7,1.51E2,3.1475E3,1.8295E3,6.85E1,1.7849998E1,8.15E1,4.678E3,3.715E2,-3.9202884E-2,7.915509E-1,1.6672728E0,1.8345E3,2.145E3,7.35E1,1.755E1,2.1310675E0,6.75E1,9.1E1,1.25E2,3.75E2,1.965E2,3.3245E3,2.6813194E-1,1.15782E0,-1.6333237E-1,9.75E1,7.15E1,2.1165E3,2.92E3,9.4E1,1.0480441E0,8.6E1,1.83E1,4.5678464E-1,4.684782E-2,7.05E1,1.3817997E-1,2.5974514E-2,3.6785E3,-1.0613409E-1,5.554004E-2,5.6942815E-1,4.5634434E-1,1.2671414E-1,9.2253846E-1,5.5960405E-1,2.526226E-2,1.0279468E0,1.5741335E0,2.4090816E-1,3.2510377E-2,1.6164322E-1,8.3063394E-2,7.2091657E-1,1.611827E0,7.735546E-1,8.646895E-1,5.6169266E-1,-1.5523845E-1,3.8667312E-1],"split_indices":[7,9,9,7,10,6,7,7,6,8,9,7,5,0,0,0,7,7,9,8,0,6,6,5,5,6,7,0,0,0,5,9,7,7,5,0,6,8,0,0,9,0,0,7,0,0,0,0,0,0,0,0,0,0,0,0,0,0,0,0,0,0,0,0,0],"split_type":[0,0,0,0,0,0,0,0,0,0,0,0,0,0,0,0,0,0,0,0,0,0,0,0,0,0,0,0,0,0,0,0,0,0,0,0,0,0,0,0,0,0,0,0,0,0,0,0,0,0,0,0,0,0,0,0,0,0,0,0,0,0,0,0,0],"sum_hessian":[3.92E2,2.33E2,1.59E2,1.55E2,7.8E1,1.21E2,3.8E1,3.9E1,1.16E2,4.4E1,3.4E1,7.8E1,4.3E1,1E0,3.7E1,9E0,3E1,4E0,1.12E2,3.3E1,1.1E1,1.5E1,1.9E1,7.6E1,2E0,2.1E1,2.2E1,1E0,2.9E1,1E0,3E0,4.8E1,6.4E1,3.1E1,2E0,4E0,1.1E1,1.5E1,4E0,1E0,7.5E1,1E0,1E0,1.8E1,3E0,1E0,2.1E1,1E0,2E0,1.8E1,3E1,1E0,6.3E1,3E1,1E0,1E0,1E0,4E0,7E0,1.1E1,4E0,5E0,7E1,2E0,1.6E1],"tree_param":{"num_deleted":"0","num_feature":"13","num_nodes":"65","size_leaf_vector":"0"}},{"base_weights":[1.4077402E0,1.1547418E0,2.2974586E0,1.6289933E0,8.978128E-1,5.186309E0,2.0932913E0,3.0209706E0,1.4703324E0,-1.2472687E0,9.1469014E-1,1.9551073E0,5.0804353E0,9.690672E-1,1.7852523E0,1.1088676E0,7.114563E-1,2.5246336E0,9.7344863E-1,3.1095743E-1,1.5496924E0,9.9780285E-1,2.055052E0,7.3215693E-1,1.2809162E0,2.648232E-1,7.924129E-1,3.868798E0,1.9477974E0,2.1950564E0,5.256857E-1,5.704309E-1,-8.69544E-1,1.9425892E0,2.4368541E-1,1.4703327E0,-9.055023E-1,2.3537595E0,1.4038733E0,9.290842E-1,-9.770684E-1,9.370334E-1,1.6611301E0,4.4946712E-1,-1.3447399E0,1.4489614E0,7.149154E-1,4.177562E0,-7.256889E-2,3.9035335E0,1.4433475E0,-6.113434E-2,2.5261028E0,1.8313866E0,3.2374078E-1],"categories":[],"categories_nodes":[],"categories_segments":[],"categories_sizes":[],"default_left":[true,true,true,true,true,false,true,false,true,false,true,true,false,true,true,true,true,true,true,true,true,true,true,true,true,true,true,true,true,true,true,false,false,false,false,false,false,false,false,false,false,false,false,false,false,false,false,false,false,false,false,false,false,false,false],"id":9,"left_children":[1,3,5,7,9,-1,11,-1,13,-1,15,17,-1,19,21,23,25,27,29,31,33,35,37,39,41,43,45,47,49,51,53,-1,-1,-1,-1,-1,-1,-1,-1,-1,-1,-1,-1,-1,-1,-1,-1,-1,-1,-1,-1,-1,-1,-1,-1],"loss_changes":[8.58103E1,3.6066956E1,3.9867065E1,1.9189362E1,8.453934E0,0E0,2.3914795E1,0E0,1.3740082E1,0E0,7.1432495E0,4.226883E1,0E0,1.4802715E1,1.0484238E1,5.608223E0,3.4420967E0,3.1232483E1,1.5802799E1,6.6221905E0,1.0302265E1,1.6620653E1,5.0596466E0,1.2351942E1,7.3343964E0,5.6567497E0,3.2889862E0,1.73405E1,3.0868973E1,6.1296616E0,5.735417E0,0E0,0E0,0E0,0E0,0E0,0E0,0E0,0E0,0E0,0E0,0E0,0E0,0E0,0E0,0E0,0E0,0E0,0E0,0E0,0E0,0E0,0E0,0E0,0E0],"parents":[2147483647,0,0,1,1,2,2,3,3,4,4,6,6,8,8,10,10,11,11,13,13,14,14,15,15,16,16,17,17,18,18,19,19,20,20,21,21,22,22,23,23,24,24,25,25,26,26,27,27,28,28,29,29,30,30],"right_children":[2,4,6,8,10,-1,12,-1,14,-1,16,18,-1,20,22,24,26,28,30,32,34,36,38,40,42,44,46,48,50,52,54,-1,-1,-1,-1,-1,-1,-1,-1,-1,-1,-1,-1,-1,-1,-1,-1,-1,-1,-1,-1,-1,-1,-1,-1],"split_conditions":[7.95E1,2.577E3,5.9E1,1.8295E3,2.5845E3,1.5558927E0,2.47E2,9.062912E-1,7.35E1,-3.7418061E-1,3.5895E3,1.345E2,1.5241307E0,8.7E1,6.85E1,1.72E2,3.758E3,1.515E1,-9.536743E-7,8.55E1,7.25E1,2.093E3,-9.536743E-7,1.595E2,7.55E1,1.725E2,1.05E1,-9.536743E-7,8.75E1,1.425E2,2.3775E3,1.7112927E-1,-2.608632E-1,5.827768E-1,7.3105626E-2,4.4109985E-1,-2.716507E-1,7.061279E-1,4.21162E-1,2.7872527E-1,-2.9312053E-1,2.8111005E-1,4.9833903E-1,1.3484015E-1,-4.03422E-1,4.3468842E-1,2.1447463E-1,1.2532687E0,-2.177067E-2,1.1710601E0,4.3300426E-1,-1.8340303E-2,7.5783086E-1,5.49416E-1,9.712224E-2],"split_indices":[9,7,6,7,7,0,5,0,9,0,7,5,0,6,6,5,7,8,10,6,9,7,11,5,9,6,8,0,5,5,7,0,0,0,0,0,0,0,0,0,0,0,0,0,0,0,0,0,0,0,0,0,0,0,0],"split_type":[0,0,0,0,0,0,0,0,0,0,0,0,0,0,0,0,0,0,0,0,0,0,0,0,0,0,0,0,0,0,0,0,0,0,0,0,0,0,0,0,0,0,0,0,0,0,0,0,0,0,0,0,0,0,0],"sum_hessian":[3.92E2,3.07E2,8.5E1,1.06E2,2.01E2,4E0,8.1E1,9E0,9.7E1,1E0,2E2,7.9E1,2E0,3.9E1,5.8E1,1E2,1E2,4.9E1,3E1,1.9E1,2E1,1.6E1,4.2E1,3.3E1,6.7E1,1.6E1,8.4E1,1.3E1,3.6E1,7E0,2.3E1,1.6E1,3E0,1.5E1,5E0,1.3E1,3E0,2.7E1,1.5E1,3E1,3E0,3.7E1,3E1,1.5E1,1E0,7E0,7.7E1,1.2E1,1E0,6E0,3E1,1E0,6E0,2E0,2.1E1],"tree_param":{"num_deleted":"0","num_feature":"13","num_nodes":"55","size_leaf_vector":"0"}},{"base_weights":[2.277489E0,3.0909235E0,1.7290218E0,2.6374004E0,3.7995312E0,1.5380405E0,2.7526102E0,3.1465137E0,2.296534E0,6.2330184E0,3.5092227E0,1.2475876E0,1.7792904E0,2.4212282E0,5.5907364E0,3.1950424E0,6.9973946E-1,2.4726727E0,1.23909E0,3.540109E-1,3.6216078E0,1.4594766E0,8.245081E-1,1.9456177E0,1.460033E0,3.6507995E0,1.6744419E0,1.263429E0,3.271507E0,4.5656714E-1,2.5427833E0,1.2942679E0,3.436556E-1,1.054142E0,-5.2312565E-1,3.2652364E0,5.2180433E0,-4.7153664E-1,1.4988626E0,3.104156E-1,1.168852E0,2.169577E0,1.3410628E0,5.509594E-1,1.8624259E0,1.7920998E0,-4.57016E-1,2.1601832E0,3.530369E0,1.4622688E-2,6.70228E-1,1.0526276E-1,2.5894284E0,4.037634E0,2.059238E0,5.70046E0,9.205618E-1,2.244652E0,1.3086166E0,6.774951E-1,-2.0588888E-1,1.4751513E0,6.305805E-1,1.511589E0,2.6681976E0,1.9287449E0,9.774069E-1,6.881081E-2,1.7391281E0,2.6066275E0,1.4902337E0,2.2623539E-1,1.8558916E0],"categories":[],"categories_nodes":[],"categories_segments":[],"categories_sizes":[],"default_left":[true,true,true,true,true,true,true,true,true,false,true,true,true,true,false,true,false,true,true,true,true,true,true,true,true,false,true,false,true,true,true,false,false,false,false,true,true,false,true,true,true,true,true,true,true,true,false,false,false,false,false,false,false,false,false,false,false,false,false,false,false,false,false,false,false,false,false,false,false,false,false,false,false],"id":10,"left_children":[1,3,5,7,9,11,13,15,17,-1,19,21,23,25,-1,27,-1,29,31,33,35,37,39,41,43,-1,45,-1,47,49,51,-1,-1,-1,-1,53,55,-1,57,59,61,63,65,67,69,71,-1,-1,-1,-1,-1,-1,-1,-1,-1,-1,-1,-1,-1,-1,-1,-1,-1,-1,-1,-1,-1,-1,-1,-1,-1,-1,-1],"loss_changes":[1.699895E2,4.0434204E1,4.209662E1,9.954285E0,1.9808167E1,1.1934662E1,2.0321686E1,2.1576538E0,8.670319E0,0E0,1.8220886E1,7.313019E0,2.8942566E0,2.5106674E1,0E0,1.1838989E0,0E0,6.330658E0,9.870911E-2,2.3937805E0,1.3114807E1,5.422165E0,5.656008E0,6.2973633E0,1.397187E1,0E0,6.587021E0,0E0,2.1548462E0,2.734782E-1,5.5260315E0,0E0,0E0,0E0,0E0,3.4535034E1,1.1337799E1,0E0,5.717514E0,2.9823606E0,2.3672428E0,1.1714935E1,2.6028252E0,7.9005632E0,3.8711243E0,1.7776947E0,0E0,0E0,0E0,0E0,0E0,0E0,0E0,0E0,0E0,0E0,0E0,0E0,0E0,0E0,0E0,0E0,0E0,0E0,0E0,0E0,0E0,0E0,0E0,0E0,0E0,0E0,0E0],"parents":[2147483647,0,0,1,1,2,2,3,3,4,4,5,5,6,6,7,7,8,8,10,10,11,11,12,12,13,13,15,15,17,17,18,18,19,19,20,20,21,21,22,22,23,23,24,24,26,26,28,28,29,29,30,30,35,35,36,36,38,38,39,39,40,40,41,41,42,42,43,43,44,44,45,45],"right_children":[2,4,6,8,10,12,14,16,18,-1,20,22,24,26,-1,28,-1,30,32,34,36,38,40,42,44,-1,46,-1,48,50,52,-1,-1,-1,-1,54,56,-1,58,60,62,64,66,68,70,72,-1,-1,-1,-1,-1,-1,-1,-1,-1,-1,-1,-1,-1,-1,-1,-1,-1,-1,-1,-1,-1,-1,-1,-1,-1,-1,-1],"split_conditions":[2.5785E3,7.85E1,7.95E1,2.104E3,5.9E1,7.45E1,2.47E2,2.185E1,1.785E1,1.8699056E0,1.8475E3,1.59E2,1.175E2,-9.536743E-7,1.677221E0,4.7E1,2.0992185E-1,6.95E1,2.4595E3,8.5E1,8.45E1,2.5845E3,3.715E2,1.775E1,3.045E2,1.0952399E0,3.44E3,3.7902874E-1,1.57E1,2.145E3,2.1155E3,3.882804E-1,1.0309668E-1,3.162426E-1,-1.569377E-1,2.1445E3,-9.536743E-7,-1.41461E-1,9.6E1,1.775E2,4.5485E3,1.72E2,-9.536743E-7,1.36E2,1.41E2,1.35E1,-1.3710481E-1,6.4805496E-1,1.0591108E0,4.386807E-3,2.0106842E-1,3.1578828E-2,7.768286E-1,1.2112902E0,6.177714E-1,1.7101381E0,2.7616856E-1,6.7339563E-1,3.92585E-1,2.0324855E-1,-6.1766665E-2,4.425454E-1,1.8917416E-1,4.5347673E-1,8.004593E-1,5.786235E-1,2.932221E-1,2.0643245E-2,5.2173847E-1,7.8198826E-1,4.4707012E-1,6.787062E-2,5.567675E-1],"split_indices":[7,9,9,7,6,9,5,8,8,0,7,6,6,10,0,6,0,6,7,5,6,7,5,8,5,0,7,0,8,7,7,0,0,0,0,7,0,0,6,6,7,5,3,6,6,8,0,0,0,0,0,0,0,0,0,0,0,0,0,0,0,0,0,0,0,0,0,0,0,0,0,0,0],"split_type":[0,0,0,0,0,0,0,0,0,0,0,0,0,0,0,0,0,0,0,0,0,0,0,0,0,0,0,0,0,0,0,0,0,0,0,0,0,0,0,0,0,0,0,0,0,0,0,0,0,0,0,0,0,0,0,0,0,0,0,0,0,0,0,0,0,0,0,0,0,0,0,0,0],"sum_hessian":[3.92E2,1.56E2,2.36E2,9.8E1,5.8E1,2.01E2,3.5E1,3.6E1,6.2E1,4E0,5.4E1,9.4E1,1.07E2,3.3E1,2E0,3.5E1,1E0,5.2E1,1E1,2E0,5.2E1,6.1E1,3.3E1,6.7E1,4E1,1.1E1,2.2E1,2E0,3.3E1,2E0,5E1,9E0,1E0,1E0,1E0,4.5E1,7E0,1E0,6E1,1.4E1,1.9E1,4.7E1,2E1,1.3E1,2.7E1,2.1E1,1E0,8E0,2.5E1,1E0,1E0,1E0,4.9E1,2.6E1,1.9E1,6E0,1E0,1E1,5E1,8E0,6E0,1.1E1,8E0,2.2E1,2.5E1,6E0,1.4E1,1E1,3E0,7E0,2E1,1E0,2E1],"tree_param":{"num_deleted":"0","num_feature":"13","num_nodes":"73","size_leaf_vector":"0"}},{"base_weights":[8.154482E-1,6.5338403E-1,1.3863821E0,1.042403E0,5.1919854E-1,2.1546621E0,9.9827665E-1,1.8790001E0,9.060497E-1,-3.9460945E-1,5.4116154E-1,3.8427176E0,1.4089903E0,3.27231E-1,1.5938267E0,2.6143074E-1,2.0296822E0,2.625544E-1,1.0799363E0,-9.327866E-1,1.148138E0,1.5074447E0,5.1696074E-1,4.374886E0,5.877018E-2,2.4766178E-1,2.2593482E0,1.7278372E0,-3.6555212E-2,-7.890549E-1,1.8773159E0,1.0253006E0,2.6281273E0,-1.417586E-1,1.1803948E0,-5.966692E-1,1.1902596E0,-1.1584702E0,-1.50260925E-2,5.331128E-1,1.9792951E0,3.5400495E-1,6.628169E-1,-7.083206E-1,7.585572E-1,3.8398705E0,5.818509E-1,1.7693901E-1,2.002629E0,-2.8504473E-1,7.564208E-1,1.0963783E0,-1.782992E0,1.605232E0,4.6117897E0,3.8561884E-1,1.3232155E0,1.8391304E-1,-1.1800779E0,1.3559971E0,2.3899269E-1,-8.235111E-1,4.192829E-2,3.184246E0,1.086695E0,-2.9004765E-1,-1.3512617E0,5.481506E-1,2.435544E-1,2.4938335E-1,7.569249E-1,1.8218613E-1,-1.065885E0,3.1971017E-1,1.2371165E0,7.870083E-1,4.293041E0,-4.621788E-1,2.12795E0,2.291648E0,4.232769E-1,-6.44921E-1,2.9040027E-1,1.2229095E0,-1.1770439E-1,2.475498E0,7.43986E-1],"categories":[],"categories_nodes":[],"categories_segments":[],"categories_sizes":[],"default_left":[true,true,true,true,true,true,true,true,true,true,true,true,true,true,true,false,true,true,true,true,false,true,true,false,false,true,true,true,true,true,true,true,false,true,true,true,true,true,false,false,false,true,true,true,true,true,true,false,true,true,true,false,false,true,false,false,false,false,false,false,false,false,false,false,false,false,false,false,false,false,false,false,false,false,false,false,false,false,false,false,false,false,false,false,false,false,false],"id":11,"left_children":[1,3,5,7,9,11,13,15,17,19,21,23,25,27,29,-1,31,33,35,37,-1,39,41,-1,-1,43,45,47,49,51,53,55,-1,57,59,61,63,65,-1,-1,-1,67,69,71,73,75,77,-1,79,81,83,-1,-1,85,-1,-1,-1,-1,-1,-1,-1,-1,-1,-1,-1,-1,-1,-1,-1,-1,-1,-1,-1,-1,-1,-1,-1,-1,-1,-1,-1,-1,-1,-1,-1,-1,-1],"loss_changes":[3.545761E1,1.5536621E1,2.3492004E1,7.1952057E0,4.849724E0,2.983023E1,2.3057281E1,1.9067688E0,7.437229E0,6.052596E0,4.505684E0,1.585247E1,2.017889E1,1.4839275E1,2.242247E1,0E0,2.714985E0,6.104848E0,1.0698494E1,1.0182099E0,0E0,1.2435064E0,5.0418816E0,0E0,0E0,5.421372E0,2.9581627E1,2.2027016E0,4.9447227E0,9.450842E0,1.3429176E1,4.4259644E-1,0E0,4.2748456E0,5.024886E-1,6.1397123E-1,7.071533E0,2.7776814E-1,0E0,0E0,0E0,2.1609497E0,4.3244934E0,1.467843E0,1.0745816E0,4.9221497E0,1.2282707E1,0E0,1.3123112E0,4.121976E0,2.5905588E0,0E0,0E0,1.8395119E1,0E0,0E0,0E0,0E0,0E0,0E0,0E0,0E0,0E0,0E0,0E0,0E0,0E0,0E0,0E0,0E0,0E0,0E0,0E0,0E0,0E0,0E0,0E0,0E0,0E0,0E0,0E0,0E0,0E0,0E0,0E0,0E0,0E0],"parents":[2147483647,0,0,1,1,2,2,3,3,4,4,5,5,6,6,7,7,8,8,9,9,10,10,11,11,12,12,13,13,14,14,16,16,17,17,18,18,19,19,21,21,22,22,25,25,26,26,27,27,28,28,29,29,30,30,31,31,33,33,34,34,35,35,36,36,37,37,41,41,42,42,43,43,44,44,45,45,46,46,48,48,49,49,50,50,53,53],"right_children":[2,4,6,8,10,12,14,16,18,20,22,24,26,28,30,-1,32,34,36,38,-1,40,42,-1,-1,44,46,48,50,52,54,56,-1,58,60,62,64,66,-1,-1,-1,68,70,72,74,76,78,-1,80,82,84,-1,-1,86,-1,-1,-1,-1,-1,-1,-1,-1,-1,-1,-1,-1,-1,-1,-1,-1,-1,-1,-1,-1,-1,-1,-1,-1,-1,-1,-1,-1,-1,-1,-1,-1,-1],"split_conditions":[7.95E1,1.12E2,8.05E1,1.8295E3,2.227E3,1.515E1,8.15E1,7.15E1,1.98E3,8.8E1,2.271E3,-9.536743E-7,1.77E1,9E1,1.975E3,7.842922E-2,1.695E1,-9.536743E-7,7.85E1,1.67E1,3.444414E-1,1.185E2,7.45E1,1.3124659E0,1.7631054E-2,7.1E1,9.35E1,1.625E1,1.805E1,1.535E1,2.47E2,9.4E1,7.8843826E-1,1.9525E3,8.55E1,9.35E1,5E1,1.475E1,-4.507828E-3,1.5993385E-1,5.9378856E-1,1.275E1,-9.536743E-7,8.75E1,1.27E2,2.0265E3,-9.536743E-7,5.3081706E-2,6.45E1,8.65E1,2E1,3.289135E-1,-5.348976E-1,2.46E3,1.3835369E0,1.1568566E-1,3.9696467E-1,5.5173915E-2,-3.540234E-1,4.0679914E-1,7.169781E-2,-2.4705334E-1,1.2578488E-2,9.5527387E-1,3.260085E-1,-8.7014295E-2,-4.0537855E-1,1.6444519E-1,7.3066324E-2,7.4815005E-2,2.2707748E-1,5.465584E-2,-3.197655E-1,9.591305E-2,3.7113494E-1,2.3610249E-1,1.2879124E0,-1.3865365E-1,6.38385E-1,6.874944E-1,1.2698308E-1,-1.934763E-1,8.7120086E-2,3.6687285E-1,-3.531132E-2,7.4264944E-1,2.231958E-1],"split_indices":[9,5,9,7,7,8,9,5,7,6,7,0,8,5,7,0,8,12,5,8,0,5,9,0,0,6,5,8,8,8,5,5,0,7,5,6,6,8,0,0,0,8,10,5,5,7,11,0,6,6,8,0,0,7,0,0,0,0,0,0,0,0,0,0,0,0,0,0,0,0,0,0,0,0,0,0,0,0,0,0,0,0,0,0,0,0,0],"split_type":[0,0,0,0,0,0,0,0,0,0,0,0,0,0,0,0,0,0,0,0,0,0,0,0,0,0,0,0,0,0,0,0,0,0,0,0,0,0,0,0,0,0,0,0,0,0,0,0,0,0,0,0,0,0,0,0,0,0,0,0,0,0,0,0,0,0,0,0,0,0,0,0,0,0,0,0,0,0,0,0,0,0,0,0,0,0,0],"sum_hessian":[3.92E2,3.07E2,8.5E1,7.7E1,2.3E2,2.7E1,5.8E1,9E0,6.8E1,5E0,2.25E2,7E0,2E1,2.8E1,3E1,1E0,8E0,1.5E1,5.3E1,4E0,1E0,4E0,2.21E2,6E0,1E0,9E0,1.1E1,5E0,2.3E1,3E0,2.7E1,4E0,4E0,1.1E1,4E0,3E0,5E1,3E0,1E0,2E0,2E0,1.06E2,1.15E2,3E0,6E0,5E0,6E0,1E0,4E0,1.8E1,5E0,1E0,2E0,2.6E1,1E0,2E0,2E0,9E0,2E0,3E0,1E0,2E0,1E0,1E0,4.9E1,1E0,2E0,3.7E1,6.9E1,2.2E1,9.3E1,1E0,2E0,4E0,2E0,1E0,4E0,4E0,2E0,3E0,1E0,1.1E1,7E0,3E0,2E0,1.2E1,1.4E1],"tree_param":{"num_deleted":"0","num_feature":"13","num_nodes":"87","size_leaf_vector":"0"}},{"base_weights":[1.4874763E0,1.9246763E0,9.54038E-1,1.626122E0,2.460296E0,1.4784036E0,8.2983327E-1,2.7135844E0,1.5314194E0,3.3478162E0,1.9495794E0,1.6558427E0,5.8279526E-1,-3.8174552E-1,9.1161555E-1,1.3669894E0,1.9166589E0,6.529436E-1,3.6709325E0,1.7863624E0,4.973606E0,1.7948718E0,4.077072E-1,2.8185615E-1,8.900954E-1,-6.689472E-1,2.1629381E-1,7.6599973E-1,1.4818879E0,1.5839671E0,9.781878E-1,1.3351117E0,2.3442185E0,1.6288223E0,-1.1373463E0,4.7496386E0,2.475802E0,2.4233198E0,1.1776075E0,2.1219294E0,8.7551546E-1,7.5053215E-2,3.147936E-1,-8.549814E-1,2.23629E-1,7.2982025E-1,-1.9815509E-1,1.5136468E0,6.8597573E-1,1.65907E0,3.7047234E-1,1.0852312E0,1.8246908E0,1.1349916E0,-2.1130243E-2,1.7185798E0,4.8700768E-1,2.7005298E0,1.472185E0,5.0294323E0,9.7585106E-1,3.228714E0,1.6016428E0,1.3427402E0,3.6937993E0,1.9920874E0,7.929352E-1,-4.584942E-1,1.1315874E0,-1.3279915E-1,-9.728581E-1,-2.4028873E-1,-5.6943893E-2,-4.3698788E-1,1.7789382E0,7.8515834E-1,-2.1492958E-1,1.3166649E0,2.4097738E0,7.087269E-1,-9.127299E-2],"categories":[],"categories_nodes":[],"categories_segments":[],"categories_sizes":[],"default_left":[true,true,true,true,true,true,true,false,true,true,true,true,true,true,true,true,true,true,true,true,false,true,false,true,false,true,true,true,true,true,true,true,true,false,false,true,true,true,true,false,true,false,false,true,false,false,true,true,true,true,true,false,false,false,false,false,false,false,false,false,false,false,false,false,false,false,false,false,false,false,false,false,false,false,false,false,false,false,false,false,false],"id":12,"left_children":[1,3,5,7,9,11,13,-1,15,17,19,21,23,25,27,29,31,33,35,37,-1,39,-1,41,-1,43,45,47,49,51,53,55,57,-1,-1,59,61,63,65,-1,67,-1,-1,69,-1,-1,71,73,75,77,79,-1,-1,-1,-1,-1,-1,-1,-1,-1,-1,-1,-1,-1,-1,-1,-1,-1,-1,-1,-1,-1,-1,-1,-1,-1,-1,-1,-1,-1,-1],"loss_changes":[8.981891E1,3.0380249E1,1.0431213E1,1.0365326E1,2.7468506E1,4.279213E0,1.4913597E1,0E0,5.7414856E0,2.0242798E1,1.5793961E1,3.953453E0,3.964715E-1,1.8622683E0,1.0324478E1,6.5492554E0,6.070099E0,8.840959E0,1.7892303E1,1.6146088E1,0E0,5.358597E0,0E0,1.0431498E-2,0E0,1.3535469E0,9.9593943E-1,5.6626053E0,4.702282E0,5.2232513E0,5.821762E0,5.0170135E0,2.2386322E0,0E0,0E0,6.706726E0,3.3848953E0,2.661583E1,6.879715E0,0E0,3.251647E0,0E0,0E0,3.8157558E-1,0E0,0E0,4.166253E-3,5.95224E0,9.372227E0,2.7391663E0,8.456248E-1,0E0,0E0,0E0,0E0,0E0,0E0,0E0,0E0,0E0,0E0,0E0,0E0,0E0,0E0,0E0,0E0,0E0,0E0,0E0,0E0,0E0,0E0,0E0,0E0,0E0,0E0,0E0,0E0,0E0,0E0],"parents":[2147483647,0,0,1,1,2,2,3,3,4,4,5,5,6,6,8,8,9,9,10,10,11,11,12,12,13,13,14,14,15,15,16,16,17,17,18,18,19,19,21,21,23,23,25,25,26,26,27,27,28,28,29,29,30,30,31,31,32,32,35,35,36,36,37,37,38,38,40,40,43,43,46,46,47,47,48,48,49,49,50,50],"right_children":[2,4,6,8,10,12,14,-1,16,18,20,22,24,26,28,30,32,34,36,38,-1,40,-1,42,-1,44,46,48,50,52,54,56,58,-1,-1,60,62,64,66,-1,68,-1,-1,70,-1,-1,72,74,76,78,80,-1,-1,-1,-1,-1,-1,-1,-1,-1,-1,-1,-1,-1,-1,-1,-1,-1,-1,-1,-1,-1,-1,-1,-1,-1,-1,-1,-1,-1,-1],"split_conditions":[9.65E1,7.95E1,2.922E3,1.8295E3,6.75E1,1.86E2,1.76E2,8.1407535E-1,8.85E1,1.8475E3,2.435E2,-9.536743E-7,2.868E3,-9.536743E-7,7.75E1,1.135E2,1.37E2,8.5E1,8.05E1,-9.536743E-7,1.4920819E0,1.485E1,1.22312166E-1,2.155E2,2.6702863E-1,3.615E3,1E2,2.315E2,3.9475E3,6.85E1,7.85E1,2.4105E3,3.174E3,4.8864672E-1,-3.412039E-1,1.335E2,6.45E1,7.55E1,1.195E2,6.3657886E-1,2.447E3,2.2515966E-2,9.443808E-2,1.3700001E1,6.70887E-2,2.1894608E-1,1.255E2,7.2E1,1.63E1,3.115E2,3.505E2,3.2556936E-1,5.4740727E-1,3.404975E-1,-6.339073E-3,5.15574E-1,1.4610231E-1,8.1015897E-1,4.4165552E-1,1.5088297E0,2.9275534E-1,9.686142E-1,4.8049286E-1,4.0282208E-1,1.1081399E0,5.976262E-1,2.3788057E-1,-1.3754827E-1,3.3947623E-1,-3.9839745E-2,-2.9185742E-1,-7.2086625E-2,-1.7083168E-2,-1.3109636E-1,5.3368145E-1,2.3554751E-1,-6.4478874E-2,3.949995E-1,7.2293216E-1,2.1261807E-1,-2.7381897E-2],"split_indices":[6,9,7,7,6,5,5,0,6,7,5,0,7,1,9,5,5,5,9,10,0,8,0,5,0,7,6,5,7,6,9,7,7,0,0,5,6,6,5,0,7,0,0,8,0,0,5,9,8,5,5,0,0,0,0,0,0,0,0,0,0,0,0,0,0,0,0,0,0,0,0,0,0,0,0,0,0,0,0,0,0],"split_type":[0,0,0,0,0,0,0,0,0,0,0,0,0,0,0,0,0,0,0,0,0,0,0,0,0,0,0,0,0,0,0,0,0,0,0,0,0,0,0,0,0,0,0,0,0,0,0,0,0,0,0,0,0,0,0,0,0,0,0,0,0,0,0,0,0,0,0,0,0,0,0,0,0,0,0,0,0,0,0,0,0],"sum_hessian":[3.92E2,2.14E2,1.78E2,1.4E2,7.4E1,3.2E1,1.46E2,9E0,1.31E2,2.5E1,4.9E1,2.6E1,6E0,9E0,1.37E2,9.5E1,3.6E1,3E0,2.2E1,4.8E1,1E0,2.3E1,3E0,4E0,2E0,6E0,3E0,1.11E2,2.6E1,5.9E1,3.6E1,1.7E1,1.9E1,2E0,1E0,1E1,1.2E1,2.2E1,2.6E1,1.6E1,7E0,1E0,3E0,5E0,1E0,1E0,2E0,9E0,1.02E2,2.2E1,4E0,2.1E1,3.8E1,3.1E1,5E0,1.1E1,6E0,1.2E1,7E0,9E0,1E0,5E0,7E0,1.3E1,9E0,7E0,1.9E1,1E0,6E0,1E0,4E0,1E0,1E0,1E0,8E0,9.2E1,1E1,1.7E1,5E0,2E0,2E0],"tree_param":{"num_deleted":"0","num_feature":"13","num_nodes":"81","size_leaf_vector":"0"}},{"base_weights":[4.8762268E-1,3.7578273E-1,8.8249564E-1,4.9649355E-1,1.9509014E-1,1.3652598E0,6.384297E-1,1.1805074E0,4.5456994E-1,-6.9572735E-1,2.5383124E-1,2.7164419E0,8.732809E-1,5.218671E-1,2.640309E0,5.361843E-1,1.5206922E0,2.0623703E-1,5.727796E-1,-3.1854725E-1,-8.5832596E-1,6.637681E-1,1.4759634E-1,3.1562681E0,3.8742065E-2,-6.637406E-2,1.3162115E0,8.998099E-1,6.860443E-2,3.711853E-1,3.5892782E0,1.3581975E-1,7.578208E-1,9.270954E-2,1.7877468E0,-1.15341365E-1,3.7852412E-1,2.7649899E0,5.3041035E-1,-4.5057297E-2,-3.9469147E-1,1.2993634E0,-8.010753E-2,-3.4114137E-1,2.292394E-1,3.5651364E0,5.559635E-1,-6.3509214E-1,6.611171E-1,2.4844494E0,4.8364753E-1,-4.0138626E-1,1.0033884E0,1.178319E0,-1.1920651E-1,8.445387E-1,-3.222402E-1,8.600194E-1,1.2321787E-1,-1.3493598E-1,6.295783E-1,1.4138258E0,-3.709221E-2,6.888981E-1,-5.507226E-1,5.817008E-1,-6.457075E-1,5.861951E-1,1.5967278E-1,-8.567734E-1,-2.0171356E-1,1.14115715E-1,8.054123E-1,3.9447975E-1,2.8235474E0,-1.1405373E0,7.908389E-1,-4.760399E-1,-1.260395E-1,5.7840705E-1,1.3614773E0,-2.6418495E-1,1.7472153E0,-8.9453644E-1,1.8893327E-1],"categories":[],"categories_nodes":[],"categories_segments":[],"categories_sizes":[],"default_left":[true,true,true,true,true,true,true,true,true,true,true,true,true,true,true,true,true,true,true,true,false,true,true,true,false,true,true,true,true,false,false,false,false,false,false,true,true,false,true,false,false,true,true,true,true,false,false,true,true,true,true,true,true,true,true,false,false,false,false,false,false,false,false,false,false,false,false,false,false,false,false,false,false,false,false,false,false,false,false,false,false,false,false,false,false],"id":13,"left_children":[1,3,5,7,9,11,13,15,17,19,21,23,25,27,29,31,33,35,37,39,-1,41,43,45,-1,47,49,51,53,-1,-1,-1,-1,-1,-1,55,57,-1,59,-1,-1,61,63,65,67,-1,-1,69,71,73,75,77,79,81,83,-1,-1,-1,-1,-1,-1,-1,-1,-1,-1,-1,-1,-1,-1,-1,-1,-1,-1,-1,-1,-1,-1,-1,-1,-1,-1,-1,-1,-1,-1],"loss_changes":[1.7024261E1,6.6210976E0,9.261436E0,4.7398186E0,6.717547E0,1.6240868E1,1.2389421E1,1.3765173E0,5.019062E0,2.1721435E-1,5.0408835E0,8.12178E0,9.243805E0,9.702787E0,5.127699E0,3.4074986E-1,2.1223545E0,3.2570808E0,9.493526E0,6.551501E-2,0E0,1.1451384E1,3.8688972E0,4.397011E0,0E0,3.7297692E0,1.3387892E1,4.580805E0,5.7677097E0,0E0,0E0,0E0,0E0,0E0,0E0,4.4427032E0,4.5653224E0,0E0,7.8047333E0,0E0,0E0,2.0411015E0,4.722259E0,4.310539E0,1.9426417E0,0E0,0E0,3.075366E-1,2.2380853E-1,3.1383972E0,5.8913364E0,1.6670525E-3,3.6257648E0,3.7441282E0,5.9028473E0,0E0,0E0,0E0,0E0,0E0,0E0,0E0,0E0,0E0,0E0,0E0,0E0,0E0,0E0,0E0,0E0,0E0,0E0,0E0,0E0,0E0,0E0,0E0,0E0,0E0,0E0,0E0,0E0,0E0,0E0],"parents":[2147483647,0,0,1,1,2,2,3,3,4,4,5,5,6,6,7,7,8,8,9,9,10,10,11,11,12,12,13,13,14,14,15,15,16,16,17,17,18,18,19,19,21,21,22,22,23,23,25,25,26,26,27,27,28,28,35,35,36,36,38,38,41,41,42,42,43,43,44,44,47,47,48,48,49,49,50,50,51,51,52,52,53,53,54,54],"right_children":[2,4,6,8,10,12,14,16,18,20,22,24,26,28,30,32,34,36,38,40,-1,42,44,46,-1,48,50,52,54,-1,-1,-1,-1,-1,-1,56,58,-1,60,-1,-1,62,64,66,68,-1,-1,70,72,74,76,78,80,82,84,-1,-1,-1,-1,-1,-1,-1,-1,-1,-1,-1,-1,-1,-1,-1,-1,-1,-1,-1,-1,-1,-1,-1,-1,-1,-1,-1,-1,-1,-1],"split_conditions":[7.95E1,2.41E2,8.05E1,1.8295E3,3.199E3,1.505E1,2.47E2,1.695E1,7.35E1,2.54E2,3.572E3,-9.536743E-7,1.645E1,1.195E2,-9.536743E-7,9.4E1,7.15E1,8.65E1,5E1,1.55E1,-2.574978E-1,1.505E1,3.758E3,-9.536743E-7,1.162262E-2,1.03E2,9.35E1,1.445E1,2.3775E3,1.11355595E-1,1.0767835E0,4.0745925E-2,2.2734624E-1,2.7812863E-2,5.363241E-1,1.525E1,2.309E3,8.29497E-1,6.85E1,-1.351719E-2,-1.1840744E-1,3.505E2,9.9E1,7.25E1,3.92E3,1.069541E0,1.6678905E-1,1.565E1,1.15E2,2.0265E3,1.02E2,1.06E2,2.095E3,1.23E1,2.63E3,2.533616E-1,-9.6672066E-2,2.5800583E-1,3.6965363E-2,-4.0480793E-2,1.888735E-1,4.2414775E-1,-1.1127663E-2,2.0666943E-1,-1.6521679E-1,1.7451024E-1,-1.9371225E-1,1.7585854E-1,4.7901835E-2,-2.5703204E-1,-6.051407E-2,3.4234717E-2,2.416237E-1,1.1834393E-1,8.4706426E-1,-3.4216118E-1,2.3725168E-1,-1.4281197E-1,-3.7811853E-2,1.7352211E-1,4.0844318E-1,-7.925549E-2,5.241646E-1,-2.6836094E-1,5.6679983E-2],"split_indices":[9,5,9,7,7,8,5,8,9,5,7,0,8,5,3,5,5,6,6,8,0,8,7,10,0,5,5,8,7,0,0,0,0,0,0,8,7,0,6,0,0,5,6,9,7,0,0,8,5,7,5,5,7,8,7,0,0,0,0,0,0,0,0,0,0,0,0,0,0,0,0,0,0,0,0,0,0,0,0,0,0,0,0,0,0],"split_type":[0,0,0,0,0,0,0,0,0,0,0,0,0,0,0,0,0,0,0,0,0,0,0,0,0,0,0,0,0,0,0,0,0,0,0,0,0,0,0,0,0,0,0,0,0,0,0,0,0,0,0,0,0,0,0,0,0,0,0,0,0,0,0,0,0,0,0,0,0,0,0,0,0,0,0,0,0,0,0,0,0,0,0,0,0],"sum_hessian":[3.92E2,3.07E2,8.5E1,1.83E2,1.24E2,2.7E1,5.8E1,9E0,1.74E2,7E0,1.17E2,6E0,2.1E1,5.6E1,2E0,4E0,5E0,5.7E1,1.17E2,3E0,4E0,2.3E1,9.4E1,5E0,1E0,7E0,1.4E1,3E1,2.6E1,1E0,1E0,2E0,2E0,1E0,4E0,2E1,3.7E1,1E0,1.16E2,1E0,2E0,1.2E1,1.1E1,1.3E1,8.1E1,4E0,1E0,4E0,3E0,5E0,9E0,2E0,2.8E1,3E0,2.3E1,3E0,1.7E1,1.2E1,2.5E1,1.5E1,1.01E2,1.1E1,1E0,4E0,7E0,3E0,1E1,1.2E1,6.9E1,2E0,2E0,1E0,2E0,1E0,4E0,1E0,8E0,1E0,1E0,1.4E1,1.4E1,1E0,2E0,6E0,1.7E1],"tree_param":{"num_deleted":"0","num_feature":"13","num_nodes":"85","size_leaf_vector":"0"}},{"base_weights":[3.5767394E-1,3.2738152E-1,1.2921762E0,9.0574944E-1,2.77301E-1,-1.4700012E-1,2.0301394E0,9.918308E-2,1.2466978E0,2.3267554E-1,7.500127E-1,-3.6499214E-1,3.6248398E-1,-1.10902995E-1,9.949789E-1,1.8454293E0,4.308033E-2,-4.075347E-1,2.543623E-1,5.6546926E-1,3.0508862E0,-6.780052E-2,-4.4145584E-1,-3.212959E-1,4.1698137E-1,1.2655312E0,3.5498784E0,1.0651922E0,-2.5510597E-1,6.792917E-1,-9.0000606E-1,1.0361423E0,2.2789618E-1,-7.550373E-1,7.4687535E-1,-5.2473944E-1,1.2487539E-1,6.0558796E-1,1.988411E-2,1.3968273E0,-8.93631E-2,-6.3392067E-1,4.6128717E-1,-4.3605947E-1,-1.0911621E0,4.8644495E-1,2.1566212E0,2.7706665E-1,-7.007113E-2,8.3805084E-1,-1.5654169E0,1.1529101E0,3.7225583E-1],"categories":[],"categories_nodes":[],"categories_segments":[],"categories_sizes":[],"default_left":[true,true,true,true,true,true,false,true,true,true,true,true,false,true,false,true,true,true,true,true,false,false,false,true,true,true,false,false,true,false,true,true,true,true,true,false,false,false,false,false,false,false,false,false,false,false,false,false,false,false,false,false,false],"id":14,"left_children":[1,3,5,7,9,11,-1,13,15,17,19,21,-1,23,-1,25,27,29,31,33,-1,-1,-1,35,37,39,-1,-1,41,-1,43,45,47,49,51,-1,-1,-1,-1,-1,-1,-1,-1,-1,-1,-1,-1,-1,-1,-1,-1,-1,-1],"loss_changes":[1.0702141E1,1.081345E1,1.304314E1,8.126274E0,7.2720165E0,6.876212E-1,0E0,1.9922885E0,1.5054012E1,4.6021023E0,1.1013149E1,6.096661E-2,0E0,1.1335424E0,0E0,9.345215E0,2.7099752E0,6.4989066E0,6.2607384E0,7.510806E0,0E0,0E0,0E0,7.009218E-1,2.1264392E-1,2.259533E0,0E0,0E0,2.1920815E0,0E0,2.3367786E-1,5.1101656E0,4.4880285E0,6.475924E0,3.5256443E0,0E0,0E0,0E0,0E0,0E0,0E0,0E0,0E0,0E0,0E0,0E0,0E0,0E0,0E0,0E0,0E0,0E0,0E0],"parents":[2147483647,0,0,1,1,2,2,3,3,4,4,5,5,7,7,8,8,9,9,10,10,11,11,13,13,15,15,16,16,17,17,18,18,19,19,23,23,24,24,25,25,28,28,30,30,31,31,32,32,33,33,34,34],"right_children":[2,4,6,8,10,12,-1,14,16,18,20,22,-1,24,-1,26,28,30,32,34,-1,-1,-1,36,38,40,-1,-1,42,-1,44,46,48,50,52,-1,-1,-1,-1,-1,-1,-1,-1,-1,-1,-1,-1,-1,-1,-1,-1,-1,-1],"split_conditions":[2.125E1,8.85E1,7.7E1,1.625E1,8.15E1,2.285E1,6.0904187E-1,8.7E1,1.91E1,9.05E1,2.47E2,9.15E1,1.08745195E-1,1.575E1,2.9849368E-1,2.0445E3,1.8515E3,-9.536743E-7,1.9275E3,1.975E3,9.1526586E-1,-2.0340158E-2,-1.3243675E-1,7.8E1,8E1,2.011E3,1.0649636E0,3.1955767E-1,7.95E1,2.0378752E-1,7.05E1,1.8425E3,1.775E1,1.535E1,2.46E3,-1.5742184E-1,3.746262E-2,1.8167639E-1,5.9652333E-3,4.1904822E-1,-2.680893E-2,-1.901762E-1,1.3838616E-1,-1.3081785E-1,-3.2734865E-1,1.459335E-1,6.4698637E-1,8.3119996E-2,-2.102134E-2,2.5141525E-1,-4.696251E-1,3.4587306E-1,1.1167675E-1],"split_indices":[8,5,9,8,9,8,0,5,8,5,5,5,0,8,0,7,7,11,7,7,0,0,0,9,5,7,0,0,9,0,6,7,8,8,7,0,0,0,0,0,0,0,0,0,0,0,0,0,0,0,0,0,0],"split_type":[0,0,0,0,0,0,0,0,0,0,0,0,0,0,0,0,0,0,0,0,0,0,0,0,0,0,0,0,0,0,0,0,0,0,0,0,0,0,0,0,0,0,0,0,0,0,0,0,0,0,0,0,0],"sum_hessian":[3.92E2,3.81E2,1.1E1,2.9E1,3.52E2,4E0,7E0,9E0,2E1,3.23E2,2.9E1,3E0,1E0,8E0,1E0,1.3E1,7E0,1E1,3.13E2,2.8E1,1E0,1E0,2E0,6E0,2E0,1.1E1,2E0,1E0,6E0,3E0,7E0,9E0,3.04E2,3E0,2.5E1,4E0,2E0,1E0,1E0,1E1,1E0,4E0,2E0,3E0,4E0,7E0,2E0,2.61E2,4.3E1,1E0,2E0,1.1E1,1.4E1],"tree_param":{"num_deleted":"0","num_feature":"13","num_nodes":"53","size_leaf_vector":"0"}},{"base_weights":[5.0903106E0,3.6685133E0,6.444003E0,4.2302775E0,2.9138525E0,7.3137407E0,5.6037283E0,3.8659203E0,5.2447286E0,2.5093944E0,3.3162441E0,6.3888927E0,8.05158E0,4.8919463E0,6.532805E0,3.9043229E0,1.5276155E0,2.5487108E0,3.504238E-1,6.275153E-1,3.3690956E0],"categories":[],"categories_nodes":[],"categories_segments":[],"categories_sizes":[],"default_left":[true,true,true,true,true,true,true,true,false,true,true,false,false,false,false,false,false,false,false,false,false],"id":15,"left_children":[1,3,5,7,9,11,13,15,-1,17,19,-1,-1,-1,-1,-1,-1,-1,-1,-1,-1],"loss_changes":[7.3275684E2,6.991821E1,1.0517969E2,2.0013062E1,5.6748047E0,1.338623E1,3.8139404E1,1.5786133E0,0E0,3.0963745E0,3.5699768E0,0E0,0E0,0E0,0E0,0E0,0E0,0E0,0E0,0E0,0E0],"parents":[2147483647,0,0,1,1,2,2,3,3,4,4,5,5,6,6,7,7,9,9,10,10],"right_children":[2,4,6,8,10,12,14,16,-1,18,20,-1,-1,-1,-1,-1,-1,-1,-1,-1,-1],"split_conditions":[-9.536743E-7,3.745E3,2.2195E3,7.85E1,7.35E1,7.75E1,7.85E1,1.75E2,1.5734186E0,1.725E1,3.768E3,1.9166678E0,2.4154742E0,1.4675839E0,1.9598416E0,1.171297E0,4.5828468E-1,7.646133E-1,1.0512715E-1,1.8825461E-1,1.0107287E0],"split_indices":[1,7,7,9,9,9,9,6,0,8,7,0,0,0,0,0,0,0,0,0,0],"split_type":[0,0,0,0,0,0,0,0,0,0,0,0,0,0,0,0,0,0,0,0,0],"sum_hessian":[3.92E2,1.93E2,1.99E2,1.08E2,8.5E1,9.4E1,1.05E2,8.3E1,2.5E1,4.6E1,3.9E1,4.6E1,4.8E1,6.3E1,4.2E1,8.1E1,2E0,4.5E1,1E0,1E0,3.8E1],"tree_param":{"num_deleted":"0","num_feature":"13","num_nodes":"21","size_leaf_vector":"0"}},{"base_weights":[1.2067844E0,1.5587021E0,7.7734804E-1,1.3738399E0,1.8854605E0,6.942676E-1,1.261353E0,1.578129E0,1.1177819E0,1.9464017E0,-2.2593053E-1,8.495382E-1,5.5291337E-1,1.4129971E0,1.1197233E-1,1.6046747E0,3.972918E-1,5.690768E-1,1.398041E0,2.4772193E0,1.6526812E0,1.9886017E-2,-3.587818E-1,1.0689212E0,5.578759E-1,-5.3980134E-2,6.3565546E-1,1.1813803E0,2.1599283E0,4.1758633E-1,-1.2909444E-1,1.6225549E0,1.497097E-1,8.507557E-1,-2.5481796E-1,6.357503E-1,-4.822073E-1,8.831961E-1,1.9459529E0,-3.9775085E-1,2.6195114E0,1.5413527E0,3.5538902E0,7.8266424E-1,1.4493899E0,6.3362825E-1,-9.3309975E-1,4.8869038E-1,-2.2887251E-1,1.3053579E0,5.462036E-1,1.4960672E0,5.616772E-1,8.877182E-2,-2.8241348E-1,1.7294999E0,1.1996952E0,9.407499E-1,4.4351614E-1,1.3788172E0,3.5776153E-1,2.394937E0,9.731097E-1,3.4993916E0,2.015852E0,2.448628E0,1.3318396E0,1.0217721E0,2.184786E-2,1.8811325E0,6.255593E-1,2.626263E-1,8.4309804E-1,-5.9913254E-1,5.6112926E-2,2.9074922E-1,1.5951027E0,-7.751975E-1,5.7797027E-1,1.5941987E0,2.0831013E-1,-1.4868577E-1,1.7951775E0],"categories":[],"categories_nodes":[],"categories_segments":[],"categories_sizes":[],"default_left":[true,true,true,true,true,true,true,true,true,true,true,true,true,true,true,true,true,true,true,true,true,false,false,true,true,true,true,true,false,false,true,true,false,false,false,true,false,true,true,false,true,true,false,true,true,true,false,false,true,true,true,true,true,false,false,false,false,false,false,false,false,false,false,false,false,false,false,false,false,false,false,false,false,false,false,false,false,false,false,false,false,false,false],"id":16,"left_children":[1,3,5,7,9,11,13,15,17,19,21,23,25,27,29,31,33,35,37,39,41,-1,-1,43,45,47,49,51,-1,-1,53,55,-1,-1,-1,57,-1,59,61,-1,63,65,-1,67,69,71,-1,-1,73,75,77,79,81,-1,-1,-1,-1,-1,-1,-1,-1,-1,-1,-1,-1,-1,-1,-1,-1,-1,-1,-1,-1,-1,-1,-1,-1,-1,-1,-1,-1,-1,-1],"loss_changes":[5.818091E1,1.0396851E1,6.3221207E0,5.6116943E0,1.0090057E1,2.9322433E0,4.1992073E0,1.7447968E0,9.353859E0,7.287506E0,1.0510588E-1,4.010647E0,4.252426E0,1.2543449E0,3.4860158E-1,1.6822052E0,1.1039124E0,1.988791E0,1.0411194E1,1.085997E1,5.1051483E0,0E0,0E0,3.2220879E0,4.3184204E0,1.1558461E0,3.7200642E0,2.8649292E0,0E0,0E0,1.252795E-1,1.2263794E0,0E0,0E0,0E0,9.3128395E-1,0E0,5.756708E0,6.4052887E0,0E0,5.16214E0,6.0530396E0,0E0,4.525607E0,4.514164E0,2.265419E0,0E0,0E0,9.8328745E-1,1.8880444E0,3.2604656E0,1.1843472E0,7.27678E0,0E0,0E0,0E0,0E0,0E0,0E0,0E0,0E0,0E0,0E0,0E0,0E0,0E0,0E0,0E0,0E0,0E0,0E0,0E0,0E0,0E0,0E0,0E0,0E0,0E0,0E0,0E0,0E0,0E0,0E0],"parents":[2147483647,0,0,1,1,2,2,3,3,4,4,5,5,6,6,7,7,8,8,9,9,10,10,11,11,12,12,13,13,14,14,15,15,16,16,17,17,18,18,19,19,20,20,23,23,24,24,25,25,26,26,27,27,30,30,31,31,35,35,37,37,38,38,40,40,41,41,43,43,44,44,45,45,48,48,49,49,50,50,51,51,52,52],"right_children":[2,4,6,8,10,12,14,16,18,20,22,24,26,28,30,32,34,36,38,40,42,-1,-1,44,46,48,50,52,-1,-1,54,56,-1,-1,-1,58,-1,60,62,-1,64,66,-1,68,70,72,-1,-1,74,76,78,80,82,-1,-1,-1,-1,-1,-1,-1,-1,-1,-1,-1,-1,-1,-1,-1,-1,-1,-1,-1,-1,-1,-1,-1,-1,-1,-1,-1,-1,-1,-1],"split_conditions":[9.65E1,7.95E1,7.85E1,1.12E2,3.3155E3,3.6575E3,3.9475E3,9.35E1,1.37E2,8.05E1,8.75E1,1.545E1,1.335E2,3.34E2,3.505E2,-9.536743E-7,1.06E2,7.85E1,8.85E1,1.8475E3,2.31E2,5.965805E-3,-1.0763455E-1,3.213E3,1.24E2,2.405E2,1.425E2,1.155E2,6.4797854E-1,1.2527591E-1,1.4E2,1.88E1,4.4912912E-2,2.5522673E-1,-7.644539E-2,1.45E1,-1.446622E-1,8.2E1,3.174E3,-1.1932526E-1,9.4E1,6.45E1,1.0661671E0,2.315E2,1.475E2,7.45E1,-2.7992994E-1,1.4660712E-1,3.8835E3,7.35E1,3.668E3,1.65E1,1.31E2,2.6631547E-2,-8.472405E-2,5.1885E-1,3.5990858E-1,2.8222498E-1,1.3305485E-1,4.1364518E-1,1.0732847E-1,7.184811E-1,2.9193294E-1,1.0498176E0,6.0475564E-1,7.345884E-1,3.995519E-1,3.0653167E-1,6.5543586E-3,5.6433976E-1,1.8766779E-1,7.878789E-2,2.5292942E-1,-1.7973977E-1,1.6833879E-2,8.722477E-2,4.7853082E-1,-2.3255926E-1,1.7339109E-1,4.7825962E-1,6.249304E-2,-4.4605732E-2,5.3855324E-1],"split_indices":[6,9,9,5,7,7,7,6,5,9,6,8,6,5,5,0,5,9,6,7,5,0,0,7,6,5,6,6,0,0,6,8,0,0,0,8,0,6,7,0,5,6,0,5,6,9,0,0,7,9,7,8,6,0,0,0,0,0,0,0,0,0,0,0,0,0,0,0,0,0,0,0,0,0,0,0,0,0,0,0,0,0,0],"split_type":[0,0,0,0,0,0,0,0,0,0,0,0,0,0,0,0,0,0,0,0,0,0,0,0,0,0,0,0,0,0,0,0,0,0,0,0,0,0,0,0,0,0,0,0,0,0,0,0,0,0,0,0,0,0,0,0,0,0,0,0,0,0,0,0,0,0,0,0,0,0,0,0,0,0,0,0,0,0,0,0,0,0,0],"sum_hessian":[3.92E2,2.14E2,1.78E2,1.4E2,7.4E1,1.54E2,2.4E1,7.5E1,6.5E1,7.2E1,2E0,7.1E1,8.3E1,2.1E1,3E0,7.3E1,2E0,2.3E1,4.2E1,2.3E1,4.9E1,1E0,1E0,3.9E1,3.2E1,1E1,7.3E1,1.8E1,3E0,1E0,2E0,7.2E1,1E0,1E0,1E0,2.2E1,1E0,2.3E1,1.9E1,1E0,2.2E1,4.8E1,1E0,2.4E1,1.5E1,3.1E1,1E0,2E0,8E0,7E0,6.6E1,1.1E1,7E0,1E0,1E0,5.5E1,1.7E1,7E0,1.5E1,1.1E1,1.2E1,1.2E1,7E0,7E0,1.5E1,7E0,4.1E1,1.8E1,6E0,9E0,6E0,1.2E1,1.9E1,3E0,5E0,2E0,5E0,1E0,6.5E1,1E1,1E0,5E0,2E0],"tree_param":{"num_deleted":"0","num_feature":"13","num_nodes":"83","size_leaf_vector":"0"}},{"base_weights":[2.212879E-1,3.1905177E-1,7.386033E-2,2.771238E-1,1.2389112E0,5.9062988E-2,8.1870204E-1,3.0064207E-1,-1.10918E0,2.6976922E0,5.3700435E-1,1.9444707E-1,-2.0849535E-2,2.6326358E-1,1.0742153E0,-1.2779039E0,-3.0150414E-1,8.6246425E-1,-2.9291692E-1,6.207004E-1,1.7286256E-2,2.4194974E-2,-6.1631954E-1,5.898027E-1,2.11216E-1,1.4317713E0,-2.3733902E-1,1.4804395E-1,1.1826634E0,-5.4982185E-1,1.0231551E0,-2.8693795E-1,1.9692704E-1,-5.517163E-1,4.95222E-2,-7.2432834E-1,1.5866756E-2,8.2431144E-1,-2.649836E-1,6.961157E-1,1.4234383E-1,2.820333E-1,1.7680117E0,2.8960323E-1,-6.753731E-2,-6.881707E-1,1.7867088E-3,-8.795244E-1,6.2376283E-2,1.309525E-1,9.561324E-1,2.5738433E-1,-3.4384537E-2],"categories":[],"categories_nodes":[],"categories_segments":[],"categories_sizes":[],"default_left":[true,true,true,true,true,true,false,true,true,false,true,true,true,true,true,false,false,true,false,true,true,true,true,true,true,true,false,true,false,true,false,true,true,false,true,false,false,false,false,false,false,false,false,false,false,false,false,false,false,false,false,false,false],"id":17,"left_children":[1,3,5,7,9,11,-1,13,15,-1,17,19,21,23,25,-1,-1,27,-1,29,31,33,35,37,39,41,-1,43,-1,45,-1,47,49,-1,51,-1,-1,-1,-1,-1,-1,-1,-1,-1,-1,-1,-1,-1,-1,-1,-1,-1,-1],"loss_changes":[5.6407776E0,8.758677E0,1.6930702E0,7.7344513E0,8.790611E0,1.6917999E0,0E0,6.1941566E0,1.5980387E-1,0E0,2.413479E0,4.3691635E0,2.6703546E0,3.5294724E0,5.029355E0,0E0,0E0,1.1974549E0,0E0,8.5709505E0,2.351851E0,1.383842E0,4.8946476E-1,6.03162E0,6.145981E0,2.5940704E0,0E0,1.1111161E-1,0E0,3.8280153E-1,0E0,3.3668437E0,1.227174E0,0E0,1.5785431E0,0E0,0E0,0E0,0E0,0E0,0E0,0E0,0E0,0E0,0E0,0E0,0E0,0E0,0E0,0E0,0E0,0E0,0E0],"parents":[2147483647,0,0,1,1,2,2,3,3,4,4,5,5,7,7,8,8,10,10,11,11,12,12,13,13,14,14,17,17,19,19,20,20,21,21,22,22,23,23,24,24,25,25,27,27,29,29,31,31,32,32,34,34],"right_children":[2,4,6,8,10,12,-1,14,16,-1,18,20,22,24,26,-1,-1,28,-1,30,32,34,36,38,40,42,-1,44,-1,46,-1,48,50,-1,52,-1,-1,-1,-1,-1,-1,-1,-1,-1,-1,-1,-1,-1,-1,-1,-1,-1,-1],"split_conditions":[3.1115E3,3.0075E3,2.205E1,2.9815E3,3.018E3,1.31E1,2.4561062E-1,2.085E1,-9.536743E-7,8.093077E-1,2.41E2,3.29E2,1.575E2,8.85E1,-9.536743E-7,-3.833712E-1,-9.045124E-2,8.9E1,-8.787508E-2,3.4345E3,3.555E2,1.43E2,4.6735E3,1.91E1,1.395E1,7.35E1,-7.120171E-2,8.65E1,3.5479903E-1,3.416E3,3.0694655E-1,4.0685E3,2.275E2,-1.655149E-1,3.3805E3,-2.1729851E-1,4.760027E-3,2.4729344E-1,-7.949508E-2,2.0883471E-1,4.270315E-2,8.460999E-2,5.3040355E-1,8.6880974E-2,-2.0261193E-2,-2.064512E-1,5.360127E-4,-2.6385733E-1,1.8712886E-2,3.9285753E-2,2.8683972E-1,7.72153E-2,-1.0315361E-2],"split_indices":[7,7,8,7,7,8,0,8,1,0,5,5,6,5,10,0,0,6,0,7,5,5,7,8,8,9,0,6,0,7,0,7,6,0,7,0,0,0,0,0,0,0,0,0,0,0,0,0,0,0,0,0,0],"split_type":[0,0,0,0,0,0,0,0,0,0,0,0,0,0,0,0,0,0,0,0,0,0,0,0,0,0,0,0,0,0,0,0,0,0,0,0,0,0,0,0,0,0,0,0,0,0,0,0,0,0,0,0,0],"sum_hessian":[3.92E2,2.35E2,1.57E2,2.26E2,9E0,1.55E2,2E0,2.23E2,3E0,2E0,7E0,5.7E1,9.8E1,2.14E2,9E0,2E0,1E0,5E0,2E0,1.6E1,4.1E1,9.2E1,6E0,2.8E1,1.86E2,7E0,2E0,2E0,3E0,4E0,1.2E1,1.5E1,2.6E1,3E0,8.9E1,5E0,1E0,2.2E1,6E0,2.2E1,1.64E2,2E0,5E0,1E0,1E0,3E0,1E0,5E0,1E1,2.5E1,1E0,2.5E1,6.4E1],"tree_param":{"num_deleted":"0","num_feature":"13","num_nodes":"53","size_leaf_vector":"0"}},{"base_weights":[2.9816103E0,3.8445334E0,2.1466458E0,3.23591E0,4.4709077E0,1.9585454E0,3.5966237E0,3.8570077E0,2.91915E0,4.878782E0,3.5536823E0,2.2266548E0,1.5759567E0,1.16119E0,4.002885E0,3.1311471E0,1.6159025E0,3.6408887E0,4.251423E-1,2.2590585E0,8.517957E-1,1.7226447E0,9.912946E-1,7.850812E-1,3.1985102E0,1.806419E0,4.4221368E-1,2.2757711E0,4.0167656E0,1.6635683E0,2.3767505E0,1.7681085E0,2.5430742E-1,1.5610103E-1,1.2187712E0,4.69841E-1,3.2381387E0,1.8906676E0,5.2409077E-1,2.7506433E0,1.3457447E0,2.370283E0,4.3424397E0,1.8041633E0,2.6547495E-1,2.57978E0,1.6183698E0,6.0097647E-1,-2.1951532E-1,7.073867E-1,-4.4721827E-1,1.3400239E0,5.8063364E-1],"categories":[],"categories_nodes":[],"categories_segments":[],"categories_sizes":[],"default_left":[true,true,true,true,true,true,false,true,true,false,true,true,true,false,false,true,true,true,false,true,false,true,true,false,true,true,false,true,true,true,true,false,true,true,true,false,false,false,false,false,false,false,false,false,false,false,false,false,false,false,false,false,false],"id":18,"left_children":[1,3,5,7,9,11,-1,13,15,-1,17,19,21,-1,-1,23,25,27,-1,29,-1,31,33,-1,35,37,-1,39,41,43,45,-1,47,49,51,-1,-1,-1,-1,-1,-1,-1,-1,-1,-1,-1,-1,-1,-1,-1,-1,-1,-1],"loss_changes":[2.749077E2,5.8727783E1,4.804956E1,8.61145E0,1.7080688E1,1.5057068E1,0E0,7.5429077E0,1.455658E1,0E0,7.182617E0,2.7089844E0,4.9818573E0,0E0,0E0,6.9711914E0,1.8844604E0,6.7653503E0,0E0,3.1246338E0,0E0,3.6224976E0,3.229515E0,0E0,4.750305E0,8.946228E-2,0E0,2.731285E-1,2.0401917E0,3.452343E0,8.450806E0,0E0,6.247026E-1,1.9793625E0,3.0519867E-1,0E0,0E0,0E0,0E0,0E0,0E0,0E0,0E0,0E0,0E0,0E0,0E0,0E0,0E0,0E0,0E0,0E0,0E0],"parents":[2147483647,0,0,1,1,2,2,3,3,4,4,5,5,7,7,8,8,10,10,11,11,12,12,15,15,16,16,17,17,19,19,21,21,22,22,24,24,25,25,27,27,28,28,29,29,30,30,32,32,33,33,34,34],"right_children":[2,4,6,8,10,12,-1,14,16,-1,18,20,22,-1,-1,24,26,28,-1,30,-1,32,34,-1,36,38,-1,40,42,44,46,-1,48,50,52,-1,-1,-1,-1,-1,-1,-1,-1,-1,-1,-1,-1,-1,-1,-1,-1,-1,-1],"split_conditions":[2.7645E3,7.75E1,7.95E1,2.104E3,2.4E3,1.41E2,1.0789871E0,4.75E1,1.785E1,1.4636346E0,-9.536743E-7,4.2545E3,4.4985E3,3.4835702E-1,1.2008655E0,7.5E1,-9.536743E-7,8.45E1,1.2754269E-1,1.77E2,2.555387E-1,1.495E1,4.6435E3,2.3552437E-1,2.1155E3,8.75E1,1.3266411E-1,1.205E2,7.85E1,3.34E3,1.775E1,5.304326E-1,3.055E2,3.55E2,1.375E1,1.409523E-1,9.714416E-1,5.672003E-1,1.5722723E-1,8.25193E-1,4.0372345E-1,7.110849E-1,1.302732E0,5.4124904E-1,7.964249E-2,7.7393407E-1,4.8551098E-1,1.8029295E-1,-6.58546E-2,2.12216E-1,-1.3416548E-1,4.020072E-1,1.741901E-1],"split_indices":[7,9,9,7,7,6,0,6,8,0,0,7,7,0,0,5,12,6,0,5,0,8,7,0,7,6,0,5,9,7,8,0,5,5,8,0,0,0,0,0,0,0,0,0,0,0,0,0,0,0,0,0,0],"split_type":[0,0,0,0,0,0,0,0,0,0,0,0,0,0,0,0,0,0,0,0,0,0,0,0,0,0,0,0,0,0,0,0,0,0,0,0,0,0,0,0,0,0,0,0,0,0,0,0,0,0,0,0,0],"sum_hessian":[3.92E2,1.91E2,2.01E2,1E2,9.1E1,1.8E2,2.1E1,3E1,7E1,6E1,3.1E1,1.03E2,7.7E1,2E0,2.8E1,5.9E1,1.1E1,3E1,1E0,1E2,3E0,6E1,1.7E1,2E0,5.7E1,9E0,2E0,8E0,2.2E1,1.9E1,8.1E1,5.8E1,2E0,4E0,1.3E1,1E0,5.6E1,8E0,1E0,4E0,4E0,5E0,1.7E1,1.7E1,2E0,6.2E1,1.9E1,1E0,1E0,2E0,2E0,1E1,3E0],"tree_param":{"num_deleted":"0","num_feature":"13","num_nodes":"53","size_leaf_vector":"0"}},{"base_weights":[1.5306081E-1,2.2667342E-1,1.3852725E-2,2.0483406E-1,1.5568051E0,1.1483491E-1,-1.3426141E-1,5.427515E-2,3.0064732E-1,1.8876604E0,2.8211975E-1,3.702557E-2,6.136929E-1,-8.487508E-1,-1.487006E-2,1.1307511E-1,-4.8623198E-1,7.158925E-1,1.9106272E-1,1.9115932E-1,-1.408639E-1,8.47062E-1,-2.9097876E-1,-3.4165296E-1,2.222786E-1,1.1389313E0,8.902191E-2,-9.886276E-1,1.3469696E-2,-5.028682E-1,8.5931146E-1,9.808144E-2,5.951074E-1,7.042283E-1,7.653381E-2,-4.019973E-1,1.1358786E-1,1.4501984E-1,1.0269283E0,1.5512562E-1,-5.9159374E-1,-8.081173E-1,7.55384E-2,-5.018339E-1,3.940451E-1,-2.1114995E-1,1.3790925E-1,3.9879355E-1,-2.788906E-1,-8.101034E-1,-1.3042195E-1,1.247897E0,2.048238E-1,7.6769744E-3,8.45275E-1,6.294095E-2,9.9962455E-1,3.468423E-1,8.855572E-1,1.2377613E-1,-4.371481E-1,-1.2169087E-1,-5.860427E-1,3.490493E-1,-2.2437012E-1,-8.6251783E-1,1.0800476E0,1.1621422E0,1.07822895E-1,-2.8310436E-1,-1.5248606E0,4.823616E-1,-1.881684E-1,2.88201E-1,-9.6890163E-1,8.549664E-1,1.5396185E-1],"categories":[],"categories_nodes":[],"categories_segments":[],"categories_sizes":[],"default_left":[true,true,true,true,true,true,true,true,true,false,false,true,true,false,true,true,true,true,true,true,true,true,true,true,true,false,true,false,true,true,true,true,true,true,true,true,true,true,true,false,false,true,true,true,true,false,false,false,false,false,false,false,false,false,false,false,false,false,false,false,false,false,false,false,false,false,false,false,false,false,false,false,false,false,false,false,false],"id":19,"left_children":[1,3,5,7,9,11,13,15,17,-1,-1,19,21,-1,23,25,27,29,31,33,35,37,39,41,43,-1,45,-1,47,49,51,53,55,57,59,61,63,65,67,-1,-1,69,71,73,75,-1,-1,-1,-1,-1,-1,-1,-1,-1,-1,-1,-1,-1,-1,-1,-1,-1,-1,-1,-1,-1,-1,-1,-1,-1,-1,-1,-1,-1,-1,-1,-1],"loss_changes":[4.0241165E0,7.1467676E0,2.0645118E0,3.64777E0,1.1543999E0,3.1601741E0,4.764395E0,3.2331607E0,6.916415E0,0E0,0E0,2.0010788E0,2.5688238E0,0E0,3.8732522E0,2.1440458E0,2.5237958E0,6.025509E0,4.600135E0,2.2397237E0,2.304821E0,9.875388E-1,4.940883E-1,4.147746E0,3.8047152E0,0E0,1.349834E0,0E0,7.8714013E-1,3.5205913E-1,7.11981E0,6.8835735E0,4.8883038E0,1.4648223E-1,8.5493684E-1,8.0569863E-1,1.5106856E0,3.7577875E0,7.446246E-1,0E0,0E0,3.3312998E0,1.3781497E0,2.4932375E0,2.5241952E0,0E0,0E0,0E0,0E0,0E0,0E0,0E0,0E0,0E0,0E0,0E0,0E0,0E0,0E0,0E0,0E0,0E0,0E0,0E0,0E0,0E0,0E0,0E0,0E0,0E0,0E0,0E0,0E0,0E0,0E0,0E0,0E0],"parents":[2147483647,0,0,1,1,2,2,3,3,4,4,5,5,6,6,7,7,8,8,11,11,12,12,14,14,15,15,16,16,17,17,18,18,19,19,20,20,21,21,22,22,23,23,24,24,26,26,28,28,29,29,30,30,31,31,32,32,33,33,34,34,35,35,36,36,37,37,38,38,41,41,42,42,43,43,44,44],"right_children":[2,4,6,8,10,12,14,16,18,-1,-1,20,22,-1,24,26,28,30,32,34,36,38,40,42,44,-1,46,-1,48,50,52,54,56,58,60,62,64,66,68,-1,-1,70,72,74,76,-1,-1,-1,-1,-1,-1,-1,-1,-1,-1,-1,-1,-1,-1,-1,-1,-1,-1,-1,-1,-1,-1,-1,-1,-1,-1,-1,-1,-1,-1,-1,-1],"split_conditions":[1.06E2,2.59E2,7.55E1,7.55E1,3.06E2,7.45E1,1.655E2,3.3155E3,1.475E1,5.662981E-1,8.463593E-2,1.59E2,1.7E1,-2.5462526E-1,7.75E1,1.631E3,3.449E3,9.05E1,-9.536743E-7,7.05E1,3.865E2,1.275E1,2.445E2,4.0575E3,2.905E3,3.416794E-1,1.9815E3,-2.965883E-1,2.375E2,1.931E3,8.05E1,9.75E1,1.775E1,3.055E2,3.755E2,1.725E2,4.5485E3,3.51E2,3.505E2,4.6537686E-2,-1.7747813E-1,3.115E2,7.65E1,2.7125E3,1.3299999E1,-6.3344985E-2,4.1372776E-2,1.1963807E-1,-8.366719E-2,-2.4303104E-1,-3.9126586E-2,3.743691E-1,6.1447144E-2,2.3030925E-3,2.535825E-1,1.8882286E-2,2.998874E-1,1.0405269E-1,2.6566717E-1,3.713284E-2,-1.3114443E-1,-3.6507264E-2,-1.7581281E-1,1.04714796E-1,-6.731104E-2,-2.5875536E-1,3.240143E-1,3.4864265E-1,3.234687E-2,-8.4931314E-2,-4.574582E-1,1.4470848E-1,-5.6450523E-2,8.646031E-2,-2.906705E-1,2.5648993E-1,4.6188556E-2],"split_indices":[6,5,9,9,5,9,5,7,8,0,0,6,8,0,9,7,7,5,11,9,5,8,5,7,7,0,7,0,5,7,9,6,8,5,5,6,7,5,5,0,0,5,9,7,8,0,0,0,0,0,0,0,0,0,0,0,0,0,0,0,0,0,0,0,0,0,0,0,0,0,0,0,0,0,0,0,0],"split_type":[0,0,0,0,0,0,0,0,0,0,0,0,0,0,0,0,0,0,0,0,0,0,0,0,0,0,0,0,0,0,0,0,0,0,0,0,0,0,0,0,0,0,0,0,0,0,0,0,0,0,0,0,0,0,0,0,0,0,0,0,0,0,0,0,0,0,0,0,0,0,0,0,0,0,0,0,0],"sum_hessian":[3.92E2,2.56E2,1.36E2,2.53E2,3E0,8.1E1,5.5E1,9.9E1,1.54E2,2E0,1E0,7.1E1,1E1,7E0,4.8E1,9E1,9E0,3.1E1,1.23E2,3.8E1,3.3E1,8E0,2E0,2E1,2.8E1,1E0,8.9E1,4E0,5E0,3E0,2.8E1,1.01E2,2.2E1,6E0,3.2E1,1.6E1,1.7E1,2E0,6E0,1E0,1E0,9E0,1.1E1,5E0,2.3E1,1.2E1,7.7E1,2E0,3E0,1E0,2E0,1.7E1,1.1E1,9.1E1,1E1,1E1,1.2E1,3E0,3E0,3E1,2E0,7E0,9E0,1E1,7E0,1E0,1E0,5E0,1E0,6E0,3E0,4E0,7E0,2E0,3E0,7E0,1.6E1],"tree_param":{"num_deleted":"0","num_feature":"13","num_nodes":"77","size_leaf_vector":"0"}},{"base_weights":[1.7224546E-1,5.9140486E-1,1.3597497E-1,3.7190342E-1,1.4440104E0,1.1036973E0,1.11058146E-1,-1.754197E-1,6.249037E-1,4.1256905E-1,2.3379288E0,4.3377113E-1,1.5528839E0,7.876309E-2,4.5829582E-1,-5.305691E-1,9.058317E-2,1.158425E0,-3.7331477E-2,9.5202637E-1,-8.4592186E-2,1.2949753E-1,4.7746515E-1,1.7245588E0,4.3309212E-1,-1.3562077E-1,1.2373018E-1,3.1756222E-1,2.269785E0,-1.8245761E-1,-7.8745174E-1,4.364729E-1,-6.588936E-2,-8.2099915E-2,1.3053832E0,5.74173E-1,-4.387792E-1,7.249069E-2,-1.9937897E-1,-1.8654181E-1,1.3579788E0,6.104498E-1,8.022994E-2,-6.553049E-1,4.5502016E-1,-2.1842003E-1,2.6848316E-2,2.5956726E-1,1.4036644E0,-1.6443253E-2,7.7652615E-1,-8.671808E-1,2.786827E-1,7.640606E-1,-2.7435854E-1,-4.0100098E-2,1.1559163E0,-2.6680857E-1,1.20153025E-1,6.968422E-1,-1.3383013E0,7.6809597E-1,1.7422485E-1],"categories":[],"categories_nodes":[],"categories_segments":[],"categories_sizes":[],"default_left":[true,true,true,true,true,true,true,true,true,true,false,true,true,true,true,true,true,true,true,false,true,false,false,false,false,true,true,true,false,false,false,false,true,false,true,true,true,false,false,true,false,true,true,true,true,false,false,false,false,false,false,false,false,false,false,false,false,false,false,false,false,false,false],"id":20,"left_children":[1,3,5,7,9,11,13,15,17,19,-1,21,23,25,27,29,31,33,35,-1,37,-1,-1,-1,-1,39,41,43,-1,-1,-1,-1,45,-1,47,49,51,-1,-1,53,-1,55,57,59,61,-1,-1,-1,-1,-1,-1,-1,-1,-1,-1,-1,-1,-1,-1,-1,-1,-1,-1],"loss_changes":[5.89441E0,5.2645607E0,8.63029E0,3.7099152E0,4.5675898E0,2.0347013E0,3.9448943E0,8.982975E-1,6.402943E0,1.153323E0,0E0,4.6441555E-3,2.1430779E-1,3.159492E0,6.927323E0,2.1401858E-1,3.5349235E-1,1.9302273E0,2.4613187E0,0E0,6.8546236E-2,0E0,0E0,0E0,0E0,4.5884914E0,5.6675773E0,4.176298E0,0E0,0E0,0E0,0E0,7.659091E-2,0E0,5.6070995E-1,4.9082088E-1,2.0858395E0,0E0,0E0,4.884439E0,0E0,7.8531246E0,3.4819152E0,4.6266313E0,2.1518445E0,0E0,0E0,0E0,0E0,0E0,0E0,0E0,0E0,0E0,0E0,0E0,0E0,0E0,0E0,0E0,0E0,0E0,0E0],"parents":[2147483647,0,0,1,1,2,2,3,3,4,4,5,5,6,6,7,7,8,8,9,9,11,11,12,12,13,13,14,14,15,15,16,16,17,17,18,18,20,20,25,25,26,26,27,27,32,32,34,34,35,35,36,36,39,39,41,41,42,42,43,43,44,44],"right_children":[2,4,6,8,10,12,14,16,18,20,-1,22,24,26,28,30,32,34,36,-1,38,-1,-1,-1,-1,40,42,44,-1,-1,-1,-1,46,-1,48,50,52,-1,-1,54,-1,56,58,60,62,-1,-1,-1,-1,-1,-1,-1,-1,-1,-1,-1,-1,-1,-1,-1,-1,-1,-1],"split_conditions":[8.85E1,8.55E1,5.35E1,1.665E1,2.042E3,1.9675E3,8.15E1,1.9815E3,1.91E1,6.45E1,7.0137864E-1,7.15E1,2.2325E3,7.55E1,2.47E2,6.35E1,-9.536743E-7,7.15E1,7.5E1,2.8560793E-1,1.997E3,3.884926E-2,1.4323956E-1,5.1736766E-1,1.2992764E-1,-9.536743E-7,1.075E2,1.975E3,6.809355E-1,-5.4737285E-2,-2.3623553E-1,1.3094187E-1,9.35E1,-2.4629975E-2,1.6849998E1,6.95E1,7.95E1,2.174721E-2,-5.9813693E-2,1.39E1,4.0739366E-1,9.775E1,8.65E1,1.535E1,2.46E3,-6.552601E-2,8.054495E-3,7.787018E-2,4.2109933E-1,-4.932976E-3,2.3295785E-1,-2.6015425E-1,8.360481E-2,2.292182E-1,-8.230756E-2,-1.203003E-2,3.467749E-1,-8.004257E-2,3.604591E-2,2.0905267E-1,-4.0149042E-1,2.304288E-1,5.226746E-2],"split_indices":[5,5,6,8,7,7,9,7,8,6,0,9,7,6,5,6,0,5,9,0,7,0,0,0,0,2,5,7,0,0,0,0,6,0,8,5,9,0,0,8,0,5,6,8,7,0,0,0,0,0,0,0,0,0,0,0,0,0,0,0,0,0,0],"split_type":[0,0,0,0,0,0,0,0,0,0,0,0,0,0,0,0,0,0,0,0,0,0,0,0,0,0,0,0,0,0,0,0,0,0,0,0,0,0,0,0,0,0,0,0,0,0,0,0,0,0,0,0,0,0,0,0,0,0,0,0,0,0,0],"sum_hessian":[3.92E2,3E1,3.62E2,2.5E1,5E0,8E0,3.54E2,8E0,1.7E1,3E0,2E0,4E0,4E0,3.25E2,2.9E1,3E0,5E0,9E0,8E0,1E0,2E0,1E0,3E0,3E0,1E0,5.6E1,2.69E2,2.8E1,1E0,2E0,1E0,1E0,4E0,1E0,8E0,3E0,5E0,1E0,1E0,5.5E1,1E0,2.1E1,2.48E2,3E0,2.5E1,1E0,3E0,1E0,7E0,1E0,2E0,3E0,2E0,4E0,5.1E1,1E1,1.1E1,2.5E1,2.23E2,1E0,2E0,1.1E1,1.4E1],"tree_param":{"num_deleted":"0","num_feature":"13","num_nodes":"63","size_leaf_vector":"0"}},{"base_weights":[9.210057E-2,4.520491E-2,2.4503958E-1,1.5550535E-3,2.2880854E-1,6.802727E-1,1.2244093E-1,1.2721535E-2,-1.3615332E0,1.7329235E-1,1.6966152E0,1.9045899E0,2.5515652E-1,8.4707E-1,-6.0251174E-3,-4.7944692E-1,3.5803292E-2,6.1029506E-1,2.6891346E-3,3.337803E-1,2.2138472E0,-2.891714E-3,6.8571883E-1,1.8827033E0,2.233696E-1,-7.28821E-2,7.840923E-1,-2.9807726E-2,-8.491783E-1,1.0644531E0,2.6820019E-2,1.48155E0,-2.3196432E-1,-1.0628304E0,1.1190424E-1,2.5482273E-1,-2.601242E-1,1.4162731E0,-3.3626556E-2,4.6151733E-1,-7.218323E-1,-6.2102836E-1,5.1658534E-2,-1.5824929E-1,3.0620003E-1,-3.3380508E-1,-1.0234137E0,1.2075116E-1,-3.64396E-2,1.7159494E0,-7.962322E-2,-6.560074E-1,2.384716E-1,-3.2627106E-2,7.7728E-1,-1.01140976E-1,4.5808983E-1,-8.9033127E-1,2.7756214E-1,-2.3622131E-1,1.1264547E-1,5.393041E-1,-2.6016235E-3,-9.28584E-1,-6.6244885E-2,3.8244882E-1,-1.896606E-1],"categories":[],"categories_nodes":[],"categories_segments":[],"categories_sizes":[],"default_left":[true,true,true,true,true,true,true,true,false,true,false,true,true,true,true,true,true,true,true,false,false,true,true,false,true,true,false,true,true,false,true,true,true,false,true,true,true,false,true,true,false,true,true,false,false,false,false,false,false,false,false,false,false,false,false,false,false,false,false,false,false,false,false,false,false,false,false],"id":21,"left_children":[1,3,5,7,9,11,13,15,-1,17,-1,19,21,23,25,27,29,31,33,-1,-1,35,37,-1,39,41,-1,43,45,-1,47,49,51,-1,53,55,57,-1,59,61,-1,63,65,-1,-1,-1,-1,-1,-1,-1,-1,-1,-1,-1,-1,-1,-1,-1,-1,-1,-1,-1,-1,-1,-1,-1,-1],"loss_changes":[2.8075879E0,2.4199543E0,4.825733E0,3.746441E0,4.4322357E0,9.923572E0,6.8006907E0,2.7890337E0,0E0,4.247941E0,0E0,1.6899834E0,1.7796766E0,6.6846347E0,3.3851132E0,1.803391E0,2.133762E0,1.2084828E1,5.0065103E0,0E0,0E0,7.9550344E-1,3.2007492E0,0E0,2.1339197E0,4.059804E0,0E0,3.0740008E-1,1.971569E-1,0E0,1.3888973E0,3.0641346E0,1.9518049E0,0E0,3.7758992E0,4.8046586E-1,2.2802448E0,0E0,1.4514504E-1,2.5411928E-1,0E0,1.8153806E0,3.9840107E0,0E0,0E0,0E0,0E0,0E0,0E0,0E0,0E0,0E0,0E0,0E0,0E0,0E0,0E0,0E0,0E0,0E0,0E0,0E0,0E0,0E0,0E0,0E0,0E0],"parents":[2147483647,0,0,1,1,2,2,3,3,4,4,5,5,6,6,7,7,9,9,11,11,12,12,13,13,14,14,15,15,16,16,17,17,18,18,21,21,22,22,24,24,25,25,27,27,28,28,30,30,31,31,32,32,34,34,35,35,36,36,38,38,39,39,41,41,42,42],"right_children":[2,4,6,8,10,12,14,16,-1,18,-1,20,22,24,26,28,30,32,34,-1,-1,36,38,-1,40,42,-1,44,46,-1,48,50,52,-1,54,56,58,-1,60,62,-1,64,66,-1,-1,-1,-1,-1,-1,-1,-1,-1,-1,-1,-1,-1,-1,-1,-1,-1,-1,-1,-1,-1,-1,-1,-1],"split_conditions":[1.7349998E1,7.95E1,9.05E1,1.725E1,2.47E2,1.87E1,1.7650002E1,6.85E1,-4.0845996E-1,8.05E1,5.0898457E-1,6.15E1,2.025E1,-9.536743E-7,2.2150002E1,6.65E1,6.95E1,1.515E1,1.275E1,1.0013409E-1,6.641542E-1,7.6E1,2.01E3,5.64811E-1,8.1E1,9.75E1,2.352277E-1,6.55E1,8.8E1,3.1933594E-1,2.922E3,-9.536743E-7,1.025E2,-3.1884915E-1,9.4E1,7.5E1,7.95E1,4.2488196E-1,2.195E1,7.9E1,-2.165497E-1,-9.536743E-7,2.9845E3,-4.747479E-2,9.186001E-2,-1.0014153E-1,-3.0702412E-1,3.622535E-2,-1.0931881E-2,5.147849E-1,-2.3886967E-2,-1.9680223E-1,7.154148E-2,-9.788132E-3,2.33184E-1,-3.0342294E-2,1.3742696E-1,-2.6709938E-1,8.326864E-2,-7.08664E-2,3.3793643E-2,1.6179124E-1,-7.804871E-4,-2.785752E-1,-1.9873466E-2,1.1473465E-1,-5.689818E-2],"split_indices":[8,9,5,8,5,8,8,6,0,9,0,6,8,1,8,6,6,8,8,0,0,9,7,0,9,5,0,6,5,0,7,0,5,0,6,5,9,0,8,9,0,11,7,0,0,0,0,0,0,0,0,0,0,0,0,0,0,0,0,0,0,0,0,0,0,0,0],"split_type":[0,0,0,0,0,0,0,0,0,0,0,0,0,0,0,0,0,0,0,0,0,0,0,0,0,0,0,0,0,0,0,0,0,0,0,0,0,0,0,0,0,0,0,0,0,0,0,0,0,0,0,0,0,0,0,0,0,0,0,0,0,0,0,0,0,0,0],"sum_hessian":[3.92E2,3.01E2,9.1E1,2.44E2,5.7E1,1.9E1,7.2E1,2.43E2,1E0,5.6E1,1E0,4E0,1.5E1,1E1,6.2E1,1E1,2.33E2,1.5E1,4.1E1,1E0,3E0,1E1,5E0,3E0,7E0,5.8E1,4E0,5E0,5E0,1E0,2.32E2,7E0,8E0,3E0,3.8E1,5E0,5E0,2E0,3E0,6E0,1E0,1E1,4.8E1,4E0,1E0,2E0,3E0,9.3E1,1.39E2,6E0,1E0,4E0,4E0,3.2E1,6E0,2E0,3E0,2E0,3E0,1E0,2E0,5E0,1E0,6E0,4E0,2E1,2.8E1],"tree_param":{"num_deleted":"0","num_feature":"13","num_nodes":"67","size_leaf_vector":"0"}},{"base_weights":[3.6184723E0,4.4643626E0,2.4225488E0,5.48553E0,3.9802923E0,2.0688415E0,2.850687E0,3.5108547E0,4.7587447E0,2.2561507E0,1.6154016E0,7.799835E-1,2.8688662E0,3.776742E0,2.737971E0,1.7465001E0,1.0201808E0,3.825239E0,1.1822605E-1,4.4558048E-1,1.2758249E0,3.9797952E0,2.0719962E0,5.424201E-1,7.753086E-2],"categories":[],"categories_nodes":[],"categories_segments":[],"categories_sizes":[],"default_left":[true,true,true,false,true,true,true,true,false,false,true,false,false,true,false,false,true,true,false,true,false,false,false,false,false],"id":22,"left_children":[1,3,5,-1,7,9,11,13,-1,-1,15,-1,-1,17,-1,-1,19,21,-1,23,-1,-1,-1,-1,-1],"loss_changes":[3.8675195E2,9.136426E1,1.9089294E1,0E0,4.1396973E1,4.3391724E0,4.7265625E-1,1.0825928E1,0E0,0E0,6.3726044E-1,0E0,0E0,1.2677368E1,0E0,0E0,6.0666275E-1,1.1535034E1,0E0,1.005128E-1,0E0,0E0,0E0,0E0,0E0],"parents":[2147483647,0,0,1,1,2,2,4,4,5,5,6,6,7,7,10,10,13,13,16,16,17,17,19,19],"right_children":[2,4,6,-1,8,10,12,14,-1,-1,16,-1,-1,18,-1,-1,20,22,-1,24,-1,-1,-1,-1,-1],"split_conditions":[3.018E3,7.05E1,7.55E1,1.6456591E0,7.85E1,4.3585E3,1.25E2,9.65E1,1.4276235E0,6.7684525E-1,1.99E2,2.3399507E-1,8.606599E-1,-9.536743E-7,8.2139134E-1,5.2395004E-1,2.125E2,1.835E1,3.546782E-2,3.735E2,3.827475E-1,1.1939386E0,6.215989E-1,1.6272603E-1,2.325926E-2],"split_indices":[7,6,9,0,9,7,5,6,0,0,6,0,0,0,0,0,6,8,0,5,0,0,0,0,0],"split_type":[0,0,0,0,0,0,0,0,0,0,0,0,0,0,0,0,0,0,0,0,0,0,0,0,0],"sum_hessian":[3.92E2,2.28E2,1.64E2,7E1,1.58E2,9.3E1,7.1E1,1.02E2,5.6E1,6.3E1,3E1,1E0,7E1,7.3E1,2.9E1,2.3E1,7E0,7.2E1,1E0,3E0,4E0,6.5E1,7E0,2E0,1E0],"tree_param":{"num_deleted":"0","num_feature":"13","num_nodes":"25","size_leaf_vector":"0"}},{"base_weights":[2.2449265E0,2.901002E0,1.6102166E0,2.42189E0,3.395451E0,1.4814515E0,2.5964103E0,2.0628707E0,2.6961684E0,3.7089705E0,2.6916966E0,1.8019255E0,1.3116983E0,2.1235852E0,4.442908E-1,1.1135916E0,2.7356217E0,2.7486308E0,4.6336746E-1,1.859686E0,1.098926E0,1.1856093E0,1.777161E0,2.443442E0,1.728573E0,1.7837205E0,3.0066986E0,5.255448E-1,1.9008925E0,-2.8253746E-1,1.7080189E0,1.2771636E0,9.63799E-1,1.9822197E0,1.119266E0,2.5357113E0,9.8307866E-1,2.1406949E0,1.2812935E0,2.1847496E0,1.0259472E0,1.6848875E0,3.2802637E0,1.9252571E0,3.2915115E-1,6.136572E-1,1.3095504E0,1.041241E0,-1.5770149E-1],"categories":[],"categories_nodes":[],"categories_segments":[],"categories_sizes":[],"default_left":[true,true,true,true,true,true,false,true,true,false,true,true,true,true,false,false,false,true,false,true,true,true,true,true,true,true,true,false,true,false,false,true,true,false,false,false,false,false,false,false,false,false,false,false,false,false,false,false,false],"id":23,"left_children":[1,3,5,7,9,11,-1,13,15,-1,17,19,21,23,-1,-1,-1,25,-1,27,29,31,33,35,37,39,41,-1,43,-1,-1,45,47,-1,-1,-1,-1,-1,-1,-1,-1,-1,-1,-1,-1,-1,-1,-1,-1],"loss_changes":[1.5898083E2,3.726062E1,2.1804993E1,4.383728E0,1.0315552E1,7.4830627E0,0E0,3.773529E0,3.2525635E-1,0E0,2.786148E0,3.9266968E-1,5.053116E0,1.5883179E0,0E0,0E0,0E0,2.3562775E0,0E0,1.9696655E0,6.372656E0,7.7952576E-1,1.0191345E0,6.06369E-1,1.6811523E0,4.935646E-1,2.7899628E0,0E0,1.3576202E0,0E0,0E0,6.361389E-1,3.0302944E0,0E0,0E0,0E0,0E0,0E0,0E0,0E0,0E0,0E0,0E0,0E0,0E0,0E0,0E0,0E0,0E0],"parents":[2147483647,0,0,1,1,2,2,3,3,4,4,5,5,7,7,8,8,10,10,11,11,12,12,13,13,17,17,19,19,20,20,21,21,22,22,23,23,24,24,25,25,26,26,28,28,31,31,32,32],"right_children":[2,4,6,8,10,12,-1,14,16,-1,18,20,22,24,-1,-1,-1,26,-1,28,30,32,34,36,38,40,42,-1,44,-1,-1,46,48,-1,-1,-1,-1,-1,-1,-1,-1,-1,-1,-1,-1,-1,-1,-1,-1],"split_conditions":[2.7645E3,7.75E1,7.95E1,7.35E1,2.4E3,1.065E2,7.789231E-1,-9.536743E-7,1.315E1,1.1126912E0,-9.536743E-7,7.85E1,7.75E1,7.15E1,1.3328724E-1,3.3407748E-1,8.206865E-1,8.45E1,1.3901025E-1,7.5E1,3.09E3,1.36E1,-9.536743E-7,2E1,1.03E2,1.205E2,7.85E1,1.5766345E-1,2.145E1,-8.476124E-2,5.124057E-1,3.195E3,1.965E2,5.9466594E-1,3.3577982E-1,7.607134E-1,2.949236E-1,6.4220846E-1,3.8438806E-1,6.554249E-1,3.0778417E-1,5.054663E-1,9.840791E-1,5.775772E-1,9.874535E-2,1.8409716E-1,3.9286515E-1,3.1237233E-1,-4.731045E-2],"split_indices":[7,9,9,9,7,6,0,0,8,0,0,9,9,9,0,0,0,6,0,6,7,8,3,8,5,5,9,0,8,0,0,7,6,0,0,0,0,0,0,0,0,0,0,0,0,0,0,0,0],"split_type":[0,0,0,0,0,0,0,0,0,0,0,0,0,0,0,0,0,0,0,0,0,0,0,0,0,0,0,0,0,0,0,0,0,0,0,0,0,0,0,0,0,0,0,0,0,0,0,0,0],"sum_hessian":[3.92E2,1.91E2,2.01E2,1E2,9.1E1,1.8E2,2.1E1,4.7E1,5.3E1,6E1,3.1E1,5.9E1,1.21E2,4.5E1,2E0,2E0,5.1E1,3E1,1E0,5.3E1,6E0,9.8E1,2.3E1,2.2E1,2.3E1,8E0,2.2E1,2E0,5.1E1,2E0,4E0,6.6E1,3.2E1,1.6E1,7E0,2E1,2E0,1E1,1.3E1,4E0,4E0,5E0,1.7E1,5E1,1E0,4E0,6.2E1,3E1,2E0],"tree_param":{"num_deleted":"0","num_feature":"13","num_nodes":"49","size_leaf_vector":"0"}},{"base_weights":[6.8505836E0,8.363833E0,4.7741246E0,9.169091E0,7.218506E0,5.579134E0,4.127374E0,7.754062E0,9.885583E0],"categories":[],"categories_nodes":[],"categories_segments":[],"categories_sizes":[],"default_left":[true,true,true,true,false,false,false,false,false],"id":24,"left_children":[1,3,5,7,-1,-1,-1,-1,-1],"loss_changes":[1.194957E3,1.4224805E2,6.444043E1,5.4134766E1,0E0,0E0,0E0,0E0,0E0],"parents":[2147483647,0,0,1,1,2,2,3,3],"right_children":[2,4,6,8,-1,-1,-1,-1,-1],"split_conditions":[1.985E2,8.45E1,1.27E2,7.65E1,2.165552E0,1.6737403E0,1.2382123E0,2.3262188E0,2.9656749E0],"split_indices":[5,6,6,9,0,0,0,0,0],"split_type":[0,0,0,0,0,0,0,0,0],"sum_hessian":[3.92E2,2.25E2,1.67E2,1.28E2,9.7E1,7.1E1,9.6E1,4.7E1,8.1E1],"tree_param":{"num_deleted":"0","num_feature":"13","num_nodes":"9","size_leaf_vector":"0"}},{"base_weights":[7.629104E-2,3.272267E-1,5.4651108E-2,1.5359452E-1,1.025095E0,6.2700486E-1,3.9986786E-2,-3.8981566E-1,3.0154055E-1,4.065544E-1,2.058899E0,1.2572606E-1,7.5226647E-1,-3.8447866E-1,5.3404562E-2,-6.247819E-1,-1.1613703E-1,9.356471E-2,6.278057E-1,7.884674E-1,-1.1087672E-1,8.1872433E-1,1.7675972E-1,4.0632725E-1,-7.318218E-1,-4.097087E-2,1.00770414E-1,-4.3671925E-2,-1.6676617E-1,2.93509E-1,-1.4830944E-1,7.5522804E-1,1.6369247E-1,-7.7667236E-3,-1.5854836E-1,9.6732235E-1,3.476855E-1,1.4974849E-1,5.8803177E-1,-3.285823E-1,-9.08049E-1,-3.747542E-1,1.231135E-2,8.005034E-2,6.006688E-1,-1.750679E-1,4.788793E-1,-7.1896106E-1,2.2374344E-1,4.146557E-1,9.575818E-1,1.2775078E0,4.3809128E-1,-6.7683315E-1,1.3112386E-2,-7.238581E-1,6.483197E-2,4.9154505E-1,-5.1723268E-2,1.3164929E-1,-1.509511E-1,4.8283815E-2,8.68814E-1],"categories":[],"categories_nodes":[],"categories_segments":[],"categories_sizes":[],"default_left":[true,true,true,true,true,true,true,true,true,true,false,false,true,true,true,false,true,true,true,false,true,true,false,true,true,true,true,false,false,true,true,true,false,false,false,true,false,false,false,true,false,true,true,true,true,false,false,false,false,false,false,false,false,false,false,false,false,false,false,false,false,false,false],"id":25,"left_children":[1,3,5,7,9,11,13,15,17,19,-1,-1,21,23,25,-1,27,29,31,-1,33,35,-1,37,39,41,43,-1,-1,45,47,49,-1,-1,-1,51,-1,-1,-1,53,-1,55,57,59,61,-1,-1,-1,-1,-1,-1,-1,-1,-1,-1,-1,-1,-1,-1,-1,-1,-1,-1],"loss_changes":[2.1161973E0,3.5988948E0,3.0216522E0,2.2078252E0,2.9996433E0,4.7053957E-1,2.0423937E0,3.1327116E-1,1.3662201E0,1.0754911E0,0E0,0E0,1.23010874E-1,3.3188498E0,1.5463381E0,0E0,7.3923804E-3,7.2058916E-1,3.4948206E-1,0E0,1.3514865E-2,8.364868E-2,0E0,9.84292E-2,2.701254E-1,2.0676408E0,2.3342407E0,0E0,0E0,7.787183E-1,1.6470509E0,1.6429901E-2,0E0,0E0,0E0,9.6974134E-2,0E0,0E0,0E0,4.8485678E-1,0E0,2.5023093E0,3.1248665E0,2.6659868E0,1.2911248E0,0E0,0E0,0E0,0E0,0E0,0E0,0E0,0E0,0E0,0E0,0E0,0E0,0E0,0E0,0E0,0E0,0E0,0E0],"parents":[2147483647,0,0,1,1,2,2,3,3,4,4,5,5,6,6,7,7,8,8,9,9,12,12,13,13,14,14,16,16,17,17,18,18,20,20,21,21,23,23,24,24,25,25,26,26,29,29,30,30,31,31,35,35,39,39,41,41,42,42,43,43,44,44],"right_children":[2,4,6,8,10,12,14,16,18,20,-1,-1,22,24,26,-1,28,30,32,-1,34,36,-1,38,40,42,44,-1,-1,46,48,50,-1,-1,-1,52,-1,-1,-1,54,-1,56,58,60,62,-1,-1,-1,-1,-1,-1,-1,-1,-1,-1,-1,-1,-1,-1,-1,-1,-1,-1],"split_conditions":[8.85E1,8.55E1,5.35E1,1.575E1,2.0875E3,4.7E1,9.05E1,9.35E1,6.6E1,-9.536743E-7,6.176697E-1,3.771782E-2,2.2325E3,-9.536743E-7,7.35E1,-1.8743458E-1,7.5E1,7.75E1,1.88E1,2.3654023E-1,1.997E3,5.25E1,5.3027917E-2,8.05E1,1.4549999E1,8.65E1,4.37E3,-1.3101578E-2,-5.002985E-2,1.799E3,7.95E1,1.75E1,4.9107745E-2,-2.3300173E-3,-4.756451E-2,2.035E3,1.0430565E-1,4.492455E-2,1.7640954E-1,8.95E1,-2.724147E-1,2.24E3,2.33E3,1.155E2,7.45E1,-5.2520372E-2,1.436638E-1,-2.1568833E-1,6.712303E-2,1.2439671E-1,2.8727457E-1,3.8325235E-1,1.3142739E-1,-2.0304996E-1,3.933716E-3,-2.1715744E-1,1.9449592E-2,1.4746352E-1,-1.5516981E-2,3.9494786E-2,-4.5285333E-2,1.4485145E-2,2.606442E-1],"split_indices":[5,5,6,8,7,6,5,6,6,12,0,0,7,11,9,0,5,9,8,0,7,6,0,9,8,6,7,0,0,7,9,8,0,0,0,7,0,0,0,5,0,7,7,6,9,0,0,0,0,0,0,0,0,0,0,0,0,0,0,0,0,0,0],"split_type":[0,0,0,0,0,0,0,0,0,0,0,0,0,0,0,0,0,0,0,0,0,0,0,0,0,0,0,0,0,0,0,0,0,0,0,0,0,0,0,0,0,0,0,0,0,0,0,0,0,0,0,0,0,0,0,0,0,0,0,0,0,0,0],"sum_hessian":[3.92E2,3E1,3.62E2,2.5E1,5E0,8E0,3.54E2,5E0,2E1,4E0,1E0,2E0,6E0,1E1,3.44E2,2E0,3E0,1.3E1,7E0,2E0,2E0,5E0,1E0,3E0,7E0,1.15E2,2.29E2,2E0,1E0,7E0,6E0,5E0,2E0,1E0,1E0,3E0,2E0,2E0,1E0,3E0,4E0,1.5E1,1E2,2.21E2,8E0,2E0,5E0,2E0,4E0,3E0,2E0,1E0,2E0,1E0,2E0,8E0,7E0,1.1E1,8.9E1,1.81E2,4E1,3E0,5E0],"tree_param":{"num_deleted":"0","num_feature":"13","num_nodes":"63","size_leaf_vector":"0"}},{"base_weights":[5.752632E-2,3.1356287E-1,4.3680713E-2,1.209085E-1,8.6734426E-1,-4.2712334E-1,6.1818045E-2,-2.2343744E-1,3.498598E-1,1.15709305E-1,1.3298645E0,9.103457E-2,-5.210692E-1,3.0403274E-1,2.9834185E-2,-4.6209145E-1,7.107592E-2,4.3381524E-1,9.358724E-3,3.0415535E-2,1.4314842E-1,-1.7878278E-1,-7.4001914E-1,1.2573099E-1,6.165938E-1,-2.509096E-1,5.656112E-2,-1.2905693E-1,-5.3008395E-1,-4.790306E-2,2.1400642E-1,1.05023384E-1,-9.09853E-2,2.984972E-1,-7.555618E-1,9.1887794E-2,-1.0911595E0,3.125843E-1,-2.4186344E-1,1.607257E-1,1.1146251E0,-7.9392415E-1,9.487205E-2,2.1972764E-1,2.9895553E-2,1.5796661E-2,-8.765125E-2,1.04904175E-2,5.812588E-1,-9.9733114E-2,5.6141394E-1,3.0800438E-1,-5.215217E-1,8.2853764E-1,-1.4844023E-1,5.493797E-1,1.6851591E0,-1.7488416E-1,-9.1205704E-1,7.818575E-1,-4.1337845E-1,8.4610686E-2,1.4484067E0,-6.472344E-1,5.464769E-2],"categories":[],"categories_nodes":[],"categories_segments":[],"categories_sizes":[],"default_left":[true,true,true,true,true,true,true,true,true,true,false,false,true,true,true,true,true,false,true,false,false,true,true,true,true,true,true,false,false,true,false,false,false,true,false,false,false,true,true,true,true,true,true,true,true,false,false,false,false,false,false,false,false,false,false,false,false,false,false,false,false,false,false,false,false],"id":26,"left_children":[1,3,5,7,9,11,13,15,17,19,-1,-1,21,23,25,27,29,-1,31,-1,-1,33,35,37,39,41,43,-1,-1,45,-1,-1,-1,47,-1,-1,-1,49,51,53,55,57,59,61,63,-1,-1,-1,-1,-1,-1,-1,-1,-1,-1,-1,-1,-1,-1,-1,-1,-1,-1,-1,-1],"loss_changes":[1.3794811E0,2.0288987E0,3.2200382E0,1.339587E0,1.5843542E0,7.2893834E-1,2.7875824E0,5.248511E-1,2.818092E-1,2.6672222E-3,0E0,0E0,7.6702046E-1,2.2631426E0,2.4152863E0,2.2164404E-2,7.8274466E-2,0E0,3.8353715E-2,0E0,0E0,1.8772436E0,2.1450765E0,1.9988174E0,3.2263994E0,5.3327265E0,1.2682531E0,0E0,0E0,8.980444E-3,0E0,0E0,0E0,3.196514E-1,0E0,0E0,0E0,2.0053306E0,1.6983817E0,1.9811705E0,1.3316498E0,6.449146E-1,6.6080956E0,6.684079E0,4.275755E0,0E0,0E0,0E0,0E0,0E0,0E0,0E0,0E0,0E0,0E0,0E0,0E0,0E0,0E0,0E0,0E0,0E0,0E0,0E0,0E0],"parents":[2147483647,0,0,1,1,2,2,3,3,4,4,5,5,6,6,7,7,8,8,9,9,12,12,13,13,14,14,15,15,16,16,18,18,21,21,22,22,23,23,24,24,25,25,26,26,29,29,33,33,37,37,38,38,39,39,40,40,41,41,42,42,43,43,44,44],"right_children":[2,4,6,8,10,12,14,16,18,20,-1,-1,22,24,26,28,30,-1,32,-1,-1,34,36,38,40,42,44,-1,-1,46,-1,-1,-1,48,-1,-1,-1,50,52,54,56,58,60,62,64,-1,-1,-1,-1,-1,-1,-1,-1,-1,-1,-1,-1,-1,-1,-1,-1,-1,-1,-1,-1],"split_conditions":[1.92E3,1.8475E3,1.9725E3,1.67E1,7.95E1,6.35E1,2.1325E3,9E1,9.4E1,8.3E1,3.9895937E-1,2.7310371E-2,1.525E1,1.7849998E1,2.229E3,7.85E1,9.75E1,1.3014458E-1,5.3E1,9.124661E-3,4.294453E-2,7.05E1,1.9525E3,1.63E1,8.55E1,7.45E1,2.468E3,-3.871708E-2,-1.5902519E-1,9.4E1,6.420193E-2,3.1507015E-2,-2.7295591E-2,9.05E1,-2.2666855E-1,2.756634E-2,-3.2734784E-1,9.05E1,9.3E1,1.91E1,2.0975E3,9.65E1,9.95E1,2.432E3,2.5335E3,4.7389986E-3,-2.6295377E-2,3.1471255E-3,1.7437764E-1,-2.9919935E-2,1.6842419E-1,9.240132E-2,-1.5645652E-1,2.4856131E-1,-4.4532068E-2,1.6481392E-1,5.0554776E-1,-5.246525E-2,-2.7361712E-1,2.3455726E-1,-1.24013536E-1,2.5383206E-2,4.3452203E-1,-1.9417033E-1,1.6394308E-2],"split_indices":[7,7,7,8,9,6,7,5,5,5,0,0,8,8,7,5,5,0,6,0,0,6,7,8,5,6,7,0,0,5,0,0,0,5,0,0,0,5,5,8,7,5,5,7,7,0,0,0,0,0,0,0,0,0,0,0,0,0,0,0,0,0,0,0,0],"split_type":[0,0,0,0,0,0,0,0,0,0,0,0,0,0,0,0,0,0,0,0,0,0,0,0,0,0,0,0,0,0,0,0,0,0,0,0,0,0,0,0,0,0,0,0,0,0,0,0,0,0,0,0,0,0,0,0,0,0,0,0,0,0,0,0,0],"sum_hessian":[3.92E2,1.9E1,3.73E2,1.5E1,4E0,1.3E1,3.6E2,6E0,9E0,2E0,2E0,2E0,1.1E1,4.1E1,3.19E2,3E0,3E0,7E0,2E0,1E0,1E0,5E0,6E0,2.7E1,1.4E1,2.7E1,2.92E2,1E0,2E0,2E0,1E0,1E0,1E0,3E0,2E0,2E0,4E0,1.8E1,9E0,8E0,6E0,1E1,1.7E1,4E1,2.52E2,1E0,1E0,2E0,1E0,7E0,1.1E1,3E0,6E0,2E0,6E0,4E0,2E0,2E0,8E0,7E0,1E1,3.7E1,3E0,8E0,2.44E2],"tree_param":{"num_deleted":"0","num_feature":"13","num_nodes":"65","size_leaf_vector":"0"}},{"base_weights":[4.3128945E-2,2.5699802E-2,2.4582733E-1,4.436742E-2,-1.9082958E-1,1.5868428E-1,1.4300594E0,2.2058355E-2,2.881826E-1,-6.689565E-1,-8.291158E-3,-4.220848E-1,2.3884696E-1,5.624685E-1,1.4898685E-2,9.7828937E-1,1.1561803E-2,-9.067564E-1,-3.449253E-1,-1.8904154E-1,8.5234594E-1,4.9407005E-1,-8.9215976E-1,5.4825824E-1,-4.5232646E-2,1.0034752E0,8.097458E-2,9.780777E-3,7.853713E-1,1.1603287E0,-1.4799309E-1,7.6026344E-1,-1.5545866E-1,-8.294392E-2,-3.8968468E-1,9.916728E-2,-8.3002186E-1,9.812374E-1,2.3283577E-1,2.7806333E-1,1.3562202E0,-4.735151E-1,2.9290178E-1,2.1101588E-2,-2.9368278E-1,1.3678293E0,-4.2337418E-2,-1.8096542E-1,1.1343282E0,-2.920115E-1,1.0829697E0,-3.5087204E-1,3.142702E-1,-9.3271863E-1,-1.5826893E-1,4.844581E-1,-4.3380865E-1,-2.359724E-2,-8.050542E-1,7.319206E-1,-2.0469742E-1],"categories":[],"categories_nodes":[],"categories_segments":[],"categories_sizes":[],"default_left":[true,true,true,true,true,true,false,true,true,true,true,true,true,true,true,true,true,false,true,true,true,false,false,true,true,false,false,true,false,true,false,true,true,false,false,true,true,false,false,true,false,true,true,false,false,false,false,false,false,false,false,false,false,false,false,false,false,false,false,false,false],"id":27,"left_children":[1,3,5,7,9,11,-1,13,15,17,19,21,23,25,27,29,31,-1,33,35,37,-1,-1,39,41,-1,-1,43,-1,45,-1,47,49,-1,-1,51,53,-1,-1,55,-1,57,59,-1,-1,-1,-1,-1,-1,-1,-1,-1,-1,-1,-1,-1,-1,-1,-1,-1,-1],"loss_changes":[1.382096E0,1.4757445E0,2.9721975E0,1.8158052E0,2.525473E0,1.4974935E0,0E0,1.1833206E0,5.33383E0,3.036735E-1,3.5834596E0,2.1634352E0,2.3980303E0,7.681122E-1,1.1949967E0,1.811943E0,2.7442079E0,0E0,2.6308596E-2,3.5922985E0,9.093118E-2,0E0,0E0,2.460879E0,2.310949E0,0E0,0E0,1.0505751E0,0E0,1.8047876E0,0E0,1.6135964E0,3.3602355E0,0E0,0E0,1.4655354E0,2.6630068E-1,0E0,0E0,1.8263551E0,0E0,1.0251604E0,2.115921E0,0E0,0E0,0E0,0E0,0E0,0E0,0E0,0E0,0E0,0E0,0E0,0E0,0E0,0E0,0E0,0E0,0E0,0E0],"parents":[2147483647,0,0,1,1,2,2,3,3,4,4,5,5,7,7,8,8,9,9,10,10,11,11,12,12,13,13,14,14,15,15,16,16,18,18,19,19,20,20,23,23,24,24,27,27,29,29,31,31,32,32,35,35,36,36,39,39,41,41,42,42],"right_children":[2,4,6,8,10,12,-1,14,16,18,20,22,24,26,28,30,32,-1,34,36,38,-1,-1,40,42,-1,-1,44,-1,46,-1,48,50,-1,-1,52,54,-1,-1,56,-1,58,60,-1,-1,-1,-1,-1,-1,-1,-1,-1,-1,-1,-1,-1,-1,-1,-1,-1,-1],"split_conditions":[8.15E1,8.05E1,2.47E2,7.95E1,1.46E1,1.975E3,4.2901784E-1,4.85E1,1.515E1,-9.536743E-7,9.4E1,1.535E1,2.46E3,9.35E1,2.275E2,-9.536743E-7,8.75E1,-2.7202693E-1,1.3549999E1,7.8E1,-9.536743E-7,1.4822102E-1,-2.6764795E-1,2.3325E3,2.6525E3,3.0104256E-1,2.4292374E-2,1.99E2,2.356114E-1,-9.536743E-7,-4.4397928E-2,2.0645E3,-9.536743E-7,-2.4883175E-2,-1.16905406E-1,1.63E1,8.65E1,2.9437125E-1,6.9850735E-2,2.225E3,4.068661E-1,1.16E2,2.8125E3,6.3304766E-3,-8.810484E-2,4.103488E-1,-1.27012255E-2,-5.4289628E-2,3.4029847E-1,-8.760345E-2,3.248909E-1,-1.0526162E-1,9.428106E-2,-2.798156E-1,-4.748068E-2,1.4533743E-1,-1.301426E-1,-7.0791724E-3,-2.4151626E-1,2.195762E-1,-6.1409228E-2],"split_indices":[9,9,5,9,8,7,0,6,8,1,6,8,7,5,6,10,5,0,8,6,4,0,0,7,7,0,0,6,0,0,0,7,2,0,0,8,6,0,0,7,0,5,7,0,0,0,0,0,0,0,0,0,0,0,0,0,0,0,0,0,0],"split_type":[0,0,0,0,0,0,0,0,0,0,0,0,0,0,0,0,0,0,0,0,0,0,0,0,0,0,0,0,0,0,0,0,0,0,0,0,0,0,0,0,0,0,0,0,0,0,0,0,0,0,0,0,0,0,0,0,0,0,0,0,0],"sum_hessian":[3.92E2,3.62E2,3E1,3.34E2,2.8E1,2.9E1,1E0,3.07E2,2.7E1,7E0,2.1E1,3E0,2.6E1,3E0,3.04E2,7E0,2E1,3E0,4E0,1.8E1,3E0,1E0,2E0,1.2E1,1.4E1,1E0,2E0,3.03E2,1E0,6E0,1E0,3E0,1.7E1,1E0,3E0,1.3E1,5E0,2E0,1E0,1E1,2E0,6E0,8E0,2.93E2,1E1,5E0,1E0,1E0,2E0,1.6E1,1E0,4E0,9E0,4E0,1E0,8E0,2E0,3E0,3E0,4E0,4E0],"tree_param":{"num_deleted":"0","num_feature":"13","num_nodes":"61","size_leaf_vector":"0"}},{"base_weights":[1.0812749E0,1.4775968E0,8.141701E-1,1.2549901E0,1.7229658E0,6.735877E-1,1.0816433E0,1.0874943E0,1.383431E0,1.6151735E0,2.844349E0,9.769734E-1,5.240853E-1,9.2486066E-1,1.5363213E0,1.2429738E0,6.8775135E-1,1.3984666E0,3.609314E-1,2.142827E0,1.3506756E0,1.1891484E-1,1.1107801E0,5.8637947E-1,1.2924474E-1,1.9047939E0,7.858537E-1,9.745332E-1,2.9144216E0,9.623302E-1,1.7597005E0,4.497013E-1,8.615584E-1,1.2458557E0,1.8535249E0,8.8059425E-2,2.2411623E0,1.461352E0,-2.3210335E-1,-5.951996E-1,4.5615292E-1,1.4512846E0,8.8461286E-1,6.258685E-1,1.1818613E-2,-1.676898E-1,3.7882602E-1,1.302174E0,5.4677117E-1,3.6051446E-1,1.1650387E0,1.1140087E0,3.9194584E-2,2.064833E0,8.6207676E-1,5.7933044E-1,-2.2885132E-1,8.061015E-1,2.0376315E0,5.812842E-1,2.3932998E0,1.4948802E0,-6.9446564E-3,-5.171153E-1,3.1146622E-1,7.958822E-1,-1.4887047E-1,1.1209965E-1,1.5330904E0,-3.5794068E-2,1.0333097E0,7.122612E-3,6.556018E-1,-1.2904374E-1,4.2849636E-1,3.1979242E-1,-3.834826E-1,5.8870792E-2,7.640524E-1,-5.6886673E-2,1.4871745E0,1.9567146E0,4.6044663E-1,1.1926397E-1,4.8159346E-1,1.3958762E0,6.0885847E-1],"categories":[],"categories_nodes":[],"categories_segments":[],"categories_sizes":[],"default_left":[true,true,true,true,true,true,true,true,true,true,false,true,true,true,true,true,true,true,false,true,true,true,true,true,true,false,true,true,false,true,true,true,false,false,true,false,true,true,true,false,true,true,true,true,true,true,true,true,true,true,true,false,false,false,false,false,false,false,false,false,false,false,false,false,false,false,false,false,false,false,false,false,false,false,false,false,false,false,false,false,false,false,false,false,false,false,false],"id":28,"left_children":[1,3,5,7,9,11,13,15,17,19,-1,21,23,25,27,29,31,33,-1,35,37,39,41,43,45,-1,47,49,-1,51,53,55,-1,-1,57,-1,59,61,63,-1,65,67,69,71,73,75,77,79,81,83,85,-1,-1,-1,-1,-1,-1,-1,-1,-1,-1,-1,-1,-1,-1,-1,-1,-1,-1,-1,-1,-1,-1,-1,-1,-1,-1,-1,-1,-1,-1,-1,-1,-1,-1,-1,-1],"loss_changes":[4.039972E1,6.413147E0,8.18309E0,3.456726E-1,4.1089935E0,6.654373E0,4.281975E0,1.7555199E0,1.8707275E-1,6.596039E0,0E0,5.723423E0,2.580614E0,6.948601E0,1.1869602E1,2.5120506E0,1.9180298E-1,7.464447E-1,0E0,4.04583E0,8.7476425E0,2.1981149E0,2.10466E0,2.102665E0,1.2492743E0,0E0,6.200821E0,1.3345966E0,0E0,2.8967533E0,6.850014E-1,8.362621E-1,0E0,0E0,9.2998505E-2,0E0,3.659401E0,2.225708E0,7.807592E-1,0E0,1.3517485E0,1.580986E0,4.005974E0,1.5958977E0,4.6615422E-1,9.6419615E-1,1.0643164E0,4.35886E0,3.9675484E0,8.861506E-2,5.623684E-1,0E0,0E0,0E0,0E0,0E0,0E0,0E0,0E0,0E0,0E0,0E0,0E0,0E0,0E0,0E0,0E0,0E0,0E0,0E0,0E0,0E0,0E0,0E0,0E0,0E0,0E0,0E0,0E0,0E0,0E0,0E0,0E0,0E0,0E0,0E0,0E0],"parents":[2147483647,0,0,1,1,2,2,3,3,4,4,5,5,6,6,7,7,8,8,9,9,11,11,12,12,13,13,14,14,15,15,16,16,17,17,19,19,20,20,21,21,22,22,23,23,24,24,26,26,27,27,29,29,30,30,31,31,34,34,36,36,37,37,38,38,40,40,41,41,42,42,43,43,44,44,45,45,46,46,47,47,48,48,49,49,50,50],"right_children":[2,4,6,8,10,12,14,16,18,20,-1,22,24,26,28,30,32,34,-1,36,38,40,42,44,46,-1,48,50,-1,52,54,56,-1,-1,58,-1,60,62,64,-1,66,68,70,72,74,76,78,80,82,84,86,-1,-1,-1,-1,-1,-1,-1,-1,-1,-1,-1,-1,-1,-1,-1,-1,-1,-1,-1,-1,-1,-1,-1,-1,-1,-1,-1,-1,-1,-1,-1,-1,-1,-1,-1,-1],"split_conditions":[2.5785E3,7.75E1,7.75E1,7.35E1,2.11E1,2.41E2,2.59E2,2.299E3,2.5685E3,1.475E1,8.533047E-1,2.654E3,1.63E1,7.8E1,1.625E1,8.9E1,1.7E1,8.2E1,1.0827942E-1,1.205E1,1.28E2,1.305E2,9.55E1,4.826E3,3.5225E3,5.714382E-1,2.7225E3,1.325E2,8.743265E-1,2.223E3,9.35E1,1.625E1,2.5846753E-1,3.737567E-1,1.54E1,2.641783E-2,9E1,2.005E1,2.52E3,-1.7855988E-1,2.6365E3,1.525E1,7.25E1,3.195E3,5.0685E3,7.35E1,7.55E1,8.1E1,1.2E1,1.52E1,3.9475E3,3.3420262E-1,1.1758376E-2,6.194499E-1,2.5862303E-1,1.7379914E-1,-6.86554E-2,2.4183045E-1,6.112895E-1,1.7438528E-1,7.1799E-1,4.4846407E-1,-2.083397E-3,-1.5513459E-1,9.343987E-2,2.3876467E-1,-4.4661142E-2,3.3629894E-2,4.599271E-1,-1.0738221E-2,3.099929E-1,2.1367837E-3,1.9668055E-1,-3.8713124E-2,1.2854892E-1,9.593773E-2,-1.1504479E-1,1.7661238E-2,2.2921573E-1,-1.7066002E-2,4.4615236E-1,5.8701444E-1,1.3813399E-1,3.5779193E-2,1.4447804E-1,4.1876286E-1,1.8265754E-1],"split_indices":[7,9,9,9,8,5,5,7,7,8,0,7,8,6,8,6,8,6,0,8,5,5,6,7,7,0,7,6,0,7,6,8,0,0,8,0,5,8,7,0,7,8,9,7,7,9,9,6,8,8,7,0,0,0,0,0,0,0,0,0,0,0,0,0,0,0,0,0,0,0,0,0,0,0,0,0,0,0,0,0,0,0,0,0,0,0,0],"split_type":[0,0,0,0,0,0,0,0,0,0,0,0,0,0,0,0,0,0,0,0,0,0,0,0,0,0,0,0,0,0,0,0,0,0,0,0,0,0,0,0,0,0,0,0,0,0,0,0,0,0,0,0,0,0,0,0,0,0,0,0,0,0,0,0,0,0,0,0,0,0,0,0,0,0,0,0,0,0,0,0,0,0,0,0,0,0,0],"sum_hessian":[3.92E2,1.56E2,2.36E2,8.5E1,7.1E1,1.57E2,7.9E1,4.1E1,4.4E1,6.7E1,4E0,5E1,1.07E2,6.1E1,1.8E1,2.8E1,1.3E1,4.3E1,1E0,2E1,4.7E1,7E0,4.3E1,9.2E1,1.5E1,6E0,5.5E1,1.4E1,4E0,2E1,8E0,7E0,6E0,3.5E1,8E0,1E0,1.9E1,4.4E1,3E0,2E0,5E0,1.5E1,2.8E1,8.6E1,6E0,7E0,8E0,1.6E1,3.9E1,4E0,1E1,1.7E1,3E0,5E0,3E0,6E0,1E0,2E0,6E0,2E0,1.7E1,4.3E1,1E0,2E0,1E0,3E0,2E0,1E0,1.4E1,4E0,2.4E1,4E0,8.2E1,5E0,1E0,2E0,5E0,5E0,3E0,2E0,1.4E1,1E0,3.8E1,2E0,2E0,6E0,4E0],"tree_param":{"num_deleted":"0","num_feature":"13","num_nodes":"87","size_leaf_vector":"0"}},{"base_weights":[6.02499E-1,7.7306205E-1,4.14309E-1,6.653499E-1,9.20298E-1,3.2451305E-1,4.9098223E-1,9.0955293E-1,5.566527E-1,1.1773994E0,7.9140085E-1,8.447326E-1,2.8397387E-1,1.4871359E-1,5.316142E-1,7.8211707E-1,1.543232E0,5.992844E-1,2.4026425E-1,1.305334E0,-2.3854382E-1,8.166661E-1,-3.3699226E-1,3.8025856E-2,9.9846876E-1,3.109023E-1,-1.2240092E-1,1.017746E0,-2.2811716E-2,6.390726E-1,3.3898807E-1,8.4411114E-1,1.3713074E-1,6.16041E-1,-1.3807297E-2,-2.578828E-1,7.813918E-1,2.4712229E-1,1.4447393E0,4.3685135E-1,9.1668254E-1,3.9543322E-1,1.7852694E-1,-5.1518124E-1,2.0278454E-1,-2.7103043E-1,3.2925683E-1,8.217273E-1,2.6920786E-1,-4.0442118E-1,4.8110762E-1,2.9776478E-1,-1.5668869E-2,2.0751272E-1,6.49036E-1,6.8645477E-3,-2.7575493E-2,5.9622448E-2,-1.0814571E0,-7.656765E-2,9.682972E-1,-6.7136765E-2,3.7425423E-1,9.4350576E-1,1.9017456E0,-1.8542163E-1,5.560153E-1,-1.3638353E-1,9.951488E-1,8.565775E-2,4.8521358E-1,-8.920288E-2,3.5701147E-1,-3.7178707E-1,1.6675472E-1,-1.04753494E-1,4.6394777E-1,6.901109E-1,1.3867267E0,-1.5355042E-1,4.6135786E-1,-7.377043E-1,-5.3353548E-2,3.2675305E-1,9.1954297E-1],"categories":[],"categories_nodes":[],"categories_segments":[],"categories_sizes":[],"default_left":[true,true,true,true,true,true,true,true,true,true,true,true,true,true,true,true,false,true,true,true,false,true,false,false,false,true,true,false,true,true,true,false,true,true,true,true,true,true,true,true,true,true,true,false,false,true,true,true,true,true,true,false,false,false,false,false,false,false,false,false,false,false,false,false,false,false,false,false,false,false,false,false,false,false,false,false,false,false,false,false,false,false,false,false,false],"id":29,"left_children":[1,3,5,7,9,11,13,15,17,19,21,23,25,27,29,31,-1,33,35,37,-1,39,-1,-1,-1,41,43,-1,45,47,49,-1,51,53,55,57,59,61,63,65,67,69,71,-1,-1,73,75,77,79,81,83,-1,-1,-1,-1,-1,-1,-1,-1,-1,-1,-1,-1,-1,-1,-1,-1,-1,-1,-1,-1,-1,-1,-1,-1,-1,-1,-1,-1,-1,-1,-1,-1,-1,-1],"loss_changes":[1.2294327E1,2.6388016E0,1.1419258E0,2.7320862E0,1.8519363E0,1.6581526E0,1.3116455E0,1.7001362E0,1.0294857E0,5.021229E0,1.9572487E0,7.061529E-1,9.682131E-1,1.8119493E0,1.6256008E0,1.1637783E0,0E0,7.8927994E-1,3.4362404E0,3.1834602E0,0E0,1.8028374E0,0E0,0E0,0E0,8.245902E-1,8.7082946E-1,0E0,1.0505286E0,3.562006E0,3.7867718E0,0E0,1.028449E-1,8.6278915E-1,1.0431353E-3,1.8949033E0,1.036284E0,1.8493567E-1,3.016098E0,1.1412323E0,3.8540764E0,1.2934017E0,1.608772E0,0E0,0E0,3.7076563E-1,3.4088653E-1,1.7944412E0,1.6955018E0,6.626703E-1,1.6620975E0,0E0,0E0,0E0,0E0,0E0,0E0,0E0,0E0,0E0,0E0,0E0,0E0,0E0,0E0,0E0,0E0,0E0,0E0,0E0,0E0,0E0,0E0,0E0,0E0,0E0,0E0,0E0,0E0,0E0,0E0,0E0,0E0,0E0,0E0],"parents":[2147483647,0,0,1,1,2,2,3,3,4,4,5,5,6,6,7,7,8,8,9,9,10,10,11,11,12,12,13,13,14,14,15,15,17,17,18,18,19,19,21,21,25,25,26,26,28,28,29,29,30,30,32,32,33,33,34,34,35,35,36,36,37,37,38,38,39,39,40,40,41,41,42,42,45,45,46,46,47,47,48,48,49,49,50,50],"right_children":[2,4,6,8,10,12,14,16,18,20,22,24,26,28,30,32,-1,34,36,38,-1,40,-1,-1,-1,42,44,-1,46,48,50,-1,52,54,56,58,60,62,64,66,68,70,72,-1,-1,74,76,78,80,82,84,-1,-1,-1,-1,-1,-1,-1,-1,-1,-1,-1,-1,-1,-1,-1,-1,-1,-1,-1,-1,-1,-1,-1,-1,-1,-1,-1,-1,-1,-1,-1,-1,-1,-1],"split_conditions":[1.53E2,7.85E1,7.45E1,2.0875E3,1.515E1,1.985E2,1.72E2,2.058E3,7.75E1,2.6675E3,9.1E1,1.555E2,1.675E1,1.2E1,1.27E2,7.05E1,4.629696E-1,3.0645E3,2.5375E3,1.295E1,-7.156315E-2,1.605E1,-1.0109768E-1,1.1407757E-2,2.9954064E-1,1.59E2,1.75E1,3.053238E-1,-9.536743E-7,1.775E1,1.325E2,2.5323334E-1,1.8825E3,9.3E1,1.25E2,1.265E2,-9.536743E-7,2.34E3,7.55E1,1.97E3,7.95E1,2.41E2,3.715E2,-1.5455438E-1,6.0835365E-2,3.615E3,2.6025E3,1.73E1,3.4005E3,7.65E1,4.3475E3,8.932944E-2,-4.7006607E-3,6.2253818E-2,1.947108E-1,2.0593645E-3,-8.272648E-3,1.7886735E-2,-3.2443714E-1,-2.2970296E-2,2.9048917E-1,-2.014103E-2,1.1227627E-1,2.8305173E-1,5.705237E-1,-5.5626493E-2,1.668046E-1,-4.091506E-2,2.9854465E-1,2.5697326E-2,1.4556408E-1,-2.6760865E-2,1.07103445E-1,-1.1153612E-1,5.002642E-2,-3.142605E-2,1.3918434E-1,2.0703329E-1,4.1601804E-1,-4.6065126E-2,1.3840736E-1,-2.2131129E-1,-1.6006066E-2,9.802592E-2,2.758629E-1],"split_indices":[5,9,9,7,8,5,5,7,9,7,6,5,8,8,6,6,0,7,7,8,0,8,0,0,0,6,8,0,1,8,6,0,7,5,5,5,1,7,6,7,9,5,5,0,0,7,7,8,7,9,7,0,0,0,0,0,0,0,0,0,0,0,0,0,0,0,0,0,0,0,0,0,0,0,0,0,0,0,0,0,0,0,0,0,0],"split_type":[0,0,0,0,0,0,0,0,0,0,0,0,0,0,0,0,0,0,0,0,0,0,0,0,0,0,0,0,0,0,0,0,0,0,0,0,0,0,0,0,0,0,0,0,0,0,0,0,0,0,0,0,0,0,0,0,0,0,0,0,0,0,0,0,0,0,0,0,0,0,0,0,0,0,0,0,0,0,0,0,0,0,0,0,0],"sum_hessian":[3.92E2,2.04E2,1.88E2,1.21E2,8.3E1,8.9E1,9.9E1,3.5E1,8.6E1,2.5E1,5.8E1,5E0,8.4E1,1.1E1,8.8E1,3.1E1,4E0,7.5E1,1.1E1,2.3E1,2E0,5.7E1,1E0,1E0,4E0,7.9E1,5E0,1E0,1E1,5.5E1,3.3E1,2.8E1,3E0,7.3E1,2E0,6E0,5E0,3E0,2E1,1.3E1,4.4E1,4.7E1,3.2E1,2E0,3E0,6E0,4E0,3.6E1,1.9E1,5E0,2.8E1,1E0,2E0,6E0,6.7E1,1E0,1E0,5E0,1E0,1E0,4E0,1E0,2E0,1.1E1,9E0,2E0,1.1E1,3E0,4.1E1,1.1E1,3.6E1,1.3E1,1.9E1,5E0,1E0,1E0,3E0,3.1E1,5E0,6E0,1.3E1,2E0,3E0,2.2E1,6E0],"tree_param":{"num_deleted":"0","num_feature":"13","num_nodes":"85","size_leaf_vector":"0"}},{"base_weights":[9.3654995E0,1.1450345E1,6.591896E0,1.2559463E1,9.823751E0,7.6270323E0,5.723575E0,1.0748292E1,1.34664955E1],"categories":[],"categories_nodes":[],"categories_segments":[],"categories_sizes":[],"default_left":[true,true,true,true,false,false,false,false,false],"id":30,"left_children":[1,3,5,7,-1,-1,-1,-1,-1],"loss_changes":[2.1970586E3,2.789297E2,1.100459E2,6.7177734E1,0E0,0E0,0E0,0E0,0E0],"parents":[2147483647,0,0,1,1,2,2,3,3],"right_children":[2,4,6,8,-1,-1,-1,-1,-1],"split_conditions":[1.905E2,8.45E1,1.27E2,7.65E1,2.9471254E0,2.2881098E0,1.7170726E0,3.2244878E0,4.039949E0],"split_indices":[5,6,6,9,0,0,0,0,0],"split_type":[0,0,0,0,0,0,0,0,0],"sum_hessian":[3.92E2,2.22E2,1.7E2,1.28E2,9.4E1,7.4E1,9.6E1,4.7E1,8.1E1],"tree_param":{"num_deleted":"0","num_feature":"13","num_nodes":"9","size_leaf_vector":"0"}}]},"name":"gbtree"},"name":"dart","weight_drop":[6.688964E-1,7.5614375E-1,6.688964E-1,7.5614375E-1,5.5043346E-1,7.692308E-1,7.692308E-1,5.1453567E-1,7.692308E-1,1E0,6.688964E-1,1E0,6.688964E-1,1E0,8.6956525E-1,2.9082453E-1,3.7807187E-1,7.692308E-1,4.3478262E-1,9.302325E-1,7.692308E-1,9.302325E-1,4.3478262E-1,4.3478262E-1,7.692308E-1,1E0,1E0,9.302325E-1,2.3255813E-1,7.692308E-1,4.3478262E-1]},"learner_model_param":{"base_score":"5E-1","num_class":"0","num_feature":"13"},"objective":{"name":"reg:squarederror","reg_loss_param":{"scale_pos_weight":"1"}}},"version":[1,3,2]}