booster[0]
0:[age<48] yes=1,no=2,missing=1
	1:[outwork<1] yes=3,no=4,missing=3
		3:[female<1] yes=7,no=8,missing=8
			7:[hhninc<2.91386199] yes=13,no=14,missing=14
				13:[age<94] yes=23,no=24,missing=24
					23:[hhninc<1.6500001] yes=33,no=34,missing=34
						33:leaf=0.369410217
						34:leaf=0.462848097
					24:leaf=0.504282475
				14:[hhninc<18.5] yes=25,no=26,missing=25
					25:leaf=0.442417353
					26:leaf=0.102943733
			8:[hhninc<7.1500001] yes=15,no=16,missing=15
				15:leaf=0.486232489
				16:[kids<1] yes=27,no=28,missing=28
					27:[married<3] yes=35,no=36,missing=36
						35:leaf=0.422415853
						36:leaf=0.102943733
					28:leaf=0.161851287
		4:[kids<1] yes=9,no=10,missing=9
			9:[hhninc<2.52999997] yes=17,no=18,missing=18
				17:leaf=0.539262056
				18:[educ<16.25] yes=29,no=30,missing=30
					29:leaf=0.507551193
					30:[edlevel=Coll/Univ] yes=38,no=37
						37:leaf=0.451217502
						38:leaf=0.102943733
			10:[age<46] yes=19,no=20,missing=19
				19:[self<3] yes=31,no=32,missing=32
					31:[hhninc<3.95000005] yes=39,no=40,missing=39
						39:leaf=0.468618542
						40:leaf=0.333163589
					32:[edlevel=HS_grad] yes=42,no=41
						41:leaf=0.518786669
						42:leaf=0.265345395
				20:leaf=0.241658494
	2:[hhninc<3.96913147] yes=5,no=6,missing=5
		5:leaf=0.519266367
		6:[hhninc<3.99413157] yes=11,no=12,missing=12
			11:leaf=0.102943733
			12:[hhninc<4.19699955] yes=21,no=22,missing=22
				21:leaf=0.421754867
				22:leaf=0.488032192
booster[1]
0:[age<48] yes=1,no=2,missing=1
	1:[outwork<1] yes=3,no=4,missing=3
		3:[female<1] yes=7,no=8,missing=8
			7:[hhninc<2.91386199] yes=15,no=16,missing=16
				15:[age<94] yes=31,no=32,missing=32
					31:[self<1] yes=61,no=62,missing=62
						61:leaf=0.399700165
						62:leaf=0.296726048
					32:[self<1] yes=63,no=64,missing=64
						63:leaf=0.42249018
						64:leaf=0.491770029
				16:[hhninc<3.74499989] yes=33,no=34,missing=33
					33:[self<1] yes=65,no=66,missing=65
						65:leaf=0.38484937
						66:leaf=0.284847081
					34:[edlevel=Not_HS_grad] yes=68,no=67
						67:leaf=0.289945602
						68:leaf=0.367367268
			8:[age<46] yes=17,no=18,missing=18
				17:[hhninc<2.92113161] yes=35,no=36,missing=36
					35:[educ<17] yes=69,no=70,missing=69
						69:leaf=0.409091026
						70:leaf=0.0495358966
					36:[hhninc<6.69999981] yes=71,no=72,missing=71
						71:leaf=0.448398888
						72:leaf=0.160660326
				18:[educ<9.5] yes=37,no=38,missing=38
					37:[hhninc<2.1500001] yes=73,no=74,missing=73
						73:leaf=0.489845872
						74:leaf=0.396447062
					38:[hhninc<3.25] yes=75,no=76,missing=75
						75:leaf=0.409052849
						76:leaf=0.361987501
		4:[kids<1] yes=9,no=10,missing=9
			9:[hhninc<2.52999997] yes=19,no=20,missing=20
				19:[hhninc<0.824000001] yes=39,no=40,missing=40
					39:[age<40] yes=77,no=78,missing=78
						77:leaf=0.0230713878
						78:leaf=0.384752274
					40:[hhninc<0.933499992] yes=79,no=80,missing=80
						79:leaf=0.576096356
						80:leaf=0.489319414
				20:[educ<10.75] yes=41,no=42,missing=41
					41:[hhninc<2.95000005] yes=81,no=82,missing=82
						81:leaf=0.287060171
						82:leaf=0.41982314
					42:[age<94] yes=83,no=84,missing=84
						83:leaf=0.404410839
						84:leaf=0.5250386
			10:[self<3] yes=21,no=22,missing=22
				21:[hhninc<3.95000005] yes=43,no=44,missing=43
					43:[hhninc<3.75] yes=85,no=86,missing=85
						85:leaf=0.393274367
						86:leaf=0.517826617
					44:leaf=0.260773301
				22:[hhninc<1.8835001] yes=45,no=46,missing=46
					45:[age<29] yes=87,no=88,missing=88
						87:leaf=0.0261375178
						88:leaf=0.248018697
					46:[educ<10.75] yes=89,no=90,missing=90
						89:leaf=0.509207726
						90:leaf=0.358659983
	2:[hhninc<3.96913147] yes=5,no=6,missing=5
		5:[female<1] yes=11,no=12,missing=11
			11:[age<60] yes=23,no=24,missing=24
				23:[hhninc<3.71494198] yes=47,no=48,missing=47
					47:[educ<14.75] yes=91,no=92,missing=91
						91:leaf=0.473125517
						92:leaf=0.372061461
					48:[kids<1] yes=93,no=94,missing=94
						93:leaf=0.148862332
						94:leaf=0.0347324237
				24:[hhninc<1.82999992] yes=49,no=50,missing=50
					49:[self<1] yes=95,no=96,missing=95
						95:leaf=0.46310848
						96:leaf=0.148862332
					50:[self<1] yes=97,no=98,missing=97
						97:leaf=0.39536345
						98:leaf=0.158988804
			12:[hhninc<2.85848403] yes=25,no=26,missing=26
				25:[age<49] yes=51,no=52,missing=52
					51:[married<3] yes=99,no=100,missing=100
						99:leaf=0.236668169
						100:leaf=0.0260657035
					52:[hhninc<0.616999984] yes=101,no=102,missing=102
						101:leaf=0.262127906
						102:leaf=0.50157398
				26:[age<63] yes=53,no=54,missing=54
					53:[educ<11.25] yes=103,no=104,missing=104
						103:leaf=0.439530522
						104:leaf=0.489044815
					54:leaf=0.321263343
		6:[kids<3] yes=13,no=14,missing=14
			13:[hhninc<5.00500011] yes=27,no=28,missing=28
				27:[self<1] yes=55,no=56,missing=55
					55:[educ<9.5] yes=105,no=106,missing=106
						105:leaf=0.308299333
						106:leaf=0.431734234
					56:[hhninc<4.75] yes=107,no=108,missing=108
						107:leaf=0.28615731
						108:leaf=0.0307403095
				28:[edlevel=Coll/Univ] yes=58,no=57
					57:[age<50] yes=109,no=110,missing=110
						109:leaf=0.198707804
						110:leaf=0.345882267
					58:leaf=0.0307403095
			14:[hhninc<4.15255833] yes=29,no=30,missing=30
				29:leaf=0.302931786
				30:[age<64] yes=59,no=60,missing=60
					59:[edlevel=Grad_School] yes=112,no=111
						111:leaf=0.499209106
						112:leaf=0.27798298
					60:leaf=0.0307403095
booster[2]
0:[age<48] yes=1,no=2,missing=1
	1:[outwork<1] yes=3,no=4,missing=3
		3:[female<1] yes=7,no=8,missing=8
			7:[hhninc<2.88243866] yes=15,no=16,missing=16
				15:[age<94] yes=31,no=32,missing=32
					31:[age<45] yes=63,no=64,missing=64
						63:leaf=0.322444588
						64:leaf=0.192756966
					32:[kids<1] yes=65,no=66,missing=65
						65:leaf=0.410097897
						66:leaf=0.316941261
				16:[hhninc<3.74499989] yes=33,no=34,missing=33
					33:[age<47] yes=67,no=68,missing=67
						67:leaf=0.30854851
						68:leaf=0.166545272
					34:[age<44] yes=69,no=70,missing=69
						69:leaf=0.229968965
						70:leaf=0.317889094
			8:[educ<9.5] yes=17,no=18,missing=17
				17:[hhninc<3.95000005] yes=35,no=36,missing=36
					35:[married<1] yes=71,no=72,missing=71
						71:leaf=0.290093362
						72:leaf=0.367531598
					36:[edlevel=Not_HS_grad] yes=74,no=73
						73:leaf=0.332395017
						74:leaf=0.425122827
				18:[married<1] yes=37,no=38,missing=38
					37:[age<26] yes=75,no=76,missing=75
						75:leaf=0.311228812
						76:leaf=0.432719201
					38:[female<3] yes=77,no=78,missing=78
						77:leaf=0.346798152
						78:leaf=0.300013721
		4:[kids<1] yes=9,no=10,missing=9
			9:[hhninc<2.52999997] yes=19,no=20,missing=20
				19:[hhninc<0.933499992] yes=39,no=40,missing=40
					39:[hhninc<0.895500004] yes=79,no=80,missing=80
						79:leaf=0.322546124
						80:leaf=0.573499441
					40:[hhninc<1.6500001] yes=81,no=82,missing=82
						81:leaf=0.305586934
						82:leaf=0.454835624
				20:[educ<16.25] yes=41,no=42,missing=42
					41:[edlevel=HS_grad] yes=84,no=83
						83:leaf=0.397321135
						84:leaf=0.183293313
					42:[hhninc<3.58963156] yes=85,no=86,missing=86
						85:leaf=0.127021715
						86:leaf=0.318404853
			10:[self<3] yes=21,no=22,missing=22
				21:[age<44] yes=43,no=44,missing=43
					43:[hhninc<3.95000005] yes=87,no=88,missing=87
						87:leaf=0.333512127
						88:leaf=0.201536581
					44:[female<3] yes=89,no=90,missing=90
						89:leaf=0.187624678
						90:leaf=-0.0110576609
				22:[married<1] yes=45,no=46,missing=46
					45:[age<94] yes=91,no=92,missing=92
						91:leaf=0.0304941982
						92:leaf=0.554311156
					46:[age<31] yes=93,no=94,missing=94
						93:leaf=0.205653146
						94:leaf=0.374385387
	2:[hhninc<3.96913147] yes=5,no=6,missing=5
		5:[female<1] yes=11,no=12,missing=11
			11:[age<60] yes=23,no=24,missing=24
				23:[self<1] yes=47,no=48,missing=47
					47:[educ<14.75] yes=95,no=96,missing=95
						95:leaf=0.412741214
						96:leaf=0.290753365
					48:[educ<10.75] yes=97,no=98,missing=97
						97:leaf=0.164903983
						98:leaf=0.432218283
				24:[hhninc<2.15796614] yes=49,no=50,missing=50
					49:[self<1] yes=99,no=100,missing=99
						99:leaf=0.391855955
						100:leaf=0.0900495574
					50:[educ<9.5] yes=101,no=102,missing=102
						101:leaf=0.381147921
						102:leaf=0.278856635
			12:[hhninc<2.85848403] yes=25,no=26,missing=26
				25:[educ<12.5] yes=51,no=52,missing=51
					51:[age<49] yes=103,no=104,missing=104
						103:leaf=0.165761113
						104:leaf=0.445863307
					52:[edlevel=Coll/Univ] yes=106,no=105
						105:leaf=-0.049044311
						106:leaf=0.173801214
				26:[age<63] yes=53,no=54,missing=54
					53:[educ<11.25] yes=107,no=108,missing=108
						107:leaf=0.368730962
						108:leaf=0.429672062
					54:[educ<11.75] yes=109,no=110,missing=110
						109:leaf=0.180207014
						110:leaf=0.287344038
		6:[kids<3] yes=13,no=14,missing=14
			13:[hhninc<5.00500011] yes=27,no=28,missing=28
				27:[self<1] yes=55,no=56,missing=55
					55:[educ<9.5] yes=111,no=112,missing=112
						111:leaf=0.240545616
						112:leaf=0.360287338
					56:[kids<1] yes=113,no=114,missing=114
						113:leaf=0.226682737
						114:leaf=-0.00221474166
				28:[age<57] yes=57,no=58,missing=58
					57:[hhninc<5.64999962] yes=115,no=116,missing=116
						115:leaf=0.255311966
						116:leaf=0.134274453
					58:[edlevel=Grad_School] yes=118,no=117
						117:leaf=0.369837821
						118:leaf=0.0961499587
			14:[female<3] yes=29,no=30,missing=30
				29:[self<3] yes=59,no=60,missing=60
					59:[hhninc<4.19699955] yes=119,no=120,missing=120
						119:leaf=0.298428208
						120:leaf=0.462446213
					60:leaf=0.163808122
				30:[age<52] yes=61,no=62,missing=62
					61:leaf=0.325985402
					62:[outwork<1] yes=121,no=122,missing=122
						121:leaf=0.136743888
						122:leaf=0.0142867798
booster[3]
0:[outwork<1] yes=1,no=2,missing=1
	1:[age<52] yes=3,no=4,missing=3
		3:[edlevel=Not_HS_grad] yes=8,no=7
			7:[female<1] yes=15,no=16,missing=16
				15:[educ<11.25] yes=31,no=32,missing=32
					31:[age<35] yes=63,no=64,missing=63
						63:leaf=0.31761089
						64:leaf=0.186861336
					32:[hhninc<1.6500001] yes=65,no=66,missing=65
						65:leaf=0.116967611
						66:leaf=0.20327419
				16:[educ<9.5] yes=33,no=34,missing=33
					33:[hhninc<1.90999997] yes=67,no=68,missing=67
						67:leaf=0.232585087
						68:leaf=0.325383246
					34:[married<1] yes=69,no=70,missing=69
						69:leaf=0.285688072
						70:leaf=0.192355841
			8:[age<50] yes=17,no=18,missing=17
				17:[age<48] yes=35,no=36,missing=35
					35:[age<46] yes=71,no=72,missing=71
						71:leaf=0.281256765
						72:leaf=0.199644879
					36:[hhninc<2.57500005] yes=73,no=74,missing=73
						73:leaf=0.177562565
						74:leaf=0.390128225
				18:[self<3] yes=37,no=38,missing=38
					37:[married<1] yes=75,no=76,missing=76
						75:leaf=0.0089242449
						76:leaf=0.279254168
					38:[female<1] yes=77,no=78,missing=78
						77:leaf=0.132453874
						78:leaf=-0.0825452358
		4:[outwork<1] yes=9,no=10,missing=10
			9:[educ<11.25] yes=19,no=20,missing=19
				19:[educ<10.75] yes=39,no=40,missing=40
					39:[hhninc<1.04999995] yes=79,no=80,missing=80
						79:leaf=-0.15097484
						80:leaf=0.303328633
					40:[age<61] yes=81,no=82,missing=82
						81:leaf=0.430360854
						82:leaf=0.121186338
				20:[hhninc<2.7249999] yes=41,no=42,missing=42
					41:[married<3] yes=83,no=84,missing=84
						83:leaf=0.114651151
						84:leaf=-0.105684124
					42:[age<59] yes=85,no=86,missing=86
						85:leaf=0.289963305
						86:leaf=0.157779813
			10:[hhninc<1.74000001] yes=21,no=22,missing=22
				21:[married<3] yes=43,no=44,missing=44
					43:[female<1] yes=87,no=88,missing=88
						87:leaf=0.286707163
						88:leaf=0.424668223
					44:[hhninc<1.50481844] yes=89,no=90,missing=90
						89:leaf=0.0440353975
						90:leaf=0.353580832
				22:[hhninc<2.42172551] yes=45,no=46,missing=46
					45:[age<60] yes=91,no=92,missing=92
						91:leaf=0.0891793668
						92:leaf=0.23857379
					46:[educ<14.75] yes=93,no=94,missing=94
						93:leaf=0.293772668
						94:leaf=0.213564292
	2:[hhninc<3.95000005] yes=5,no=6,missing=6
		5:[educ<8] yes=11,no=12,missing=11
			11:[age<59] yes=23,no=24,missing=23
				23:[age<47] yes=47,no=48,missing=47
					47:[female<1] yes=95,no=96,missing=95
						95:leaf=0.32191819
						96:leaf=0.17929852
					48:[age<53] yes=97,no=98,missing=98
						97:leaf=0.448935598
						98:leaf=0.281660527
				24:[self<1] yes=49,no=50,missing=50
					49:[married<1] yes=99,no=100,missing=100
						99:leaf=0.331694365
						100:leaf=0.201682687
					50:[age<61] yes=101,no=102,missing=102
						101:leaf=0.0632569939
						102:leaf=0.189242572
			12:[age<36] yes=25,no=26,missing=26
				25:[age<26] yes=51,no=52,missing=52
					51:leaf=0.480927795
					52:[hhninc<1.90750003] yes=103,no=104,missing=104
						103:leaf=0.122986533
						104:leaf=0.25009504
				26:[age<39] yes=53,no=54,missing=54
					53:[hhninc<2.45000005] yes=105,no=106,missing=106
						105:leaf=0.511343658
						106:leaf=0.133181065
					54:[hhninc<3.6500001] yes=107,no=108,missing=108
						107:leaf=0.356902957
						108:leaf=0.483928412
		6:[age<53] yes=13,no=14,missing=14
			13:[age<38] yes=27,no=28,missing=28
				27:[educ<8] yes=55,no=56,missing=55
					55:leaf=0.388417095
					56:[female<1] yes=109,no=110,missing=110
						109:leaf=0.335541964
						110:leaf=0.22273463
				28:[kids<1] yes=57,no=58,missing=58
					57:[married<1] yes=111,no=112,missing=112
						111:leaf=-0.0740650818
						112:leaf=0.266451687
					58:[age<49] yes=113,no=114,missing=114
						113:leaf=0.18869938
						114:leaf=0.0852629468
			14:[educ<10.75] yes=29,no=30,missing=30
				29:[married<1] yes=59,no=60,missing=60
					59:[educ<9.75] yes=115,no=116,missing=116
						115:leaf=0.149130389
						116:leaf=-0.11172343
					60:[kids<1] yes=117,no=118,missing=118
						117:leaf=0.23629351
						118:leaf=0.316704988
				30:[age<61] yes=61,no=62,missing=61
					61:[educ<14] yes=119,no=120,missing=119
						119:leaf=0.382361561
						120:leaf=0.113569014
					62:[educ<11.75] yes=121,no=122,missing=122
						121:leaf=-0.0953727141
						122:leaf=0.20351778
booster[4]
0:[age<48] yes=1,no=2,missing=1
	1:[outwork<1] yes=3,no=4,missing=3
		3:[hhninc<4.829] yes=7,no=8,missing=7
			7:[female<1] yes=15,no=16,missing=16
				15:[age<40] yes=31,no=32,missing=32
					31:[married<1] yes=61,no=62,missing=62
						61:leaf=0.215674624
						62:leaf=0.115079589
					32:[hhninc<1.40100002] yes=63,no=64,missing=64
						63:leaf=0.365388364
						64:leaf=0.197161213
				16:[hhninc<3.93599987] yes=33,no=34,missing=33
					33:[age<36] yes=65,no=66,missing=66
						65:leaf=0.231322005
						66:leaf=0.18951115
					34:[kids<3] yes=67,no=68,missing=68
						67:leaf=0.197936058
						68:leaf=0.367639393
			8:[kids<3] yes=17,no=18,missing=18
				17:[age<43] yes=35,no=36,missing=36
					35:[age<36] yes=69,no=70,missing=70
						69:leaf=0.116110288
						70:leaf=0.00265013706
					36:[kids<1] yes=71,no=72,missing=72
						71:leaf=0.129746422
						72:leaf=0.257029921
				18:[married<1] yes=37,no=38,missing=38
					37:[edlevel=HS_grad] yes=74,no=73
						73:leaf=0.0197606534
						74:leaf=0.223013088
					38:[age<43] yes=75,no=76,missing=75
						75:leaf=-0.101970941
						76:leaf=0.0572036654
		4:[married<1] yes=9,no=10,missing=10
			9:[female<1] yes=19,no=20,missing=20
				19:[hhninc<0.8495] yes=39,no=40,missing=39
					39:[kids<1] yes=77,no=78,missing=78
						77:leaf=0.117343314
						78:leaf=0.288173765
					40:[edlevel=Coll/Univ] yes=80,no=79
						79:leaf=0.514705837
						80:leaf=0.072923243
				20:[age<45] yes=41,no=42,missing=41
					41:[educ<10.25] yes=81,no=82,missing=81
						81:leaf=0.0970145911
						82:leaf=0.253158748
					42:[kids<1] yes=83,no=84,missing=83
						83:leaf=0.476123482
						84:leaf=-0.0275696535
			10:[hhninc<1.89499998] yes=21,no=22,missing=22
				21:[kids<3] yes=43,no=44,missing=44
					43:[female<3] yes=85,no=86,missing=86
						85:leaf=0.115275912
						86:leaf=-0.0150604788
					44:[educ<9.75] yes=87,no=88,missing=88
						87:leaf=0.299431026
						88:leaf=0.132566914
				22:[hhninc<2.05530787] yes=45,no=46,missing=46
					45:[kids<1] yes=89,no=90,missing=89
						89:leaf=0.415904164
						90:leaf=0.218358666
					46:[educ<10.6527443] yes=91,no=92,missing=91
						91:leaf=0.184914172
						92:leaf=0.275751978
	2:[hhninc<1.82500005] yes=5,no=6,missing=6
		5:[hhninc<0.674999952] yes=11,no=12,missing=12
			11:[age<60] yes=23,no=24,missing=24
				23:leaf=0.126427323
				24:[kids<1] yes=47,no=48,missing=48
					47:leaf=0.039419923
					48:leaf=-0.172550499
			12:[self<1] yes=25,no=26,missing=26
				25:[hhninc<0.949999988] yes=49,no=50,missing=50
					49:[kids<3] yes=93,no=94,missing=94
						93:leaf=0.443021268
						94:leaf=0.0560245104
					50:[hhninc<1.04999995] yes=95,no=96,missing=96
						95:leaf=-0.0603327304
						96:leaf=0.31788817
				26:[married<1] yes=51,no=52,missing=52
					51:[hhninc<0.954999983] yes=97,no=98,missing=98
						97:leaf=-0.115829885
						98:leaf=0.123510703
					52:[hhninc<1.10000002] yes=99,no=100,missing=100
						99:leaf=0.11359679
						100:leaf=0.317237884
		6:[age<61] yes=13,no=14,missing=14
			13:[female<3] yes=27,no=28,missing=28
				27:[hhninc<3.02568054] yes=53,no=54,missing=53
					53:[hhninc<2.26320791] yes=101,no=102,missing=102
						101:leaf=0.222484902
						102:leaf=0.30396232
					54:[self<1] yes=103,no=104,missing=104
						103:leaf=0.24768351
						104:leaf=0.128746524
				28:[hhninc<2.25] yes=55,no=56,missing=56
					55:[outwork<3] yes=105,no=106,missing=106
						105:leaf=0.113088556
						106:leaf=-0.114110358
					56:[edlevel=HS_grad] yes=108,no=107
						107:leaf=0.227671072
						108:leaf=-0.108103193
			14:[married<1] yes=29,no=30,missing=30
				29:[hhninc<2.95000005] yes=57,no=58,missing=57
					57:[edlevel=Not_HS_grad] yes=110,no=109
						109:leaf=0.0896423161
						110:leaf=-0.0476834774
					58:[outwork<3] yes=111,no=112,missing=112
						111:leaf=0.148668081
						112:leaf=-0.0177374259
				30:[hhninc<3.3499999] yes=59,no=60,missing=59
					59:[educ<9.75] yes=113,no=114,missing=114
						113:leaf=0.249701887
						114:leaf=0.141282618
					60:[female<1] yes=115,no=116,missing=115
						115:leaf=0.170208469
						116:leaf=0.33622402
booster[5]
0:[outwork<1] yes=1,no=2,missing=1
	1:[age<52] yes=3,no=4,missing=3
		3:[educ<9.5] yes=7,no=8,missing=8
			7:[age<42] yes=15,no=16,missing=16
				15:[hhninc<3.25] yes=31,no=32,missing=32
					31:[age<29] yes=63,no=64,missing=64
						63:leaf=0.0555058196
						64:leaf=-0.12177401
					32:[hhninc<3.7750001] yes=65,no=66,missing=65
						65:leaf=0.151854604
						66:leaf=-0.0390421525
				16:[hhninc<4.05000019] yes=33,no=34,missing=33
					33:[kids<3] yes=67,no=68,missing=68
						67:leaf=0.160594895
						68:leaf=0.269161046
					34:[married<1] yes=69,no=70,missing=69
						69:leaf=0.136035472
						70:leaf=0.410029531
			8:[edlevel=Not_HS_grad] yes=18,no=17
				17:[outwork<1] yes=35,no=36,missing=36
					35:[married<1] yes=71,no=72,missing=72
						71:leaf=0.166381702
						72:leaf=0.0803200826
					36:[hhninc<4.03250027] yes=73,no=74,missing=74
						73:leaf=0.186863035
						74:leaf=0.0761010125
				18:[hhninc<1.22500002] yes=37,no=38,missing=38
					37:[self<1] yes=75,no=76,missing=76
						75:leaf=0.120081417
						76:leaf=0.414901555
					38:[educ<10.75] yes=77,no=78,missing=78
						77:leaf=0.126599476
						78:leaf=0.160928562
		4:[outwork<1] yes=9,no=10,missing=10
			9:[hhninc<6.4000001] yes=19,no=20,missing=20
				19:[educ<36] yes=39,no=40,missing=40
					39:[self<3] yes=79,no=80,missing=80
						79:leaf=0.102387488
						80:leaf=0.205256701
					40:[female<1] yes=81,no=82,missing=81
						81:leaf=0.183760807
						82:leaf=0.34686318
				20:[educ<11.75] yes=41,no=42,missing=41
					41:[educ<10.75] yes=83,no=84,missing=84
						83:leaf=0.230761394
						84:leaf=0.357607752
					42:[age<59] yes=85,no=86,missing=86
						85:leaf=-0.109235831
						86:leaf=0.194817618
			10:[hhninc<1.8499999] yes=21,no=22,missing=22
				21:[married<3] yes=43,no=44,missing=44
					43:[kids<1] yes=87,no=88,missing=88
						87:leaf=0.278616399
						88:leaf=0.112184711
					44:[age<63] yes=89,no=90,missing=90
						89:leaf=0.179806769
						90:leaf=-0.130495906
				22:[hhninc<2.42172551] yes=45,no=46,missing=46
					45:[educ<11.75] yes=91,no=92,missing=91
						91:leaf=0.0579186194
						92:leaf=-0.136484474
					46:[hhninc<2.89684248] yes=93,no=94,missing=94
						93:leaf=0.20538038
						94:leaf=0.120648213
	2:[hhninc<2.50739455] yes=5,no=6,missing=6
		5:[kids<1] yes=11,no=12,missing=11
			11:[age<59] yes=23,no=24,missing=24
				23:[hhninc<0.933499992] yes=47,no=48,missing=48
					47:[hhninc<0.779999971] yes=95,no=96,missing=96
						95:leaf=0.0950478539
						96:leaf=0.503970683
					48:[age<57] yes=97,no=98,missing=98
						97:leaf=0.217016324
						98:leaf=0.35718438
				24:[hhninc<1.28900003] yes=49,no=50,missing=50
					49:[age<63] yes=99,no=100,missing=99
						99:leaf=-0.0198594648
						100:leaf=0.282282174
					50:[hhninc<1.3499999] yes=101,no=102,missing=102
						101:leaf=0.485322922
						102:leaf=0.208248734
			12:[age<49] yes=25,no=26,missing=25
				25:[educ<9.75] yes=51,no=52,missing=51
					51:[hhninc<1.47500002] yes=103,no=104,missing=104
						103:leaf=-0.0930219442
						104:leaf=0.0901977569
					52:[married<3] yes=105,no=106,missing=106
						105:leaf=0.220513865
						106:leaf=0.0372993648
				26:[hhninc<1.8499999] yes=53,no=54,missing=54
					53:[female<3] yes=107,no=108,missing=108
						107:leaf=0.227084786
						108:leaf=0.442046702
					54:[age<52] yes=109,no=110,missing=110
						109:leaf=0.278769195
						110:leaf=-0.0974377394
		6:[married<1] yes=13,no=14,missing=14
			13:[age<61] yes=27,no=28,missing=27
				27:[female<3] yes=55,no=56,missing=56
					55:[self<1] yes=111,no=112,missing=112
						111:leaf=0.226135865
						112:leaf=0.388430834
					56:[self<1] yes=113,no=114,missing=114
						113:leaf=0.197947994
						114:leaf=-0.124380194
				28:[hhninc<2.95000005] yes=57,no=58,missing=57
					57:[educ<21] yes=115,no=116,missing=116
						115:leaf=0.0124846175
						116:leaf=-0.132862717
					58:leaf=0.110751025
			14:[educ<10.6527443] yes=29,no=30,missing=29
				29:[hhninc<3.18508959] yes=59,no=60,missing=60
					59:[age<59] yes=117,no=118,missing=117
						117:leaf=0.0435770527
						118:leaf=0.173331723
					60:[hhninc<3.56099987] yes=119,no=120,missing=120
						119:leaf=0.235812381
						120:leaf=0.14116846
				30:[age<53] yes=61,no=62,missing=62
					61:[edlevel=HS_grad] yes=122,no=121
						121:leaf=0.145715401
						122:leaf=0.00954439398
					62:[kids<1] yes=123,no=124,missing=123
						123:leaf=0.289078206
						124:leaf=0.0657485723
booster[6]
0:[outwork<1] yes=1,no=2,missing=1
	1:[age<42] yes=3,no=4,missing=3
		3:[hhninc<3.09805107] yes=7,no=8,missing=7
			7:[educ<11.75] yes=15,no=16,missing=15
				15:[edlevel=Coll/Univ] yes=30,no=29
					29:[age<36] yes=57,no=58,missing=57
						57:leaf=0.133015171
						58:leaf=0.067061238
					30:[hhninc<6.00000095] yes=59,no=60,missing=60
						59:leaf=-0.185908154
						60:leaf=-0.0440818332
				16:[hhninc<0.74000001] yes=31,no=32,missing=31
					31:[kids<1] yes=61,no=62,missing=62
						61:leaf=-0.0951523408
						62:leaf=-0.00868400466
					32:[age<36] yes=63,no=64,missing=63
						63:leaf=0.0533727817
						64:leaf=0.179449469
			8:[hhninc<3.31722164] yes=17,no=18,missing=18
				17:[female<3] yes=33,no=34,missing=34
					33:[hhninc<3.13833427] yes=65,no=66,missing=66
						65:leaf=-0.0161852036
						66:leaf=-0.126565084
					34:[kids<1] yes=67,no=68,missing=68
						67:leaf=0.137877956
						68:leaf=-0.0718919709
				18:[age<39] yes=35,no=36,missing=36
					35:[outwork<1] yes=69,no=70,missing=70
						69:leaf=0.0640416592
						70:leaf=0.185113221
					36:[kids<1] yes=71,no=72,missing=72
						71:leaf=0.0927210152
						72:leaf=0.0141476654
		4:[self<1] yes=9,no=10,missing=9
			9:[hhninc<2.64402294] yes=19,no=20,missing=20
				19:[age<51] yes=37,no=38,missing=38
					37:[educ<11.25] yes=73,no=74,missing=73
						73:leaf=0.00462459074
						74:leaf=0.184321031
					38:[hhninc<1.55349994] yes=75,no=76,missing=76
						75:leaf=0.173942044
						76:leaf=0.109687217
				20:[hhninc<2.71334362] yes=39,no=40,missing=40
					39:[age<54] yes=77,no=78,missing=78
						77:leaf=0.190845683
						78:leaf=0.482974499
					40:[educ<10.25] yes=79,no=80,missing=79
						79:leaf=0.160543442
						80:leaf=0.119898461
			10:[educ<10.75] yes=21,no=22,missing=21
				21:[edlevel=HS_grad] yes=42,no=41
					41:[kids<3] yes=81,no=82,missing=82
						81:leaf=-0.0430845171
						82:leaf=0.0416946039
					42:leaf=0.194548801
				22:[age<51] yes=43,no=44,missing=44
					43:[edlevel=Not_HS_grad] yes=84,no=83
						83:leaf=-0.0423077643
						84:leaf=-0.161316514
					44:[kids<1] yes=85,no=86,missing=85
						85:leaf=0.186600745
						86:leaf=-0.0607411079
	2:[hhninc<0.925500035] yes=5,no=6,missing=6
		5:[hhninc<0.892499983] yes=11,no=12,missing=12
			11:[female<3] yes=23,no=24,missing=24
				23:[age<59] yes=45,no=46,missing=45
					45:[age<38] yes=87,no=88,missing=88
						87:leaf=-0.029328851
						88:leaf=0.136713073
					46:[educ<9.5] yes=89,no=90,missing=89
						89:leaf=0.00986597221
						90:leaf=-0.185719311
				24:[edlevel=Not_HS_grad] yes=48,no=47
					47:leaf=0.160531148
					48:leaf=0.398371816
			12:leaf=0.450013816
		6:[hhninc<1.10800004] yes=13,no=14,missing=14
			13:[age<57] yes=25,no=26,missing=25
				25:[hhninc<1.02499998] yes=49,no=50,missing=50
					49:[edlevel=Not_HS_grad] yes=92,no=91
						91:leaf=0.12347693
						92:leaf=-0.0268447176
					50:[educ<18] yes=93,no=94,missing=94
						93:leaf=0.0583821982
						94:leaf=0.213218585
				26:[educ<9.5] yes=51,no=52,missing=52
					51:leaf=-0.274539351
					52:leaf=-0.065001905
			14:[hhninc<2.46899986] yes=27,no=28,missing=28
				27:[educ<11.75] yes=53,no=54,missing=54
					53:[female<1] yes=95,no=96,missing=95
						95:leaf=0.129042134
						96:leaf=0.215056226
					54:[age<56] yes=97,no=98,missing=98
						97:leaf=0.16809386
						98:leaf=0.0586587451
				28:[married<1] yes=55,no=56,missing=56
					55:[kids<1] yes=99,no=100,missing=100
						99:leaf=0.107456498
						100:leaf=0.241597787
					56:[female<3] yes=101,no=102,missing=102
						101:leaf=0.107385159
						102:leaf=0.151941299
booster[7]
0:[outwork<1] yes=1,no=2,missing=1
	1:[age<42] yes=3,no=4,missing=3
		3:[hhninc<3.09805107] yes=7,no=8,missing=7
			7:[educ<11.75] yes=15,no=16,missing=15
				15:[kids<1] yes=29,no=30,missing=29
					29:[married<1] yes=57,no=58,missing=57
						57:leaf=0.0784420446
						58:leaf=0.124949567
					30:[hhninc<2.6500001] yes=59,no=60,missing=59
						59:leaf=0.0376434103
						60:leaf=0.145683229
				16:[hhninc<0.74000001] yes=31,no=32,missing=31
					31:[age<32] yes=61,no=62,missing=61
						61:leaf=-0.0111878375
						62:leaf=-0.110174499
					32:[age<36] yes=63,no=64,missing=63
						63:leaf=0.037669152
						64:leaf=0.135862112
			8:[hhninc<3.4749999] yes=17,no=18,missing=18
				17:[edlevel=Coll/Univ] yes=34,no=33
					33:[kids<1] yes=65,no=66,missing=66
						65:leaf=-0.0042972886
						66:leaf=-0.103792131
					34:[female<1] yes=67,no=68,missing=68
						67:leaf=0.0283099525
						68:leaf=0.28525731
				18:[age<40] yes=35,no=36,missing=35
					35:[age<31] yes=69,no=70,missing=69
						69:leaf=0.0465208478
						70:leaf=0.10127414
					36:[self<1] yes=71,no=72,missing=71
						71:leaf=-0.0956822783
						72:leaf=0.157801896
		4:[age<44] yes=9,no=10,missing=10
			9:[educ<15.25] yes=19,no=20,missing=20
				19:[female<1] yes=37,no=38,missing=37
					37:[hhninc<3.75] yes=73,no=74,missing=74
						73:leaf=0.0942378789
						74:leaf=-0.102783673
					38:[self<3] yes=75,no=76,missing=76
						75:leaf=0.176424205
						76:leaf=-0.0777165517
				20:[hhninc<4.03250027] yes=39,no=40,missing=39
					39:[kids<1] yes=77,no=78,missing=77
						77:leaf=0.354404539
						78:leaf=0.146260515
					40:[edlevel=Not_HS_grad] yes=80,no=79
						79:leaf=-0.114019014
						80:leaf=0.158455864
			10:[self<3] yes=21,no=22,missing=22
				21:[outwork<1] yes=41,no=42,missing=42
					41:[hhninc<2.41900015] yes=81,no=82,missing=82
						81:leaf=0.0290311333
						82:leaf=0.102993622
					42:[hhninc<9] yes=83,no=84,missing=84
						83:leaf=0.0615382418
						84:leaf=-0.042215988
				22:[married<1] yes=43,no=44,missing=43
					43:[kids<3] yes=85,no=86,missing=86
						85:leaf=-0.00173955481
						86:leaf=0.14139387
					44:[educ<10.25] yes=87,no=88,missing=88
						87:leaf=0.249508634
						88:leaf=0.109736241
	2:[hhninc<0.925500035] yes=5,no=6,missing=6
		5:[hhninc<0.892499983] yes=11,no=12,missing=12
			11:[female<3] yes=23,no=24,missing=24
				23:[age<59] yes=45,no=46,missing=45
					45:[age<50] yes=89,no=90,missing=89
						89:leaf=0.0489112549
						90:leaf=0.147707075
					46:[hhninc<0.835999966] yes=91,no=92,missing=92
						91:leaf=-0.0892175362
						92:leaf=0.0575981922
				24:[edlevel=Not_HS_grad] yes=48,no=47
					47:leaf=0.127237558
					48:leaf=0.335379422
			12:leaf=0.386412114
		6:[age<46] yes=13,no=14,missing=14
			13:[age<26] yes=25,no=26,missing=26
				25:[hhninc<5.70000076] yes=49,no=50,missing=50
					49:leaf=0.339340091
					50:[female<1] yes=93,no=94,missing=94
						93:leaf=-0.135732025
						94:leaf=0.111590154
				26:[educ<8] yes=51,no=52,missing=52
					51:leaf=0.303956866
					52:[hhninc<2.75] yes=95,no=96,missing=95
						95:leaf=0.0732326582
						96:leaf=0.00655920012
			14:[age<55] yes=27,no=28,missing=28
				27:[hhninc<1.72500002] yes=53,no=54,missing=54
					53:[educ<9.5] yes=97,no=98,missing=98
						97:leaf=-0.235331729
						98:leaf=0.0603041537
					54:[married<3] yes=99,no=100,missing=100
						99:leaf=0.198420316
						100:leaf=0.012354672
				28:[educ<10.75] yes=55,no=56,missing=55
					55:[kids<3] yes=101,no=102,missing=102
						101:leaf=0.0639532506
						102:leaf=0.126341909
					56:[kids<1] yes=103,no=104,missing=103
						103:leaf=0.191331595
						104:leaf=-0.0276969355
booster[8]
0:[hhninc<2.05577087] yes=1,no=2,missing=2
	1:[age<34] yes=3,no=4,missing=4
		3:[married<1] yes=7,no=8,missing=8
			7:[hhninc<1.6500001] yes=15,no=16,missing=16
				15:[hhninc<1.29999995] yes=31,no=32,missing=32
					31:[edlevel=Not_HS_grad] yes=62,no=61
						61:leaf=-0.0232767947
						62:leaf=0.0778860077
					32:leaf=-0.19636035
				16:[age<26] yes=33,no=34,missing=34
					33:[female<3] yes=63,no=64,missing=64
						63:leaf=-0.0423281938
						64:leaf=0.121883102
					34:[female<1] yes=65,no=66,missing=65
						65:leaf=0.232742012
						66:leaf=0.0483997203
			8:[outwork<1] yes=17,no=18,missing=18
				17:[female<1] yes=35,no=36,missing=35
					35:[educ<11.75] yes=67,no=68,missing=67
						67:leaf=-0.216235444
						68:leaf=-0.00121659751
					36:[edlevel=HS_grad] yes=70,no=69
						69:leaf=0.135575235
						70:leaf=-0.0263671633
				18:[age<29] yes=37,no=38,missing=38
					37:[female<1] yes=71,no=72,missing=71
						71:leaf=0.182824597
						72:leaf=-0.023924429
					38:[female<1] yes=73,no=74,missing=73
						73:leaf=-0.0908223018
						74:leaf=0.0480789281
		4:[educ<11.25] yes=9,no=10,missing=10
			9:[female<1] yes=19,no=20,missing=19
				19:[hhninc<0.925500035] yes=39,no=40,missing=40
					39:[hhninc<0.789000034] yes=75,no=76,missing=76
						75:leaf=-0.00507997535
						76:leaf=0.291642129
					40:[age<39] yes=77,no=78,missing=77
						77:leaf=0.0981313586
						78:leaf=0.0327508636
				20:[hhninc<1.1910131] yes=41,no=42,missing=42
					41:[self<3] yes=79,no=80,missing=80
						79:leaf=0.0695809051
						80:leaf=-0.145609066
					42:[married<3] yes=81,no=82,missing=82
						81:leaf=0.175926924
						82:leaf=0.0671816319
			10:[kids<3] yes=21,no=22,missing=22
				21:[age<43] yes=43,no=44,missing=44
					43:[hhninc<1.72500002] yes=83,no=84,missing=84
						83:leaf=0.024652211
						84:leaf=-0.119360335
					44:[age<53] yes=85,no=86,missing=86
						85:leaf=0.176349595
						86:leaf=0.0708162189
				22:[educ<14.75] yes=45,no=46,missing=46
					45:[hhninc<0.935000002] yes=87,no=88,missing=88
						87:leaf=0.100169495
						88:leaf=-0.21935682
					46:[age<43] yes=89,no=90,missing=90
						89:leaf=0.20344615
						90:leaf=0.0121747516
	2:[hhninc<2.29750013] yes=5,no=6,missing=6
		5:[age<28] yes=11,no=12,missing=12
			11:[kids<1] yes=23,no=24,missing=24
				23:leaf=0.304891169
				24:[edlevel=HS_grad] yes=48,no=47
					47:[edlevel=Not_HS_grad] yes=92,no=91
						91:leaf=0.00674301898
						92:leaf=0.118271314
					48:leaf=-0.164325804
			12:[age<58] yes=25,no=26,missing=26
				25:[edlevel=Grad_School] yes=50,no=49
					49:[married<1] yes=93,no=94,missing=93
						93:leaf=-0.157586068
						94:leaf=-0.0305820536
					50:leaf=0.185684577
				26:[hhninc<2.24685192] yes=51,no=52,missing=52
					51:[married<1] yes=95,no=96,missing=96
						95:leaf=-0.0694629773
						96:leaf=0.0621435232
					52:[edlevel=Not_HS_grad] yes=98,no=97
						97:leaf=-0.263129711
						98:leaf=-0.0309172329
		6:[age<52] yes=13,no=14,missing=13
			13:[hhninc<2.30375147] yes=27,no=28,missing=28
				27:[edlevel=HS_grad] yes=54,no=53
					53:[age<51] yes=99,no=100,missing=100
						99:leaf=-0.191671416
						100:leaf=0.0124088638
					54:leaf=0.199859917
				28:[hhninc<2.31750011] yes=55,no=56,missing=56
					55:leaf=0.397937208
					56:[hhninc<4.89499998] yes=101,no=102,missing=102
						101:leaf=0.0652780682
						102:leaf=0.0355342999
			14:[age<60] yes=29,no=30,missing=30
				29:[hhninc<2.77449989] yes=57,no=58,missing=57
					57:[hhninc<2.67500019] yes=103,no=104,missing=103
						103:leaf=0.120963663
						104:leaf=0.370414257
					58:[self<1] yes=105,no=106,missing=106
						105:leaf=0.0711614192
						106:leaf=-0.00813816115
				30:[hhninc<2.62832212] yes=59,no=60,missing=60
					59:[hhninc<2.36299992] yes=107,no=108,missing=108
						107:leaf=0.0511768758
						108:leaf=-0.136732519
					60:[female<1] yes=109,no=110,missing=109
						109:leaf=0.0204941072
						110:leaf=0.0837779865
booster[9]
0:[hhninc<1.43149996] yes=1,no=2,missing=2
	1:[educ<10.25] yes=3,no=4,missing=3
		3:[outwork<1] yes=7,no=8,missing=7
			7:[age<56] yes=15,no=16,missing=16
				15:[female<3] yes=31,no=32,missing=32
					31:[hhninc<0.61500001] yes=59,no=60,missing=60
						59:leaf=0.0883809477
						60:leaf=-0.192687348
					32:[age<27] yes=61,no=62,missing=62
						61:leaf=-0.0811627805
						62:leaf=0.203032389
				16:[age<57] yes=33,no=34,missing=34
					33:leaf=0.275926858
					34:[kids<1] yes=63,no=64,missing=63
						63:leaf=-0.0202417448
						64:leaf=0.161203623
			8:[age<60] yes=17,no=18,missing=18
				17:[educ<9.5] yes=35,no=36,missing=36
					35:[married<3] yes=65,no=66,missing=66
						65:leaf=0.22937575
						66:leaf=-0.0261664391
					36:[female<3] yes=67,no=68,missing=68
						67:leaf=0.0663409829
						68:leaf=-0.0987843424
				18:[kids<1] yes=37,no=38,missing=38
					37:[female<1] yes=69,no=70,missing=69
						69:leaf=-0.0517121032
						70:leaf=0.123299755
					38:[educ<20] yes=71,no=72,missing=72
						71:leaf=-0.189873457
						72:leaf=0.0851395205
		4:[hhninc<1.278] yes=9,no=10,missing=10
			9:[self<1] yes=19,no=20,missing=19
				19:[married<1] yes=39,no=40,missing=39
					39:[edlevel=Coll/Univ] yes=74,no=73
						73:leaf=0.0963786691
						74:leaf=-0.0607872643
					40:[hhninc<0.257499993] yes=75,no=76,missing=76
						75:leaf=0.0723749325
						76:leaf=-0.158221796
				20:leaf=0.378084958
			10:[female<1] yes=21,no=22,missing=21
				21:[hhninc<1.32500005] yes=41,no=42,missing=42
					41:leaf=-0.0626701489
					42:[kids<3] yes=77,no=78,missing=78
						77:leaf=0.0931485593
						78:leaf=0.263240367
				22:[hhninc<1.41050005] yes=43,no=44,missing=44
					43:leaf=0.389231056
					44:leaf=0.0868415236
	2:[hhninc<1.61500001] yes=5,no=6,missing=6
		5:[age<52] yes=11,no=12,missing=11
			11:[female<1] yes=23,no=24,missing=24
				23:[married<1] yes=45,no=46,missing=45
					45:[educ<9.5] yes=79,no=80,missing=79
						79:leaf=-0.205152407
						80:leaf=0.0280476492
					46:[kids<1] yes=81,no=82,missing=82
						81:leaf=0.0397548303
						82:leaf=-0.241568744
				24:[age<39] yes=47,no=48,missing=47
					47:[kids<1] yes=83,no=84,missing=84
						83:leaf=-0.110230841
						84:leaf=0.0264248252
					48:[hhninc<1.52999997] yes=85,no=86,missing=86
						85:leaf=-0.275133044
						86:leaf=-0.0574055947
			12:[age<53] yes=25,no=26,missing=26
				25:[outwork<1] yes=49,no=50,missing=50
					49:leaf=0.103530958
					50:leaf=0.285239965
				26:[age<64] yes=51,no=52,missing=52
					51:[educ<10.25] yes=87,no=88,missing=88
						87:leaf=-0.176144227
						88:leaf=0.0352169648
					52:leaf=0.169029191
		6:[hhninc<1.63092542] yes=13,no=14,missing=14
			13:[edlevel=Not_HS_grad] yes=28,no=27
				27:leaf=0.327210695
				28:[age<60] yes=53,no=54,missing=54
					53:leaf=0.0887998417
					54:leaf=0.0383315459
			14:[hhninc<1.68849993] yes=29,no=30,missing=30
				29:[age<60] yes=55,no=56,missing=55
					55:[hhninc<1.68199992] yes=89,no=90,missing=90
						89:leaf=-0.180919051
						90:leaf=-0.0317041799
					56:[age<63] yes=91,no=92,missing=92
						91:leaf=-0.00184386864
						92:leaf=-0.0447237119
				30:[hhninc<2.00399995] yes=57,no=58,missing=58
					57:[educ<10.25] yes=93,no=94,missing=94
						93:leaf=0.135390624
						94:leaf=0.047269769
					58:[hhninc<2.03927422] yes=95,no=96,missing=96
						95:leaf=-0.257317007
						96:leaf=0.0404099487
booster[10]
0:[married<3] yes=1,no=2,missing=2
	1:[hhninc<2.71334362] yes=3,no=4,missing=4
		3:[kids<1] yes=7,no=8,missing=7
			7:[hhninc<2.41900015] yes=15,no=16,missing=16
				15:[hhninc<2.38000011] yes=31,no=32,missing=32
					31:[hhninc<2.30375147] yes=63,no=64,missing=64
						63:leaf=0.046138823
						64:leaf=0.260333508
					32:[female<3] yes=65,no=66,missing=66
						65:leaf=-0.183430672
						66:leaf=0.0210346133
				16:[educ<10.25] yes=33,no=34,missing=34
					33:[age<128] yes=67,no=68,missing=68
						67:leaf=0.00327031198
						68:leaf=-0.183429256
					34:[age<60] yes=69,no=70,missing=69
						69:leaf=0.150125086
						70:leaf=-0.0370516479
			8:[outwork<1] yes=17,no=18,missing=18
				17:[hhninc<2.6500001] yes=35,no=36,missing=36
					35:[age<34] yes=71,no=72,missing=71
						71:leaf=-0.158404991
						72:leaf=-0.0232791025
					36:[educ<11] yes=73,no=74,missing=74
						73:leaf=0.28742972
						74:leaf=0.0334234051
				18:[age<39] yes=37,no=38,missing=37
					37:[hhninc<1.75] yes=75,no=76,missing=76
						75:leaf=0.0979905874
						76:leaf=-0.0170727354
					38:[self<1] yes=77,no=78,missing=77
						77:leaf=0.113453165
						78:leaf=-0.131224409
		4:[kids<1] yes=9,no=10,missing=10
			9:[age<28] yes=19,no=20,missing=20
				19:[edlevel=Coll/Univ] yes=40,no=39
					39:leaf=-0.195753083
					40:[outwork<1] yes=79,no=80,missing=80
						79:leaf=-0.153488964
						80:leaf=-0.00637796195
				20:[educ<14.25] yes=41,no=42,missing=41
					41:[edlevel=Coll/Univ] yes=82,no=81
						81:leaf=0.0146903452
						82:leaf=-0.123951949
					42:[hhninc<4.05000019] yes=83,no=84,missing=83
						83:leaf=0.164013535
						84:leaf=-0.0232457146
			10:[married<1] yes=21,no=22,missing=22
				21:[age<47] yes=43,no=44,missing=43
					43:[hhninc<3.9000001] yes=85,no=86,missing=86
						85:leaf=0.273585409
						86:leaf=0.0903427377
					44:[age<58] yes=87,no=88,missing=88
						87:leaf=-0.129038706
						88:leaf=0.100008644
				22:[educ<11.2207098] yes=45,no=46,missing=45
					45:[hhninc<4.41250038] yes=89,no=90,missing=89
						89:leaf=0.0292057097
						90:leaf=0.12576443
					46:[female<3] yes=91,no=92,missing=92
						91:leaf=0.01202711
						92:leaf=-0.0996781588
	2:[educ<11.25] yes=5,no=6,missing=5
		5:[hhninc<1.199] yes=11,no=12,missing=12
			11:[educ<9.75] yes=23,no=24,missing=23
				23:[outwork<1] yes=47,no=48,missing=48
					47:leaf=0.219105929
					48:[age<61] yes=93,no=94,missing=93
						93:leaf=0.0540681332
						94:leaf=0.139534906
				24:[edlevel=Not_HS_grad] yes=50,no=49
					49:leaf=-0.00452792039
					50:leaf=-0.173251271
			12:[self<1] yes=25,no=26,missing=25
				25:[hhninc<4.0999999] yes=51,no=52,missing=51
					51:[hhninc<3.82930088] yes=95,no=96,missing=95
						95:leaf=0.00312209479
						96:leaf=0.127248198
					52:[educ<10.75] yes=97,no=98,missing=98
						97:leaf=-0.0143179968
						98:leaf=-0.147949576
				26:[age<40] yes=53,no=54,missing=53
					53:leaf=-0.274030328
					54:[kids<3] yes=99,no=100,missing=100
						99:leaf=-0.0700021982
						100:leaf=0.0831735432
		6:[hhninc<3.9000001] yes=13,no=14,missing=14
			13:[hhninc<2.17500019] yes=27,no=28,missing=28
				27:[hhninc<1.82999992] yes=55,no=56,missing=56
					55:[age<53] yes=101,no=102,missing=102
						101:leaf=-0.0227574371
						102:leaf=0.097781837
					56:[kids<3] yes=103,no=104,missing=104
						103:leaf=-0.0558371209
						104:leaf=-0.174698517
				28:[hhninc<2.45000005] yes=57,no=58,missing=58
					57:[outwork<1] yes=105,no=106,missing=105
						105:leaf=0.103941597
						106:leaf=0.327638686
					58:[hhninc<3.59848046] yes=107,no=108,missing=108
						107:leaf=0.029807983
						108:leaf=0.178176403
			14:[age<47] yes=29,no=30,missing=30
				29:[age<42] yes=59,no=60,missing=60
					59:[age<30] yes=109,no=110,missing=110
						109:leaf=0.0774401724
						110:leaf=-0.0756757483
					60:[edlevel=HS_grad] yes=112,no=111
						111:leaf=0.213252276
						112:leaf=-0.0155960778
				30:[age<60] yes=61,no=62,missing=62
					61:[age<53] yes=113,no=114,missing=114
						113:leaf=0.00083322596
						114:leaf=-0.224228784
					62:[age<63] yes=115,no=116,missing=115
						115:leaf=-0.0329661556
						116:leaf=0.125587851
booster[11]
0:[age<51] yes=1,no=2,missing=1
	1:[educ<9.5] yes=3,no=4,missing=4
		3:[age<45] yes=7,no=8,missing=7
			7:[hhninc<2.12199998] yes=15,no=16,missing=15
				15:[kids<1] yes=31,no=32,missing=31
					31:[age<40] yes=63,no=64,missing=63
						63:leaf=0.133076951
						64:leaf=-0.179465875
					32:[self<1] yes=65,no=66,missing=66
						65:leaf=0.00385052222
						66:leaf=-0.130534485
				16:[hhninc<3.1500001] yes=33,no=34,missing=34
					33:[hhninc<2.23266459] yes=67,no=68,missing=68
						67:leaf=0.00363869802
						68:leaf=-0.0927282423
					34:[kids<3] yes=69,no=70,missing=70
						69:leaf=0.085971415
						70:leaf=-0.138101429
			8:[hhninc<2.25250006] yes=17,no=18,missing=17
				17:[edlevel=Not_HS_grad] yes=36,no=35
					35:[married<3] yes=71,no=72,missing=72
						71:leaf=-5.86918359e-05
						72:leaf=0.309751421
					36:[hhninc<1.40100002] yes=73,no=74,missing=73
						73:leaf=-0.148610875
						74:leaf=0.0377493501
				18:[married<3] yes=37,no=38,missing=38
					37:[hhninc<4.69999981] yes=75,no=76,missing=76
						75:leaf=0.213995188
						76:leaf=0.00628403481
					38:[self<1] yes=77,no=78,missing=78
						77:leaf=-0.105699793
						78:leaf=0.0433986001
		4:[age<44] yes=9,no=10,missing=9
			9:[age<42] yes=19,no=20,missing=19
				19:[edlevel=Not_HS_grad] yes=40,no=39
					39:[age<34] yes=79,no=80,missing=79
						79:leaf=0.0159368981
						80:leaf=-0.0383601002
					40:[married<3] yes=81,no=82,missing=82
						81:leaf=0.0372202508
						82:leaf=-0.0177129321
				20:[edlevel=Grad_School] yes=42,no=41
					41:[outwork<3] yes=83,no=84,missing=84
						83:leaf=-0.0285967886
						84:leaf=0.127459541
					42:[hhninc<4.0836525] yes=85,no=86,missing=85
						85:leaf=0.313869655
						86:leaf=-0.0563654713
			10:[educ<10.75] yes=21,no=22,missing=21
				21:[hhninc<3.32773757] yes=43,no=44,missing=43
					43:[kids<1] yes=87,no=88,missing=88
						87:leaf=-0.0183786135
						88:leaf=-0.129831493
					44:[female<3] yes=89,no=90,missing=90
						89:leaf=0.0569862425
						90:leaf=-0.117847562
				22:[married<3] yes=45,no=46,missing=46
					45:[hhninc<3.25] yes=91,no=92,missing=92
						91:leaf=0.0822710246
						92:leaf=-0.0585812181
					46:[hhninc<2.75] yes=93,no=94,missing=94
						93:leaf=-0.123922639
						94:leaf=0.146281734
	2:[kids<1] yes=5,no=6,missing=5
		5:[age<53] yes=11,no=12,missing=12
			11:[educ<9.5] yes=23,no=24,missing=23
				23:[married<3] yes=47,no=48,missing=48
					47:[hhninc<1.50999999] yes=95,no=96,missing=96
						95:leaf=-0.247250542
						96:leaf=0.186316997
					48:[outwork<3] yes=97,no=98,missing=98
						97:leaf=-0.198796436
						98:leaf=-0.0246928111
				24:[female<1] yes=49,no=50,missing=50
					49:[age<52] yes=99,no=100,missing=100
						99:leaf=-0.0517755225
						100:leaf=0.193890259
					50:[hhninc<2.4000001] yes=101,no=102,missing=101
						101:leaf=-0.04087862
						102:leaf=-0.208361119
			12:[age<56] yes=25,no=26,missing=26
				25:[hhninc<2.42172551] yes=51,no=52,missing=51
					51:[hhninc<1.64199996] yes=103,no=104,missing=104
						103:leaf=0.0700935945
						104:leaf=-0.11150454
					52:[hhninc<6.25] yes=105,no=106,missing=106
						105:leaf=0.0268843155
						106:leaf=0.313097835
				26:[hhninc<2.89684248] yes=53,no=54,missing=53
					53:[educ<10.25] yes=107,no=108,missing=107
						107:leaf=0.0155936442
						108:leaf=0.0685472339
					54:[hhninc<3.18508959] yes=109,no=110,missing=110
						109:leaf=-0.0919916108
						110:leaf=0.0230439082
		6:[hhninc<2.04999995] yes=13,no=14,missing=13
			13:[educ<36] yes=27,no=28,missing=28
				27:[edlevel=Not_HS_grad] yes=56,no=55
					55:[female<3] yes=111,no=112,missing=112
						111:leaf=0.0637355521
						112:leaf=0.339081228
					56:[hhninc<1.15199995] yes=113,no=114,missing=114
						113:leaf=0.125635147
						114:leaf=-0.153039679
				28:[age<55] yes=57,no=58,missing=58
					57:[self<1] yes=115,no=116,missing=116
						115:leaf=0.29975307
						116:leaf=0.0531501584
					58:leaf=-0.0303250533
			14:[educ<9.5] yes=29,no=30,missing=29
				29:[age<54] yes=59,no=60,missing=60
					59:[edlevel=Grad_School] yes=118,no=117
						117:leaf=-0.195276543
						118:leaf=0.00106899953
					60:[age<56] yes=119,no=120,missing=120
						119:leaf=0.0532266013
						120:leaf=-0.0992655754
				30:[outwork<3] yes=61,no=62,missing=62
					61:[hhninc<4.61250019] yes=121,no=122,missing=122
						121:leaf=0.080028668
						122:leaf=-0.132726386
					62:[edlevel=Coll/Univ] yes=124,no=123
						123:leaf=0.266894519
						124:leaf=0.0257367212
booster[12]
0:[hhninc<4.66499996] yes=1,no=2,missing=1
	1:[hhninc<4.47050571] yes=3,no=4,missing=3
		3:[hhninc<4.2249999] yes=7,no=8,missing=7
			7:[age<33] yes=15,no=16,missing=15
				15:[female<3] yes=31,no=32,missing=32
					31:[age<29] yes=57,no=58,missing=57
						57:leaf=0.0081233317
						58:leaf=-0.0643731728
					32:[hhninc<1.92499995] yes=59,no=60,missing=60
						59:leaf=-0.0377760902
						60:leaf=0.0518066175
				16:[age<36] yes=33,no=34,missing=34
					33:[self<1] yes=61,no=62,missing=62
						61:leaf=-0.00381100248
						62:leaf=0.148230553
					34:[educ<13.75] yes=63,no=64,missing=63
						63:leaf=0.0162187647
						64:leaf=0.0706022829
			8:[age<43] yes=17,no=18,missing=17
				17:[edlevel=Not_HS_grad] yes=36,no=35
					35:[age<36] yes=65,no=66,missing=66
						65:leaf=-0.0414989889
						66:leaf=-0.284195989
					36:[educ<11.25] yes=67,no=68,missing=67
						67:leaf=-0.123240389
						68:leaf=0.0531582013
				18:[educ<14.75] yes=37,no=38,missing=38
					37:[outwork<3] yes=69,no=70,missing=70
						69:leaf=0.0901019201
						70:leaf=-0.0267600436
					38:[edlevel=Grad_School] yes=72,no=71
						71:leaf=-0.0638388395
						72:leaf=0.0239751451
		4:[educ<9.5] yes=9,no=10,missing=10
			9:[age<43] yes=19,no=20,missing=19
				19:[age<82] yes=39,no=40,missing=40
					39:leaf=-0.0396118425
					40:leaf=0.0800375417
				20:leaf=0.344651163
			10:[age<37] yes=21,no=22,missing=22
				21:[educ<10.75] yes=41,no=42,missing=41
					41:leaf=-0.220043391
					42:leaf=-0.0768358335
				22:[female<3] yes=43,no=44,missing=44
					43:[married<1] yes=73,no=74,missing=73
						73:leaf=-0.0777790248
						74:leaf=0.122080721
					44:[age<49] yes=75,no=76,missing=75
						75:leaf=0.00119587034
						76:leaf=-0.201997951
	2:[edlevel=Not_HS_grad] yes=6,no=5
		5:[edlevel=Grad_School] yes=12,no=11
			11:[kids<1] yes=23,no=24,missing=24
				23:[edlevel=HS_grad] yes=46,no=45
					45:[educ<15.5] yes=77,no=78,missing=78
						77:leaf=-0.0744186044
						78:leaf=0.085650593
					46:[age<80] yes=79,no=80,missing=80
						79:leaf=0.0320879556
						80:leaf=0.245610446
				24:[age<51] yes=47,no=48,missing=47
					47:[outwork<3] yes=81,no=82,missing=82
						81:leaf=0.072669223
						82:leaf=-0.139362037
					48:[age<59] yes=83,no=84,missing=84
						83:leaf=0.240205243
						84:leaf=0.00954832695
			12:[age<55] yes=25,no=26,missing=26
				25:[outwork<1] yes=49,no=50,missing=50
					49:leaf=0.0865954533
					50:[age<48] yes=85,no=86,missing=86
						85:leaf=-0.0817175061
						86:leaf=-0.0249071289
				26:[age<56] yes=51,no=52,missing=51
					51:leaf=-0.170314163
					52:leaf=-0.050294742
		6:[hhninc<18] yes=13,no=14,missing=14
			13:[hhninc<6.1500001] yes=27,no=28,missing=28
				27:[hhninc<5.9000001] yes=53,no=54,missing=54
					53:[kids<3] yes=87,no=88,missing=88
						87:leaf=-0.0463397615
						88:leaf=-0.134465113
					54:[outwork<1] yes=89,no=90,missing=89
						89:leaf=0.145369768
						90:leaf=-0.0874758437
				28:[hhninc<8.5] yes=55,no=56,missing=56
					55:[self<1] yes=91,no=92,missing=91
						91:leaf=-0.219920158
						92:leaf=-0.0371709242
					56:[outwork<1] yes=93,no=94,missing=94
						93:leaf=0.0809776187
						94:leaf=-0.204596147
			14:[age<66] yes=29,no=30,missing=30
				29:leaf=-0.0353914313
				30:leaf=0.158921197
booster[13]
0:[hhninc<1.43149996] yes=1,no=2,missing=2
	1:[self<1] yes=3,no=4,missing=3
		3:[age<27] yes=7,no=8,missing=7
			7:[hhninc<0.970000029] yes=15,no=16,missing=16
				15:[hhninc<0.954999983] yes=29,no=30,missing=30
					29:[educ<9.75] yes=51,no=52,missing=52
						51:leaf=-0.152359813
						52:leaf=0.0394535437
					30:leaf=0.230260968
				16:[kids<1] yes=31,no=32,missing=31
					31:[hhninc<1.26399994] yes=53,no=54,missing=54
						53:leaf=-0.0572297908
						54:leaf=-0.199718043
					32:[female<1] yes=55,no=56,missing=56
						55:leaf=0.0883231461
						56:leaf=-0.103032298
			8:[hhninc<1.29499996] yes=17,no=18,missing=18
				17:[hhninc<1.22350001] yes=33,no=34,missing=34
					33:[age<59] yes=57,no=58,missing=58
						57:leaf=0.0553912856
						58:leaf=-0.0215190761
					34:leaf=-0.163761437
				18:[educ<10.25] yes=35,no=36,missing=35
					35:[married<1] yes=59,no=60,missing=59
						59:leaf=-0.0785550624
						60:leaf=0.108737223
					36:[self<1] yes=61,no=62,missing=62
						61:leaf=0.22489202
						62:leaf=0.0151675632
		4:[age<126] yes=9,no=10,missing=10
			9:[hhninc<1.04999995] yes=19,no=20,missing=20
				19:leaf=0.112904757
				20:[age<61] yes=37,no=38,missing=38
					37:[edlevel=Not_HS_grad] yes=64,no=63
						63:leaf=0.00982692
						64:leaf=-0.0059449831
					38:leaf=-0.0715748742
			10:leaf=0.296729445
	2:[hhninc<1.61500001] yes=5,no=6,missing=6
		5:[age<64] yes=11,no=12,missing=11
			11:[age<58] yes=21,no=22,missing=22
				21:[age<52] yes=39,no=40,missing=40
					39:[self<1] yes=65,no=66,missing=65
						65:leaf=-0.083329767
						66:leaf=0.0947104022
					40:[kids<1] yes=67,no=68,missing=67
						67:leaf=0.0858848467
						68:leaf=-0.232009277
				22:[married<1] yes=41,no=42,missing=41
					41:[age<61] yes=69,no=70,missing=70
						69:leaf=-0.226892501
						70:leaf=-0.00233092671
					42:[kids<3] yes=71,no=72,missing=72
						71:leaf=-0.189671487
						72:leaf=-0.0221371464
			12:[edlevel=Not_HS_grad] yes=24,no=23
				23:leaf=0.0278107245
				24:leaf=0.118111975
		6:[hhninc<1.74000001] yes=13,no=14,missing=14
			13:[female<3] yes=25,no=26,missing=26
				25:[married<3] yes=43,no=44,missing=44
					43:[age<63] yes=73,no=74,missing=74
						73:leaf=0.0904240161
						74:leaf=0.233844444
					44:[educ<10.75] yes=75,no=76,missing=75
						75:leaf=-0.0920378119
						76:leaf=0.162533343
				26:[self<1] yes=45,no=46,missing=46
					45:[age<59] yes=77,no=78,missing=77
						77:leaf=-0.142957851
						78:leaf=-0.0135676432
					46:[age<40] yes=79,no=80,missing=80
						79:leaf=0.0765873417
						80:leaf=-0.0190271605
			14:[age<60] yes=27,no=28,missing=27
				27:[hhninc<1.94000006] yes=47,no=48,missing=48
					47:[educ<9.5] yes=81,no=82,missing=82
						81:leaf=0.110188283
						82:leaf=-0.0608547144
					48:[hhninc<2.05710196] yes=83,no=84,missing=84
						83:leaf=0.0526932217
						84:leaf=0.00985997822
				28:[hhninc<1.78999996] yes=49,no=50,missing=50
					49:leaf=-0.218362793
					50:[hhninc<1.99900007] yes=85,no=86,missing=86
						85:leaf=0.0591721497
						86:leaf=-0.0136781279
booster[14]
0:[hhninc<0.925500035] yes=1,no=2,missing=2
	1:[hhninc<0.91049999] yes=3,no=4,missing=4
		3:[female<3] yes=7,no=8,missing=8
			7:[age<63] yes=13,no=14,missing=13
				13:[educ<10.25] yes=25,no=26,missing=26
					25:[hhninc<0.514999986] yes=45,no=46,missing=46
						45:leaf=-0.00257092575
						46:leaf=-0.114908487
					26:[age<50] yes=47,no=48,missing=48
						47:leaf=-0.0503718145
						48:leaf=0.0322573856
				14:[kids<1] yes=27,no=28,missing=28
					27:leaf=0.138360009
					28:leaf=-0.0132327313
			8:[edlevel=Not_HS_grad] yes=16,no=15
				15:leaf=0.0503213964
				16:leaf=0.142410874
		4:leaf=0.176398188
	2:[hhninc<1.02499998] yes=5,no=6,missing=6
		5:[age<51] yes=9,no=10,missing=9
			9:[kids<1] yes=17,no=18,missing=18
				17:[married<1] yes=29,no=30,missing=29
					29:[outwork<1] yes=49,no=50,missing=50
						49:leaf=0.172815919
						50:leaf=0.0576867238
					30:leaf=-0.109867774
				18:[educ<10.75] yes=31,no=32,missing=31
					31:leaf=-0.177976787
					32:[edlevel=Not_HS_grad] yes=52,no=51
						51:leaf=0.0154460063
						52:leaf=-0.0429912582
			10:[married<3] yes=19,no=20,missing=20
				19:[educ<9.5] yes=33,no=34,missing=33
					33:leaf=-0.230345353
					34:leaf=-0.0977066532
				20:[age<57] yes=35,no=36,missing=36
					35:leaf=-0.0424367823
					36:leaf=0.00217716931
		6:[hhninc<1.43149996] yes=11,no=12,missing=12
			11:[educ<10.25] yes=21,no=22,missing=21
				21:[married<1] yes=37,no=38,missing=37
					37:[kids<1] yes=53,no=54,missing=54
						53:leaf=-0.0146103045
						54:leaf=-0.202856109
					38:[age<59] yes=55,no=56,missing=56
						55:leaf=0.179680362
						56:leaf=0.0299670827
				22:[edlevel=Not_HS_grad] yes=40,no=39
					39:[hhninc<1.2750001] yes=57,no=58,missing=58
						57:leaf=-0.121449552
						58:leaf=0.025110824
					40:[self<3] yes=59,no=60,missing=60
						59:leaf=0.123734564
						60:leaf=0.000116308198
			12:[hhninc<1.61500001] yes=23,no=24,missing=24
				23:[age<64] yes=41,no=42,missing=41
					41:[outwork<3] yes=61,no=62,missing=62
						61:leaf=-0.0488735996
						62:leaf=0.00586997019
					42:[edlevel=Not_HS_grad] yes=64,no=63
						63:leaf=0.0217675772
						64:leaf=0.0875997394
				24:[hhninc<1.63092542] yes=43,no=44,missing=44
					43:[female<3] yes=65,no=66,missing=66
						65:leaf=0.171932444
						66:leaf=0.00388752855
					44:[hhninc<1.68199992] yes=67,no=68,missing=68
						67:leaf=-0.112775661
						68:leaf=0.00780991791
booster[15]
0:[hhninc<2.73616362] yes=1,no=2,missing=1
	1:[hhninc<2.69000006] yes=3,no=4,missing=3
		3:[hhninc<2.65221906] yes=7,no=8,missing=7
			7:[outwork<3] yes=15,no=16,missing=16
				15:[kids<1] yes=27,no=28,missing=27
					27:[hhninc<2.29750013] yes=47,no=48,missing=47
						47:leaf=0.011878415
						48:leaf=0.0426239297
					28:[age<52] yes=49,no=50,missing=49
						49:leaf=-0.0189305991
						50:leaf=0.114868209
				16:[hhninc<2.58766198] yes=29,no=30,missing=29
					29:[age<36] yes=51,no=52,missing=52
						51:leaf=0.0513873622
						52:leaf=-0.0278557763
					30:[female<1] yes=53,no=54,missing=53
						53:leaf=0.268996984
						54:leaf=-0.134162933
			8:leaf=-0.280759126
		4:[self<1] yes=9,no=10,missing=10
			9:[kids<1] yes=17,no=18,missing=17
				17:[age<39] yes=31,no=32,missing=31
					31:[kids<1] yes=55,no=56,missing=56
						55:leaf=-0.0757450163
						56:leaf=-0.265246868
					32:[educ<11] yes=57,no=58,missing=57
						57:leaf=-0.080247961
						58:leaf=0.135373026
				18:[educ<11] yes=33,no=34,missing=34
					33:[female<1] yes=59,no=60,missing=59
						59:leaf=0.186938331
						60:leaf=-0.00672693038
					34:[age<27] yes=61,no=62,missing=62
						61:leaf=0.119964063
						62:leaf=-0.0335850641
			10:[age<27] yes=19,no=20,missing=20
				19:leaf=-0.213522315
				20:[age<59] yes=35,no=36,missing=35
					35:[edlevel=Not_HS_grad] yes=64,no=63
						63:leaf=0.321951568
						64:leaf=0.177906632
					36:leaf=-0.0857368037
	2:[hhninc<2.9189539] yes=5,no=6,missing=6
		5:[age<56] yes=11,no=12,missing=11
			11:[kids<1] yes=21,no=22,missing=21
				21:[educ<11] yes=37,no=38,missing=38
					37:[married<3] yes=65,no=66,missing=66
						65:leaf=-0.228915557
						66:leaf=-0.0768266246
					38:[outwork<3] yes=67,no=68,missing=68
						67:leaf=-0.128933743
						68:leaf=0.0738011301
				22:[female<3] yes=39,no=40,missing=40
					39:[female<1] yes=69,no=70,missing=70
						69:leaf=0.102060765
						70:leaf=-0.0235594194
					40:[age<40] yes=71,no=72,missing=72
						71:leaf=-0.0792984068
						72:leaf=-0.289484441
			12:[hhninc<2.90391111] yes=23,no=24,missing=24
				23:[self<1] yes=41,no=42,missing=42
					41:[outwork<3] yes=73,no=74,missing=74
						73:leaf=0.115594685
						74:leaf=-0.0721588433
					42:[educ<13.25] yes=75,no=76,missing=76
						75:leaf=0.00779915089
						76:leaf=-0.226721272
				24:leaf=-0.215639338
		6:[hhninc<2.92413592] yes=13,no=14,missing=14
			13:leaf=0.218858376
			14:[age<50] yes=25,no=26,missing=26
				25:[educ<9.5] yes=43,no=44,missing=44
					43:[outwork<1] yes=77,no=78,missing=78
						77:leaf=-0.0075752777
						78:leaf=0.126211181
					44:[married<3] yes=79,no=80,missing=80
						79:leaf=-0.0133087942
						80:leaf=0.039506983
				26:[hhninc<3.49499989] yes=45,no=46,missing=46
					45:[hhninc<3.26152992] yes=81,no=82,missing=82
						81:leaf=-0.0116401073
						82:leaf=-0.0923744515
					46:[age<51] yes=83,no=84,missing=84
						83:leaf=-0.105046354
						84:leaf=0.00881626084
booster[16]
0:[hhninc<5.00500011] yes=1,no=2,missing=1
	1:[edlevel=HS_grad] yes=4,no=3
		3:[educ<10.6527443] yes=7,no=8,missing=7
			7:[age<59] yes=15,no=16,missing=16
				15:[self<1] yes=31,no=32,missing=31
					31:[kids<1] yes=63,no=64,missing=63
						63:leaf=0.00302951713
						64:leaf=0.0236360449
					32:[kids<3] yes=65,no=66,missing=66
						65:leaf=-0.119886957
						66:leaf=0.0560245104
				16:[hhninc<2.12996602] yes=33,no=34,missing=33
					33:[educ<10.25] yes=67,no=68,missing=68
						67:leaf=0.0351317711
						68:leaf=-0.0104152961
					34:[hhninc<2.48399997] yes=69,no=70,missing=70
						69:leaf=-0.0736727118
						70:leaf=-0.0111150425
			8:[female<1] yes=17,no=18,missing=18
				17:[age<59] yes=35,no=36,missing=36
					35:[self<3] yes=71,no=72,missing=72
						71:leaf=-0.0767123252
						72:leaf=0.00659115845
					36:[educ<11.25] yes=73,no=74,missing=74
						73:leaf=0.13199842
						74:leaf=-0.0160887949
				18:[married<1] yes=37,no=38,missing=37
					37:[hhninc<2.625] yes=75,no=76,missing=75
						75:leaf=0.0650050566
						76:leaf=-0.0077689942
					38:[hhninc<2.38649988] yes=77,no=78,missing=77
						77:leaf=-0.0494126417
						78:leaf=0.0476504676
		4:[educ<24] yes=9,no=10,missing=10
			9:[age<57] yes=19,no=20,missing=20
				19:[kids<1] yes=39,no=40,missing=40
					39:[age<40] yes=79,no=80,missing=80
						79:leaf=-0.071279563
						80:leaf=-0.275303245
					40:[female<3] yes=81,no=82,missing=82
						81:leaf=-0.0787077546
						82:leaf=0.0144044599
				20:[female<3] yes=41,no=42,missing=42
					41:[hhninc<3.5999999] yes=83,no=84,missing=84
						83:leaf=0.00787840877
						84:leaf=0.13876617
					42:[kids<1] yes=85,no=86,missing=86
						85:leaf=-0.0260150228
						86:leaf=-0.190356433
			10:[female<3] yes=21,no=22,missing=22
				21:[age<30] yes=43,no=44,missing=44
					43:[outwork<1] yes=87,no=88,missing=88
						87:leaf=0.254090726
						88:leaf=-0.0821999758
					44:[age<41] yes=89,no=90,missing=89
						89:leaf=-0.165193096
						90:leaf=0.0181773845
				22:[age<28] yes=45,no=46,missing=46
					45:leaf=-0.0930991322
					46:leaf=0.181255773
	2:[hhninc<5.73000002] yes=5,no=6,missing=6
		5:[educ<10.75] yes=11,no=12,missing=12
			11:[age<52] yes=23,no=24,missing=24
				23:[female<1] yes=47,no=48,missing=48
					47:[age<40] yes=91,no=92,missing=92
						91:leaf=0.00600999594
						92:leaf=0.0238361936
					48:leaf=-0.155319303
				24:[edlevel=Not_HS_grad] yes=50,no=49
					49:leaf=0.0807607621
					50:[female<1] yes=93,no=94,missing=94
						93:leaf=0.0572677255
						94:leaf=-0.02712336
			12:[educ<14.5] yes=25,no=26,missing=26
				25:[self<1] yes=51,no=52,missing=52
					51:leaf=-0.258510143
					52:[age<92] yes=95,no=96,missing=96
						95:leaf=0.0348347351
						96:leaf=-0.0903855264
				26:[outwork<3] yes=53,no=54,missing=54
					53:[age<39] yes=97,no=98,missing=97
						97:leaf=-0.180365682
						98:leaf=-0.0598536693
					54:[female<1] yes=99,no=100,missing=100
						99:leaf=-0.0454705916
						100:leaf=0.0653887019
		6:[kids<3] yes=13,no=14,missing=14
			13:[outwork<3] yes=27,no=28,missing=28
				27:[edlevel=Coll/Univ] yes=56,no=55
					55:[hhninc<8.75] yes=101,no=102,missing=102
						101:leaf=-0.0469967648
						102:leaf=0.0968111232
					56:[female<1] yes=103,no=104,missing=104
						103:leaf=0.0323128812
						104:leaf=0.194772422
				28:[hhninc<6.32499981] yes=57,no=58,missing=58
					57:[edlevel=Coll/Univ] yes=106,no=105
						105:leaf=0.00956580043
						106:leaf=-0.0808424801
					58:[edlevel=HS_grad] yes=108,no=107
						107:leaf=-0.211291745
						108:leaf=0.0256989878
			14:[hhninc<7] yes=29,no=30,missing=30
				29:[educ<11.5] yes=59,no=60,missing=59
					59:[age<58] yes=109,no=110,missing=109
						109:leaf=0.201809302
						110:leaf=0.0411709137
					60:[edlevel=HS_grad] yes=112,no=111
						111:leaf=0.0305437092
						112:leaf=-0.0743592381
				30:[age<46] yes=61,no=62,missing=61
					61:leaf=-0.0606037378
					62:leaf=-0.0121861612
booster[17]
0:[married<3] yes=1,no=2,missing=2
	1:[edlevel=Coll/Univ] yes=4,no=3
		3:[educ<17.5] yes=7,no=8,missing=7
			7:[educ<16.5] yes=15,no=16,missing=15
				15:[hhninc<3.22711802] yes=31,no=32,missing=31
					31:[hhninc<3.18833447] yes=63,no=64,missing=63
						63:leaf=0.00776391476
						64:leaf=0.06808386
					32:[hhninc<3.4124999] yes=65,no=66,missing=66
						65:leaf=-0.0941327587
						66:leaf=0.00374029041
				16:[age<84] yes=33,no=34,missing=34
					33:[edlevel=Grad_School] yes=68,no=67
						67:leaf=0.0807815343
						68:leaf=0.257185936
					34:leaf=-0.0829698592
			8:[female<1] yes=17,no=18,missing=17
				17:[self<1] yes=35,no=36,missing=36
					35:[hhninc<4.46521997] yes=69,no=70,missing=70
						69:leaf=-0.152417958
						70:leaf=-0.057239674
					36:[age<55] yes=71,no=72,missing=72
						71:leaf=0.0600805469
						72:leaf=-0.117266431
				18:[kids<3] yes=37,no=38,missing=38
					37:[hhninc<4.34199619] yes=73,no=74,missing=74
						73:leaf=0.217210159
						74:leaf=-0.00488091353
					38:[self<1] yes=75,no=76,missing=76
						75:leaf=-0.110445887
						76:leaf=0.157364845
		4:[hhninc<3.07499981] yes=9,no=10,missing=9
			9:[educ<32] yes=19,no=20,missing=20
				19:[hhninc<2.95000005] yes=39,no=40,missing=40
					39:[hhninc<1.4000001] yes=77,no=78,missing=78
						77:leaf=-0.0579432398
						78:leaf=0.0106320465
					40:[female<3] yes=79,no=80,missing=80
						79:leaf=-0.0269475915
						80:leaf=-0.157390594
				20:[female<1] yes=41,no=42,missing=41
					41:[self<1] yes=81,no=82,missing=82
						81:leaf=-0.228405312
						82:leaf=0.000107175176
					42:[married<1] yes=83,no=84,missing=84
						83:leaf=-0.205511734
						84:leaf=0.0245720837
			10:[hhninc<3.8499999] yes=21,no=22,missing=22
				21:[age<57] yes=43,no=44,missing=44
					43:[female<1] yes=85,no=86,missing=85
						85:leaf=0.189184502
						86:leaf=-0.181711301
					44:[female<3] yes=87,no=88,missing=88
						87:leaf=0.0266309977
						88:leaf=-0.201359004
				22:[age<56] yes=45,no=46,missing=46
					45:[kids<1] yes=89,no=90,missing=90
						89:leaf=-0.0500286855
						90:leaf=-0.213607177
					46:[educ<13.5] yes=91,no=92,missing=92
						91:leaf=0.155096173
						92:leaf=-0.0222822446
	2:[educ<11.25] yes=5,no=6,missing=5
		5:[age<56] yes=11,no=12,missing=11
			11:[self<1] yes=23,no=24,missing=23
				23:[kids<3] yes=47,no=48,missing=48
					47:[hhninc<3.61500001] yes=93,no=94,missing=93
						93:leaf=0.00585405715
						94:leaf=-0.0825303793
					48:[outwork<3] yes=95,no=96,missing=96
						95:leaf=-0.111503422
						96:leaf=0.0634267926
				24:[kids<3] yes=49,no=50,missing=50
					49:leaf=-0.223456845
					50:[age<108] yes=97,no=98,missing=98
						97:leaf=0.07306467
						98:leaf=-0.189695537
			12:[outwork<1] yes=25,no=26,missing=26
				25:[age<58] yes=51,no=52,missing=52
					51:[hhninc<3.35461187] yes=99,no=100,missing=100
						99:leaf=0.0167669617
						100:leaf=0.255475163
					52:[edlevel=Not_HS_grad] yes=102,no=101
						101:leaf=0.12815091
						102:leaf=-0.0438182168
				26:[educ<10.75] yes=53,no=54,missing=54
					53:[hhninc<0.850999951] yes=103,no=104,missing=103
						103:leaf=-0.0700650141
						104:leaf=0.029383013
					54:[hhninc<3.57500005] yes=105,no=106,missing=106
						105:leaf=-0.10727147
						106:leaf=-0.0098268725
		6:[hhninc<3.9000001] yes=13,no=14,missing=14
			13:[age<47] yes=27,no=28,missing=28
				27:[hhninc<3.63322449] yes=55,no=56,missing=56
					55:[edlevel=Not_HS_grad] yes=108,no=107
						107:leaf=-0.00213988102
						108:leaf=-0.171303824
					56:leaf=0.203833655
				28:[age<60] yes=57,no=58,missing=57
					57:[kids<1] yes=109,no=110,missing=109
						109:leaf=0.124114513
						110:leaf=-0.0146352872
					58:[kids<1] yes=111,no=112,missing=112
						111:leaf=0.0361150168
						112:leaf=-0.130395353
			14:[kids<1] yes=29,no=30,missing=30
				29:[age<26] yes=59,no=60,missing=60
					59:[female<1] yes=113,no=114,missing=114
						113:leaf=-0.148568511
						114:leaf=0.133279771
					60:[age<63] yes=115,no=116,missing=115
						115:leaf=-0.106086351
						116:leaf=0.0757713467
				30:[edlevel=HS_grad] yes=62,no=61
					61:[age<31] yes=117,no=118,missing=118
						117:leaf=0.149145305
						118:leaf=0.0324224308
					62:[outwork<1] yes=119,no=120,missing=120
						119:leaf=0.0460519046
						120:leaf=-0.107990824
booster[18]
0:[age<32] yes=1,no=2,missing=2
	1:[hhninc<3.74499989] yes=3,no=4,missing=3
		3:[hhninc<3.63322449] yes=7,no=8,missing=7
			7:[self<3] yes=15,no=16,missing=16
				15:[female<3] yes=29,no=30,missing=30
					29:[age<29] yes=53,no=54,missing=54
						53:leaf=0.0204919744
						54:leaf=-0.097203128
					30:[age<26] yes=55,no=56,missing=56
						55:leaf=-0.127704367
						56:leaf=0.0668509752
				16:[married<1] yes=31,no=32,missing=31
					31:[hhninc<2.81616354] yes=57,no=58,missing=58
						57:leaf=0.0367375575
						58:leaf=-0.0504911169
					32:[age<31] yes=59,no=60,missing=60
						59:leaf=-0.167754292
						60:leaf=-0.0106257796
			8:leaf=0.168868735
		4:[hhninc<7.25] yes=9,no=10,missing=10
			9:[married<3] yes=17,no=18,missing=18
				17:[outwork<1] yes=33,no=34,missing=33
					33:[hhninc<5] yes=61,no=62,missing=62
						61:leaf=-0.220332906
						62:leaf=-0.103561446
					34:leaf=-0.070310764
				18:[edlevel=Not_HS_grad] yes=36,no=35
					35:[age<30] yes=63,no=64,missing=64
						63:leaf=-0.0192858241
						64:leaf=0.0155233005
					36:[age<28] yes=65,no=66,missing=66
						65:leaf=-0.0465405956
						66:leaf=-0.179282755
			10:[edlevel=Not_HS_grad] yes=20,no=19
				19:leaf=0.000385919382
				20:leaf=0.0975571126
	2:[age<36] yes=5,no=6,missing=6
		5:[hhninc<2.7750001] yes=11,no=12,missing=12
			11:[female<3] yes=21,no=22,missing=22
				21:[outwork<3] yes=37,no=38,missing=38
					37:[hhninc<2.40753889] yes=67,no=68,missing=68
						67:leaf=-0.0431275852
						68:leaf=0.0612519383
					38:[married<1] yes=69,no=70,missing=70
						69:leaf=0.255650192
						70:leaf=-0.0173631068
				22:[age<33] yes=39,no=40,missing=40
					39:leaf=0.143414393
					40:[outwork<1] yes=71,no=72,missing=71
						71:leaf=-0.223647609
						72:leaf=-0.0926311463
			12:[self<1] yes=23,no=24,missing=24
				23:[married<3] yes=41,no=42,missing=42
					41:[educ<11.25] yes=73,no=74,missing=73
						73:leaf=0.062139418
						74:leaf=-0.145096168
					42:[hhninc<3] yes=75,no=76,missing=76
						75:leaf=0.0630001426
						76:leaf=-0.129942954
				24:[edlevel=Not_HS_grad] yes=44,no=43
					43:[hhninc<3.64679766] yes=77,no=78,missing=77
						77:leaf=-0.0729204416
						78:leaf=0.177578285
					44:[kids<1] yes=79,no=80,missing=79
						79:leaf=0.0378309637
						80:leaf=0.336995184
		6:[outwork<3] yes=13,no=14,missing=14
			13:[hhninc<2.50739455] yes=25,no=26,missing=25
				25:[age<41] yes=45,no=46,missing=46
					45:[female<3] yes=81,no=82,missing=82
						81:leaf=0.0704892799
						82:leaf=-0.0520195365
					46:[age<50] yes=83,no=84,missing=84
						83:leaf=-0.0179730877
						84:leaf=0.0116147287
				26:[age<42] yes=47,no=48,missing=48
					47:[educ<10.25] yes=85,no=86,missing=85
						85:leaf=-0.15780665
						86:leaf=-0.0582973845
					48:[hhninc<2.60929894] yes=87,no=88,missing=88
						87:leaf=-0.0829506814
						88:leaf=0.00504986383
			14:[hhninc<6.32499981] yes=27,no=28,missing=28
				27:[age<49] yes=49,no=50,missing=50
					49:[hhninc<2.95000005] yes=89,no=90,missing=90
						89:leaf=-0.0476637781
						90:leaf=0.0726818517
					50:[hhninc<2.77449989] yes=91,no=92,missing=92
						91:leaf=0.0115334736
						92:leaf=-0.0274266135
				28:[age<56] yes=51,no=52,missing=51
					51:[educ<9.5] yes=93,no=94,missing=93
						93:leaf=-0.109114595
						94:leaf=-0.0250257868
					52:[female<1] yes=95,no=96,missing=96
						95:leaf=-0.100214459
						96:leaf=0.0277056191
booster[19]
0:[educ<10.6527443] yes=1,no=2,missing=2
	1:[edlevel=Not_HS_grad] yes=4,no=3
		3:[educ<8] yes=7,no=8,missing=8
			7:[outwork<1] yes=15,no=16,missing=16
				15:leaf=-0.0195897445
				16:leaf=0.202821523
			8:[kids<1] yes=17,no=18,missing=18
				17:[female<3] yes=31,no=32,missing=32
					31:[self<1] yes=59,no=60,missing=60
						59:leaf=-0.0610526279
						60:leaf=0.0256886482
					32:[age<58] yes=61,no=62,missing=61
						61:leaf=0.0791563168
						62:leaf=-0.0988786146
				18:[age<54] yes=33,no=34,missing=33
					33:[hhninc<0.960500002] yes=63,no=64,missing=63
						63:leaf=0.0791593418
						64:leaf=-0.0387438536
					34:[hhninc<2.54999995] yes=65,no=66,missing=66
						65:leaf=0.180877239
						66:leaf=0.0121919783
		4:[hhninc<1.1910131] yes=9,no=10,missing=9
			9:[age<63] yes=19,no=20,missing=19
				19:[age<50] yes=35,no=36,missing=36
					35:[age<43] yes=67,no=68,missing=68
						67:leaf=-0.0356124826
						68:leaf=-0.131517157
					36:[female<1] yes=69,no=70,missing=69
						69:leaf=-0.0590375289
						70:leaf=0.00689376285
				20:[kids<1] yes=37,no=38,missing=38
					37:[hhninc<1.14901304] yes=71,no=72,missing=72
						71:leaf=0.0583543926
						72:leaf=-0.144017145
					38:[female<1] yes=73,no=74,missing=74
						73:leaf=-0.218024492
						74:leaf=0.316148698
			10:[educ<7.75] yes=21,no=22,missing=22
				21:[age<49] yes=39,no=40,missing=40
					39:[married<3] yes=75,no=76,missing=76
						75:leaf=-0.0668901727
						76:leaf=-0.011495214
					40:[kids<1] yes=77,no=78,missing=77
						77:leaf=-0.220443025
						78:leaf=-0.0280259624
				22:[age<51] yes=41,no=42,missing=41
					41:[female<3] yes=79,no=80,missing=80
						79:leaf=0.0234362129
						80:leaf=-0.0229683127
					42:[kids<1] yes=81,no=82,missing=82
						81:leaf=0.000977889053
						82:leaf=-0.0567485131
	2:[hhninc<1.78999996] yes=5,no=6,missing=5
		5:[age<62] yes=11,no=12,missing=12
			11:[age<56] yes=23,no=24,missing=24
				23:[age<55] yes=43,no=44,missing=44
					43:[age<54] yes=83,no=84,missing=84
						83:leaf=0.0122394683
						84:leaf=0.124588326
					44:[hhninc<1.39999998] yes=85,no=86,missing=85
						85:leaf=-0.163432986
						86:leaf=0.104116209
				24:[hhninc<1.43149996] yes=45,no=46,missing=45
					45:[educ<11.25] yes=87,no=88,missing=88
						87:leaf=0.204347506
						88:leaf=0.0744728968
					46:[educ<11.75] yes=89,no=90,missing=90
						89:leaf=-0.144894227
						90:leaf=-0.0115310121
			12:[kids<3] yes=25,no=26,missing=26
				25:[hhninc<1.74000001] yes=47,no=48,missing=47
					47:[outwork<1] yes=91,no=92,missing=92
						91:leaf=0.0462236553
						92:leaf=-0.0335237496
					48:leaf=0.319260985
				26:[hhninc<1.25] yes=49,no=50,missing=50
					49:[hhninc<1.04999995] yes=93,no=94,missing=94
						93:leaf=-0.00408267649
						94:leaf=0.0713672265
					50:[self<1] yes=95,no=96,missing=96
						95:leaf=-0.0904497206
						96:leaf=-0.204958513
		6:[hhninc<2.31299996] yes=13,no=14,missing=14
			13:[age<53] yes=27,no=28,missing=27
				27:[age<45] yes=51,no=52,missing=51
					51:[educ<14.75] yes=97,no=98,missing=97
						97:leaf=-0.0472639613
						98:leaf=0.0437830091
					52:[self<1] yes=99,no=100,missing=100
						99:leaf=0.0551578365
						100:leaf=0.228525251
				28:[age<58] yes=53,no=54,missing=54
					53:[kids<1] yes=101,no=102,missing=102
						101:leaf=-0.217427209
						102:leaf=-0.0522131883
					54:[educ<30] yes=103,no=104,missing=104
						103:leaf=-0.096144259
						104:leaf=0.0123497909
			14:[kids<3] yes=29,no=30,missing=30
				29:[hhninc<3.94413137] yes=55,no=56,missing=56
					55:[hhninc<3.84278393] yes=105,no=106,missing=106
						105:leaf=0.00567416567
						106:leaf=0.117700912
					56:[age<46] yes=107,no=108,missing=108
						107:leaf=-0.100061111
						108:leaf=-0.0141601423
				30:[hhninc<2.51399994] yes=57,no=58,missing=58
					57:[age<52] yes=109,no=110,missing=109
						109:leaf=0.131186262
						110:leaf=-0.0438427031
					58:[hhninc<3.95000005] yes=111,no=112,missing=112
						111:leaf=-0.0303293653
						112:leaf=0.0656801313
booster[20]
0:[hhninc<1.69650006] yes=1,no=2,missing=2
	1:[self<1] yes=3,no=4,missing=3
		3:[age<52] yes=7,no=8,missing=7
			7:[age<39] yes=15,no=16,missing=16
				15:[age<36] yes=31,no=32,missing=32
					31:[kids<1] yes=53,no=54,missing=54
						53:leaf=-0.0626763552
						54:leaf=0.00252026622
					32:[female<1] yes=55,no=56,missing=55
						55:leaf=0.0480133928
						56:leaf=0.150429547
				16:[age<40] yes=33,no=34,missing=34
					33:leaf=-0.202657089
					34:[hhninc<0.970000029] yes=57,no=58,missing=58
						57:leaf=-0.00618386036
						58:leaf=-0.0471168645
			8:[female<1] yes=17,no=18,missing=18
				17:[married<3] yes=35,no=36,missing=36
					35:[hhninc<1.59500003] yes=59,no=60,missing=60
						59:leaf=-0.100731626
						60:leaf=0.0909249932
					36:[kids<1] yes=61,no=62,missing=62
						61:leaf=-0.00386274722
						62:leaf=0.148428127
				18:[age<59] yes=37,no=38,missing=38
					37:[hhninc<1.55999994] yes=63,no=64,missing=64
						63:leaf=0.0691498071
						64:leaf=-0.0452944376
					38:[educ<10.75] yes=65,no=66,missing=65
						65:leaf=-0.0286809262
						66:leaf=0.0847916305
		4:[age<54] yes=9,no=10,missing=9
			9:[kids<3] yes=19,no=20,missing=20
				19:leaf=0.180249706
				20:leaf=0.031428501
			10:[age<58] yes=21,no=22,missing=22
				21:leaf=0.0343877859
				22:leaf=-0.0264668334
	2:[hhninc<1.74000001] yes=5,no=6,missing=6
		5:[age<52] yes=11,no=12,missing=12
			11:[edlevel=HS_grad] yes=24,no=23
				23:[outwork<1] yes=39,no=40,missing=39
					39:[self<1] yes=67,no=68,missing=68
						67:leaf=0.187325731
						68:leaf=0.0334164575
					40:[married<1] yes=69,no=70,missing=69
						69:leaf=0.103906021
						70:leaf=-0.134339735
				24:leaf=-0.0744196251
			12:[age<63] yes=25,no=26,missing=26
				25:[edlevel=HS_grad] yes=42,no=41
					41:[female<3] yes=71,no=72,missing=72
						71:leaf=-0.301355362
						72:leaf=-0.054865174
					42:leaf=0.0685676709
				26:[married<3] yes=43,no=44,missing=44
					43:[kids<3] yes=73,no=74,missing=74
						73:leaf=0.193613172
						74:leaf=-0.0915014967
					44:[educ<10.75] yes=75,no=76,missing=75
						75:leaf=-0.204989672
						76:leaf=0.145348608
		6:[hhninc<1.90999997] yes=13,no=14,missing=14
			13:[age<60] yes=27,no=28,missing=28
				27:[outwork<1] yes=45,no=46,missing=45
					45:[educ<11.25] yes=77,no=78,missing=77
						77:leaf=-0.134150639
						78:leaf=-0.000229667829
					46:[age<55] yes=79,no=80,missing=80
						79:leaf=0.0391425714
						80:leaf=-0.12248648
				28:[kids<1] yes=47,no=48,missing=47
					47:[married<3] yes=81,no=82,missing=82
						81:leaf=0.0708696321
						82:leaf=-0.0235728417
					48:[educ<14] yes=83,no=84,missing=84
						83:leaf=-0.247784212
						84:leaf=0.0591023117
			14:[age<61] yes=29,no=30,missing=29
				29:[hhninc<2.05710196] yes=49,no=50,missing=50
					49:[age<27] yes=85,no=86,missing=86
						85:leaf=-0.141490966
						86:leaf=0.0326588079
					50:[hhninc<2.17500019] yes=87,no=88,missing=88
						87:leaf=-0.0427482538
						88:leaf=0.00208950927
				30:[hhninc<2.51100016] yes=51,no=52,missing=52
					51:[edlevel=Not_HS_grad] yes=90,no=89
						89:leaf=0.00529853161
						90:leaf=-0.131285444
					52:[educ<10.75] yes=91,no=92,missing=92
						91:leaf=0.0245544575
						92:leaf=-0.029589586
booster[21]
0:[hhninc<1.19001293] yes=1,no=2,missing=2
	1:[hhninc<0.970000029] yes=3,no=4,missing=4
		3:[self<1] yes=7,no=8,missing=8
			7:[hhninc<0.755999982] yes=13,no=14,missing=14
				13:[hhninc<0.715000033] yes=25,no=26,missing=26
					25:[age<56] yes=49,no=50,missing=49
						49:leaf=0.00308821048
						50:leaf=-0.0617938638
					26:leaf=-0.101176597
				14:[married<1] yes=27,no=28,missing=27
					27:[kids<1] yes=51,no=52,missing=51
						51:leaf=0.0750357807
						52:leaf=-0.0234584808
					28:leaf=-0.0972761735
			8:[female<3] yes=15,no=16,missing=16
				15:[kids<1] yes=29,no=30,missing=30
					29:[age<53] yes=53,no=54,missing=54
						53:leaf=-0.037842568
						54:leaf=-0.140685186
					30:[age<63] yes=55,no=56,missing=55
						55:leaf=-0.0276263431
						56:leaf=0.0158214215
				16:[edlevel=Not_HS_grad] yes=32,no=31
					31:leaf=0.0133169629
					32:leaf=0.066714853
		4:[female<1] yes=9,no=10,missing=10
			9:[age<54] yes=17,no=18,missing=18
				17:[kids<1] yes=33,no=34,missing=34
					33:leaf=0.0804244131
					34:leaf=0.0259193424
				18:[age<116] yes=35,no=36,missing=36
					35:leaf=0.0111023411
					36:leaf=-0.0280216504
			10:[hhninc<1.02499998] yes=19,no=20,missing=20
				19:[outwork<1] yes=37,no=38,missing=38
					37:leaf=-0.214253828
					38:[kids<1] yes=57,no=58,missing=58
						57:leaf=-0.0584503263
						58:leaf=-0.131787121
				20:[age<58] yes=39,no=40,missing=40
					39:leaf=0.0890108421
					40:[self<1] yes=59,no=60,missing=60
						59:leaf=-0.113805383
						60:leaf=0.0117949853
	2:[hhninc<1.199] yes=5,no=6,missing=6
		5:leaf=0.108509637
		6:[edlevel=HS_grad] yes=12,no=11
			11:[educ<10.6527443] yes=21,no=22,missing=21
				21:[edlevel=Coll/Univ] yes=42,no=41
					41:[married<3] yes=61,no=62,missing=62
						61:leaf=0.0031267819
						62:leaf=-0.0091089569
					42:[age<44] yes=63,no=64,missing=64
						63:leaf=0.0451763719
						64:leaf=-0.126695633
				22:[hhninc<1.78999996] yes=43,no=44,missing=43
					43:[self<3] yes=65,no=66,missing=66
						65:leaf=0.0378484428
						66:leaf=-0.0216238424
					44:[outwork<1] yes=67,no=68,missing=67
						67:leaf=-0.00996109471
						68:leaf=0.0242514331
			12:[educ<24] yes=23,no=24,missing=24
				23:[age<57] yes=45,no=46,missing=45
					45:[hhninc<2.47749996] yes=69,no=70,missing=69
						69:leaf=-0.0976843461
						70:leaf=-0.00898894574
					46:[hhninc<3] yes=71,no=72,missing=71
						71:leaf=0.123144291
						72:leaf=-0.106850699
				24:[hhninc<3.54999995] yes=47,no=48,missing=47
					47:[kids<3] yes=73,no=74,missing=74
						73:leaf=0.0266354326
						74:leaf=0.19379285
					48:[age<48] yes=75,no=76,missing=76
						75:leaf=-0.0288352203
						76:leaf=-0.170288265
booster[22]
0:[educ<11.2207098] yes=1,no=2,missing=2
	1:[married<1] yes=3,no=4,missing=3
		3:[hhninc<3.87930107] yes=7,no=8,missing=7
			7:[hhninc<3.69000006] yes=15,no=16,missing=15
				15:[hhninc<3.04449987] yes=31,no=32,missing=31
					31:[hhninc<2.72950697] yes=61,no=62,missing=61
						61:leaf=-0.0134633416
						62:leaf=0.0527918115
					32:[age<62] yes=63,no=64,missing=63
						63:leaf=-0.0891483799
						64:leaf=0.163397938
				16:[married<1] yes=33,no=34,missing=34
					33:leaf=0.270919561
					34:[kids<1] yes=65,no=66,missing=65
						65:leaf=0.0745189711
						66:leaf=-0.229290828
			8:[hhninc<5.0999999] yes=17,no=18,missing=18
				17:[age<49] yes=35,no=36,missing=36
					35:[female<1] yes=67,no=68,missing=68
						67:leaf=-0.0368813202
						68:leaf=-0.203831539
					36:[self<3] yes=69,no=70,missing=70
						69:leaf=-0.0642059073
						70:leaf=0.0613790266
				18:[female<1] yes=37,no=38,missing=37
					37:[self<1] yes=71,no=72,missing=72
						71:leaf=-0.185281947
						72:leaf=0.00754488213
					38:[outwork<1] yes=73,no=74,missing=73
						73:leaf=0.107585408
						74:leaf=0.0377660282
		4:[edlevel=Not_HS_grad] yes=10,no=9
			9:[hhninc<3.25] yes=19,no=20,missing=20
				19:[age<57] yes=39,no=40,missing=39
					39:[hhninc<2.04999995] yes=75,no=76,missing=76
						75:leaf=0.0103989374
						76:leaf=-0.0597510897
					40:[age<58] yes=77,no=78,missing=78
						77:leaf=0.234583616
						78:leaf=-0.00876969658
				20:[female<1] yes=41,no=42,missing=41
					41:[age<34] yes=79,no=80,missing=80
						79:leaf=0.220936447
						80:leaf=0.0580016337
					42:[outwork<1] yes=81,no=82,missing=81
						81:leaf=0.0507976934
						82:leaf=-0.114329532
			10:[hhninc<4.94499969] yes=21,no=22,missing=22
				21:[hhninc<4.36999989] yes=43,no=44,missing=44
					43:[self<1] yes=83,no=84,missing=84
						83:leaf=-0.0110651394
						84:leaf=0.0268781167
					44:[female<1] yes=85,no=86,missing=85
						85:leaf=-0.0361006111
						86:leaf=0.190780595
				22:[age<41] yes=45,no=46,missing=46
					45:[outwork<3] yes=87,no=88,missing=88
						87:leaf=0.0669863746
						88:leaf=-0.0966269895
					46:[age<60] yes=89,no=90,missing=89
						89:leaf=-0.0569888875
						90:leaf=0.0670168623
	2:[age<51] yes=5,no=6,missing=5
		5:[age<50] yes=11,no=12,missing=11
			11:[age<29] yes=23,no=24,missing=24
				23:[kids<3] yes=47,no=48,missing=48
					47:[hhninc<2.92499995] yes=91,no=92,missing=92
						91:leaf=0.039406579
						92:leaf=-0.0520496592
					48:[hhninc<3.61999989] yes=93,no=94,missing=94
						93:leaf=0.00283929054
						94:leaf=0.146069393
				24:[kids<1] yes=49,no=50,missing=50
					49:[edlevel=Not_HS_grad] yes=96,no=95
						95:leaf=-0.0142393606
						96:leaf=0.0358366445
					50:[age<47] yes=97,no=98,missing=97
						97:leaf=-0.00936087035
						98:leaf=-0.0946107805
			12:[hhninc<1.52499998] yes=25,no=26,missing=25
				25:leaf=-0.219439194
				26:[edlevel=Not_HS_grad] yes=52,no=51
					51:[married<1] yes=99,no=100,missing=100
						99:leaf=0.0783896446
						100:leaf=-0.0125119528
					52:leaf=-0.105497569
		6:[age<53] yes=13,no=14,missing=14
			13:[educ<15.75] yes=27,no=28,missing=28
				27:[hhninc<3.5] yes=53,no=54,missing=54
					53:leaf=-0.170623809
					54:[outwork<1] yes=101,no=102,missing=101
						101:leaf=0.0763808116
						102:leaf=0.0260663386
				28:[kids<3] yes=55,no=56,missing=56
					55:[hhninc<2.20000005] yes=103,no=104,missing=104
						103:leaf=0.123149745
						104:leaf=0.0175367817
					56:[married<3] yes=105,no=106,missing=106
						105:leaf=0.225201175
						106:leaf=-0.157422945
			14:[hhninc<1.29999995] yes=29,no=30,missing=29
				29:[kids<1] yes=57,no=58,missing=57
					57:[self<1] yes=107,no=108,missing=108
						107:leaf=-0.00177112943
						108:leaf=0.0810921937
					58:[age<55] yes=109,no=110,missing=110
						109:leaf=0.177546099
						110:leaf=-0.0168503504
				30:[hhninc<2.45000005] yes=59,no=60,missing=60
					59:[outwork<1] yes=111,no=112,missing=112
						111:leaf=-0.10151466
						112:leaf=-0.0129283043
					60:[hhninc<2.75] yes=113,no=114,missing=114
						113:leaf=0.0900591016
						114:leaf=-0.00923373178
booster[23]
0:[age<32] yes=1,no=2,missing=2
	1:[female<3] yes=3,no=4,missing=4
		3:[age<29] yes=7,no=8,missing=8
			7:[educ<15.5] yes=15,no=16,missing=16
				15:[married<1] yes=31,no=32,missing=32
					31:[hhninc<2.79999995] yes=63,no=64,missing=63
						63:leaf=-0.0940860957
						64:leaf=0.0612580255
					32:[hhninc<2.34317636] yes=65,no=66,missing=65
						65:leaf=0.0452726632
						66:leaf=-0.0532297827
				16:[married<1] yes=33,no=34,missing=33
					33:[edlevel=Not_HS_grad] yes=68,no=67
						67:leaf=0.0353963822
						68:leaf=0.116654575
					34:[kids<1] yes=69,no=70,missing=70
						69:leaf=-0.158401117
						70:leaf=-0.0182278641
			8:[hhninc<1.82500005] yes=17,no=18,missing=18
				17:[outwork<3] yes=35,no=36,missing=36
					35:[outwork<1] yes=71,no=72,missing=72
						71:leaf=0.0345512629
						72:leaf=-0.0411802568
					36:leaf=0.115652889
				18:[edlevel=Not_HS_grad] yes=38,no=37
					37:[kids<1] yes=73,no=74,missing=73
						73:leaf=-0.0887757093
						74:leaf=0.0537893027
					38:[educ<10.75] yes=75,no=76,missing=76
						75:leaf=-0.0480778851
						76:leaf=-0.185869381
		4:[kids<3] yes=9,no=10,missing=10
			9:[hhninc<1.8499999] yes=19,no=20,missing=19
				19:[age<30] yes=39,no=40,missing=40
					39:[married<1] yes=77,no=78,missing=77
						77:leaf=-0.0420274101
						78:leaf=-0.196926966
					40:[hhninc<3.60000086] yes=79,no=80,missing=80
						79:leaf=-0.131587341
						80:leaf=0.0705281124
				20:[age<27] yes=41,no=42,missing=42
					41:[kids<1] yes=81,no=82,missing=82
						81:leaf=-0.136609882
						82:leaf=0.0336243473
					42:[hhninc<3.69999981] yes=83,no=84,missing=84
						83:leaf=0.0917893499
						84:leaf=-0.0606450029
			10:[married<1] yes=21,no=22,missing=22
				21:[hhninc<5.00000095] yes=43,no=44,missing=44
					43:[age<28] yes=85,no=86,missing=86
						85:leaf=0.00425652461
						86:leaf=0.139030933
					44:leaf=0.301619947
				22:[hhninc<2.75] yes=45,no=46,missing=45
					45:[edlevel=Not_HS_grad] yes=88,no=87
						87:leaf=0.0531989448
						88:leaf=-0.00892774109
					46:[age<30] yes=89,no=90,missing=90
						89:leaf=-0.173574492
						90:leaf=-0.0543606281
	2:[age<36] yes=5,no=6,missing=6
		5:[hhninc<2.375] yes=11,no=12,missing=12
			11:[hhninc<1.72500002] yes=23,no=24,missing=24
				23:[hhninc<1.32500005] yes=47,no=48,missing=48
					47:[hhninc<0.603999972] yes=91,no=92,missing=92
						91:leaf=0.00594057282
						92:leaf=-0.103203818
					48:[educ<9.75] yes=93,no=94,missing=94
						93:leaf=-0.145851985
						94:leaf=0.118316628
				24:[outwork<3] yes=49,no=50,missing=50
					49:[female<1] yes=95,no=96,missing=96
						95:leaf=0.0188048743
						96:leaf=-0.0707996041
					50:leaf=-0.219968602
			12:[educ<10.9027443] yes=25,no=26,missing=25
				25:[self<1] yes=51,no=52,missing=52
					51:[married<3] yes=97,no=98,missing=98
						97:leaf=0.0450863205
						98:leaf=-0.0495469198
					52:[outwork<3] yes=99,no=100,missing=100
						99:leaf=0.0805494562
						100:leaf=0.347676963
				26:[hhninc<3.69679737] yes=53,no=54,missing=53
					53:[kids<3] yes=101,no=102,missing=102
						101:leaf=-0.0347979851
						102:leaf=-0.107842803
					54:leaf=0.128585577
		6:[age<37] yes=13,no=14,missing=14
			13:[hhninc<2.45000005] yes=27,no=28,missing=28
				27:[married<1] yes=55,no=56,missing=55
					55:[educ<9.5] yes=103,no=104,missing=104
						103:leaf=0.0579805262
						104:leaf=-0.148590967
					56:leaf=0.139716759
				28:[educ<10.75] yes=57,no=58,missing=57
					57:[outwork<1] yes=105,no=106,missing=105
						105:leaf=-0.182664543
						106:leaf=0.00529652927
					58:[kids<3] yes=107,no=108,missing=108
						107:leaf=-0.0217368044
						108:leaf=0.147874609
			14:[age<55] yes=29,no=30,missing=29
				29:[educ<9.5] yes=59,no=60,missing=60
					59:[hhninc<4.05000019] yes=109,no=110,missing=109
						109:leaf=0.00998338498
						110:leaf=0.0730112121
					60:[edlevel=Not_HS_grad] yes=112,no=111
						111:leaf=-0.00948260538
						112:leaf=0.00521176262
				30:[edlevel=Not_HS_grad] yes=62,no=61
					61:[educ<10.25] yes=113,no=114,missing=114
						113:leaf=-0.0798511878
						114:leaf=0.0316589251
					62:[hhninc<1.43149996] yes=115,no=116,missing=116
						115:leaf=0.0219608694
						116:leaf=-0.0220260043
booster[24]
0:[hhninc<1.29499996] yes=1,no=2,missing=2
	1:[hhninc<1.23796999] yes=3,no=4,missing=4
		3:[self<1] yes=7,no=8,missing=7
			7:[age<63] yes=15,no=16,missing=15
				15:[age<59] yes=31,no=32,missing=31
					31:[educ<9.75] yes=49,no=50,missing=49
						49:leaf=0.0145876613
						50:leaf=-0.0237893984
					32:[hhninc<0.88499999] yes=51,no=52,missing=52
						51:leaf=-0.0384273008
						52:leaf=-0.16778858
				16:[educ<12.25] yes=33,no=34,missing=34
					33:[educ<11] yes=53,no=54,missing=54
						53:leaf=0.0241995361
						54:leaf=0.163400501
					34:[kids<1] yes=55,no=56,missing=56
						55:leaf=-0.0801112354
						56:leaf=-0.00881586503
			8:[age<126] yes=17,no=18,missing=18
				17:[age<55] yes=35,no=36,missing=36
					35:leaf=0.0401826426
					36:leaf=-0.0271339249
				18:leaf=0.145981938
		4:[age<50] yes=9,no=10,missing=10
			9:[age<37] yes=19,no=20,missing=20
				19:leaf=-0.00657489151
				20:leaf=-0.0467508994
			10:[age<60] yes=21,no=22,missing=21
				21:leaf=-0.174187511
				22:leaf=-0.0566582792
	2:[hhninc<1.34500003] yes=5,no=6,missing=6
		5:[outwork<1] yes=11,no=12,missing=12
			11:[age<41] yes=23,no=24,missing=24
				23:leaf=-0.0593314543
				24:leaf=-0.182905808
			12:[age<56] yes=25,no=26,missing=26
				25:[married<1] yes=37,no=38,missing=38
					37:leaf=0.0565835573
					38:leaf=-0.117351614
				26:[educ<22] yes=39,no=40,missing=40
					39:[age<128] yes=57,no=58,missing=58
						57:leaf=0.102420412
						58:leaf=-0.0218598843
					40:leaf=0.209901303
		6:[age<32] yes=13,no=14,missing=14
			13:[female<3] yes=27,no=28,missing=28
				27:[age<29] yes=41,no=42,missing=42
					41:[hhninc<2.08030796] yes=59,no=60,missing=59
						59:leaf=-0.0189000163
						60:leaf=0.0235383902
					42:[educ<13.25] yes=61,no=62,missing=61
						61:leaf=-0.0631930903
						62:leaf=0.0246603508
				28:[married<1] yes=43,no=44,missing=44
					43:[educ<12.25] yes=63,no=64,missing=64
						63:leaf=0.125657931
						64:leaf=-0.0361845307
					44:[age<29] yes=65,no=66,missing=66
						65:leaf=-0.0472914018
						66:leaf=0.0323999636
			14:[age<34] yes=29,no=30,missing=30
				29:[female<3] yes=45,no=46,missing=46
					45:[hhninc<2.1500001] yes=67,no=68,missing=68
						67:leaf=-0.0202167351
						68:leaf=0.0632849485
					46:[married<1] yes=69,no=70,missing=69
						69:leaf=0.0462629832
						70:leaf=-0.142874599
				30:[hhninc<18] yes=47,no=48,missing=47
					47:[self<3] yes=71,no=72,missing=72
						71:leaf=-0.000986594008
						72:leaf=0.00599504355
					48:leaf=0.113503858
booster[25]
0:[hhninc<5.78000021] yes=1,no=2,missing=1
	1:[hhninc<5.00500011] yes=3,no=4,missing=3
		3:[edlevel=Grad_School] yes=8,no=7
			7:[educ<17.5] yes=15,no=16,missing=15
				15:[age<62] yes=31,no=32,missing=31
					31:[hhninc<3.83357763] yes=57,no=58,missing=57
						57:leaf=-4.84708335e-06
						58:leaf=0.0105004162
					32:[outwork<1] yes=59,no=60,missing=60
						59:leaf=-0.0926168486
						60:leaf=-0.00609152205
				16:[hhninc<1.92499995] yes=33,no=34,missing=34
					33:[age<58] yes=61,no=62,missing=62
						61:leaf=0.0307239182
						62:leaf=0.120633662
					34:[hhninc<4.55000019] yes=63,no=64,missing=63
						63:leaf=-0.09886612
						64:leaf=0.0457612537
			8:[educ<17.5] yes=17,no=18,missing=18
				17:[hhninc<5.86237097] yes=35,no=36,missing=36
					35:leaf=-0.0633671731
					36:[age<38] yes=65,no=66,missing=66
						65:leaf=0.0632604584
						66:leaf=0.185224622
				18:[hhninc<3.9419961] yes=37,no=38,missing=38
					37:[outwork<1] yes=67,no=68,missing=68
						67:leaf=-0.00136352319
						68:leaf=0.10303656
					38:[hhninc<4.47050571] yes=69,no=70,missing=69
						69:leaf=-0.0644821599
						70:leaf=0.000917508733
		4:[educ<10.75] yes=9,no=10,missing=10
			9:[female<1] yes=19,no=20,missing=20
				19:leaf=0.049747657
				20:[edlevel=Not_HS_grad] yes=40,no=39
					39:leaf=0.0716018155
					40:[age<50] yes=71,no=72,missing=71
						71:leaf=-0.0442797728
						72:leaf=-0.144064441
			10:[hhninc<5.44999981] yes=21,no=22,missing=22
				21:[educ<15.5] yes=41,no=42,missing=41
					41:leaf=-0.184921771
					42:[female<1] yes=73,no=74,missing=74
						73:leaf=-0.0564801171
						74:leaf=0.0266506467
				22:[educ<13.75] yes=43,no=44,missing=44
					43:[self<1] yes=75,no=76,missing=76
						75:leaf=-0.132950753
						76:leaf=0.0211416818
					44:[female<1] yes=77,no=78,missing=78
						77:leaf=-0.01671765
						78:leaf=0.043838758
	2:[kids<3] yes=5,no=6,missing=6
		5:[educ<12.5] yes=11,no=12,missing=12
			11:[hhninc<6.1500001] yes=23,no=24,missing=24
				23:[edlevel=Not_HS_grad] yes=46,no=45
					45:[age<48] yes=79,no=80,missing=80
						79:leaf=-0.136501297
						80:leaf=-0.00978518184
					46:[outwork<1] yes=81,no=82,missing=82
						81:leaf=0.118971981
						82:leaf=-0.0148821557
				24:[hhninc<18] yes=47,no=48,missing=48
					47:[age<49] yes=83,no=84,missing=84
						83:leaf=-0.0152773997
						84:leaf=-0.13774918
					48:leaf=0.0895866528
			12:[outwork<3] yes=25,no=26,missing=26
				25:[hhninc<6.75] yes=49,no=50,missing=50
					49:[age<48] yes=85,no=86,missing=86
						85:leaf=0.0462854728
						86:leaf=-0.0726050511
					50:[edlevel=Grad_School] yes=88,no=87
						87:leaf=0.0929800421
						88:leaf=-0.0206032991
				26:[age<33] yes=51,no=52,missing=52
					51:leaf=-0.0137539357
					52:leaf=-0.0755967796
		6:[educ<11.5] yes=13,no=14,missing=13
			13:[age<57] yes=27,no=28,missing=27
				27:[edlevel=Not_HS_grad] yes=54,no=53
					53:leaf=0.127201661
					54:leaf=-0.0313975923
				28:[outwork<3] yes=55,no=56,missing=56
					55:[edlevel=Not_HS_grad] yes=90,no=89
						89:leaf=-0.0283062439
						90:leaf=-0.00643024733
					56:leaf=0.0690411404
			14:[outwork<1] yes=29,no=30,missing=30
				29:leaf=0.00908541773
				30:leaf=-0.0822351128
booster[26]
0:[hhninc<1.61500001] yes=1,no=2,missing=2
	1:[self<1] yes=3,no=4,missing=3
		3:[female<1] yes=7,no=8,missing=8
			7:[kids<1] yes=15,no=16,missing=16
				15:[hhninc<1.59350002] yes=25,no=26,missing=26
					25:[age<26] yes=39,no=40,missing=39
						39:leaf=-0.17684783
						40:leaf=-0.0474047698
					26:[age<48] yes=41,no=42,missing=42
						41:leaf=-0.0138251046
						42:leaf=0.0802136809
				16:[married<3] yes=27,no=28,missing=28
					27:[educ<10.25] yes=43,no=44,missing=43
						43:leaf=0.0335803144
						44:leaf=-0.0660182759
					28:[edlevel=Not_HS_grad] yes=46,no=45
						45:leaf=-0.0112797134
						46:leaf=0.112317175
			8:[age<59] yes=17,no=18,missing=18
				17:[age<52] yes=29,no=30,missing=30
					29:[age<39] yes=47,no=48,missing=48
						47:leaf=0.00862474833
						48:leaf=-0.0476575419
					30:[edlevel=HS_grad] yes=50,no=49
						49:leaf=0.0434959866
						50:leaf=-0.0921504945
				18:[educ<10.75] yes=31,no=32,missing=31
					31:[kids<1] yes=51,no=52,missing=51
						51:leaf=-0.031905517
						52:leaf=0.0263815112
					32:[hhninc<1.16440558] yes=53,no=54,missing=54
						53:leaf=-0.0582697242
						54:leaf=0.0521892309
		4:[age<42] yes=9,no=10,missing=9
			9:leaf=0.105005607
			10:[female<1] yes=19,no=20,missing=19
				19:[age<60] yes=33,no=34,missing=34
					33:leaf=0.0388222858
					34:leaf=0.00863843504
				20:leaf=-0.0199021362
	2:[hhninc<1.63092542] yes=5,no=6,missing=6
		5:[edlevel=Not_HS_grad] yes=12,no=11
			11:leaf=0.126759589
			12:[age<60] yes=21,no=22,missing=22
				21:leaf=0.0476787537
				22:leaf=0.0202238951
		6:[hhninc<1.65750003] yes=13,no=14,missing=14
			13:leaf=-0.10511066
			14:[hhninc<1.78999996] yes=23,no=24,missing=24
				23:[kids<3] yes=35,no=36,missing=36
					35:[hhninc<1.76499999] yes=55,no=56,missing=56
						55:leaf=0.0328092165
						56:leaf=0.239932299
					36:[hhninc<1.76999998] yes=57,no=58,missing=58
						57:leaf=-0.0463904217
						58:leaf=-0.188017875
				24:[kids<3] yes=37,no=38,missing=38
					37:[age<27] yes=59,no=60,missing=60
						59:leaf=-0.0426749662
						60:leaf=-0.000325668545
					38:[outwork<1] yes=61,no=62,missing=62
						61:leaf=-0.0103943301
						62:leaf=0.0158488266
booster[27]
0:[age<55] yes=1,no=2,missing=1
	1:[kids<3] yes=3,no=4,missing=4
		3:[outwork<3] yes=7,no=8,missing=8
			7:[hhninc<2.34317636] yes=15,no=16,missing=15
				15:[hhninc<2.30375147] yes=31,no=32,missing=31
					31:[hhninc<1.97500002] yes=61,no=62,missing=62
						61:leaf=-0.0101632494
						62:leaf=0.0132889645
					32:[outwork<1] yes=63,no=64,missing=64
						63:leaf=-0.0313682109
						64:leaf=0.172943056
				16:[female<3] yes=33,no=34,missing=34
					33:[hhninc<2.625] yes=65,no=66,missing=66
						65:leaf=-0.05458102
						66:leaf=-0.00450446084
					34:[age<54] yes=67,no=68,missing=68
						67:leaf=-0.0127456011
						68:leaf=0.0650504306
			8:[hhninc<2.1500001] yes=17,no=18,missing=18
				17:[age<28] yes=35,no=36,missing=36
					35:[hhninc<1.29999995] yes=69,no=70,missing=70
						69:leaf=-0.021180775
						70:leaf=-0.0983755067
					36:[age<29] yes=71,no=72,missing=72
						71:leaf=0.136914819
						72:leaf=0.0188188292
				18:[age<45] yes=37,no=38,missing=38
					37:[self<1] yes=73,no=74,missing=74
						73:leaf=-0.0274126381
						74:leaf=0.0383027494
					38:[female<3] yes=75,no=76,missing=76
						75:leaf=-0.0233843774
						76:leaf=-0.0816712379
		4:[age<51] yes=9,no=10,missing=9
			9:[age<49] yes=19,no=20,missing=19
				19:[outwork<3] yes=39,no=40,missing=40
					39:[hhninc<2.51399994] yes=77,no=78,missing=78
						77:leaf=0.0190550722
						78:leaf=-0.0188651383
					40:[female<1] yes=79,no=80,missing=79
						79:leaf=0.0719681159
						80:leaf=-0.0490913577
				20:[hhninc<2.46899986] yes=41,no=42,missing=41
					41:[self<1] yes=81,no=82,missing=82
						81:leaf=0.0327853821
						82:leaf=-0.124673337
					42:[edlevel=Grad_School] yes=84,no=83
						83:leaf=-0.24485366
						84:leaf=0.0283349715
			10:[hhninc<2.45000005] yes=21,no=22,missing=22
				21:[married<3] yes=43,no=44,missing=44
					43:[educ<11] yes=85,no=86,missing=85
						85:leaf=-0.125239223
						86:leaf=-0.0301509928
					44:[outwork<1] yes=87,no=88,missing=88
						87:leaf=-0.0452654287
						88:leaf=-0.0114508746
				22:[outwork<3] yes=45,no=46,missing=46
					45:[hhninc<3.53867245] yes=89,no=90,missing=89
						89:leaf=0.14343667
						90:leaf=0.022123646
					46:[hhninc<2.75] yes=91,no=92,missing=92
						91:leaf=0.0899599195
						92:leaf=-0.111701638
	2:[edlevel=Not_HS_grad] yes=6,no=5
		5:[educ<10.25] yes=11,no=12,missing=12
			11:[educ<8] yes=23,no=24,missing=24
				23:leaf=0.166163102
				24:[age<62] yes=47,no=48,missing=48
					47:[female<3] yes=93,no=94,missing=94
						93:leaf=-0.167247683
						94:leaf=0.0371243954
					48:[kids<3] yes=95,no=96,missing=96
						95:leaf=-0.00978183933
						96:leaf=0.0953042805
			12:[educ<11.25] yes=25,no=26,missing=26
				25:[age<60] yes=49,no=50,missing=50
					49:[self<1] yes=97,no=98,missing=98
						97:leaf=0.167678833
						98:leaf=-0.0620937906
					50:[hhninc<2.85955691] yes=99,no=100,missing=100
						99:leaf=0.0394439287
						100:leaf=-0.0546951257
				26:[self<1] yes=51,no=52,missing=52
					51:[age<56] yes=101,no=102,missing=102
						101:leaf=-0.139083534
						102:leaf=-0.00704010203
					52:[age<60] yes=103,no=104,missing=104
						103:leaf=0.0825570896
						104:leaf=-0.0287507009
		6:[age<56] yes=13,no=14,missing=14
			13:[married<1] yes=27,no=28,missing=27
				27:[hhninc<2.70000005] yes=53,no=54,missing=54
					53:leaf=-0.0648504421
					54:leaf=-0.177053928
				28:[female<3] yes=55,no=56,missing=56
					55:[hhninc<3.51249981] yes=105,no=106,missing=105
						105:leaf=0.00530493725
						106:leaf=-0.122917898
					56:[educ<9.75] yes=107,no=108,missing=108
						107:leaf=-0.0456651412
						108:leaf=-0.245906785
			14:[hhninc<3.75] yes=29,no=30,missing=29
				29:[hhninc<3.52359533] yes=57,no=58,missing=57
					57:[educ<8] yes=109,no=110,missing=110
						109:leaf=-0.203736648
						110:leaf=-0.0057222289
					58:[hhninc<3.65461206] yes=111,no=112,missing=112
						111:leaf=0.251266599
						112:leaf=0.0218321197
				30:[age<61] yes=59,no=60,missing=60
					59:[hhninc<4.36250019] yes=113,no=114,missing=114
						113:leaf=-0.166709125
						114:leaf=-0.052948948
					60:[educ<10.75] yes=115,no=116,missing=116
						115:leaf=0.0704961419
						116:leaf=-0.0712536126
booster[28]
0:[hhninc<3.49499989] yes=1,no=2,missing=1
	1:[hhninc<3.25526762] yes=3,no=4,missing=3
		3:[hhninc<3.24714804] yes=7,no=8,missing=7
			7:[outwork<1] yes=15,no=16,missing=16
				15:[age<59] yes=29,no=30,missing=29
					29:[educ<10.25] yes=53,no=54,missing=53
						53:leaf=0.0117649185
						54:leaf=-0.00485275965
					30:[educ<11.25] yes=55,no=56,missing=56
						55:leaf=0.107853785
						56:leaf=-0.034032885
