[
  { "nodeid": 0, "depth": 0, "split": "age", "split_condition": 80.5, "yes": 1, "no": 2, "missing": 1 , "children": [
    { "nodeid": 1, "leaf": 1.85369349 }, 
    { "nodeid": 2, "leaf": 0.721817732 }
  ]},
  { "nodeid": 0, "leaf": 1.30659175 },
  { "nodeid": 0, "depth": 0, "split": "ph.ecog", "split_condition": 1.5, "yes": 1, "no": 2, "missing": 2 , "children": [
    { "nodeid": 1, "depth": 1, "split": "pat.karno", "split_condition": 200, "yes": 3, "no": 4, "missing": 4 , "children": [
      { "nodeid": 3, "leaf": 0.967975676 }, 
      { "nodeid": 4, "leaf": 0.15939495 }
    ]}, 
    { "nodeid": 2, "depth": 1, "split": "pat.karno", "split_condition": 95, "yes": 5, "no": 6, "missing": 5 , "children": [
      { "nodeid": 5, "leaf": 0.796615839 }, 
      { "nodeid": 6, "leaf": 0.297432125 }
    ]}
  ]},
  { "nodeid": 0, "depth": 0, "split": "meal.cal", "split_condition": 342, "yes": 1, "no": 2, "missing": 2 , "children": [
    { "nodeid": 1, "depth": 1, "split": "meal.cal", "split_condition": 284, "yes": 3, "no": 4, "missing": 4 , "children": [
      { "nodeid": 3, "leaf": 0.536970437 }, 
      { "nodeid": 4, "leaf": 0.12774457 }
    ]}, 
    { "nodeid": 2, "depth": 1, "split": "wt.loss", "split_condition": -14, "yes": 5, "no": 6, "missing": 5 , "children": [
      { "nodeid": 5, "leaf": 0.436490238 }, 
      { "nodeid": 6, "leaf": 0.688236058 }
    ]}
  ]},
  { "nodeid": 0, "depth": 0, "split": "sex=1", "yes": 2, "no": 1 , "children": [
    { "nodeid": 1, "depth": 1, "split": "wt.loss", "split_condition": -5.5, "yes": 3, "no": 4, "missing": 3 , "children": [
      { "nodeid": 3, "leaf": 0.337861508 }, 
      { "nodeid": 4, "leaf": 0.568900585 }
    ]}, 
    { "nodeid": 2, "depth": 1, "split": "pat.karno", "split_condition": 55, "yes": 5, "no": 6, "missing": 5 , "children": [
      { "nodeid": 5, "leaf": 0.104290426 }, 
      { "nodeid": 6, "leaf": 0.429500997 }
    ]}
  ]},
  { "nodeid": 0, "depth": 0, "split": "sex=1", "yes": 2, "no": 1 , "children": [
    { "nodeid": 1, "depth": 1, "split": "meal.cal", "split_condition": 350.5, "yes": 3, "no": 4, "missing": 4 , "children": [
      { "nodeid": 3, "leaf": 0.190304115 }, 
      { "nodeid": 4, "leaf": 0.410847157 }
    ]}, 
    { "nodeid": 2, "depth": 1, "split": "age", "split_condition": 71.5, "yes": 5, "no": 6, "missing": 5 , "children": [
      { "nodeid": 5, "leaf": 0.325559378 }, 
      { "nodeid": 6, "leaf": 0.164594874 }
    ]}
  ]},
  { "nodeid": 0, "depth": 0, "split": "ph.ecog", "split_condition": 1.5, "yes": 1, "no": 2, "missing": 2 , "children": [
    { "nodeid": 1, "depth": 1, "split": "wt.loss", "split_condition": 64, "yes": 3, "no": 4, "missing": 4 , "children": [
      { "nodeid": 3, "leaf": 0.276980251 }, 
      { "nodeid": 4, "leaf": 0.0875564143 }
    ]}, 
    { "nodeid": 2, "depth": 1, "split": "wt.loss", "split_condition": 21, "yes": 5, "no": 6, "missing": 5 , "children": [
      { "nodeid": 5, "leaf": 0.0807874575 }, 
      { "nodeid": 6, "leaf": 0.347067595 }
    ]}
  ]},
  { "nodeid": 0, "depth": 0, "split": "sex=1", "yes": 2, "no": 1 , "children": [
    { "nodeid": 1, "depth": 1, "split": "pat.karno", "split_condition": 85, "yes": 3, "no": 4, "missing": 3 , "children": [
      { "nodeid": 3, "leaf": 0.173474863 }, 
      { "nodeid": 4, "leaf": 0.27956754 }
    ]}, 
    { "nodeid": 2, "depth": 1, "split": "age", "split_condition": 60.5, "yes": 5, "no": 6, "missing": 5 , "children": [
      { "nodeid": 5, "leaf": 0.201785862 }, 
      { "nodeid": 6, "leaf": 0.10306038 }
    ]}
  ]},
  { "nodeid": 0, "depth": 0, "split": "ph.ecog", "split_condition": 0.5, "yes": 1, "no": 2, "missing": 2 , "children": [
    { "nodeid": 1, "depth": 1, "split": "age", "split_condition": 64.5, "yes": 3, "no": 4, "missing": 3 , "children": [
      { "nodeid": 3, "leaf": 0.269529223 }, 
      { "nodeid": 4, "leaf": 0.0512570627 }
    ]}, 
    { "nodeid": 2, "depth": 1, "split": "wt.loss", "split_condition": 27.5, "yes": 5, "no": 6, "missing": 5 , "children": [
      { "nodeid": 5, "leaf": 0.0840240568 }, 
      { "nodeid": 6, "leaf": 0.198859707 }
    ]}
  ]},
  { "nodeid": 0, "depth": 0, "split": "meal.cal", "split_condition": 400.5, "yes": 1, "no": 2, "missing": 2 , "children": [
    { "nodeid": 1, "depth": 1, "split": "pat.karno", "split_condition": 45, "yes": 3, "no": 4, "missing": 4 , "children": [
      { "nodeid": 3, "leaf": 0.309346855 }, 
      { "nodeid": 4, "leaf": -0.087396808 }
    ]}, 
    { "nodeid": 2, "depth": 1, "split": "ph.ecog", "split_condition": 0.5, "yes": 5, "no": 6, "missing": 6 , "children": [
      { "nodeid": 5, "leaf": 0.154786289 }, 
      { "nodeid": 6, "leaf": 0.0765442401 }
    ]}
  ]},
  { "nodeid": 0, "depth": 0, "split": "sex=1", "yes": 2, "no": 1 , "children": [
    { "nodeid": 1, "depth": 1, "split": "age", "split_condition": 65.5, "yes": 3, "no": 4, "missing": 3 , "children": [
      { "nodeid": 3, "leaf": 0.0685581565 }, 
      { "nodeid": 4, "leaf": 0.163913608 }
    ]}, 
    { "nodeid": 2, "depth": 1, "split": "wt.loss", "split_condition": -4, "yes": 5, "no": 6, "missing": 6 , "children": [
      { "nodeid": 5, "leaf": 0.209370658 }, 
      { "nodeid": 6, "leaf": 0.0292202886 }
    ]}
  ]},
  { "nodeid": 0, "depth": 0, "split": "pat.karno", "split_condition": 75, "yes": 1, "no": 2, "missing": 1 , "children": [
    { "nodeid": 1, "depth": 1, "split": "wt.loss", "split_condition": 21, "yes": 3, "no": 4, "missing": 4 , "children": [
      { "nodeid": 3, "leaf": -0.0489762574 }, 
      { "nodeid": 4, "leaf": 0.120201916 }
    ]}, 
    { "nodeid": 2, "depth": 1, "split": "wt.loss", "split_condition": 35, "yes": 5, "no": 6, "missing": 6 , "children": [
      { "nodeid": 5, "leaf": 0.0821118355 }, 
      { "nodeid": 6, "leaf": -0.0889338627 }
    ]}
  ]},
  { "nodeid": 0, "depth": 0, "split": "wt.loss", "split_condition": 37.5, "yes": 1, "no": 2, "missing": 1 , "children": [
    { "nodeid": 1, "depth": 1, "split": "wt.loss", "split_condition": 9.5, "yes": 3, "no": 4, "missing": 4 , "children": [
      { "nodeid": 3, "leaf": 0.0581627674 }, 
      { "nodeid": 4, "leaf": -0.00774806598 }
    ]}, 
    { "nodeid": 2, "depth": 1, "split": "meal.cal", "split_condition": 756.5, "yes": 5, "no": 6, "missing": 5 , "children": [
      { "nodeid": 5, "leaf": 0.323411018 }, 
      { "nodeid": 6, "leaf": 0.0340257771 }
    ]}
  ]},
  { "nodeid": 0, "depth": 0, "split": "pat.karno", "split_condition": 95, "yes": 1, "no": 2, "missing": 1 , "children": [
    { "nodeid": 1, "depth": 1, "split": "meal.cal", "split_condition": 1287.5, "yes": 3, "no": 4, "missing": 4 , "children": [
      { "nodeid": 3, "leaf": -0.00703407032 }, 
      { "nodeid": 4, "leaf": 0.0633039847 }
    ]}, 
    { "nodeid": 2, "depth": 1, "split": "ph.ecog", "split_condition": 1.5, "yes": 5, "no": 6, "missing": 6 , "children": [
      { "nodeid": 5, "leaf": 0.11773821 }, 
      { "nodeid": 6, "leaf": -0.225590155 }
    ]}
  ]},
  { "nodeid": 0, "depth": 0, "split": "meal.cal", "split_condition": 150, "yes": 1, "no": 2, "missing": 2 , "children": [
    { "nodeid": 1, "leaf": 0.235282108 }, 
    { "nodeid": 2, "depth": 1, "split": "meal.cal", "split_condition": 342, "yes": 3, "no": 4, "missing": 4 , "children": [
      { "nodeid": 3, "leaf": -0.112990208 }, 
      { "nodeid": 4, "leaf": 0.0199094601 }
    ]}
  ]}
]
