{"learner":{"attributes":{"best_iteration":"49","best_score":"2.2488171593382438"},"feature_names":["cylinders","displacement","horsepower","weight","acceleration","model_year","origin"],"feature_types":["c","float","float","float","float","c","c"],"gradient_booster":{"model":{"gbtree_model_param":{"num_parallel_tree":"1","num_trees":"53"},"iteration_indptr":[0,1,2,3,4,5,6,7,8,9,10,11,12,13,14,15,16,17,18,19,20,21,22,23,24,25,26,27,28,29,30,31,32,33,34,35,36,37,38,39,40,41,42,43,44,45,46,47,48,49,50,51,52,53],"tree_info":[0,0,0,0,0,0,0,0,0,0,0,0,0,0,0,0,0,0,0,0,0,0,0,0,0,0,0,0,0,0,0,0,0,0,0,0,0,0,0,0,0,0,0,0,0,0,0,0,0,0,0,0,0],"trees":[{"base_weights":[-6.7460934E-7,7.831358E0,-2.9572968E0,2.9774916E0,9.5433223E-1,7.495252E-1,-1.6184032E0],"categories":[0,1,2,3,4,5,6],"categories_nodes":[1],"categories_segments":[0],"categories_sizes":[7],"default_left":[0,1,0,0,0,0,0],"id":0,"left_children":[1,3,5,-1,-1,-1,-1],"loss_changes":[9.124901E3,1.0198965E3,3.8166062E3,0E0,0E0,0E0,0E0],"parents":[2147483647,0,0,1,1,2,2],"right_children":[2,4,6,-1,-1,-1,-1],"split_conditions":[8.5E1,1E-45,1.99E2,2.9774916E0,9.5433223E-1,7.495252E-1,-1.6184032E0],"split_indices":[2,5,1,0,0,0,0],"split_type":[0,1,0,0,0,0,0],"sum_hessian":[3.92E2,1.07E2,2.85E2,7.3E1,3.4E1,8.8E1,1.97E2],"tree_param":{"num_deleted":"0","num_feature":"7","num_nodes":"7","size_leaf_vector":"1"}},{"base_weights":[7.7929944E-3,4.9412694E0,-2.8651464E0,2.388542E0,7.767119E-1,8.1271136E-1,-1.3050768E0],"categories":[0,3,4],"categories_nodes":[2],"categories_segments":[0],"categories_sizes":[3],"default_left":[0,0,0,0,0,0,0],"id":1,"left_children":[1,3,5,-1,-1,-1,-1],"loss_changes":[5.584374E3,1.0096111E3,2.0730757E3,0E0,0E0,0E0,0E0],"parents":[2147483647,0,0,1,1,2,2],"right_children":[2,4,6,-1,-1,-1,-1],"split_conditions":[2.774E3,2.155E3,1E-45,2.388542E0,7.767119E-1,8.1271136E-1,-1.3050768E0],"split_indices":[3,3,0,0,0,0,0],"split_type":[0,0,1,0,0,0,0],"sum_hessian":[3.92E2,1.44E2,2.48E2,6.2E1,8.2E1,5.2E1,1.96E2],"tree_param":{"num_deleted":"0","num_feature":"7","num_nodes":"7","size_leaf_vector":"1"}},{"base_weights":[1.2256025E-2,1.3781137E0,-6.0963335E0,1.0633277E0,-5.180938E-1,-1.0723549E0,-1.9623365E0],"categories":[0,4,0,1,2,3,4,6],"categories_nodes":[0,2],"categories_segments":[0,2],"categories_sizes":[2,6],"default_left":[1,1,0,0,0,0,0],"id":2,"left_children":[1,3,5,-1,-1,-1,-1],"loss_changes":[3.2873826E3,2.1720862E3,5.7379395E1,0E0,0E0,0E0,0E0],"parents":[2147483647,0,0,1,1,2,2],"right_children":[2,4,6,-1,-1,-1,-1],"split_conditions":[1E-45,1.21E2,1E-45,1.0633277E0,-5.180938E-1,-1.0723549E0,-1.9623365E0],"split_indices":[0,1,5,0,0,0,0],"split_type":[1,0,1,0,0,0,0],"sum_hessian":[3.92E2,3.21E2,7.1E1,1.89E2,1.32E2,1.2E1,5.9E1],"tree_param":{"num_deleted":"0","num_feature":"7","num_nodes":"7","size_leaf_vector":"1"}},{"base_weights":[2.2443281E-3,5.7321353E0,-1.088346E0,2.1929133E0,1.0891516E0,3.2643717E-2,-1.303429E0],"categories":[0,1,2,3,4,5,6,7,8,9],"categories_nodes":[0],"categories_segments":[0],"categories_sizes":[10],"default_left":[0,1,1,0,0,0,0],"id":3,"left_children":[1,3,5,-1,-1,-1,-1],"loss_changes":[2.462081E3,1.823374E2,1.2908588E3,0E0,0E0,0E0,0E0],"parents":[2147483647,0,0,1,1,2,2],"right_children":[2,4,6,-1,-1,-1,-1],"split_conditions":[1E-45,2.38E3,2.5E2,2.1929133E0,1.0891516E0,3.2643717E-2,-1.303429E0],"split_indices":[5,3,1,0,0,0,0],"split_type":[1,0,0,0,0,0,0],"sum_hessian":[3.92E2,6.2E1,3.3E2,3.4E1,2.8E1,2.42E2,8.8E1],"tree_param":{"num_deleted":"0","num_feature":"7","num_nodes":"7","size_leaf_vector":"1"}},{"base_weights":[6.688334E-3,1.8961622E0,-1.8637336E0,8.8660926E-1,-4.8660114E-1,8.760566E-1,-6.987558E-1],"categories":[0,1,2,3,4,5,6,7],"categories_nodes":[0],"categories_segments":[0],"categories_sizes":[8],"default_left":[1,1,0,0,0,0,0],"id":4,"left_children":[1,3,5,-1,-1,-1,-1],"loss_changes":[1.3924404E3,7.351773E2,4.4768585E2,0E0,0E0,0E0,0E0],"parents":[2147483647,0,0,1,1,2,2],"right_children":[2,4,6,-1,-1,-1,-1],"split_conditions":[1E-45,3.06E3,7.1E1,8.8660926E-1,-4.8660114E-1,8.760566E-1,-6.987558E-1],"split_indices":[5,3,2,0,0,0,0],"split_type":[1,0,0,0,0,0,0],"sum_hessian":[3.92E2,1.95E2,1.97E2,1.5E2,4.5E1,1.7E1,1.8E2],"tree_param":{"num_deleted":"0","num_feature":"7","num_nodes":"7","size_leaf_vector":"1"}},{"base_weights":[6.1502918E-3,3.1503663E0,-7.6997316E-1,1.1251873E0,1.7698646E-1,6.459984E-1,-4.2649174E-1],"categories":[0,1,2,3,4,0,1,2,3,4,5,6,7,8],"categories_nodes":[1,2],"categories_segments":[0,5],"categories_sizes":[5,9],"default_left":[0,1,0,0,0,0,0],"id":5,"left_children":[1,3,5,-1,-1,-1,-1],"loss_changes":[9.614635E2,1.1766589E2,6.050463E2,0E0,0E0,0E0,0E0],"parents":[2147483647,0,0,1,1,2,2],"right_children":[2,4,6,-1,-1,-1,-1],"split_conditions":[2.22E3,1E-45,1E-45,1.1251873E0,1.7698646E-1,6.459984E-1,-4.2649174E-1],"split_indices":[3,5,5,0,0,0,0],"split_type":[0,1,1,0,0,0,0],"sum_hessian":[3.92E2,7.7E1,3.15E2,6.2E1,1.5E1,5.7E1,2.58E2],"tree_param":{"num_deleted":"0","num_feature":"7","num_nodes":"7","size_leaf_vector":"1"}},{"base_weights":[8.177129E-3,6.584301E-1,-2.803838E0,3.058032E-1,-7.222421E-1,-3.5089046E-1,-9.924694E-1],"categories":[0,4],"categories_nodes":[1],"categories_segments":[0],"categories_sizes":[2],"default_left":[1,1,0,0,0,0,0],"id":6,"left_children":[1,3,5,-1,-1,-1,-1],"loss_changes":[7.204549E2,3.5654276E2,5.712738E1,0E0,0E0,0E0,0E0],"parents":[2147483647,0,0,1,1,2,2],"right_children":[2,4,6,-1,-1,-1,-1],"split_conditions":[3.605E3,1E-45,3.07E2,3.058032E-1,-7.222421E-1,-3.5089046E-1,-9.924694E-1],"split_indices":[3,0,1,0,0,0,0],"split_type":[0,1,0,0,0,0,0],"sum_hessian":[3.92E2,3.19E2,7.3E1,2.86E2,3.3E1,1.8E1,5.5E1],"tree_param":{"num_deleted":"0","num_feature":"7","num_nodes":"7","size_leaf_vector":"1"}},{"base_weights":[1.246297E-3,1.9510562E0,-6.096983E-1,8.521722E-1,1.5118395E-1,7.856518E-1,-2.7381745E-1],"categories":[0,2,3,4,5,6,7,8,0,1,2,3,4,5,6,7,8,9,11],"categories_nodes":[1,2],"categories_segments":[0,8],"categories_sizes":[8,11],"default_left":[0,1,0,0,0,0,0],"id":7,"left_children":[1,3,5,-1,-1,-1,-1],"loss_changes":[4.6934137E2,1.19568054E2,2.9589E2,0E0,0E0,0E0,0E0],"parents":[2147483647,0,0,1,1,2,2],"right_children":[2,4,6,-1,-1,-1,-1],"split_conditions":[1.13E2,1E-45,1E-45,8.521722E-1,1.5118395E-1,7.856518E-1,-2.7381745E-1],"split_indices":[1,5,5,0,0,0,0],"split_type":[0,1,1,0,0,0,0],"sum_hessian":[3.92E2,9.3E1,2.99E2,5.7E1,3.6E1,2.5E1,2.74E2],"tree_param":{"num_deleted":"0","num_feature":"7","num_nodes":"7","size_leaf_vector":"1"}},{"base_weights":[4.7274604E-3,6.136942E-1,-1.2462873E0,3.4157205E-1,-3.157635E-1,-2.5833526E-1,-7.814687E-1],"categories":[0,1,2,3,5],"categories_nodes":[0],"categories_segments":[0],"categories_sizes":[5],"default_left":[1,1,1,0,0,0,0],"id":8,"left_children":[1,3,5,-1,-1,-1,-1],"loss_changes":[3.001626E2,2.329606E2,6.526192E1,0E0,0E0,0E0,0E0],"parents":[2147483647,0,0,1,1,2,2],"right_children":[2,4,6,-1,-1,-1,-1],"split_conditions":[1E-45,1E2,3.988E3,3.4157205E-1,-3.157635E-1,-2.5833526E-1,-7.814687E-1],"split_indices":[5,2,3,0,0,0,0],"split_type":[1,0,0,0,0,0,0],"sum_hessian":[3.92E2,2.64E2,1.28E2,2.01E2,6.3E1,1.01E2,2.7E1],"tree_param":{"num_deleted":"0","num_feature":"7","num_nodes":"7","size_leaf_vector":"1"}},{"base_weights":[7.291119E-4,2.0982752E0,-2.7653483E-1,8.641742E-1,3.1318106E-2,5.3079672E-2,-3.3540428E-1],"categories":[0,2,3,4,8],"categories_nodes":[2],"categories_segments":[0],"categories_sizes":[5],"default_left":[0,1,1,0,0,0,0],"id":9,"left_children":[1,3,5,-1,-1,-1,-1],"loss_changes":[2.291388E2,7.145117E1,1.3298874E2,0E0,0E0,0E0,0E0],"parents":[2147483647,0,0,1,1,2,2],"right_children":[2,4,6,-1,-1,-1,-1],"split_conditions":[6.8E1,9.7E1,1E-45,8.641742E-1,3.1318106E-2,5.3079672E-2,-3.3540428E-1],"split_indices":[2,1,5,0,0,0,0],"split_type":[0,0,1,0,0,0,0],"sum_hessian":[3.92E2,4.5E1,3.47E2,3.2E1,1.3E1,2.26E2,1.21E2],"tree_param":{"num_deleted":"0","num_feature":"7","num_nodes":"7","size_leaf_vector":"1"}},{"base_weights":[2.070376E-3,2.662075E-1,-1.3349017E0,3.7646297E-1,-1.536943E-2,-3.139863E-1,-6.678188E-1],"categories":[0,1,2,3,4,5,7,8,11],"categories_nodes":[1],"categories_segments":[0],"categories_sizes":[9],"default_left":[1,0,0,0,0,0,0],"id":10,"left_children":[1,3,5,-1,-1,-1,-1],"loss_changes":[1.3914093E2,1.0331832E2,1.436895E1,0E0,0E0,0E0,0E0],"parents":[2147483647,0,0,1,1,2,2],"right_children":[2,4,6,-1,-1,-1,-1],"split_conditions":[3.73E3,1E-45,4.499E3,3.7646297E-1,-1.536943E-2,-3.139863E-1,-6.678188E-1],"split_indices":[3,5,3,0,0,0,0],"split_type":[0,1,0,0,0,0,0],"sum_hessian":[3.92E2,3.28E2,6.4E1,7.9E1,2.49E2,5E1,1.4E1],"tree_param":{"num_deleted":"0","num_feature":"7","num_nodes":"7","size_leaf_vector":"1"}},{"base_weights":[-1.3030395E-4,9.7925586E-1,-2.7767578E-1,-1.0028063E-1,5.029347E-1,7.2946423E-1,-1.2172259E-1],"categories":[],"categories_nodes":[],"categories_segments":[],"categories_sizes":[],"default_left":[0,0,0,0,0,0,0],"id":11,"left_children":[1,3,5,-1,-1,-1,-1],"loss_changes":[1.0709882E2,8.023327E1,1.07503235E2,0E0,0E0,0E0,0E0],"parents":[2147483647,0,0,1,1,2,2],"right_children":[2,4,6,-1,-1,-1,-1],"split_conditions":[1.08E2,2.07E3,2.124E3,-1.0028063E-1,5.029347E-1,7.2946423E-1,-1.2172259E-1],"split_indices":[1,3,3,0,0,0,0],"split_type":[0,0,0,0,0,0,0],"sum_hessian":[3.92E2,8.6E1,3.06E2,3E1,5.6E1,1.3E1,2.93E2],"tree_param":{"num_deleted":"0","num_feature":"7","num_nodes":"7","size_leaf_vector":"1"}},{"base_weights":[2.4800217E-3,1.3007265E0,-1.565715E-1,-1.1695216E-1,7.9660064E-1,1.5369822E-1,-1.3799083E-1],"categories":[0,1,2,3,4,5,8],"categories_nodes":[2],"categories_segments":[0],"categories_sizes":[7],"default_left":[0,0,0,0,0,0,0],"id":12,"left_children":[1,3,5,-1,-1,-1,-1],"loss_changes":[8.135347E1,9.95076E1,7.146849E1,0E0,0E0,0E0,0E0],"parents":[2147483647,0,0,1,1,2,2],"right_children":[2,4,6,-1,-1,-1,-1],"split_conditions":[9.6E1,1.77E1,1E-45,-1.1695216E-1,7.9660064E-1,1.5369822E-1,-1.3799083E-1],"split_indices":[1,4,5,0,0,0,0],"split_type":[0,0,1,0,0,0,0],"sum_hessian":[3.92E2,4.2E1,3.5E2,1.9E1,2.3E1,1.09E2,2.41E2],"tree_param":{"num_deleted":"0","num_feature":"7","num_nodes":"7","size_leaf_vector":"1"}},{"base_weights":[3.5054567E-3,1.5033025E-1,-9.6221733E-1,1.0124032E-1,-2.4969688E-1,3.3414486E-1,-3.6203107E-1],"categories":[0,1,2,3,4,6,7,9,10,12],"categories_nodes":[2],"categories_segments":[0],"categories_sizes":[10],"default_left":[1,1,0,0,0,0,0],"id":13,"left_children":[1,3,5,-1,-1,-1,-1],"loss_changes":[5.5868923E1,6.3171684E1,2.774451E1,0E0,0E0,0E0,0E0],"parents":[2147483647,0,0,1,1,2,2],"right_children":[2,4,6,-1,-1,-1,-1],"split_conditions":[3.18E2,1.8E1,1E-45,1.0124032E-1,-2.4969688E-1,3.3414486E-1,-3.6203107E-1],"split_indices":[1,4,5,0,0,0,0],"split_type":[0,0,1,0,0,0,0],"sum_hessian":[3.92E2,3.41E2,5.1E1,2.87E2,5.4E1,5E0,4.6E1],"tree_param":{"num_deleted":"0","num_feature":"7","num_nodes":"7","size_leaf_vector":"1"}},{"base_weights":[2.0050213E-3,9.672576E-1,-1.255916E-1,3.8948083E-1,-4.3675968E-1,1.3585298E-2,-2.276719E-1],"categories":[0,2,4],"categories_nodes":[2],"categories_segments":[0],"categories_sizes":[3],"default_left":[0,1,1,0,0,0,0],"id":14,"left_children":[1,3,5,-1,-1,-1,-1],"loss_changes":[4.852453E1,3.878589E1,3.7694313E1,0E0,0E0,0E0,0E0],"parents":[2147483647,0,0,1,1,2,2],"right_children":[2,4,6,-1,-1,-1,-1],"split_conditions":[6.8E1,2.05E1,1E-45,3.8948083E-1,-4.3675968E-1,1.3585298E-2,-2.276719E-1],"split_indices":[2,4,0,0,0,0,0],"split_type":[0,0,1,0,0,0,0],"sum_hessian":[3.92E2,4.5E1,3.47E2,4E1,5E0,2.74E2,7.3E1],"tree_param":{"num_deleted":"0","num_feature":"7","num_nodes":"7","size_leaf_vector":"1"}},{"base_weights":[7.381245E-4,-8.419464E-1,2.9528296E-2,3.2324183E-1,-2.6993906E-2],"categories":[],"categories_nodes":[],"categories_segments":[],"categories_sizes":[],"default_left":[0,0,0,0,0],"id":15,"left_children":[1,-1,3,-1,-1],"loss_changes":[3.1845337E1,0E0,4.8939655E1,0E0,0E0],"parents":[2147483647,0,0,2,2],"right_children":[2,-1,4,-1,-1],"split_conditions":[7.1E1,-8.419464E-1,9.6E1,3.2324183E-1,-2.6993906E-2],"split_indices":[1,0,1,0,0],"split_type":[0,0,0,0,0],"sum_hessian":[3.92E2,3E0,3.89E2,3.9E1,3.5E2],"tree_param":{"num_deleted":"0","num_feature":"7","num_nodes":"5","size_leaf_vector":"1"}},{"base_weights":[-8.7153213E-4,3.0488873E-1,-2.5283659E-1,2.2650078E-1,-1.10479526E-1,4.614496E-3,-2.5104958E-1],"categories":[0,1,2,3,4,5,6,7,11],"categories_nodes":[0],"categories_segments":[0],"categories_sizes":[9],"default_left":[1,1,0,0,0,0,0],"id":16,"left_children":[1,3,5,-1,-1,-1,-1],"loss_changes":[3.0354158E1,5.4211296E1,3.384672E1,0E0,0E0,0E0,0E0],"parents":[2147483647,0,0,1,1,2,2],"right_children":[2,4,6,-1,-1,-1,-1],"split_conditions":[1E-45,1.52E1,1.82E1,2.2650078E-1,-1.10479526E-1,4.614496E-3,-2.5104958E-1],"split_indices":[5,4,4,0,0,0,0],"split_type":[1,0,0,0,0,0,0],"sum_hessian":[3.92E2,1.77E2,2.15E2,1.06E2,7.1E1,1.48E2,6.7E1],"tree_param":{"num_deleted":"0","num_feature":"7","num_nodes":"7","size_leaf_vector":"1"}},{"base_weights":[-9.4197784E-4,-1.0274288E-1,6.5405893E-1,-5.192306E-1,-6.7573837E-3,6.8831617E-1,-1.6145281E-2],"categories":[2],"categories_nodes":[0],"categories_segments":[0],"categories_sizes":[1],"default_left":[1,0,1,0,0,0,0],"id":17,"left_children":[1,3,5,-1,-1,-1,-1],"loss_changes":[2.6272318E1,4.449473E1,6.166442E1,0E0,0E0,0E0,0E0],"parents":[2147483647,0,0,1,1,2,2],"right_children":[2,4,6,-1,-1,-1,-1],"split_conditions":[1E-45,1.975E3,1.945E3,-5.192306E-1,-6.7573837E-3,6.8831617E-1,-1.6145281E-2],"split_indices":[6,3,3,0,0,0,0],"split_type":[1,0,0,0,0,0,0],"sum_hessian":[3.92E2,3.4E2,5.2E1,1.5E1,3.25E2,1.5E1,3.7E1],"tree_param":{"num_deleted":"0","num_feature":"7","num_nodes":"7","size_leaf_vector":"1"}},{"base_weights":[-2.8732046E-4,6.9228417E-1,-8.958654E-2,1.2259781E-1,1.9757662E0,1.2852462E-2,-1.6062345E-1],"categories":[0,1,2,3,4,5,6,7,8,9,11],"categories_nodes":[0],"categories_segments":[0],"categories_sizes":[11],"default_left":[0,1,1,0,0,0,0],"id":18,"left_children":[1,3,5,-1,-1,-1,-1],"loss_changes":[2.4367533E1,7.2529335E1,2.0627808E1,0E0,0E0,0E0,0E0],"parents":[2147483647,0,0,1,1,2,2],"right_children":[2,4,6,-1,-1,-1,-1],"split_conditions":[1E-45,2.62E2,1.2E2,1.2259781E-1,1.9757662E0,1.2852462E-2,-1.6062345E-1],"split_indices":[5,1,2,0,0,0,0],"split_type":[1,0,0,0,0,0,0],"sum_hessian":[3.92E2,4.4E1,3.48E2,4.3E1,1E0,2.69E2,7.9E1],"tree_param":{"num_deleted":"0","num_feature":"7","num_nodes":"7","size_leaf_vector":"1"}},{"base_weights":[4.7627175E-3,1.3241781E0,-3.6697354E-2,7.677328E-1,-5.3563845E-1,-5.2841324E-1,1.4711289E-3],"categories":[],"categories_nodes":[],"categories_segments":[],"categories_sizes":[],"default_left":[0,1,0,0,0,0,0],"id":19,"left_children":[1,3,5,-1,-1,-1,-1],"loss_changes":[2.1546894E1,5.0651478E1,2.7416605E1,0E0,0E0,0E0,0E0],"parents":[2147483647,0,0,1,1,2,2],"right_children":[2,4,6,-1,-1,-1,-1],"split_conditions":[6E1,2.05E1,6.3E1,7.677328E-1,-5.3563845E-1,-5.2841324E-1,1.4711289E-3],"split_indices":[2,4,2,0,0,0,0],"split_type":[0,0,0,0,0,0,0],"sum_hessian":[3.92E2,1.1E1,3.81E2,8E0,3E0,8E0,3.73E2],"tree_param":{"num_deleted":"0","num_feature":"7","num_nodes":"7","size_leaf_vector":"1"}},{"base_weights":[2.5837512E-3,-2.107833E0,2.4222426E-2,-1.8478346E-1,-7.199442E-1,2.0975229E-1,-1.5829252E-2],"categories":[0],"categories_nodes":[1],"categories_segments":[0],"categories_sizes":[1],"default_left":[0,1,0,0,0,0,0],"id":20,"left_children":[1,3,5,-1,-1,-1,-1],"loss_changes":[1.7998037E1,2.6425743E-1,2.0302168E1,0E0,0E0,0E0,0E0],"parents":[2147483647,0,0,1,1,2,2],"right_children":[2,4,6,-1,-1,-1,-1],"split_conditions":[7.1E1,1E-45,9.6E1,-1.8478346E-1,-7.199442E-1,2.0975229E-1,-1.5829252E-2],"split_indices":[1,0,1,0,0,0,0],"split_type":[0,1,0,0,0,0,0],"sum_hessian":[3.92E2,3E0,3.89E2,1E0,2E0,3.9E1,3.5E2],"tree_param":{"num_deleted":"0","num_feature":"7","num_nodes":"7","size_leaf_vector":"1"}},{"base_weights":[1.6986565E-8,1.7878296E0,-2.2979798E-2,-7.972756E-1,1.0690739E0,2.3382043E-2,-1.241272E-1],"categories":[2,3,4],"categories_nodes":[2],"categories_segments":[0],"categories_sizes":[3],"default_left":[0,0,1,0,0,0,0],"id":21,"left_children":[1,3,5,-1,-1,-1,-1],"loss_changes":[1.6187092E1,4.894024E1,1.5373337E1,0E0,0E0,0E0,0E0],"parents":[2147483647,0,0,1,1,2,2],"right_children":[2,4,6,-1,-1,-1,-1],"split_conditions":[5.2E1,1.85E3,1E-45,-7.972756E-1,1.0690739E0,2.3382043E-2,-1.241272E-1],"split_indices":[2,3,5,0,0,0,0],"split_type":[0,0,1,0,0,0,0],"sum_hessian":[3.92E2,4E0,3.88E2,1E0,3E0,3.09E2,7.9E1],"tree_param":{"num_deleted":"0","num_feature":"7","num_nodes":"7","size_leaf_vector":"1"}},{"base_weights":[4.3532686E-4,5.3645447E-2,-6.951125E-1,9.6432135E-2,-2.5975846E-2,2.1819589E-1,-3.901354E-1],"categories":[0,2,3,4,7,8,9,10,11,12],"categories_nodes":[2],"categories_segments":[0],"categories_sizes":[10],"default_left":[1,0,0,0,0,0,0],"id":22,"left_children":[1,3,5,-1,-1,-1,-1],"loss_changes":[1.4582292E1,1.37723465E1,2.505534E1,0E0,0E0,0E0,0E0],"parents":[2147483647,0,0,1,1,2,2],"right_children":[2,4,6,-1,-1,-1,-1],"split_conditions":[4.341E3,1.52E1,1E-45,9.6432135E-2,-2.5975846E-2,2.1819589E-1,-3.901354E-1],"split_indices":[3,4,5,0,0,0,0],"split_type":[0,0,1,0,0,0,0],"sum_hessian":[3.92E2,3.65E2,2.7E1,1.25E2,2.4E2,8E0,1.9E1],"tree_param":{"num_deleted":"0","num_feature":"7","num_nodes":"7","size_leaf_vector":"1"}},{"base_weights":[4.663783E-5,-1.7240462E0,1.7729523E-2,-1.5667677E-1,-5.8516735E-1,2.3713417E-1,-9.184054E-3],"categories":[0,0,1,2,3,4,5,6,7,8,9,11,12],"categories_nodes":[1,2],"categories_segments":[0,1],"categories_sizes":[1,12],"default_left":[0,1,0,0,0,0,0],"id":23,"left_children":[1,3,5,-1,-1,-1,-1],"loss_changes":[1.2011931E1,7.0186615E-2,1.4592852E1,0E0,0E0,0E0,0E0],"parents":[2147483647,0,0,1,1,2,2],"right_children":[2,4,6,-1,-1,-1,-1],"split_conditions":[7.1E1,1E-45,1E-45,-1.5667677E-1,-5.8516735E-1,2.3713417E-1,-9.184054E-3],"split_indices":[1,0,5,0,0,0,0],"split_type":[0,1,1,0,0,0,0],"sum_hessian":[3.92E2,3E0,3.89E2,1E0,2E0,2.2E1,3.67E2],"tree_param":{"num_deleted":"0","num_feature":"7","num_nodes":"7","size_leaf_vector":"1"}},{"base_weights":[-1.2748976E-3,-1.4449303E-1,1.8358381E-1,1.9403417E-2,-4.3060297E-1,1.7493817E-1,-1.6040663E-1],"categories":[2,0,3,6,7,8,12],"categories_nodes":[0,2],"categories_segments":[0,1],"categories_sizes":[1,6],"default_left":[0,1,1,0,0,0,0],"id":24,"left_children":[1,3,5,-1,-1,-1,-1],"loss_changes":[1.0431248E1,6.0034718E1,4.967253E1,0E0,0E0,0E0,0E0],"parents":[2147483647,0,0,1,1,2,2],"right_children":[2,4,6,-1,-1,-1,-1],"split_conditions":[1E-45,1.78E1,1E-45,1.9403417E-2,-4.3060297E-1,1.7493817E-1,-1.6040663E-1],"split_indices":[6,4,5,0,0,0,0],"split_type":[1,0,1,0,0,0,0],"sum_hessian":[3.92E2,2.21E2,1.71E2,1.91E2,3E1,1.1E2,6.1E1],"tree_param":{"num_deleted":"0","num_feature":"7","num_nodes":"7","size_leaf_vector":"1"}},{"base_weights":[-1.9017042E-3,-5.013125E-1,1.5222554E-2,5.426697E-1,-2.4153097E-3],"categories":[],"categories_nodes":[],"categories_segments":[],"categories_sizes":[],"default_left":[0,0,0,0,0],"id":25,"left_children":[1,-1,3,-1,-1],"loss_changes":[1.1258471E1,0E0,1.6295223E1,0E0,0E0],"parents":[2147483647,0,0,2,2],"right_children":[2,-1,4,-1,-1],"split_conditions":[1.795E3,-5.013125E-1,1.825E3,5.426697E-1,-2.4153097E-3],"split_indices":[3,0,3,0,0],"split_type":[0,0,0,0,0],"sum_hessian":[3.92E2,3E0,3.89E2,4E0,3.85E2],"tree_param":{"num_deleted":"0","num_feature":"7","num_nodes":"5","size_leaf_vector":"1"}},{"base_weights":[-1.2325282E-3,-5.906006E-1,4.041096E-2,3.002144E-1,-5.472838E-1,8.159678E-1,3.2808182E-3],"categories":[1],"categories_nodes":[1],"categories_segments":[0],"categories_sizes":[1],"default_left":[0,0,0,0,0,0,0],"id":26,"left_children":[1,3,5,-1,-1,-1,-1],"loss_changes":[9.6694E0,5.286805E1,2.9033955E1,0E0,0E0,0E0,0E0],"parents":[2147483647,0,0,1,1,2,2],"right_children":[2,4,6,-1,-1,-1,-1],"split_conditions":[1.98E3,1E-45,5.2E1,3.002144E-1,-5.472838E-1,8.159678E-1,3.2808182E-3],"split_indices":[3,6,2,0,0,0,0],"split_type":[0,1,0,0,0,0,0],"sum_hessian":[3.92E2,2.5E1,3.67E2,1.1E1,1.4E1,3E0,3.64E2],"tree_param":{"num_deleted":"0","num_feature":"7","num_nodes":"7","size_leaf_vector":"1"}},{"base_weights":[5.9333345E-4,-4.560651E-1,1.6189866E-2,8.550935E-2,-3.002157E-2],"categories":[],"categories_nodes":[],"categories_segments":[],"categories_sizes":[],"default_left":[0,0,0,0,0],"id":27,"left_children":[1,-1,3,-1,-1],"loss_changes":[9.346323E0,0E0,1.221835E1,0E0,0E0],"parents":[2147483647,0,0,2,2],"right_children":[2,-1,4,-1,-1],"split_conditions":[1.795E3,-4.560651E-1,2.582E3,8.550935E-2,-3.002157E-2],"split_indices":[3,0,3,0,0],"split_type":[0,0,0,0,0],"sum_hessian":[3.92E2,3E0,3.89E2,1.17E2,2.72E2],"tree_param":{"num_deleted":"0","num_feature":"7","num_nodes":"5","size_leaf_vector":"1"}},{"base_weights":[-6.0414174E-4,5.475627E-2,-3.646937E-1,-8.488357E-3,3.6235946E-1,2.0839406E-2,-3.188461E-1],"categories":[],"categories_nodes":[],"categories_segments":[],"categories_sizes":[],"default_left":[1,1,0,0,0,0,0],"id":28,"left_children":[1,3,5,-1,-1,-1,-1],"loss_changes":[7.941335E0,3.278635E1,1.5834901E1,0E0,0E0,0E0,0E0],"parents":[2147483647,0,0,1,1,2,2],"right_children":[2,4,6,-1,-1,-1,-1],"split_conditions":[3.18E2,2.6E2,4.951E3,-8.488357E-3,3.6235946E-1,2.0839406E-2,-3.188461E-1],"split_indices":[1,1,3,0,0,0,0],"split_type":[0,0,0,0,0,0,0],"sum_hessian":[3.92E2,3.41E2,5.1E1,3.19E2,2.2E1,3.2E1,1.9E1],"tree_param":{"num_deleted":"0","num_feature":"7","num_nodes":"7","size_leaf_vector":"1"}},{"base_weights":[-2.8128055E-4,5.30436E-2,-3.6715084E-1,3.5845753E-2,-1.2444924E-1,-1.8614884E-1,1.20491765E-1],"categories":[0,2,4],"categories_nodes":[1],"categories_segments":[0],"categories_sizes":[3],"default_left":[1,1,1,0,0,0,0],"id":29,"left_children":[1,3,5,-1,-1,-1,-1],"loss_changes":[7.707843E0,1.0743363E1,9.9876795E0,0E0,0E0,0E0,0E0],"parents":[2147483647,0,0,1,1,2,2],"right_children":[2,4,6,-1,-1,-1,-1],"split_conditions":[3.962E3,1E-45,4E2,3.5845753E-2,-1.2444924E-1,-1.8614884E-1,1.20491765E-1],"split_indices":[3,0,1,0,0,0,0],"split_type":[0,1,0,0,0,0,0],"sum_hessian":[3.92E2,3.43E2,4.9E1,3.01E2,4.2E1,3.7E1,1.2E1],"tree_param":{"num_deleted":"0","num_feature":"7","num_nodes":"7","size_leaf_vector":"1"}},{"base_weights":[-5.8904313E-4,8.8007376E-2,-1.9124383E-1,3.4559143E-1,6.1918623E-3,-2.1754904E-1,4.8760645E-2],"categories":[2,3,4,8,11],"categories_nodes":[0],"categories_segments":[0],"categories_sizes":[5],"default_left":[1,0,1,0,0,0,0],"id":30,"left_children":[1,3,5,-1,-1,-1,-1],"loss_changes":[6.655124E0,1.9257324E1,2.3729078E1,0E0,0E0,0E0,0E0],"parents":[2147483647,0,0,1,1,2,2],"right_children":[2,4,6,-1,-1,-1,-1],"split_conditions":[1E-45,8.9E1,1.37E1,3.4559143E-1,6.1918623E-3,-2.1754904E-1,4.8760645E-2],"split_indices":[5,1,4,0,0,0,0],"split_type":[1,0,0,0,0,0,0],"sum_hessian":[3.92E2,2.68E2,1.24E2,1.5E1,2.53E2,4.9E1,7.5E1],"tree_param":{"num_deleted":"0","num_feature":"7","num_nodes":"7","size_leaf_vector":"1"}},{"base_weights":[5.347128E-5,-2.885379E-1,7.357976E-2,2.7500668E-1,-2.2844936E-1,3.132768E-1,-1.208128E-2],"categories":[],"categories_nodes":[],"categories_segments":[],"categories_sizes":[],"default_left":[0,1,0,0,0,0,0],"id":31,"left_children":[1,3,5,-1,-1,-1,-1],"loss_changes":[8.360318E0,4.629998E1,3.4742874E1,0E0,0E0,0E0,0E0],"parents":[2147483647,0,0,1,1,2,2],"right_children":[2,4,6,-1,-1,-1,-1],"split_conditions":[7.6E1,7.6E1,1.07E2,2.7500668E-1,-2.2844936E-1,3.132768E-1,-1.208128E-2],"split_indices":[2,1,1,0,0,0,0],"split_type":[0,0,0,0,0,0,0],"sum_hessian":[3.92E2,7.9E1,3.13E2,2.2E1,5.7E1,3.2E1,2.81E2],"tree_param":{"num_deleted":"0","num_feature":"7","num_nodes":"7","size_leaf_vector":"1"}},{"base_weights":[9.223438E-4,-1.5091534E0,1.6407935E-2,-1.01890184E-1,-5.357346E-1,6.270794E-2,-2.9158222E-2],"categories":[0],"categories_nodes":[1],"categories_segments":[0],"categories_sizes":[1],"default_left":[0,1,0,0,0,0,0],"id":32,"left_children":[1,3,5,-1,-1,-1,-1],"loss_changes":[9.214836E0,6.8757725E-1,8.554237E0,0E0,0E0,0E0,0E0],"parents":[2147483647,0,0,1,1,2,2],"right_children":[2,4,6,-1,-1,-1,-1],"split_conditions":[7.1E1,1E-45,1.52E1,-1.01890184E-1,-5.357346E-1,6.270794E-2,-2.9158222E-2],"split_indices":[1,0,4,0,0,0,0],"split_type":[0,1,0,0,0,0,0],"sum_hessian":[3.92E2,3E0,3.89E2,1E0,2E0,1.44E2,2.45E2],"tree_param":{"num_deleted":"0","num_feature":"7","num_nodes":"7","size_leaf_vector":"1"}},{"base_weights":[-8.9161267E-4,2.9267213E-1,-5.6763593E-2,3.2038027E-1,-2.3416911E-1,-1.01140216E-1,2.1412093E-2],"categories":[0,1,2,3,4,5,6,7,8,11],"categories_nodes":[0],"categories_segments":[0],"categories_sizes":[10],"default_left":[0,1,0,0,0,0,0],"id":33,"left_children":[1,3,5,-1,-1,-1,-1],"loss_changes":[6.4625945E0,5.325204E1,1.1915533E1,0E0,0E0,0E0,0E0],"parents":[2147483647,0,0,1,1,2,2],"right_children":[2,4,6,-1,-1,-1,-1],"split_conditions":[1E-45,1.52E1,9E1,3.2038027E-1,-2.3416911E-1,-1.01140216E-1,2.1412093E-2],"split_indices":[5,4,2,0,0,0,0],"split_type":[1,0,0,0,0,0,0],"sum_hessian":[3.92E2,6.2E1,3.3E2,3.6E1,2.6E1,1.03E2,2.27E2],"tree_param":{"num_deleted":"0","num_feature":"7","num_nodes":"7","size_leaf_vector":"1"}},{"base_weights":[-6.075439E-4,-1.3066149E0,1.2788961E-2,-8.981839E-2,-4.6276703E-1,4.4981405E-1,-7.828106E-4],"categories":[0],"categories_nodes":[1],"categories_segments":[0],"categories_sizes":[1],"default_left":[0,1,0,0,0,0,0],"id":34,"left_children":[1,3,5,-1,-1,-1,-1],"loss_changes":[6.8926125E0,4.8874855E-1,8.931411E0,0E0,0E0,0E0,0E0],"parents":[2147483647,0,0,1,1,2,2],"right_children":[2,4,6,-1,-1,-1,-1],"split_conditions":[7.1E1,1E-45,7.6E1,-8.981839E-2,-4.6276703E-1,4.4981405E-1,-7.828106E-4],"split_indices":[1,0,1,0,0,0,0],"split_type":[0,1,0,0,0,0,0],"sum_hessian":[3.92E2,3E0,3.89E2,1E0,2E0,3E0,3.86E2],"tree_param":{"num_deleted":"0","num_feature":"7","num_nodes":"7","size_leaf_vector":"1"}},{"base_weights":[-6.893706E-4,7.181659E-1,-2.3269406E-2,5.0052816E-1,-4.7983906E-1,-3.964456E-1,2.4099904E-3],"categories":[4,6,8],"categories_nodes":[1],"categories_segments":[0],"categories_sizes":[3],"default_left":[0,1,0,0,0,0,0],"id":35,"left_children":[1,3,5,-1,-1,-1,-1],"loss_changes":[6.395799E0,2.909683E1,1.5534206E1,0E0,0E0,0E0,0E0],"parents":[2147483647,0,0,1,1,2,2],"right_children":[2,4,6,-1,-1,-1,-1],"split_conditions":[6E1,1E-45,6.3E1,5.0052816E-1,-4.7983906E-1,-3.964456E-1,2.4099904E-3],"split_indices":[2,5,2,0,0,0,0],"split_type":[0,1,0,0,0,0,0],"sum_hessian":[3.92E2,1.1E1,3.81E2,8E0,3E0,8E0,3.73E2],"tree_param":{"num_deleted":"0","num_feature":"7","num_nodes":"7","size_leaf_vector":"1"}},{"base_weights":[-1.4331735E-3,-5.622902E-2,3.5114828E-1,-3.3315143E-1,-2.7278403E-4,3.06128E-1,-1.9149263E-1],"categories":[2,0,1,2,3,7,8,9,10],"categories_nodes":[0,2],"categories_segments":[0,1],"categories_sizes":[1,8],"default_left":[1,0,1,0,0,0,0],"id":36,"left_children":[1,3,5,-1,-1,-1,-1],"loss_changes":[7.6125045E0,1.988688E1,3.5749123E1,0E0,0E0,0E0,0E0],"parents":[2147483647,0,0,1,1,2,2],"right_children":[2,4,6,-1,-1,-1,-1],"split_conditions":[1E-45,1.98E3,1E-45,-3.3315143E-1,-2.7278403E-4,3.06128E-1,-1.9149263E-1],"split_indices":[6,3,5,0,0,0,0],"split_type":[1,0,1,0,0,0,0],"sum_hessian":[3.92E2,3.4E2,5.2E1,1.6E1,3.24E2,3.1E1,2.1E1],"tree_param":{"num_deleted":"0","num_feature":"7","num_nodes":"7","size_leaf_vector":"1"}},{"base_weights":[-1.5598594E-3,3.4361383E-1,-4.7181785E-2,7.695015E-1,2.1294376E-2,-2.3324805E-1,1.0311795E-2],"categories":[],"categories_nodes":[],"categories_segments":[],"categories_sizes":[],"default_left":[0,0,0,0,0,0,0],"id":37,"left_children":[1,3,5,-1,-1,-1,-1],"loss_changes":[6.2049756E0,2.7676615E1,2.075366E1,0E0,0E0,0E0,0E0],"parents":[2147483647,0,0,1,1,2,2],"right_children":[2,4,6,-1,-1,-1,-1],"split_conditions":[6.8E1,1.5E1,7.6E1,7.695015E-1,2.1294376E-2,-2.3324805E-1,1.0311795E-2],"split_indices":[2,4,2,0,0,0,0],"split_type":[0,0,0,0,0,0,0],"sum_hessian":[3.92E2,4.5E1,3.47E2,4E0,4.1E1,3.4E1,3.13E2],"tree_param":{"num_deleted":"0","num_feature":"7","num_nodes":"7","size_leaf_vector":"1"}},{"base_weights":[3.5349771E-4,-1.5393191E-2,1.0185804E0,4.5064725E-3,-3.1774673E-1,-4.2053607E-1,7.7376324E-1],"categories":[],"categories_nodes":[],"categories_segments":[],"categories_sizes":[],"default_left":[1,1,0,0,0,0,0],"id":38,"left_children":[1,3,5,-1,-1,-1,-1],"loss_changes":[6.316924E0,1.2333277E1,2.6279293E1,0E0,0E0,0E0,0E0],"parents":[2147483647,0,0,1,1,2,2],"right_children":[2,4,6,-1,-1,-1,-1],"split_conditions":[2.18E1,2.01E1,9.75E1,4.5064725E-3,-3.1774673E-1,-4.2053607E-1,7.7376324E-1],"split_indices":[4,4,1,0,0,0,0],"split_type":[0,0,0,0,0,0,0],"sum_hessian":[3.92E2,3.87E2,5E0,3.77E2,1E1,2E0,3E0],"tree_param":{"num_deleted":"0","num_feature":"7","num_nodes":"7","size_leaf_vector":"1"}},{"base_weights":[3.4907876E-4,3.3575185E-2,-4.5129278E-1,5.820254E-2,-1.9867532E-2,1.5421502E-1,-2.6544246E-1],"categories":[0,2,3,4,7,8,9,10,11,12],"categories_nodes":[2],"categories_segments":[0],"categories_sizes":[10],"default_left":[1,1,0,0,0,0,0],"id":39,"left_children":[1,3,5,-1,-1,-1,-1],"loss_changes":[5.912628E0,5.8889904E0,1.1754092E1,0E0,0E0,0E0,0E0],"parents":[2147483647,0,0,1,1,2,2],"right_children":[2,4,6,-1,-1,-1,-1],"split_conditions":[4.36E3,9.6E1,1E-45,5.820254E-2,-1.9867532E-2,1.5421502E-1,-2.6544246E-1],"split_indices":[3,1,5,0,0,0,0],"split_type":[0,0,1,0,0,0,0],"sum_hessian":[3.92E2,3.66E2,2.6E1,1.4E2,2.26E2,8E0,1.8E1],"tree_param":{"num_deleted":"0","num_feature":"7","num_nodes":"7","size_leaf_vector":"1"}},{"base_weights":[5.8758957E-5,-3.484423E-1,1.1971767E-2,2.7265772E-1,-4.9371924E-3],"categories":[],"categories_nodes":[],"categories_segments":[],"categories_sizes":[],"default_left":[0,0,0,0,0],"id":40,"left_children":[1,-1,3,-1,-1],"loss_changes":[5.4519844E0,0E0,9.959052E0,0E0,0E0],"parents":[2147483647,0,0,2,2],"right_children":[2,-1,4,-1,-1],"split_conditions":[1.795E3,-3.484423E-1,1.925E3,2.7265772E-1,-4.9371924E-3],"split_indices":[3,0,3,0,0],"split_type":[0,0,0,0,0],"sum_hessian":[3.92E2,3E0,3.89E2,1.1E1,3.78E2],"tree_param":{"num_deleted":"0","num_feature":"7","num_nodes":"5","size_leaf_vector":"1"}},{"base_weights":[-1.6380388E-4,-4.437181E-1,3.1174717E-2,1.7105742E-1,-3.6757934E-1,2.1969835E-1,-4.6571484E-3],"categories":[1],"categories_nodes":[1],"categories_segments":[0],"categories_sizes":[1],"default_left":[0,0,0,0,0,0,0],"id":41,"left_children":[1,3,5,-1,-1,-1,-1],"loss_changes":[5.4766645E0,2.1301485E1,1.2060729E1,0E0,0E0,0E0,0E0],"parents":[2147483647,0,0,1,1,2,2],"right_children":[2,4,6,-1,-1,-1,-1],"split_conditions":[1.98E3,1E-45,9.1E1,1.7105742E-1,-3.6757934E-1,2.1969835E-1,-4.6571484E-3],"split_indices":[3,6,1,0,0,0,0],"split_type":[0,1,0,0,0,0,0],"sum_hessian":[3.92E2,2.5E1,3.67E2,1.1E1,1.4E1,2.2E1,3.45E2],"tree_param":{"num_deleted":"0","num_feature":"7","num_nodes":"7","size_leaf_vector":"1"}},{"base_weights":[-6.724738E-5,1.3667119E-2,-1.0685875E0,1.1987498E-1,-9.142989E-3,-5.45608E-1,2.8977528E-1],"categories":[0],"categories_nodes":[0],"categories_segments":[0],"categories_sizes":[1],"default_left":[1,0,0,0,0,0,0],"id":42,"left_children":[1,3,5,-1,-1,-1,-1],"loss_changes":[5.7820554E0,6.639098E0,9.3871765E0,0E0,0E0,0E0,0E0],"parents":[2147483647,0,0,1,1,2,2],"right_children":[2,4,6,-1,-1,-1,-1],"split_conditions":[1E-45,9.6E1,8.1E1,1.1987498E-1,-9.142989E-3,-5.45608E-1,2.8977528E-1],"split_indices":[0,1,1,0,0,0,0],"split_type":[1,0,0,0,0,0,0],"sum_hessian":[3.92E2,3.88E2,4E0,3.9E1,3.49E2,3E0,1E0],"tree_param":{"num_deleted":"0","num_feature":"7","num_nodes":"7","size_leaf_vector":"1"}},{"base_weights":[-4.1583597E-4,-3.35503E-1,1.1051154E-2,2.1781822E-1,-3.4850491E-3],"categories":[],"categories_nodes":[],"categories_segments":[],"categories_sizes":[],"default_left":[0,0,0,0,0],"id":43,"left_children":[1,-1,3,-1,-1],"loss_changes":[5.050329E0,0E0,6.3294864E0,0E0,0E0],"parents":[2147483647,0,0,2,2],"right_children":[2,-1,4,-1,-1],"split_conditions":[1.795E3,-3.35503E-1,1.925E3,2.1781822E-1,-3.4850491E-3],"split_indices":[3,0,3,0,0],"split_type":[0,0,0,0,0],"sum_hessian":[3.92E2,3E0,3.89E2,1.1E1,3.78E2],"tree_param":{"num_deleted":"0","num_feature":"7","num_nodes":"5","size_leaf_vector":"1"}},{"base_weights":[-5.995093E-4,-4.4569588E-1,3.0849146E-2,-2.833344E-2,-5.7061845E-1,4.996442E-1,3.8552575E-3],"categories":[],"categories_nodes":[],"categories_segments":[],"categories_sizes":[],"default_left":[0,1,0,0,0,0,0],"id":44,"left_children":[1,3,5,-1,-1,-1,-1],"loss_changes":[5.514838E0,1.3120661E1,1.0805366E1,0E0,0E0,0E0,0E0],"parents":[2147483647,0,0,1,1,2,2],"right_children":[2,4,6,-1,-1,-1,-1],"split_conditions":[1.98E3,9.7E1,5.2E1,-2.833344E-2,-5.7061845E-1,4.996442E-1,3.8552575E-3],"split_indices":[3,1,2,0,0,0,0],"split_type":[0,0,0,0,0,0,0],"sum_hessian":[3.92E2,2.5E1,3.67E2,2.1E1,4E0,3E0,3.64E2],"tree_param":{"num_deleted":"0","num_feature":"7","num_nodes":"7","size_leaf_vector":"1"}},{"base_weights":[-6.6249544E-4,-1.286739E-1,8.41411E-2,1.3828578E-2,-4.7119823E-1,1.9333227E-1,-5.843281E-2],"categories":[],"categories_nodes":[],"categories_segments":[],"categories_sizes":[],"default_left":[0,1,0,0,0,0,0],"id":45,"left_children":[1,3,5,-1,-1,-1,-1],"loss_changes":[4.2771664E0,3.963872E1,3.716322E1,0E0,0E0,0E0,0E0],"parents":[2147483647,0,0,1,1,2,2],"right_children":[2,4,6,-1,-1,-1,-1],"split_conditions":[1.68E2,9.6E1,3.25E3,1.3828578E-2,-4.7119823E-1,1.9333227E-1,-5.843281E-2],"split_indices":[1,2,3,0,0,0,0],"split_type":[0,0,0,0,0,0,0],"sum_hessian":[3.92E2,1.56E2,2.36E2,1.4E2,1.6E1,7.8E1,1.58E2],"tree_param":{"num_deleted":"0","num_feature":"7","num_nodes":"7","size_leaf_vector":"1"}},{"base_weights":[-1.284114E-3,2.3255405E-1,-6.0856625E-2,2.0241679E-1,-2.1352409E-1,3.5988127E-3,-2.6049042E-1],"categories":[0,2,0,4],"categories_nodes":[1,2],"categories_segments":[0,2],"categories_sizes":[2,2],"default_left":[0,0,1,0,0,0,0],"id":46,"left_children":[1,3,5,-1,-1,-1,-1],"loss_changes":[5.4887705E0,3.388345E1,1.8481308E1,0E0,0E0,0E0,0E0],"parents":[2147483647,0,0,1,1,2,2],"right_children":[2,4,6,-1,-1,-1,-1],"split_conditions":[1.4E1,1E-45,1E-45,2.0241679E-1,-2.1352409E-1,3.5988127E-3,-2.6049042E-1],"split_indices":[4,0,0,0,0,0,0],"split_type":[0,1,1,0,0,0,0],"sum_hessian":[3.92E2,7.9E1,3.13E2,5.4E1,2.5E1,2.88E2,2.5E1],"tree_param":{"num_deleted":"0","num_feature":"7","num_nodes":"7","size_leaf_vector":"1"}},{"base_weights":[-1.5808255E-3,-1.4515986E-1,9.455082E-2,1.0339886E-2,-4.1589108E-1,1.22568406E-1,-7.352383E-2],"categories":[],"categories_nodes":[],"categories_segments":[],"categories_sizes":[],"default_left":[0,0,0,0,0,0,0],"id":47,"left_children":[1,3,5,-1,-1,-1,-1],"loss_changes":[5.4381027E0,3.5272594E1,2.5268932E1,0E0,0E0,0E0,0E0],"parents":[2147483647,0,0,1,1,2,2],"right_children":[2,4,6,-1,-1,-1,-1],"split_conditions":[2.9E3,2.702E3,3.18E2,1.0339886E-2,-4.1589108E-1,1.22568406E-1,-7.352383E-2],"split_indices":[3,3,1,0,0,0,0],"split_type":[0,0,0,0,0,0,0],"sum_hessian":[3.92E2,1.57E2,2.35E2,1.38E2,1.9E1,1.22E2,1.13E2],"tree_param":{"num_deleted":"0","num_feature":"7","num_nodes":"7","size_leaf_vector":"1"}},{"base_weights":[-2.0137695E-3,-2.4740739E-1,6.051331E-2,-1.16429985E-1,5.821803E-1,2.3261367E-1,-9.58329E-3],"categories":[],"categories_nodes":[],"categories_segments":[],"categories_sizes":[],"default_left":[0,1,0,0,0,0,0],"id":48,"left_children":[1,3,5,-1,-1,-1,-1],"loss_changes":[6.045064E0,2.5380066E1,2.0778524E1,0E0,0E0,0E0,0E0],"parents":[2147483647,0,0,1,1,2,2],"right_children":[2,4,6,-1,-1,-1,-1],"split_conditions":[7.6E1,2.565E3,1.08E2,-1.16429985E-1,5.821803E-1,2.3261367E-1,-9.58329E-3],"split_indices":[2,3,1,0,0,0,0],"split_type":[0,0,0,0,0,0,0],"sum_hessian":[3.92E2,7.9E1,3.13E2,7.5E1,4E0,3.5E1,2.78E2],"tree_param":{"num_deleted":"0","num_feature":"7","num_nodes":"7","size_leaf_vector":"1"}},{"base_weights":[3.4242973E-4,-6.0843244E-2,2.649245E-1,3.1055395E-2,-1.00692384E-1,1.393644E0,4.320399E-3],"categories":[],"categories_nodes":[],"categories_segments":[],"categories_sizes":[],"default_left":[1,1,0,0,0,0,0],"id":49,"left_children":[1,3,5,-1,-1,-1,-1],"loss_changes":[6.378251E0,1.4487909E1,8.114296E1,0E0,0E0,0E0,0E0],"parents":[2147483647,0,0,1,1,2,2],"right_children":[2,4,6,-1,-1,-1,-1],"split_conditions":[2.6E2,2.582E3,1.07E2,3.1055395E-2,-1.00692384E-1,1.393644E0,4.320399E-3],"split_indices":[1,3,2,0,0,0,0],"split_type":[0,0,0,0,0,0,0],"sum_hessian":[3.92E2,3.19E2,7.3E1,2E2,1.19E2,3E0,7E1],"tree_param":{"num_deleted":"0","num_feature":"7","num_nodes":"7","size_leaf_vector":"1"}},{"base_weights":[3.619803E-3,1.00857556E-1,-1.4318891E-1,4.6658984E-1,8.9801075E-3,2.3432775E-1,-1.3040544E-1],"categories":[0,1,2,3,4,5,6,7,8,9,11,12,1,3,4],"categories_nodes":[1,2],"categories_segments":[0,12],"categories_sizes":[12,3],"default_left":[1,0,1,0,0,0,0],"id":50,"left_children":[1,3,5,-1,-1,-1,-1],"loss_changes":[5.6246543E0,2.4401094E1,4.2639126E1,0E0,0E0,0E0,0E0],"parents":[2147483647,0,0,1,1,2,2],"right_children":[2,4,6,-1,-1,-1,-1],"split_conditions":[1.52E1,1E-45,1E-45,4.6658984E-1,8.9801075E-3,2.3432775E-1,-1.3040544E-1],"split_indices":[4,5,0,0,0,0,0],"split_type":[0,1,1,0,0,0,0],"sum_hessian":[3.92E2,2.36E2,1.56E2,1E1,2.26E2,3.7E1,1.19E2],"tree_param":{"num_deleted":"0","num_feature":"7","num_nodes":"7","size_leaf_vector":"1"}},{"base_weights":[4.0086014E-3,-7.791999E-2,1.5596302E-1,1.9177912E-2,-3.0179206E-1,1.832561E-1,-1.3367271E-1],"categories":[0,1],"categories_nodes":[2],"categories_segments":[0],"categories_sizes":[2],"default_left":[1,1,0,0,0,0,0],"id":51,"left_children":[1,3,5,-1,-1,-1,-1],"loss_changes":[4.904771E0,3.3764404E1,3.803372E1,0E0,0E0,0E0,0E0],"parents":[2147483647,0,0,1,1,2,2],"right_children":[2,4,6,-1,-1,-1,-1],"split_conditions":[2.9E3,2.25E2,1E-45,1.9177912E-2,-3.0179206E-1,1.832561E-1,-1.3367271E-1],"split_indices":[3,1,0,0,0,0,0],"split_type":[0,0,1,0,0,0,0],"sum_hessian":[3.92E2,2.55E2,1.37E2,2.22E2,3.3E1,7.8E1,5.9E1],"tree_param":{"num_deleted":"0","num_feature":"7","num_nodes":"7","size_leaf_vector":"1"}},{"base_weights":[2.2130802E-3,-1.3808987E-1,9.514704E-2,3.332143E-2,-2.0205495E-1,9.0025514E-2,-7.470614E-2],"categories":[],"categories_nodes":[],"categories_segments":[],"categories_sizes":[],"default_left":[0,1,0,0,0,0,0],"id":52,"left_children":[1,3,5,-1,-1,-1,-1],"loss_changes":[5.1374297E0,2.1019798E1,1.6791046E1,0E0,0E0,0E0,0E0],"parents":[2147483647,0,0,1,1,2,2],"right_children":[2,4,6,-1,-1,-1,-1],"split_conditions":[1.68E2,8.4E1,1.53E2,3.332143E-2,-2.0205495E-1,9.0025514E-2,-7.470614E-2],"split_indices":[1,2,2,0,0,0,0],"split_type":[0,0,0,0,0,0,0],"sum_hessian":[3.92E2,1.56E2,2.36E2,1.07E2,4.9E1,1.48E2,8.8E1],"tree_param":{"num_deleted":"0","num_feature":"7","num_nodes":"7","size_leaf_vector":"1"}}]},"name":"gbtree"},"learner_model_param":{"base_score":"2.3445919E1","boost_from_average":"1","num_class":"0","num_feature":"7","num_target":"1"},"objective":{"name":"reg:squarederror","reg_loss_param":{"scale_pos_weight":"1"}}},"version":[3,0,5]}