{"learner":{"attributes":{},"feature_names":["Age","Employment","Education","Marital","Occupation","Income","Gender","Hours"],"feature_types":["float","c","c","c","c","float","c","float"],"gradient_booster":{"model":{"gbtree_model_param":{"num_parallel_tree":"1","num_trees":"17"},"iteration_indptr":[0,1,2,3,4,5,6,7,8,9,10,11,12,13,14,15,16,17],"tree_info":[0,0,0,0,0,0,0,0,0,0,0,0,0,0,0,0,0],"trees":[{"base_weights":[-1.15858674E-1,9.497679E-1,-7.0371556E-1,1.6420168E0,1.6988006E-1,3.385645E-1,-9.237014E-1,2.077976E0,3.1932235E-1,1.3321276E0,-8.719773E-2,1.3710233E0,-7.090982E-2,-2.71869E-1,-1.0726655E0,2.812098E-1,2.2804353E0,-2.1263307E-1,5.4214346E-1,2.2366917E0,4.350425E-1,1.1716597E-1,-9.9856603E-1,3.8548517E-1,2.022667E0,1.4666564E0,-2.69206E-1,1.7593731E-1,-1.0365963E0,-4.6612632E-1,-1.1290932E0,2.6483667E-1,-2.7628314E-1,-2.7698606E-2,2.4018965E0,9.4027793E-1,5.8023214E-2,6.347483E-2,8.200609E-1,-1.4336771E-1,1.0473142E0,4.1520515E-1,-6.2000656E-1,-1.0695227E0,-7.622451E-2,3.5588542E-1,-4.3684772E-1,2.4968122E-1,6.9317925E-1,1.5351538E-1,5.3834224E-1,-8.9333626E-4,-8.5530925E-1,-4.7778702E-1,6.399895E-1,1.6078286E-2,-3.7014276E-1,-8.217351E-1,2.1804735E-1,-1.1410794E0,2.5239764E-2,-2.4437277E-1,1.1136425E-1,2.0317416E-1,-2.1592385E-1,7.553821E-1,1.6563186E-1,1.1564556E-1,4.863023E-1,-2.5559816E-1,1.3157094E-1,-2.5559816E-1,1.8538316E-1,4.825728E-1,2.5239764E-2,-6.4918615E-2,1.8429193E-1,6.490129E-2,-2.7098945E-1,-1.0303586E-1,-3.4734118E-1,2.5239764E-2,-2.3131149E-1,-3.045643E-1,7.134184E-2,-3.3853596E-1,-4.9475566E-2,1.4208628E-1,-2.4635622E-1,3.3813944E-1,-3.2423582E-2,-3.1479988E-1,-8.309582E-3,-1.9040708E-1,2.7683946E-1,-2.7603197E-1,-3.7171537E-1],"categories":[0,1,3,4,5,2,4,6,9,10,11,12,13,14,15,0,2,4,6,8,9,10,11,12,13,14,15,0,1,3,4,5,6,9,11,13,0,3,4,5,6,8,9,10,11,12,13,0,1,3,5,6,7,8,9,10,11,12,13,14,15,0,1,2,4,5,6,8,9,10,11,12,13,14,15,0,1,2,3,5,0,1,3,5,7,9,10,11,12,13,0,1,2,3,4,6,7,8,11,13,0,0,1,2,3,5,0,1,2,3,4,5,6,7,8,10,11,12,13,0,1,2,3,4,5,0,1,6,0,2,3,4,5,6,7,8,9,10,11,12,13,0,2,4,4,0,1,0,1,3,4,5,6,7,8,9,10,11,12,13,0,1,3,4,5,6,0,2,4,8,9,10,11,14],"categories_nodes":[0,1,2,3,4,10,12,13,14,21,23,26,28,32,34,40,42,43,46,53,54,59],"categories_segments":[0,5,15,27,36,47,61,75,80,90,100,101,106,119,125,128,141,144,145,147,160,166],"categories_sizes":[5,10,12,9,11,14,14,5,10,10,1,5,13,6,3,13,3,1,2,13,6,8],"default_left":[0,1,0,1,0,0,0,0,0,0,1,1,1,1,0,1,0,0,0,0,0,1,1,0,0,1,1,0,0,0,1,0,1,0,1,0,0,0,0,1,1,0,1,0,0,0,0,0,0,0,0,0,0,1,0,0,0,0,1,1,0,0,0,0,0,0,0,0,0,0,0,0,0,0,0,0,0,0,0,0,0,0,0,0,0,0,0,0,0,0,0,0,0,0,0,0,0],"id":0,"left_children":[1,3,5,7,9,11,13,15,17,19,21,23,25,27,29,31,33,-1,35,37,39,41,43,45,47,49,51,53,55,57,59,-1,61,63,65,67,69,-1,-1,71,73,75,77,79,-1,-1,81,-1,-1,-1,-1,83,85,87,89,-1,-1,91,93,95,-1,-1,-1,-1,-1,-1,-1,-1,-1,-1,-1,-1,-1,-1,-1,-1,-1,-1,-1,-1,-1,-1,-1,-1,-1,-1,-1,-1,-1,-1,-1,-1,-1,-1,-1,-1,-1],"loss_changes":[2.2880005E2,6.98505E1,5.4258194E1,3.8952057E1,1.8700287E1,1.7741398E1,1.8598114E1,1.8088867E1,4.556312E0,8.218655E0,9.778028E0,6.863323E0,9.79598E0,1.3033751E1,4.8817596E0,2.3751662E0,1.3000076E1,0E0,2.9396605E0,4.8535423E0,2.6038713E0,9.763048E0,2.3570442E-1,4.451171E0,4.5174408E-1,2.3293781E-1,4.4271393E0,7.7451663E0,3.077118E0,3.86566E0,2.1880188E0,0E0,1.7174385E0,2.0949013E0,8.020142E0,2.569613E0,3.1704295E0,0E0,0E0,2.9230978E0,1.7492867E0,4.082557E0,3.2416596E0,1.4452744E-1,0E0,0E0,7.051343E-1,0E0,0E0,0E0,0E0,5.160226E0,1.4811049E0,3.9022453E0,5.504099E0,0E0,0E0,1.8106303E0,4.174889E0,1.9454193E0,0E0,0E0,0E0,0E0,0E0,0E0,0E0,0E0,0E0,0E0,0E0,0E0,0E0,0E0,0E0,0E0,0E0,0E0,0E0,0E0,0E0,0E0,0E0,0E0,0E0,0E0,0E0,0E0,0E0,0E0,0E0,0E0,0E0,0E0,0E0,0E0,0E0],"parents":[2147483647,0,0,1,1,2,2,3,3,4,4,5,5,6,6,7,7,8,8,9,9,10,10,11,11,12,12,13,13,14,14,15,15,16,16,18,18,19,19,20,20,21,21,22,22,23,23,24,24,25,25,26,26,27,27,28,28,29,29,30,30,32,32,33,33,34,34,35,35,36,36,39,39,40,40,41,41,42,42,43,43,46,46,51,51,52,52,53,53,54,54,57,57,58,58,59,59],"right_children":[2,4,6,8,10,12,14,16,18,20,22,24,26,28,30,32,34,-1,36,38,40,42,44,46,48,50,52,54,56,58,60,-1,62,64,66,68,70,-1,-1,72,74,76,78,80,-1,-1,82,-1,-1,-1,-1,84,86,88,90,-1,-1,92,94,96,-1,-1,-1,-1,-1,-1,-1,-1,-1,-1,-1,-1,-1,-1,-1,-1,-1,-1,-1,-1,-1,-1,-1,-1,-1,-1,-1,-1,-1,-1,-1,-1,-1,-1,-1,-1,-1],"split_conditions":[NaN,NaN,NaN,NaN,NaN,4.711862E4,5.361487E4,3.2E1,3.1E1,5E1,NaN,3.3E1,NaN,NaN,NaN,1.942123E4,3E1,-2.1263307E-1,4.602574E4,3.7E1,6.556306E4,NaN,5.423897E4,NaN,2.208663E4,4.4E1,NaN,4.3E1,NaN,2.8163206E5,7E1,2.6483667E-1,NaN,6E1,NaN,3.349389E4,5.514782E4,6.347483E-2,8.200609E-1,4E1,NaN,3.6E1,NaN,NaN,-7.622451E-2,3.5588542E-1,NaN,2.4968122E-1,6.9317925E-1,1.5351538E-1,5.3834224E-1,2.7E1,5.7E1,NaN,NaN,1.6078286E-2,-3.7014276E-1,5.6E1,2.8E1,NaN,2.5239764E-2,-2.4437277E-1,1.1136425E-1,2.0317416E-1,-2.1592385E-1,7.553821E-1,1.6563186E-1,1.1564556E-1,4.863023E-1,-2.5559816E-1,1.3157094E-1,-2.5559816E-1,1.8538316E-1,4.825728E-1,2.5239764E-2,-6.4918615E-2,1.8429193E-1,6.490129E-2,-2.7098945E-1,-1.0303586E-1,-3.4734118E-1,2.5239764E-2,-2.3131149E-1,-3.045643E-1,7.134184E-2,-3.3853596E-1,-4.9475566E-2,1.4208628E-1,-2.4635622E-1,3.3813944E-1,-3.2423582E-2,-3.1479988E-1,-8.309582E-3,-1.9040708E-1,2.7683946E-1,-2.7603197E-1,-3.7171537E-1],"split_indices":[3,2,2,4,4,5,5,0,0,0,2,0,2,3,4,5,7,0,5,0,5,4,5,6,5,0,1,0,4,5,7,0,2,0,1,5,5,0,0,7,4,0,1,1,0,0,4,0,0,0,0,0,0,4,4,0,0,7,0,2,0,0,0,0,0,0,0,0,0,0,0,0,0,0,0,0,0,0,0,0,0,0,0,0,0,0,0,0,0,0,0,0,0,0,0,0,0],"split_type":[1,1,1,1,1,0,0,0,0,0,1,0,1,1,1,0,0,0,0,0,0,1,0,1,0,0,1,0,1,0,0,0,1,0,1,0,0,0,0,0,1,0,1,1,0,0,1,0,0,0,0,0,0,1,1,0,0,0,0,1,0,0,0,0,0,0,0,0,0,0,0,0,0,0,0,0,0,0,0,0,0,0,0,0,0,0,0,0,0,0,0,0,0,0,0,0,0],"sum_hessian":[3.63174E2,1.2889905E2,2.3427496E2,6.770068E1,6.1198357E1,4.0735157E1,1.9353981E2,5.0488647E1,1.7212038E1,1.0327223E1,5.0871136E1,1.0900958E1,2.98342E1,3.652777E1,1.5701204E2,5.3548565E0,4.513379E1,2.6774282E0,1.453461E1,4.398632E0,5.928591E0,4.2265118E1,8.606019E0,4.972367E0,5.928591E0,2.6774282E0,2.715677E1,2.3523119E1,1.3004651E1,1.4152121E1,1.4285992E2,2.2949386E0,3.059918E0,2.2949386E0,4.2838852E1,7.45855E0,7.0760603E0,1.1474693E0,3.2511628E0,3.4424076E0,2.4861834E0,3.0407934E1,1.1857182E1,7.45855E0,1.1474693E0,2.2949386E0,2.6774282E0,1.9124486E0,4.0161424E0,1.3387141E0,1.3387141E0,1.9315731E1,7.8410397E0,9.753489E0,1.376963E1,2.1036935E0,1.0900958E1,9.179754E0,4.972367E0,1.4152121E2,1.3387141E0,1.529959E0,1.529959E0,1.1474693E0,1.1474693E0,3.9970177E1,2.868673E0,4.972367E0,2.4861834E0,1.7212038E0,5.3548565E0,1.7212038E0,1.7212038E0,1.1474693E0,1.3387141E0,7.267305E0,2.3140629E1,3.059918E0,8.797264E0,1.3387141E0,6.119836E0,1.3387141E0,1.3387141E0,3.059918E0,1.6255814E1,5.1636114E0,2.6774282E0,2.4861834E0,7.267305E0,8.032285E0,5.737346E0,6.884815E0,2.2949386E0,2.2949386E0,2.6774282E0,4.666375E1,9.485745E1],"tree_param":{"num_deleted":"0","num_feature":"8","num_nodes":"97","size_leaf_vector":"1"}},{"base_weights":[-1.1233298E-1,5.7617205E-1,-5.799555E-1,1.1655824E0,2.6421753E-1,2.3835514E-1,-7.849407E-1,2.5715778E-2,1.2345973E0,4.347735E-1,-4.243296E-1,1.5456245E0,4.80819E-2,-3.804698E-1,-1.0312548E0,-2.4454965E-1,3.315297E-1,1.3756075E0,5.821839E-1,1.0714551E0,2.5463334E-1,-8.371418E-1,1.109769E-1,5.5277175E-1,5.620642E-2,4.2858803E-1,-5.16825E-1,2.0930637E-2,-8.929957E-1,-1.0620974E0,-7.168152E-2,1.0036637E0,1.6674644E0,-4.9261227E-1,1.0019362E0,-1.3665426E-1,1.4251981E0,2.1853058E-2,7.167705E-1,-2.4436733E-2,-9.6856683E-1,8.330199E-1,-4.1653946E-1,-6.2208116E-1,7.5225794E-1,5.9199154E-2,-1.0488871E0,9.2308444E-1,-3.3625922E-1,-1.0959141E0,-2.6255578E-1,-7.346823E-1,-1.1090877E0,-5.809195E-1,2.2536106E-1,3.3999786E-2,3.4508112E-1,5.412689E-1,1.8896271E-1,9.682922E-4,-2.3475559E-1,6.0711972E-2,4.7102067E-1,-2.0657223E-1,1.7441717E-1,-7.9041526E-2,4.7896123E-1,1.8664983E-1,-4.282059E-2,2.8929392E-1,-6.234446E-3,-8.153969E-2,-3.1242922E-1,-4.6788376E-2,3.5859567E-1,1.1471201E-1,-2.3432355E-1,3.2979036E-3,-2.4797109E-1,4.0893704E-1,3.2184275E-3,1.7804614E-1,-2.179316E-1,-3.447174E-1,-5.6618337E-2,3.7618145E-1,-9.097506E-2,-1.7053409E-1,9.3226835E-2,-8.131324E-2,-3.406601E-1,-2.125187E-1,1.8598631E-1,-3.3355886E-1,-9.040568E-2,-2.6910648E-1,-3.5713074E-1,-2.1350501E-1,-4.4419497E-2],"categories":[0,1,3,4,5,0,3,4,5,6,9,10,11,12,13,0,2,4,6,8,9,10,11,12,13,14,15,0,3,11,13,0,1,2,4,5,6,8,9,10,11,12,13,14,15,0,1,3,4,5,0,2,3,6,8,9,10,11,12,13,14,15,2,3,4,6,7,9,10,11,12,13,14,15,0,1,2,3,5,6,0,1,2,4,0,1,3,4,5,6,9,10,11,13,0,1,2,3,5,10,11,12,13,0,1,3,4,5,6,7,8,0,1,2,3,5,6,0,1,3,4,5,6,7,8,9,10,11,12,13,14,15,0,1,2,3,5,6,7,8,9,10,11,12,13,14,15,0,1,2,3,4,5,6,7,8,9,0,1,2,3,11,0,1,3,4,5,6,7,8,9,11,12,13,0,1,2,3,0,0,1,2,3,0,1,2,3,4,5,6,7,8,9,10,11,12,13,14,0,1,2,3,4,5,6,7,8,9,10],"categories_nodes":[0,1,2,4,5,6,8,9,11,12,22,27,29,33,34,37,38,41,42,44,45,47,50,52,53],"categories_segments":[0,5,15,27,31,45,50,62,74,75,80,84,94,103,111,117,132,147,157,162,174,178,179,183,198],"categories_sizes":[5,10,12,4,14,5,12,12,1,5,4,10,9,8,6,15,15,10,5,12,4,1,4,15,11],"default_left":[0,0,0,0,1,1,1,0,1,0,1,1,0,1,1,0,0,1,0,0,1,0,1,0,0,0,0,0,0,0,1,1,1,1,0,0,0,0,1,0,0,0,1,1,1,1,0,1,1,0,1,1,1,1,0,0,0,0,0,0,0,0,0,0,0,0,0,0,0,0,0,0,0,0,0,0,0,0,0,0,0,0,0,0,0,0,0,0,0,0,0,0,0,0,0,0,0,0,0],"id":1,"left_children":[1,3,5,7,9,11,13,15,17,19,21,23,25,27,29,-1,-1,31,33,35,37,39,41,-1,-1,43,45,47,49,51,53,55,57,59,61,63,65,67,69,-1,71,73,75,77,79,81,83,85,87,89,91,93,95,97,-1,-1,-1,-1,-1,-1,-1,-1,-1,-1,-1,-1,-1,-1,-1,-1,-1,-1,-1,-1,-1,-1,-1,-1,-1,-1,-1,-1,-1,-1,-1,-1,-1,-1,-1,-1,-1,-1,-1,-1,-1,-1,-1,-1,-1],"loss_changes":[1.13487656E2,2.592178E1,3.5378815E1,3.8291245E0,1.1291105E1,1.0570032E1,1.634533E1,4.3708515E0,3.4544754E0,8.477477E0,4.353875E0,1.8348484E0,8.473082E0,1.3426403E1,2.9968643E0,0E0,0E0,2.3755875E0,4.984474E0,7.2521744E0,6.522833E0,1.013946E0,3.881027E0,0E0,0E0,8.454364E0,4.9362664E0,1.2402546E1,3.376976E0,7.318039E-1,2.2407207E0,2.3382206E0,1.614914E0,5.007737E-1,3.0838585E0,2.2442284E0,4.1418533E0,4.1844163E0,3.7315006E0,0E0,1.8816376E-1,1.7093458E0,2.054244E0,7.959509E-1,8.323003E0,4.0338798E0,5.000801E-1,4.807E0,4.3252068E0,3.9016724E-1,3.7010932E0,2.2112112E0,4.1483307E-1,7.709324E-2,0E0,0E0,0E0,0E0,0E0,0E0,0E0,0E0,0E0,0E0,0E0,0E0,0E0,0E0,0E0,0E0,0E0,0E0,0E0,0E0,0E0,0E0,0E0,0E0,0E0,0E0,0E0,0E0,0E0,0E0,0E0,0E0,0E0,0E0,0E0,0E0,0E0,0E0,0E0,0E0,0E0,0E0,0E0,0E0,0E0],"parents":[2147483647,0,0,1,1,2,2,3,3,4,4,5,5,6,6,7,7,8,8,9,9,10,10,11,11,12,12,13,13,14,14,17,17,18,18,19,19,20,20,21,21,22,22,25,25,26,26,27,27,28,28,29,29,30,30,31,31,32,32,33,33,34,34,35,35,36,36,37,37,38,38,40,40,41,41,42,42,43,43,44,44,45,45,46,46,47,47,48,48,49,49,50,50,51,51,52,52,53,53],"right_children":[2,4,6,8,10,12,14,16,18,20,22,24,26,28,30,-1,-1,32,34,36,38,40,42,-1,-1,44,46,48,50,52,54,56,58,60,62,64,66,68,70,-1,72,74,76,78,80,82,84,86,88,90,92,94,96,98,-1,-1,-1,-1,-1,-1,-1,-1,-1,-1,-1,-1,-1,-1,-1,-1,-1,-1,-1,-1,-1,-1,-1,-1,-1,-1,-1,-1,-1,-1,-1,-1,-1,-1,-1,-1,-1,-1,-1,-1,-1,-1,-1,-1,-1],"split_conditions":[NaN,NaN,NaN,3.1E1,NaN,NaN,NaN,1.992582E5,NaN,NaN,4.2E1,NaN,NaN,5.361487E4,5.6E1,-2.4454965E-1,3.315297E-1,2.946126E4,3.623539E4,3.6E1,4.2E1,2.9E1,NaN,5.5277175E-1,5.620642E-2,3E1,8.939802E4,NaN,5.2E1,NaN,4.4E1,2.5E1,5.7E1,NaN,NaN,4.452723E4,3.6E1,NaN,NaN,-2.4436733E-2,2.787889E4,NaN,NaN,2.895824E4,NaN,NaN,6.2E1,NaN,3.588085E4,1.7E1,NaN,4E1,NaN,NaN,2.2536106E-1,3.3999786E-2,3.4508112E-1,5.412689E-1,1.8896271E-1,9.682922E-4,-2.3475559E-1,6.0711972E-2,4.7102067E-1,-2.0657223E-1,1.7441717E-1,-7.9041526E-2,4.7896123E-1,1.8664983E-1,-4.282059E-2,2.8929392E-1,-6.234446E-3,-8.153969E-2,-3.1242922E-1,-4.6788376E-2,3.5859567E-1,1.1471201E-1,-2.3432355E-1,3.2979036E-3,-2.4797109E-1,4.0893704E-1,3.2184275E-3,1.7804614E-1,-2.179316E-1,-3.447174E-1,-5.6618337E-2,3.7618145E-1,-9.097506E-2,-1.7053409E-1,9.3226835E-2,-8.131324E-2,-3.406601E-1,-2.125187E-1,1.8598631E-1,-3.3355886E-1,-9.040568E-2,-2.6910648E-1,-3.5713074E-1,-2.1350501E-1,-4.4419497E-2],"split_indices":[3,4,2,7,4,2,3,5,2,2,0,6,1,5,7,0,0,5,5,0,7,0,2,0,0,0,5,4,7,4,0,0,0,4,1,5,7,2,2,0,5,2,4,5,4,1,7,6,5,7,4,7,2,4,0,0,0,0,0,0,0,0,0,0,0,0,0,0,0,0,0,0,0,0,0,0,0,0,0,0,0,0,0,0,0,0,0,0,0,0,0,0,0,0,0,0,0,0,0],"split_type":[1,1,1,0,1,1,1,0,1,1,0,1,1,0,0,0,0,0,0,0,0,0,1,0,0,0,0,1,0,1,0,0,0,1,1,0,0,1,1,0,0,1,1,0,1,1,0,1,0,0,1,0,1,1,0,0,0,0,0,0,0,0,0,0,0,0,0,0,0,0,0,0,0,0,0,0,0,0,0,0,0,0,0,0,0,0,0,0,0,0,0,0,0,0,0,0,0,0,0],"sum_hessian":[3.5045154E2,1.4165434E2,2.0879718E2,4.807829E1,9.357606E1,4.179335E1,1.6700383E2,2.8231452E0,4.5255142E1,7.529399E1,1.8282066E1,4.4050865E0,3.7388264E1,6.417199E1,1.0283184E2,1.7244883E0,1.098657E0,3.6300743E1,8.954398E0,1.5513979E1,5.978001E1,1.0003677E1,8.278389E0,3.3222175E0,1.082869E0,2.2484571E1,1.4903691E1,3.652527E1,2.7646727E1,9.952602E1,3.3058255E0,1.7912214E1,1.838853E1,2.466142E0,6.488256E0,3.6527457E0,1.1861234E1,4.045165E1,1.9328363E1,1.7220098E0,8.281668E0,3.2503314E0,5.0280576E0,5.0782E0,1.7406372E1,7.582941E0,7.32075E0,9.910369E0,2.6614899E1,2.0356339E1,7.290386E0,1.4578909E1,8.4947105E1,2.2237284E0,1.082097E0,2.7831857E0,1.5129027E1,1.5594186E1,2.7943456E0,1.2747486E0,1.1913934E0,3.2585437E0,3.229712E0,2.0884879E0,1.5642577E0,1.0430928E0,1.0818141E1,8.106002E0,3.2345646E1,1.4241184E1,5.0871797E0,1.2318852E0,7.0497828E0,1.0241617E0,2.2261698E0,1.5600895E0,3.4679682E0,1.4708536E0,3.6073463E0,9.084437E0,8.321934E0,4.659047E0,2.923894E0,6.2562995E0,1.0644505E0,7.787E0,2.123369E0,1.9675564E1,6.9393334E0,1.2922884E0,1.906405E1,4.974558E0,2.3158283E0,6.957278E0,7.621631E0,2.6885725E1,5.8061386E1,1.213094E0,1.0106344E0],"tree_param":{"num_deleted":"0","num_feature":"8","num_nodes":"99","size_leaf_vector":"1"}},{"base_weights":[-9.903911E-2,2.2327398E-1,-7.6215905E-1,5.271085E-1,-1.1782195E-1,-2.4482168E-1,-9.147345E-1,7.988616E-1,-7.9603024E-2,1.1500679E0,-2.1462242E-1,-4.0548104E-1,6.006285E-1,-9.72346E-1,-3.2689E-1,4.9083006E-1,1.0601027E0,-2.8883964E-1,1.287931E-1,4.519154E-2,1.431796E0,8.0657765E-2,-5.1185435E-1,2.6924127E-1,-5.586828E-1,-6.936406E-2,9.4036746E-1,-7.304809E-1,-1.0760444E0,4.7649798E-1,-8.432933E-1,-3.9892588E-2,7.9730266E-1,-4.511433E-2,1.1129593E0,3.703854E-1,-3.0295825E-1,5.0188315E-1,5.453191E-2,-2.4979413E-1,4.860317E-1,-2.8499663E-1,-7.820254E-1,-1.13260195E-1,6.026054E-1,-2.3078665E-1,-3.3889487E-1,3.699234E-2,4.110037E-1,-9.4275635E-1,1.1087589E-2,-1.049033E-1,-3.277847E-1,-1.8330178E-1,1.0487863E0,-3.8650513E-2,-2.907832E-1,1.6189343E-1,-1.5218207E-1,4.303081E-1,1.3858746E-1,3.4405684E-1,6.2846486E-3,1.8146977E-1,-8.5146524E-2,7.008328E-2,-2.1841249E-1,2.0276647E-2,-2.1719263E-1,2.0166294E-1,-2.686901E-1,-1.3495906E-1,1.4117196E-1,-2.907741E-1,-1.5824047E-1,-9.231654E-3,3.197072E-1,-1.8400507E-1,8.4004715E-2,-3.1478706E-1,-1.7053868E-1,3.8282922E-1,-1.7782107E-1,5.255379E-1,-5.340733E-2],"categories":[0,1,3,4,5,2,4,6,8,9,10,11,12,13,14,15,0,2,4,8,9,10,15,0,1,3,4,5,6,9,10,11,12,0,1,2,4,6,0,3,8,11,13,0,2,3,4,0,2,4,8,9,10,15,0,1,4,0,1,3,5,6,7,8,9,10,11,12,13,14,0,2,3,4,5,0,1,2,3,4,5,6,7,9,10,11,13,1,6,1,3,5,0,2,3,4,6,7,8,10,11,12,0,1,3,4,5,0,1,3,5,6,7,9,10,11,12,13,14,15,2,0],"categories_nodes":[0,1,2,3,4,10,11,13,14,20,26,28,34,35,36,39,40,42,44],"categories_segments":[0,5,16,23,33,38,43,47,54,57,70,75,87,89,92,102,107,120,121],"categories_sizes":[5,11,7,10,5,5,4,7,3,13,5,12,2,3,10,5,13,1,1],"default_left":[1,1,0,1,0,1,1,0,0,1,0,1,1,1,1,0,0,0,0,0,1,1,1,0,0,0,1,1,0,1,0,1,0,0,1,1,1,0,0,0,1,1,1,0,0,0,0,0,0,0,0,0,0,0,1,0,0,0,0,0,0,0,0,0,0,0,0,0,0,0,0,0,0,0,0,0,0,0,0,0,0,0,0,0,0],"id":2,"left_children":[1,3,5,7,9,11,13,15,17,19,21,23,25,27,29,31,33,-1,35,-1,37,39,41,43,45,-1,47,49,51,53,55,57,59,-1,61,63,65,-1,-1,67,69,71,73,-1,75,77,-1,-1,-1,79,81,-1,-1,-1,83,-1,-1,-1,-1,-1,-1,-1,-1,-1,-1,-1,-1,-1,-1,-1,-1,-1,-1,-1,-1,-1,-1,-1,-1,-1,-1,-1,-1,-1,-1],"loss_changes":[7.0777756E1,2.3181065E1,8.322784E0,1.9546204E1,1.3245603E1,3.778685E0,2.5016174E0,6.0542297E0,7.019397E0,1.943883E0,8.751406E0,2.4728372E0,1.5058409E0,1.1029434E0,4.1096582E0,6.4330244E0,2.9407425E0,0E0,3.3659515E0,0E0,1.4640417E0,6.9060664E0,2.8167324E0,1.2693882E0,3.2281127E0,0E0,1.0366683E0,4.058384E0,2.2699738E-1,3.214862E0,3.9730692E-1,4.4340057E0,4.6774054E0,0E0,1.5177422E0,3.3093574E0,2.8483145E0,0E0,0E0,4.3476E0,6.540358E0,3.7657654E0,5.402193E-1,0E0,1.0810398E0,2.7304945E0,0E0,0E0,0E0,2.0116043E-1,5.882636E0,0E0,0E0,0E0,2.9664934E0,0E0,0E0,0E0,0E0,0E0,0E0,0E0,0E0,0E0,0E0,0E0,0E0,0E0,0E0,0E0,0E0,0E0,0E0,0E0,0E0,0E0,0E0,0E0,0E0,0E0,0E0,0E0,0E0,0E0,0E0],"parents":[2147483647,0,0,1,1,2,2,3,3,4,4,5,5,6,6,7,7,8,8,9,9,10,10,11,11,12,12,13,13,14,14,15,15,16,16,18,18,20,20,21,21,22,22,23,23,24,24,26,26,27,27,28,28,29,29,30,30,31,31,32,32,34,34,35,35,36,36,39,39,40,40,41,41,42,42,44,44,45,45,49,49,50,50,54,54],"right_children":[2,4,6,8,10,12,14,16,18,20,22,24,26,28,30,32,34,-1,36,-1,38,40,42,44,46,-1,48,50,52,54,56,58,60,-1,62,64,66,-1,-1,68,70,72,74,-1,76,78,-1,-1,-1,80,82,-1,-1,-1,84,-1,-1,-1,-1,-1,-1,-1,-1,-1,-1,-1,-1,-1,-1,-1,-1,-1,-1,-1,-1,-1,-1,-1,-1,-1,-1,-1,-1,-1,-1],"split_conditions":[NaN,NaN,NaN,NaN,NaN,5.1E1,5E1,4.9E1,3.1E1,1.422059E4,NaN,NaN,2.5E1,NaN,NaN,4.3E1,2.8E1,-2.8883964E-1,7.419912E4,4.519154E-2,NaN,3.8E1,3.795586E4,4.2E1,1.1624234E5,-6.936406E-2,NaN,3.7E1,NaN,2.9E1,2.8E1,1.983316E4,3.033118E4,-4.511433E-2,NaN,NaN,NaN,5.0188315E-1,5.453191E-2,NaN,NaN,3.306402E4,NaN,-1.13260195E-1,NaN,7.419912E4,-3.3889487E-1,3.699234E-2,4.110037E-1,1.8912956E5,4.1E1,-1.049033E-1,-3.277847E-1,-1.8330178E-1,1.0041586E5,-3.8650513E-2,-2.907832E-1,1.6189343E-1,-1.5218207E-1,4.303081E-1,1.3858746E-1,3.4405684E-1,6.2846486E-3,1.8146977E-1,-8.5146524E-2,7.008328E-2,-2.1841249E-1,2.0276647E-2,-2.1719263E-1,2.0166294E-1,-2.686901E-1,-1.3495906E-1,1.4117196E-1,-2.907741E-1,-1.5824047E-1,-9.231654E-3,3.197072E-1,-1.8400507E-1,8.4004715E-2,-3.1478706E-1,-1.7053868E-1,3.8282922E-1,-1.7782107E-1,5.255379E-1,-5.340733E-2],"split_indices":[3,2,2,4,1,0,7,7,0,5,4,3,7,2,1,0,0,0,5,0,2,0,5,0,5,0,3,0,4,0,0,5,5,0,1,4,4,0,0,3,2,5,3,0,1,5,0,0,0,5,0,0,0,0,5,0,0,0,0,0,0,0,0,0,0,0,0,0,0,0,0,0,0,0,0,0,0,0,0,0,0,0,0,0,0],"split_type":[1,1,1,1,1,0,0,0,0,0,1,1,0,1,1,0,0,0,0,0,1,0,0,0,0,0,1,0,1,0,0,0,0,0,1,1,1,0,0,1,1,0,1,0,1,0,0,0,0,0,0,0,0,0,0,0,0,0,0,0,0,0,0,0,0,0,0,0,0,0,0,0,0,0,0,0,0,0,0,0,0,0,0,0,0],"sum_hessian":[3.2935535E2,2.2207693E2,1.0727841E2,1.1716539E2,1.04911545E2,2.502632E1,8.22521E1,8.070152E1,3.646386E1,6.669806E0,9.824174E1,2.146732E1,3.5589998E0,7.431481E1,7.9372845E0,3.8355305E1,4.2346222E1,6.2702236E0,3.0193638E1,1.804179E0,4.8656273E0,4.964819E1,4.8593548E1,3.8322256E0,1.7635094E1,1.1246823E0,2.4343176E0,2.4714722E1,4.9600086E1,3.1359088E0,4.801376E0,1.4359172E1,2.3996132E1,1.694513E0,4.0651707E1,1.9451448E1,1.0742188E1,3.7951553E0,1.070472E0,2.756313E1,2.2085062E1,2.753108E1,2.106247E1,1.2583482E0,2.5738773E0,1.2093953E1,5.5411415E0,1.2824569E0,1.1518607E0,1.9003603E1,5.7111187E0,1.599305E0,4.8000782E1,1.0579193E0,2.0779896E0,1.0229326E0,3.778443E0,6.341412E0,8.01776E0,7.1451464E0,1.6850986E1,3.9379124E1,1.2725835E0,1.4374124E1,5.077326E0,4.947523E0,5.794666E0,1.7025166E1,1.0537963E1,1.9915012E1,2.17005E0,2.2931896E1,4.599183E0,1.0518642E1,1.0543827E1,1.4813432E0,1.0925342E0,6.800205E0,5.2937474E0,1.3389282E1,5.6143208E0,1.4855466E0,4.225572E0,1.0489683E0,1.0290211E0],"tree_param":{"num_deleted":"0","num_feature":"8","num_nodes":"85","size_leaf_vector":"1"}},{"base_weights":[-8.775116E-2,1.548883E-1,-6.606044E-1,-9.7039026E-1,2.1864559E-1,-4.0926284E-1,-9.542435E-1,5.2833624E-2,-3.3017418E-1,3.7622586E-1,-1.626611E-1,-6.71733E-1,5.761656E-2,-7.2216235E-2,-9.701639E-1,5.400475E-1,6.738835E-2,-3.0376723E-1,-6.5078914E-2,-2.2513342E-1,-8.297447E-1,6.098042E-1,-4.0829474E-1,-2.9554766E-1,-1.0459215E-1,5.9288794E-1,-1.1557953E-1,2.5920486E-1,-2.8528285E-1,8.011874E-2,-7.971992E-1,-2.5503477E-1,1.1646839E-1,-9.154639E-2,-9.143774E-1,1.0383387E0,-8.992922E-2,2.4136914E-1,-6.093078E-1,1.7826487E-3,1.918545E-1,1.307512E-1,-2.5269866E-1,-1.2670681E-1,1.0328439E-1,-2.0660478E-1,6.4498655E-2,1.6448125E-1,-3.2414123E-2,1.8643912E-2,-3.1658E-1,2.1021995E-1,-1.063045E-1,8.4717564E-2,-1.05871476E-1,-9.195072E-2,-2.933713E-1,4.3594006E-1,8.10406E-2,1.5040562E-1,-2.2540227E-1,-2.4059393E-1,1.0918405E-1],"categories":[0,1,3,4,5,0,1,3,5,10,11,12,13,0,1,3,4,5,6,7,8,9,10,11,12,13,4,6,9,10,11,12,13,14,15,0,1,3,4,5,6,9,10,11,13,0,1,2,3,4,5,0,2,3,4,5,6,7,8,9,10,11,12,13,14,15,0,1,6,0,1,2,3,5,6,7,8,9,11,12,13,14,15,0,1,0,2,3,4,6,7,8,9,11,12,4,0,1,2,3,4,5,6,0,1,2,4,5,0,2,3,4],"categories_nodes":[0,2,3,4,9,11,12,15,18,20,29,30,32,34,36],"categories_segments":[0,5,13,26,35,45,51,66,69,83,85,95,96,103,108],"categories_sizes":[5,8,13,9,10,6,15,3,14,2,10,1,7,5,4],"default_left":[1,0,1,0,1,1,0,0,0,1,0,1,1,0,1,1,0,0,1,0,1,0,0,0,0,0,0,0,1,0,0,0,0,0,0,0,1,0,1,0,0,0,0,0,0,0,0,0,0,0,0,0,0,0,0,0,0,0,0,0,0,0,0],"id":3,"left_children":[1,3,5,7,9,11,13,-1,-1,15,17,19,21,-1,23,25,27,-1,29,31,33,35,37,-1,-1,39,41,43,45,47,49,-1,51,53,55,57,59,-1,61,-1,-1,-1,-1,-1,-1,-1,-1,-1,-1,-1,-1,-1,-1,-1,-1,-1,-1,-1,-1,-1,-1,-1,-1],"loss_changes":[4.3253178E1,1.5916088E1,6.440651E0,1.9731617E0,1.2557087E1,6.3645964E0,2.4284363E-1,0E0,0E0,7.423954E0,5.0355005E0,2.150691E0,5.2653036E0,0E0,3.5762787E-2,3.4014034E0,3.6085374E0,0E0,6.042787E0,2.2401834E0,1.4216385E0,2.8892696E0,3.2145152E0,0E0,0E0,2.4371777E0,3.5779417E0,2.1381516E0,3.9588761E0,4.273885E0,2.150187E0,0E0,2.2740684E0,4.5047125E-1,5.307274E-1,1.4754586E0,2.1215692E0,0E0,2.1960642E0,0E0,0E0,0E0,0E0,0E0,0E0,0E0,0E0,0E0,0E0,0E0,0E0,0E0,0E0,0E0,0E0,0E0,0E0,0E0,0E0,0E0,0E0,0E0,0E0],"parents":[2147483647,0,0,1,1,2,2,3,3,4,4,5,5,6,6,9,9,10,10,11,11,12,12,14,14,15,15,16,16,18,18,19,19,20,20,21,21,22,22,25,25,26,26,27,27,28,28,29,29,30,30,32,32,33,33,34,34,35,35,36,36,38,38],"right_children":[2,4,6,8,10,12,14,-1,-1,16,18,20,22,-1,24,26,28,-1,30,32,34,36,38,-1,-1,40,42,44,46,48,50,-1,52,54,56,58,60,-1,62,-1,-1,-1,-1,-1,-1,-1,-1,-1,-1,-1,-1,-1,-1,-1,-1,-1,-1,-1,-1,-1,-1,-1,-1],"split_conditions":[NaN,2.6E1,NaN,NaN,NaN,3.7E1,1.6E1,5.2833624E-2,-3.3017418E-1,NaN,1.87591E4,NaN,NaN,-7.2216235E-2,6E1,NaN,7.419912E4,-3.0376723E-1,NaN,2.8E1,NaN,1.2657284E5,4E1,-2.9554766E-1,-1.0459215E-1,3.1E1,5.361487E4,3.7E1,3.8E1,NaN,NaN,-2.5503477E-1,NaN,7.485957E4,NaN,4.8E1,NaN,2.4136914E-1,5E1,1.7826487E-3,1.918545E-1,1.307512E-1,-2.5269866E-1,-1.2670681E-1,1.0328439E-1,-2.0660478E-1,6.4498655E-2,1.6448125E-1,-3.2414123E-2,1.8643912E-2,-3.1658E-1,2.1021995E-1,-1.063045E-1,8.4717564E-2,-1.05871476E-1,-9.195072E-2,-2.933713E-1,4.3594006E-1,8.10406E-2,1.5040562E-1,-2.2540227E-1,-2.4059393E-1,1.0918405E-1],"split_indices":[3,0,4,4,2,0,7,0,0,4,5,1,2,0,7,1,5,0,2,0,3,5,0,0,0,0,5,7,0,4,1,0,4,5,2,0,3,0,7,0,0,0,0,0,0,0,0,0,0,0,0,0,0,0,0,0,0,0,0,0,0,0,0],"split_type":[1,0,1,1,1,0,0,0,0,1,0,1,1,0,0,1,0,0,1,0,1,0,0,0,0,0,0,0,0,1,1,0,1,0,1,0,1,0,0,0,0,0,0,0,0,0,0,0,0,0,0,0,0,0,0,0,0,0,0,0,0,0,0],"sum_hessian":[3.0944495E2,2.1788608E2,9.155887E1,1.09207735E1,2.069653E2,5.0622284E1,4.0936584E1,1.0776722E0,9.843101E0,1.4645435E2,6.0510967E1,3.212403E1,1.8498251E1,1.2452898E0,3.9691296E1,9.520472E1,5.1249622E1,5.266418E0,5.524455E1,9.029138E0,2.3094894E1,8.323996E0,1.0174255E1,3.818497E1,1.5063243E0,8.819252E1,7.0122004E0,3.336665E1,1.788297E1,4.6844654E1,8.399894E0,2.6649055E0,6.364232E0,2.5895503E0,2.0505344E1,4.862296E0,3.4616997E0,1.0196173E0,9.154638E0,6.573396E0,8.1619125E1,4.2146506E0,2.79755E0,3.2628675E0,3.0103783E1,9.691569E0,8.191401E0,1.2881651E1,3.3963005E1,2.1152966E0,6.284597E0,2.6220443E0,3.7421877E0,1.0322226E0,1.5573275E0,2.4913092E0,1.8014034E1,2.5784504E0,2.283846E0,1.9555217E0,1.506178E0,7.7887144E0,1.3659239E0],"tree_param":{"num_deleted":"0","num_feature":"8","num_nodes":"63","size_leaf_vector":"1"}},{"base_weights":[-7.97255E-2,1.0158079E-1,-5.6519973E-1,-8.798155E-1,1.4819354E-1,-9.686211E-2,-7.448243E-1,4.4149525E-2,-3.072783E-1,2.7354917E-1,-1.4929058E-1,1.8038541E-1,-6.0408807E-1,-7.858235E-1,2.7190086E-2,3.0596456E-1,-2.741382E-1,-6.1298735E-2,-7.021662E-1,-2.1463971E-1,3.3300292E-1,-7.7037394E-1,4.3060086E-3,-5.3969646E-1,-9.167571E-1,-1.1160097E-1,1.4781816E-1,-1.803394E-1,3.5670054E-1,-2.4796876E-1,2.8359604E-1,9.3945995E-2,-8.932163E-1,6.62517E-1,-1.3962631E-1,-2.6790237E-1,-2.8833747E-1,-7.5493586E-1,1.6960537E-1,-4.213296E-1,-1.0060872E0,-1.8519838E-1,1.336508E-1,2.2530024E-1,8.585594E-2,-1.6270834E-1,9.487752E-2,-2.2099452E-1,1.1824789E-1,-3.594121E-2,-3.0212116E-1,-2.663853E-2,2.5047466E-1,1.4149028E-1,-1.6567829E-1,6.6070095E-2,-1.8396407E-1,-2.5713593E-1,-1.2887867E-1,2.1504326E-1,-2.1381132E-1,-2.5709957E-1,5.6225184E-2,-1.0925439E-1,-3.1086925E-1],"categories":[0,1,3,4,5,0,2,4,8,9,10,0,1,3,4,5,6,7,8,9,10,11,12,13,0,3,4,5,6,9,11,13,0,1,2,3,4,5,6,8,9,11,12,13,6,9,10,11,12,13,14,0,0,1,2,3,4,5,6,7,8,10,11,12,13,0,0,1,2,3,1,2,5,10,11,12,0,1,2,4,6,8,9,10,11,12,13,14,15,0,0,1,2,3,4,5,6,7,0,1,4],"categories_nodes":[0,2,3,4,5,9,13,18,20,21,24,28,29,32,40],"categories_segments":[0,5,11,24,32,44,51,52,65,66,70,76,89,90,98],"categories_sizes":[5,6,13,8,12,7,1,13,1,4,6,13,1,8,3],"default_left":[1,0,0,0,1,1,1,0,0,1,1,0,1,0,1,0,0,1,1,0,1,1,0,1,0,0,0,0,0,0,0,0,0,1,0,1,0,0,0,1,1,0,0,0,0,0,0,0,0,0,0,0,0,0,0,0,0,0,0,0,0,0,0,0,0],"id":4,"left_children":[1,3,5,7,9,11,13,-1,-1,15,17,19,21,23,25,27,-1,29,31,-1,33,35,-1,37,39,-1,-1,41,43,45,47,-1,49,51,53,55,-1,57,59,61,63,-1,-1,-1,-1,-1,-1,-1,-1,-1,-1,-1,-1,-1,-1,-1,-1,-1,-1,-1,-1,-1,-1,-1,-1],"loss_changes":[2.5987259E1,9.981064E0,6.6793613E0,1.6205282E0,7.738815E0,3.3992987E0,1.8526955E0,0E0,0E0,5.882824E0,2.9656224E0,2.4119327E0,8.850858E-1,1.2768364E0,9.05146E-1,3.5793476E0,0E0,3.5758438E0,1.9082899E0,0E0,2.314364E0,3.8625717E-1,0E0,3.4136338E0,1.1008759E0,0E0,0E0,4.137518E0,3.3812141E0,6.128308E0,2.4998574E0,0E0,5.2442217E-1,1.1854727E0,1.9469975E0,6.8026674E-1,0E0,1.867733E-1,3.3240635E0,2.0127811E0,1.7348862E-1,0E0,0E0,0E0,0E0,0E0,0E0,0E0,0E0,0E0,0E0,0E0,0E0,0E0,0E0,0E0,0E0,0E0,0E0,0E0,0E0,0E0,0E0,0E0,0E0],"parents":[2147483647,0,0,1,1,2,2,3,3,4,4,5,5,6,6,9,9,10,10,11,11,12,12,13,13,14,14,15,15,17,17,18,18,20,20,21,21,23,23,24,24,27,27,28,28,29,29,30,30,32,32,33,33,34,34,35,35,37,37,38,38,39,39,40,40],"right_children":[2,4,6,8,10,12,14,-1,-1,16,18,20,22,24,26,28,-1,30,32,-1,34,36,-1,38,40,-1,-1,42,44,46,48,-1,50,52,54,56,-1,58,60,62,64,-1,-1,-1,-1,-1,-1,-1,-1,-1,-1,-1,-1,-1,-1,-1,-1,-1,-1,-1,-1,-1,-1,-1,-1],"split_conditions":[NaN,2.6E1,NaN,NaN,NaN,NaN,5.6E1,4.4149525E-2,-3.072783E-1,NaN,7.310798E4,2.7E1,4.7E1,NaN,4.4E1,3.8E1,-2.741382E-1,3.472416E4,NaN,-2.1463971E-1,NaN,NaN,4.3060086E-3,3.7E1,NaN,-1.1160097E-1,1.4781816E-1,1.992582E5,NaN,NaN,3.7E1,9.3945995E-2,NaN,3.398418E4,7.485957E4,8.993548E4,-2.8833747E-1,1.8912956E5,4.5E1,4E1,NaN,-1.8519838E-1,1.336508E-1,2.2530024E-1,8.585594E-2,-1.6270834E-1,9.487752E-2,-2.2099452E-1,1.1824789E-1,-3.594121E-2,-3.0212116E-1,-2.663853E-2,2.5047466E-1,1.4149028E-1,-1.6567829E-1,6.6070095E-2,-1.8396407E-1,-2.5713593E-1,-1.2887867E-1,2.1504326E-1,-2.1381132E-1,-2.5709957E-1,5.6225184E-2,-1.0925439E-1,-3.1086925E-1],"split_indices":[3,0,2,4,4,4,7,0,0,2,5,0,0,6,0,7,0,5,4,0,6,2,0,0,4,0,0,5,2,6,7,0,2,5,5,5,0,5,0,7,3,0,0,0,0,0,0,0,0,0,0,0,0,0,0,0,0,0,0,0,0,0,0,0,0],"split_type":[1,0,1,1,1,1,0,0,0,1,0,0,0,1,0,0,0,0,1,0,1,1,0,0,1,0,0,0,1,1,0,0,1,0,0,0,0,0,0,0,1,0,0,0,0,0,0,0,0,0,0,0,0,0,0,0,0,0,0,0,0,0,0,0,0],"sum_hessian":[2.9359198E2,2.1433624E2,7.925573E1,8.908091E0,2.0542816E2,2.2397549E1,5.6858185E1,1.0961117E0,7.8119793E0,1.4458325E2,6.0844902E1,1.4898475E1,7.499073E0,5.3973915E1,2.8842692E0,1.414635E2,3.1197515E0,5.3449177E1,7.395726E0,1.6318278E0,1.3266647E1,5.7163873E0,1.7826858E0,2.0520912E1,3.3453003E1,1.6609434E0,1.223326E0,1.3123209E1,1.2834029E2,3.486173E1,1.8587448E1,1.0700293E0,6.325697E0,7.5800886E0,5.6865582E0,2.2345774E0,3.4818096E0,1.5694146E1,4.826765E0,5.9837103E0,2.7469294E1,7.735541E0,5.3876677E0,1.8005713E1,1.1033458E2,2.2934258E1,1.1927473E1,1.2637068E0,1.7323742E1,1.0750612E0,5.250636E0,1.5052323E0,6.0748563E0,2.2340872E0,3.4524713E0,1.0758954E0,1.158682E0,1.0699183E1,4.994963E0,3.0948958E0,1.7318691E0,3.2499635E0,2.7337468E0,1.818836E0,2.5650457E1],"tree_param":{"num_deleted":"0","num_feature":"8","num_nodes":"65","size_leaf_vector":"1"}},{"base_weights":[-7.4393235E-2,1.905746E-1,-3.272099E-1,2.3086098E-1,-6.763838E-1,-9.1792166E-1,-2.210813E-1,2.773612E-1,-5.1864344E-1,-2.6582378E-1,-1.5581875E-1,-3.6501788E-2,-9.564901E-1,-5.0453562E-2,-5.782638E-1,2.0342787E-1,8.355944E-1,2.2589985E-1,-8.757667E-1,1.0302553E-1,-1.7500283E-1,-2.9908168E-1,-4.9268622E-2,4.1302465E-2,-3.2401645E-1,-2.2297993E-2,-8.237673E-1,-2.1191396E-1,2.3036884E-1,1.0117662E0,-1.027698E-1,-6.9555685E-2,1.7432515E-1,-2.9708275E-1,-5.8127016E-2,2.4173816E-1,-4.844328E-1,-6.284484E-1,4.4399676E-1,7.793947E-2,-9.0641737E-1,7.6788135E-2,-2.3273692E-1,3.6157286E-1,-6.833843E-2,1.227554E-1,-6.280334E-2,-2.364345E-1,-2.7587544E-2,9.202799E-3,-3.0393806E-1,-1.3203874E-1,2.945096E-1,-1.8137237E-1,-3.2380763E-1],"categories":[0,1,3,4,5,6,9,10,11,12,13,14,15,0,3,11,0,0,4,8,9,10,14,0,1,2,4,1,2,0,1,3,4,5,9,11,12,0,1,2,3,4,5,6,7,9,10,11,13,0,1,2,0,0,1,2,3,4,5,6,7,8,9,10],"categories_nodes":[0,1,3,5,6,8,13,23,26,29,35,37],"categories_segments":[0,5,13,16,17,23,27,29,37,49,52,53],"categories_sizes":[5,8,3,1,6,4,2,8,12,3,1,11],"default_left":[0,1,0,1,0,0,1,1,1,0,0,0,1,1,0,0,1,1,1,0,0,0,0,1,0,0,0,0,1,1,0,0,0,0,0,1,1,1,1,0,1,0,0,0,0,0,0,0,0,0,0,0,0,0,0],"id":5,"left_children":[1,3,5,7,9,11,13,15,17,-1,19,-1,21,23,25,27,29,31,33,-1,-1,-1,-1,35,-1,37,39,-1,41,43,-1,-1,-1,-1,-1,45,47,49,51,-1,53,-1,-1,-1,-1,-1,-1,-1,-1,-1,-1,-1,-1,-1,-1],"loss_changes":[1.891219E1,4.976901E0,8.847497E0,4.766694E0,5.5875516E-1,5.4909325E-1,7.509468E0,5.011503E0,2.3507702E0,0E0,8.505426E-1,0E0,4.9394035E-1,8.056163E0,5.426553E0,2.912476E0,3.3273335E0,6.907239E-1,2.515006E-1,0E0,0E0,0E0,0E0,8.423634E0,0E0,4.0233397E0,2.7112465E0,0E0,3.0235515E0,3.3313274E0,0E0,0E0,0E0,0E0,0E0,4.4466486E0,2.560451E0,1.5964828E0,4.270179E0,0E0,6.998806E-1,0E0,0E0,0E0,0E0,0E0,0E0,0E0,0E0,0E0,0E0,0E0,0E0,0E0,0E0],"parents":[2147483647,0,0,1,1,2,2,3,3,4,4,5,5,6,6,7,7,8,8,10,10,12,12,13,13,14,14,15,15,16,16,17,17,18,18,23,23,25,25,26,26,28,28,29,29,35,35,36,36,37,37,38,38,40,40],"right_children":[2,4,6,8,10,12,14,16,18,-1,20,-1,22,24,26,28,30,32,34,-1,-1,-1,-1,36,-1,38,40,-1,42,44,-1,-1,-1,-1,-1,46,48,50,52,-1,54,-1,-1,-1,-1,-1,-1,-1,-1,-1,-1,-1,-1,-1,-1],"split_conditions":[NaN,NaN,2.7E1,NaN,1.3794106E5,NaN,NaN,5.958877E4,NaN,-2.6582378E-1,5.5E1,-3.6501788E-2,5E1,NaN,5.361487E4,2.5E1,5.5E1,3.349389E4,4.4E1,1.0302553E-1,-1.7500283E-1,-2.9908168E-1,-4.9268622E-2,NaN,-3.2401645E-1,4.1E1,NaN,-2.1191396E-1,5.597204E4,NaN,-1.027698E-1,-6.9555685E-2,1.7432515E-1,-2.9708275E-1,-5.8127016E-2,NaN,3.5E1,NaN,3.7E1,7.793947E-2,2.9E1,7.6788135E-2,-2.3273692E-1,3.6157286E-1,-6.833843E-2,1.227554E-1,-6.280334E-2,-2.364345E-1,-2.7587544E-2,9.202799E-3,-3.0393806E-1,-1.3203874E-1,2.945096E-1,-1.8137237E-1,-3.2380763E-1],"split_indices":[3,2,0,4,5,3,2,5,1,0,0,0,7,1,5,7,0,5,7,0,0,0,0,4,0,7,4,0,5,1,0,0,0,0,0,6,0,4,0,0,0,0,0,0,0,0,0,0,0,0,0,0,0,0,0],"split_type":[1,1,0,1,0,1,1,0,1,0,0,0,0,1,0,0,0,0,0,0,0,0,0,1,0,0,1,0,0,1,0,0,0,0,0,1,0,1,0,0,0,0,0,0,0,0,0,0,0,0,0,0,0,0,0],"sum_hessian":[2.8038998E2,1.3702515E2,1.4336482E2,1.3164165E2,5.383496E0,2.066946E1,1.22695366E2,1.2454468E2,7.096973E0,3.3370912E0,2.0464046E0,1.1468735E0,1.9522587E1,8.380337E1,3.8892002E1,1.1118374E2,1.3360946E1,2.4197137E0,4.6772594E0,1.0347787E0,1.011626E0,1.8328484E1,1.1941038E0,7.782742E1,5.9759417E0,1.224741E1,2.6644592E1,2.472339E0,1.08711395E2,1.1745812E1,1.6151336E0,1.2089206E0,1.210793E0,3.6178315E0,1.059428E0,5.6736805E1,2.1090622E1,5.1739235E0,7.0734863E0,1.7364112E0,2.490818E1,1.0674203E2,1.9693714E0,1.0183939E1,1.5618733E0,4.1444912E1,1.5291893E1,1.1322004E1,9.768618E0,2.2459211E0,2.9280024E0,2.7436512E0,4.329835E0,1.0710487E1,1.4197694E1],"tree_param":{"num_deleted":"0","num_feature":"8","num_nodes":"55","size_leaf_vector":"1"}},{"base_weights":[-7.092712E-2,-8.3662814E-1,-1.6630953E-2,-3.8921198E-1,-2.782214E-1,1.4308783E-1,-1.9591917E-1,-2.3208986E-1,7.8238E-2,5.891397E-2,4.6460262E-1,1.448593E-1,-3.2900816E-1,-5.863596E-2,9.5164366E-2,6.117238E-1,-5.046236E-3,8.673873E-1,-7.059093E-3,-2.3842676E-1,2.4630174E-1,-5.509702E-1,-6.3606225E-2,9.2913663E-1,-2.3317188E-1,5.055457E-1,-5.8061022E-2,-1.09162204E-1,1.0119271E0,-4.32862E-1,3.07498E-1,8.9425915E-1,6.7539945E-2,2.5960195E-1,-6.0846245E-1,4.7515997E-1,-3.4029365E-1,3.2375953E-1,1.9803897E-2,3.322291E-1,-1.6576338E-1,1.2851666E-2,-1.4436775E-1,3.4842E-1,-8.519712E-2,5.04424E-2,-2.555168E-1,-5.397544E-2,2.1747786E-1,2.2501865E-2,3.2455704E-1,1.4116903E-1,-9.040801E-2,2.8039318E-1,-1.480752E-1,-2.2560556E-1,-6.8568096E-2,1.990035E-1,-2.1710831E-1,-1.2983319E-1,2.5735185E-1],"categories":[0,0,1,3,4,5,1,2,4,6,7,8,9,10,11,12,13,14,15,0,3,4,5,6,7,8,9,11,12,13,0,1,2,4,6,7,8,9,10,11,12,13,14,15,0,3,4,5,6,7,8,10,11,12,13,0,0,1,3,4,5,6,7,8,9,10,11,12,13,14,15,0,2,3,5,6,9,10,11,12,13,14,15,0,0,4,0,2,3,5,6,7,8,9,10,11,12,13,14,15,0,1,2,7,0,1,2],"categories_nodes":[1,2,9,10,21,22,23,25,26,28,29,32,33,35],"categories_segments":[0,1,6,19,30,44,55,56,71,83,84,86,100,104],"categories_sizes":[1,5,13,11,14,11,1,15,12,1,2,14,4,3],"default_left":[0,0,0,0,0,1,0,0,1,0,1,0,0,0,0,1,0,0,1,0,0,0,0,0,0,1,1,0,1,1,1,1,0,1,0,1,1,0,0,0,0,0,0,0,0,0,0,0,0,0,0,0,0,0,0,0,0,0,0,0,0],"id":6,"left_children":[1,3,5,7,-1,9,11,-1,13,15,17,19,21,-1,-1,23,25,27,29,-1,31,33,35,37,-1,39,41,-1,43,45,47,49,51,53,55,57,59,-1,-1,-1,-1,-1,-1,-1,-1,-1,-1,-1,-1,-1,-1,-1,-1,-1,-1,-1,-1,-1,-1,-1,-1],"loss_changes":[1.11658125E1,3.6139774E-1,7.247723E0,9.092461E-1,0E0,3.5968137E0,5.4541183E0,0E0,2.6080194E-1,3.7961237E0,5.25715E0,3.453124E0,5.033023E0,0E0,0E0,5.630366E0,2.6589046E0,3.0228891E0,1.9712147E0,0E0,3.6007109E0,2.335167E0,6.1710515E0,1.16148E0,0E0,6.4967694E0,3.8165E0,0E0,2.9669313E0,1.7155633E0,1.8552554E0,9.566946E-1,3.9857757E0,2.3909266E0,2.2236328E0,3.6600919E0,3.3870943E0,0E0,0E0,0E0,0E0,0E0,0E0,0E0,0E0,0E0,0E0,0E0,0E0,0E0,0E0,0E0,0E0,0E0,0E0,0E0,0E0,0E0,0E0,0E0,0E0],"parents":[2147483647,0,0,1,1,2,2,3,3,5,5,6,6,8,8,9,9,10,10,11,11,12,12,15,15,16,16,17,17,18,18,20,20,21,21,22,22,23,23,25,25,26,26,28,28,29,29,30,30,31,31,32,32,33,33,34,34,35,35,36,36],"right_children":[2,4,6,8,-1,10,12,-1,14,16,18,20,22,-1,-1,24,26,28,30,-1,32,34,36,38,-1,40,42,-1,44,46,48,50,52,54,56,58,60,-1,-1,-1,-1,-1,-1,-1,-1,-1,-1,-1,-1,-1,-1,-1,-1,-1,-1,-1,-1,-1,-1,-1,-1],"split_conditions":[2.6E1,NaN,NaN,2.4E1,-2.782214E-1,4.668999E4,4.711862E4,-2.3208986E-1,9.793709E4,NaN,NaN,1.247584E4,4.7E1,-5.863596E-2,9.5164366E-2,4.213413E4,1.527518E4,3.1E1,4E1,-2.3842676E-1,2.063231E4,NaN,NaN,NaN,-2.3317188E-1,NaN,NaN,-1.09162204E-1,NaN,NaN,4E1,4E1,NaN,NaN,3.3057322E5,NaN,5.9E1,3.2375953E-1,1.9803897E-2,3.322291E-1,-1.6576338E-1,1.2851666E-2,-1.4436775E-1,3.4842E-1,-8.519712E-2,5.04424E-2,-2.555168E-1,-5.397544E-2,2.1747786E-1,2.2501865E-2,3.2455704E-1,1.4116903E-1,-9.040801E-2,2.8039318E-1,-1.480752E-1,-2.2560556E-1,-6.8568096E-2,1.990035E-1,-2.1710831E-1,-1.2983319E-1,2.5735185E-1],"split_indices":[0,3,3,0,0,5,5,0,5,2,4,5,7,0,0,5,5,0,7,0,5,2,4,1,0,2,2,0,1,1,0,7,2,4,5,1,0,0,0,0,0,0,0,0,0,0,0,0,0,0,0,0,0,0,0,0,0,0,0,0,0],"split_type":[0,1,1,0,0,0,0,0,0,1,1,0,0,0,0,0,0,0,0,0,0,1,1,1,0,1,1,0,1,1,0,0,1,1,0,1,0,0,0,0,0,0,0,0,0,0,0,0,0,0,0,0,0,0,0,0,0,0,0,0,0],"sum_hessian":[2.6790747E2,1.6785444E1,2.5112201E2,3.7230396E0,1.3062404E1,1.329159E2,1.1820612E2,1.6835321E0,2.0395074E0,1.0627572E2,2.6640173E1,3.317417E1,8.5031944E1,1.0355982E0,1.0039092E0,1.01328745E1,9.6142845E1,1.39167185E1,1.2723454E1,2.5665781E0,3.0607595E1,4.5719578E1,3.931237E1,8.517476E0,1.6153988E0,8.240607E0,8.790224E1,1.3026497E0,1.2614069E1,5.246026E0,7.4774284E0,5.752825E0,2.485477E1,2.7951996E0,4.2924377E1,1.309549E1,2.6216877E1,7.0426993E0,1.4747765E0,5.22295E0,3.017657E0,7.170386E1,1.6198383E1,1.1402672E1,1.2113974E0,2.4003916E0,2.8456345E0,3.712019E0,3.7654095E0,1.3326898E0,4.420135E0,1.1746322E1,1.3108449E1,1.3470168E0,1.4481827E0,3.044168E1,1.2482698E1,1.1704856E1,1.3906351E0,2.493123E1,1.2856464E0],"tree_param":{"num_deleted":"0","num_feature":"8","num_nodes":"61","size_leaf_vector":"1"}},{"base_weights":[-5.7067044E-2,-7.693106E-1,-1.3675387E-2,-2.8750572E-1,-4.284349E-1,2.3576917E-1,-1.02828935E-1,-7.0919204E-1,1.0091785E-1,3.3482522E-1,-4.9834275E-1,-1.0452493E-2,-5.1463956E-1,-2.5183368E-1,-2.3372868E-2,4.6263096E-1,-1.4109701E-3,7.957181E-2,-7.669105E-1,2.4731815E-2,-5.705134E-1,-3.747963E-1,-2.7916858E-1,5.702834E-1,-2.0258984E-2,-3.1782946E-1,4.3999413E-1,-3.0416512E-1,-1.5947128E-2,-1.9969061E-2,9.6977454E-1,-1.2602837E-1,-2.6160997E-1,-4.4770893E-1,1.0244239E-1,8.7634854E-2,2.5463808E-1,9.768424E-2,-2.4625202E-1,3.1803686E-2,-2.6031667E-1,-3.226463E-3,2.5597212E-1,1.5871362E-1,-2.3130786E-2,3.4322864E-1,8.1313156E-2,-2.0840983E-1,1.2601158E-1,-2.1452751E-2,-1.7292772E-1],"categories":[0,2,4,6,8,9,10,11,12,13,14,15,0,1,2,0,1,3,4,5,6,9,11,12,13,0,1,3,4,5,1,6,5,10,11,13,0,9,10,5,0,2,4,6,0,1,2,3,4,5],"categories_nodes":[2,4,5,6,9,12,15,20,24,29,33],"categories_segments":[0,12,15,25,30,32,36,37,39,40,44],"categories_sizes":[12,3,10,5,2,4,1,2,1,4,6],"default_left":[0,1,0,0,1,1,1,1,0,0,0,1,1,0,0,1,0,0,0,1,0,1,0,0,1,0,0,0,0,0,0,1,0,1,0,0,0,0,0,0,0,0,0,0,0,0,0,0,0,0,0],"id":7,"left_children":[1,3,5,-1,7,9,11,13,-1,15,17,19,21,-1,-1,23,25,-1,27,29,31,33,-1,35,37,39,41,-1,-1,43,45,47,-1,49,-1,-1,-1,-1,-1,-1,-1,-1,-1,-1,-1,-1,-1,-1,-1,-1,-1],"loss_changes":[7.9253526E0,5.3842735E-1,5.4294457E0,0E0,1.7550501E0,4.8426228E0,6.8326845E0,3.8583064E-1,0E0,2.4609923E0,1.8535438E0,2.927331E0,1.5655918E0,0E0,0E0,2.1682606E0,2.4814687E0,0E0,1.0407519E0,5.9360466E0,1.0668249E0,1.5267115E0,0E0,2.3829403E0,2.6288576E0,2.5032923E0,1.3912319E0,0E0,0E0,4.266356E0,4.6284056E-1,1.7567985E0,0E0,1.1358619E0,0E0,0E0,0E0,0E0,0E0,0E0,0E0,0E0,0E0,0E0,0E0,0E0,0E0,0E0,0E0,0E0,0E0],"parents":[2147483647,0,0,1,1,2,2,4,4,5,5,6,6,7,7,9,9,10,10,11,11,12,12,15,15,16,16,18,18,19,19,20,20,21,21,23,23,24,24,25,25,26,26,29,29,30,30,31,31,33,33],"right_children":[2,4,6,-1,8,10,12,14,-1,16,18,20,22,-1,-1,24,26,-1,28,30,32,34,-1,36,38,40,42,-1,-1,44,46,48,-1,50,-1,-1,-1,-1,-1,-1,-1,-1,-1,-1,-1,-1,-1,-1,-1,-1,-1],"split_conditions":[2.6E1,4E1,NaN,-2.8750572E-1,NaN,NaN,NaN,1.548903E5,1.0091785E-1,NaN,3.061509E4,6.1E1,NaN,-2.5183368E-1,-2.3372868E-2,NaN,5.2E1,7.957181E-2,5.8E1,5.8E1,NaN,5.6E1,-2.7916858E-1,4.9E1,NaN,5.2E1,5.773091E4,-3.0416512E-1,-1.5947128E-2,NaN,1.2055481E5,3.5E1,-2.6160997E-1,NaN,1.0244239E-1,8.7634854E-2,2.5463808E-1,9.768424E-2,-2.4625202E-1,3.1803686E-2,-2.6031667E-1,-3.226463E-3,2.5597212E-1,1.5871362E-1,-2.3130786E-2,3.4322864E-1,8.1313156E-2,-2.0840983E-1,1.2601158E-1,-2.1452751E-2,-1.7292772E-1],"split_indices":[0,7,2,0,4,4,3,5,0,1,5,0,4,0,0,6,7,0,0,0,4,7,0,0,2,0,5,0,0,1,5,7,0,1,0,0,0,0,0,0,0,0,0,0,0,0,0,0,0,0,0],"split_type":[0,0,1,0,1,1,1,0,0,1,0,0,1,0,0,1,0,0,0,0,1,0,0,0,1,0,0,0,0,1,0,0,0,1,0,0,0,0,0,0,0,0,0,0,0,0,0,0,0,0,0],"sum_hessian":[2.5577925E2,1.3727215E1,2.4205205E2,7.6649623E0,6.062252E0,6.329977E1,1.7875227E2,4.4876456E0,1.5746067E0,5.6253246E1,7.0465236E0,1.4683905E2,3.1913227E1,3.4467301E0,1.0409155E0,4.0487682E1,1.5765566E1,1.8367461E0,5.2097774E0,1.3905888E2,7.7801566E0,2.530589E1,6.607337E0,3.2959023E1,7.5286584E0,9.345944E0,6.419622E0,3.5581048E0,1.6516728E0,1.3371307E2,5.345809E0,3.7176967E0,4.06246E0,2.3308184E1,1.9977068E0,1.7514717E1,1.5444305E1,5.6716337E0,1.8570248E0,5.7337475E0,3.612197E0,3.5363343E0,2.883288E0,1.1824821E1,1.2188826E2,3.7682953E0,1.5775137E0,1.6878216E0,2.0298748E0,6.338435E0,1.6969748E1],"tree_param":{"num_deleted":"0","num_feature":"8","num_nodes":"51","size_leaf_vector":"1"}},{"base_weights":[-4.7475383E-2,-7.030267E-1,-1.2836955E-2,-2.7360296E-1,-3.689972E-1,2.357947E-2,-4.541833E-1,9.894851E-2,-6.9958067E-1,4.7539324E-2,-6.943325E-1,-5.6769013E-1,1.921062E-1,-5.1384076E-2,-2.4051069E-1,6.649699E-2,-6.334773E-1,-2.7079502E-1,-1.4755193E-2,2.164295E-2,-6.9265145E-1,-1.3546165E-3,2.767554E-1,2.5252558E-2,-8.238419E-1,-1.984279E-1,1.5831608E-1,-1.35809025E-2,-7.752796E-1,3.993392E-2,-4.7522638E-2,2.2696991E-1,1.616974E-2,-5.1444415E-2,-3.0142233E-1,-3.7121672E-2,-2.4804848E-1],"categories":[0,3,11,0,1,2,3,4,5,6,7,8,9,10,11,9,10,14,15,0,1,4,4,0,1,3,4,5,6,7,8,9,10,11,12,13,0,1,3,4,0,1,2,3,4,5,6,9,11,0,1,2],"categories_nodes":[2,4,5,8,11,16,21,22,24],"categories_segments":[0,3,15,19,22,23,36,40,49],"categories_sizes":[3,12,4,3,1,13,4,9,3],"default_left":[0,1,1,0,1,1,1,0,1,1,0,0,0,0,0,1,0,0,0,0,0,0,0,0,0,0,0,0,0,0,0,0,0,0,0,0,0],"id":8,"left_children":[1,3,5,-1,7,9,11,-1,13,15,17,19,-1,-1,-1,21,23,-1,-1,25,27,29,31,-1,33,-1,-1,-1,35,-1,-1,-1,-1,-1,-1,-1,-1],"loss_changes":[5.623179E0,5.3113174E-1,3.8134987E0,0E0,1.7238572E0,3.809014E0,2.610246E0,0E0,1.1668396E-1,2.7968066E0,9.1705227E-1,1.2606783E0,0E0,0E0,0E0,2.9748292E0,8.71789E-1,0E0,0E0,1.707205E0,7.130494E-1,3.3709805E0,5.3989086E0,0E0,3.864901E-1,0E0,0E0,0E0,3.121767E-1,0E0,0E0,0E0,0E0,0E0,0E0,0E0,0E0],"parents":[2147483647,0,0,1,1,2,2,4,4,5,5,6,6,8,8,9,9,10,10,11,11,15,15,16,16,19,19,20,20,21,21,22,22,24,24,28,28],"right_children":[2,4,6,-1,8,10,12,-1,14,16,18,20,-1,-1,-1,22,24,-1,-1,26,28,30,32,-1,34,-1,-1,-1,36,-1,-1,-1,-1,-1,-1,-1,-1],"split_conditions":[2.6E1,4E1,NaN,-2.7360296E-1,NaN,NaN,6.2E1,9.894851E-2,NaN,6.5E1,1.9800002E2,NaN,1.921062E-1,-5.1384076E-2,-2.4051069E-1,4.7E1,NaN,-2.7079502E-1,-1.4755193E-2,5.145779E4,2.693242E4,NaN,NaN,2.5252558E-2,NaN,-1.984279E-1,1.5831608E-1,-1.35809025E-2,3E1,3.993392E-2,-4.7522638E-2,2.2696991E-1,1.616974E-2,-5.1444415E-2,-3.0142233E-1,-3.7121672E-2,-2.4804848E-1],"split_indices":[0,7,4,0,2,2,0,0,1,0,7,1,0,0,0,0,4,0,0,5,5,3,4,0,2,0,0,0,0,0,0,0,0,0,0,0,0],"split_type":[0,0,1,0,1,1,0,0,1,0,0,1,0,0,0,0,1,0,0,0,0,1,1,0,1,0,0,0,0,0,0,0,0,0,0,0,0],"sum_hessian":[2.4703528E2,1.14295025E1,2.3560579E2,5.9663644E0,5.463138E0,2.1852167E2,1.7084112E1,1.7551609E0,3.7079773E0,2.1236781E2,6.1538587E0,1.591502E1,1.1690929E0,1.0343329E0,2.6736443E0,2.074941E2,4.8737197E0,4.3500867E0,1.803772E0,2.928877E0,1.2986143E1,1.5762209E2,4.9872E1,1.1387157E0,3.7350042E0,1.1158332E0,1.813044E0,1.6450715E0,1.1341071E1,8.499928E1,7.26228E1,1.5057738E1,3.4814266E1,1.2337563E0,2.501248E0,1.0808076E0,1.0260264E1],"tree_param":{"num_deleted":"0","num_feature":"8","num_nodes":"37","size_leaf_vector":"1"}},{"base_weights":[-4.104167E-2,8.519673E-2,-1.8291563E-1,2.5840384E-1,-1.400056E-1,-7.865912E-1,-1.0518734E-1,6.5482624E-2,4.40172E-1,-1.8193199E-1,1.9753824E-1,-9.4532603E-1,9.052276E-2,6.916294E-1,-1.6466315E-1,2.4690202E-1,-2.6335573E-1,2.0960598E-1,7.088431E-1,-7.805545E-2,-4.756743E-1,-6.559292E-2,-2.9818162E-1,9.299091E-1,6.281097E-2,-4.8139623E-1,-2.4783347E-2,-2.2032484E-2,5.4588133E-1,5.0866988E-2,-5.721732E-1,4.610313E-1,-2.402244E-1,-2.1909997E-2,8.042448E-1,4.017302E-4,-2.4683572E-1,-1.8146555E-1,-7.202563E-1,3.663295E-1,3.0691223E-2,1.7617774E-1,-1.4922452E-1,-8.844079E-2,-7.4955034E-1,1.0851472E-1,-3.8374555E-1,-8.510044E-2,1.4521235E-1,2.2646989E-1,-4.1103482E-2,1.7124486E-1,-1.9432932E-1,-1.9477766E-2,-2.7301136E-1,-6.016129E-2,2.1554007E-1,1.1659859E-1,-2.4266572E-1,2.6659682E-1,7.0106336E-3,-3.2675203E-2,1.9425003E-1,7.028777E-2,-2.0739661E-1,-2.8402162E-1,1.075825E-1,9.3683325E-2,-1.3412149E-1,-1.24881845E-2,-2.4641742E-1,5.1753998E-2,-1.951524E-1,5.2070245E-2,-1.664488E-1],"categories":[0,2,4,6,8,9,10,11,12,13,14,15,1,3,5,7,10,11,12,13,0,1,2,4,6,3,5,1,3,5,12,0,1,3,4,0,1,3,4,5,2,10,11,13,0,1,3,4,5,4,1,3,5,6,7,9,10,11,12,13,14,0,1,3,4,5,6,7,8,9,10,11,12,13,14,15],"categories_nodes":[0,1,6,7,9,16,23,25,43,44,45,46],"categories_segments":[0,12,20,25,27,31,35,40,44,49,50,61],"categories_sizes":[12,8,5,2,4,4,5,4,5,1,11,15],"default_left":[1,1,0,0,1,1,0,0,1,1,0,0,0,0,0,0,0,1,0,1,0,0,0,0,1,0,1,0,0,1,0,1,0,0,0,1,0,1,1,0,0,0,0,0,0,1,1,0,0,0,0,0,0,0,0,0,0,0,0,0,0,0,0,0,0,0,0,0,0,0,0,0,0,0,0],"id":9,"left_children":[1,3,5,7,9,11,13,15,17,19,-1,21,-1,23,25,27,29,31,33,35,37,-1,-1,39,41,43,45,47,49,51,53,55,57,-1,59,61,-1,63,65,-1,-1,-1,-1,67,69,71,73,-1,-1,-1,-1,-1,-1,-1,-1,-1,-1,-1,-1,-1,-1,-1,-1,-1,-1,-1,-1,-1,-1,-1,-1,-1,-1,-1,-1],"loss_changes":[4.355714E0,5.064667E0,5.2860174E0,2.5387874E0,2.0177078E0,2.5133338E0,4.972436E0,2.2541707E0,2.1759691E0,1.6303566E0,0E0,1.8884659E-1,0E0,1.0373404E0,4.2504687E0,1.9549958E0,1.3420844E0,2.5553243E0,1.3201408E0,2.429129E0,8.824997E-1,0E0,0E0,1.1356883E0,1.1976544E0,3.0335531E0,3.2852685E0,1.948986E0,1.7423182E0,3.139552E0,1.1244133E0,2.5637772E0,3.3209267E0,0E0,9.781647E-1,2.8015032E0,0E0,1.8002471E0,2.1358914E0,0E0,0E0,0E0,0E0,2.017332E0,8.482876E-1,2.5513403E0,1.8675504E0,0E0,0E0,0E0,0E0,0E0,0E0,0E0,0E0,0E0,0E0,0E0,0E0,0E0,0E0,0E0,0E0,0E0,0E0,0E0,0E0,0E0,0E0,0E0,0E0,0E0,0E0,0E0,0E0],"parents":[2147483647,0,0,1,1,2,2,3,3,4,4,5,5,6,6,7,7,8,8,9,9,11,11,13,13,14,14,15,15,16,16,17,17,18,18,19,19,20,20,23,23,24,24,25,25,26,26,27,27,28,28,29,29,30,30,31,31,32,32,34,34,35,35,37,37,38,38,43,43,44,44,45,45,46,46],"right_children":[2,4,6,8,10,12,14,16,18,20,-1,22,-1,24,26,28,30,32,34,36,38,-1,-1,40,42,44,46,48,50,52,54,56,58,-1,60,62,-1,64,66,-1,-1,-1,-1,68,70,72,74,-1,-1,-1,-1,-1,-1,-1,-1,-1,-1,-1,-1,-1,-1,-1,-1,-1,-1,-1,-1,-1,-1,-1,-1,-1,-1,-1,-1],"split_conditions":[NaN,NaN,3.8E1,4.9E1,7E1,2.0160608E5,NaN,NaN,3.373079E4,NaN,1.9753824E-1,2.259658E4,9.052276E-2,9.9E1,3.9E1,8.597668E4,NaN,2.415531E4,3.2E1,6E1,4.3E1,-6.559292E-2,-2.9818162E-1,NaN,3.6E1,NaN,5.026474E4,5.8E1,6E1,4.7E1,6.344623E4,2.8E1,4.2E1,-2.1909997E-2,9.913605E4,5E1,-2.4683572E-1,5.310564E4,1.2657284E5,3.663295E-1,3.0691223E-2,1.7617774E-1,-1.4922452E-1,NaN,NaN,NaN,NaN,-8.510044E-2,1.4521235E-1,2.2646989E-1,-4.1103482E-2,1.7124486E-1,-1.9432932E-1,-1.9477766E-2,-2.7301136E-1,-6.016129E-2,2.1554007E-1,1.1659859E-1,-2.4266572E-1,2.6659682E-1,7.0106336E-3,-3.2675203E-2,1.9425003E-1,7.028777E-2,-2.0739661E-1,-2.8402162E-1,1.075825E-1,9.3683325E-2,-1.3412149E-1,-1.24881845E-2,-2.4641742E-1,5.1753998E-2,-1.951524E-1,5.2070245E-2,-1.664488E-1],"split_indices":[2,4,7,7,7,5,1,1,5,4,0,5,0,7,0,5,3,5,0,7,7,0,0,3,0,4,5,0,0,0,5,0,0,0,5,7,0,5,5,0,0,0,0,3,1,2,2,0,0,0,0,0,0,0,0,0,0,0,0,0,0,0,0,0,0,0,0,0,0,0,0,0,0,0,0],"split_type":[1,1,0,0,0,0,1,1,0,1,0,0,0,0,0,0,1,0,0,0,0,0,0,1,0,1,0,0,0,0,0,0,0,0,0,0,0,0,0,0,0,0,0,1,1,1,1,0,0,0,0,0,0,0,0,0,0,0,0,0,0,0,0,0,0,0,0,0,0,0,0,0,0,0,0],"sum_hessian":[2.4133076E2,1.2791364E2,1.1341712E2,7.22203E1,5.5693344E1,1.1897285E1,1.0151984E2,3.5695168E1,3.652513E1,5.3648483E1,2.0448613E0,1.0497599E1,1.399687E0,6.3130536E0,9.520678E1,2.3164522E1,1.2530646E1,2.0614504E1,1.5910627E1,4.0568066E1,1.308042E1,1.0029361E0,9.494662E0,4.2309785E0,2.082075E0,2.8417923E1,6.6788864E1,1.2682662E1,1.0481859E1,6.6249866E0,5.9056597E0,1.3207493E1,7.4070115E0,1.7557365E0,1.4154891E1,3.7605766E1,2.9622989E0,6.7285547E0,6.3518653E0,2.7780678E0,1.4529109E0,1.0504532E0,1.0316218E0,1.2066045E1,1.6351877E1,4.9212025E1,1.7576838E1,8.650105E0,4.0325565E0,7.9447145E0,2.5371442E0,3.9030976E0,2.721889E0,2.8376172E0,3.0680428E0,3.761654E0,9.445839E0,3.6675618E0,3.7394497E0,1.2649481E1,1.5054101E0,3.2882385E1,4.723378E0,4.004E0,2.7245543E0,5.3510127E0,1.0008522E0,5.7596793E0,6.3063655E0,1.6520429E0,1.4699835E1,4.60979E1,3.1141253E0,4.1249876E0,1.3451849E1],"tree_param":{"num_deleted":"0","num_feature":"8","num_nodes":"75","size_leaf_vector":"1"}},{"base_weights":[-3.5007272E-2,-7.4505323E-1,-1.4056587E-2,-2.5574747E-1,-4.4784684E-2,3.1992592E-2,-2.482778E-1,4.846394E-2,-5.410348E-1,-1.0926946E-1,-8.107525E-1,1.2170126E-1,-6.476415E-2,-7.20954E-2,-2.6100376E-1,-2.2660471E-1,-3.5966266E-2,-1.907231E-2,-2.7711976E-1,2.4735965E-1,-2.9160395E-2,2.5688076E-1,-2.4732617E-1,-1.8589047E-1,1.3673446E-1,4.0206674E-2,-2.1409386E-1,9.767194E-2,-1.5901032E-1,1.1738542E-1,-6.888009E-2,-3.924876E-2,1.4143394E-1,-7.383601E-3,-1.333321E-1,-6.948329E-2,7.619259E-2],"categories":[0,3,5,11,13,2,4,6,8,9,10,11,12,13,14,0,1,2,3,4,5,6,7,8,9,0,1,2,3,4,5,6,7,0,1,2,5,6,0,2,3,4,0,1,2,3,4,5,0,1,3,4,5,0,1,3,4,5,6,8,12,0,2,3,4,5,6,7,9,10,11,12,13,2,8],"categories_nodes":[2,7,9,10,11,12,13,16,19,20,22],"categories_segments":[0,5,15,25,33,38,42,48,53,61,73],"categories_sizes":[5,10,10,8,5,4,6,5,8,12,2],"default_left":[0,0,1,0,0,1,1,1,0,0,0,0,1,1,0,0,1,0,0,1,1,0,0,0,0,0,0,0,0,0,0,0,0,0,0,0,0],"id":10,"left_children":[1,3,5,-1,-1,7,9,11,13,15,17,19,21,23,-1,-1,25,-1,-1,27,29,31,33,-1,-1,35,-1,-1,-1,-1,-1,-1,-1,-1,-1,-1,-1],"loss_changes":[3.485602E0,3.026464E-1,2.4810896E0,0E0,0E0,1.8432349E0,2.866047E0,1.5672827E0,7.797779E-1,1.4625802E0,5.602598E-1,2.1784954E0,4.4388885E0,1.2483623E0,0E0,0E0,1.5412222E0,0E0,0E0,3.9784296E0,4.551586E0,2.3468585E0,2.098126E0,0E0,0E0,1.6443465E0,0E0,0E0,0E0,0E0,0E0,0E0,0E0,0E0,0E0,0E0,0E0],"parents":[2147483647,0,0,1,1,2,2,5,5,6,6,7,7,8,8,9,9,10,10,11,11,12,12,13,13,16,16,19,19,20,20,21,21,22,22,25,25],"right_children":[2,4,6,-1,-1,8,10,12,14,16,18,20,22,24,-1,-1,26,-1,-1,28,30,32,34,-1,-1,36,-1,-1,-1,-1,-1,-1,-1,-1,-1,-1,-1],"split_conditions":[2.4E1,8.421506E5,NaN,-2.5574747E-1,-4.4784684E-2,6.5E1,7.310798E4,NaN,4.923733E4,NaN,NaN,NaN,NaN,NaN,-2.6100376E-1,-2.2660471E-1,NaN,-1.907231E-2,-2.7711976E-1,NaN,NaN,4.4E1,NaN,-1.8589047E-1,1.3673446E-1,3.716849E4,-2.1409386E-1,9.767194E-2,-1.5901032E-1,1.1738542E-1,-6.888009E-2,-3.924876E-2,1.4143394E-1,-7.383601E-3,-1.333321E-1,-6.948329E-2,7.619259E-2],"split_indices":[0,5,4,0,0,0,5,2,5,2,2,1,1,2,0,0,3,0,0,4,4,0,4,0,0,5,0,0,0,0,0,0,0,0,0,0,0],"split_type":[0,0,1,0,0,0,0,1,0,1,1,1,1,1,0,0,1,0,0,1,1,0,1,0,0,0,0,0,0,0,0,0,0,0,0,0,0],"sum_hessian":[2.3401521E2,5.7164106E0,2.282988E2,4.4779706E0,1.2384398E0,1.9151024E2,3.678856E1,1.8704904E2,4.461194E0,3.0456013E1,6.332544E0,1.1353705E2,7.351199E1,2.341981E0,2.1192133E0,2.1552882E0,2.8300726E1,1.0370241E0,5.29552E0,6.1593693E1,5.194336E1,2.6469646E1,4.7042347E1,1.0642573E0,1.2777237E0,2.6286703E1,2.014022E0,5.649131E1,5.1023808E0,1.6461466E1,3.548189E1,9.569064E0,1.6900581E1,2.2615051E1,2.4427296E1,1.1535397E1,1.47513075E1],"tree_param":{"num_deleted":"0","num_feature":"8","num_nodes":"37","size_leaf_vector":"1"}},{"base_weights":[-3.3743683E-2,-6.8668383E-1,-1.7033935E-2,-2.4163915E-1,-3.8300637E-2,1.4790465E-1,-8.02843E-2,7.577212E-2,6.9901985E-1,4.8381564E-1,-1.0832372E-1,1.7349285E-1,-3.6847222E-1,9.6965206E-1,1.4789785E-1,2.0115697E-1,3.1552467E-1,-6.6466E-2,-3.734534E-1,2.8476176E-1,-3.1726342E-1,-6.9159986E-3,-5.551654E-1,4.6305407E-2,3.4814602E-1,2.2680275E-1,-1.5938827E-1,5.063253E-1,-1.1249361E-1,-8.538932E-2,2.808344E-1,8.838134E-3,-6.069694E-1,2.2692945E-2,1.5960449E-1,-2.1063662E-1,-3.0466702E-2,-1.2462484E-1,1.4826326E-1,-1.8813252E-2,-2.1151921E-1,-2.670472E-2,2.0976095E-1,-5.507864E-2,4.499519E-2,1.4582734E-1,-1.8346524E-1,-7.586333E-2,-2.5693834E-1],"categories":[0,3,4,5,6,7,9,10,11,13,0,1,2,4,5,6,8,9,11,12,13,14,15,0,1,3,4,5,0,0,2,3,5,4,0,1,2,3,4,5,7,9,10,11,0,0,0,1,4,0],"categories_nodes":[2,6,7,8,11,15,18,19,22,31,32],"categories_segments":[0,10,23,28,29,33,34,44,45,46,49],"categories_sizes":[10,13,5,1,4,1,10,1,1,3,1],"default_left":[0,0,0,0,0,1,0,1,0,1,1,1,0,1,0,1,0,1,1,0,1,0,0,0,0,0,0,1,0,0,0,1,0,0,0,0,0,0,0,0,0,0,0,0,0,0,0,0,0],"id":11,"left_children":[1,3,5,-1,-1,7,9,11,13,15,17,19,21,23,25,27,-1,29,31,33,35,37,39,-1,-1,-1,-1,41,-1,43,-1,45,47,-1,-1,-1,-1,-1,-1,-1,-1,-1,-1,-1,-1,-1,-1,-1,-1],"loss_changes":[2.5017478E0,2.7717185E-1,2.3659208E0,0E0,0E0,2.4474242E0,2.6424396E0,2.5271022E0,9.24212E-1,1.0625571E0,1.7154402E0,2.667138E0,7.083366E-1,5.3979015E-1,1.8626742E0,1.3389939E0,0E0,2.6724348E0,1.8947778E0,1.9759641E0,6.920091E-1,1.1480799E0,4.6847653E-1,0E0,0E0,0E0,0E0,6.0172606E-1,0E0,3.14883E0,0E0,2.9653955E0,9.4543314E-1,0E0,0E0,0E0,0E0,0E0,0E0,0E0,0E0,0E0,0E0,0E0,0E0,0E0,0E0,0E0,0E0],"parents":[2147483647,0,0,1,1,2,2,5,5,6,6,7,7,8,8,9,9,10,10,11,11,12,12,13,13,14,14,15,15,17,17,18,18,19,19,20,20,21,21,22,22,27,27,29,29,31,31,32,32],"right_children":[2,4,6,-1,-1,8,10,12,14,16,18,20,22,24,26,28,-1,30,32,34,36,38,40,-1,-1,-1,-1,42,-1,44,-1,46,48,-1,-1,-1,-1,-1,-1,-1,-1,-1,-1,-1,-1,-1,-1,-1,-1],"split_conditions":[2.4E1,8.421506E5,NaN,-2.4163915E-1,-3.8300637E-2,5.5E1,NaN,NaN,NaN,9.649151E4,9.124371E4,NaN,7.999406E4,3.2E1,5.8E1,NaN,3.1552467E-1,8.75397E4,NaN,NaN,1.305735E4,6.614539E4,NaN,4.6305407E-2,3.4814602E-1,2.2680275E-1,-1.5938827E-1,4E1,-1.1249361E-1,6.8E1,2.808344E-1,NaN,NaN,2.2692945E-2,1.5960449E-1,-2.1063662E-1,-3.0466702E-2,-1.2462484E-1,1.4826326E-1,-1.8813252E-2,-2.1151921E-1,-2.670472E-2,2.0976095E-1,-5.507864E-2,4.499519E-2,1.4582734E-1,-1.8346524E-1,-7.586333E-2,-2.5693834E-1],"split_indices":[0,5,4,0,0,7,2,3,1,5,5,1,5,0,7,1,0,5,4,6,5,5,6,0,0,0,0,7,0,7,0,2,3,0,0,0,0,0,0,0,0,0,0,0,0,0,0,0,0],"split_type":[0,0,1,0,0,0,1,1,1,0,0,1,0,0,0,1,0,0,1,1,0,0,1,0,0,0,0,0,0,0,0,1,1,0,0,0,0,0,0,0,0,0,0,0,0,0,0,0,0],"sum_hessian":[2.2937006E2,4.722978E0,2.2464708E2,3.531698E0,1.1912801E0,6.1897633E1,1.6274945E2,5.5739655E1,6.1579766E0,6.9369206E0,1.5581252E2,4.6188915E1,9.550742E0,3.6206284E0,2.5373485E0,5.5359073E0,1.4010135E0,1.3564764E2,2.0164871E1,3.7994247E1,8.194665E0,3.605417E0,5.945325E0,1.029809E0,2.5908194E0,1.2790534E0,1.2582949E0,3.6982062E0,1.837701E0,1.3403267E2,1.6149842E0,8.011429E0,1.2153442E1,2.1292063E1,1.6702187E1,2.1333838E0,6.061281E0,2.0805032E0,1.5249137E0,1.7183777E0,4.2269473E0,1.0367222E0,2.6614838E0,9.472852E1,3.9304142E1,4.6504235E0,3.3610053E0,5.8559475E0,6.2974954E0],"tree_param":{"num_deleted":"0","num_feature":"8","num_nodes":"49","size_leaf_vector":"1"}},{"base_weights":[-2.5128424E-2,-6.2881607E-1,-1.1541832E-2,-2.2717682E-1,-3.274113E-2,1.9243277E-3,-5.467972E-1,2.530712E-1,-2.7880078E-2,-2.5437495E-1,9.0021E-2,5.343046E-1,-4.042619E-1,-5.470607E-1,9.7227385E-3,8.1875205E-1,-3.9536335E-2,-8.033521E-1,1.9017696E-1,7.541926E-2,-8.722789E-1,6.425825E-1,-1.9019725E-2,1.2042882E-1,3.6055946E-1,8.838114E-2,-1.5461044E-1,-3.089592E-1,-1.0337136E-1,1.5436488E-1,-2.4265458E-1,-3.1873992E-1,-2.5023857E-2,3.1158855E-2,3.3365443E-1,3.1540994E-2,-4.9516927E-2],"categories":[9,14,15,0,4,5,0,1,2,3,4,5,6,7,8,9,10,11,4,0,1,2,0,3,4,6,10,11,12,13],"categories_nodes":[2,7,13,16,17,22],"categories_segments":[0,3,6,18,19,22],"categories_sizes":[3,3,12,1,3,8],"default_left":[0,0,1,0,0,0,0,1,0,0,0,0,0,1,0,0,1,0,0,0,1,0,0,0,0,0,0,0,0,0,0,0,0,0,0,0,0],"id":12,"left_children":[1,3,5,-1,-1,7,9,11,13,-1,-1,15,17,19,21,23,25,27,-1,29,31,33,35,-1,-1,-1,-1,-1,-1,-1,-1,-1,-1,-1,-1,-1,-1],"loss_changes":[1.8496187E0,2.4871182E-1,1.6042708E0,0E0,0E0,1.6385864E0,1.6473103E0,4.5088787E0,3.8267477E0,0E0,0E0,2.7573447E0,3.6281283E0,2.7455382E0,3.3501894E0,1.3094397E0,1.1831698E0,2.5601673E-1,0E0,2.537509E0,1.2277889E0,1.9085808E0,3.2176375E0,0E0,0E0,0E0,0E0,0E0,0E0,0E0,0E0,0E0,0E0,0E0,0E0,0E0,0E0],"parents":[2147483647,0,0,1,1,2,2,5,5,6,6,7,7,8,8,11,11,12,12,13,13,14,14,15,15,16,16,17,17,19,19,20,20,21,21,22,22],"right_children":[2,4,6,-1,-1,8,10,12,14,-1,-1,16,18,20,22,24,26,28,-1,30,32,34,36,-1,-1,-1,-1,-1,-1,-1,-1,-1,-1,-1,-1,-1,-1],"split_conditions":[2.4E1,8.421506E5,NaN,-2.2717682E-1,-3.274113E-2,2.063231E4,3.3057322E5,NaN,2.61582E4,-2.5437495E-1,9.0021E-2,5.2E1,1.87591E4,NaN,2.787889E4,5E1,NaN,NaN,1.9017696E-1,5.2E1,5E1,4.7E1,NaN,1.2042882E-1,3.6055946E-1,8.838114E-2,-1.5461044E-1,-3.089592E-1,-1.0337136E-1,1.5436488E-1,-2.4265458E-1,-3.1873992E-1,-2.5023857E-2,3.1158855E-2,3.3365443E-1,3.1540994E-2,-4.9516927E-2],"split_indices":[0,5,2,0,0,5,5,2,5,0,0,7,5,4,5,0,1,4,0,7,7,0,4,0,0,0,0,0,0,0,0,0,0,0,0,0,0],"split_type":[0,0,1,0,0,0,0,1,0,0,0,0,0,1,0,0,1,1,0,0,0,0,1,0,0,0,0,0,0,0,0,0,0,0,0,0,0],"sum_hessian":[2.2539154E2,3.9643214E0,2.2142722E2,2.8121343E0,1.1521872E0,2.1696513E2,4.4620876E0,2.2221825E1,1.947433E2,3.2907586E0,1.1713289E0,1.5694327E1,6.5274982E0,1.22371435E1,1.8250616E2,1.0207684E1,5.4866433E0,4.8783865E0,1.649112E0,4.4629617E0,7.7741814E0,7.000939E0,1.7550522E2,5.8658524E0,4.341831E0,3.446968E0,2.0396755E0,2.4325771E0,2.4458094E0,3.2614307E0,1.2015309E0,5.984543E0,1.7896385E0,3.8292415E0,3.1716976E0,9.501023E1,8.0494995E1],"tree_param":{"num_deleted":"0","num_feature":"8","num_nodes":"37","size_leaf_vector":"1"}},{"base_weights":[-2.0421015E-2,5.3209092E-2,-1.0895597E-1,-6.163192E-4,4.777194E-1,-5.810419E-4,-4.0854472E-1,-2.748041E-2,6.845558E-1,6.87803E-1,-2.3257703E-1,7.660602E-2,-6.3466597E-1,-6.0984474E-1,3.3263657E-2,-6.9744635E-1,7.645246E-3,3.4154025E-1,-1.0652323E-2,-1.6082289E-3,7.92032E-1,1.4113162E-1,-2.1538118E-1,1.3574421E-1,-6.754168E-1,8.610284E-2,-8.3148634E-1,-2.0647071E-1,-7.763034E-1,-4.521798E-1,6.7184114E-1,4.570829E-2,-2.800828E-1,3.595796E-1,-3.414549E-2,8.754896E-1,5.7240266E-2,1.8778981E-1,-5.10945E-1,-2.6084045E-1,-3.8188644E-2,-5.8937866E-2,-2.7210894E-1,-2.1655828E-1,5.023805E-1,-9.36929E-1,-1.5793799E-1,8.670368E-2,-7.062749E-1,-6.390971E-2,3.1352472E-1,-1.871655E-1,1.7184411E-1,4.190901E-2,-3.7744366E-2,5.2837145E-2,3.4019807E-1,-3.808544E-2,9.275793E-2,-2.4061763E-1,9.086925E-2,2.601994E-1,-3.45015E-2,-8.686731E-2,-3.0888656E-1,1.5448213E-1,-2.2359799E-1,-3.446545E-2,-2.5332808E-1],"categories":[0,1,3,4,5,0,0,0,3,4,5,6,7,8,1,2,0,1,2,3,0,0,1,2,3,4,6,9,10,11,12,13,14,15,0,1,2,0,6,8,9,4,0,1,2,3,4,5,6,7,8,9,10,11,12,13,0,1,2,3,4,0,1,2,3,4,5,6,8,9,10,11,12,13,0,1,3,4,5,6,7,8,9,10,11,12,13],"categories_nodes":[0,2,3,4,11,12,13,16,20,23,26,29,30,44,46],"categories_segments":[0,5,6,7,14,16,20,21,34,37,41,42,56,61,74],"categories_sizes":[5,1,1,7,2,4,1,13,3,4,1,14,5,13,13],"default_left":[0,1,1,1,1,1,1,0,0,0,0,1,0,0,0,0,0,0,0,0,1,0,0,1,0,0,0,0,1,1,0,0,0,0,1,1,0,0,0,0,0,0,0,0,0,0,0,0,0,0,0,0,0,0,0,0,0,0,0,0,0,0,0,0,0,0,0,0,0],"id":13,"left_children":[1,3,5,7,9,11,13,15,17,19,21,23,25,27,29,31,33,-1,-1,-1,35,-1,-1,37,39,-1,41,43,45,47,49,-1,-1,51,53,55,-1,57,59,-1,-1,-1,-1,-1,61,63,65,-1,67,-1,-1,-1,-1,-1,-1,-1,-1,-1,-1,-1,-1,-1,-1,-1,-1,-1,-1,-1,-1],"loss_changes":[1.4604291E0,2.7993045E0,3.2999568E0,2.0382366E0,2.2170691E0,3.7508962E0,2.4215908E0,2.5124085E0,1.4059459E0,7.911396E-1,1.6664253E0,3.1304455E0,1.7473168E0,1.0886607E0,3.217633E0,1.2095492E0,1.5156362E0,0E0,0E0,0E0,3.0836725E-1,0E0,0E0,2.2560437E0,4.369688E-1,0E0,1.6287518E-1,2.845442E0,1.1238565E0,1.3224173E0,1.6962519E0,0E0,0E0,2.6507747E0,1.4881494E0,1.2540188E0,0E0,2.3368514E0,1.4391924E0,0E0,0E0,0E0,0E0,0E0,8.7723005E-1,2.9963493E-1,1.9027277E0,0E0,2.87992E-1,0E0,0E0,0E0,0E0,0E0,0E0,0E0,0E0,0E0,0E0,0E0,0E0,0E0,0E0,0E0,0E0,0E0,0E0,0E0,0E0],"parents":[2147483647,0,0,1,1,2,2,3,3,4,4,5,5,6,6,7,7,8,8,9,9,10,10,11,11,12,12,13,13,14,14,15,15,16,16,20,20,23,23,24,24,26,26,27,27,28,28,29,29,30,30,33,33,34,34,35,35,37,37,38,38,44,44,45,45,46,46,48,48],"right_children":[2,4,6,8,10,12,14,16,18,20,22,24,26,28,30,32,34,-1,-1,-1,36,-1,-1,38,40,-1,42,44,46,48,50,-1,-1,52,54,56,-1,58,60,-1,-1,-1,-1,-1,62,64,66,-1,68,-1,-1,-1,-1,-1,-1,-1,-1,-1,-1,-1,-1,-1,-1,-1,-1,-1,-1,-1,-1],"split_conditions":[NaN,5.773091E4,NaN,NaN,NaN,1.2055481E5,1.0041586E5,3.3E1,4.1E1,3.1E1,5E1,NaN,NaN,NaN,5.2E1,2.842193E4,NaN,3.4154025E-1,-1.0652323E-2,-1.6082289E-3,NaN,1.4113162E-1,-2.1538118E-1,NaN,5.8E1,8.610284E-2,NaN,5.5E1,4.5E1,NaN,NaN,4.570829E-2,-2.800828E-1,3.5E1,3.2E1,6E0,5.7240266E-2,3.7E1,1.0414606E5,-2.6084045E-1,-3.8188644E-2,-5.8937866E-2,-2.7210894E-1,-2.1655828E-1,NaN,3E1,NaN,8.670368E-2,3.8E1,-6.390971E-2,3.1352472E-1,-1.871655E-1,1.7184411E-1,4.190901E-2,-3.7744366E-2,5.2837145E-2,3.4019807E-1,-3.808544E-2,9.275793E-2,-2.4061763E-1,9.086925E-2,2.601994E-1,-3.45015E-2,-8.686731E-2,-3.0888656E-1,1.5448213E-1,-2.2359799E-1,-3.446545E-2,-2.5332808E-1],"split_indices":[3,5,6,6,4,5,5,7,0,0,0,1,3,3,7,5,2,0,0,0,1,0,0,2,7,0,1,0,7,2,4,0,0,0,0,7,0,0,5,0,0,0,0,0,4,0,4,0,0,0,0,0,0,0,0,0,0,0,0,0,0,0,0,0,0,0,0,0,0],"split_type":[1,0,1,1,1,0,0,0,0,0,0,1,1,1,0,0,1,0,0,0,1,0,0,1,0,0,1,0,0,1,1,0,0,0,0,0,0,0,0,0,0,0,0,0,1,0,1,0,0,0,0,0,0,0,0,0,0,0,0,0,0,0,0,0,0,0,0,0,0],"sum_hessian":[2.2214276E2,1.2149797E2,1.006448E2,1.0871242E2,1.2785548E1,7.464444E1,2.6000362E1,1.0553454E2,3.177884E0,9.891591E0,2.8939571E0,6.732782E1,7.3166194E0,1.7600674E1,8.399688E0,4.3180904E0,1.01216446E2,1.5927719E0,1.5851122E0,1.416942E0,8.474648E0,1.1945151E0,1.699442E0,6.317899E1,4.1488266E0,1.2068627E0,6.1097565E0,5.795936E0,1.1804737E1,4.9378524E0,3.4618359E0,1.016211E0,3.3018794E0,9.936173E0,9.128027E1,7.0411043E0,1.4335446E0,5.912983E1,4.04916E0,2.6310773E0,1.5177493E0,1.0323472E0,5.0774093E0,3.3452935E0,2.4506426E0,8.961693E0,2.8430443E0,1.2255429E0,3.7123094E0,1.1543529E0,2.307483E0,1.4273268E0,8.508847E0,3.1334074E1,5.9946198E1,2.3539538E0,4.68715E0,1.64464E1,4.268343E1,2.9930253E0,1.0561345E0,1.2857567E0,1.1648859E0,1.6389608E0,7.322732E0,1.38258E0,1.4604642E0,1.0498363E0,2.6624732E0],"tree_param":{"num_deleted":"0","num_feature":"8","num_nodes":"69","size_leaf_vector":"1"}},{"base_weights":[-2.0622447E-2,-5.530664E-1,-1.012086E-2,-2.1465044E-1,-5.934043E-3,-2.111565E-2,4.6441856E-1,-7.6186E-3,-2.578328E-1,8.3411384E-1,-1.3406132E-1,5.56769E-1,-2.252038E-2,6.3403144E-2,3.3332613E-1,9.514919E-1,-3.789155E-2,3.5768591E-3,-4.0232286E-1,3.3786857E-1,1.00871645E-1,-9.789193E-3,6.254849E-2,2.6968703E-2,-2.6395762E-1],"categories":[0,3,0,1,2,4,5,6,7,8,9,11,12,13,14,15,0,1,2,3,4,5,6,7,0,1,2,3,0],"categories_nodes":[1,5,7,9,15,18],"categories_segments":[0,1,2,16,24,28],"categories_sizes":[1,1,14,8,4,1],"default_left":[0,0,1,0,0,1,1,0,0,1,0,0,1,0,0,0,0,1,0,0,0,0,0,0,0],"id":14,"left_children":[1,3,5,-1,-1,7,9,11,-1,13,-1,15,17,-1,-1,19,-1,21,23,-1,-1,-1,-1,-1,-1],"loss_changes":[1.214444E0,3.498143E-1,1.1315285E0,0E0,0E0,2.3818307E0,2.0275798E0,1.7681737E0,0E0,4.2809653E-1,0E0,1.578503E0,2.0267909E0,0E0,0E0,2.4383068E-3,0E0,1.4327772E0,3.169242E0,0E0,0E0,0E0,0E0,0E0,0E0],"parents":[2147483647,0,0,1,1,2,2,5,5,6,6,7,7,9,9,11,11,12,12,15,15,17,17,18,18],"right_children":[2,4,6,-1,-1,8,10,12,-1,14,-1,16,18,-1,-1,20,-1,22,24,-1,-1,-1,-1,-1,-1],"split_conditions":[2.4E1,NaN,7E1,-2.1465044E-1,-5.934043E-3,NaN,4.4E1,NaN,-2.578328E-1,NaN,-1.3406132E-1,5.5E1,6E1,6.3403144E-2,3.3332613E-1,NaN,-3.789155E-2,5E1,NaN,3.3786857E-1,1.00871645E-1,-9.789193E-3,6.254849E-2,2.6968703E-2,-2.6395762E-1],"split_indices":[0,4,7,0,0,4,0,2,0,4,0,0,7,0,0,1,0,7,1,0,0,0,0,0,0],"split_type":[0,1,0,0,0,1,0,1,0,1,0,0,0,0,0,1,0,0,1,0,0,0,0,0,0],"sum_hessian":[2.1719548E2,3.2016706E0,2.1399382E2,2.1922452E0,1.0094254E0,2.1008185E2,3.9119658E0,2.0774623E2,2.335623E0,2.8432105E0,1.0687554E0,4.4087143E0,2.0333751E2,1.4179714E0,1.4252392E0,2.5450628E0,1.8636515E0,1.9119086E2,1.214665E1,1.3353113E0,1.2097515E0,1.6319609E2,2.799477E1,6.381101E0,5.765549E0],"tree_param":{"num_deleted":"0","num_feature":"8","num_nodes":"25","size_leaf_vector":"1"}},{"base_weights":[-1.5266779E-2,4.845751E-2,-9.372802E-2,-1.4147917E-2,3.0925044E-1,-5.0824363E-2,-6.4079213E-1,6.419843E-1,-5.2506912E-2,5.597278E-1,-4.8132192E-2,7.201933E-2,-2.4505319E-1,-2.8632876E-1,6.147467E-2,9.3079925E-1,-8.729999E-2,1.2025158E-3,-4.3475503E-1,-5.2984264E-2,6.7557573E-1,3.2846507E-1,-5.496046E-1,1.842924E-1,-2.0030709E-1,-3.734997E-2,-6.3435966E-1,3.3178475E-1,6.778275E-2,2.205509E-1,-9.6742906E-2,2.5372377E-1,-7.086689E-1,3.8349614E-3,7.639081E-1,-5.8049776E-2,7.346339E-1,-2.6767415E-1,-2.3780507E-1,1.3246298E-1,3.004061E-1,3.1625134E-1,-3.7182415E-1,-2.8262562E-1,4.1935542E-1,-8.382091E-1,-9.137237E-2,-1.9505128E-1,1.0429218E-1,1.8690754E-1,-5.4862857E-2,-1.12744756E-1,2.9762506E-1,-2.887884E-1,-5.7044867E-2,2.6744252E-1,4.4373672E-2,1.9634728E-1,-1.7349684E-1,2.765768E-1,6.8204254E-2,-1.2029959E-1,-1.3793692E-2,8.988916E-2,-1.08623154E-1,2.2166407E-1,-1.0205597E-1,-1.9315575E-1,4.511873E-2,-2.3808087E-1,8.030259E-3,2.780829E-1,-6.7203315E-3,-7.412331E-2,-2.7536738E-1,1.0260631E-1,-1.9396773E-1],"categories":[0,1,3,4,5,1,2,0,1,3,4,5,6,0,3,4,5,6,7,8,9,12,13,0,2,4,6,8,9,10,11,12,13,14,0,4,1,2,5,6,0,1,2,3,6,7,8,9,10,11,12,13,14,15,0,1,2,3,4,5,6,7,8,9,10,11,12,13,0,1,2,3,4,5,6,7,8,0,1,2,3,0,1,2,3,4,5,6,7,0,0,1,3,4,5,6,8,9,10,11,12,13,0,1,2,3,4,5,6,7,8,10],"categories_nodes":[0,2,3,4,5,6,11,17,18,31,35,37,39,41,44],"categories_segments":[0,5,7,13,23,34,36,40,54,68,77,81,89,90,102],"categories_sizes":[5,2,6,10,11,2,4,14,14,9,4,8,1,12,10],"default_left":[0,1,1,0,1,1,1,0,1,0,0,0,1,0,0,1,0,0,1,0,0,0,1,1,0,1,0,0,0,0,0,1,1,0,0,0,0,1,0,1,0,0,0,0,0,0,1,0,0,0,0,0,0,0,0,0,0,0,0,0,0,0,0,0,0,0,0,0,0,0,0,0,0,0,0,0,0],"id":15,"left_children":[1,3,5,7,9,11,13,15,17,19,21,23,25,-1,-1,27,-1,29,31,-1,33,35,37,39,41,43,45,-1,-1,47,49,51,53,-1,55,57,59,61,-1,63,-1,65,67,69,71,73,75,-1,-1,-1,-1,-1,-1,-1,-1,-1,-1,-1,-1,-1,-1,-1,-1,-1,-1,-1,-1,-1,-1,-1,-1,-1,-1,-1,-1,-1,-1],"loss_changes":[1.0874375E0,1.9664828E0,2.2537193E0,2.4968874E0,2.1133864E0,2.1986995E0,2.0516622E0,1.7478065E0,1.9177706E0,1.2950401E0,2.168245E0,1.7726083E0,2.8583796E0,0E0,0E0,2.962427E-1,0E0,1.8019081E0,2.3499935E0,0E0,6.996007E-1,1.0845826E0,1.2281799E-1,1.5916489E0,1.628299E0,2.8411272E0,1.2890449E0,0E0,0E0,3.090852E0,3.709065E0,2.2375798E0,9.3574953E-1,0E0,7.069483E-1,1.9827882E0,1.04828954E-1,9.3085706E-2,0E0,3.36912E0,0E0,1.5804498E0,1.9805901E0,2.6155548E0,2.0152628E0,1.8996382E-1,1.301479E0,0E0,0E0,0E0,0E0,0E0,0E0,0E0,0E0,0E0,0E0,0E0,0E0,0E0,0E0,0E0,0E0,0E0,0E0,0E0,0E0,0E0,0E0,0E0,0E0,0E0,0E0,0E0,0E0,0E0,0E0],"parents":[2147483647,0,0,1,1,2,2,3,3,4,4,5,5,6,6,7,7,8,8,9,9,10,10,11,11,12,12,15,15,17,17,18,18,20,20,21,21,22,22,23,23,24,24,25,25,26,26,29,29,30,30,31,31,32,32,34,34,35,35,36,36,37,37,39,39,41,41,42,42,43,43,44,44,45,45,46,46],"right_children":[2,4,6,8,10,12,14,16,18,20,22,24,26,-1,-1,28,-1,30,32,-1,34,36,38,40,42,44,46,-1,-1,48,50,52,54,-1,56,58,60,62,-1,64,-1,66,68,70,72,74,76,-1,-1,-1,-1,-1,-1,-1,-1,-1,-1,-1,-1,-1,-1,-1,-1,-1,-1,-1,-1,-1,-1,-1,-1,-1,-1,-1,-1,-1,-1],"split_conditions":[NaN,4.668999E4,NaN,NaN,NaN,NaN,NaN,5.9E1,3.979537E4,3.1E1,5.3E1,NaN,5.9042E4,-2.8632876E-1,6.147467E-2,3.008078E4,-8.729999E-2,NaN,NaN,-5.2984264E-2,3.5E1,6.297592E4,5.6E1,2.1727734E5,3.4E1,3.588085E4,7.5E1,3.3178475E-1,6.778275E-2,1.87591E4,1.527518E4,NaN,4.4E1,3.8349614E-3,1.63772E5,NaN,4.7E1,NaN,-2.3780507E-1,NaN,3.004061E-1,NaN,5.2E1,4.4E1,NaN,6.717679E4,2.9E1,-1.9505128E-1,1.0429218E-1,1.8690754E-1,-5.4862857E-2,-1.12744756E-1,2.9762506E-1,-2.887884E-1,-5.7044867E-2,2.6744252E-1,4.4373672E-2,1.9634728E-1,-1.7349684E-1,2.765768E-1,6.8204254E-2,-1.2029959E-1,-1.3793692E-2,8.988916E-2,-1.08623154E-1,2.2166407E-1,-1.0205597E-1,-1.9315575E-1,4.511873E-2,-2.3808087E-1,8.030259E-3,2.780829E-1,-6.7203315E-3,-7.412331E-2,-2.7536738E-1,1.0260631E-1,-1.9396773E-1],"split_indices":[3,5,1,1,4,2,2,0,5,0,0,1,5,0,0,5,0,2,2,0,7,5,0,5,0,5,7,0,0,5,5,4,0,0,5,1,7,4,0,6,0,4,7,0,4,5,0,0,0,0,0,0,0,0,0,0,0,0,0,0,0,0,0,0,0,0,0,0,0,0,0,0,0,0,0,0,0],"split_type":[1,0,1,1,1,1,1,0,0,0,0,1,0,0,0,0,0,1,1,0,0,0,0,0,0,0,0,0,0,0,0,1,0,0,0,1,0,1,0,1,0,1,0,0,1,0,0,0,0,0,0,0,0,0,0,0,0,0,0,0,0,0,0,0,0,0,0,0,0,0,0,0,0,0,0,0,0],"sum_hessian":[2.1558405E2,1.1917525E2,9.64088E1,9.686724E1,2.2308006E1,9.041118E1,5.9976187E0,4.481129E0,9.2386116E1,1.2782794E1,9.525211E0,5.576852E1,3.4642654E1,4.281307E0,1.7163115E0,3.423646E0,1.0574832E0,8.18783E1,1.0507812E1,1.6664062E0,1.1116387E1,5.636954E0,3.8882577E0,3.9717358E1,1.6051165E1,2.3304924E1,1.1337729E1,2.2864456E0,1.1372005E0,2.4888603E1,5.69897E1,3.0116868E0,7.4961247E0,1.4419067E0,9.674481E0,3.327524E0,2.3094296E0,2.7731059E0,1.1151518E0,3.8441013E1,1.2763449E0,3.7907388E0,1.2260426E1,1.5410052E1,7.8948727E0,7.8477945E0,3.4899352E0,2.6457937E0,2.224281E1,5.4247565E0,5.1564945E1,1.8906742E0,1.1210126E0,4.456794E0,3.0393312E0,7.6442237E0,2.0302572E0,1.2954131E0,2.032111E0,1.0897396E0,1.2196901E0,1.2266384E0,1.5464675E0,2.9024197E1,9.416817E0,2.229651E0,1.561088E0,7.908114E0,4.3523116E0,5.221489E0,1.0188563E1,3.1626313E0,4.7322416E0,1.419304E0,6.42849E0,2.175576E0,1.3143591E0],"tree_param":{"num_deleted":"0","num_feature":"8","num_nodes":"77","size_leaf_vector":"1"}},{"base_weights":[-1.3673796E-2,3.458843E-3,-3.436434E-1,4.128974E-1,-5.155257E-3,-6.8209904E-1,-4.8507605E-2,2.0238417E-1,-3.5633378E-2,-1.533324E-2,5.397967E-1,-3.5716686E-2,-2.4255534E-1,-1.852906E-1,1.730718E-1,4.125462E-3,-3.096122E-1,-7.234197E-2,2.9296252E-1,3.383104E-1,-6.836226E-2,5.808764E-2,-8.4387615E-2,3.2971522E-1,-6.40516E-1,-3.893568E-3,1.7663819E-1,5.291535E-2,-2.982447E-2,2.6470501E-2,-8.063613E-2,3.059329E-1,-1.2646052E-1,7.3687054E-2,-2.3926374E-1],"categories":[3,11,0,1,2,4,5,6,7,8,9,10,11,12,13,14,15,2,0,1,2,3,4,5,6,7,8,9,10,11,12,13,14,0,1,2,3,4,5,0,3,4,5,0,0,0,1,2,3,5,6,0,1,3,4,5,6,7,8,9,10,11,12,13],"categories_nodes":[0,1,3,5,10,15,19,22,23,24],"categories_segments":[0,2,17,18,33,39,43,44,45,51],"categories_sizes":[2,15,1,15,6,4,1,1,6,13],"default_left":[1,0,1,1,1,1,1,0,0,1,1,0,0,0,0,0,0,0,0,0,0,0,0,0,0,0,0,0,0,0,0,0,0,0,0],"id":16,"left_children":[1,3,5,7,9,11,13,-1,-1,15,17,-1,-1,-1,19,21,23,-1,-1,25,-1,27,29,31,33,-1,-1,-1,-1,-1,-1,-1,-1,-1,-1],"loss_changes":[1.1995878E0,7.163729E-1,1.0130947E0,6.6248214E-1,1.1138388E0,2.4554801E-1,9.4818634E-1,0E0,0E0,1.1273144E0,1.4913512E0,0E0,0E0,0E0,4.4696826E-1,8.906016E-1,2.7941604E0,0E0,0E0,3.9093676E-1,0E0,2.1750088E0,2.272309E0,2.9308143E0,1.3626919E0,0E0,0E0,0E0,0E0,0E0,0E0,0E0,0E0,0E0,0E0],"parents":[2147483647,0,0,1,1,2,2,3,3,4,4,5,5,6,6,9,9,10,10,14,14,15,15,16,16,19,19,21,21,22,22,23,23,24,24],"right_children":[2,4,6,8,10,12,14,-1,-1,16,18,-1,-1,-1,20,22,24,-1,-1,26,-1,28,30,32,34,-1,-1,-1,-1,-1,-1,-1,-1,-1,-1],"split_conditions":[NaN,NaN,3.5E1,NaN,7E1,NaN,2E1,2.0238417E-1,-3.5633378E-2,6E1,NaN,-3.5716686E-2,-2.4255534E-1,-1.852906E-1,1.4894425E5,NaN,4.063829E4,-7.234197E-2,2.9296252E-1,NaN,-6.836226E-2,5.1E1,NaN,NaN,NaN,-3.893568E-3,1.7663819E-1,5.291535E-2,-2.982447E-2,2.6470501E-2,-8.063613E-2,3.059329E-1,-1.2646052E-1,7.3687054E-2,-2.3926374E-1],"split_indices":[4,2,0,3,7,2,7,0,0,7,2,0,0,0,5,3,5,0,0,3,0,0,6,1,4,0,0,0,0,0,0,0,0,0,0],"split_type":[1,1,0,1,0,1,0,0,0,0,1,0,0,0,0,1,0,0,0,1,0,0,1,1,1,0,0,0,0,0,0,0,0,0,0],"sum_hessian":[2.1098407E2,2.0151077E2,9.473299E0,3.1851268E0,1.9832565E2,3.8020504E0,5.6712494E0,1.9542862E0,1.2308404E0,1.9564351E2,2.6821404E0,1.0531758E0,2.7488744E0,1.0883626E0,4.5828867E0,1.844341E2,1.1209414E1,1.1226387E0,1.5595016E0,3.3560178E0,1.2268687E0,1.1479365E2,6.964044E1,3.8242698E0,7.3851438E0,1.7915943E0,1.5644236E0,6.548749E1,4.9306164E1,3.6238167E1,3.340228E1,1.8070054E0,2.0172644E0,1.026769E0,6.3583746E0],"tree_param":{"num_deleted":"0","num_feature":"8","num_nodes":"35","size_leaf_vector":"1"}}]},"name":"gbtree"},"learner_model_param":{"base_score":"2.5760543E-1","boost_from_average":"1","num_class":"0","num_feature":"8","num_target":"1"},"objective":{"name":"reg:logistic","reg_loss_param":{"scale_pos_weight":"1"}}},"version":[2,0,3]}