{"learner":{"attributes":{"best_iteration":"16","best_ntree_limit":"17"},"feature_names":["Age","Employment","Education","Marital","Occupation","Income","Gender","Deductions","Hours"],"feature_types":["int","c","c","c","c","float","c","i","int"],"gradient_booster":{"gbtree":{"model":{"gbtree_model_param":{"num_parallel_tree":"1","num_trees":"17","size_leaf_vector":"0"},"tree_info":[0,0,0,0,0,0,0,0,0,0,0,0,0,0,0,0,0],"trees":[{"base_weights":[-1.056227E0,-2.3582767E-1,-1.7580488E0,4.4444445E-1,-1.06E0,8E-2,-1.7968128E0,9.425287E-1,-1.3100436E-1,-1.2173913E0,-6.875E-1,7.5E-1,-7.692308E-1,-1.3755274E0,-1.9169909E0,-4.347826E-1,1.0578512E0,-9.3333334E-1,2.5316456E-1,-6.122449E-1,-1.3246753E0,-1.1E0,-4.7826087E-1,-1.5E-1,4.0000004E-1,-3.3333337E-1,-0E0,-1.5646259E0,-1.0212766E0,-5.76532E-1,-1.5E-1,-3.6E-1,1.1764706E-1,1.1428572E0,-0E0,1.6363637E-1,-1.117647E0,4.5255473E-1,-8.8E-1,1.8181819E-1,-1.0967742E0,-1.3665159E0,-2.857143E-1,-6.086956E-1,-4.2857146E-1,1.5E-1,-5.4545456E-1,-5.032258E-1,-8.148148E-1,-5.4545456E-1,-4.0000004E-1,2.0000002E-1,-1.0000001E-1,3.794595E-1,1.5348838E-1,-3E-1,1.3333334E-1,-4.1052634E-1,4.0000003E-2,3.3E-1,5.346535E-2,-3.75E-1,-4.615385E-2,-2.7272728E-1,2.8E-1,-4.2857146E-1,-8.5714296E-2,-3.2054794E-1,-4.4210526E-1,-1.5E-1,-0E0,-3E-1,5.454546E-2,-2.8E-1,-9.67742E-2,5.454546E-2,-3.6E-1,2.2222223E-2,-3.714286E-1],"categories":[0,1,3,4,5,0,3,5,9,11,13,0,1,2,4,5,6,8,9,10,11,13,14,15,2,4,6,8,9,10,11,12,13,14,15,0,2,4,8,9,10,11,13,14,15,2,4,0,1,3,4,5,6,9,11,12,13,0,2,3,4,0,1,2,3,0,1,2,6,0,4,6,4,9,10,13,14,15,0,1,3,4,5,6,7,8,9,10,11,12,13,0,5],"categories_nodes":[0,1,2,3,5,6,9,16,17,32,33,37,41,48,49],"categories_segments":[0,5,11,24,35,36,45,47,57,61,65,69,72,78,91],"categories_sizes":[5,6,13,11,1,9,2,10,4,4,4,3,6,13,2],"default_left":[1,1,1,1,0,1,1,0,0,1,0,0,0,0,0,0,1,1,0,0,0,0,0,0,0,0,0,0,0,0,0,0,1,1,0,0,0,1,0,0,0,1,0,0,0,0,0,0,1,1,0,0,0,0,0,0,0,0,0,0,0,0,0,0,0,0,0,0,0,0,0,0,0,0,0,0,0,0,0],"id":0,"left_children":[1,3,5,7,9,11,13,15,17,19,21,23,25,27,29,31,33,35,37,39,41,43,45,-1,-1,-1,-1,47,49,-1,-1,-1,51,53,55,-1,57,59,61,63,65,67,69,71,-1,-1,73,-1,75,77,-1,-1,-1,-1,-1,-1,-1,-1,-1,-1,-1,-1,-1,-1,-1,-1,-1,-1,-1,-1,-1,-1,-1,-1,-1,-1,-1,-1,-1],"loss_changes":[2.7350995E2,1.2409696E2,1.840155E1,3.494805E1,5.0258713E0,4.1330767E0,1.0071045E1,1.0823917E1,1.7882446E1,3.6686249E0,2.2358704E0,3.5833335E0,8.547008E-1,2.3711395E0,3.4527588E-1,2.571867E0,5.440384E0,5.7201424E0,9.322953E0,4.9125614E0,2.119995E0,7.4472046E-1,1.784585E0,0E0,0E0,0E0,0E0,1.7413025E0,2.7620888E0,0E0,0E0,0E0,1.2745098E0,3.6656876E0,2.8888888E0,0E0,5.515583E0,5.887382E0,1.4869227E0,5.357576E0,1.6774197E0,1.8998718E-1,2.142857E-1,1.9604743E0,0E0,0E0,1.6007819E0,0E0,2.8094273E0,4.8119287E0,0E0,0E0,0E0,0E0,0E0,0E0,0E0,0E0,0E0,0E0,0E0,0E0,0E0,0E0,0E0,0E0,0E0,0E0,0E0,0E0,0E0,0E0,0E0,0E0,0E0,0E0,0E0,0E0,0E0],"parents":[2147483647,0,0,1,1,2,2,3,3,4,4,5,5,6,6,7,7,8,8,9,9,10,10,11,11,12,12,13,13,14,14,15,15,16,16,17,17,18,18,19,19,20,20,21,21,22,22,27,27,28,28,32,32,33,33,34,34,36,36,37,37,38,38,39,39,40,40,41,41,42,42,43,43,46,46,48,48,49,49],"right_children":[2,4,6,8,10,12,14,16,18,20,22,24,26,28,30,32,34,36,38,40,42,44,46,-1,-1,-1,-1,48,50,-1,-1,-1,52,54,56,-1,58,60,62,64,66,68,70,72,-1,-1,74,-1,76,78,-1,-1,-1,-1,-1,-1,-1,-1,-1,-1,-1,-1,-1,-1,-1,-1,-1,-1,-1,-1,-1,-1,-1,-1,-1,-1,-1,-1,-1],"split_conditions":[NaN,NaN,NaN,NaN,4.2E1,NaN,NaN,2.6E1,3.7E1,NaN,2.683422E4,3E1,4.1E1,4.1E1,7.5E1,3.4E1,NaN,NaN,6.1E1,2.76616E4,1E0,5.2E1,2.789605E4,-1.5E-1,4.0000004E-1,-3.3333337E-1,-0E0,4.9E1,7.766469E4,-5.76532E-1,-1.5E-1,-3.6E-1,NaN,NaN,3.7E1,1.6363637E-1,6.260931E4,NaN,3.6E1,4.5E1,4.960387E4,NaN,4E1,4.9E1,-4.2857146E-1,1.5E-1,3.6E1,-5.032258E-1,NaN,NaN,-4.0000004E-1,2.0000002E-1,-1.0000001E-1,3.794595E-1,1.5348838E-1,-3E-1,1.3333334E-1,-4.1052634E-1,4.0000003E-2,3.3E-1,5.346535E-2,-3.75E-1,-4.615385E-2,-2.7272728E-1,2.8E-1,-4.2857146E-1,-8.5714296E-2,-3.2054794E-1,-4.4210526E-1,-1.5E-1,-0E0,-3E-1,5.454546E-2,-2.8E-1,-9.67742E-2,5.454546E-2,-3.6E-1,2.2222223E-2,-3.714286E-1],"split_indices":[3,4,2,2,8,6,2,8,0,1,5,0,8,0,8,0,4,1,0,5,7,8,5,0,0,0,0,8,5,0,0,0,1,1,0,0,5,1,8,0,5,2,0,8,0,0,0,0,4,2,0,0,0,0,0,0,0,0,0,0,0,0,0,0,0,0,0,0,0,0,0,0,0,0,0,0,0,0,0],"split_type":[1,1,1,1,0,1,1,0,0,1,0,0,0,0,0,0,1,1,0,0,0,0,0,0,0,0,0,0,0,0,0,0,1,1,0,0,0,1,0,0,0,1,0,0,0,0,0,0,1,1,0,0,0,0,0,0,0,0,0,0,0,0,0,0,0,0,0,0,0,0,0,0,0,0,0,0,0,0,0],"sum_hessian":[4.7475E2,2.195E2,2.5525E2,1.205E2,9.9E1,5.25E0,2.5E2,6.425E1,5.625E1,6.8E1,3.1E1,3E0,2.25E0,5.825E1,1.9175E2,4.75E0,5.95E1,1.775E1,3.85E1,1.125E1,5.675E1,9E0,2.2E1,1E0,2E0,1.25E0,1E0,3.575E1,2.25E1,1.9075E2,1E0,1.5E0,3.25E0,5.5E1,4.5E0,1.75E0,1.6E1,3.325E1,5.25E0,4.5E0,6.75E0,5.425E1,2.5E0,4.75E0,4.25E0,1E0,2.1E1,3E1,5.75E0,1E1,1.25E1,1.25E0,2E0,4.525E1,9.75E0,1E0,3.5E0,1.325E1,2.75E0,9E0,2.425E1,3E0,2.25E0,1.75E0,2.75E0,4.25E0,2.5E0,1.725E1,3.7E1,1E0,1.5E0,3E0,1.75E0,6.5E0,1.45E1,1.75E0,4E0,5.75E0,4.25E0],"tree_param":{"num_deleted":"0","num_feature":"9","num_nodes":"79","size_leaf_vector":"0"}},{"base_weights":[-7.960055E-1,-1.81915E-1,-1.346014E0,4.3185496E-1,-6.842176E-1,-9.505348E-1,-4.4278732E-1,7.3202217E-1,4.4556785E-2,-3.0814436E-1,-9.057181E-1,-1.0860864E0,-4.0603623E-1,-6.699702E-1,8.2523495E-1,-6.671874E-1,3.4044623E-1,-5.980908E-1,1.4038903E-1,-9.5050216E-1,1.9091728E-1,-3.945105E-1,-7.163042E-1,1.8930452E-1,-6.288342E-1,9.027681E-3,-3.3158E-1,8.974848E-1,-2.7160648E-1,-3.4801E-1,-1.2317339E-1,-2.8752822E-1,6.631795E-1,2.6624793E-1,-7.503598E-1,5.525462E-1,-3.487664E-1,5.630371E-2,-9.812799E-1,2.6371533E-1,-1.9682784E-1,-3.6222437E-1,-3.3714274E-1,-7.945735E-2,-3.714541E-1,2.260687E-1,4.342918E-1,1.782495E-1,-2.6549727E-1,1.1686578E-1,-1.8443304E-1,-2.8967294E-1,1.15766115E-1,3.914418E-1,2.47455E-2,2.675996E-1,-1.0372742E-1,-3.3473048E-1,-8.7846026E-2,3.0006585E-1,-8.568786E-2,-1.6737393E-1,4.6866864E-2,-3.045515E-1,3.631063E-2,1.2126232E-1,-1.5528539E-1,-1.6173689E-1,5.6221303E-2],"categories":[0,1,3,4,5,0,3,5,9,10,11,13,2,4,8,9,10,11,13,14,15,2,4,6,8,9,10,11,12,13,14,15,4,8,9,10,12,13,14,15,0,1,5,1,0,1,2,3,4,5,6,7,8,9,11,0,2,4,5,1,2,3,9,0,1,5],"categories_nodes":[0,1,2,3,4,12,14,18,19,22,33,41],"categories_segments":[0,5,12,21,32,40,43,44,55,59,62,63],"categories_sizes":[5,7,9,11,8,3,1,11,4,3,1,3],"default_left":[1,1,1,1,1,0,0,0,0,0,0,0,1,0,1,0,0,0,1,1,0,0,1,0,0,0,0,0,0,0,0,0,0,1,0,0,0,0,0,0,0,1,0,0,0,0,0,0,0,0,0,0,0,0,0,0,0,0,0,0,0,0,0,0,0,0,0,0,0],"id":1,"left_children":[1,3,5,7,9,11,-1,13,15,17,19,21,23,25,27,29,31,33,35,37,39,-1,41,-1,43,-1,-1,45,47,-1,49,51,53,55,57,59,61,-1,63,-1,-1,65,-1,67,-1,-1,-1,-1,-1,-1,-1,-1,-1,-1,-1,-1,-1,-1,-1,-1,-1,-1,-1,-1,-1,-1,-1,-1,-1],"loss_changes":[1.5257965E2,6.656052E1,1.0855286E1,1.1284576E1,9.599453E0,4.1204224E0,0E0,7.7115498E0,9.402889E0,5.9977293E0,3.8214684E0,3.1967545E0,3.6120615E0,1.2421061E0,4.349663E0,3.3780346E0,6.5621533E0,3.8597918E0,3.9554758E0,2.684517E0,2.757049E0,0E0,2.6070986E0,0E0,3.9038901E0,0E0,0E0,2.776413E0,2.6339116E0,0E0,2.0948417E0,5.5640926E0,7.7421703E0,2.186232E0,3.670045E0,4.2315826E0,1.053308E0,0E0,2.725212E0,0E0,0E0,1.7162055E0,0E0,1.0033447E0,0E0,0E0,0E0,0E0,0E0,0E0,0E0,0E0,0E0,0E0,0E0,0E0,0E0,0E0,0E0,0E0,0E0,0E0,0E0,0E0,0E0,0E0,0E0,0E0,0E0],"parents":[2147483647,0,0,1,1,2,2,3,3,4,4,5,5,7,7,8,8,9,9,10,10,11,11,12,12,13,13,14,14,15,15,16,16,17,17,18,18,19,19,20,20,22,22,24,24,27,27,28,28,30,30,31,31,32,32,33,33,34,34,35,35,36,36,38,38,41,41,43,43],"right_children":[2,4,6,8,10,12,-1,14,16,18,20,22,24,26,28,30,32,34,36,38,40,-1,42,-1,44,-1,-1,46,48,-1,50,52,54,56,58,60,62,-1,64,-1,-1,66,-1,68,-1,-1,-1,-1,-1,-1,-1,-1,-1,-1,-1,-1,-1,-1,-1,-1,-1,-1,-1,-1,-1,-1,-1,-1,-1],"split_conditions":[NaN,NaN,NaN,NaN,NaN,4.9E1,-4.4278732E-1,2.5E1,3.7E1,4.2E1,1E0,4E1,NaN,1.5E1,NaN,4.041576E4,2.933526E4,2.083923E4,NaN,NaN,4.2E1,-3.945105E-1,NaN,1.8930452E-1,5.8E1,9.027681E-3,-3.3158E-1,5.74973E4,5.054868E4,-3.4801E-1,3E1,4.6E1,5.1E1,NaN,4.2E1,5.3E1,5.6E1,5.630371E-2,6.5E1,2.6371533E-1,-1.9682784E-1,NaN,-3.3714274E-1,3E1,-3.714541E-1,2.260687E-1,4.342918E-1,1.782495E-1,-2.6549727E-1,1.1686578E-1,-1.8443304E-1,-2.8967294E-1,1.15766115E-1,3.914418E-1,2.47455E-2,2.675996E-1,-1.0372742E-1,-3.3473048E-1,-8.7846026E-2,3.0006585E-1,-8.568786E-2,-1.6737393E-1,4.6866864E-2,-3.045515E-1,3.631063E-2,1.2126232E-1,-1.5528539E-1,-1.6173689E-1,5.6221303E-2],"split_indices":[3,4,2,2,2,8,0,8,0,8,7,0,2,8,4,5,5,5,4,1,0,0,1,0,8,0,0,5,5,0,0,0,0,4,0,8,8,0,8,0,0,2,0,0,0,0,0,0,0,0,0,0,0,0,0,0,0,0,0,0,0,0,0,0,0,0,0,0,0],"split_type":[1,1,1,1,1,0,0,0,0,0,0,0,1,0,1,0,0,0,1,1,0,0,1,0,0,0,0,0,0,0,0,0,0,1,0,0,0,0,0,0,0,1,0,0,0,0,0,0,0,0,0,0,0,0,0,0,0,0,0,0,0,0,0,0,0,0,0,0,0],"sum_hessian":[4.5147156E2,2.139381E2,2.3753346E2,9.634867E1,1.17589424E2,6.0801395E1,1.7673206E2,5.377862E1,4.2570053E1,4.447277E1,7.311665E1,4.7885715E1,1.2915678E1,2.966881E0,5.081174E1,1.2132119E1,3.0437933E1,2.6809082E1,1.766369E1,7.0375916E1,2.7407339E0,2.7995941E1,1.9889774E1,1.960052E0,1.09556265E1,1.4943969E0,1.4724841E0,4.78421E1,2.9696424E0,5.771293E0,6.360826E0,1.0369684E1,2.0068249E1,3.903386E0,2.2905695E1,9.516009E0,8.147681E0,1.718718E0,6.8657196E1,1.4913182E0,1.2494156E0,1.1653215E1,8.23656E0,6.355766E0,4.5998607E0,3.98E1,8.042097E0,1.2444608E0,1.7251816E0,3.215135E0,3.145691E0,4.9508862E0,5.4187975E0,8.941524E0,1.1126726E1,1.7038107E0,2.1995754E0,1.1935183E1,1.0970512E1,6.076942E0,3.4390674E0,5.687387E0,2.4602938E0,6.6685936E1,1.9712658E0,1.6944859E0,9.95873E0,1.9598014E0,4.395964E0],"tree_param":{"num_deleted":"0","num_feature":"9","num_nodes":"69","size_leaf_vector":"0"}},{"base_weights":[-6.3491243E-1,-1.3644892E-1,-1.1264726E0,2.3940122E-1,-6.017066E-1,-7.5400436E-1,-1.2600034E0,4.140257E-1,-2.9466286E-1,-1.1297711E0,-5.1664037E-1,-5.922499E-1,-1.2890394E0,-3.8730797E-1,-9.5039827E-1,-2.6636085E-1,5.3247184E-1,-9.8661345E-1,-1.2457499E-1,-4.1336077E-1,-4.107258E-1,-4.0917245E-1,-1.0028931E0,-3.9839414E-1,-9.755494E-1,-8.418944E-2,-4.0778533E-1,-3.302191E-1,-5.0460684E-1,-6.3921833E-1,2.97011E-1,8.4143287E-1,3.0287707E-1,-3.3187616E-1,-9.208863E-2,-5.8799523E-1,1.4323442E-1,-2.7449602E-1,1.6451335E-1,-6.4198697E-1,-8.911515E-2,2.7852878E-2,-1.152747E0,-6.719861E-1,-5.9461866E-2,2.9462315E-2,-1.2062322E0,5.6572724E-2,-7.0079786E-1,-3.3452794E-1,-9.3536526E-2,1.7770457E-1,-9.331816E-2,3.0305144E-1,3.3829864E-2,2.1603653E-1,2.5780525E-2,-2.2193164E-1,6.0818784E-2,2.0463915E-1,-3.372996E-2,-1.1518862E-1,-3.2774553E-1,-1.09947465E-1,2.2170435E-1,-3.8780198E-1,3.9040774E-2,1.22268915E-1,-2.3527616E-1,8.1326574E-2,-1.4370172E-1,-1.643914E-1,2.1141903E-1,-3.8233644E-1,-7.935824E-2,-4.210121E-2,-2.8595513E-1],"categories":[0,1,3,4,5,0,3,5,9,11,13,2,4,8,9,10,11,13,14,15,4,6,9,10,11,12,13,14,15,1,3,11,12,9,10,13,14,15,1,2,3,5,0,1,4,0,1,3,4,5,6,7,9,10,11,12,13,0,4,1,5,0,4,2,0,1,5,6,1,2,4,6,8,9,10,11,12,13,14,15,0,4,0,11,13,0,1,0,0,1,2,3,4,5,6,7,8],"categories_nodes":[0,1,2,3,5,10,11,12,16,22,24,28,30,31,32,36,39,43,44,48],"categories_segments":[0,5,11,20,29,33,38,42,45,57,59,61,63,64,68,80,82,85,87,88],"categories_sizes":[5,6,9,9,4,5,4,3,12,2,2,2,1,4,12,2,3,2,1,9],"default_left":[1,1,1,1,0,1,0,0,0,0,1,1,1,0,0,0,1,0,0,0,0,0,1,0,1,0,0,0,1,0,1,1,1,0,0,0,1,0,0,1,0,0,0,1,1,0,0,0,1,0,0,0,0,0,0,0,0,0,0,0,0,0,0,0,0,0,0,0,0,0,0,0,0,0,0,0,0],"id":2,"left_children":[1,3,5,7,9,11,13,15,17,19,21,23,25,-1,27,29,31,33,35,37,-1,39,41,43,45,-1,-1,-1,47,49,51,53,55,-1,-1,57,59,-1,-1,61,63,-1,65,67,69,71,73,-1,75,-1,-1,-1,-1,-1,-1,-1,-1,-1,-1,-1,-1,-1,-1,-1,-1,-1,-1,-1,-1,-1,-1,-1,-1,-1,-1,-1,-1],"loss_changes":[1.0045566E2,3.599369E1,9.325317E0,1.0764605E1,3.5442314E0,4.1704903E0,2.1940613E-1,7.1058292E0,3.2552376E0,1.4754667E0,3.8217506E0,3.0015678E0,4.9581337E-1,0E0,6.1769676E-1,3.0213146E0,4.989729E0,1.09182835E-1,3.0856922E0,2.6312127E0,0E0,5.0110073E0,2.4009237E0,2.9265637E0,3.4284105E0,0E0,0E0,0E0,9.836197E-1,9.6561027E-1,1.2709355E0,3.6923676E0,3.9188447E0,0E0,0E0,1.2364893E0,2.2991989E0,0E0,0E0,4.138735E0,7.116738E0,0E0,2.387659E0,2.4533162E0,2.263643E0,1.832076E0,4.290886E-1,0E0,5.8648753E-1,0E0,0E0,0E0,0E0,0E0,0E0,0E0,0E0,0E0,0E0,0E0,0E0,0E0,0E0,0E0,0E0,0E0,0E0,0E0,0E0,0E0,0E0,0E0,0E0,0E0,0E0,0E0,0E0],"parents":[2147483647,0,0,1,1,2,2,3,3,4,4,5,5,6,6,7,7,8,8,9,9,10,10,11,11,12,12,14,14,15,15,16,16,17,17,18,18,19,19,21,21,22,22,23,23,24,24,28,28,29,29,30,30,31,31,32,32,35,35,36,36,39,39,40,40,42,42,43,43,44,44,45,45,46,46,48,48],"right_children":[2,4,6,8,10,12,14,16,18,20,22,24,26,-1,28,30,32,34,36,38,-1,40,42,44,46,-1,-1,-1,48,50,52,54,56,-1,-1,58,60,-1,-1,62,64,-1,66,68,70,72,74,-1,76,-1,-1,-1,-1,-1,-1,-1,-1,-1,-1,-1,-1,-1,-1,-1,-1,-1,-1,-1,-1,-1,-1,-1,-1,-1,-1,-1,-1],"split_conditions":[NaN,NaN,NaN,NaN,3.9E1,NaN,5E1,3.2E1,3.7E1,2.683422E4,NaN,NaN,NaN,-3.8730797E-1,3.9E1,4.1E1,NaN,1.7015912E5,3.8E1,2.277896E4,-4.107258E-1,4.2E1,NaN,3.7E1,NaN,-8.418944E-2,-4.0778533E-1,-3.302191E-1,NaN,3.6E1,NaN,NaN,NaN,-3.3187616E-1,-9.208863E-2,6.123106E4,NaN,-2.7449602E-1,1.6451335E-1,NaN,4.262843E4,2.7852878E-2,6.079694E4,NaN,NaN,4.8E1,1.8247148E5,5.6572724E-2,NaN,-3.3452794E-1,-9.3536526E-2,1.7770457E-1,-9.331816E-2,3.0305144E-1,3.3829864E-2,2.1603653E-1,2.5780525E-2,-2.2193164E-1,6.0818784E-2,2.0463915E-1,-3.372996E-2,-1.1518862E-1,-3.2774553E-1,-1.09947465E-1,2.2170435E-1,-3.8780198E-1,3.9040774E-2,1.22268915E-1,-2.3527616E-1,8.1326574E-2,-1.4370172E-1,-1.643914E-1,2.1141903E-1,-3.8233644E-1,-7.935824E-2,-4.210121E-2,-2.8595513E-1],"split_indices":[3,4,2,2,8,4,8,0,8,5,2,1,1,0,0,8,4,5,0,5,0,0,1,0,2,0,0,0,1,8,2,1,2,0,0,5,1,0,0,4,5,0,5,3,6,0,5,0,4,0,0,0,0,0,0,0,0,0,0,0,0,0,0,0,0,0,0,0,0,0,0,0,0,0,0,0,0],"split_type":[1,1,1,1,0,1,0,0,0,0,1,1,1,0,0,0,1,0,0,0,0,0,1,0,1,0,0,0,1,0,1,1,1,0,0,0,1,0,0,1,0,0,0,1,1,0,0,0,1,0,0,0,0,0,0,0,0,0,0,0,0,0,0,0,0,0,0,0,0,0,0,0,0,0,0,0,0],"sum_hessian":[4.096089E2,2.0401071E2,2.0559818E2,1.13116776E2,9.089393E1,5.601043E1,1.4958775E2,8.5413605E1,2.7703169E1,1.0906807E1,7.998712E1,4.4625854E1,1.1384575E1,1.3308269E2,1.6505066E1,1.2479455E1,7.293415E1,4.5188794E0,2.318429E1,3.41399E0,7.492817E0,6.7017006E1,1.2970116E1,3.0991247E1,1.3634606E1,1.0666884E0,1.0317886E1,1.1244111E1,5.2609553E0,7.4284444E0,5.051011E0,2.9956896E1,4.2977257E1,3.3087542E0,1.210125E0,8.053264E0,1.5131026E1,2.2756586E0,1.1383317E0,3.8213837E1,2.8803171E1,1.606174E0,1.1363941E1,1.660486E1,1.4386386E1,2.7081847E0,1.0926421E1,1.1691011E0,4.091854E0,2.0473323E0,5.381112E0,3.417166E0,1.6338452E0,2.4010433E1,5.946461E0,1.39081955E1,2.9069063E1,6.810457E0,1.2428064E0,4.332001E0,1.0799026E1,2.5475136E1,1.2738699E1,2.1993908E1,6.809263E0,1.0239473E1,1.1244683E0,1.3163891E0,1.5288472E1,8.24453E0,6.1418557E0,1.5614626E0,1.1467222E0,9.858842E0,1.0675797E0,1.7536517E0,2.3382022E0],"tree_param":{"num_deleted":"0","num_feature":"9","num_nodes":"77","size_leaf_vector":"0"}},{"base_weights":[-5.211778E-1,-1.0985659E-1,-9.789297E-1,1.7507319E-1,-4.691472E-1,-6.116185E-1,-1.1265693E0,1.0178274E-1,1.0754536E0,-9.493183E-1,-3.9629564E-1,1.2720382E-1,-6.8791133E-1,-8.1825453E-1,-1.1713775E0,-5.5727077E-1,2.0480634E-1,3.8708958E-1,5.03484E-2,1.5877185E-2,-3.1993526E-1,-3.283472E-1,-3.2026863E-1,-2.8111127E-1,2.8176442E-1,-5.699611E-1,-1.0963278E0,-8.987645E-1,4.643263E-2,-1.1950878E0,-4.7299543E-1,-9.440368E-1,3.4889154E-2,4.195826E-1,-4.425271E-2,-6.12245E-1,-1.5966614E-1,-2.2024305E-1,7.6439865E-2,1.1223607E-1,-6.263964E-1,-7.252741E-2,-3.514482E-1,-3.6694676E-1,-1.07296E0,-3.613176E-1,-9.5469534E-2,-2.6006755E-1,4.3832395E-2,-6.307711E-2,-3.508172E-1,-2.6213238E-1,1.1577209E-1,1.5039785E-1,-7.1921125E-2,1.4796232E-1,-7.876498E-2,-2.026297E-1,1.17209144E-1,-9.0403154E-2,1.14634365E-1,-1.3454638E-1,-2.952976E-1,-2.3911954E-1,3.0613535E-3,-5.7222288E-2,-3.4245557E-1,8.856258E-2,-6.711213E-2],"categories":[0,1,3,4,5,0,3,5,9,11,13,2,4,8,9,10,11,13,14,15,0,1,2,4,5,6,0,1,2,3,5,7,10,11,13,0,1,2,0,9,11,13,13,14,15,1,11,12,0,2,4,6,9,10,11,12,13,14,15,0,1,2,3,5,0,1,4,0,4,0,1,2,3,0,1,0,4,1,2,3,5],"categories_nodes":[0,1,2,5,6,8,9,10,12,16,25,26,27,30,33,34,40],"categories_segments":[0,5,11,20,26,35,38,42,45,48,59,64,67,69,73,75,77],"categories_sizes":[5,6,9,6,9,3,4,3,3,11,5,3,2,4,2,2,4],"default_left":[1,1,1,0,0,1,1,0,1,1,1,0,1,0,0,0,1,0,0,0,0,0,0,0,0,1,1,1,0,0,1,0,0,1,1,0,0,0,0,0,1,0,0,0,0,0,0,0,0,0,0,0,0,0,0,0,0,0,0,0,0,0,0,0,0,0,0,0,0],"id":3,"left_children":[1,3,5,7,9,11,13,15,17,19,21,23,25,27,29,31,33,-1,-1,-1,-1,35,-1,37,-1,39,41,43,-1,45,47,49,51,53,55,57,59,-1,-1,-1,61,-1,-1,63,65,-1,-1,-1,67,-1,-1,-1,-1,-1,-1,-1,-1,-1,-1,-1,-1,-1,-1,-1,-1,-1,-1,-1,-1],"loss_changes":[6.940635E1,2.0105003E1,8.78006E0,7.1368513E0,2.6593761E0,3.0326576E0,7.457428E-1,7.0838227E0,1.3748665E0,1.3143215E0,3.1644173E0,2.165296E0,1.6640797E0,1.6252394E0,1.1798706E0,3.2726865E0,4.8062935E0,0E0,0E0,0E0,0E0,3.3225813E0,0E0,1.3003087E0,0E0,2.3096228E0,3.311615E-1,1.2430353E0,0E0,4.429779E-1,1.0794085E0,1.1749811E0,2.4273896E0,2.715498E0,5.0981035E0,1.928545E0,3.6579933E0,0E0,0E0,0E0,1.9227743E0,0E0,0E0,9.618159E-1,5.557833E-1,0E0,0E0,0E0,2.788559E-1,0E0,0E0,0E0,0E0,0E0,0E0,0E0,0E0,0E0,0E0,0E0,0E0,0E0,0E0,0E0,0E0,0E0,0E0,0E0,0E0],"parents":[2147483647,0,0,1,1,2,2,3,3,4,4,5,5,6,6,7,7,8,8,9,9,10,10,11,11,12,12,13,13,14,14,15,15,16,16,21,21,23,23,25,25,26,26,27,27,29,29,30,30,31,31,32,32,33,33,34,34,35,35,36,36,40,40,43,43,44,44,48,48],"right_children":[2,4,6,8,10,12,14,16,18,20,22,24,26,28,30,32,34,-1,-1,-1,-1,36,-1,38,-1,40,42,44,-1,46,48,50,52,54,56,58,60,-1,-1,-1,62,-1,-1,64,66,-1,-1,-1,68,-1,-1,-1,-1,-1,-1,-1,-1,-1,-1,-1,-1,-1,-1,-1,-1,-1,-1,-1,-1],"split_conditions":[NaN,NaN,NaN,1E0,3.9E1,NaN,NaN,3.8E1,NaN,NaN,NaN,5.2E1,NaN,1E0,5.6E1,8.255971E4,NaN,3.8708958E-1,5.03484E-2,1.5877185E-2,-3.1993526E-1,3.6E1,-3.2026863E-1,4.3E1,2.8176442E-1,NaN,NaN,NaN,4.643263E-2,6.6E1,NaN,2.173796E4,3E1,NaN,NaN,1E0,4.667322E4,-2.2024305E-1,7.6439865E-2,1.1223607E-1,NaN,-7.252741E-2,-3.514482E-1,6.581354E4,5.054868E4,-3.613176E-1,-9.5469534E-2,-2.6006755E-1,8.014955E4,-6.307711E-2,-3.508172E-1,-2.6213238E-1,1.1577209E-1,1.5039785E-1,-7.1921125E-2,1.4796232E-1,-7.876498E-2,-2.026297E-1,1.17209144E-1,-9.0403154E-2,1.14634365E-1,-1.3454638E-1,-2.952976E-1,-2.3911954E-1,3.0613535E-3,-5.7222288E-2,-3.4245557E-1,8.856258E-2,-6.711213E-2],"split_indices":[3,4,2,7,8,2,4,8,1,4,2,8,4,7,8,5,2,0,0,0,0,0,0,0,0,3,1,3,0,0,4,5,0,1,1,7,5,0,0,0,1,0,0,5,5,0,0,0,5,0,0,0,0,0,0,0,0,0,0,0,0,0,0,0,0,0,0,0,0],"split_type":[1,1,1,0,0,1,1,0,1,1,1,0,1,0,0,0,1,0,0,0,0,0,0,0,0,1,1,1,0,0,1,0,0,1,1,0,0,0,0,0,1,0,0,0,0,0,0,0,0,0,0,0,0,0,0,0,0,0,0,0,0,0,0,0,0,0,0,0,0],"sum_hessian":[3.6819885E2,1.9458817E2,1.736107E2,1.0881046E2,8.57777E1,5.1249683E1,1.2236102E2,1.0164931E2,7.1611514E0,9.714926E0,7.6062775E1,4.734388E0,4.6515293E1,1.7970646E1,1.0439038E2,1.3145692E1,8.850362E1,5.4495606E0,1.7115906E0,1.0739412E0,8.640985E0,7.042337E1,5.639405E0,3.5853322E0,1.1490557E0,3.7950706E1,8.564587E0,1.6667847E1,1.3027986E0,1.0027481E2,4.1155705E0,7.592479E0,5.553212E0,4.715489E1,4.134873E1,2.5267475E1,4.5155895E1,1.7424518E0,1.8428802E0,1.8231345E0,3.6127575E1,1.0332959E0,7.5312905E0,4.878955E0,1.1788892E1,9.885236E1,1.4224454E0,1.9511696E0,2.164401E0,2.2380667E0,5.3544126E0,1.1324446E0,4.420768E0,4.2166634E1,4.9882555E0,1.157964E1,2.9769087E1,2.4077118E1,1.1903569E0,3.6147083E1,9.00881E0,2.563748E1,1.0490093E1,1.7592511E0,3.1197035E0,1.1227944E0,1.0666098E1,1.0625882E0,1.1018127E0],"tree_param":{"num_deleted":"0","num_feature":"9","num_nodes":"69","size_leaf_vector":"0"}},{"base_weights":[-5.211778E-1,-1.0985659E-1,-9.789297E-1,1.7507319E-1,-4.691472E-1,-6.116185E-1,-1.1265693E0,1.0178274E-1,1.0754536E0,-9.493183E-1,-3.9629564E-1,1.2720382E-1,-6.8791133E-1,-8.1825453E-1,-1.1713775E0,-5.5727077E-1,2.0480634E-1,3.8708958E-1,5.03484E-2,1.5877185E-2,-3.1993526E-1,-3.283472E-1,-3.2026863E-1,-2.8111127E-1,2.8176442E-1,-5.699611E-1,-1.0963278E0,-8.987645E-1,4.643263E-2,-1.1950878E0,-4.7299543E-1,-9.440368E-1,3.4889154E-2,4.195826E-1,-4.425271E-2,-6.12245E-1,-1.5966614E-1,-2.2024305E-1,7.6439865E-2,1.1223607E-1,-6.263964E-1,-7.252741E-2,-3.514482E-1,-3.6694676E-1,-1.07296E0,-3.613176E-1,-9.5469534E-2,-2.6006755E-1,4.3832395E-2,-6.307711E-2,-3.508172E-1,-2.6213238E-1,1.1577209E-1,1.5039785E-1,-7.1921125E-2,1.4796232E-1,-7.876498E-2,-2.026297E-1,1.17209144E-1,-9.0403154E-2,1.14634365E-1,-1.3454638E-1,-2.952976E-1,-2.3911954E-1,3.0613535E-3,-5.7222288E-2,-3.4245557E-1,8.856258E-2,-6.711213E-2],"categories":[0,1,3,4,5,0,3,5,9,11,13,2,4,8,9,10,11,13,14,15,0,1,2,4,5,6,0,1,2,3,5,7,10,11,13,0,1,2,0,9,11,13,13,14,15,1,11,12,0,2,4,6,9,10,11,12,13,14,15,0,1,2,3,5,0,1,4,0,4,0,1,2,3,0,1,0,4,1,2,3,5],"categories_nodes":[0,1,2,5,6,8,9,10,12,16,25,26,27,30,33,34,40],"categories_segments":[0,5,11,20,26,35,38,42,45,48,59,64,67,69,73,75,77],"categories_sizes":[5,6,9,6,9,3,4,3,3,11,5,3,2,4,2,2,4],"default_left":[1,1,1,0,0,1,1,0,1,1,1,0,1,0,0,0,1,0,0,0,0,0,0,0,0,1,1,1,0,0,1,0,0,1,1,0,0,0,0,0,1,0,0,0,0,0,0,0,0,0,0,0,0,0,0,0,0,0,0,0,0,0,0,0,0,0,0,0,0],"id":4,"left_children":[1,3,5,7,9,11,13,15,17,19,21,23,25,27,29,31,33,-1,-1,-1,-1,35,-1,37,-1,39,41,43,-1,45,47,49,51,53,55,57,59,-1,-1,-1,61,-1,-1,63,65,-1,-1,-1,67,-1,-1,-1,-1,-1,-1,-1,-1,-1,-1,-1,-1,-1,-1,-1,-1,-1,-1,-1,-1],"loss_changes":[6.940635E1,2.0105003E1,8.78006E0,7.1368513E0,2.6593761E0,3.0326576E0,7.457428E-1,7.0838227E0,1.3748665E0,1.3143215E0,3.1644173E0,2.165296E0,1.6640797E0,1.6252394E0,1.1798706E0,3.2726865E0,4.8062935E0,0E0,0E0,0E0,0E0,3.3225813E0,0E0,1.3003087E0,0E0,2.3096228E0,3.311615E-1,1.2430353E0,0E0,4.429779E-1,1.0794085E0,1.1749811E0,2.4273896E0,2.715498E0,5.0981035E0,1.928545E0,3.6579933E0,0E0,0E0,0E0,1.9227743E0,0E0,0E0,9.618159E-1,5.557833E-1,0E0,0E0,0E0,2.788559E-1,0E0,0E0,0E0,0E0,0E0,0E0,0E0,0E0,0E0,0E0,0E0,0E0,0E0,0E0,0E0,0E0,0E0,0E0,0E0,0E0],"parents":[2147483647,0,0,1,1,2,2,3,3,4,4,5,5,6,6,7,7,8,8,9,9,10,10,11,11,12,12,13,13,14,14,15,15,16,16,21,21,23,23,25,25,26,26,27,27,29,29,30,30,31,31,32,32,33,33,34,34,35,35,36,36,40,40,43,43,44,44,48,48],"right_children":[2,4,6,8,10,12,14,16,18,20,22,24,26,28,30,32,34,-1,-1,-1,-1,36,-1,38,-1,40,42,44,-1,46,48,50,52,54,56,58,60,-1,-1,-1,62,-1,-1,64,66,-1,-1,-1,68,-1,-1,-1,-1,-1,-1,-1,-1,-1,-1,-1,-1,-1,-1,-1,-1,-1,-1,-1,-1],"split_conditions":[NaN,NaN,NaN,1E0,3.9E1,NaN,NaN,3.8E1,NaN,NaN,NaN,5.2E1,NaN,1E0,5.6E1,8.255971E4,NaN,3.8708958E-1,5.03484E-2,1.5877185E-2,-3.1993526E-1,3.6E1,-3.2026863E-1,4.3E1,2.8176442E-1,NaN,NaN,NaN,4.643263E-2,6.6E1,NaN,2.173796E4,3E1,NaN,NaN,1E0,4.667322E4,-2.2024305E-1,7.6439865E-2,1.1223607E-1,NaN,-7.252741E-2,-3.514482E-1,6.581354E4,5.054868E4,-3.613176E-1,-9.5469534E-2,-2.6006755E-1,8.014955E4,-6.307711E-2,-3.508172E-1,-2.6213238E-1,1.1577209E-1,1.5039785E-1,-7.1921125E-2,1.4796232E-1,-7.876498E-2,-2.026297E-1,1.17209144E-1,-9.0403154E-2,1.14634365E-1,-1.3454638E-1,-2.952976E-1,-2.3911954E-1,3.0613535E-3,-5.7222288E-2,-3.4245557E-1,8.856258E-2,-6.711213E-2],"split_indices":[3,4,2,7,8,2,4,8,1,4,2,8,4,7,8,5,2,0,0,0,0,0,0,0,0,3,1,3,0,0,4,5,0,1,1,7,5,0,0,0,1,0,0,5,5,0,0,0,5,0,0,0,0,0,0,0,0,0,0,0,0,0,0,0,0,0,0,0,0],"split_type":[1,1,1,0,0,1,1,0,1,1,1,0,1,0,0,0,1,0,0,0,0,0,0,0,0,1,1,1,0,0,1,0,0,1,1,0,0,0,0,0,1,0,0,0,0,0,0,0,0,0,0,0,0,0,0,0,0,0,0,0,0,0,0,0,0,0,0,0,0],"sum_hessian":[3.6819885E2,1.9458817E2,1.736107E2,1.0881046E2,8.57777E1,5.1249683E1,1.2236102E2,1.0164931E2,7.1611514E0,9.714926E0,7.6062775E1,4.734388E0,4.6515293E1,1.7970646E1,1.0439038E2,1.3145692E1,8.850362E1,5.4495606E0,1.7115906E0,1.0739412E0,8.640985E0,7.042337E1,5.639405E0,3.5853322E0,1.1490557E0,3.7950706E1,8.564587E0,1.6667847E1,1.3027986E0,1.0027481E2,4.1155705E0,7.592479E0,5.553212E0,4.715489E1,4.134873E1,2.5267475E1,4.5155895E1,1.7424518E0,1.8428802E0,1.8231345E0,3.6127575E1,1.0332959E0,7.5312905E0,4.878955E0,1.1788892E1,9.885236E1,1.4224454E0,1.9511696E0,2.164401E0,2.2380667E0,5.3544126E0,1.1324446E0,4.420768E0,4.2166634E1,4.9882555E0,1.157964E1,2.9769087E1,2.4077118E1,1.1903569E0,3.6147083E1,9.00881E0,2.563748E1,1.0490093E1,1.7592511E0,3.1197035E0,1.1227944E0,1.0666098E1,1.0625882E0,1.1018127E0],"tree_param":{"num_deleted":"0","num_feature":"9","num_nodes":"69","size_leaf_vector":"0"}},{"base_weights":[-3.8155943E-1,-7.3649846E-2,-8.006178E-1,1.6346233E-1,-3.045663E-1,-4.2640916E-1,-9.8526615E-1,6.844276E-1,5.762693E-2,-4.6248622E-2,-5.5650836E-1,-9.127841E-1,-2.8936553E-1,-1.0189272E0,-4.8522395E-1,-4.4482417E-2,7.634065E-1,3.359238E-1,-2.0371333E-1,-2.0165749E-1,6.680958E-1,-7.4556094E-1,-2.3562108E-1,-3.5217515E-1,-3.1948936E-1,-4.1965514E-1,6.4572856E-2,-1.0377636E0,-3.330823E-1,-6.710034E-1,9.980618E-2,3.1459922E-1,1.3055554E-1,5.3539008E-2,5.483616E-1,-8.537899E-2,-7.4543446E-1,-2.9157466E-1,6.798111E-1,8.0823416E-1,-3.272752E-2,-8.8061833E-1,-3.081462E-1,-3.1025797E-1,-3.685133E-2,-2.1966214E-1,6.970529E-2,-7.0351446E-1,-2.0231032E-1,2.6384008E-1,-2.345284E-1,-1.0468901E0,-8.041671E-2,1.0929692E-1,-2.2199273E-1,-4.293237E-2,-2.2712635E-1,2.7356133E-1,-1.0915235E-1,-1.2718466E-1,1.4653803E-1,1.9315176E-1,-7.0972815E-2,1.4059334E-1,-5.9158124E-2,1.0991343E-3,-3.0436417E-1,8.979574E-2,-1.265201E-1,-3.3490907E-2,3.1789514E-1,3.372424E-2,2.958682E-1,-1.5016086E-1,-3.1616974E-1,2.5397798E-1,-2.1237092E-1,6.0822524E-2,-1.7170061E-1,-1.0917473E-1,-2.6963097E-1,5.0902765E-2,-1.305371E-1,7.116607E-4,2.3267308E-1,-1.6863512E-1,-3.1970462E-1],"categories":[0,1,3,4,5,0,3,4,6,8,9,10,11,12,13,14,15,2,4,8,9,10,11,13,14,15,0,1,2,3,4,6,8,9,10,11,12,13,14,15,0,3,5,8,10,11,13,0,7,9,10,11,1,0,2,2,0,4,5,0,2,3,4,0,3,10,11,13,3,11,0,0,2,3,4,5,6,7,0,1,2,3,5,7,9,10,11,13],"categories_nodes":[0,1,2,3,4,8,11,18,20,22,34,37,41,44,47,49,51],"categories_segments":[0,5,17,26,40,47,52,53,55,56,58,59,63,68,70,71,78],"categories_sizes":[5,12,9,14,7,5,1,2,1,2,1,4,5,2,1,7,10],"default_left":[1,1,1,1,1,0,0,0,1,0,0,1,0,0,0,0,0,0,1,0,1,0,1,0,0,0,0,0,0,0,0,0,0,0,1,0,0,1,0,0,0,1,0,0,1,0,0,1,0,1,0,1,0,0,0,0,0,0,0,0,0,0,0,0,0,0,0,0,0,0,0,0,0,0,0,0,0,0,0,0,0,0,0,0,0,0,0],"id":5,"left_children":[1,3,5,7,9,11,13,15,17,19,21,23,25,27,29,-1,31,33,35,37,39,41,43,45,-1,47,49,51,53,55,-1,-1,57,59,61,63,65,67,69,71,-1,73,75,-1,77,-1,-1,79,81,83,-1,85,-1,-1,-1,-1,-1,-1,-1,-1,-1,-1,-1,-1,-1,-1,-1,-1,-1,-1,-1,-1,-1,-1,-1,-1,-1,-1,-1,-1,-1,-1,-1,-1,-1,-1,-1],"loss_changes":[4.0380325E1,1.000185E1,8.745064E0,4.9409876E0,5.9899445E0,2.7745552E0,9.8770905E-1,1.1102123E0,5.608205E0,5.3224773E0,2.6575851E0,4.403205E-1,1.7347696E0,7.0840454E-1,1.3572135E0,0E0,2.3921509E0,2.2061515E0,2.4943452E0,3.3010805E0,1.0228307E0,1.4375305E0,2.9423566E0,9.552954E-1,0E0,1.5358253E0,2.032786E0,2.7388E-1,1.3063792E0,1.8308091E-1,0E0,0E0,2.4543648E0,3.7596738E0,1.7380023E0,2.191154E0,1.4198091E0,2.9122553E0,1.2979288E0,8.0434036E-1,0E0,8.92725E-1,4.459652E0,0E0,2.1779807E0,0E0,0E0,4.2829514E-1,1.5295334E0,1.2711751E0,0E0,1.0852051E-1,0E0,0E0,0E0,0E0,0E0,0E0,0E0,0E0,0E0,0E0,0E0,0E0,0E0,0E0,0E0,0E0,0E0,0E0,0E0,0E0,0E0,0E0,0E0,0E0,0E0,0E0,0E0,0E0,0E0,0E0,0E0,0E0,0E0,0E0,0E0],"parents":[2147483647,0,0,1,1,2,2,3,3,4,4,5,5,6,6,7,7,8,8,9,9,10,10,11,11,12,12,13,13,14,14,16,16,17,17,18,18,19,19,20,20,21,21,22,22,23,23,25,25,26,26,27,27,28,28,29,29,32,32,33,33,34,34,35,35,36,36,37,37,38,38,39,39,41,41,42,42,44,44,47,47,48,48,49,49,51,51],"right_children":[2,4,6,8,10,12,14,16,18,20,22,24,26,28,30,-1,32,34,36,38,40,42,44,46,-1,48,50,52,54,56,-1,-1,58,60,62,64,66,68,70,72,-1,74,76,-1,78,-1,-1,80,82,84,-1,86,-1,-1,-1,-1,-1,-1,-1,-1,-1,-1,-1,-1,-1,-1,-1,-1,-1,-1,-1,-1,-1,-1,-1,-1,-1,-1,-1,-1,-1,-1,-1,-1,-1,-1,-1],"split_conditions":[NaN,NaN,NaN,NaN,NaN,2.7E1,5.7E1,1.295157E4,NaN,5.953487E4,4.2E1,NaN,4.9E1,1E0,4.3E1,-4.4482417E-2,5.2E1,4.1E1,NaN,1E0,NaN,5.2E1,NaN,8.681855E4,-3.1948936E-1,4E1,1.2688891E5,6.8E1,7.825705E4,6.123106E4,9.980618E-2,3.1459922E-1,2.76616E4,4.09257E4,NaN,2.173796E4,3.398725E4,NaN,2.981143E4,3.6E1,-3.272752E-2,NaN,5.5E1,-3.1025797E-1,NaN,-2.1966214E-1,6.970529E-2,NaN,6.395256E4,NaN,-2.345284E-1,NaN,-8.041671E-2,1.0929692E-1,-2.2199273E-1,-4.293237E-2,-2.2712635E-1,2.7356133E-1,-1.0915235E-1,-1.2718466E-1,1.4653803E-1,1.9315176E-1,-7.0972815E-2,1.4059334E-1,-5.9158124E-2,1.0991343E-3,-3.0436417E-1,8.979574E-2,-1.265201E-1,-3.3490907E-2,3.1789514E-1,3.372424E-2,2.958682E-1,-1.5016086E-1,-3.1616974E-1,2.5397798E-1,-2.1237092E-1,6.0822524E-2,-1.7170061E-1,-1.0917473E-1,-2.6963097E-1,5.0902765E-2,-1.305371E-1,7.116607E-4,2.3267308E-1,-1.6863512E-1,-3.1970462E-1],"split_indices":[3,2,2,2,4,0,0,5,4,5,8,2,8,7,8,0,0,0,1,7,4,0,2,5,0,0,5,8,5,5,0,0,5,5,1,5,5,1,5,8,0,4,0,0,4,0,0,6,5,2,0,4,0,0,0,0,0,0,0,0,0,0,0,0,0,0,0,0,0,0,0,0,0,0,0,0,0,0,0,0,0,0,0,0,0,0,0],"split_type":[1,1,1,1,1,0,0,0,1,0,0,1,0,0,0,0,0,0,1,0,1,0,1,0,0,0,0,0,0,0,0,0,0,0,1,0,0,1,0,0,0,1,0,0,1,0,0,1,0,1,0,1,0,0,0,0,0,0,0,0,0,0,0,0,0,0,0,0,0,0,0,0,0,0,0,0,0,0,0,0,0,0,0,0,0,0,0],"sum_hessian":[3.1240494E2,1.8076259E2,1.3164235E2,8.932896E1,9.143363E1,4.458851E1,8.705384E1,1.416012E1,7.516884E1,4.5729984E1,4.5703648E1,8.557379E0,3.6031128E1,8.059105E1,6.4627905E0,1.1506819E0,1.30094385E1,3.6265224E1,3.8903618E1,3.8148342E1,7.581642E0,2.7926912E1,1.7776735E1,2.5345783E0,6.0228004E0,2.620064E1,9.830488E0,7.793742E1,2.6536283E0,5.4129195E0,1.0498713E0,8.514488E0,4.4949503E0,1.6106947E1,2.0158278E1,3.287907E1,6.024545E0,3.522438E1,2.9239643E0,6.3895626E0,1.1920797E0,2.0564215E1,7.362697E0,2.7052448E0,1.5071489E1,1.3828573E0,1.151721E0,1.0391781E1,1.5808858E1,8.514116E0,1.3163718E0,7.666825E1,1.2691762E0,1.0163141E0,1.6373142E0,1.1322196E0,4.2806997E0,1.4147502E0,3.0802002E0,7.6897793E0,8.417168E0,1.8132454E1,2.025823E0,4.985499E0,2.7893572E1,1.8529866E0,4.1715584E0,6.1238365E0,2.9100542E1,1.1772007E0,1.7467637E0,1.6338794E0,4.755683E0,7.6571803E0,1.2907035E1,1.6059555E0,5.7567415E0,1.0841869E1,4.229621E0,4.839119E0,5.552662E0,6.189903E0,9.618956E0,6.299879E0,2.214238E0,4.0146832E0,7.2653564E1],"tree_param":{"num_deleted":"0","num_feature":"9","num_nodes":"87","size_leaf_vector":"0"}},{"base_weights":[-3.1026757E-1,-5.4630306E-2,-7.055868E-1,1.15929514E-1,-2.6093853E-1,-3.921284E-1,-9.2122835E-1,5.64705E-1,3.9367773E-2,-3.2468997E-2,-4.7152874E-1,2.5729495E-1,-5.0722814E-1,-4.8351207E-1,-9.672968E-1,6.745017E-1,-4.9924396E-2,2.561028E-1,-1.16913155E-1,-4.8003495E-1,1.9691509E-1,-5.246048E-1,1.56341E-1,4.6171802E-1,-2.224248E-1,-2.3123424E-1,-8.6606854E-1,-7.980806E-1,1.8012066E-1,-3.2331035E-2,-9.808E-1,8.0244035E-1,2.1329145E-1,4.2220518E-2,-6.3683465E-2,-3.4674093E-1,3.5986823E-1,-3.23517E-1,1.7187072E-1,9.295185E-2,-6.792969E-1,3.898109E-1,-3.9345595E-1,-6.498383E-1,-1.118026E-1,-6.771131E-2,2.8486857E-1,9.436913E-2,-1.9465043E-1,-3.788806E-1,3.4116954E-1,-9.345022E-1,-6.403943E-2,-2.634117E-1,-7.2426565E-2,-1.03682585E-1,2.1540013E-1,-9.9509877E-1,-2.60172E-2,2.7937624E-1,2.9892681E-2,1.8846484E-1,-1.3611773E-1,7.3993385E-2,-2.4345288E-1,2.4550892E-1,7.773743E-2,-1.7366548E-1,-2.4850478E-2,2.911359E-1,-6.1095E-3,1.9568767E-1,-8.852221E-2,-2.5997254E-1,-4.548666E-2,-1.0432594E-1,1.4005251E-1,-2.1957122E-2,-3.328623E-1,-9.6535884E-2,-2.6094195E-1,2.1707058E-1,-1.4115398E-1,-1.3534017E-1,1.3545045E-1,-2.491203E-1,-3.553464E-2,-9.471843E-2,-2.9333907E-1,-3.0240142E-1,-5.336734E-2],"categories":[0,1,3,4,5,4,6,8,9,10,11,12,13,14,15,0,1,3,5,10,11,12,13,0,1,2,3,4,6,8,9,10,11,12,13,14,15,0,3,5,8,10,11,13,1,2,4,5,6,8,9,10,11,12,13,14,15,3,0,3,4,6,7,9,10,11,13,0,4,0,1,2,0,0,1,4,0,3,8,11,13,0,1,2,4],"categories_nodes":[0,1,2,3,4,5,7,8,19,20,24,35,39,43,51],"categories_segments":[0,5,15,23,37,44,57,58,67,69,72,73,75,76,81],"categories_sizes":[5,10,8,14,7,13,1,9,2,3,1,2,1,5,4],"default_left":[1,1,1,1,1,1,0,1,1,0,0,0,0,0,0,0,0,0,0,1,1,0,0,0,1,0,0,0,0,0,0,0,0,0,0,1,0,0,0,1,0,0,0,1,0,0,0,0,0,0,0,1,0,0,0,0,0,0,0,0,0,0,0,0,0,0,0,0,0,0,0,0,0,0,0,0,0,0,0,0,0,0,0,0,0,0,0,0,0,0,0],"id":6,"left_children":[1,3,5,7,9,11,13,15,17,19,21,23,25,27,29,31,33,35,37,39,41,43,-1,45,47,49,51,53,55,-1,57,59,61,-1,-1,63,65,67,69,71,73,75,77,79,81,83,-1,-1,-1,85,-1,87,-1,-1,-1,-1,-1,89,-1,-1,-1,-1,-1,-1,-1,-1,-1,-1,-1,-1,-1,-1,-1,-1,-1,-1,-1,-1,-1,-1,-1,-1,-1,-1,-1,-1,-1,-1,-1,-1,-1],"loss_changes":[2.889787E1,6.187129E0,7.2338448E0,3.292616E0,3.8094573E0,3.6837387E0,8.59684E-1,9.774699E-1,2.8579223E0,4.1192575E0,2.4489355E0,8.695745E-1,3.832137E0,1.8697121E0,5.739517E-1,5.330696E-1,1.2430926E-1,2.3325384E0,2.9909391E0,1.6130273E0,3.1857762E0,1.9794254E0,0E0,1.5645094E0,8.9367014E-1,5.3566027E0,5.747862E-1,4.5872927E-2,1.2306913E0,0E0,6.491699E-1,7.2024965E-1,1.3792828E0,0E0,0E0,1.769968E0,1.2014277E0,1.7360954E0,3.2698936E0,1.143601E0,8.7584305E-1,1.3311844E0,1.5368552E0,1.9027958E0,3.4710019E0,9.4405156E-1,0E0,0E0,0E0,2.577387E0,0E0,1.0371971E-1,0E0,0E0,0E0,0E0,0E0,4.1688156E-1,0E0,0E0,0E0,0E0,0E0,0E0,0E0,0E0,0E0,0E0,0E0,0E0,0E0,0E0,0E0,0E0,0E0,0E0,0E0,0E0,0E0,0E0,0E0,0E0,0E0,0E0,0E0,0E0,0E0,0E0,0E0,0E0,0E0],"parents":[2147483647,0,0,1,1,2,2,3,3,4,4,5,5,6,6,7,7,8,8,9,9,10,10,11,11,12,12,13,13,14,14,15,15,16,16,17,17,18,18,19,19,20,20,21,21,23,23,24,24,25,25,26,26,27,27,28,28,30,30,31,31,32,32,35,35,36,36,37,37,38,38,39,39,40,40,41,41,42,42,43,43,44,44,45,45,49,49,51,51,57,57],"right_children":[2,4,6,8,10,12,14,16,18,20,22,24,26,28,30,32,34,36,38,40,42,44,-1,46,48,50,52,54,56,-1,58,60,62,-1,-1,64,66,68,70,72,74,76,78,80,82,84,-1,-1,-1,86,-1,88,-1,-1,-1,-1,-1,90,-1,-1,-1,-1,-1,-1,-1,-1,-1,-1,-1,-1,-1,-1,-1,-1,-1,-1,-1,-1,-1,-1,-1,-1,-1,-1,-1,-1,-1,-1,-1,-1,-1],"split_conditions":[NaN,NaN,NaN,NaN,NaN,NaN,4.177175E4,NaN,NaN,2.933526E4,6.5E1,1.1323664E5,9.088396E4,4.2E1,1.2E1,4.410223E4,2.875379E4,3E1,4.3E1,NaN,NaN,5.2E1,1.56341E-1,8.089468E4,NaN,8.461657E4,5.2E1,4.6E1,2.824862E4,-3.2331035E-2,6.6E1,5.6E1,4.5E1,4.2220518E-2,-6.3683465E-2,NaN,1.939414E4,3.331704E4,2.173796E4,NaN,4.5E1,3.7E1,5.2E1,NaN,5.6E1,5E1,2.8486857E-1,9.436913E-2,-1.9465043E-1,3.2E1,3.4116954E-1,NaN,-6.403943E-2,-2.634117E-1,-7.2426565E-2,-1.03682585E-1,2.1540013E-1,6.8E1,-2.60172E-2,2.7937624E-1,2.9892681E-2,1.8846484E-1,-1.3611773E-1,7.3993385E-2,-2.4345288E-1,2.4550892E-1,7.773743E-2,-1.7366548E-1,-2.4850478E-2,2.911359E-1,-6.1095E-3,1.9568767E-1,-8.852221E-2,-2.5997254E-1,-4.548666E-2,-1.0432594E-1,1.4005251E-1,-2.1957122E-2,-3.328623E-1,-9.6535884E-2,-2.6094195E-1,2.1707058E-1,-1.4115398E-1,-1.3534017E-1,1.3545045E-1,-2.491203E-1,-3.553464E-2,-9.471843E-2,-2.9333907E-1,-3.0240142E-1,-5.336734E-2],"split_indices":[3,2,4,2,4,2,5,1,4,5,8,5,5,0,8,5,5,0,8,1,1,0,0,5,6,5,0,8,5,0,0,8,0,0,0,2,5,5,5,2,8,8,8,4,0,0,0,0,0,0,0,1,0,0,0,0,0,8,0,0,0,0,0,0,0,0,0,0,0,0,0,0,0,0,0,0,0,0,0,0,0,0,0,0,0,0,0,0,0,0,0],"split_type":[1,1,1,1,1,1,0,1,1,0,0,0,0,0,0,0,0,0,0,1,1,0,0,0,1,0,0,0,0,0,0,0,0,0,0,1,0,0,0,1,0,0,0,1,0,0,0,0,0,0,0,1,0,0,0,0,0,0,0,0,0,0,0,0,0,0,0,0,0,0,0,0,0,0,0,0,0,0,0,0,0,0,0,0,0,0,0,0,0,0,0],"sum_hessian":[2.853338E2,1.7397151E2,1.1136228E2,9.547674E1,7.8494774E1,4.653583E1,6.4826454E1,1.29854145E1,8.2491325E1,3.820275E1,4.0292023E1,6.8200254E0,3.9715805E1,7.267761E0,5.755869E1,1.09346485E1,2.0507653E0,3.4293434E1,4.8197887E1,1.2574713E1,2.5628036E1,3.8694607E1,1.5974137E0,4.808503E0,2.0115228E0,2.337887E1,1.6336935E1,4.7931614E0,2.4746E0,1.0291754E0,5.6529514E1,7.980907E0,2.953742E0,1.004405E0,1.0463603E0,4.6921234E0,2.960131E1,2.8026613E1,2.0171274E1,3.3822937E0,9.192419E0,1.9572655E1,6.055383E0,2.9247469E1,9.447139E0,2.7189658E0,2.0895371E0,1.0064157E0,1.0051069E0,2.1754835E1,1.6240352E0,1.4395434E1,1.9415001E0,3.6863208E0,1.1068404E0,1.4322072E0,1.0423928E0,5.5528465E1,1.0010489E0,6.469978E0,1.5109291E0,1.8568445E0,1.0968974E0,2.2670379E0,2.4250853E0,4.0492916E0,2.555202E1,1.2916643E1,1.5109969E1,3.1281447E0,1.704313E1,1.1063843E0,2.2759094E0,6.310495E0,2.8819234E0,1.5185155E0,1.8054138E1,4.945667E0,1.1097163E0,1.2728118E1,1.6519352E1,2.5324323E0,6.9147067E0,1.6394225E0,1.0795432E0,7.157337E0,1.4597498E1,1.4836359E0,1.29117985E1,5.443531E1,1.0931559E0],"tree_param":{"num_deleted":"0","num_feature":"9","num_nodes":"91","size_leaf_vector":"0"}},{"base_weights":[-2.4934614E-1,-4.1622937E-2,-6.121968E-1,-1.6743493E-1,1.3755903E-1,-2.9926637E-1,-8.318863E-1,-7.078069E-1,-1.0210207E-1,6.885343E-2,7.298901E-1,-1.7574544E-1,-7.975279E-1,-5.593955E-1,-9.971671E-1,-2.8337118E-1,-3.3299515E-1,4.6515727E-1,-1.6533756E-1,1.3308826E-1,-6.4114016E-1,3.082051E-1,-5.629375E-3,-8.036501E-1,-3.458396E-2,-8.741391E-1,-5.164465E-2,-7.5273705E-1,7.3754457E-3,-3.0690092E-1,-3.227529E-2,1.4478987E-1,-6.412957E-1,1.3450701E-2,7.2858804E-1,-3.2340118E-1,5.079845E-3,2.3927198E-1,-2.2789837E-1,-8.2121834E-2,-3.0282223E-1,-8.467916E-2,-2.721599E-1,1.7844416E-1,-5.4160625E-1,-5.1369548E-2,-2.913317E-1,-2.916288E-1,-4.2351994E-1,-4.7021633E-1,2.1405828E-1,1.8487182E-1,-1.1775212E-1,-2.5739384E-1,-1.8892903E-2,-1.4430012E-1,2.2930853E-1,2.8758678E-1,-4.104296E-2,3.085983E-2,-1.3540824E-1,4.0980458E-1,-2.5593378E-2,-1.12355836E-1,1.0558363E-1,1.7714156E-1,-1.20274246E-1,1.0920499E-1,-1.4215831E-1,8.7801665E-2,-2.2460154E-1,-2.6344922E-1,2.3495322E-2,8.3802916E-2,-1.9978735E-1,-2.2643726E-2,-2.1521531E-1],"categories":[0,1,3,4,5,2,4,8,9,10,14,1,9,11,12,0,2,5,7,10,11,13,1,2,3,4,6,7,8,9,10,11,12,13,14,15,0,6,9,10,11,12,13,14,15,0,1,2,3,4,5,0,1,2,1,2,3,5,3,4,5,0,1,3,4,5,6,8,9,11,12,13],"categories_nodes":[0,2,5,6,8,9,16,19,24,35,43],"categories_segments":[0,5,11,15,22,36,45,51,54,58,61],"categories_sizes":[5,6,4,7,14,9,6,3,4,3,11],"default_left":[1,0,1,0,0,1,1,0,1,1,0,0,0,0,0,0,1,0,0,1,0,0,0,0,1,0,0,0,0,0,0,0,0,0,0,1,0,0,0,0,0,0,0,1,0,0,0,0,0,0,0,0,0,0,0,0,0,0,0,0,0,0,0,0,0,0,0,0,0,0,0,0,0,0,0,0,0],"id":7,"left_children":[1,3,5,7,9,11,13,15,17,19,21,23,25,27,29,-1,31,33,35,37,39,-1,-1,41,43,45,-1,47,49,-1,-1,51,53,55,57,59,61,63,65,67,-1,-1,-1,69,71,-1,-1,-1,73,75,-1,-1,-1,-1,-1,-1,-1,-1,-1,-1,-1,-1,-1,-1,-1,-1,-1,-1,-1,-1,-1,-1,-1,-1,-1,-1,-1],"loss_changes":[1.9897186E1,3.836589E0,6.361561E0,3.4523156E0,2.8119752E0,2.3969662E0,1.9612694E0,6.261163E-1,3.3137283E0,3.0098517E0,1.6239717E0,3.0139098E0,2.2833347E-1,2.569222E0,6.607437E-1,0E0,9.2482674E-1,1.0983119E0,2.2083817E0,2.3403263E0,1.0477626E0,0E0,0E0,8.1572056E-2,3.235737E0,2.970929E-1,0E0,8.4878445E-1,2.6764197E0,0E0,0E0,1.0096508E0,3.9923823E-1,2.019579E0,1.2983496E0,2.365541E0,5.0870714E0,3.3522885E0,2.2283878E0,7.439456E-1,0E0,0E0,0E0,2.466032E0,1.914438E0,0E0,0E0,0E0,1.677283E0,4.086523E-1,0E0,0E0,0E0,0E0,0E0,0E0,0E0,0E0,0E0,0E0,0E0,0E0,0E0,0E0,0E0,0E0,0E0,0E0,0E0,0E0,0E0,0E0,0E0,0E0,0E0,0E0,0E0],"parents":[2147483647,0,0,1,1,2,2,3,3,4,4,5,5,6,6,7,7,8,8,9,9,10,10,11,11,12,12,13,13,14,14,16,16,17,17,18,18,19,19,20,20,23,23,24,24,25,25,27,27,28,28,31,31,32,32,33,33,34,34,35,35,36,36,37,37,38,38,39,39,43,43,44,44,48,48,49,49],"right_children":[2,4,6,8,10,12,14,16,18,20,22,24,26,28,30,-1,32,34,36,38,40,-1,-1,42,44,46,-1,48,50,-1,-1,52,54,56,58,60,62,64,66,68,-1,-1,-1,70,72,-1,-1,-1,74,76,-1,-1,-1,-1,-1,-1,-1,-1,-1,-1,-1,-1,-1,-1,-1,-1,-1,-1,-1,-1,-1,-1,-1,-1,-1,-1,-1],"split_conditions":[NaN,4.2E1,NaN,2.9E1,5.953487E4,NaN,NaN,4.923733E4,NaN,NaN,4.5E1,2.7E1,1.6668897E5,4.1E1,6.4E1,-2.8337118E-1,NaN,4.2E1,3.623539E4,NaN,4.2E1,3.082051E-1,-5.629375E-3,2.3E1,NaN,2.933526E4,-5.164465E-2,3.5E1,3.9E1,-3.0690092E-1,-3.227529E-2,6.581354E4,1.9940544E5,5.87295E4,4.410223E4,NaN,3.753082E4,3E1,1.875425E4,4.262843E4,-3.0282223E-1,-8.467916E-2,-2.721599E-1,NaN,4.8E1,-5.1369548E-2,-2.913317E-1,-2.916288E-1,4E1,3E1,2.1405828E-1,1.8487182E-1,-1.1775212E-1,-2.5739384E-1,-1.8892903E-2,-1.4430012E-1,2.2930853E-1,2.8758678E-1,-4.104296E-2,3.085983E-2,-1.3540824E-1,4.0980458E-1,-2.5593378E-2,-1.12355836E-1,1.0558363E-1,1.7714156E-1,-1.20274246E-1,1.0920499E-1,-1.4215831E-1,8.7801665E-2,-2.2460154E-1,-2.6344922E-1,2.3495322E-2,8.3802916E-2,-1.9978735E-1,-2.2643726E-2,-2.1521531E-1],"split_indices":[3,8,2,0,5,4,4,5,2,2,0,0,5,8,0,0,4,0,5,1,0,0,0,0,1,5,0,0,0,0,0,5,5,5,5,1,5,0,5,5,0,0,0,4,0,0,0,0,0,0,0,0,0,0,0,0,0,0,0,0,0,0,0,0,0,0,0,0,0,0,0,0,0,0,0,0,0],"split_type":[1,0,1,0,0,1,1,0,1,1,0,0,0,0,0,0,1,0,0,1,0,0,0,0,1,0,0,0,0,0,0,0,0,0,0,1,0,0,0,0,0,0,0,1,0,0,0,0,0,0,0,0,0,0,0,0,0,0,0,0,0,0,0,0,0,0,0,0,0,0,0,0,0,0,0,0,0],"sum_hessian":[2.6332275E2,1.6816632E2,9.515642E1,9.883514E1,6.933119E1,4.022346E1,5.4932953E1,9.599903E0,8.923523E1,6.3125397E1,6.2057924E0,3.3316814E1,6.906647E0,2.2395334E1,3.253762E1,4.9517984E0,4.648105E0,8.312379E0,8.092285E1,5.8633255E1,4.492142E0,4.1747804E0,2.0310118E0,5.2538557E0,2.806296E1,5.798532E0,1.1081154E0,1.645422E1,5.9411135E0,3.1473562E1,1.0640584E0,2.0309799E0,2.617125E0,3.449153E0,4.8632255E0,4.1517403E1,3.9405453E1,4.5566967E1,1.3066288E1,2.2697406E0,2.2224014E0,1.4879094E0,3.7659461E0,2.0216812E1,7.8461475E0,1.0382413E0,4.7602906E0,8.702772E0,7.751448E0,3.7434325E0,2.1976807E0,1.0035195E0,1.0274602E0,1.5520366E0,1.0650885E0,2.2964547E0,1.1526984E0,3.7568731E0,1.1063524E0,9.630791E0,3.1886612E1,1.5753025E0,3.7830147E1,6.706919E0,3.8860046E1,1.8592331E0,1.1207055E1,1.0942755E0,1.1754651E0,1.8608425E1,1.608386E0,4.8153296E0,3.0308182E0,1.9489452E0,5.802503E0,1.9440622E0,1.7993703E0],"tree_param":{"num_deleted":"0","num_feature":"9","num_nodes":"77","size_leaf_vector":"0"}},{"base_weights":[-3.462792E-1,-6.856084E-2,-7.7207613E-1,3.3199036E-1,-2.7150717E-1,-4.8730418E-1,-9.43074E-1,4.6842933E-1,-3.4078643E-1,9.799166E-2,-4.0308496E-1,-9.0431476E-1,-3.7751898E-1,-7.743653E-1,-1.0456072E0,6.575549E-1,-8.537175E-3,-3.6442995E-1,1.3695018E-1,-5.033768E-1,3.4566665E-1,2.6535982E-1,-4.3305492E-1,5.0489686E-4,-3.2788342E-1,-7.8592E-1,-2.891865E-1,-5.5982256E-1,-2.9893583E-1,-3.190228E-1,-5.1979426E-2,7.4813277E-1,1.4784328E-2,-2.0589705E-1,2.3198105E-1,5.520472E-1,-1.9251637E-1,1.8755794E-1,-8.8580793E-1,-2.1796007E-1,6.3448346E-1,-5.6188166E-1,-2.1254677E-1,-8.582694E-1,-6.050572E-2,-1.2745053E-1,-6.434745E-1,-3.0343387E-1,-9.0192616E-1,1.5582135E-1,2.9623818E-1,1.9875999E-1,-1.4109685E-1,1.317815E-1,-1.9885963E-1,2.5065905E-1,-3.1651553E-2,1.867769E-1,-8.549705E-2,-6.639722E-2,-2.8987005E-1,1.6512966E-1,-2.3448803E-1,3.2731578E-1,7.434014E-2,-1.4847565E-1,-3.6321545E-1,-2.5588056E-1,-3.4287624E-2,-2.907617E-1,-7.7988535E-2,8.105811E-3,-1.6544245E-1,-2.825915E-1,1.3800796E-2,-1.6552894E-1,6.2371764E-2,-2.9709512E-1,-5.755808E-2],"categories":[0,1,3,4,5,2,4,6,8,9,10,11,12,13,14,15,2,4,8,9,10,14,15,1,5,9,12,0,3,5,7,8,9,10,11,13,0,2,5,7,10,11,13,0,1,2,3,6,0,1,2,4,5,1,2,3,4,0,1,2,7,10,1,2,3,5,2,8,7,0,1,2,3,2,4,5,2,4,0,1,10],"categories_nodes":[0,1,2,3,4,6,7,10,11,12,26,27,32,33,37,39,42,43,45],"categories_segments":[0,5,16,23,27,36,43,48,53,57,62,66,68,69,73,74,76,78,79],"categories_sizes":[5,11,7,4,9,7,5,5,4,5,4,2,1,4,1,2,2,1,2],"default_left":[1,1,1,1,1,0,1,1,0,0,1,1,1,0,0,0,0,0,0,0,0,0,0,0,0,0,1,1,0,0,0,0,1,1,0,0,0,1,0,1,0,0,1,1,0,1,0,0,0,0,0,0,0,0,0,0,0,0,0,0,0,0,0,0,0,0,0,0,0,0,0,0,0,0,0,0,0,0,0],"id":8,"left_children":[1,3,5,7,9,11,13,15,17,19,21,23,25,27,29,31,33,-1,35,37,39,-1,41,-1,-1,43,45,47,-1,-1,-1,49,51,53,-1,55,-1,57,59,61,63,65,67,69,-1,71,73,75,77,-1,-1,-1,-1,-1,-1,-1,-1,-1,-1,-1,-1,-1,-1,-1,-1,-1,-1,-1,-1,-1,-1,-1,-1,-1,-1,-1,-1,-1,-1],"loss_changes":[3.5582912E1,1.5006176E1,5.3286285E0,5.8650103E0,5.9872074E0,1.7950306E0,4.5654297E-1,4.705039E0,4.7836733E0,5.078522E0,3.8718576E0,1.54139E0,1.1672792E0,9.4425964E-1,4.7846222E-1,2.1615772E0,2.593878E0,0E0,2.9558368E0,2.8118618E0,4.031437E0,0E0,2.4094582E0,0E0,0E0,9.285903E-2,1.8298397E0,1.3329539E0,0E0,0E0,0E0,1.2764778E0,2.080489E0,4.2383547E0,0E0,1.1669995E0,0E0,1.0804589E0,1.3993406E-1,4.2621336E0,2.5665107E0,1.8158207E0,2.0693827E0,9.926653E-2,0E0,1.5969939E0,2.1447268E0,1.635596E0,2.7067518E-1,0E0,0E0,0E0,0E0,0E0,0E0,0E0,0E0,0E0,0E0,0E0,0E0,0E0,0E0,0E0,0E0,0E0,0E0,0E0,0E0,0E0,0E0,0E0,0E0,0E0,0E0,0E0,0E0,0E0,0E0],"parents":[2147483647,0,0,1,1,2,2,3,3,4,4,5,5,6,6,7,7,8,8,9,9,10,10,11,11,12,12,13,13,14,14,15,15,16,16,18,18,19,19,20,20,22,22,25,25,26,26,27,27,31,31,32,32,33,33,35,35,37,37,38,38,39,39,40,40,41,41,42,42,43,43,45,45,46,46,47,47,48,48],"right_children":[2,4,6,8,10,12,14,16,18,20,22,24,26,28,30,32,34,-1,36,38,40,-1,42,-1,-1,44,46,48,-1,-1,-1,50,52,54,-1,56,-1,58,60,62,64,66,68,70,-1,72,74,76,78,-1,-1,-1,-1,-1,-1,-1,-1,-1,-1,-1,-1,-1,-1,-1,-1,-1,-1,-1,-1,-1,-1,-1,-1,-1,-1,-1,-1,-1,-1],"split_conditions":[NaN,NaN,NaN,NaN,NaN,3.6E1,NaN,NaN,3.7E1,3.7E1,NaN,NaN,NaN,1.0560842E5,6.6E1,6E1,5.74973E4,-3.6442995E-1,4.706394E4,3E1,2.907378E4,2.6535982E-1,4.2E1,5.0489686E-4,-3.2788342E-1,1.774687E5,NaN,NaN,-2.9893583E-1,-3.190228E-1,-5.1979426E-2,4.5E1,NaN,NaN,2.3198105E-1,4.7E1,-1.9251637E-1,NaN,2.244629E4,NaN,5.1E1,1.5047156E5,NaN,NaN,-6.050572E-2,NaN,4.8E1,4.1E1,5.1E1,1.5582135E-1,2.9623818E-1,1.9875999E-1,-1.4109685E-1,1.317815E-1,-1.9885963E-1,2.5065905E-1,-3.1651553E-2,1.867769E-1,-8.549705E-2,-6.639722E-2,-2.8987005E-1,1.6512966E-1,-2.3448803E-1,3.2731578E-1,7.434014E-2,-1.4847565E-1,-3.6321545E-1,-2.5588056E-1,-3.4287624E-2,-2.907617E-1,-7.7988535E-2,8.105811E-3,-1.6544245E-1,-2.825915E-1,1.3800796E-2,-1.6552894E-1,6.2371764E-2,-2.9709512E-1,-5.755808E-2],"split_indices":[3,2,2,4,4,8,4,1,0,0,1,1,4,5,0,8,5,0,5,0,5,0,8,0,0,5,1,2,0,0,0,8,4,2,0,0,0,4,5,1,0,5,2,6,0,4,0,8,0,0,0,0,0,0,0,0,0,0,0,0,0,0,0,0,0,0,0,0,0,0,0,0,0,0,0,0,0,0,0],"split_type":[1,1,1,1,1,0,1,1,0,0,1,1,1,0,0,0,0,0,0,0,0,0,0,0,0,0,1,1,0,0,0,0,1,1,0,0,0,1,0,1,0,0,1,1,0,1,0,0,0,0,0,0,0,0,0,0,0,0,0,0,0,0,0,0,0,0,0,0,0,0,0,0,0,0,0,0,0,0,0],"sum_hessian":[3.0035605E2,1.8249077E2,1.1786529E2,6.115483E1,1.2133594E2,4.5665634E1,7.219965E1,5.109626E1,1.0058571E1,3.1928646E1,8.940729E1,8.008572E0,3.7657063E1,3.052538E1,4.1674274E1,3.6317223E1,1.4779036E1,3.0097415E0,7.0488296E0,9.01276E0,2.2915886E1,1.3850853E0,8.80222E1,1.5508505E0,6.457721E0,5.29208E0,3.2364983E1,1.7317198E1,1.3208181E1,4.062618E1,1.0480943E0,3.1687914E1,4.629309E0,1.2388352E1,2.390683E0,4.787651E0,2.2611787E0,3.392723E0,5.620037E0,7.8472643E0,1.5068621E1,5.458441E1,3.3437794E1,4.2915773E0,1.0005027E0,2.3154472E1,9.210509E0,1.0977274E1,6.3399253E0,1.7823786E1,1.3864128E1,1.8257259E0,2.8035831E0,5.1525183E0,7.235834E0,3.156261E0,1.6313899E0,1.6011631E0,1.7915599E0,1.01186E0,4.608177E0,3.3305402E0,4.516724E0,6.07459E0,8.994031E0,5.1075924E1,3.5084891E0,3.4262009E0,3.0011591E1,3.0973628E0,1.1942146E0,1.7658024E1,5.49645E0,6.1721663E0,3.0383425E0,7.3356853E0,3.641588E0,5.2870913E0,1.0528338E0],"tree_param":{"num_deleted":"0","num_feature":"9","num_nodes":"79","size_leaf_vector":"0"}},{"base_weights":[-2.495007E-1,-4.1969344E-2,-6.1773956E-1,1.2161147E-1,-2.1476367E-1,-3.2802412E-1,-8.2896703E-1,2.5594673E-1,-6.8873875E-2,-5.242909E-2,-4.4347256E-1,-7.660116E-1,-2.1534263E-1,-8.777528E-1,-2.5830922E-1,-5.307913E-2,4.6726373E-1,2.5323692E-1,-2.7327228E-1,-1.7058307E-1,4.783356E-1,-5.757445E-1,-7.189824E-2,4.7926497E-2,-2.9114902E-1,-3.482783E-1,1.2959418E-1,-9.061901E-1,-3.9268732E-2,-2.2724803E-1,2.0033996E-1,-4.0328792E-1,4.9238548E-1,5.78312E-1,-1.8247712E-1,4.8955998E-1,-4.5553523E-1,-3.0007997E-1,-1.1974049E-1,-2.4953009E-1,6.831631E-1,7.720968E-1,-2.7780116E-1,-6.882074E-1,-1.2486643E-3,5.560667E-1,-3.8743675E-1,-2.1266548E-2,-5.0126123E-1,3.3535376E-1,-2.2245575E-1,-3.4626773E-1,-9.345506E-1,1.4411226E-1,-5.9950963E-2,-1.9597173E-1,2.35617E-1,-1.903418E-2,2.0287786E-1,2.0627443E-1,-3.607763E-2,8.7856285E-2,-2.1263696E-1,-9.0252206E-2,1.9100049E-1,4.625697E-2,-2.8142428E-1,-2.1260579E-1,1.7382408E-2,1.1629986E-1,-9.657719E-2,-1.1730355E-2,2.9816383E-1,3.8016707E-2,2.7734104E-1,8.9359604E-2,-2.3847866E-1,-8.770492E-2,-2.5885415E-1,2.0483477E-1,-2.0454429E-1,2.8022343E-1,-1.3374558E-2,5.0890025E-2,-2.1062586E-1,-6.919826E-2,2.4993743E-1,-5.0242152E-2,-2.234597E-1,1.5217857E-1,-3.8058937E-2,8.1896394E-2,-2.107718E-1,-2.84759E-1,-8.586419E-2],"categories":[0,1,3,4,5,0,4,6,8,9,10,11,12,13,14,15,2,4,8,9,10,14,0,7,9,11,0,3,5,8,11,13,1,2,3,4,5,6,7,8,9,10,11,12,13,14,15,5,0,1,2,3,5,2,10,0,1,2,3,5,7,9,10,11,13,0,1,2,0,2,4,5,0,3,8,11,13,0,1,2,3,4,5,6,7,8,0,0,2,3,4],"categories_nodes":[0,1,2,3,4,11,16,17,20,27,30,36,39,43,46,48,51],"categories_segments":[0,5,16,22,26,32,47,48,53,55,65,67,68,72,77,86,87],"categories_sizes":[5,11,6,4,6,15,1,5,2,10,2,1,4,5,9,1,4],"default_left":[1,1,1,1,1,0,0,0,0,0,0,1,0,0,0,0,1,1,0,0,1,0,0,0,0,0,0,1,0,0,1,0,0,0,0,0,1,0,0,1,0,0,0,1,0,0,1,0,1,0,0,1,0,0,0,0,0,0,0,0,0,0,0,0,0,0,0,0,0,0,0,0,0,0,0,0,0,0,0,0,0,0,0,0,0,0,0,0,0,0,0,0,0,0,0],"id":9,"left_children":[1,3,5,7,9,11,13,15,17,19,21,23,25,27,29,31,33,35,37,39,41,43,45,-1,-1,47,49,51,-1,-1,53,55,57,59,61,63,65,-1,67,69,71,73,75,77,79,81,83,85,87,89,-1,91,93,-1,-1,-1,-1,-1,-1,-1,-1,-1,-1,-1,-1,-1,-1,-1,-1,-1,-1,-1,-1,-1,-1,-1,-1,-1,-1,-1,-1,-1,-1,-1,-1,-1,-1,-1,-1,-1,-1,-1,-1,-1,-1],"loss_changes":[2.0139257E1,4.8265834E0,5.5439224E0,2.2664E0,3.0565388E0,1.894445E0,1.2852135E0,3.4040825E0,2.5139732E0,3.1952493E0,1.644506E0,1.6974225E0,1.6307949E0,9.3512726E-1,1.4554461E0,4.3846316E0,2.3303308E0,2.724517E0,2.469531E0,2.9572873E0,2.2809215E0,1.6243372E0,2.2261972E0,0E0,0E0,1.25162E0,2.1035252E0,4.326744E-1,0E0,0E0,5.171776E-1,4.641424E0,9.646218E-1,2.111127E0,1.5237116E0,1.5498595E0,1.3957808E0,0E0,2.1642275E0,1.9044449E0,8.8432086E-1,5.6774044E-1,1.2306002E0,1.2019005E0,2.8489583E0,9.0543795E-1,1.4062624E0,1.817725E0,1.2694082E0,7.842289E-1,0E0,1.048906E0,1.5316772E-1,0E0,0E0,0E0,0E0,0E0,0E0,0E0,0E0,0E0,0E0,0E0,0E0,0E0,0E0,0E0,0E0,0E0,0E0,0E0,0E0,0E0,0E0,0E0,0E0,0E0,0E0,0E0,0E0,0E0,0E0,0E0,0E0,0E0,0E0,0E0,0E0,0E0,0E0,0E0,0E0,0E0,0E0],"parents":[2147483647,0,0,1,1,2,2,3,3,4,4,5,5,6,6,7,7,8,8,9,9,10,10,11,11,12,12,13,13,14,14,15,15,16,16,17,17,18,18,19,19,20,20,21,21,22,22,25,25,26,26,27,27,30,30,31,31,32,32,33,33,34,34,35,35,36,36,38,38,39,39,40,40,41,41,42,42,43,43,44,44,45,45,46,46,47,47,48,48,49,49,51,51,52,52],"right_children":[2,4,6,8,10,12,14,16,18,20,22,24,26,28,30,32,34,36,38,40,42,44,46,-1,-1,48,50,52,-1,-1,54,56,58,60,62,64,66,-1,68,70,72,74,76,78,80,82,84,86,88,90,-1,92,94,-1,-1,-1,-1,-1,-1,-1,-1,-1,-1,-1,-1,-1,-1,-1,-1,-1,-1,-1,-1,-1,-1,-1,-1,-1,-1,-1,-1,-1,-1,-1,-1,-1,-1,-1,-1,-1,-1,-1,-1,-1,-1],"split_conditions":[NaN,NaN,NaN,NaN,NaN,2.7E1,5.7E1,4.1E1,4E1,5.953487E4,5.2E1,NaN,5E1,1E0,3.9E1,4.580318E4,NaN,NaN,3.8E1,1E0,NaN,5.4E1,5.6E1,4.7926497E-2,-2.9114902E-1,6.395256E4,1.2688891E5,NaN,-3.9268732E-2,-2.2724803E-1,NaN,5.6E1,2.8E1,5.3E1,4.000978E4,2.8E1,NaN,-3.0007997E-1,4.2E1,NaN,2.981143E4,3.6E1,1.6422131E5,NaN,4.000978E4,3.012474E4,NaN,6.260931E4,NaN,5.8E1,-2.2245575E-1,NaN,6.2E1,1.4411226E-1,-5.9950963E-2,-1.9597173E-1,2.35617E-1,-1.903418E-2,2.0287786E-1,2.0627443E-1,-3.607763E-2,8.7856285E-2,-2.1263696E-1,-9.0252206E-2,1.9100049E-1,4.625697E-2,-2.8142428E-1,-2.1260579E-1,1.7382408E-2,1.1629986E-1,-9.657719E-2,-1.1730355E-2,2.9816383E-1,3.8016707E-2,2.7734104E-1,8.9359604E-2,-2.3847866E-1,-8.770492E-2,-2.5885415E-1,2.0483477E-1,-2.0454429E-1,2.8022343E-1,-1.3374558E-2,5.0890025E-2,-2.1062586E-1,-6.919826E-2,2.4993743E-1,-5.0242152E-2,-2.234597E-1,1.5217857E-1,-3.8058937E-2,8.1896394E-2,-2.107718E-1,-2.84759E-1,-8.586419E-2],"split_indices":[3,2,2,4,4,0,0,0,0,5,0,2,8,7,8,5,1,1,8,7,4,8,0,0,0,5,5,4,0,0,3,8,0,8,5,0,2,0,0,1,5,8,5,4,5,5,4,5,6,8,0,3,8,0,0,0,0,0,0,0,0,0,0,0,0,0,0,0,0,0,0,0,0,0,0,0,0,0,0,0,0,0,0,0,0,0,0,0,0,0,0,0,0,0,0],"split_type":[1,1,1,1,1,0,0,0,0,0,0,1,0,0,0,0,1,1,0,0,1,0,0,0,0,0,0,1,0,0,1,0,0,0,0,0,1,0,0,1,0,0,0,1,0,0,1,0,1,0,0,1,0,0,0,0,0,0,0,0,0,0,0,0,0,0,0,0,0,0,0,0,0,0,0,0,0,0,0,0,0,0,0,0,0,0,0,0,0,0,0,0,0,0,0],"sum_hessian":[2.628693E2,1.688328E2,9.403651E1,8.688077E1,8.195203E1,4.072789E1,5.3308613E1,5.0748173E1,3.61326E1,4.8650074E1,3.330195E1,7.1475773E0,3.358031E1,4.861441E1,4.6942024E0,2.0913498E1,2.9834675E1,1.3934432E1,2.2198166E1,4.0347004E1,8.303072E0,2.4154152E1,9.147797E0,1.3327147E0,5.8148623E0,2.4231869E1,9.348442E0,4.662575E1,1.9886594E0,1.9357728E0,2.7584295E0,1.2895046E1,8.018453E0,2.5573757E1,4.2609177E0,1.0682045E1,3.2523868E0,2.9089303E0,1.9289236E1,3.7579685E1,2.7673192E0,5.9646726E0,2.338399E0,2.0034315E1,4.1198354E0,2.8043923E0,6.343404E0,8.086155E0,1.6145714E1,8.059737E0,1.2887055E0,2.884596E0,4.3741158E1,1.5049175E0,1.2535119E0,1.1026814E1,1.8682319E0,2.156006E0,5.8624463E0,2.2128223E1,3.4455328E0,2.4719696E0,1.7889482E0,1.5121827E0,9.169863E0,1.7374638E0,1.514923E0,3.7780328E0,1.5511203E1,3.3896546E0,3.419003E1,1.0953413E0,1.671978E0,1.4891332E0,4.475539E0,1.3072116E0,1.0311874E0,6.9514384E0,1.3082877E1,2.0530615E0,2.066774E0,1.3804845E0,1.4239079E0,2.4560242E0,3.8873796E0,7.0808167E0,1.0053383E0,7.5239134E0,8.621801E0,5.803748E0,2.255989E0,1.138948E0,1.7456481E0,4.2321068E1,1.4200892E0],"tree_param":{"num_deleted":"0","num_feature":"9","num_nodes":"95","size_leaf_vector":"0"}},{"base_weights":[-1.6611947E-1,-2.1196662E-2,-4.7022706E-1,-3.709506E-1,2.5349228E-2,-2.5459594E-1,-7.8395003E-1,-5.2931434E-1,1.7742746E-2,4.7784247E-2,-2.5805485E-1,-8.499622E-1,-1.13346644E-1,-5.803477E-1,-2.976878E-1,1.107149E-2,-8.5666096E-1,3.388431E-1,-1.4103097E-1,-1.2120553E-1,1.2775955E-1,-2.783693E-1,-5.6663137E-2,-1.6561303E-2,-5.978179E-1,-6.800291E-1,4.5228556E-2,-2.6356855E-1,1.9103223E-1,-8.691201E-2,-2.9191676E-1,1.8401864E-1,-3.8440112E-2,-2.3258935E-1,5.506827E-1,-2.2480221E-1,1.579371E-1,1.6435862E-1,-4.801887E-1,6.1799508E-2,-2.7491763E-1,5.4794572E-2,-7.773088E-1,1.6471153E-1,-1.6884044E-1,-2.2089238E-1,3.5105888E-2,-2.363706E-2,-2.6233202E-1,4.3528624E-2,2.9233652E-1,6.6569224E-2,-6.447253E-2,1.1210952E-1,-6.9417566E-2,-2.609311E-1,-6.733048E-2,-2.4597356E-1,-8.963566E-2],"categories":[0,1,3,4,5,0,1,3,5,11,12,13,14,15,5,11,13,0,2,3,4,5,6,8,9,10,11,2,5,6,8,9,10,11,12,13,14,15,0,1,2,4,0,1,2,3,5,6,7,8,9,10,11,12,13,14,15,1,11,12,13,0,1,2,3,4],"categories_nodes":[0,2,4,6,8,23,24,26,33,37],"categories_segments":[0,5,12,14,17,27,38,42,57,61],"categories_sizes":[5,7,2,3,10,11,4,15,4,5],"default_left":[1,0,1,0,1,0,1,0,1,0,0,0,0,0,0,0,0,0,0,0,0,0,0,1,1,0,1,0,0,0,0,0,0,1,0,0,0,1,0,0,0,0,0,0,0,0,0,0,0,0,0,0,0,0,0,0,0,0,0],"id":10,"left_children":[1,3,5,7,9,11,13,15,17,19,-1,21,23,25,-1,27,29,31,-1,33,35,-1,-1,37,39,41,43,45,-1,-1,-1,-1,-1,47,49,-1,51,53,55,-1,-1,-1,57,-1,-1,-1,-1,-1,-1,-1,-1,-1,-1,-1,-1,-1,-1,-1,-1],"loss_changes":[1.0309391E1,2.6080232E0,4.9094086E0,1.1673639E0,2.8584754E0,3.792193E0,7.087059E-1,2.379626E0,1.1639228E0,1.8975246E0,0E0,2.736435E-1,1.7966168E0,1.1360316E0,0E0,1.2060767E0,2.695737E-1,6.489718E-1,0E0,3.5142055E0,2.6331205E0,0E0,0E0,2.858712E0,1.8242366E0,1.4302316E0,1.3424865E0,9.688595E-1,0E0,0E0,0E0,0E0,0E0,3.8318918E0,1.0155339E0,0E0,2.2577355E0,2.1230857E0,7.5704837E-1,0E0,0E0,0E0,4.013729E-2,0E0,0E0,0E0,0E0,0E0,0E0,0E0,0E0,0E0,0E0,0E0,0E0,0E0,0E0,0E0,0E0],"parents":[2147483647,0,0,1,1,2,2,3,3,4,4,5,5,6,6,7,7,8,8,9,9,11,11,12,12,13,13,15,15,16,16,17,17,19,19,20,20,23,23,24,24,25,25,26,26,27,27,33,33,34,34,36,36,37,37,38,38,42,42],"right_children":[2,4,6,8,10,12,14,16,18,20,-1,22,24,26,-1,28,30,32,-1,34,36,-1,-1,38,40,42,44,46,-1,-1,-1,-1,-1,48,50,-1,52,54,56,-1,-1,-1,58,-1,-1,-1,-1,-1,-1,-1,-1,-1,-1,-1,-1,-1,-1,-1,-1],"split_conditions":[NaN,3.8E1,NaN,9.605704E4,NaN,2.7E1,NaN,2.683422E4,NaN,3.7E1,-2.5805485E-1,1.9259961E5,1.3898223E5,4.9E1,-2.976878E-1,2.480044E4,1.6E1,2.4837606E5,-1.4103097E-1,6.260931E4,7.56823E3,-2.783693E-1,-5.6663137E-2,NaN,NaN,3.672936E4,NaN,4.3E1,1.9103223E-1,-8.691201E-2,-2.9191676E-1,1.8401864E-1,-3.8440112E-2,NaN,4.1E1,-2.2480221E-1,5.6E1,NaN,5.632413E4,6.1799508E-2,-2.7491763E-1,5.4794572E-2,1.9405427E5,1.6471153E-1,-1.6884044E-1,-2.2089238E-1,3.5105888E-2,-2.363706E-2,-2.6233202E-1,4.3528624E-2,2.9233652E-1,6.6569224E-2,-6.447253E-2,1.1210952E-1,-6.9417566E-2,-2.609311E-1,-6.733048E-2,-2.4597356E-1,-8.963566E-2],"split_indices":[3,8,4,5,2,0,4,5,4,0,0,5,5,8,0,5,8,5,0,5,5,0,0,2,2,5,2,0,0,0,0,0,0,4,8,0,8,4,5,0,0,0,5,0,0,0,0,0,0,0,0,0,0,0,0,0,0,0,0],"split_type":[1,0,1,0,1,0,1,0,1,0,0,0,0,0,0,0,0,0,0,0,0,0,0,1,1,0,1,0,0,0,0,0,0,1,0,0,0,1,0,0,0,0,0,0,0,0,0,0,0,0,0,0,0,0,0,0,0,0,0],"sum_hessian":[2.3314705E2,1.586242E2,7.4522835E1,1.781202E1,1.408122E2,4.5239742E1,2.9283094E1,1.2398692E1,5.413326E0,1.3825551E2,2.5566747E0,7.7128E0,3.7526943E1,1.672458E1,1.2558513E1,5.0418143E0,7.3568783E0,3.4487727E0,1.9645531E0,4.4246353E1,9.400916E1,6.5383887E0,1.1744112E0,3.2140293E1,5.386649E0,1.4350828E1,2.373753E0,3.9060798E0,1.1357343E0,1.8473778E0,5.5095005E0,1.9744041E0,1.4743687E0,3.851523E1,5.731123E0,2.3342385E0,9.167493E1,2.3583046E1,8.557247E0,1.6292217E0,3.7574272E0,1.3653479E0,1.298548E1,1.351188E0,1.0225652E0,1.3252684E0,2.5808115E0,3.197596E1,6.5392694E0,3.6143053E0,2.1168177E0,7.859679E1,1.3078139E1,1.5460593E1,8.122453E0,2.4398656E0,6.117381E0,1.1268797E1,1.7166839E0],"tree_param":{"num_deleted":"0","num_feature":"9","num_nodes":"59","size_leaf_vector":"0"}},{"base_weights":[-2.1728785E-1,-4.1211605E-2,-5.6406134E-1,1.3274516E-1,-2.1756478E-1,-4.1464436E-1,-9.471324E-1,2.9499483E-1,-9.506472E-2,-3.719423E-1,-7.2671816E-2,-3.049809E-1,-9.113557E-1,-9.8176837E-1,-7.482107E-2,1.9808076E-1,8.252364E-1,1.2301335E-1,-4.8647365E-1,1.4667793E-1,-4.3444604E-1,1.0028513E-1,-6.488417E-1,-8.0847555E-1,-1.9780092E-1,-3.8644575E-2,-2.9488063E-1,-3.0476022E-1,-7.498772E-2,2.9214665E-2,4.917987E-1,5.277297E-2,2.7090648E-1,6.877583E-1,-1.20807946E-1,1.4344946E-1,-6.212583E-1,-1.9747633E-1,5.0726795E-1,-2.8639725E-1,-2.4990441E-1,-1.9829224E-1,4.845605E-1,-1.9484477E-2,-8.546725E-1,-3.2339847E-1,-2.8721756E-1,-4.2880824E-1,-1.885117E-2,-1.1427816E-1,1.0432968E-1,2.8381813E-1,4.381699E-2,9.211362E-3,2.709564E-1,-1.3232179E-1,3.2211777E-2,-2.4287967E-1,-7.697585E-2,3.5234034E-1,-9.132653E-2,-2.4370395E-1,-5.7084724E-2,3.852396E-2,-2.5871217E-1,2.294211E-1,-1.4243999E-1,1.3991773E-1,-1.2889527E-1,-1.219375E-1,-3.0290544E-1,4.193345E-2,-2.0361404E-1,1.1859205E-1,-1.5658866E-1,8.496979E-2,-7.300832E-2],"categories":[0,1,3,4,5,0,1,3,5,9,11,13,2,8,9,10,14,2,4,6,9,10,11,12,13,14,15,3,5,11,13,0,2,3,4,5,6,7,8,9,10,11,12,13,14,1,3,5,6,7,8,9,11,12,13,14,15,0,1,4,4,5,0,2,4,1,3,11,4,0,11,13,0,2,3,5,9,1,5,13,0,1,2,3,4,5,6,7,8,9,10,11,12,13,14,15],"categories_nodes":[0,1,2,3,5,9,10,12,17,18,20,23,41,42,43,44,45,47],"categories_segments":[0,5,12,17,27,31,45,57,60,62,65,68,69,72,76,77,80,81],"categories_sizes":[5,7,5,10,4,14,12,3,2,3,3,1,3,4,1,3,1,15],"default_left":[1,1,1,1,0,1,0,0,0,1,1,0,1,0,0,0,0,1,1,0,1,0,0,1,0,0,0,0,0,0,0,0,0,0,0,0,0,0,0,0,0,1,1,1,1,1,0,1,0,0,0,0,0,0,0,0,0,0,0,0,0,0,0,0,0,0,0,0,0,0,0,0,0,0,0,0,0],"id":11,"left_children":[1,3,5,7,9,11,13,15,17,19,21,23,25,27,-1,29,31,33,35,37,39,41,43,45,47,-1,-1,-1,-1,49,51,-1,-1,53,55,-1,57,-1,59,61,-1,63,65,67,69,71,-1,73,75,-1,-1,-1,-1,-1,-1,-1,-1,-1,-1,-1,-1,-1,-1,-1,-1,-1,-1,-1,-1,-1,-1,-1,-1,-1,-1,-1,-1],"loss_changes":[1.5272285E1,5.15894E0,4.431368E0,3.1626081E0,1.8389001E0,3.1216583E0,3.078556E-1,2.3942676E0,3.1354365E0,1.3650432E0,4.4770975E0,2.6800752E0,4.774475E-1,2.8130722E-1,0E0,2.1381044E0,2.1367407E-1,3.3792179E0,1.9995561E0,1.8041539E0,1.8903785E0,4.1024694E0,1.3248482E0,3.3419752E-1,1.8403478E0,0E0,0E0,0E0,0E0,3.8714988E0,2.340043E0,0E0,0E0,1.015163E0,1.331332E0,0E0,6.112294E-1,0E0,2.5579176E0,1.2523403E0,0E0,4.5280037E0,4.5450478E0,9.129482E-1,1.3016939E-1,6.8792146E-1,0E0,1.7012069E0,1.848689E0,0E0,0E0,0E0,0E0,0E0,0E0,0E0,0E0,0E0,0E0,0E0,0E0,0E0,0E0,0E0,0E0,0E0,0E0,0E0,0E0,0E0,0E0,0E0,0E0,0E0,0E0,0E0,0E0],"parents":[2147483647,0,0,1,1,2,2,3,3,4,4,5,5,6,6,7,7,8,8,9,9,10,10,11,11,12,12,13,13,15,15,16,16,17,17,18,18,19,19,20,20,21,21,22,22,23,23,24,24,29,29,30,30,33,33,34,34,36,36,38,38,39,39,41,41,42,42,43,43,44,44,45,45,47,47,48,48],"right_children":[2,4,6,8,10,12,14,16,18,20,22,24,26,28,-1,30,32,34,36,38,40,42,44,46,48,-1,-1,-1,-1,50,52,-1,-1,54,56,-1,58,-1,60,62,-1,64,66,68,70,72,-1,74,76,-1,-1,-1,-1,-1,-1,-1,-1,-1,-1,-1,-1,-1,-1,-1,-1,-1,-1,-1,-1,-1,-1,-1,-1,-1,-1,-1,-1],"split_conditions":[NaN,NaN,NaN,NaN,3.466662E4,NaN,5.6E1,5.953487E4,4.410223E4,NaN,NaN,3.6E1,NaN,6E1,-7.482107E-2,4.8E1,2.8E1,NaN,NaN,3.5E1,NaN,4.3E1,4.287848E4,NaN,3.7E1,-3.8644575E-2,-2.9488063E-1,-3.0476022E-1,-7.498772E-2,4.1E1,2.748602E4,5.277297E-2,2.7090648E-1,4.1E1,2.933526E4,1.4344946E-1,6.260931E4,-1.9747633E-1,4.7E1,1.379085E4,-2.4990441E-1,NaN,NaN,NaN,NaN,NaN,-2.8721756E-1,NaN,4.5E1,-1.1427816E-1,1.0432968E-1,2.8381813E-1,4.381699E-2,9.211362E-3,2.709564E-1,-1.3232179E-1,3.2211777E-2,-2.4287967E-1,-7.697585E-2,3.5234034E-1,-9.132653E-2,-2.4370395E-1,-5.7084724E-2,3.852396E-2,-2.5871217E-1,2.294211E-1,-1.4243999E-1,1.3991773E-1,-1.2889527E-1,-1.219375E-1,-3.0290544E-1,4.193345E-2,-2.0361404E-1,1.1859205E-1,-1.5658866E-1,8.496979E-2,-7.300832E-2],"split_indices":[3,4,2,2,5,4,8,5,5,2,2,8,1,0,0,0,8,1,1,0,4,0,5,1,0,0,0,0,0,8,5,0,0,0,5,0,5,0,0,5,0,4,4,4,4,6,0,2,0,0,0,0,0,0,0,0,0,0,0,0,0,0,0,0,0,0,0,0,0,0,0,0,0,0,0,0,0],"split_type":[1,1,1,1,0,1,0,0,0,1,1,0,1,0,0,0,0,1,1,0,1,0,0,1,0,0,0,0,0,0,0,0,0,0,0,0,0,0,0,0,0,1,1,1,1,1,0,1,0,0,0,0,0,0,0,0,0,0,0,0,0,0,0,0,0,0,0,0,0,0,0,0,0,0,0,0,0],"sum_hessian":[2.4950589E2,1.662237E2,8.3282196E1,8.380488E1,8.241881E1,6.141117E1,2.1871023E1,4.8773052E1,3.5031826E1,3.9144707E1,4.3274105E1,5.1627007E1,9.784163E0,2.0448832E1,1.4221916E0,4.2397488E1,6.3755655E0,2.2937593E1,1.2094233E1,4.0654254E0,3.507928E1,3.3918316E1,9.355788E0,7.912702E0,4.3714306E1,1.0545858E0,8.729578E0,1.9167551E1,1.2812805E0,2.761841E1,1.47790785E1,1.0309552E0,5.3446107E0,6.367736E0,1.6569857E1,1.1703748E0,1.0923858E1,1.0023726E0,3.063053E0,2.683132E1,8.247962E0,1.9359894E1,1.4558422E1,2.5754983E0,6.78029E0,2.6035686E0,5.309134E0,1.847219E1,2.5242115E1,1.1987897E1,1.5630513E1,5.6367617E0,9.142317E0,1.8544002E0,4.5133357E0,6.5057125E0,1.0064144E1,6.3989487E0,4.5249085E0,1.4358547E0,1.6271983E0,2.994316E0,2.3837004E1,1.35167465E1,5.8431463E0,1.1424749E1,3.1336732E0,1.1161926E0,1.4593056E0,2.6731236E0,4.107167E0,1.393568E0,1.2100005E0,1.546552E0,1.6925638E1,1.0650302E1,1.4591813E1],"tree_param":{"num_deleted":"0","num_feature":"9","num_nodes":"77","size_leaf_vector":"0"}},{"base_weights":[-1.6662441E-1,-4.3006014E-2,-4.8401758E-1,-4.277432E-1,9.423092E-3,-7.256533E-1,-2.1865027E-1,-1.5096688E-1,-6.568775E-1,4.4137013E-1,-3.512635E-2,-5.593569E-1,-2.9715824E-1,2.8500402E-1,-3.5573623E-1,-8.188511E-1,2.6037946E-1,2.1491408E-1,-2.7481225E-1,6.771316E-1,-9.184725E-2,-2.3459161E-3,-5.836129E-1,-7.314964E-1,-1.7668635E-1,-2.2826526E-1,9.9424404E-1,2.2098301E-1,-4.4138473E-1,-2.8890097E-1,-7.202507E-2,2.8355774E-1,-2.9955748E-1,1.5039428E-1,-4.589616E-2,-8.75526E-2,8.241869E-1,2.1089433E-1,-5.158836E-1,-4.7158286E-2,3.623985E-1,1.7293432E-1,-8.5964525E-1,-2.9057112E-1,-3.4415853E-1,2.4603307E-1,-4.238184E-1,4.8672968E-1,-2.7770543E-1,3.63161E-1,8.410379E-2,1.7965226E-1,-9.701521E-2,-5.6551254E-1,1.8568964E-1,1.197141E-1,-2.1116546E-1,2.871786E-1,6.428799E-2,8.481713E-2,-2.8497377E-1,1.20488275E-2,-9.61889E-2,2.1118233E-1,-1.3121447E-1,-4.61692E-2,-2.93603E-1,-2.1525864E-1,-3.0304562E-2,-2.1982248E-1,1.22528285E-1,2.165636E-1,1.5729394E-2,-6.775376E-2,-2.350143E-1,2.1123973E-1,-1.04367055E-1],"categories":[0,1,3,7,9,10,11,13,0,1,2,4,6,8,9,10,11,12,13,14,15,0,2,3,4,5,6,7,8,9,10,11,12,13,14,15,9,13,14,15,0,1,2,3,4,6,7,8,9,10,11,12,13,14,15,0,1,0,1,4,0,4,1,2,3,0,1,2,3,4,6,8,9,10,11,12,13,14,15,0,1,2,3,5,0,1,7,11,0,3,4,5,6,8,9],"categories_nodes":[0,3,4,8,10,14,15,16,22,26,36,38,39,40],"categories_segments":[0,3,8,21,36,40,55,57,60,62,65,79,84,88],"categories_sizes":[3,5,13,15,4,15,2,3,2,3,14,5,4,7],"default_left":[1,0,0,1,1,0,0,0,1,0,1,0,0,0,1,1,1,0,0,0,0,0,1,0,0,0,1,0,0,0,0,0,0,0,0,0,1,0,1,1,1,0,0,0,0,0,0,0,0,0,0,0,0,0,0,0,0,0,0,0,0,0,0,0,0,0,0,0,0,0,0,0,0,0,0,0,0],"id":12,"left_children":[1,3,5,7,9,11,13,15,17,19,21,23,-1,25,27,29,31,33,-1,35,37,39,41,43,45,47,49,51,53,-1,-1,-1,55,-1,-1,-1,57,-1,59,61,63,-1,65,-1,67,-1,69,71,-1,-1,-1,-1,-1,73,75,-1,-1,-1,-1,-1,-1,-1,-1,-1,-1,-1,-1,-1,-1,-1,-1,-1,-1,-1,-1,-1,-1],"loss_changes":[9.099888E0,3.400843E0,4.013283E0,1.182996E0,2.8861723E0,9.269409E-1,2.341155E0,3.0855696E0,2.6284447E0,1.8248158E0,2.446715E0,1.3826761E0,0E0,2.9556055E0,1.3790517E0,1.2139416E-1,3.0550838E0,4.218956E-1,0E0,1.6429186E0,2.1082659E0,2.133517E0,2.9530609E0,1.0911264E0,2.4266348E0,3.0245457E0,1.7540097E-1,1.0207728E0,1.8892736E0,0E0,0E0,0E0,1.6187538E0,0E0,0E0,0E0,5.09614E-1,0E0,1.6391616E0,2.7877417E0,4.209387E0,0E0,4.0389776E-1,0E0,6.0301787E-1,0E0,2.2075534E0,2.8938168E-1,0E0,0E0,0E0,0E0,0E0,1.2574258E0,1.5010233E0,0E0,0E0,0E0,0E0,0E0,0E0,0E0,0E0,0E0,0E0,0E0,0E0,0E0,0E0,0E0,0E0,0E0,0E0,0E0,0E0,0E0,0E0],"parents":[2147483647,0,0,1,1,2,2,3,3,4,4,5,5,6,6,7,7,8,8,9,9,10,10,11,11,13,13,14,14,15,15,16,16,17,17,19,19,20,20,21,21,22,22,23,23,24,24,25,25,26,26,27,27,28,28,32,32,36,36,38,38,39,39,40,40,42,42,44,44,46,46,47,47,53,53,54,54],"right_children":[2,4,6,8,10,12,14,16,18,20,22,24,-1,26,28,30,32,34,-1,36,38,40,42,44,46,48,50,52,54,-1,-1,-1,56,-1,-1,-1,58,-1,60,62,64,-1,66,-1,68,-1,70,72,-1,-1,-1,-1,-1,74,76,-1,-1,-1,-1,-1,-1,-1,-1,-1,-1,-1,-1,-1,-1,-1,-1,-1,-1,-1,-1,-1,-1],"split_conditions":[NaN,3.8E1,3.7E1,NaN,NaN,1.1708688E5,4.830194E4,4.3E1,NaN,5.2E1,NaN,8.772556E4,-2.9715824E-1,4.041576E4,NaN,NaN,NaN,4.1E1,-2.7481225E-1,1.582878E4,2.76616E4,5.8E1,NaN,2.9E1,9.195388E4,4.8E1,NaN,5E1,5.3E1,-2.8890097E-1,-7.202507E-2,2.8355774E-1,5.5E1,1.5039428E-1,-4.589616E-2,-8.75526E-2,NaN,2.1089433E-1,NaN,NaN,NaN,1.7293432E-1,3.3E1,-2.9057112E-1,5.02415E4,2.4603307E-1,4.9E1,2.513457E4,-2.7770543E-1,3.63161E-1,8.410379E-2,1.7965226E-1,-9.701521E-2,4.5E1,5.8E1,1.197141E-1,-2.1116546E-1,2.871786E-1,6.428799E-2,8.481713E-2,-2.8497377E-1,1.20488275E-2,-9.61889E-2,2.1118233E-1,-1.3121447E-1,-4.61692E-2,-2.93603E-1,-2.1525864E-1,-3.0304562E-2,-2.1982248E-1,1.22528285E-1,2.165636E-1,1.5729394E-2,-6.775376E-2,-2.350143E-1,2.1123973E-1,-1.04367055E-1],"split_indices":[3,8,0,4,2,5,5,0,2,0,2,5,0,5,2,2,2,0,0,5,5,0,1,0,5,0,3,0,8,0,0,0,0,0,0,0,2,0,1,4,4,0,0,0,5,0,8,5,0,0,0,0,0,0,8,0,0,0,0,0,0,0,0,0,0,0,0,0,0,0,0,0,0,0,0,0,0],"split_type":[1,0,0,1,1,0,0,0,1,0,1,0,0,0,1,1,1,0,0,0,0,0,1,0,0,0,1,0,0,0,0,0,0,0,0,0,1,0,1,1,1,0,0,0,0,0,0,0,0,0,0,0,0,0,0,0,0,0,0,0,0,0,0,0,0,0,0,0,0,0,0,0,0,0,0,0,0],"sum_hessian":[2.3145967E2,1.6739723E2,6.406243E1,1.921734E1,1.4817989E2,3.2622665E1,3.1439766E1,9.455135E0,9.762205E0,1.3021106E1,1.3515878E2,2.1952175E1,1.0670489E1,6.4956627E0,2.4944103E1,3.2262156E0,6.2289195E0,2.2761781E0,7.486027E0,8.84181E0,4.179295E0,1.2848418E2,6.674611E0,1.4512402E1,7.4397736E0,4.1618977E0,2.3337648E0,3.0211184E0,2.1922985E1,2.0513945E0,1.174821E0,2.492506E0,3.7364137E0,1.0759504E0,1.2002276E0,1.0353214E0,7.8064895E0,1.2250978E0,2.9541974E0,1.15201294E2,1.3282881E1,1.0737417E0,5.600869E0,8.0715475E0,6.4408536E0,1.0174447E0,6.422329E0,2.2042243E0,1.9576733E0,1.2571956E0,1.0765692E0,1.7242254E0,1.296893E0,1.8382408E1,3.5405777E0,1.3745317E0,2.361882E0,5.9407077E0,1.8657819E0,1.1629645E0,1.7912328E0,8.796627E1,2.7235022E1,9.391931E0,3.8909507E0,1.139224E0,4.4616456E0,1.7707076E0,4.670146E0,4.770951E0,1.6513783E0,1.0003936E0,1.2038308E0,7.979159E0,1.0403249E1,1.633642E0,1.9069356E0],"tree_param":{"num_deleted":"0","num_feature":"9","num_nodes":"77","size_leaf_vector":"0"}},{"base_weights":[-1.0680574E-1,-7.7912223E-1,-6.403057E-2,9.564463E-2,-2.7074564E-1,-4.0180537E-1,-1.847631E-2,-2.2771755E-1,-7.141047E-1,6.584171E-3,-5.6646186E-1,8.875113E-2,-3.6405838E-1,-2.8281426E-1,-2.6837134E-1,5.639969E-2,-1.5515488E-1,1.4781073E-1,-8.153338E-1,5.837354E-1,-1.6534233E-1,5.3469587E-2,-5.9236735E-1,-1.8425915E-1,4.734712E-2,3.141984E-2,4.7751454E-1,7.4631544E-3,-5.7204247E-1,-6.0712133E-2,-2.783101E-1,2.1126944E-1,6.3221365E-2,-1.726428E-1,1.3773198E-1,-3.8626716E-2,-2.284936E-1,-2.9888991E-3,8.790294E-2,1.9672965E-1,-7.815107E-2,-5.5049732E-2,1.0110027E-1,3.421878E-2,-2.1007136E-1],"categories":[1,2,3,4,5,6,7,8,9,10,11,12,13,14,15,0,1,5,9,13,14,15,0,2,3,4,5,6,7,8,9,10,11,12,13,14,0,0,1,3,4,0,4,0,1,2,3,5,0,3,4,5,6,7,8,9,10,11,12,13,0,1,3,4,5,6,8,10,0,1,3,4,5,6,7,8,9,10,11,12,13],"categories_nodes":[1,5,6,7,8,9,10,11,12,26,28],"categories_segments":[0,15,18,22,36,37,41,43,48,60,68],"categories_sizes":[15,3,4,14,1,4,2,5,12,8,13],"default_left":[0,1,0,0,0,1,1,1,1,1,1,1,1,0,0,0,0,0,0,0,0,0,0,0,0,0,1,0,1,0,0,0,0,0,0,0,0,0,0,0,0,0,0,0,0],"id":13,"left_children":[1,3,5,-1,-1,7,9,11,13,15,17,19,21,23,-1,25,27,-1,29,31,-1,33,35,-1,-1,37,39,41,43,-1,-1,-1,-1,-1,-1,-1,-1,-1,-1,-1,-1,-1,-1,-1,-1],"loss_changes":[6.1021867E0,2.008801E0,3.1040826E0,0E0,0E0,1.1412706E0,2.4650934E0,7.600833E-1,3.786788E-1,1.3976606E0,2.4708693E0,2.1849751E0,1.1740899E0,6.600487E-1,0E0,1.3790758E0,2.77419E0,0E0,2.7599144E-1,2.2495747E-2,0E0,1.5790592E0,5.164721E-1,0E0,0E0,1.3687975E0,1.1378086E0,1.9736259E0,1.0894527E0,0E0,0E0,0E0,0E0,0E0,0E0,0E0,0E0,0E0,0E0,0E0,0E0,0E0,0E0,0E0,0E0],"parents":[2147483647,0,0,1,1,2,2,5,5,6,6,7,7,8,8,9,9,10,10,11,11,12,12,13,13,15,15,16,16,18,18,19,19,21,21,22,22,25,25,26,26,27,27,28,28],"right_children":[2,4,6,-1,-1,8,10,12,14,16,18,20,22,24,-1,26,28,-1,30,32,-1,34,36,-1,-1,38,40,42,44,-1,-1,-1,-1,-1,-1,-1,-1,-1,-1,-1,-1,-1,-1,-1,-1],"split_conditions":[2.5E1,NaN,3.8E1,9.564463E-2,-2.7074564E-1,NaN,NaN,NaN,NaN,NaN,NaN,NaN,NaN,3.8E1,-2.6837134E-1,1E0,1.0560842E5,1.4781073E-1,3.3E1,2.8E1,-1.6534233E-1,4.1E1,2.532087E4,-1.8425915E-1,4.734712E-2,6.123106E4,NaN,4.9E1,NaN,-6.0712133E-2,-2.783101E-1,2.1126944E-1,6.3221365E-2,-1.726428E-1,1.3773198E-1,-3.8626716E-2,-2.284936E-1,-2.9888991E-3,8.790294E-2,1.9672965E-1,-7.815107E-2,-5.5049732E-2,1.0110027E-1,3.421878E-2,-2.1007136E-1],"split_indices":[0,2,8,0,0,3,2,2,6,3,1,1,4,0,0,7,5,0,0,8,0,0,5,0,0,5,4,8,4,0,0,0,0,0,0,0,0,0,0,0,0,0,0,0,0],"split_type":[0,1,0,0,0,1,1,1,1,1,1,1,1,0,0,0,0,0,0,0,0,0,0,0,0,0,1,0,1,0,0,0,0,0,0,0,0,0,0,0,0,0,0,0,0],"sum_hessian":[2.1292232E2,1.170681E1,2.0121552E2,1.0224649E0,1.0684345E1,2.2982794E1,1.7823271E2,1.5867047E1,7.115746E0,1.7138301E2,6.8497047E0,4.882663E0,1.0984385E1,2.8564184E0,4.259328E0,1.3152477E2,3.9858246E1,1.1168411E0,5.7328634E0,2.8025382E0,2.0801246E0,4.1537933E0,6.8305917E0,1.4055154E0,1.450903E0,1.2517424E2,6.3505225E0,2.9379927E1,1.0478321E1,1.3220557E0,4.4108076E0,1.4470419E0,1.3554963E0,1.4644487E0,2.6893444E0,2.2978766E0,4.5327153E0,1.089073E2,1.6266935E1,5.204861E0,1.1456616E0,1.8881523E1,1.0498402E1,1.6669586E0,8.811362E0],"tree_param":{"num_deleted":"0","num_feature":"9","num_nodes":"45","size_leaf_vector":"0"}},{"base_weights":[-1.7268455E-1,-4.08702E-2,-4.6398592E-1,5.121866E-1,-8.536336E-2,-2.1309996E-1,-7.178286E-1,-5.5779595E-2,5.972267E-1,1.3434376E-1,-1.8777962E-1,3.1492257E-1,-3.3038765E-1,-5.601012E-1,-2.915831E-1,2.8749108E-1,1.6702613E-1,-2.715576E-1,2.2851664E-1,-2.949166E-1,-3.0947125E-2,-6.905502E-2,5.516435E-1,-6.2008843E-2,-7.376274E-1,-3.3692446E-1,-8.778316E-1,6.486038E-1,-5.376305E-1,4.2632687E-1,-5.8614177E-1,-9.116191E-2,3.6804312E-1,-2.0781507E-1,-5.593347E-1,1.1045717E-1,-3.3931312E-1,-1.4364195E-1,1.4239216E-1,2.8431442E-1,-2.6034508E-2,-2.2097388E-1,3.241875E-1,-8.130694E-1,-4.216798E-2,-6.45742E-1,-1.084509E-1,-6.2379323E-2,-2.8358808E-1,2.4970987E-1,2.03909E-2,-2.5141078E-1,2.081938E-3,-5.188522E-2,2.2337086E-1,5.53884E-3,-2.0712307E-1,1.12962924E-1,-1.3285786E-1,2.9005638E-1,6.162313E-2,-7.535523E-2,2.6650557E-1,7.3953666E-2,-2.3817423E-1,8.263883E-2,-1.24705456E-1,-1.6462821E-1,1.7539544E-1,2.0357007E-1,-9.4990216E-2,-3.0696663E-1,-1.2539814E-1,-2.1567816E-1,-4.0124796E-2,1.5394098E-1,-1.1916879E-1],"categories":[0,1,3,4,5,0,1,2,3,4,6,8,9,10,11,12,13,14,15,0,1,3,5,10,11,12,13,0,3,5,7,9,10,11,13,1,2,4,5,6,8,9,10,11,12,13,14,15,2,8,9,10,3,5,11,13,0,1,3,4,5,6,7,8,0,1,2,5,0,1,4,2,4,0,2,3,4,5,6,7,8,9,10,11,12,13,14,1,2,3,4,5,0],"categories_nodes":[0,1,2,4,5,6,13,17,20,26,30,34,41,43],"categories_segments":[0,5,19,27,35,48,52,56,64,68,71,73,87,92],"categories_sizes":[5,14,8,8,13,4,4,8,4,3,2,14,5,1],"default_left":[1,1,1,0,1,1,1,0,0,0,0,0,0,1,0,0,0,1,0,0,1,0,0,0,0,0,1,0,0,0,1,0,0,0,1,0,0,0,0,0,0,1,0,1,0,0,0,0,0,0,0,0,0,0,0,0,0,0,0,0,0,0,0,0,0,0,0,0,0,0,0,0,0,0,0,0,0],"id":14,"left_children":[1,3,5,7,9,11,13,-1,15,17,19,21,23,25,-1,-1,27,29,31,33,35,37,39,41,43,45,47,49,51,53,55,57,59,61,63,65,67,-1,-1,-1,-1,69,-1,71,-1,73,75,-1,-1,-1,-1,-1,-1,-1,-1,-1,-1,-1,-1,-1,-1,-1,-1,-1,-1,-1,-1,-1,-1,-1,-1,-1,-1,-1,-1,-1,-1],"loss_changes":[9.006622E0,4.0528455E0,4.504407E0,8.3973384E-1,3.437602E0,2.4699059E0,8.956814E-1,0E0,1.5763903E0,1.9273865E0,1.7358453E0,7.157485E-1,3.423978E0,1.443583E0,0E0,0E0,2.490726E0,2.3677478E0,1.8244848E0,1.3021221E0,1.9241215E0,1.058685E0,1.27658E0,3.9128864E0,4.4962168E-1,1.0610789E0,2.3266983E-1,3.9186156E-1,5.1447845E-1,8.108183E-1,4.584744E-1,2.305376E0,2.5428936E0,2.5010402E0,2.9685698E0,2.7553601E0,3.0008264E0,0E0,0E0,0E0,0E0,1.8143E0,0E0,4.7775173E-1,0E0,1.5171552E-1,2.073531E0,0E0,0E0,0E0,0E0,0E0,0E0,0E0,0E0,0E0,0E0,0E0,0E0,0E0,0E0,0E0,0E0,0E0,0E0,0E0,0E0,0E0,0E0,0E0,0E0,0E0,0E0,0E0,0E0,0E0,0E0],"parents":[2147483647,0,0,1,1,2,2,3,3,4,4,5,5,6,6,8,8,9,9,10,10,11,11,12,12,13,13,16,16,17,17,18,18,19,19,20,20,21,21,22,22,23,23,24,24,25,25,26,26,27,27,28,28,29,29,30,30,31,31,32,32,33,33,34,34,35,35,36,36,41,41,43,43,45,45,46,46],"right_children":[2,4,6,8,10,12,14,-1,16,18,20,22,24,26,-1,-1,28,30,32,34,36,38,40,42,44,46,48,50,52,54,56,58,60,62,64,66,68,-1,-1,-1,-1,70,-1,72,-1,74,76,-1,-1,-1,-1,-1,-1,-1,-1,-1,-1,-1,-1,-1,-1,-1,-1,-1,-1,-1,-1,-1,-1,-1,-1,-1,-1,-1,-1,-1,-1],"split_conditions":[NaN,NaN,NaN,1.295157E4,NaN,NaN,NaN,-5.5779595E-2,4.6E1,3.3E1,4.2E1,8.089468E4,9.088396E4,NaN,-2.915831E-1,2.8749108E-1,4.8E1,NaN,2.907378E4,5.4E1,NaN,5E1,1.1323664E5,8.461657E4,5.2E1,3E1,NaN,3.518966E4,3.318237E4,4.041576E4,NaN,2.083923E4,3.426818E4,5.2E1,NaN,4.287848E4,5.083409E4,-1.4364195E-1,1.4239216E-1,2.8431442E-1,-2.6034508E-2,NaN,3.241875E-1,NaN,-4.216798E-2,4.6E1,6.079694E4,-6.2379323E-2,-2.8358808E-1,2.4970987E-1,2.03909E-2,-2.5141078E-1,2.081938E-3,-5.188522E-2,2.2337086E-1,5.53884E-3,-2.0712307E-1,1.12962924E-1,-1.3285786E-1,2.9005638E-1,6.162313E-2,-7.535523E-2,2.6650557E-1,7.3953666E-2,-2.3817423E-1,8.263883E-2,-1.24705456E-1,-1.6462821E-1,1.7539544E-1,2.0357007E-1,-9.4990216E-2,-3.0696663E-1,-1.2539814E-1,-2.1567816E-1,-4.0124796E-2,1.5394098E-1,-1.1916879E-1],"split_indices":[3,2,4,5,4,2,2,0,0,0,8,5,5,4,0,0,8,2,5,0,1,0,5,5,0,0,1,5,5,5,1,5,5,0,2,5,5,0,0,0,0,1,0,6,0,8,5,0,0,0,0,0,0,0,0,0,0,0,0,0,0,0,0,0,0,0,0,0,0,0,0,0,0,0,0,0,0],"split_type":[1,1,1,0,1,1,1,0,0,0,0,0,0,1,0,0,0,1,0,0,1,0,0,0,0,0,1,0,0,0,1,0,0,0,1,0,0,0,0,0,0,1,0,1,0,0,0,0,0,0,0,0,0,0,0,0,0,0,0,0,0,0,0,0,0,0,0,0,0,0,0,0,0,0,0,0,0],"sum_hessian":[2.3405537E2,1.6192455E2,7.213082E1,1.1274106E1,1.5065045E2,3.7201813E1,3.4929005E1,1.0953844E0,1.0178721E1,4.7798847E1,1.0285159E2,6.4553137E0,3.0746498E1,2.3528908E1,1.1400097E1,4.8665476E0,5.3121743E0,8.646656E0,3.915219E1,6.0584236E1,4.226736E1,2.732041E0,3.723273E0,1.9227484E1,1.1519015E1,1.5031239E1,8.497669E0,3.2028341E0,2.1093404E0,2.5762362E0,6.07042E0,1.2001464E1,2.7150728E1,4.6915737E1,1.3668498E1,2.9418852E1,1.2848509E1,1.6259818E0,1.106059E0,1.9987905E0,1.7244824E0,1.7587318E1,1.6401658E0,9.905625E0,1.6133896E0,5.6151543E0,9.416084E0,1.1509444E0,7.346725E0,2.1035452E0,1.0992888E0,1.012122E0,1.0972184E0,1.0519226E0,1.5243137E0,1.0139458E0,5.056474E0,5.1208534E0,6.88061E0,4.742797E0,2.2407932E1,4.5871708E1,1.0440284E0,3.070294E0,1.0598204E1,2.2758053E1,6.6607995E0,1.0805223E1,2.0432854E0,1.1048008E0,1.6482517E1,5.4282393E0,4.4773865E0,4.5592694E0,1.0558847E0,2.7404406E0,6.675644E0],"tree_param":{"num_deleted":"0","num_feature":"9","num_nodes":"77","size_leaf_vector":"0"}},{"base_weights":[-7.9712346E-2,-6.882956E-1,-4.7298215E-2,8.3059475E-2,-2.4853753E-1,-3.3821726E-1,-1.07621215E-2,-1.8470857E-1,-6.9825315E-1,3.7966124E-3,-2.3058471E-1,-2.7927372E-1,1.2530062E-1,-7.7005726E-1,-6.6231444E-2,4.9351085E-2,-1.6163611E-1,1.9488308E-1,-4.6247226E-1,-2.548535E-1,-6.886022E-2,-3.5081324E-1,7.491769E-2,-2.6504675E-2,-8.4207606E-1,-6.639377E-2,1.5537092E-1,4.8162177E-2,-2.0740062E-1,-2.1368814E-1,1.7860934E-1,1.8959583E-1,8.556847E-3,-2.4599532E-2,2.2318546E-1,-4.526776E-2,-2.846984E-1],"categories":[1,2,3,4,5,6,7,8,9,10,11,12,13,14,15,4,14,15,0,3,4,5,11,13,0,1,2,3,4,5,6,8,9,10,11,12,13,0,1,2,4],"categories_nodes":[1,5,6,9,18,24],"categories_segments":[0,15,16,18,24,37],"categories_sizes":[15,1,2,6,13,4],"default_left":[0,1,0,0,0,1,1,0,0,1,0,0,0,0,0,0,0,0,1,0,0,0,0,0,1,0,0,0,0,0,0,0,0,0,0,0,0],"id":15,"left_children":[1,3,5,-1,-1,7,9,11,13,15,-1,17,-1,19,-1,21,23,25,27,-1,-1,29,31,33,35,-1,-1,-1,-1,-1,-1,-1,-1,-1,-1,-1,-1],"loss_changes":[4.0347123E0,1.6298423E0,2.0884588E0,0E0,0E0,1.0829816E0,1.9436911E0,1.0698359E0,4.239559E-2,1.3161081E0,0E0,1.398494E0,0E0,1.9029617E-2,0E0,1.4265567E0,3.4452255E0,7.7353233E-1,1.7023597E0,0E0,0E0,3.295498E0,3.3282077E0,1.4503756E0,3.161626E-1,0E0,0E0,0E0,0E0,0E0,0E0,0E0,0E0,0E0,0E0,0E0,0E0],"parents":[2147483647,0,0,1,1,2,2,5,5,6,6,7,7,8,8,9,9,11,11,13,13,15,15,16,16,17,17,18,18,21,21,22,22,23,23,24,24],"right_children":[2,4,6,-1,-1,8,10,12,14,16,-1,18,-1,20,-1,22,24,26,28,-1,-1,30,32,34,36,-1,-1,-1,-1,-1,-1,-1,-1,-1,-1,-1,-1],"split_conditions":[2.5E1,NaN,3.8E1,8.3059475E-2,-2.4853753E-1,NaN,NaN,2.6168789E5,3.4E1,NaN,-2.3058471E-1,2.683422E4,1.2530062E-1,1.7629381E5,-6.6231444E-2,1.295157E4,7.946838E4,5.1E1,NaN,-2.548535E-1,-6.886022E-2,4.9E1,2.083923E4,6.4E1,NaN,-6.639377E-2,1.5537092E-1,4.8162177E-2,-2.0740062E-1,-2.1368814E-1,1.7860934E-1,1.8959583E-1,8.556847E-3,-2.4599532E-2,2.2318546E-1,-4.526776E-2,-2.846984E-1],"split_indices":[0,2,8,0,0,2,2,5,8,4,0,5,0,5,0,5,5,0,4,0,0,8,5,8,2,0,0,0,0,0,0,0,0,0,0,0,0],"split_type":[0,1,0,0,0,1,1,0,0,1,0,0,0,0,0,0,0,0,1,0,0,0,0,0,1,0,0,0,0,0,0,0,0,0,0,0,0],"sum_hessian":[2.0518086E2,9.352423E0,1.9582845E2,1.0622767E0,8.290146E0,2.092844E1,1.7490001E2,1.5733266E1,5.1951733E0,1.7257965E2,2.3203485E0,1.4062088E1,1.6711783E0,3.983399E0,1.2117743E0,1.3586798E2,3.6711678E1,3.9011924E0,1.0160895E1,2.9745133E0,1.0088856E0,7.3953657E0,1.2847261E2,3.1495756E1,5.2159224E0,1.842318E0,2.0588741E0,2.810006E0,7.3508897E0,5.529896E0,1.8654696E0,8.906719E0,1.19565895E2,3.021316E1,1.2825963E0,1.0217862E0,4.194136E0],"tree_param":{"num_deleted":"0","num_feature":"9","num_nodes":"37","size_leaf_vector":"0"}},{"base_weights":[-9.629361E-2,-5.048023E-1,-4.4811994E-2,4.9708117E-2,-6.167516E-1,2.29932E-1,-7.9868965E-2,-2.618064E-1,1.7764843E-1,-2.7321896E-1,-4.2146748E-1,3.897411E-1,-3.2585466E-1,-2.3186982E-2,-2.7617472E-1,7.882456E-2,-1.770007E-1,-1.0994571E-1,-8.154435E-1,5.723671E-1,-2.5821367E-1,-1.9954665E-1,1.6259606E-1,-1.3309751E-1,9.278717E-2,1.4789577E-1,-4.5319352E-1,2.4373174E-1,-5.703468E-1,-3.1702718E-1,-1.0617389E-1,-7.476089E-2,6.753481E-1,4.669902E-2,-1.8471226E-1,-1.3391247E-1,2.0712727E-1,-3.8142085E-2,-5.457345E-1,1.1232294E0,2.6951436E-2,3.86611E-1,-2.154913E-1,-7.320371E-2,-6.4795876E-1,1.6129333E-1,-1.0565016E-2,-2.1315911E-1,-2.4088407E-2,-9.2389307E-4,2.4063087E-1,7.0882045E-2,-4.6543956E-2,-2.0659776E-1,2.3021034E-3,9.379045E-2,4.2208788E-1,3.6866546E-2,-1.5511893E-1,4.6594045E-4,2.146202E-1,1.15856215E-1,-2.5311023E-1,-2.9813927E-1,-1.3265663E-1],"categories":[1,2,3,4,5,6,8,9,10,11,12,13,0,1,2,4,6,8,9,10,11,12,13,14,15,0,0,1,3,4,2,3,0,1,3,4,1,7,11,0,3,4,5,6,8,11,12,13,1,2,5,9,10,11,0,1,3,4,5,6,7,8,9,10,11,4,0,3,12,13],"categories_nodes":[1,2,5,6,11,17,18,23,25,26,27,28,40],"categories_segments":[0,12,25,26,30,32,35,36,39,48,54,65,66],"categories_sizes":[12,13,1,4,2,3,1,3,9,6,11,1,4],"default_left":[0,1,1,0,0,1,1,0,0,0,0,1,0,0,0,0,0,1,1,0,0,0,0,1,0,1,1,1,1,0,0,0,0,0,0,0,0,0,0,0,1,0,0,0,0,0,0,0,0,0,0,0,0,0,0,0,0,0,0,0,0,0,0,0,0],"id":16,"left_children":[1,3,5,7,9,11,13,15,-1,-1,17,19,21,23,25,-1,-1,27,29,31,33,-1,35,37,39,41,43,45,47,-1,-1,-1,49,-1,-1,-1,-1,51,53,55,57,59,-1,61,63,-1,-1,-1,-1,-1,-1,-1,-1,-1,-1,-1,-1,-1,-1,-1,-1,-1,-1,-1,-1],"loss_changes":[4.4193645E0,1.4920425E0,1.8356043E0,9.796335E-1,7.4491835E-1,2.0462143E0,1.8636554E0,8.080402E-1,0E0,0E0,1.5887485E0,2.1875968E0,9.981641E-1,1.6885722E0,2.886849E0,0E0,0E0,1.5707501E0,2.8117633E-1,1.3323498E0,7.585958E-1,0E0,1.274043E0,2.6406932E0,4.3504925E0,2.721009E0,1.9320898E0,4.8406625E-1,2.2593808E-1,0E0,0E0,0E0,1.0770087E0,0E0,0E0,0E0,0E0,1.8441578E0,1.0044129E0,4.463787E-1,3.284864E0,1.2539623E0,0E0,3.933053E0,8.0989933E-1,0E0,0E0,0E0,0E0,0E0,0E0,0E0,0E0,0E0,0E0,0E0,0E0,0E0,0E0,0E0,0E0,0E0,0E0,0E0,0E0],"parents":[2147483647,0,0,1,1,2,2,3,3,4,4,5,5,6,6,7,7,10,10,11,11,12,12,13,13,14,14,17,17,18,18,19,19,20,20,22,22,23,23,24,24,25,25,26,26,27,27,28,28,32,32,37,37,38,38,39,39,40,40,41,41,43,43,44,44],"right_children":[2,4,6,8,10,12,14,16,-1,-1,18,20,22,24,26,-1,-1,28,30,32,34,-1,36,38,40,42,44,46,48,-1,-1,-1,50,-1,-1,-1,-1,52,54,56,58,60,-1,62,64,-1,-1,-1,-1,-1,-1,-1,-1,-1,-1,-1,-1,-1,-1,-1,-1,-1,-1,-1,-1],"split_conditions":[2.8E1,NaN,NaN,2.7E1,2.4E1,NaN,NaN,2.3E1,1.7764843E-1,-2.7321896E-1,2.7E1,NaN,4.8E1,3.623539E4,6.123106E4,7.882456E-2,-1.770007E-1,NaN,NaN,3.2E1,5.1E1,-1.9954665E-1,6.079694E4,NaN,3.753082E4,NaN,NaN,NaN,NaN,-3.1702718E-1,-1.0617389E-1,-7.476089E-2,2.244629E4,4.669902E-2,-1.8471226E-1,-1.3391247E-1,2.0712727E-1,2.083923E4,4.9E1,3.7E1,NaN,4.287848E4,-2.154913E-1,1.0441129E5,7.946838E4,1.6129333E-1,-1.0565016E-2,-2.1315911E-1,-2.4088407E-2,-9.2389307E-4,2.4063087E-1,7.0882045E-2,-4.6543956E-2,-2.0659776E-1,2.3021034E-3,9.379045E-2,4.2208788E-1,3.6866546E-2,-1.5511893E-1,4.6594045E-4,2.146202E-1,1.15856215E-1,-2.5311023E-1,-2.9813927E-1,-1.3265663E-1],"split_indices":[0,4,2,0,0,6,3,0,0,0,0,1,0,5,5,0,0,3,2,0,0,0,5,4,5,4,4,2,2,0,0,0,5,0,0,0,0,5,8,0,4,5,0,5,5,0,0,0,0,0,0,0,0,0,0,0,0,0,0,0,0,0,0,0,0],"split_type":[0,1,1,0,0,1,1,0,0,0,0,1,0,0,0,0,0,1,1,0,0,0,0,1,0,1,1,1,1,0,0,0,0,0,0,0,0,0,0,0,1,0,0,0,0,0,0,0,0,0,0,0,0,0,0,0,0,0,0,0,0,0,0,0,0],"sum_hessian":[2.1021445E2,2.2541473E1,1.8767297E2,3.8798192E0,1.8661654E1,2.0607977E1,1.67065E2,2.7931588E0,1.0866605E0,5.986316E0,1.2675338E1,1.6237776E1,4.3702E0,1.3050163E2,3.6563362E1,1.1517441E0,1.6414146E0,7.792655E0,4.8826833E0,1.2758461E1,3.4793148E0,2.3653507E0,2.0048494E0,6.69266E1,6.357504E1,1.0816237E1,2.5747124E1,4.673279E0,3.1193762E0,2.359386E0,2.523297E0,1.2629459E0,1.1495515E1,1.8741491E0,1.6051657E0,1.0025247E0,1.0023247E0,5.5294697E1,1.16319E1,2.8533967E0,6.072164E1,8.913456E0,1.9027811E0,9.1910715E0,1.6556053E1,1.8240163E0,2.8492625E0,2.0756972E0,1.043679E0,1.9632647E0,9.53225E0,1.6224148E1,3.907055E1,9.05018E0,2.581719E0,1.2847738E0,1.5686228E0,5.227674E1,8.444903E0,4.568195E0,4.3452616E0,6.070473E0,3.1205983E0,4.747408E0,1.1808645E1],"tree_param":{"num_deleted":"0","num_feature":"9","num_nodes":"65","size_leaf_vector":"0"}}]},"name":"gbtree"},"name":"dart","weight_drop":[7.692308E-1,1E0,7.692308E-1,7.692308E-1,7.692308E-1,5.91716E-1,8.6956525E-1,7.692308E-1,6.688964E-1,7.692308E-1,1E0,7.692308E-1,7.692308E-1,1E0,4.3478262E-1,1E0,7.692308E-1]},"learner_model_param":{"base_score":"5E-1","boost_from_average":"1","num_class":"0","num_feature":"9","num_target":"1"},"objective":{"name":"reg:logistic","reg_loss_param":{"scale_pos_weight":"1"}}},"version":[1,7,2]}