{"learner":{"attributes":{},"feature_names":["Age","Employment","Education","Marital","Occupation","Income","Gender","Deductions","Hours"],"feature_types":["int","c","c","c","c","float","c","i","int"],"gradient_booster":{"gbtree":{"model":{"gbtree_model_param":{"num_parallel_tree":"1","num_trees":"17"},"iteration_indptr":[0,1,2,3,4,5,6,7,8,9,10,11,12,13,14,15,16,17],"tree_info":[0,0,0,0,0,0,0,0,0,0,0,0,0,0,0,0,0],"trees":[{"base_weights":[-1.15858674E-1,9.521022E-1,-1.034414E0,1.8333777E0,-1.3047522E-1,-3.9195785E-1,-1.2430755E0,2.4685059E0,1.0683324E0,-3.4079883E-1,3.2600176E-1,1.1144592E0,-5.492106E-1,-1.2490859E0,-7.622451E-2,4.5439246E-1,2.6160715E0,-1.9891487E-2,1.5542235E0,3.547521E-1,-4.8356637E-1,5.2295595E-1,-5.122184E-1,5.379829E-1,-3.5107505E-2,-8.0561465E-1,-1.1994753E-1,-9.7147864E-1,-1.2883617E0,-2.1592385E-1,3.1419426E-1,2.6963146E0,1.4667511E-1,-2.6335606E-1,4.1006663E-1,1.8058428E0,-8.167912E-2,-2.2209798E-1,9.309062E-1,-5.388307E-1,1.4667511E-1,-1.0807861E-1,7.7540255E-1,-3.045643E-1,2.0317416E-1,-9.5671153E-1,1.3906307E-2,4.2726824E-1,-5.567256E-1,-1.0403483E0,-7.2147576E-3,-1.3031169E0,-5.9357405E-1,8.359285E-1,3.9529273E-1,-1.5654394E-1,2.4968122E-1,2.9022405E-1,6.393932E-1,-1.9040708E-1,1.8538316E-1,-8.058074E-2,4.6003646E-1,-7.142867E-2,-2.1586294E-1,1.3879442E-1,-2.1263307E-1,-1.1607571E-1,3.126471E-1,-1.9368635E-1,-3.5013744E-1,2.81791E-1,-1.5677807E-1,3.375897E-1,-1.6790411E-1,6.347483E-2,-2.0185208E-1,-1.6600734E-1,-3.570352E-1,-3.9324352E-1,-1.4535284E-1,-2.738988E-1,2.5239764E-2],"categories":[0,1,3,4,5,0,3,4,5,6,9,11,13,2,4,8,9,10,11,13,14,15,2,4,6,8,9,10,11,12,13,14,15,0,1,2,4,5,6,2,4,0,3,5,6,7,8,9,10,11,12,13,14,15,0,0,1,2,3,5,7,10,11,13,0,1,3,4,5,6,9,11,13,0,1,6,4,10,13,14,15,0,0,1,3,4,5,6,7,8,9,10,11,12,13,0,5,1,2,3,4,5,0,4],"categories_nodes":[0,1,2,3,5,9,10,11,13,16,31,39,45,46,47,48,49],"categories_segments":[0,5,13,22,33,39,41,54,55,64,73,76,81,82,95,97,102],"categories_sizes":[5,8,9,11,6,2,13,1,9,9,3,5,1,13,2,5,2],"default_left":[1,1,1,1,0,1,0,0,0,1,1,1,0,1,0,0,1,0,0,0,0,0,0,0,0,0,0,0,0,0,0,1,0,0,0,0,0,0,0,1,0,0,0,0,0,1,1,1,1,1,0,0,0,0,0,0,0,0,0,0,0,0,0,0,0,0,0,0,0,0,0,0,0,0,0,0,0,0,0,0,0,0,0],"id":0,"left_children":[1,3,5,7,9,11,13,15,17,19,21,23,25,27,-1,29,31,33,35,37,39,41,43,-1,-1,45,47,49,51,-1,-1,53,-1,55,-1,57,59,-1,61,63,-1,65,67,-1,-1,69,71,73,75,77,-1,79,81,-1,-1,-1,-1,-1,-1,-1,-1,-1,-1,-1,-1,-1,-1,-1,-1,-1,-1,-1,-1,-1,-1,-1,-1,-1,-1,-1,-1,-1,-1],"loss_changes":[3.582327E2,1.6139047E2,2.5822693E1,4.263916E1,7.4780707E0,1.23560915E1,5.605316E-1,1.3716522E1,2.3312191E1,5.4364047E0,4.3479853E0,4.4031143E0,4.917927E0,3.461151E-1,0E0,3.979621E0,6.621582E0,5.282106E0,1.2682167E1,6.7499385E0,2.6503382E0,3.3506184E0,3.803112E0,0E0,0E0,3.5235538E0,4.5907645E0,1.4253502E0,5.111389E-1,0E0,0E0,1.8699341E0,0E0,4.1834E0,0E0,5.151932E0,2.3329446E0,0E0,5.281389E0,2.1384153E0,0E0,2.637709E0,4.9826193E0,0E0,0E0,8.1414795E-1,3.1711617E0,6.5888286E0,1.0846386E0,8.5108376E-1,0E0,1.3253784E-1,1.0384802E0,0E0,0E0,0E0,0E0,0E0,0E0,0E0,0E0,0E0,0E0,0E0,0E0,0E0,0E0,0E0,0E0,0E0,0E0,0E0,0E0,0E0,0E0,0E0,0E0,0E0,0E0,0E0,0E0,0E0,0E0],"parents":[2147483647,0,0,1,1,2,2,3,3,4,4,5,5,6,6,7,7,8,8,9,9,10,10,11,11,12,12,13,13,15,15,16,16,17,17,18,18,19,19,20,20,21,21,22,22,25,25,26,26,27,27,28,28,31,31,33,33,35,35,36,36,38,38,39,39,41,41,42,42,45,45,46,46,47,47,48,48,49,49,51,51,52,52],"right_children":[2,4,6,8,10,12,14,16,18,20,22,24,26,28,-1,30,32,34,36,38,40,42,44,-1,-1,46,48,50,52,-1,-1,54,-1,56,-1,58,60,-1,62,64,-1,66,68,-1,-1,70,72,74,76,78,-1,80,82,-1,-1,-1,-1,-1,-1,-1,-1,-1,-1,-1,-1,-1,-1,-1,-1,-1,-1,-1,-1,-1,-1,-1,-1,-1,-1,-1,-1,-1,-1],"split_conditions":[NaN,NaN,NaN,NaN,4.2E1,NaN,7.2E1,2.6E1,3.7E1,NaN,NaN,NaN,4.1E1,NaN,-7.622451E-2,3.4E1,NaN,5.6E1,6.1E1,4.2E1,1E0,2.683422E4,5.6E1,5.379829E-1,-3.5107505E-2,4.9E1,7.766469E4,1E0,5.6E1,-2.1592385E-1,3.1419426E-1,NaN,1.4667511E-1,6.260931E4,4.1006663E-1,2.933526E4,3.6E1,-2.2209798E-1,3.6E1,NaN,1.4667511E-1,5.2E1,3E1,-3.045643E-1,2.0317416E-1,NaN,NaN,NaN,NaN,NaN,-7.2147576E-3,6.6E1,4.5E1,8.359285E-1,3.9529273E-1,-1.5654394E-1,2.4968122E-1,2.9022405E-1,6.393932E-1,-1.9040708E-1,1.8538316E-1,-8.058074E-2,4.6003646E-1,-7.142867E-2,-2.1586294E-1,1.3879442E-1,-2.1263307E-1,-1.1607571E-1,3.126471E-1,-1.9368635E-1,-3.5013744E-1,2.81791E-1,-1.5677807E-1,3.375897E-1,-1.6790411E-1,6.347483E-2,-2.0185208E-1,-1.6600734E-1,-3.570352E-1,-3.9324352E-1,-1.4535284E-1,-2.738988E-1,2.5239764E-2],"split_indices":[3,4,2,2,8,2,8,8,0,1,2,6,0,4,0,0,4,8,0,0,7,5,8,0,0,8,5,7,8,0,0,1,0,5,0,5,8,0,8,2,0,8,0,0,0,6,4,2,1,3,0,0,0,0,0,0,0,0,0,0,0,0,0,0,0,0,0,0,0,0,0,0,0,0,0,0,0,0,0,0,0,0,0],"split_type":[1,1,1,1,0,1,0,0,0,1,1,1,0,1,0,0,1,0,0,0,0,0,0,0,0,0,0,0,0,0,0,1,0,0,0,0,0,0,0,1,0,0,0,0,0,1,1,1,1,1,0,0,0,0,0,0,0,0,0,0,0,0,0,0,0,0,0,0,0,0,0,0,0,0,0,0,0,0,0,0,0,0,0],"sum_hessian":[3.63174E2,1.67913E2,1.9526102E2,9.218003E1,7.573297E1,4.85762E1,1.4668481E2,4.9149933E1,4.3030094E1,5.2018604E1,2.3714363E1,4.0161424E0,4.4560055E1,1.4553735E2,1.1474693E0,3.6336524E0,4.5516277E1,1.3578385E1,2.945171E1,8.606019E0,4.3412586E1,1.9506977E1,4.207387E0,2.2949386E0,1.7212038E0,2.7348017E1,1.7212038E1,2.122818E1,1.24309166E2,1.1474693E0,2.4861834E0,4.3603832E1,1.9124486E0,1.2239672E1,1.3387141E0,2.5435568E1,4.0161424E0,2.868673E0,5.737346E0,4.1500137E1,1.9124486E0,5.737346E0,1.376963E1,3.059918E0,1.1474693E0,2.2949385E1,4.398632E0,7.6497946E0,9.562243E0,1.9698221E1,1.529959E0,1.2086676E2,3.4424076E0,3.9970177E1,3.6336524E0,1.0327223E1,1.9124486E0,8.22353E0,1.7212038E1,2.2949386E0,1.7212038E0,2.1036935E0,3.6336524E0,1.644706E1,2.5053078E1,3.059918E0,2.6774282E0,2.4861834E0,1.1283447E1,1.0900958E1,1.2048427E1,1.3387141E0,3.059918E0,4.398632E0,3.2511628E0,1.1474693E0,8.414774E0,5.737346E0,1.39608755E1,1.1914555E2,1.7212038E0,2.1036935E0,1.3387141E0],"tree_param":{"num_deleted":"0","num_feature":"9","num_nodes":"83","size_leaf_vector":"1"}},{"base_weights":[-1.2141681E-1,5.784252E-1,-8.979376E-1,1.153876E0,1.6968092E-2,-3.094553E-1,-1.1164789E0,1.2984394E0,5.4400593E-1,4.8707077E-1,-2.7927077E-1,7.764634E-1,-4.444361E-1,-1.1533079E0,-7.730305E-1,5.358107E-1,1.3937684E0,1.2974343E0,2.5030503E-1,-4.284353E-1,6.062963E-1,-3.4031692E-1,8.632481E-1,-5.5237472E-2,3.750336E-1,-2.749432E-1,-1.03536E0,-3.5290423E-1,-6.9716954E-1,-9.344404E-1,-3.4173855E-1,-2.2640994E-1,8.2249606E-1,1.6280538E0,1.0542567E0,3.802726E-2,4.881514E-1,-1.784838E-2,8.1929934E-1,8.401782E-2,-2.6828945E-1,8.0361225E-2,8.4180766E-1,-6.6098374E-1,-1.1403007E-1,4.4312176E-1,-6.8996E-2,-2.006027E-2,-8.118668E-1,-8.331879E-2,-3.3330333E-1,3.0508107E-2,-8.8894576E-1,-9.977091E-1,-6.554054E-2,6.998841E-2,-5.3886896E-1,1.5279391E-1,3.6299634E-1,5.234907E-1,2.0512302E-1,-1.5481466E-1,3.5029173E-1,9.497048E-2,-2.3941785E-1,3.0271006E-1,1.0697505E-1,9.0014964E-2,-1.7962502E-1,3.558516E-1,1.5185885E-1,-2.3429915E-1,-1.2387284E-3,3.048821E-2,-1.8638514E-1,-2.302884E-1,7.300293E-2,1.00175604E-1,-2.895699E-1,-7.440875E-2,-3.0011854E-1,-8.012489E-2,-3.252756E-1,2.3146223E-2,-2.5745913E-1],"categories":[0,1,3,4,5,0,3,4,5,6,9,10,11,13,2,4,8,9,10,11,13,14,15,4,6,9,10,11,12,13,14,15,3,4,6,7,8,9,10,11,12,13,14,15,0,1,2,4,5,6,0,2,4,6,1,11,12,0,3,4,5,6,7,9,10,11,12,13,1,2,3,5,0,1,2,3,4,5,6,7,8,11,0,4,0,5,6,0,2,3,4,5,6,7,8,9,10,11,12,13,0,1,2,3,4,6,7,8,11,12,13,0,1,2,3,4,5,6,7,8,9,11,12,0,1,2,3,5,6,7,9,10,11,12,13,14,15,1,2,3,4,5,6],"categories_nodes":[0,1,2,3,4,5,8,12,16,25,28,30,33,38,41,42,44,48],"categories_segments":[0,5,14,23,32,44,50,54,57,68,72,82,84,87,100,111,123,137],"categories_sizes":[5,9,9,9,12,6,4,3,11,4,10,2,3,13,11,12,14,6],"default_left":[1,1,1,1,1,1,0,0,1,0,0,0,1,0,0,0,1,0,0,0,0,0,0,0,0,1,0,0,1,0,1,0,0,1,0,0,0,0,1,0,0,1,1,0,1,0,0,0,1,0,0,0,0,0,0,0,0,0,0,0,0,0,0,0,0,0,0,0,0,0,0,0,0,0,0,0,0,0,0,0,0,0,0,0,0],"id":1,"left_children":[1,3,5,7,9,11,13,15,17,19,21,23,25,27,29,31,33,35,37,39,41,43,45,-1,-1,47,49,-1,51,53,55,-1,57,59,61,-1,-1,63,65,-1,-1,67,69,71,73,-1,-1,75,77,-1,-1,-1,79,81,-1,-1,83,-1,-1,-1,-1,-1,-1,-1,-1,-1,-1,-1,-1,-1,-1,-1,-1,-1,-1,-1,-1,-1,-1,-1,-1,-1,-1,-1,-1],"loss_changes":[1.907811E2,5.967227E1,2.1048721E1,7.336426E0,1.3300274E1,7.150942E0,6.379547E-1,4.5620117E0,3.924171E0,4.2880526E0,4.382501E0,2.7314038E0,3.91535E0,3.0622864E-1,7.070446E-1,4.22359E0,3.3969803E0,1.780407E0,2.3116443E0,1.8474011E0,4.0281715E0,4.014735E0,2.5247712E0,0E0,0E0,4.6296988E0,2.0643997E-1,0E0,1.2559924E0,2.419033E-1,7.595724E-1,0E0,4.087839E-1,2.8034744E0,5.78104E0,0E0,0E0,3.1777983E0,6.543231E-2,0E0,0E0,1.8704643E0,2.0270042E0,1.8186951E0,3.8103914E0,0E0,0E0,4.9217396E0,2.238202E0,0E0,0E0,0E0,1.9744873E-1,2.824831E-1,0E0,0E0,9.447948E-1,0E0,0E0,0E0,0E0,0E0,0E0,0E0,0E0,0E0,0E0,0E0,0E0,0E0,0E0,0E0,0E0,0E0,0E0,0E0,0E0,0E0,0E0,0E0,0E0,0E0,0E0,0E0,0E0],"parents":[2147483647,0,0,1,1,2,2,3,3,4,4,5,5,6,6,7,7,8,8,9,9,10,10,11,11,12,12,13,13,14,14,15,15,16,16,17,17,18,18,19,19,20,20,21,21,22,22,25,25,26,26,28,28,29,29,30,30,32,32,33,33,34,34,37,37,38,38,41,41,42,42,43,43,44,44,47,47,48,48,52,52,53,53,56,56],"right_children":[2,4,6,8,10,12,14,16,18,20,22,24,26,28,30,32,34,36,38,40,42,44,46,-1,-1,48,50,-1,52,54,56,-1,58,60,62,-1,-1,64,66,-1,-1,68,70,72,74,-1,-1,76,78,-1,-1,-1,80,82,-1,-1,84,-1,-1,-1,-1,-1,-1,-1,-1,-1,-1,-1,-1,-1,-1,-1,-1,-1,-1,-1,-1,-1,-1,-1,-1,-1,-1,-1,-1],"split_conditions":[NaN,NaN,NaN,NaN,NaN,NaN,5E1,3.2E1,NaN,3.7E1,1E0,3.5E1,NaN,5.8E1,3.9E1,3.6E1,NaN,2.657919E4,5.694606E4,3.398725E4,3.6E1,3.8E1,4.2E1,-5.5237472E-2,3.750336E-1,NaN,2.32093E4,-3.5290423E-1,NaN,7.2E1,NaN,-2.2640994E-1,6.260931E4,NaN,2.5E1,3.802726E-2,4.881514E-1,4.262843E4,NaN,8.401782E-2,-2.6828945E-1,NaN,NaN,5.4E1,NaN,4.4312176E-1,-6.8996E-2,2.7E1,NaN,-8.331879E-2,-3.3330333E-1,3.0508107E-2,7.361756E4,5.054868E4,-6.554054E-2,6.998841E-2,5.2E1,1.5279391E-1,3.6299634E-1,5.234907E-1,2.0512302E-1,-1.5481466E-1,3.5029173E-1,9.497048E-2,-2.3941785E-1,3.0271006E-1,1.0697505E-1,9.0014964E-2,-1.7962502E-1,3.558516E-1,1.5185885E-1,-2.3429915E-1,-1.2387284E-3,3.048821E-2,-1.8638514E-1,-2.302884E-1,7.300293E-2,1.00175604E-1,-2.895699E-1,-7.440875E-2,-3.0011854E-1,-8.012489E-2,-3.252756E-1,2.3146223E-2,-2.5745913E-1],"split_indices":[3,4,2,2,2,2,8,0,1,8,7,0,4,0,0,8,4,5,5,5,0,0,0,0,0,1,5,0,4,8,1,0,5,1,8,0,0,5,4,0,0,4,4,8,2,0,0,0,2,0,0,0,5,5,0,0,8,0,0,0,0,0,0,0,0,0,0,0,0,0,0,0,0,0,0,0,0,0,0,0,0,0,0,0,0],"split_type":[1,1,1,1,1,1,0,0,1,0,0,0,1,0,0,0,1,0,0,0,0,0,0,0,0,1,0,0,1,0,1,0,0,1,0,0,0,0,1,0,0,1,1,0,1,0,0,0,1,0,0,0,0,0,0,0,0,0,0,0,0,0,0,0,0,0,0,0,0,0,0,0,0,0,0,0,0,0,0,0,0,0,0,0,0],"sum_hessian":[3.4910495E2,1.837525E2,1.6535246E2,9.022431E1,9.352818E1,4.543157E1,1.1992089E2,7.202296E1,1.8201351E1,3.5905468E1,5.762272E1,4.4974275E0,4.0934143E1,1.061772E2,1.37436905E1,8.738217E0,6.3284744E1,4.1465936E0,1.4054757E1,3.8383272E0,3.2067142E1,5.536655E1,2.2561672E0,1.6871159E0,2.8103116E0,3.294881E1,7.985332E0,9.9569046E1,6.608155E0,9.151979E0,4.591711E0,1.2915988E0,7.4466186E0,3.519951E1,2.8085236E1,1.2155176E0,2.931076E0,1.0211128E1,3.8436286E0,1.6808658E0,2.1574614E0,1.0333031E1,2.173411E1,2.211161E1,3.325494E1,1.2200413E0,1.0361259E0,2.3046005E1,9.902804E0,1.1490462E0,6.8362856E0,1.3701954E0,5.2379594E0,8.047351E0,1.104628E0,1.1254113E0,3.4662995E0,5.398093E0,2.0485253E0,3.0567114E1,4.632395E0,1.6521494E0,2.6433086E1,7.5634923E0,2.647636E0,1.8885591E0,1.9550695E0,8.229128E0,2.1039035E0,9.476305E0,1.2257805E1,1.8535929E1,3.5756812E0,2.3895494E1,9.3594475E0,5.505767E0,1.754024E1,1.0300595E0,8.8727455E0,1.2537055E0,3.9842541E0,1.2850057E0,6.7623453E0,1.4423041E0,2.0239954E0],"tree_param":{"num_deleted":"0","num_feature":"9","num_nodes":"85","size_leaf_vector":"1"}},{"base_weights":[-1.09124556E-1,4.0698332E-1,-7.8951055E-1,7.9868096E-1,7.4624475E-3,-2.5246194E-1,-1.0228814E0,7.200223E-1,1.5320393E0,-2.195439E-1,3.4144574E-1,-5.965275E-1,1.0989517E-1,-6.9579667E-1,-1.0748103E0,-8.109236E-2,7.888859E-1,5.043103E-1,1.6586295E-1,-2.7829686E-1,-1.16121344E-1,5.020215E-1,-1.0328155E-1,2.1410164E-1,-6.990112E-1,8.926229E-1,-6.308478E-2,-9.06464E-1,-1.8725401E-1,-1.1033938E0,-3.7332252E-1,-5.96928E-1,6.639284E-1,5.5602825E-1,1.0349599E0,-6.5731585E-1,1.3294625E-2,6.285641E-1,-1.4888428E-1,-5.4598695E-1,4.3693194E-1,-8.35291E-1,-5.993231E-2,4.3054834E-1,-9.115777E-2,3.079642E-1,-3.9612532E-1,-3.547942E-2,-2.928372E-1,-6.5100837E-1,1.4729318E-1,-3.3400816E-1,-1.0211459E-1,-2.4056542E-1,4.3210097E-2,9.877696E-2,-3.140469E-1,2.5522918E-1,3.4178063E-2,3.2127452E-1,1.0471632E-1,3.3417764E-1,-1.1617835E-2,1.5082149E-1,-2.7321464E-1,1.9111674E-1,-3.0732386E-2,2.3380506E-1,2.2413015E-2,-2.3218895E-1,1.8154201E-1,8.3096795E-2,-2.252283E-1,3.0309418E-1,-1.600911E-1,-5.57953E-2,-2.6079607E-1,-2.4503282E-1,1.7724612E-1,1.94617E-1,-8.17669E-2,-2.2658353E-1,-3.312482E-2,-3.4692075E-2,-2.3811305E-1],"categories":[0,1,3,4,5,0,3,4,5,6,9,10,11,13,2,4,8,9,10,11,13,14,15,0,1,2,3,5,7,10,11,13,0,1,2,1,2,3,4,6,7,8,11,12,13,0,1,2,3,0,1,2,4,5,6,8,9,10,11,12,13,14,15,0,1,0,0,1,2,4,0,1,2,3,0,1,2,3,4,5,6,7,0,1,2,4,6,8,9,10,11,12,13,14,15,0,0,2,3,4,5,6,7,8,9,10,11,12,13,14,11,13,3,0,5],"categories_nodes":[0,1,2,6,8,10,11,12,21,25,27,30,31,33,34,35,39,40,45],"categories_segments":[0,5,14,23,32,35,45,49,63,65,66,70,74,82,95,96,110,112,113],"categories_sizes":[5,9,9,9,3,10,4,14,2,1,4,4,8,13,1,14,2,1,2],"default_left":[1,1,1,0,0,0,1,0,1,0,1,1,1,0,0,0,0,0,0,0,0,1,0,0,0,1,0,1,0,0,1,1,0,1,1,1,0,0,0,1,1,0,0,0,0,1,0,0,0,0,0,0,0,0,0,0,0,0,0,0,0,0,0,0,0,0,0,0,0,0,0,0,0,0,0,0,0,0,0,0,0,0,0,0,0],"id":2,"left_children":[1,3,5,7,9,11,13,15,17,19,21,23,25,27,29,31,33,-1,-1,-1,35,37,39,-1,41,43,45,47,49,51,53,55,57,59,61,63,65,67,69,71,73,75,77,-1,-1,79,81,-1,-1,83,-1,-1,-1,-1,-1,-1,-1,-1,-1,-1,-1,-1,-1,-1,-1,-1,-1,-1,-1,-1,-1,-1,-1,-1,-1,-1,-1,-1,-1,-1,-1,-1,-1,-1,-1],"loss_changes":[1.1452405E2,2.9038462E1,1.7366493E1,4.302372E0,7.1175923E0,5.5418816E0,9.115982E-1,4.8368835E0,2.6551247E-1,3.9868941E0,2.7640843E0,3.545104E0,3.0672832E0,1.5681515E0,1.2418518E0,3.3766441E0,3.9948769E0,0E0,0E0,0E0,3.505697E0,2.4060574E0,2.8464856E0,0E0,1.8264647E0,3.0917437E0,2.4880924E0,5.000429E-1,2.2105865E0,2.1981049E-1,1.1665611E0,2.4734802E0,2.7775133E-1,4.223773E0,3.2326508E0,3.2960553E0,3.044853E0,1.9207888E0,3.0032299E0,1.2928746E0,3.5815372E0,2.2900486E-1,2.8783312E0,0E0,0E0,2.0796986E0,9.968971E-1,0E0,0E0,2.1384239E-1,0E0,0E0,0E0,0E0,0E0,0E0,0E0,0E0,0E0,0E0,0E0,0E0,0E0,0E0,0E0,0E0,0E0,0E0,0E0,0E0,0E0,0E0,0E0,0E0,0E0,0E0,0E0,0E0,0E0,0E0,0E0,0E0,0E0,0E0,0E0],"parents":[2147483647,0,0,1,1,2,2,3,3,4,4,5,5,6,6,7,7,8,8,9,9,10,10,11,11,12,12,13,13,14,14,15,15,16,16,20,20,21,21,22,22,24,24,25,25,26,26,27,27,28,28,29,29,30,30,31,31,32,32,33,33,34,34,35,35,36,36,37,37,38,38,39,39,40,40,41,41,42,42,45,45,46,46,49,49],"right_children":[2,4,6,8,10,12,14,16,18,20,22,24,26,28,30,32,34,-1,-1,-1,36,38,40,-1,42,44,46,48,50,52,54,56,58,60,62,64,66,68,70,72,74,76,78,-1,-1,80,82,-1,-1,84,-1,-1,-1,-1,-1,-1,-1,-1,-1,-1,-1,-1,-1,-1,-1,-1,-1,-1,-1,-1,-1,-1,-1,-1,-1,-1,-1,-1,-1,-1,-1,-1,-1,-1,-1],"split_conditions":[NaN,NaN,NaN,1E0,4.2E1,3.9E1,NaN,2.7E1,NaN,2.9E1,NaN,NaN,NaN,4.1E1,5.6E1,8.255971E4,3.924937E4,5.043103E-1,1.6586295E-1,-2.7829686E-1,3.7E1,NaN,4.6E1,2.1410164E-1,4.9E1,NaN,7.766469E4,NaN,3.9E1,6.6E1,NaN,NaN,2.1E1,NaN,NaN,NaN,3.2E1,5E1,4.4E1,NaN,NaN,2.3E1,7.825705E4,4.3054834E-1,-9.115777E-2,NaN,1.0033551E5,-3.547942E-2,-2.928372E-1,6.451785E4,1.4729318E-1,-3.3400816E-1,-1.0211459E-1,-2.4056542E-1,4.3210097E-2,9.877696E-2,-3.140469E-1,2.5522918E-1,3.4178063E-2,3.2127452E-1,1.0471632E-1,3.3417764E-1,-1.1617835E-2,1.5082149E-1,-2.7321464E-1,1.9111674E-1,-3.0732386E-2,2.3380506E-1,2.2413015E-2,-2.3218895E-1,1.8154201E-1,8.3096795E-2,-2.252283E-1,3.0309418E-1,-1.600911E-1,-5.57953E-2,-2.6079607E-1,-2.4503282E-1,1.7724612E-1,1.94617E-1,-8.17669E-2,-2.2658353E-1,-3.312482E-2,-3.4692075E-2,-2.3811305E-1],"split_indices":[3,4,2,7,8,0,4,8,1,0,4,3,2,8,8,5,5,0,0,0,8,1,0,0,8,6,5,1,0,0,4,4,8,2,1,2,0,0,0,4,4,0,5,0,0,2,5,0,0,5,0,0,0,0,0,0,0,0,0,0,0,0,0,0,0,0,0,0,0,0,0,0,0,0,0,0,0,0,0,0,0,0,0,0,0],"split_type":[1,1,1,0,0,0,1,0,1,0,1,1,1,0,0,0,0,0,0,0,0,1,0,0,0,1,0,1,0,0,1,1,0,1,1,1,0,0,0,1,1,0,0,0,0,1,0,0,0,0,0,0,0,0,0,0,0,0,0,0,0,0,0,0,0,0,0,0,0,0,0,0,0,0,0,0,0,0,0,0,0,0,0,0,0],"sum_hessian":[3.2422253E2,1.8459758E2,1.3962495E2,9.270692E1,9.189067E1,4.2924953E1,9.67E1,8.55164E1,7.190514E0,5.4910797E1,3.6979874E1,2.168672E1,2.1238232E1,1.5221753E1,8.147824E1,6.755042E0,7.876136E1,5.618729E0,1.5717849E0,5.9822226E0,4.8928574E1,2.707514E1,9.904735E0,1.1406286E0,2.0546091E1,3.0910554E0,1.8147177E1,1.0209799E1,5.0119543E0,7.773773E1,3.7405102E0,4.108905E0,2.6461368E0,4.214218E1,3.661918E1,8.655157E0,4.027342E1,2.2696949E1,4.3781896E0,5.437781E0,4.4669538E0,1.6681776E1,3.8643153E0,1.9894613E0,1.1015941E0,8.61939E0,9.527787E0,1.0481191E0,9.16168E0,3.0004642E0,2.0114899E0,7.628214E1,1.4555917E0,1.7450209E0,1.9954892E0,1.4310321E0,2.6778731E0,1.5669911E0,1.0791458E0,1.0886297E1,3.1255882E1,3.407557E1,2.5436084E0,1.375266E0,7.2798915E0,5.598076E0,3.467534E1,1.752001E1,5.17694E0,2.3793163E0,1.9988734E0,1.0131848E0,4.4245963E0,2.7823043E0,1.6846492E0,1.1526972E0,1.5529079E1,1.6685822E0,2.195733E0,5.357255E0,3.2621346E0,3.493161E0,6.0346265E0,1.0124525E0,1.9880117E0],"tree_param":{"num_deleted":"0","num_feature":"9","num_nodes":"85","size_leaf_vector":"1"}},{"base_weights":[-9.5419265E-2,2.9381242E-1,-6.951663E-1,5.336977E-1,-9.179335E-2,-2.4130286E-1,-9.407315E-1,6.564196E-1,2.0581568E-2,2.7789143E-1,-4.012304E-1,-8.443967E-2,-9.3467367E-1,-7.229787E-1,-1.062962E0,7.228175E-3,7.1185094E-1,7.942028E-1,-1.8694931E-1,-3.2167873E-1,5.373654E-1,-4.5880184E-1,1.777396E-1,-2.7458096E-1,4.1897368E-1,-7.918011E-2,-3.0666947E-1,-9.566193E-1,-3.8259625E-1,-3.2413393E-1,-6.181042E-2,-3.656194E-1,3.630616E-1,6.047265E-1,1.0964195E0,2.7924943E-1,3.2885522E-1,-5.377829E-1,1.1857962E-1,2.0586021E-1,-5.3843457E-1,3.525844E-1,4.842457E-1,-6.0688686E-1,2.6125541E-2,-6.0073364E-1,5.515077E-2,6.7931694E-1,-2.3502466E-1,-3.140449E-1,-3.834409E-1,-3.0957546E-2,-2.4261026E-1,1.3801812E-2,-2.0318417E-1,1.844702E-1,-3.196176E-2,3.0863714E-1,1.4530312E-1,4.596636E-1,1.951445E-1,1.9034792E-1,-7.0837E-2,-2.0391399E-1,-2.307706E-2,-2.5713646E-1,1.3760906E-1,2.498368E-1,-1.4178172E-1,-2.0876595E-1,6.2614545E-2,3.9468247E-2,2.9095206E-1,-7.674233E-2,-2.4841948E-1,3.4674042E-1,-1.2143835E-1,2.0677403E-2,-2.2265136E-1,1.1229357E-1,-1.5209058E-1,2.8805602E-1,-5.039855E-4,-1.9204801E-1,-1.2288134E-2,1.0478427E-1,-1.7932108E-1],"categories":[0,1,3,4,5,4,6,9,10,11,12,13,14,15,2,4,8,9,10,14,15,0,3,4,6,9,11,13,0,3,5,8,10,11,13,1,11,12,0,2,5,7,10,11,13,0,4,0,1,2,3,5,1,9,0,1,3,4,5,6,7,8,2,4,0,3,8,11,13,1,2,3,4,5,6,7,8,9,10,11,12,13,1,2,3,4,0],"categories_nodes":[0,1,2,3,4,5,6,12,17,19,31,32,39,43,45,46,50,51],"categories_segments":[0,5,14,21,28,35,38,45,47,52,54,62,63,64,69,82,85,86],"categories_sizes":[5,9,7,7,7,3,7,2,5,2,8,1,1,5,13,3,1,1],"default_left":[1,1,1,1,1,1,1,0,0,0,0,0,1,0,0,0,0,1,0,1,0,0,0,0,0,0,0,0,0,0,0,1,1,0,0,0,0,0,0,1,0,0,0,1,0,1,1,0,0,0,1,1,0,0,0,0,0,0,0,0,0,0,0,0,0,0,0,0,0,0,0,0,0,0,0,0,0,0,0,0,0,0,0,0,0,0,0],"id":3,"left_children":[1,3,5,7,9,11,13,15,17,19,21,23,25,27,29,31,33,35,37,39,41,43,-1,45,47,-1,-1,49,51,-1,-1,53,55,57,59,61,-1,63,65,67,69,71,-1,73,75,77,79,81,-1,-1,83,85,-1,-1,-1,-1,-1,-1,-1,-1,-1,-1,-1,-1,-1,-1,-1,-1,-1,-1,-1,-1,-1,-1,-1,-1,-1,-1,-1,-1,-1,-1,-1,-1,-1,-1,-1],"loss_changes":[7.041816E1,1.6986347E1,1.2999615E1,7.1039085E0,8.242233E0,4.599123E0,1.2719803E0,3.27602E0,3.8166704E0,5.303076E0,2.5086875E0,3.5776923E0,1.903925E-1,2.0745697E0,4.81205E-1,1.2184237E0,2.7973557E0,4.750328E-1,2.0815558E0,1.3213234E0,4.084835E0,2.710362E0,0E0,2.921892E0,3.7606397E0,0E0,0E0,5.0494385E-1,2.0962427E0,0E0,0E0,6.077249E-1,6.2003857E-1,2.9693642E0,2.3207207E0,7.3543954E-1,0E0,5.326884E-1,4.0041194E0,2.0125947E0,1.0604482E0,2.770659E0,0E0,2.023425E0,5.2076507E0,1.33815E0,2.7505007E0,1.725615E0,0E0,0E0,3.220924E-1,2.1044765E0,0E0,0E0,0E0,0E0,0E0,0E0,0E0,0E0,0E0,0E0,0E0,0E0,0E0,0E0,0E0,0E0,0E0,0E0,0E0,0E0,0E0,0E0,0E0,0E0,0E0,0E0,0E0,0E0,0E0,0E0,0E0,0E0,0E0,0E0,0E0],"parents":[2147483647,0,0,1,1,2,2,3,3,4,4,5,5,6,6,7,7,8,8,9,9,10,10,11,11,12,12,13,13,14,14,15,15,16,16,17,17,18,18,19,19,20,20,21,21,23,23,24,24,27,27,28,28,31,31,32,32,33,33,34,34,35,35,37,37,38,38,39,39,40,40,41,41,43,43,44,44,45,45,46,46,47,47,50,50,51,51],"right_children":[2,4,6,8,10,12,14,16,18,20,22,24,26,28,30,32,34,36,38,40,42,44,-1,46,48,-1,-1,50,52,-1,-1,54,56,58,60,62,-1,64,66,68,70,72,-1,74,76,78,80,82,-1,-1,84,86,-1,-1,-1,-1,-1,-1,-1,-1,-1,-1,-1,-1,-1,-1,-1,-1,-1,-1,-1,-1,-1,-1,-1,-1,-1,-1,-1,-1,-1,-1,-1,-1,-1,-1,-1],"split_conditions":[NaN,NaN,NaN,NaN,NaN,NaN,NaN,2.9E1,2.173796E4,2.933526E4,6.5E1,4.9E1,NaN,3.5E1,6.5E1,4.1E1,5.360212E4,NaN,4.1E1,NaN,1E0,5.2E1,1.777396E-1,4E1,1.2688891E5,-7.918011E-2,-3.0666947E-1,4.9E1,9.970135E4,-3.2413393E-1,-6.181042E-2,NaN,NaN,2.083923E4,4E1,3.9E1,3.2885522E-1,4.6E1,3.9E1,NaN,4.6E1,6.849006E4,4.842457E-1,NaN,5.6E1,NaN,NaN,5.8E1,-2.3502466E-1,-3.140449E-1,NaN,NaN,-2.4261026E-1,1.3801812E-2,-2.0318417E-1,1.844702E-1,-3.196176E-2,3.0863714E-1,1.4530312E-1,4.596636E-1,1.951445E-1,1.9034792E-1,-7.0837E-2,-2.0391399E-1,-2.307706E-2,-2.5713646E-1,1.3760906E-1,2.498368E-1,-1.4178172E-1,-2.0876595E-1,6.2614545E-2,3.9468247E-2,2.9095206E-1,-7.674233E-2,-2.4841948E-1,3.4674042E-1,-1.2143835E-1,2.0677403E-2,-2.2265136E-1,1.1229357E-1,-1.5209058E-1,2.8805602E-1,-5.039855E-4,-1.9204801E-1,-1.2288134E-2,1.0478427E-1,-1.7932108E-1],"split_indices":[3,2,2,4,4,4,4,0,5,5,8,8,1,0,0,8,5,1,0,4,7,0,0,0,5,0,0,8,5,0,0,2,2,5,0,0,0,8,8,1,8,5,0,4,0,2,1,8,0,0,2,6,0,0,0,0,0,0,0,0,0,0,0,0,0,0,0,0,0,0,0,0,0,0,0,0,0,0,0,0,0,0,0,0,0,0,0],"split_type":[1,1,1,1,1,1,1,0,0,0,0,0,1,0,0,0,0,1,0,1,0,0,0,0,0,0,0,0,0,0,0,1,1,0,0,0,0,0,0,1,0,0,0,1,0,1,1,0,0,0,1,1,0,0,0,0,0,0,0,0,0,0,0,0,0,0,0,0,0,0,0,0,0,0,0,0,0,0,0,0,0,0,0,0,0,0,0],"sum_hessian":[2.9977853E2,1.8210423E2,1.1767429E2,1.1202774E2,7.007649E1,4.201084E1,7.566345E1,9.018011E1,2.1847635E1,3.1976307E1,3.8100185E1,3.5174908E1,6.8359346E0,2.968849E1,4.5974964E1,7.1832232E0,8.299689E1,4.0232162E0,1.7824419E1,9.5860195E0,2.2390287E1,3.652248E1,1.5777047E0,2.586148E1,9.313426E0,1.252848E0,5.5830865E0,1.653105E1,1.3157439E1,4.480005E1,1.1749151E0,3.4943206E0,3.6889029E0,6.69265E1,1.607039E1,2.198666E0,1.82455E0,7.9432044E0,9.881214E0,2.8063092E0,6.77971E0,2.0243809E1,2.1464784E0,2.7785856E1,8.736625E0,1.2588117E1,1.3273365E1,8.013383E0,1.3000433E0,1.3569398E1,2.9616525E0,7.7962832E0,5.3611555E0,1.8729769E0,1.6213437E0,2.199784E0,1.4891187E0,1.3129645E1,5.379685E1,6.89567E0,9.174721E0,1.1647062E0,1.0339599E0,5.709862E0,2.233342E0,2.1612155E0,7.719999E0,1.3403313E0,1.4659779E0,5.656326E0,1.1233841E0,1.5799536E1,4.444273E0,1.15727825E1,1.6213074E1,1.9479132E0,6.7887115E0,2.2844958E0,1.030362E1,8.679441E0,4.593923E0,5.3831778E0,2.6302047E0,1.1959764E0,1.7656761E0,4.8956532E0,2.90063E0],"tree_param":{"num_deleted":"0","num_feature":"9","num_nodes":"87","size_leaf_vector":"1"}},{"base_weights":[-8.322043E-2,2.2070393E-1,-6.124455E-1,5.21259E-1,4.136529E-2,-2.2481818E-1,-8.66493E-1,6.3573396E-1,-1.2279477E-1,5.8453774E-1,-5.2852236E-2,-9.351451E-2,-8.615989E-1,-6.376431E-1,-1.0099511E0,8.007744E-1,1.903149E-1,-3.5686684E-1,3.8683575E-1,9.941388E-1,2.0119293E-1,3.0039623E-3,-8.7423384E-1,-6.851163E-1,4.1808903E-2,-6.8051234E-2,-2.8588754E-1,-8.903486E-1,-3.1335413E-1,-3.0957317E-1,-5.308944E-2,8.89474E-1,1.3444705E-1,6.4836204E-1,-2.0491408E-1,8.4580976E-1,-5.502371E-1,3.8804173E-2,3.827107E-1,4.103832E-1,-2.3153578E-1,1.1077802E-1,-4.5882803E-1,-4.642199E-2,-2.9692408E-1,6.26928E-2,-2.7922994E-1,1.6369273E-1,-7.273154E-1,-2.985997E-1,-3.384044E-1,3.5146605E-2,-7.7292013E-1,1.7776456E-1,3.5360542E-1,2.1634468E-1,-1.0317678E-1,2.927375E-1,-9.929593E-2,-1.9926572E-1,2.7321276E-1,3.2093078E-1,4.164153E-2,-3.858868E-2,-2.0592639E-1,-9.017327E-2,2.5849244E-1,-2.248191E-2,1.2403423E-1,-2.753545E-1,-9.2649974E-2,1.1040821E-1,-1.4903514E-1,-2.5240636E-1,-5.981823E-2,1.3370214E-4,-1.8253446E-1,2.0824122E-1,-9.672829E-2,-2.660173E-1,-4.034442E-2],"categories":[0,1,3,4,5,2,4,6,8,9,10,11,12,13,14,15,2,4,8,9,10,14,1,5,9,12,0,2,4,6,1,11,12,0,2,5,7,10,11,13,0,1,2,3,6,0,3,4,5,6,7,8,9,10,11,12,13,13,14,15,0,4,0,1,0,3,7,11,1,2,3,4,5,6,7,8,9,10,11,12,13,14,15,0,1,3,4,5,6,8,9,11,12,13,0,1,2,3,5,6,7,8,9,10,11,12,13,14,7,1,2,3,5],"categories_nodes":[0,1,2,3,4,5,6,7,9,10,12,16,21,23,24,28,32,36,47],"categories_segments":[0,5,16,22,26,30,33,40,45,57,60,62,64,68,83,94,108,109,110],"categories_sizes":[5,11,6,4,4,3,7,5,12,3,2,2,4,15,11,14,1,1,3],"default_left":[1,1,1,1,1,1,1,1,0,1,1,0,1,0,0,0,1,0,0,0,0,1,0,1,1,0,0,0,1,0,0,0,1,0,0,0,1,0,0,0,0,0,0,0,0,0,0,1,0,0,0,0,0,0,0,0,0,0,0,0,0,0,0,0,0,0,0,0,0,0,0,0,0,0,0,0,0,0,0,0,0],"id":4,"left_children":[1,3,5,7,9,11,13,15,17,19,21,23,25,27,29,31,33,-1,35,37,39,41,43,45,47,-1,-1,49,51,-1,-1,53,55,57,59,61,63,-1,-1,65,-1,67,69,-1,-1,-1,-1,71,73,-1,75,77,79,-1,-1,-1,-1,-1,-1,-1,-1,-1,-1,-1,-1,-1,-1,-1,-1,-1,-1,-1,-1,-1,-1,-1,-1,-1,-1,-1,-1],"loss_changes":[4.4966633E1,9.561229E0,9.843933E0,4.9701195E0,5.7847443E0,3.4068885E0,1.3662491E0,4.0011024E0,6.3598294E0,2.4225597E0,4.440501E0,2.8868291E0,1.9027233E-1,1.8767929E0,4.7451782E-1,2.2985458E0,3.1356652E0,0E0,3.9483624E0,1.7393336E0,2.3279693E0,4.608439E0,3.590145E-1,1.6668639E0,2.931178E0,0E0,0E0,4.8842335E-1,2.119548E0,0E0,0E0,2.386963E0,1.9276527E0,2.8636541E0,5.556816E0,7.74621E-1,9.935886E-2,0E0,0E0,3.0776834E0,0E0,4.2494726E0,9.2278004E-1,0E0,0E0,0E0,0E0,3.7876608E0,9.034562E-2,0E0,3.471756E-1,2.1999948E0,2.9328918E-1,0E0,0E0,0E0,0E0,0E0,0E0,0E0,0E0,0E0,0E0,0E0,0E0,0E0,0E0,0E0,0E0,0E0,0E0,0E0,0E0,0E0,0E0,0E0,0E0,0E0,0E0,0E0,0E0],"parents":[2147483647,0,0,1,1,2,2,3,3,4,4,5,5,6,6,7,7,8,8,9,9,10,10,11,11,12,12,13,13,14,14,15,15,16,16,18,18,19,19,20,20,21,21,22,22,23,23,24,24,27,27,28,28,31,31,32,32,33,33,34,34,35,35,36,36,39,39,41,41,42,42,47,47,48,48,50,50,51,51,52,52],"right_children":[2,4,6,8,10,12,14,16,18,20,22,24,26,28,30,32,34,-1,36,38,40,42,44,46,48,-1,-1,50,52,-1,-1,54,56,58,60,62,64,-1,-1,66,-1,68,70,-1,-1,-1,-1,72,74,-1,76,78,80,-1,-1,-1,-1,-1,-1,-1,-1,-1,-1,-1,-1,-1,-1,-1,-1,-1,-1,-1,-1,-1,-1,-1,-1,-1,-1,-1,-1],"split_conditions":[NaN,NaN,NaN,NaN,NaN,NaN,NaN,NaN,3.7E1,NaN,NaN,2.7E1,NaN,3.5E1,6.5E1,6E1,NaN,-3.5686684E-1,4.706394E4,2.657919E4,5.4E1,NaN,2.629184E4,NaN,NaN,-6.8051234E-2,-2.8588754E-1,4.9E1,NaN,-3.0957317E-1,-5.308944E-2,4.5E1,NaN,5.8E1,5.74973E4,4.7E1,NaN,3.8804173E-2,3.827107E-1,4.2E1,-2.3153578E-1,4.6E1,3.6E1,-4.642199E-2,-2.9692408E-1,6.26928E-2,-2.7922994E-1,NaN,5.2E1,-2.985997E-1,3E1,6.719888E4,4.1E1,1.7776456E-1,3.5360542E-1,2.1634468E-1,-1.0317678E-1,2.927375E-1,-9.929593E-2,-1.9926572E-1,2.7321276E-1,3.2093078E-1,4.164153E-2,-3.858868E-2,-2.0592639E-1,-9.017327E-2,2.5849244E-1,-2.248191E-2,1.2403423E-1,-2.753545E-1,-9.2649974E-2,1.1040821E-1,-1.4903514E-1,-2.5240636E-1,-5.981823E-2,1.3370214E-4,-1.8253446E-1,2.0824122E-1,-9.672829E-2,-2.660173E-1,-4.034442E-2],"split_indices":[3,2,2,4,1,4,4,1,0,4,2,0,1,0,0,8,2,0,5,5,0,4,5,2,4,0,0,8,2,0,0,8,4,0,5,0,4,0,0,0,0,0,8,0,0,0,0,1,8,0,0,5,8,0,0,0,0,0,0,0,0,0,0,0,0,0,0,0,0,0,0,0,0,0,0,0,0,0,0,0,0],"split_type":[1,1,1,1,1,1,1,1,0,1,1,0,1,0,0,0,1,0,0,0,0,1,0,1,1,0,0,0,1,0,0,0,1,0,0,0,1,0,0,0,0,0,0,0,0,0,0,1,0,0,0,0,0,0,0,0,0,0,0,0,0,0,0,0,0,0,0,0,0,0,0,0,0,0,0,0,0,0,0,0,0],"sum_hessian":[2.7772574E2,1.7678455E2,1.0094119E2,6.535275E1,1.11431786E2,4.071022E1,6.0230972E1,5.5500877E1,9.851875E0,1.570233E1,9.572946E1,3.4701626E1,6.008593E0,2.5306269E1,3.49247E1,3.9913857E1,1.5587023E1,2.7536876E0,7.0981874E0,6.8209095E0,8.88142E0,9.0567E1,5.162461E0,5.7036815E0,2.8997944E1,1.1942075E0,4.8143854E0,1.3241867E1,1.2064402E1,3.3794983E1,1.129719E0,3.492928E1,4.9845757E0,6.923094E0,8.663929E0,4.8299108E0,2.2682767E0,2.0337763E0,4.787133E0,7.7857127E0,1.095707E0,7.40473E1,1.6519695E1,1.0378176E0,4.1246433E0,1.2614994E0,4.442182E0,2.5710714E1,3.2872298E0,1.0450742E1,2.791125E0,7.386529E0,4.677873E0,1.873913E1,1.619015E1,2.0108418E0,2.973734E0,5.1911473E0,1.7319462E0,6.4238396E0,2.2400901E0,3.278327E0,1.5515838E0,1.0285484E0,1.2397282E0,3.1526313E0,4.6330814E0,4.6355816E1,2.7691486E1,2.8078365E0,1.371186E1,1.997404E1,5.7366753E0,2.2150364E0,1.0721934E0,1.6806281E0,1.110497E0,2.2671142E0,5.119415E0,3.640114E0,1.037759E0],"tree_param":{"num_deleted":"0","num_feature":"9","num_nodes":"81","size_leaf_vector":"1"}},{"base_weights":[-7.626469E-2,2.3621576E-1,-6.1685115E-1,4.468607E-1,-9.8185875E-2,-2.2995193E-1,-8.6984485E-1,5.4638785E-1,-7.571397E-2,2.1850176E-1,-3.6996478E-1,-3.9574125E-1,2.5924802E-1,-6.424802E-1,-1.0122315E0,9.6599555E-1,4.6146995E-1,2.2120622E-1,-2.9495272E-1,-3.5518986E-1,4.7330162E-1,-4.2989588E-1,1.9094375E-1,-7.0294577E-1,-4.8278656E-2,4.9960753E-1,-2.4224378E-1,-8.942911E-1,-3.1874815E-1,-3.1017274E-1,-5.4319296E-2,-2.1733476E-2,1.1297824E0,-5.654446E-1,5.133923E-1,-2.7318612E-1,-1.3122334E-1,1.904105E-1,-5.75222E-1,2.8219938E-1,4.8145825E-1,-5.801674E-1,5.967793E-2,-4.4498494E-1,-2.724536E-1,1.8540716E-1,-3.9756182E-1,7.1995384E-1,-1.1275487E-1,-2.993193E-1,-3.4556612E-1,1.3697072E-2,-2.2636269E-1,2.034482E-1,4.7200236E-1,2.2823062E-2,-3.0134848E-1,-2.025405E-3,1.797391E-1,4.2194232E-2,-1.8358967E-1,2.3931618E-1,-1.3990414E-1,-2.2059362E-1,6.1407488E-2,1.8832376E-2,2.7349085E-1,-7.089882E-2,-2.4066713E-1,3.3136615E-1,-1.0964614E-1,-2.511319E-1,-5.557797E-2,-6.0518224E-2,1.897439E-1,9.684542E-2,-2.972206E-1,2.6726577E-1,-7.004375E-2,9.540993E-4,-1.8616024E-1,1.1940914E-1,-1.7153074E-1],"categories":[0,1,3,4,5,4,6,9,10,11,12,13,14,15,2,4,8,9,10,14,0,9,11,0,3,5,8,10,11,13,0,2,5,7,10,11,13,1,9,0,0,1,2,3,4,5,6,8,9,11,12,13,0,1,3,4,5,6,8,9,11,12,13,0,1,2,3,5,4,0,3,8,11,13,5,0,1,2,3,5,6,7,8,9,10,0],"categories_nodes":[0,1,2,3,4,6,19,23,24,25,36,37,41,47,50,51],"categories_segments":[0,5,14,20,23,30,37,39,40,52,63,68,69,74,75,85],"categories_sizes":[5,9,6,3,7,7,2,1,12,11,5,1,5,1,10,1],"default_left":[1,1,1,1,1,0,1,0,0,0,0,0,0,0,0,0,0,0,0,1,0,0,0,1,1,1,0,0,0,0,0,0,0,0,0,0,1,1,0,0,0,1,0,0,0,0,0,1,0,0,1,1,0,0,0,0,0,0,0,0,0,0,0,0,0,0,0,0,0,0,0,0,0,0,0,0,0,0,0,0,0,0,0],"id":5,"left_children":[1,3,5,7,9,11,13,15,17,19,21,23,25,27,29,31,33,-1,35,37,39,41,-1,43,45,47,-1,49,51,-1,-1,-1,53,55,57,-1,59,61,63,65,-1,67,69,71,-1,73,75,77,-1,-1,79,81,-1,-1,-1,-1,-1,-1,-1,-1,-1,-1,-1,-1,-1,-1,-1,-1,-1,-1,-1,-1,-1,-1,-1,-1,-1,-1,-1,-1,-1,-1,-1],"loss_changes":[4.752493E1,1.2614722E1,9.883587E0,5.745426E0,6.0876155E0,3.5161898E0,1.3544922E0,2.8412018E0,3.5016963E0,4.971589E0,2.56142E0,3.3638082E0,3.2898679E0,1.8821564E0,4.676094E-1,2.567049E0,4.483135E0,0E0,1.4152832E0,1.3913597E0,4.5603437E0,2.7121406E0,0E0,4.8639393E-1,1.3805451E0,2.1620681E0,0E0,4.7255516E-1,1.9206002E0,0E0,0E0,0E0,1.4733562E0,1.276422E0,3.3654842E0,0E0,1.8107126E0,1.8955916E0,1.1315885E0,2.8496652E0,0E0,1.9437008E0,4.603693E0,8.036363E-1,0E0,1.9059054E0,3.1981916E0,1.5405622E0,0E0,0E0,3.6769834E-1,2.1315954E0,0E0,0E0,0E0,0E0,0E0,0E0,0E0,0E0,0E0,0E0,0E0,0E0,0E0,0E0,0E0,0E0,0E0,0E0,0E0,0E0,0E0,0E0,0E0,0E0,0E0,0E0,0E0,0E0,0E0,0E0,0E0],"parents":[2147483647,0,0,1,1,2,2,3,3,4,4,5,5,6,6,7,7,8,8,9,9,10,10,11,11,12,12,13,13,14,14,15,15,16,16,18,18,19,19,20,20,21,21,23,23,24,24,25,25,27,27,28,28,32,32,33,33,34,34,36,36,37,37,38,38,39,39,41,41,42,42,43,43,45,45,46,46,47,47,50,50,51,51],"right_children":[2,4,6,8,10,12,14,16,18,20,22,24,26,28,30,32,34,-1,36,38,40,42,-1,44,46,48,-1,50,52,-1,-1,-1,54,56,58,-1,60,62,64,66,-1,68,70,72,-1,74,76,78,-1,-1,80,82,-1,-1,-1,-1,-1,-1,-1,-1,-1,-1,-1,-1,-1,-1,-1,-1,-1,-1,-1,-1,-1,-1,-1,-1,-1,-1,-1,-1,-1,-1,-1],"split_conditions":[NaN,NaN,NaN,NaN,NaN,5E1,NaN,2.083923E4,2.173796E4,2.933526E4,6.5E1,4E1,1.2688891E5,3.5E1,6.5E1,6.333E3,2.244629E4,2.2120622E-1,2.657919E4,NaN,1E0,5.2E1,1.9094375E-1,NaN,NaN,NaN,-2.4224378E-1,4.9E1,9.970135E4,-3.1017274E-1,-5.4319296E-2,-2.1733476E-2,4.8E1,2.173796E4,3.2E1,-2.7318612E-1,NaN,NaN,4.6E1,6.849006E4,4.8145825E-1,NaN,5.6E1,3.9E1,-2.724536E-1,4.8E1,4.8E1,NaN,-1.1275487E-1,-2.993193E-1,NaN,NaN,-2.2636269E-1,2.034482E-1,4.7200236E-1,2.2823062E-2,-3.0134848E-1,-2.025405E-3,1.797391E-1,4.2194232E-2,-1.8358967E-1,2.3931618E-1,-1.3990414E-1,-2.2059362E-1,6.1407488E-2,1.8832376E-2,2.7349085E-1,-7.089882E-2,-2.4066713E-1,3.3136615E-1,-1.0964614E-1,-2.511319E-1,-5.557797E-2,-6.0518224E-2,1.897439E-1,9.684542E-2,-2.972206E-1,2.6726577E-1,-7.004375E-2,9.540993E-4,-1.8616024E-1,1.1940914E-1,-1.7153074E-1],"split_indices":[3,2,2,4,4,8,4,5,5,5,8,0,5,0,0,5,5,0,5,4,7,0,0,6,4,4,0,8,5,0,0,0,0,5,0,0,1,1,8,5,0,4,0,8,0,0,0,1,0,0,2,6,0,0,0,0,0,0,0,0,0,0,0,0,0,0,0,0,0,0,0,0,0,0,0,0,0,0,0,0,0,0,0],"split_type":[1,1,1,1,1,0,1,0,0,0,0,0,0,0,0,0,0,0,0,1,0,0,0,1,1,1,0,0,0,0,0,0,0,0,0,0,1,1,0,0,0,1,0,0,0,0,0,1,0,0,1,1,0,0,0,0,0,0,0,0,0,0,0,0,0,0,0,0,0,0,0,0,0,0,0,0,0,0,0,0,0,0,0],"sum_hessian":[2.7947867E2,1.7746176E2,1.0201691E2,1.0867153E2,6.879023E1,4.1089035E1,6.0927876E1,9.12474E1,1.7424128E1,3.1860794E1,3.692944E1,3.0831362E1,1.0257671E1,2.5585249E1,3.534263E1,1.3611721E1,7.763568E1,3.1985927E0,1.4225535E1,9.677511E0,2.2183283E1,3.5394638E1,1.5348006E0,1.5820654E1,1.5010708E1,8.805274E0,1.4523973E0,1.3399879E1,1.2185369E1,3.4206562E1,1.1360652E0,1.930386E0,1.1681335E1,3.2604625E0,7.437522E1,2.0300913E0,1.2195444E1,2.8198717E0,6.85764E0,2.0047047E1,2.1362357E0,2.6940407E1,8.454232E0,8.413622E0,7.4070325E0,9.274702E0,5.736006E0,7.1766E0,1.6286739E0,1.058604E1,2.8138397E0,7.461749E0,4.72362E0,7.041125E0,4.64021E0,1.660677E0,1.5997856E0,1.0655164E1,6.3720055E1,8.241898E0,3.953546E0,1.353574E0,1.4662976E0,5.7371783E0,1.1204615E0,1.5680483E1,4.366564E0,1.1381407E1,1.5559E1,1.9829756E0,6.4712563E0,2.4666047E0,5.9470167E0,5.2646513E0,4.0100503E0,2.7960813E0,2.9399247E0,6.141204E0,1.0353962E0,1.6762536E0,1.1375861E0,4.697917E0,2.763832E0],"tree_param":{"num_deleted":"0","num_feature":"9","num_nodes":"83","size_leaf_vector":"1"}},{"base_weights":[-6.0888056E-2,3.0039924E-1,-6.50964E-1,5.932663E-1,1.267926E-4,-2.368787E-1,-9.0144145E-1,5.208959E-1,1.2848512E0,-2.0405267E-1,2.962033E-1,-5.420818E-1,6.34552E-2,-5.834396E-1,-9.777111E-1,-2.0265631E-1,5.8653224E-1,4.2399558E-1,1.4254735E-1,-8.7919E-1,-1.0874341E-1,2.0655487E-1,3.1046987E-1,2.2016673E-1,-6.4715046E-1,8.364063E-1,-1.02844834E-1,-2.1759146E-1,-2.927088E-1,-1.0076084E0,-2.411255E-1,-6.6827047E-1,5.103458E-1,3.3635947E-1,8.575379E-1,-2.9416287E-1,-9.934201E-2,5.794662E-1,-2.144276E-1,2.9648364E-1,-4.6413684E-1,-9.468359E-1,-3.9925256E-1,4.0732783E-1,-9.1786385E-2,2.7859667E-1,-4.3227047E-1,-6.699586E-1,1.836941E-1,-3.1140363E-1,-4.5487738E-1,-1.8930212E-1,7.891217E-2,7.573221E-2,-3.2275376E-1,1.9752508E-1,2.2964507E-2,2.4236093E-1,4.692856E-2,2.8064856E-1,-3.630191E-2,4.0926713E-1,-1.5822297E-1,-2.363844E-1,-2.9782312E-2,1.2512527E-1,-5.1915E-2,-2.649235E-1,1.0456324E-1,-8.80781E-2,-3.1178528E-1,6.408148E-2,-2.7604407E-1,1.787287E-1,-8.028446E-2,-2.304155E-1,-5.0501518E-2,-2.7030917E-2,-2.4317527E-1,1.5942997E-1,-1.18571684E-1,-2.1814485E-1,-1.2860179E-2],"categories":[0,1,3,4,5,0,3,4,5,6,9,10,11,13,2,4,8,9,10,14,15,0,1,2,5,7,10,11,13,0,1,2,0,1,2,3,0,1,2,4,5,6,8,9,10,11,12,13,3,5,6,7,8,9,10,11,12,13,14,15,0,0,1,2,0,1,2,3,4,5,6,7,0,1,2,4,6,8,9,10,11,12,13,14,15,0,0,1,2,3,4,6,7,8,10,11,12,13,0,1,0,1,2,3,4,5,6,7,8,0,1,2,3,0,2,3,4,5,6,7,8,9,10,11,12,13,0,1,2,3,5,6,7,8,9,10,11,12,13,14,15],"categories_nodes":[0,1,2,6,8,11,12,21,25,30,31,33,34,37,39,40,41,45,48],"categories_segments":[0,5,14,21,29,32,36,48,60,61,64,72,85,86,98,100,109,113,126],"categories_sizes":[5,9,7,8,3,4,12,12,1,3,8,13,1,12,2,9,4,13,15],"default_left":[1,1,1,0,0,0,1,0,1,0,0,1,1,0,0,0,0,0,0,0,0,1,0,0,0,1,0,0,0,0,1,1,0,1,1,0,0,1,0,1,1,1,0,0,0,1,0,0,1,0,0,0,0,0,0,0,0,0,0,0,0,0,0,0,0,0,0,0,0,0,0,0,0,0,0,0,0,0,0,0,0,0,0],"id":6,"left_children":[1,3,5,7,9,11,13,15,17,19,21,23,25,27,29,31,33,-1,-1,35,37,39,-1,-1,41,43,45,47,-1,49,51,53,55,57,59,-1,-1,61,63,65,67,69,71,-1,-1,73,75,77,79,-1,81,-1,-1,-1,-1,-1,-1,-1,-1,-1,-1,-1,-1,-1,-1,-1,-1,-1,-1,-1,-1,-1,-1,-1,-1,-1,-1,-1,-1,-1,-1,-1,-1],"loss_changes":[6.1649338E1,1.5783108E1,1.1173313E1,3.8782253E0,5.47811E0,3.9516304E0,1.0800514E0,4.104967E0,1.5283489E-1,3.3554873E0,2.235531E0,3.3305907E0,2.9698098E0,2.0326738E0,9.331589E-1,2.9052577E0,4.946224E0,0E0,0E0,3.599739E-2,3.6255493E0,2.202303E0,0E0,0E0,1.1235113E0,2.846356E0,2.5522568E0,1.8260522E0,0E0,3.8503647E-1,8.3386016E-1,2.1874962E0,1.8201524E-1,3.419333E0,2.8911934E0,0E0,0E0,6.5205917E0,2.7259955E0,1.8159788E0,1.8184675E0,2.0341825E-1,4.2797403E0,0E0,0E0,1.8184662E0,8.2575274E-1,3.041134E-1,1.3688644E0,0E0,4.6685493E-1,0E0,0E0,0E0,0E0,0E0,0E0,0E0,0E0,0E0,0E0,0E0,0E0,0E0,0E0,0E0,0E0,0E0,0E0,0E0,0E0,0E0,0E0,0E0,0E0,0E0,0E0,0E0,0E0,0E0,0E0,0E0,0E0],"parents":[2147483647,0,0,1,1,2,2,3,3,4,4,5,5,6,6,7,7,8,8,9,9,10,10,11,11,12,12,13,13,14,14,15,15,16,16,19,19,20,20,21,21,24,24,25,25,26,26,27,27,29,29,30,30,31,31,32,32,33,33,34,34,37,37,38,38,39,39,40,40,41,41,42,42,45,45,46,46,47,47,48,48,50,50],"right_children":[2,4,6,8,10,12,14,16,18,20,22,24,26,28,30,32,34,-1,-1,36,38,40,-1,-1,42,44,46,48,-1,50,52,54,56,58,60,-1,-1,62,64,66,68,70,72,-1,-1,74,76,78,80,-1,82,-1,-1,-1,-1,-1,-1,-1,-1,-1,-1,-1,-1,-1,-1,-1,-1,-1,-1,-1,-1,-1,-1,-1,-1,-1,-1,-1,-1,-1,-1,-1,-1],"split_conditions":[NaN,NaN,NaN,1E0,4.2E1,3.9E1,NaN,2.7E1,NaN,2.9E1,5.953487E4,NaN,NaN,9.970135E4,5.6E1,8.255971E4,3.924937E4,4.2399558E-1,1.4254735E-1,4.923733E4,3.2E1,NaN,3.1046987E-1,2.2016673E-1,7.361756E4,NaN,7.766469E4,3.7E1,-2.927088E-1,5.8E1,NaN,NaN,2.1E1,NaN,NaN,-2.9416287E-1,-9.934201E-2,NaN,3.7E1,NaN,NaN,NaN,1.0159416E5,4.0732783E-1,-9.1786385E-2,NaN,1.0033551E5,5.083409E4,NaN,-3.1140363E-1,3.9E1,-1.8930212E-1,7.891217E-2,7.573221E-2,-3.2275376E-1,1.9752508E-1,2.2964507E-2,2.4236093E-1,4.692856E-2,2.8064856E-1,-3.630191E-2,4.0926713E-1,-1.5822297E-1,-2.363844E-1,-2.9782312E-2,1.2512527E-1,-5.1915E-2,-2.649235E-1,1.0456324E-1,-8.80781E-2,-3.1178528E-1,6.408148E-2,-2.7604407E-1,1.787287E-1,-8.028446E-2,-2.304155E-1,-5.0501518E-2,-2.7030917E-2,-2.4317527E-1,1.5942997E-1,-1.18571684E-1,-2.1814485E-1,-1.2860179E-2],"split_indices":[3,4,2,7,8,0,4,8,1,0,5,3,2,5,8,5,5,0,0,5,0,2,0,0,5,6,5,0,0,0,4,4,8,2,1,0,0,4,0,1,2,2,5,0,0,2,5,5,2,0,8,0,0,0,0,0,0,0,0,0,0,0,0,0,0,0,0,0,0,0,0,0,0,0,0,0,0,0,0,0,0,0,0],"split_type":[1,1,1,0,0,0,1,0,1,0,0,1,1,0,0,0,0,0,0,0,0,1,0,0,0,1,0,0,0,0,1,1,0,1,1,0,0,1,0,1,1,1,0,0,0,1,0,0,1,0,0,0,0,0,0,0,0,0,0,0,0,0,0,0,0,0,0,0,0,0,0,0,0,0,0,0,0,0,0,0,0,0,0],"sum_hessian":[2.8726245E2,1.7847687E2,1.0878557E2,8.9858604E1,8.861826E1,4.1735237E1,6.705033E1,8.29333E1,6.9253097E0,5.263267E1,3.598559E1,2.0300592E1,2.1434647E1,1.4643753E1,5.2406578E1,6.7238946E0,7.6209404E1,5.3335767E0,1.5917332E0,5.4935675E0,4.7139103E1,3.3232147E1,2.7534428E0,1.0891335E0,1.921146E1,3.081685E0,1.835296E1,8.381369E0,6.262384E0,5.0008823E1,2.3977547E0,4.1055627E0,2.6183321E0,4.0793217E1,3.5416183E1,3.9701967E0,1.5233707E0,5.6784377E0,4.1460667E1,2.9795061E1,3.4370854E0,7.420865E0,1.1790594E1,1.9865183E0,1.0951669E0,8.576518E0,9.7764435E0,3.6251855E0,4.756183E0,4.6569252E1,3.439569E0,1.210255E0,1.1874996E0,1.3765559E0,2.7290068E0,1.5660002E0,1.0523318E0,1.0303345E1,3.0489872E1,3.284364E1,2.5725472E0,3.1866527E0,2.4917848E0,5.9557023E0,3.5504967E1,2.3794981E1,6.000081E0,2.2107885E0,1.2262971E0,1.4377129E0,5.9831524E0,5.6881433E0,6.102451E0,5.3685026E0,3.2080154E0,3.461984E0,6.3144593E0,1.0278167E0,2.5973687E0,3.0226564E0,1.7335271E0,1.6104434E0,1.8291256E0],"tree_param":{"num_deleted":"0","num_feature":"9","num_nodes":"83","size_leaf_vector":"1"}},{"base_weights":[6.804733E-2,4.3255773E-1,-5.96257E-1,7.2618824E-1,-4.522067E-2,-2.2668463E-1,-8.559735E-1,9.850235E-1,3.913528E-1,-1.8276034E-1,2.1138799E-1,6.75179E-1,-3.4736237E-1,-9.157941E-1,-4.607472E-1,1.06253E0,1.4499263E-1,-2.9090074E-1,6.797126E-1,4.544902E-1,-3.031439E-1,-3.722423E-1,4.5411208E-1,3.3111858E-1,-4.574457E-2,-8.5321105E-1,-1.9549523E-1,-9.5817584E-1,-3.767399E-1,-6.8544036E-1,9.916161E-3,1.1647332E0,5.0301236E-1,-2.3277156E-1,5.212621E-1,-4.97601E-1,2.9411212E-1,8.230508E-1,-4.8526666E-1,-1.883847E-1,9.6542627E-1,-2.1920362E-1,-6.673073E-1,1.7707954E-1,-8.6846876E-1,-2.2479807E-1,5.9728616E-1,-9.2248476E-1,-5.4721702E-2,4.6300608E-1,-2.690124E-1,-2.920292E-1,-1.0863909E-1,-2.360882E-1,1.411506E-1,-4.3548383E-2,-7.68919E-1,8.292778E-2,-9.1820635E-2,3.6802623E-1,1.7921098E-1,2.6416072E-1,-3.8786303E-2,2.9885852E-1,-5.311618E-2,1.0656441E-2,-2.9017612E-1,8.431383E-2,3.1454575E-1,-2.8070396E-1,3.9916385E-2,-1.5407401E-2,4.2121056E-1,2.136605E-2,-1.1669812E-1,-2.9870397E-1,-1.4871719E-2,-8.869837E-2,2.0852007E-1,-8.794985E-2,-2.9649308E-1,6.833274E-2,-2.0579483E-1,2.433142E-1,-4.009672E-2,-7.609166E-2,-3.0040056E-1,2.0887603E-1,2.2502873E-2,-1.9736405E-1,-2.3016352E-2,1.1364852E-1,-4.4090483E-2,-2.6806062E-1,-4.15452E-2],"categories":[0,1,3,4,5,0,3,4,5,6,9,11,13,2,4,8,9,10,14,2,4,6,8,9,10,11,12,13,14,15,0,1,2,4,5,6,8,9,10,11,12,13,14,15,0,1,3,4,5,6,9,11,12,13,1,2,4,0,0,1,3,6,0,1,3,4,1,0,1,2,0,1,2,3,5,11,13,0,1],"categories_nodes":[0,1,2,3,5,7,9,11,15,26,29,32,38,41,47],"categories_segments":[0,5,13,19,30,44,54,57,58,62,65,66,67,70,77],"categories_sizes":[5,8,6,11,14,10,3,1,4,3,1,1,3,7,2],"default_left":[1,1,1,1,0,1,0,1,0,1,0,1,0,0,0,1,0,0,0,0,0,0,0,0,0,0,1,0,0,1,0,0,1,0,0,0,0,0,1,0,0,1,0,0,0,0,0,1,0,0,0,0,0,0,0,0,0,0,0,0,0,0,0,0,0,0,0,0,0,0,0,0,0,0,0,0,0,0,0,0,0,0,0,0,0,0,0,0,0,0,0,0,0,0,0],"id":7,"left_children":[1,3,5,7,9,11,13,15,17,19,21,23,25,27,29,31,33,35,37,39,41,43,45,-1,-1,47,49,51,53,55,57,59,61,-1,63,65,-1,67,69,-1,71,73,75,77,79,81,83,85,-1,87,89,-1,-1,-1,91,-1,93,-1,-1,-1,-1,-1,-1,-1,-1,-1,-1,-1,-1,-1,-1,-1,-1,-1,-1,-1,-1,-1,-1,-1,-1,-1,-1,-1,-1,-1,-1,-1,-1,-1,-1,-1,-1,-1,-1],"loss_changes":[6.7546074E1,2.5286236E1,9.296356E0,9.28207E0,2.4901457E0,4.823797E0,9.4241333E-1,3.8992386E0,1.0092138E1,3.6480742E0,3.6683578E0,2.0539117E0,2.7409868E0,7.609596E-1,1.021913E0,2.6643753E0,2.627924E0,4.5981054E0,6.352669E0,4.8486223E0,1.0485394E0,2.2814019E0,1.8738797E0,0E0,0E0,2.2405434E-1,1.5966617E0,5.557251E-2,1.2216715E0,1.8205571E-1,4.2881992E-1,9.315567E-1,2.6295452E0,0E0,1.8856102E0,3.569171E0,0E0,3.6295128E0,1.3874989E0,0E0,2.5718403E0,1.667516E0,1.3366475E0,1.3160236E0,4.668474E-3,9.584567E-1,2.4604402E0,1.3659954E-1,0E0,2.574113E-1,2.0422788E0,0E0,0E0,0E0,2.7196616E-1,0E0,3.0106282E-1,0E0,0E0,0E0,0E0,0E0,0E0,0E0,0E0,0E0,0E0,0E0,0E0,0E0,0E0,0E0,0E0,0E0,0E0,0E0,0E0,0E0,0E0,0E0,0E0,0E0,0E0,0E0,0E0,0E0,0E0,0E0,0E0,0E0,0E0,0E0,0E0,0E0,0E0],"parents":[2147483647,0,0,1,1,2,2,3,3,4,4,5,5,6,6,7,7,8,8,9,9,10,10,11,11,12,12,13,13,14,14,15,15,16,16,17,17,18,18,19,19,20,20,21,21,22,22,25,25,26,26,27,27,28,28,29,29,30,30,31,31,32,32,34,34,35,35,37,37,38,38,40,40,41,41,42,42,43,43,44,44,45,45,46,46,47,47,49,49,50,50,54,54,56,56],"right_children":[2,4,6,8,10,12,14,16,18,20,22,24,26,28,30,32,34,36,38,40,42,44,46,-1,-1,48,50,52,54,56,58,60,62,-1,64,66,-1,68,70,-1,72,74,76,78,80,82,84,86,-1,88,90,-1,-1,-1,92,-1,94,-1,-1,-1,-1,-1,-1,-1,-1,-1,-1,-1,-1,-1,-1,-1,-1,-1,-1,-1,-1,-1,-1,-1,-1,-1,-1,-1,-1,-1,-1,-1,-1,-1,-1,-1,-1,-1,-1],"split_conditions":[NaN,NaN,NaN,NaN,4.2E1,NaN,4.9E1,NaN,3.7E1,NaN,2.683422E4,NaN,3.9E1,5.8E1,3.9E1,NaN,3.7E1,5.6E1,6.2E1,4.2E1,5.5E1,5.2E1,3E1,3.3111858E-1,-4.574457E-2,1.9597631E5,NaN,1E0,3.9E1,NaN,5.8E1,6E1,NaN,-2.3277156E-1,4.706394E4,3E1,2.9411212E-1,2.933526E4,NaN,-1.883847E-1,3.6E1,NaN,3.591003E4,4.9E1,3.3E1,2.9E1,5.5E1,NaN,-5.4721702E-2,3.4E1,3E1,-2.920292E-1,-1.0863909E-1,-2.360882E-1,8.681855E4,-4.3548383E-2,6.2E1,8.292778E-2,-9.1820635E-2,3.6802623E-1,1.7921098E-1,2.6416072E-1,-3.8786303E-2,2.9885852E-1,-5.311618E-2,1.0656441E-2,-2.9017612E-1,8.431383E-2,3.1454575E-1,-2.8070396E-1,3.9916385E-2,-1.5407401E-2,4.2121056E-1,2.136605E-2,-1.1669812E-1,-2.9870397E-1,-1.4871719E-2,-8.869837E-2,2.0852007E-1,-8.794985E-2,-2.9649308E-1,6.833274E-2,-2.0579483E-1,2.433142E-1,-4.009672E-2,-7.609166E-2,-3.0040056E-1,2.0887603E-1,2.2502873E-2,-1.9736405E-1,-2.3016352E-2,1.1364852E-1,-4.4090483E-2,-2.6806062E-1,-4.15452E-2],"split_indices":[3,4,2,2,8,2,8,4,0,1,5,6,8,0,0,1,0,8,0,0,0,8,0,0,0,5,3,7,8,1,8,8,2,0,5,0,0,5,4,0,8,4,5,8,0,0,0,3,0,0,0,0,0,0,5,0,8,0,0,0,0,0,0,0,0,0,0,0,0,0,0,0,0,0,0,0,0,0,0,0,0,0,0,0,0,0,0,0,0,0,0,0,0,0,0],"split_type":[1,1,1,1,0,1,0,1,0,1,0,1,0,0,0,1,0,0,0,0,0,0,0,0,0,0,1,0,0,1,0,0,1,0,0,0,0,0,1,0,0,1,0,0,0,0,0,1,0,0,0,0,0,0,0,0,0,0,0,0,0,0,0,0,0,0,0,0,0,0,0,0,0,0,0,0,0,0,0,0,0,0,0,0,0,0,0,0,0,0,0,0,0,0,0],"sum_hessian":[2.768828E2,1.7900812E2,9.7874695E1,1.1054812E2,6.846E1,4.1167225E1,5.6707466E1,6.1254906E1,4.9293213E1,4.4757965E1,2.3702036E1,4.316174E0,3.685105E1,4.81087E1,8.598765E0,5.583806E1,5.416846E0,1.4641918E1,3.4651295E1,6.670787E0,3.8087177E1,6.8052363E0,1.68968E1,2.6239722E0,1.6922021E0,7.442607E0,2.9408445E1,4.388114E1,4.2275577E0,5.511341E0,3.0874245E0,4.6299232E1,9.538826E0,1.2631818E0,4.153664E0,1.311766E1,1.5242583E0,3.1116278E1,3.5350173E0,2.0656357E0,4.605151E0,3.225442E1,5.832758E0,3.5350688E0,3.2701674E0,2.8434553E0,1.4053344E1,6.4058847E0,1.036722E0,2.421436E0,2.698701E1,4.2168755E1,1.7123883E0,2.0690856E0,2.1584718E0,1.1041449E0,4.407196E0,1.742743E0,1.3446814E0,4.0689133E1,5.610102E0,5.7269063E0,3.8119197E0,2.2183623E0,1.9353018E0,6.576624E0,6.541036E0,9.800351E0,2.1315926E1,1.7482527E0,1.7867645E0,1.6539247E0,2.9512265E0,1.2114045E1,2.0140377E1,3.4088657E0,2.4238923E0,2.0726645E0,1.4624043E0,1.1579032E0,2.1122642E0,1.6905633E0,1.1528919E0,1.0788652E1,3.2646918E0,1.1202353E0,5.2856493E0,1.0161097E0,1.4053265E0,8.1282E0,1.8858809E1,1.0102518E0,1.1482202E0,3.331363E0,1.0758332E0],"tree_param":{"num_deleted":"0","num_feature":"9","num_nodes":"95","size_leaf_vector":"1"}},{"base_weights":[-7.016606E-2,1.5653262E-1,-5.188401E-1,2.1054523E-1,-6.1824894E-1,-1.7594378E-1,-8.011047E-1,7.8986657E-1,1.4600775E-1,2.4565591E-1,-8.6667174E-1,5.892629E-1,-3.3822376E-1,-3.3308324E-1,-8.5959744E-1,-2.3499522E-2,8.6667305E-1,6.458266E-2,5.311998E-1,2.4273622E-1,-1.0413253E-1,-7.233409E-2,-9.415643E-1,8.305152E-1,-5.3090893E-2,-7.4966446E-2,-7.327387E-1,-7.2136307E-1,2.687137E-1,-8.88088E-1,-2.879645E-1,3.3794454E-1,2.518495E-1,3.3889613E-1,-7.07452E-2,8.732366E-1,-2.4304917E-2,-1.0753024E-1,-3.111196E-1,3.1375632E-1,4.122653E-1,-2.3119515E-1,3.4794527E-1,-8.2067764E-1,-1.9904312E-2,-2.4266487E-1,-6.900378E-2,-8.058449E-2,2.243864E-1,-9.055531E-1,-4.9343158E-2,7.39761E-2,-2.0169221E-1,2.9617926E-1,-7.6668955E-2,1.3173082E-1,-1.1422014E-1,-2.2251509E-1,1.8000379E-4,1.6537479E-1,3.9613906E-1,7.328206E-2,-2.0154357E-1,1.8215337E-1,-7.536513E-2,-2.0737228E-1,-5.6889276E-3,-4.4811215E-2,-2.6362067E-1,-4.7680505E-2,-2.777792E-1],"categories":[0,1,3,4,5,6,9,11,12,13,14,15,0,1,3,5,10,11,12,13,0,1,2,3,4,6,8,9,10,11,12,13,14,15,4,1,2,4,5,6,8,9,10,11,12,13,14,15,0,0,1,3,4,6,7,9,10,11,12,13,0,1,2,3,5,6,7,8,9,0,3,4,5,6,8,9,10,11,1,0,1,2,4],"categories_nodes":[0,1,2,3,4,5,13,17,30,36,39,43],"categories_segments":[0,5,12,20,34,35,48,49,60,69,78,79],"categories_sizes":[5,7,8,14,1,13,1,11,9,9,1,4],"default_left":[1,1,1,1,1,1,0,0,0,0,0,0,0,1,0,0,0,1,0,0,0,0,0,0,0,0,0,0,0,0,1,0,0,0,0,0,1,0,0,1,0,0,0,1,0,0,0,0,0,0,0,0,0,0,0,0,0,0,0,0,0,0,0,0,0,0,0,0,0,0,0],"id":8,"left_children":[1,3,5,7,9,11,13,15,17,19,21,23,25,27,29,-1,31,33,35,-1,-1,-1,37,39,-1,41,43,45,47,49,51,-1,53,55,57,59,61,-1,-1,63,-1,65,-1,67,-1,-1,-1,-1,-1,69,-1,-1,-1,-1,-1,-1,-1,-1,-1,-1,-1,-1,-1,-1,-1,-1,-1,-1,-1,-1,-1],"loss_changes":[2.629133E1,7.3262405E0,8.253185E0,5.9227104E0,2.6724882E0,5.22099E0,1.0082321E0,1.1322145E0,4.5616927E0,1.3959842E0,2.0033026E-1,1.5223489E0,3.4761949E0,1.8028715E0,4.1853905E-1,0E0,2.071866E0,4.5567417E0,4.8534284E0,0E0,0E0,0E0,6.27861E-2,1.208046E0,0E0,4.41681E0,7.362876E-1,5.608082E-3,1.0839396E0,3.433876E-1,8.736384E-1,0E0,2.367525E0,3.0884619E0,3.9542334E0,1.5426464E0,2.0187638E0,0E0,0E0,8.63233E-1,0E0,1.932226E0,0E0,3.299055E-1,0E0,0E0,0E0,0E0,0E0,4.281845E-1,0E0,0E0,0E0,0E0,0E0,0E0,0E0,0E0,0E0,0E0,0E0,0E0,0E0,0E0,0E0,0E0,0E0,0E0,0E0,0E0,0E0],"parents":[2147483647,0,0,1,1,2,2,3,3,4,4,5,5,6,6,7,7,8,8,9,9,10,10,11,11,12,12,13,13,14,14,16,16,17,17,18,18,22,22,23,23,25,25,26,26,27,27,28,28,29,29,30,30,32,32,33,33,34,34,35,35,36,36,39,39,41,41,43,43,49,49],"right_children":[2,4,6,8,10,12,14,16,18,20,22,24,26,28,30,-1,32,34,36,-1,-1,-1,38,40,-1,42,44,46,48,50,52,-1,54,56,58,60,62,-1,-1,64,-1,66,-1,68,-1,-1,-1,-1,-1,70,-1,-1,-1,-1,-1,-1,-1,-1,-1,-1,-1,-1,-1,-1,-1,-1,-1,-1,-1,-1,-1],"split_conditions":[NaN,NaN,NaN,NaN,NaN,NaN,4.177175E4,1.295157E4,5.953487E4,3.255053E4,2.532087E4,1.2413016E5,9.088396E4,NaN,5.8E1,-2.3499522E-2,5.2E1,NaN,1.6668897E5,2.4273622E-1,-1.0413253E-1,-7.233409E-2,3.3E1,4.6E1,-5.3090893E-2,8.461657E4,5.2E1,4.3E1,3.9E1,6.6E1,NaN,3.3794454E-1,2.76616E4,5.054868E4,3.8E1,4.7E1,NaN,-1.0753024E-1,-3.111196E-1,NaN,4.122653E-1,3.2E1,3.4794527E-1,NaN,-1.9904312E-2,-2.4266487E-1,-6.900378E-2,-8.058449E-2,2.243864E-1,1.6E1,-4.9343158E-2,7.39761E-2,-2.0169221E-1,2.9617926E-1,-7.6668955E-2,1.3173082E-1,-1.1422014E-1,-2.2251509E-1,1.8000379E-4,1.6537479E-1,3.9613906E-1,7.328206E-2,-2.0154357E-1,1.8215337E-1,-7.536513E-2,-2.0737228E-1,-5.6889276E-3,-4.4811215E-2,-2.6362067E-1,-4.7680505E-2,-2.777792E-1],"split_indices":[3,2,4,2,1,2,5,5,5,5,5,5,5,6,8,0,0,4,5,0,0,0,0,8,0,5,0,8,0,0,2,0,5,5,8,0,4,0,0,3,0,0,0,1,0,0,0,0,0,8,0,0,0,0,0,0,0,0,0,0,0,0,0,0,0,0,0,0,0,0,0],"split_type":[1,1,1,1,1,1,0,0,0,0,0,0,0,1,0,0,0,1,0,0,0,0,0,0,0,0,0,0,0,0,1,0,0,0,0,0,1,0,0,1,0,0,0,1,0,0,0,0,0,0,0,0,0,0,0,0,0,0,0,0,0,0,0,0,0,0,0,0,0,0,0],"sum_hessian":[2.5668494E2,1.7095746E2,8.572748E1,1.6049693E2,1.0460525E1,3.9439518E1,4.628796E1,1.4960947E1,1.45536E2,2.3386989E0,8.121825E0,6.4402666E0,3.299925E1,5.886043E0,4.0401917E1,1.2143558E0,1.3746592E1,1.2110374E2,2.443225E1,1.011859E0,1.3268397E0,1.3195369E0,6.8022885E0,4.8342752E0,1.6059911E0,2.0505848E1,1.2493402E1,3.4569404E0,2.4291024E0,3.795654E1,2.4453764E0,9.07818E0,4.6684113E0,3.9510517E1,8.159322E1,1.476756E1,9.664689E0,1.6261568E0,5.1761317E0,3.2871222E0,1.5471532E0,1.8924257E1,1.5815911E0,1.0832399E1,1.6610017E0,2.385745E0,1.0711952E0,1.3523434E0,1.0767591E0,3.6816498E1,1.1400409E0,1.172734E0,1.2726423E0,1.5198891E0,3.1485221E0,3.502342E1,4.4870987E0,6.938969E0,7.465425E1,9.884016E0,4.8835435E0,7.27136E0,2.393329E0,2.1143322E0,1.17279E0,5.2617016E0,1.3662556E1,1.1466624E0,9.685738E0,1.2119226E0,3.5604576E1],"tree_param":{"num_deleted":"0","num_feature":"9","num_nodes":"71","size_leaf_vector":"1"}},{"base_weights":[6.1379664E-2,3.1893423E-1,-4.864026E-1,7.1973485E-1,1.044647E-1,-1.3860808E-1,-7.704125E-1,8.332514E-1,8.807008E-2,-2.2276066E-1,2.5839928E-1,5.4065183E-2,-4.7951546E-1,-5.324809E-1,-9.4438726E-1,9.388818E-1,3.0636886E-1,-2.595255E-1,3.942988E-1,-3.4517458E-1,4.7784737E-1,5.842507E-1,-5.9671217E-4,2.8002536E-1,-4.455921E-1,5.5238847E-2,-5.9180474E-1,-7.964878E-1,-2.5527787E-1,-9.7472394E-1,-4.1107018E-2,9.56755E-1,4.2019058E-2,-1.5960968E-1,5.1359266E-1,7.136285E-1,-9.581953E-2,-3.9608228E-1,1.5240833E-1,8.141699E-1,-6.7246124E-2,6.411028E-1,-1.4240694E-1,3.2797316E-1,-5.9120126E-2,5.152487E-1,-3.0975443E-1,-2.9241103E-1,4.2952865E-1,-6.9356996E-1,6.354459E-2,-2.7704993E-1,-8.9316025E-2,3.1413063E-1,-4.87875E-1,-3.0290785E-1,-7.581556E-2,3.0102742E-1,1.6196854E-1,9.4668016E-2,2.867244E-1,3.115179E-1,2.84233E-2,-1.4654198E-1,3.0789169E-2,3.0043822E-2,3.7644997E-1,-3.1724904E-2,2.1401468E-1,-9.035211E-2,4.7911312E-2,2.622634E-1,2.137434E-3,-2.2232823E-1,1.6092587E-2,2.125431E-1,-1.5617951E-2,-2.4597622E-1,1.8526157E-2,3.0847487E-1,-1.1871902E-1,2.8413953E-2,-2.0783654E-1],"categories":[0,1,3,4,5,0,2,4,6,8,9,10,11,12,13,14,15,2,4,8,9,10,14,0,1,3,4,5,6,9,11,12,13,0,1,3,4,5,6,8,9,10,11,12,13,0,2,5,7,10,11,13,0,1,3,6,0,3,4,5,6,7,9,11,13,1,2,3,5,1,3,5,6,7,9,10,11,12,13,14,15,0,1,2,4,5,6,0,1,2,3,4,5,6,7,8,10,0,1,2,3,4,1,9],"categories_nodes":[0,1,2,3,5,6,7,10,11,21,22,39,45,53,54],"categories_segments":[0,5,17,23,33,45,52,56,65,69,81,87,97,98,102],"categories_sizes":[5,12,6,10,12,7,4,9,4,12,6,10,1,4,2],"default_left":[1,1,1,1,0,1,1,1,0,0,1,1,0,0,0,0,0,0,0,0,0,1,1,0,0,0,0,0,0,0,0,0,0,0,0,0,0,0,0,1,0,0,0,0,0,1,0,0,0,0,0,0,0,1,1,0,0,0,0,0,0,0,0,0,0,0,0,0,0,0,0,0,0,0,0,0,0,0,0,0,0,0,0],"id":9,"left_children":[1,3,5,7,9,11,13,15,17,19,21,23,25,27,29,31,33,-1,35,37,39,41,43,45,47,-1,49,51,53,55,-1,57,-1,-1,59,61,-1,63,-1,65,-1,67,-1,-1,69,71,73,-1,75,77,-1,-1,-1,79,81,-1,-1,-1,-1,-1,-1,-1,-1,-1,-1,-1,-1,-1,-1,-1,-1,-1,-1,-1,-1,-1,-1,-1,-1,-1,-1,-1,-1],"loss_changes":[3.663887E1,1.5096546E1,8.101353E0,4.325947E0,5.9079294E0,2.5595818E0,1.3815575E0,2.6002426E0,3.395502E0,3.397783E0,6.705494E0,3.0087087E0,1.1544907E0,1.3716183E0,4.788456E-1,4.762001E-1,2.0366635E0,0E0,2.1894739E0,1.620167E0,1.6052253E0,2.422573E0,2.9622982E0,2.684938E0,4.2805104E0,0E0,1.1476569E0,3.934512E-1,1.7385375E0,3.49123E-1,0E0,2.6820374E-1,0E0,0E0,4.5556498E-1,1.1589172E0,0E0,1.4965224E0,0E0,1.2241533E0,0E0,1.9009933E0,0E0,0E0,2.3741608E0,2.4358242E0,9.5117956E-1,0E0,5.5230045E-1,1.1095409E0,0E0,0E0,0E0,2.4750214E0,1.1268859E0,0E0,0E0,0E0,0E0,0E0,0E0,0E0,0E0,0E0,0E0,0E0,0E0,0E0,0E0,0E0,0E0,0E0,0E0,0E0,0E0,0E0,0E0,0E0,0E0,0E0,0E0,0E0,0E0],"parents":[2147483647,0,0,1,1,2,2,3,3,4,4,5,5,6,6,7,7,8,8,9,9,10,10,11,11,12,12,13,13,14,14,15,15,16,16,18,18,19,19,20,20,21,21,22,22,23,23,24,24,26,26,27,27,28,28,29,29,31,31,34,34,35,35,37,37,39,39,41,41,44,44,45,45,46,46,48,48,49,49,53,53,54,54],"right_children":[2,4,6,8,10,12,14,16,18,20,22,24,26,28,30,32,34,-1,36,38,40,42,44,46,48,-1,50,52,54,56,-1,58,-1,-1,60,62,-1,64,-1,66,-1,68,-1,-1,70,72,74,-1,76,78,-1,-1,-1,80,82,-1,-1,-1,-1,-1,-1,-1,-1,-1,-1,-1,-1,-1,-1,-1,-1,-1,-1,-1,-1,-1,-1,-1,-1,-1,-1,-1,-1],"split_conditions":[NaN,NaN,NaN,NaN,3.7E1,NaN,NaN,NaN,3.5E1,5.6E1,NaN,NaN,3.426818E4,3.5E1,6.5E1,6.7E1,3.8E1,-2.595255E-1,4.287848E4,1E0,4.201875E4,NaN,NaN,1.0441129E5,4.8E1,5.5238847E-2,1E0,4.9E1,4E1,5.6E1,-4.1107018E-2,6E1,4.2019058E-2,-1.5960968E-1,5.60024E4,4.7E1,-9.581953E-2,6.260931E4,1.5240833E-1,NaN,-6.7246124E-2,1.582878E4,-1.4240694E-1,3.2797316E-1,3.426818E4,NaN,3.5E1,-2.9241103E-1,5.5E1,1.9259961E5,6.354459E-2,-2.7704993E-1,-8.9316025E-2,NaN,NaN,-3.0290785E-1,-7.581556E-2,3.0102742E-1,1.6196854E-1,9.4668016E-2,2.867244E-1,3.115179E-1,2.84233E-2,-1.4654198E-1,3.0789169E-2,3.0043822E-2,3.7644997E-1,-3.1724904E-2,2.1401468E-1,-9.035211E-2,4.7911312E-2,2.622634E-1,2.137434E-3,-2.2232823E-1,1.6092587E-2,2.125431E-1,-1.5617951E-2,-2.4597622E-1,1.8526157E-2,3.0847487E-1,-1.1871902E-1,2.8413953E-2,-2.0783654E-1],"split_indices":[3,2,2,4,0,4,4,1,0,8,4,1,5,0,0,0,8,0,5,7,5,2,1,5,0,0,7,8,0,8,0,8,0,0,5,0,0,5,0,4,0,5,0,0,5,6,0,0,0,5,0,0,0,3,4,0,0,0,0,0,0,0,0,0,0,0,0,0,0,0,0,0,0,0,0,0,0,0,0,0,0,0,0],"split_type":[1,1,1,1,0,1,1,1,0,0,1,1,0,0,0,0,0,0,0,0,0,1,1,0,0,0,0,0,0,0,0,0,0,0,0,0,0,0,0,1,0,0,0,0,0,1,0,0,0,0,0,0,0,1,1,0,0,0,0,0,0,0,0,0,0,0,0,0,0,0,0,0,0,0,0,0,0,0,0,0,0,0,0],"sum_hessian":[2.575962E2,1.7549858E2,8.20976E1,6.0353706E1,1.1514487E2,3.7573574E1,4.4524033E1,5.0889256E1,9.464451E0,3.6694557E1,7.845031E1,2.4543526E1,1.3030047E1,2.0520475E1,2.4003557E1,4.173932E1,9.149935E0,1.8575991E0,7.606852E0,3.1668577E1,5.0259786E0,3.4185093E1,4.426522E1,1.7203257E1,7.340269E0,1.7930576E0,1.123699E1,9.550921E0,1.0969554E1,2.2934502E1,1.0690547E0,4.0632477E1,1.106845E0,1.5027144E0,7.6472206E0,5.2554855E0,2.3513665E0,3.0391018E1,1.2775605E0,3.2899895E0,1.7359893E0,3.281776E1,1.3673301E0,1.3501215E0,4.29151E1,1.2388637E1,4.8146205E0,4.5035567E0,2.836712E0,1.0095504E1,1.1414857E0,6.9336853E0,2.617236E0,3.0797207E0,7.8898335E0,2.1494982E1,1.4395211E0,3.5276035E1,5.3564386E0,6.4652495E0,1.1819712E0,3.0022066E0,2.253279E0,2.565815E1,4.7328677E0,1.7239188E0,1.5660706E0,2.8549492E0,2.9962812E1,2.0197372E1,2.2717726E1,6.837698E0,5.5509386E0,1.7262561E0,3.0883641E0,1.4979411E0,1.3387707E0,8.575474E0,1.5200299E0,1.3116648E0,1.768056E0,2.1929266E0,5.696907E0],"tree_param":{"num_deleted":"0","num_feature":"9","num_nodes":"83","size_leaf_vector":"1"}},{"base_weights":[-4.6695843E-2,1.19342566E-1,-4.2075828E-1,1.6122125E-1,-7.514559E-1,-1.6509104E-1,-7.8787756E-1,1.1790814E-1,8.005152E-1,-3.3057507E-2,-2.7614313E-1,-8.28411E-1,-1.4157702E-2,-5.9042776E-1,-2.97806E-1,-3.784674E-1,1.7641094E-1,9.306131E-1,-4.1560367E-2,-2.7732524E-1,-2.519966E-2,1.9455619E-1,-4.337559E-1,-6.8431276E-1,-2.4994746E-2,-4.740651E-1,1.2739651E-1,6.660053E-1,1.2667783E-1,3.002779E-1,7.326619E-2,3.7707525E-1,-2.8715372E-1,1.0160473E-1,-6.0813177E-1,-6.964783E-4,-7.666317E-1,1.359967E-1,-1.7465308E-1,7.2994776E-2,-1.9108509E-1,-4.6382435E-2,2.297256E-1,1.8658321E-2,1.5077062E-1,1.4511317E-1,-9.7262114E-2,1.8952334E-1,-1.9493479E-1,-2.0780489E-1,2.7305612E-1,-2.2386761E-1,5.682407E-2,-2.427972E-1,-8.838709E-2],"categories":[0,1,3,4,5,6,11,12,13,14,15,0,1,3,5,11,12,13,4,5,11,13,1,2,2,4,6,8,9,10,11,12,13,14,15,0,1,2,3,4,6,8,9,10,11,12,13,14,15,0,1,3,4,5,1,2,3,5,0,1,2,3,5,6,7,8,9,10,11,12,13,14,15,0,1,2,3,7,9,10,11,1,5],"categories_nodes":[0,1,2,4,6,8,12,16,17,21,24,25,32],"categories_segments":[0,5,11,18,19,22,24,35,49,54,58,73,81],"categories_sizes":[5,6,7,1,3,2,11,14,5,4,15,8,2],"default_left":[1,1,1,0,1,0,1,0,1,0,0,0,1,0,0,0,1,1,0,0,0,1,0,0,1,1,0,0,0,0,0,0,1,0,0,0,0,0,0,0,0,0,0,0,0,0,0,0,0,0,0,0,0,0,0],"id":10,"left_children":[1,3,5,7,9,11,13,15,17,-1,-1,19,21,23,-1,25,27,29,-1,-1,-1,31,33,35,37,39,-1,41,43,-1,-1,45,47,49,51,-1,53,-1,-1,-1,-1,-1,-1,-1,-1,-1,-1,-1,-1,-1,-1,-1,-1,-1,-1],"loss_changes":[1.49538355E1,6.210209E0,6.814636E0,4.339643E0,7.481289E-1,4.481574E0,6.314964E-1,4.4558945E0,1.3491468E0,0E0,0E0,5.1566887E-1,3.3753753E0,9.2770624E-1,0E0,1.4492106E0,3.2244377E0,1.8519735E-1,0E0,0E0,0E0,2.3754196E0,1.2560275E0,8.529968E-1,1.2159597E0,1.9074123E0,0E0,1.1248636E0,2.9887576E0,0E0,0E0,1.5875993E0,2.960709E0,3.1993718E0,1.2198763E0,0E0,3.52602E-2,0E0,0E0,0E0,0E0,0E0,0E0,0E0,0E0,0E0,0E0,0E0,0E0,0E0,0E0,0E0,0E0,0E0,0E0],"parents":[2147483647,0,0,1,1,2,2,3,3,4,4,5,5,6,6,7,7,8,8,11,11,12,12,13,13,15,15,16,16,17,17,21,21,22,22,23,23,24,24,25,25,27,27,28,28,31,31,32,32,33,33,34,34,36,36],"right_children":[2,4,6,8,10,12,14,16,18,-1,-1,20,22,24,-1,26,28,30,-1,-1,-1,32,34,36,38,40,-1,42,44,-1,-1,46,48,50,52,-1,54,-1,-1,-1,-1,-1,-1,-1,-1,-1,-1,-1,-1,-1,-1,-1,-1,-1,-1],"split_conditions":[NaN,NaN,NaN,1E0,NaN,2.7E1,NaN,3.8E1,NaN,-3.3057507E-2,-2.7614313E-1,1.9259961E5,NaN,4.9E1,-2.97806E-1,2.9628456E5,NaN,NaN,-4.1560367E-2,-2.7732524E-1,-2.519966E-2,NaN,5.694606E4,3.672936E4,NaN,NaN,1.2739651E-1,1.582878E4,5.953487E4,3.002779E-1,7.326619E-2,1.3898223E5,NaN,4.502181E4,5.9E1,-6.964783E-4,1.9405427E5,1.359967E-1,-1.7465308E-1,7.2994776E-2,-1.9108509E-1,-4.6382435E-2,2.297256E-1,1.8658321E-2,1.5077062E-1,1.4511317E-1,-9.7262114E-2,1.8952334E-1,-1.9493479E-1,-2.0780489E-1,2.7305612E-1,-2.2386761E-1,5.682407E-2,-2.427972E-1,-8.838709E-2],"split_indices":[3,2,4,7,1,0,4,8,1,0,0,5,2,8,0,5,2,4,0,0,0,1,5,5,2,4,0,5,5,0,0,5,2,5,0,0,5,0,0,0,0,0,0,0,0,0,0,0,0,0,0,0,0,0,0],"split_type":[1,1,1,0,1,0,1,0,1,0,0,0,1,0,0,0,1,1,0,0,0,1,0,0,1,1,0,0,0,0,0,0,1,0,0,0,0,0,0,0,0,0,0,0,0,0,0,0,0,0,0,0,0,0,0],"sum_hessian":[2.3896016E2,1.6597037E2,7.2989784E1,1.591322E2,6.838173E0,4.3880474E1,2.910931E1,1.5014415E2,8.988054E0,1.7709914E0,5.0671816E0,7.3018413E0,3.6578632E1,1.6797855E1,1.2311455E1,1.5253592E1,1.3489055E2,7.9022446E0,1.0858094E0,6.25352E0,1.0483215E0,2.4786041E1,1.1792589E1,1.4225582E1,2.5722737E0,1.3997192E1,1.2563989E0,1.12960205E1,1.23594536E2,6.752305E0,1.1499398E0,1.8132778E1,6.6532636E0,2.999865E0,8.792725E0,1.642888E0,1.2582694E1,1.4843903E0,1.0878835E0,2.49868E0,1.1498512E1,1.1646299E0,1.0131391E1,1.0649155E2,1.7102982E1,1.6008772E1,2.1240072E0,1.6726528E0,4.980611E0,1.5856166E0,1.4142485E0,7.549831E0,1.2428932E0,1.0883649E1,1.6990454E0],"tree_param":{"num_deleted":"0","num_feature":"9","num_nodes":"55","size_leaf_vector":"1"}},{"base_weights":[-5.1347543E-2,-7.838643E-1,-3.8827136E-3,-2.4699372E-1,-2.6500332E-1,-3.799218E-1,4.8966777E-2,-1.8829101E-1,1.0281344E-1,2.3589087E-1,-5.340118E-1,7.301537E-2,-7.6152694E-1,2.7221864E-1,-2.6222244E-1,-7.1620464E-1,1.2557594E-1,-1.06980555E-1,1.579795E-1,-7.514565E-2,-2.6001027E-1,-2.0841333E-1,5.0603848E-2,-2.8862157E-1,-7.9683846E-1,4.9593765E-1,-1.708262E-1,9.593063E-3,-7.145759E-1,2.0577753E-1,-1.5088336E-1,-2.1034415E-1,5.4580018E-2,-2.5896344E-1,-4.9560335E-2,6.71918E-3,2.5057542E-1,-2.7219234E-2,1.504097E-1,-3.4658454E-2,-2.5217316E-1,-1.1330091E-1,7.450921E-2,1.5797018E-1,-1.13961175E-1],"categories":[1,2,4,10,0,1,2,3,4,5,13,14,15,0,2,3,4,5,6,7,8,14,15,3,11,12,13,0,1,2,0,2,3,4,5,6,7,8,9,10],"categories_nodes":[1,3,6,9,12,17,23,25],"categories_segments":[0,4,10,13,21,23,27,30],"categories_sizes":[4,6,3,8,2,4,3,10],"default_left":[0,1,0,1,0,0,1,0,0,1,0,0,1,0,0,0,0,1,0,0,0,0,0,1,0,1,0,0,0,0,0,0,0,0,0,0,0,0,0,0,0,0,0,0,0],"id":11,"left_children":[1,3,5,7,-1,9,11,-1,-1,13,15,17,19,-1,21,23,25,27,29,-1,-1,-1,-1,31,33,35,-1,37,39,41,43,-1,-1,-1,-1,-1,-1,-1,-1,-1,-1,-1,-1,-1,-1],"loss_changes":[7.7672677E0,5.078974E-1,4.209728E0,1.0037467E0,0E0,2.602705E0,3.6768675E0,0E0,0E0,2.2172623E0,2.635601E0,2.7902925E0,7.536316E-2,0E0,8.948998E-1,3.474388E-1,1.6815513E0,4.168001E0,1.8557501E0,0E0,0E0,0E0,0E0,9.4772357E-1,4.243145E-1,6.369469E-1,0E0,2.5260475E0,6.177201E-1,2.7638102E0,2.8590934E0,0E0,0E0,0E0,0E0,0E0,0E0,0E0,0E0,0E0,0E0,0E0,0E0,0E0,0E0],"parents":[2147483647,0,0,1,1,2,2,3,3,5,5,6,6,9,9,10,10,11,11,12,12,14,14,15,15,16,16,17,17,18,18,23,23,24,24,25,25,27,27,28,28,29,29,30,30],"right_children":[2,4,6,8,-1,10,12,-1,-1,14,16,18,20,-1,22,24,26,28,30,-1,-1,-1,-1,32,34,36,-1,38,40,42,44,-1,-1,-1,-1,-1,-1,-1,-1,-1,-1,-1,-1,-1,-1],"split_conditions":[2.5E1,NaN,3.8E1,NaN,-2.6500332E-1,2.683422E4,NaN,-1.8829101E-1,1.0281344E-1,NaN,1.9940544E5,3.7E1,NaN,2.7221864E-1,5.1E1,1.7E1,4.8E1,NaN,6E1,-7.514565E-2,-2.6001027E-1,-2.0841333E-1,5.0603848E-2,NaN,3.6E1,NaN,-1.708262E-1,5.6E1,2.9E1,1.295157E4,4.1E1,-2.1034415E-1,5.4580018E-2,-2.5896344E-1,-4.9560335E-2,6.71918E-3,2.5057542E-1,-2.7219234E-2,1.504097E-1,-3.4658454E-2,-2.5217316E-1,-1.1330091E-1,7.450921E-2,1.5797018E-1,-1.13961175E-1],"split_indices":[0,2,8,2,0,5,2,0,0,2,5,0,2,0,0,8,0,4,8,0,0,0,0,2,8,4,0,8,0,5,0,0,0,0,0,0,0,0,0,0,0,0,0,0,0],"split_type":[0,1,0,1,0,0,1,0,0,1,0,0,1,0,0,0,0,1,0,0,0,0,0,1,0,1,0,0,0,0,0,0,0,0,0,0,0,0,0,0,0,0,0,0,0],"sum_hessian":[2.2248529E2,1.2594947E1,2.0989034E2,2.5134254E0,1.0081521E1,2.5100983E1,1.8478935E2,1.4883817E0,1.0250436E0,4.917517E0,2.0183466E1,1.8034807E2,4.441292E0,1.744329E0,3.173188E0,1.5747749E1,4.435717E0,5.7748703E1,1.2259936E2,1.3351945E0,3.1060977E0,1.2781279E0,1.8950601E0,3.2251108E0,1.2522638E1,3.0805292E0,1.3551879E0,4.9278343E1,8.470362E0,1.064582E2,1.6141163E1,1.4573979E0,1.767713E0,1.1000113E1,1.5225263E0,1.7309093E0,1.3496199E0,4.1606026E1,7.672315E0,1.8051277E0,6.6652346E0,6.706665E0,9.975153E1,3.7493362E0,1.2391828E1],"tree_param":{"num_deleted":"0","num_feature":"9","num_nodes":"45","size_leaf_vector":"1"}},{"base_weights":[1.3789221E-3,1.8036065E-1,-4.4308034E-1,3.6921924E-1,-8.973022E-3,-2.4546117E-1,-7.9069334E-1,3.1044495E-1,9.5427155E-1,-1.9106723E-1,2.450662E-1,-6.044142E-1,5.7603684E-3,-5.4486424E-1,-2.9414517E-1,1.042114E-1,5.166018E-1,3.3339116E-1,7.269677E-2,-6.4839906E-1,-1.2755899E-1,1.7187396E-1,7.8405106E-1,-2.7703604E-1,-3.6019805E-1,2.3410705E-1,-2.808125E-1,-5.114762E-3,-6.235815E-1,1.6286682E-1,-3.1139132E-1,6.105541E-1,-3.4352297E-1,4.2091412E-3,-2.7092385E-1,6.013349E-1,-2.3668264E-1,3.2336637E-1,-1.6879742E-1,3.0267048E-1,4.4892374E-2,-1.4266926E-1,-6.969828E-1,5.276962E-1,-3.241104E-1,3.072648E-1,-5.597979E-1,-2.4150285E-1,-7.8878343E-1,1.9846438E-1,-1.2182941E-3,-4.6581298E-2,2.0902131E-1,-2.1880838E-1,6.9754325E-2,4.2055306E-1,-1.7245886E-1,6.658501E-2,-1.13557555E-1,1.3668776E-1,-1.0283532E-1,1.16561145E-1,-1.5777397E-1,-1.3064696E-1,1.4678408E-1,-7.1521446E-2,-2.4868676E-1,2.0956306E-1,-4.4905957E-2,8.677113E-2,-1.9371068E-1,1.8164687E-1,-9.526513E-2,4.522152E-2,-2.6215205E-1,6.706291E-2,-2.0147587E-1,-2.684093E-1,-4.3340907E-2],"categories":[0,1,3,5,0,3,4,5,6,9,10,11,13,0,1,3,5,11,13,3,5,11,13,0,1,2,0,0,0,1,2,3,4,5,6,7,8,10,11,12,13,0,1,2,0,2,3,4,5,6,7,8,9,10,11,12,13,0,0,1,2,4,6,8,9,10,11,12,13,14,15,0,1,2,3,4,6,7,8,10,11,12,13,0,2,3,4,5,6,7,10,11,12,13,14,0,1,0,1,2,3,10,13,0,1,2,3,4,5,6,7,8,1,2,3,5,0,1,2,3,4,5,6,8,9,10,11,12,0,1,2,3,4,5,6,8,9,0,1,4,5],"categories_nodes":[0,1,2,6,8,12,16,19,22,26,28,29,35,36,37,38,42,43,44,45,46],"categories_segments":[0,4,13,19,23,26,27,28,41,44,57,58,71,83,95,97,103,112,116,128,137],"categories_sizes":[4,9,6,4,3,1,1,13,3,13,1,13,12,12,2,6,9,4,12,9,4],"default_left":[1,1,1,0,0,0,1,0,1,0,0,0,1,0,0,0,1,0,0,1,0,0,1,0,0,0,1,0,1,1,0,0,0,0,0,1,1,1,1,0,0,0,1,1,1,1,1,0,0,0,0,0,0,0,0,0,0,0,0,0,0,0,0,0,0,0,0,0,0,0,0,0,0,0,0,0,0,0,0],"id":12,"left_children":[1,3,5,7,9,11,13,15,17,19,21,23,25,27,-1,29,31,-1,-1,33,35,37,39,-1,41,43,45,-1,47,49,-1,51,53,-1,-1,55,57,59,61,-1,-1,63,65,67,69,71,73,75,77,-1,-1,-1,-1,-1,-1,-1,-1,-1,-1,-1,-1,-1,-1,-1,-1,-1,-1,-1,-1,-1,-1,-1,-1,-1,-1,-1,-1,-1,-1],"loss_changes":[1.9073904E1,6.115353E0,4.534631E0,2.6470833E0,4.040581E0,4.091811E0,6.08819E-1,3.3162274E0,5.5040026E-1,1.394199E0,1.3045359E0,1.1224713E0,1.8758385E0,5.263665E-1,0E0,2.9076655E0,3.392641E0,0E0,0E0,1.0174029E0,3.7927651E0,1.7784891E0,4.3121958E-1,0E0,7.956363E-1,2.7833743E0,2.2591338E0,0E0,5.1766396E-1,3.3112469E0,0E0,2.475563E0,1.173872E0,0E0,0E0,6.6987567E0,2.7275312E0,2.223499E0,2.3815207E0,0E0,0E0,1.8193849E0,7.696414E-2,1.3574998E0,1.392627E0,1.0752861E0,2.1360643E0,1.11575E0,3.751402E-1,0E0,0E0,0E0,0E0,0E0,0E0,0E0,0E0,0E0,0E0,0E0,0E0,0E0,0E0,0E0,0E0,0E0,0E0,0E0,0E0,0E0,0E0,0E0,0E0,0E0,0E0,0E0,0E0,0E0,0E0],"parents":[2147483647,0,0,1,1,2,2,3,3,4,4,5,5,6,6,7,7,8,8,9,9,10,10,11,11,12,12,13,13,15,15,16,16,19,19,20,20,21,21,22,22,24,24,25,25,26,26,28,28,29,29,31,31,32,32,35,35,36,36,37,37,38,38,41,41,42,42,43,43,44,44,45,45,46,46,47,47,48,48],"right_children":[2,4,6,8,10,12,14,16,18,20,22,24,26,28,-1,30,32,-1,-1,34,36,38,40,-1,42,44,46,-1,48,50,-1,52,54,-1,-1,56,58,60,62,-1,-1,64,66,68,70,72,74,76,78,-1,-1,-1,-1,-1,-1,-1,-1,-1,-1,-1,-1,-1,-1,-1,-1,-1,-1,-1,-1,-1,-1,-1,-1,-1,-1,-1,-1,-1,-1],"split_conditions":[NaN,NaN,NaN,1E0,4.2E1,3.7E1,NaN,3.924937E4,NaN,2.9E1,5.953487E4,2.7E1,NaN,3.672936E4,-2.9414517E-1,3.810616E4,NaN,3.3339116E-1,7.269677E-2,NaN,3.2E1,3.886678E4,NaN,-2.7703604E-1,1.0159416E5,4.8E1,NaN,-5.114762E-3,NaN,NaN,-3.1139132E-1,2.6E1,5.60024E4,4.2091412E-3,-2.7092385E-1,NaN,NaN,NaN,NaN,3.0267048E-1,4.4892374E-2,8.772556E4,NaN,NaN,NaN,NaN,NaN,1.0560842E5,1.9259961E5,1.9846438E-1,-1.2182941E-3,-4.6581298E-2,2.0902131E-1,-2.1880838E-1,6.9754325E-2,4.2055306E-1,-1.7245886E-1,6.658501E-2,-1.13557555E-1,1.3668776E-1,-1.0283532E-1,1.16561145E-1,-1.5777397E-1,-1.3064696E-1,1.4678408E-1,-7.1521446E-2,-2.4868676E-1,2.0956306E-1,-4.4905957E-2,8.677113E-2,-1.9371068E-1,1.8164687E-1,-9.526513E-2,4.522152E-2,-2.6215205E-1,6.706291E-2,-2.0147587E-1,-2.684093E-1,-4.3340907E-2],"split_indices":[3,4,4,7,8,0,4,5,1,0,5,0,6,5,0,5,1,0,0,4,0,5,2,0,5,0,2,0,6,2,0,8,5,0,0,4,2,1,4,0,0,5,4,1,4,4,1,5,5,0,0,0,0,0,0,0,0,0,0,0,0,0,0,0,0,0,0,0,0,0,0,0,0,0,0,0,0,0,0],"split_type":[1,1,1,0,0,0,1,0,1,0,0,0,1,0,0,0,1,0,0,1,0,0,1,0,0,0,1,0,1,1,0,0,0,0,0,1,1,1,1,0,0,0,1,1,1,1,1,0,0,0,0,0,0,0,0,0,0,0,0,0,0,0,0,0,0,0,0,0,0,0,0,0,0,0,0,0,0,0,0],"sum_hessian":[2.3776768E2,1.6993132E2,6.783637E1,8.459675E1,8.533457E1,4.433685E1,2.3499517E1,7.82649E1,6.331854E0,4.985011E1,3.5484463E1,1.7675562E1,2.666129E1,1.1924716E1,1.1574802E1,3.987778E1,3.838712E1,4.7280674E0,1.6037863E0,4.95546E0,4.489465E1,3.240312E1,3.081344E0,6.4578533E0,1.121771E1,1.493994E1,1.1721348E1,1.7055112E0,1.0219205E1,3.874546E1,1.1323198E0,3.4868546E1,3.5185702E0,1.6385258E0,3.3169343E0,5.258669E0,3.9635983E1,2.2464312E1,9.9388075E0,1.8391899E0,1.2421539E0,7.6805043E0,3.537205E0,9.826476E0,5.113465E0,3.738836E0,7.9825115E0,3.8279028E0,6.3913026E0,8.97385E0,2.9771608E1,3.4459846E0,3.1422564E1,1.947761E0,1.570809E0,3.0149086E0,2.24376E0,9.22929E0,3.040669E1,1.9006699E1,3.4576128E0,3.846993E0,6.0918145E0,5.4609795E0,2.2195249E0,1.4176477E0,2.1195571E0,7.822317E0,2.0041585E0,1.7934891E0,3.3199759E0,2.5517933E0,1.1870426E0,2.6060953E0,5.376416E0,2.0699332E0,1.7579696E0,5.15526E0,1.2360425E0],"tree_param":{"num_deleted":"0","num_feature":"9","num_nodes":"79","size_leaf_vector":"1"}},{"base_weights":[-4.4569943E-2,4.703309E-2,-3.3175844E-1,1.6562035E-2,5.5348605E-1,-2.1879654E-1,-2.7644804E-1,-3.4041494E-1,5.9885398E-2,6.747479E-1,-5.1542543E-2,-7.5351954E-1,-1.180137E-1,1.5234825E-1,-5.089573E-1,9.192697E-2,-5.013387E-1,2.3855023E-1,7.3904153E-3,-9.351727E-2,-2.5226825E-1,7.9203986E-2,-3.6305687E-1,-1.0522635E-1,5.4691356E-1,9.367918E-2,-7.7537674E-1,-1.9516766E-2,2.4458289E-1,1.744637E-1,-7.7290165E-1,5.7098246E-1,-2.1804914E-1,-5.880172E-1,-1.3611613E-1,2.77531E-1,-4.3753237E-2,-5.4466467E-2,1.548495E-1,-6.3775666E-2,-2.586731E-1,-1.9760843E-2,2.7524745E-1,1.8313913E-1,3.7346866E-2,-4.425277E-2,-2.6448736E-1,-1.9259721E-1,2.5362146E-1,-9.6276045E-2,8.932505E-2,-2.729854E-1,-6.699204E-2,1.03742026E-1,-1.9029135E-1],"categories":[0,1,3,3,5,11,13,1,2,6,9,11,12,13,14,15,0,1,3,4,5,1,2,4,0,0,2,3,4,5,6,8,9,10,11,12,13,0,4,0,1,2,3,6,8,9,10,11,12,13,14,15,0,2,0,1,2,3,4,5,6,7,8,9,0,2,3,4,6,7,8,9,10,11,12,13],"categories_nodes":[0,2,4,8,9,11,12,14,16,21,25,28,34],"categories_segments":[0,3,7,9,16,21,24,25,37,39,52,54,64],"categories_sizes":[3,4,2,7,5,3,1,12,2,13,2,10,12],"default_left":[1,0,1,0,1,0,0,0,1,1,0,1,1,0,1,0,1,0,0,0,0,1,0,0,0,1,0,0,1,0,0,0,0,0,1,0,0,0,0,0,0,0,0,0,0,0,0,0,0,0,0,0,0,0,0],"id":13,"left_children":[1,3,5,7,9,11,-1,13,15,17,-1,19,21,23,25,27,29,-1,-1,-1,-1,31,33,-1,35,37,39,41,43,-1,45,47,49,51,53,-1,-1,-1,-1,-1,-1,-1,-1,-1,-1,-1,-1,-1,-1,-1,-1,-1,-1,-1,-1],"loss_changes":[5.7090077E0,2.5364935E0,3.2931824E0,2.442699E0,9.36569E-1,2.354419E0,0E0,1.4977976E0,2.5731056E0,6.221342E-1,0E0,8.255482E-3,1.9296583E0,1.2097807E0,2.1554916E0,2.280744E0,2.7269483E0,0E0,0E0,0E0,0E0,3.4304004E0,8.245871E-1,0E0,9.902698E-1,6.5991586E-1,2.617607E-1,3.4592838E0,2.407777E0,0E0,3.2015705E-1,3.4706655E0,8.818494E-1,8.062396E-1,2.6495483E0,0E0,0E0,0E0,0E0,0E0,0E0,0E0,0E0,0E0,0E0,0E0,0E0,0E0,0E0,0E0,0E0,0E0,0E0,0E0,0E0],"parents":[2147483647,0,0,1,1,2,2,3,3,4,4,5,5,7,7,8,8,9,9,11,11,12,12,13,13,14,14,15,15,16,16,21,21,22,22,24,24,25,25,26,26,27,27,28,28,30,30,31,31,32,32,33,33,34,34],"right_children":[2,4,6,8,10,12,-1,14,16,18,-1,20,22,24,26,28,30,-1,-1,-1,-1,32,34,-1,36,38,40,42,44,-1,46,48,50,52,54,-1,-1,-1,-1,-1,-1,-1,-1,-1,-1,-1,-1,-1,-1,-1,-1,-1,-1,-1,-1],"split_conditions":[NaN,1E0,NaN,3.8E1,NaN,2.6E1,-2.7644804E-1,2.683422E4,NaN,NaN,-5.1542543E-2,NaN,NaN,4.7E1,NaN,4.5E1,NaN,2.3855023E-1,7.3904153E-3,-9.351727E-2,-2.5226825E-1,NaN,4.2E1,-1.0522635E-1,6.4E1,NaN,1.6E1,7E1,NaN,1.744637E-1,3.3E1,4.041576E4,5.3E1,8.314319E4,NaN,2.77531E-1,-4.3753237E-2,-5.4466467E-2,1.548495E-1,-6.3775666E-2,-2.586731E-1,-1.9760843E-2,2.7524745E-1,1.8313913E-1,3.7346866E-2,-4.425277E-2,-2.6448736E-1,-1.9259721E-1,2.5362146E-1,-9.6276045E-2,8.932505E-2,-2.729854E-1,-6.699204E-2,1.03742026E-1,-1.9029135E-1],"split_indices":[3,7,4,8,1,0,0,5,2,4,0,2,6,0,4,0,1,0,0,0,0,2,0,0,0,2,8,8,4,0,0,5,8,5,2,0,0,0,0,0,0,0,0,0,0,0,0,0,0,0,0,0,0,0,0],"split_type":[1,0,1,0,1,0,0,0,1,1,0,1,1,0,1,0,1,0,0,0,0,1,0,0,0,1,0,0,1,0,0,0,0,0,1,0,0,0,0,0,0,0,0,0,0,0,0,0,0,0,0,0,0,0,0],"sum_hessian":[2.1541884E2,1.6395818E2,5.1460663E1,1.5562746E2,8.33072E0,4.4338726E1,7.121938E0,1.6100945E1,1.3952652E2,7.1971254E0,1.1335942E0,6.0044227E0,3.83343E1,4.1280246E0,1.1972919E1,1.3278189E2,6.744621E0,5.8841004E0,1.3130249E0,1.7456257E0,4.2587967E0,2.1614841E1,1.6719461E1,1.8632569E0,2.2647676E0,3.869208E0,8.103711E0,7.725523E1,5.552666E1,1.1234148E0,5.621206E0,7.7960753E0,1.3818766E1,7.597349E0,9.122112E0,1.2480443E0,1.0167235E0,2.6882083E0,1.1809996E0,1.5444998E0,6.5592117E0,7.4499535E1,2.755703E0,1.2712632E1,4.281403E1,1.1815381E0,4.4396677E0,1.1912432E0,6.604832E0,1.1836011E1,1.982754E0,3.2412574E0,4.356092E0,4.792223E0,4.3298893E0],"tree_param":{"num_deleted":"0","num_feature":"9","num_nodes":"55","size_leaf_vector":"1"}},{"base_weights":[-2.466082E-2,7.638045E-2,-2.9316184E-1,5.384711E-1,3.4632705E-2,-1.5661664E-1,-8.1732994E-1,7.1710926E-1,1.6616751E-1,2.2650896E-1,-6.381474E-2,-5.547589E-2,-2.6322907E-1,-2.8082654E-1,-2.9853705E-1,-1.9919286E-2,2.9001716E-1,2.6411363E-1,-3.8622501E-1,5.616996E-1,8.111645E-2,2.1587723E-1,-1.20559156E-1,-5.5121547E-1,5.4804496E-2,-1.9850607E-1,8.667259E-2,5.447043E-2,-2.2527E-1,7.747776E-1,-8.8669136E-2,3.2044563E-1,-2.8195527E-1,5.256704E-1,-1.1241772E-1,-5.2197075E-1,-6.699125E-2,5.6264527E-2,-7.261141E-1,6.630577E-1,-3.8794484E-2,2.5143027E-1,2.1147044E-2,1.4249928E-1,-1.5084599E-1,-3.2643035E-2,2.3139727E-1,1.0326074E-2,-1.490442E-1,6.1066605E-2,2.454736E-1,-1.6005981E-1,1.1518767E-1,-2.0241483E-1,-4.9721796E-2,1.9193044E-2,-8.2577646E-2,-2.599728E-1,-6.1970454E-2,2.2404797E-2,3.1243065E-1,3.3697322E-2,-1.3313279E-1],"categories":[0,1,3,4,5,0,1,2,3,4,6,8,9,10,11,12,13,14,15,2,8,10,0,3,4,5,6,7,9,10,11,13,5,11,13,0,4,6,0,1,2,3,5,1,0,4,8,0,1,2,3,9,13,1,2,3,4,0,1,2,3,0,3,4,5,6,7,8,9,10,11,13,2,3,5,6,7,8,9,10,11,12,13,14,15],"categories_nodes":[0,1,2,4,5,9,18,19,20,21,23,24,29,36],"categories_segments":[0,5,19,22,32,35,38,43,44,47,53,57,61,72],"categories_sizes":[5,14,3,10,3,3,5,1,3,6,4,4,11,13],"default_left":[1,1,1,0,1,1,0,0,0,1,0,0,0,0,0,0,0,0,1,1,1,1,0,1,1,0,0,0,0,1,0,0,0,0,0,0,1,0,0,0,0,0,0,0,0,0,0,0,0,0,0,0,0,0,0,0,0,0,0,0,0,0,0],"id":14,"left_children":[1,3,5,7,9,11,13,15,17,19,21,23,-1,-1,25,-1,-1,-1,27,29,31,33,35,37,39,-1,-1,-1,-1,41,43,45,47,49,51,53,55,-1,57,59,61,-1,-1,-1,-1,-1,-1,-1,-1,-1,-1,-1,-1,-1,-1,-1,-1,-1,-1,-1,-1,-1,-1],"loss_changes":[5.91112E0,3.0390723E0,4.134532E0,7.4974394E-1,2.7806346E0,3.486022E0,4.6424103E-1,1.731852E0,2.5247982E0,2.3851237E0,1.5744276E0,2.413074E0,0E0,0E0,9.8406035E-1,0E0,0E0,0E0,9.2682844E-1,2.1363678E0,3.2146902E0,1.7690816E0,1.7228527E0,1.1726935E0,2.107383E0,0E0,0E0,0E0,0E0,4.467125E-1,1.3078501E0,4.368749E0,1.0242975E0,6.6529083E-1,2.0833771E0,4.0387368E-1,2.0161774E0,0E0,3.0932617E-1,1.0201032E0,2.046973E0,0E0,0E0,0E0,0E0,0E0,0E0,0E0,0E0,0E0,0E0,0E0,0E0,0E0,0E0,0E0,0E0,0E0,0E0,0E0,0E0,0E0,0E0],"parents":[2147483647,0,0,1,1,2,2,3,3,4,4,5,5,6,6,7,7,8,8,9,9,10,10,11,11,14,14,18,18,19,19,20,20,21,21,22,22,23,23,24,24,29,29,30,30,31,31,32,32,33,33,34,34,35,35,36,36,38,38,39,39,40,40],"right_children":[2,4,6,8,10,12,14,16,18,20,22,24,-1,-1,26,-1,-1,-1,28,30,32,34,36,38,40,-1,-1,-1,-1,42,44,46,48,50,52,54,56,-1,58,60,62,-1,-1,-1,-1,-1,-1,-1,-1,-1,-1,-1,-1,-1,-1,-1,-1,-1,-1,-1,-1,-1,-1],"split_conditions":[NaN,NaN,NaN,5.2E1,NaN,NaN,4.7E1,2.244629E4,2.76616E4,NaN,2.083923E4,3.9E1,-2.6322907E-1,-2.8082654E-1,4.3E1,-1.9919286E-2,2.9001716E-1,2.6411363E-1,NaN,NaN,NaN,NaN,2.58897E4,NaN,NaN,-1.9850607E-1,8.667259E-2,5.447043E-2,-2.2527E-1,NaN,4.537502E4,4.177175E4,3.398725E4,4.9E1,4.7E1,4.5E1,NaN,5.6264527E-2,3.6E1,4.4E1,1.0560842E5,2.5143027E-1,2.1147044E-2,1.4249928E-1,-1.5084599E-1,-3.2643035E-2,2.3139727E-1,1.0326074E-2,-1.490442E-1,6.1066605E-2,2.454736E-1,-1.6005981E-1,1.1518767E-1,-2.0241483E-1,-4.9721796E-2,1.9193044E-2,-8.2577646E-2,-2.599728E-1,-6.1970454E-2,2.2404797E-2,3.1243065E-1,3.3697322E-2,-1.3313279E-1],"split_indices":[3,2,2,0,4,4,0,5,5,1,5,8,0,0,8,0,0,0,1,2,2,4,5,1,3,0,0,0,0,4,5,5,5,8,0,0,2,0,8,0,5,0,0,0,0,0,0,0,0,0,0,0,0,0,0,0,0,0,0,0,0,0,0],"split_type":[1,1,1,0,1,1,0,0,0,1,0,0,0,0,0,0,0,0,1,1,1,1,0,1,1,0,0,0,0,1,0,0,0,0,0,0,1,0,0,0,0,0,0,0,0,0,0,0,0,0,0,0,0,0,0,0,0,0,0,0,0,0,0],"sum_hessian":[2.1605847E2,1.5750307E2,5.8555412E1,1.2064729E1,1.4543834E2,4.7484535E1,1.1070877E1,7.526996E0,4.5377326E0,4.8876377E1,9.656196E1,4.258605E1,4.8984866E0,8.354146E0,2.716731E0,1.9959556E0,5.5310407E0,1.7200512E0,2.8176813E0,1.3920486E1,3.495589E1,1.5813447E1,8.074851E1,7.0219975E0,3.5564053E1,1.6007763E0,1.1159549E0,1.2983229E0,1.5193585E0,1.0341161E1,3.579326E0,2.1138948E1,1.3816943E1,7.82666E0,7.9867864E0,8.477582E0,7.227093E1,1.3303465E0,5.6916513E0,3.931455E0,3.1632597E1,9.313753E0,1.0274081E0,1.4537823E0,2.1255434E0,1.1217795E1,9.921152E0,5.927949E0,7.888994E0,4.5323896E0,3.294271E0,4.2804728E0,3.7063134E0,5.3077016E0,3.1698806E0,4.479477E1,2.747616E1,3.9545648E0,1.7370864E0,2.0073752E0,1.9240799E0,2.3562784E1,8.069812E0],"tree_param":{"num_deleted":"0","num_feature":"9","num_nodes":"63","size_leaf_vector":"1"}},{"base_weights":[-3.2619014E-2,-6.092775E-1,-6.5144002E-3,-2.517213E-1,-3.25242E-1,2.763693E-1,-4.3046184E-2,9.5098674E-2,-5.6968504E-1,4.1092736E-1,-1.9718668E-1,2.4005789E-1,-8.467626E-2,-2.175662E-1,-5.457718E-3,5.8032155E-1,-2.2332908E-1,-2.0188467E-1,6.442594E-2,5.9324664E-1,-1.476645E-1,-4.761199E-1,-4.7426023E-2,-5.396748E-2,6.855516E-1,2.0623952E-1,-2.0877129E-1,-3.751527E-1,1.8578531E-1,1.3035469E-1,9.793173E-1,-3.7164104E-1,2.0710744E-1,-3.1786963E-1,-2.3508961E-1,2.5489803E-2,-2.6782596E-1,2.7514514E-1,1.1756302E-1,-3.9525565E-2,1.3696982E-1,1.2135523E-2,-1.887543E-1,1.9741495E-1,-1.03212975E-1,1.0461225E-1,3.3282727E-1,-1.8146184E-1,1.4806484E-1,-1.4523368E-1,1.3288122E-1,4.478176E-2,-3.7626937E-2,-3.301372E-2,-2.2076403E-1],"categories":[0,1,2,4,6,8,9,10,11,12,13,14,15,0,1,0,0,1,2,3,0,1,3,7,9,13,1,2,7,9,13,0,1,3,4,0,1,2,3,0,3,5,7,8,10,11],"categories_nodes":[2,4,5,8,9,11,21,22,27,35],"categories_segments":[0,13,15,16,18,20,26,31,35,39],"categories_sizes":[13,2,1,2,2,6,5,4,4,7],"default_left":[0,0,1,0,1,1,0,0,1,1,0,1,0,0,0,0,0,0,0,0,0,1,1,0,0,0,0,1,0,0,0,0,0,0,0,1,0,0,0,0,0,0,0,0,0,0,0,0,0,0,0,0,0,0,0],"id":15,"left_children":[1,3,5,-1,7,9,11,-1,13,15,17,19,21,-1,-1,23,25,-1,27,29,31,33,35,-1,37,39,-1,41,-1,43,45,47,-1,-1,49,51,53,-1,-1,-1,-1,-1,-1,-1,-1,-1,-1,-1,-1,-1,-1,-1,-1,-1,-1],"loss_changes":[3.1006582E0,3.0937457E-1,2.0613759E0,0E0,1.0632904E0,1.534926E0,2.1005228E0,0E0,3.6680508E-1,2.0734246E0,7.558466E-1,3.2218537E0,2.2319117E0,0E0,0E0,1.287817E0,1.0642676E0,0E0,1.3557674E0,2.04842E0,2.454738E0,1.6246636E0,2.2935247E0,0E0,5.2441216E-1,3.2644123E-1,0E0,3.625289E-1,0E0,1.9013938E0,1.4526653E-1,2.2945187E0,0E0,0E0,2.0234425E0,2.0330555E0,2.5376625E0,0E0,0E0,0E0,0E0,0E0,0E0,0E0,0E0,0E0,0E0,0E0,0E0,0E0,0E0,0E0,0E0,0E0,0E0],"parents":[2147483647,0,0,1,1,2,2,4,4,5,5,6,6,8,8,9,9,10,10,11,11,12,12,15,15,16,16,18,18,19,19,20,20,21,21,22,22,24,24,25,25,27,27,29,29,30,30,31,31,34,34,35,35,36,36],"right_children":[2,4,6,-1,8,10,12,-1,14,16,18,20,22,-1,-1,24,26,-1,28,30,32,34,36,-1,38,40,-1,42,-1,44,46,48,-1,-1,50,52,54,-1,-1,-1,-1,-1,-1,-1,-1,-1,-1,-1,-1,-1,-1,-1,-1,-1,-1],"split_conditions":[2.5E1,7.946838E4,NaN,-2.517213E-1,NaN,NaN,2.083923E4,9.5098674E-2,NaN,NaN,5.632413E4,NaN,2.58897E4,-2.175662E-1,-5.457718E-3,3.2E1,3.195202E4,-2.0188467E-1,4.8E1,1.379085E4,1.875425E4,NaN,NaN,-5.396748E-2,4.6E1,2.57195E4,-2.0877129E-1,NaN,1.8578531E-1,4.2E1,3.6E1,4.6E1,2.0710744E-1,-3.1786963E-1,4.9E1,NaN,1.1708688E5,2.7514514E-1,1.1756302E-1,-3.9525565E-2,1.3696982E-1,1.2135523E-2,-1.887543E-1,1.9741495E-1,-1.03212975E-1,1.0461225E-1,3.3282727E-1,-1.8146184E-1,1.4806484E-1,-1.4523368E-1,1.3288122E-1,4.478176E-2,-3.7626937E-2,-3.301372E-2,-2.2076403E-1],"split_indices":[0,5,2,0,3,6,5,0,4,1,5,4,5,0,0,0,5,0,0,5,5,4,3,0,0,5,0,1,0,0,0,8,0,0,8,4,5,0,0,0,0,0,0,0,0,0,0,0,0,0,0,0,0,0,0],"split_type":[0,0,1,0,1,1,0,0,1,1,0,1,0,0,0,0,0,0,0,0,0,1,1,0,0,0,0,1,0,0,0,0,0,0,0,1,0,0,0,0,0,0,0,0,0,0,0,0,0,0,0,0,0,0,0],"sum_hessian":[2.052403E2,7.9210978E0,1.9731918E2,3.2984467E0,4.622651E0,2.1816679E1,1.7550252E2,1.1925627E0,3.4300885E0,1.7092266E1,4.7244124E0,2.1887917E1,1.536146E2,2.4298046E0,1.0002838E0,1.3556655E1,3.5356107E0,1.1183317E0,3.6060808E0,1.117666E1,1.0711258E1,1.2324202E1,1.4129039E2,1.5620962E0,1.1994559E1,2.1473045E0,1.3883061E0,2.192768E0,1.4133126E0,5.690953E0,5.485707E0,8.891398E0,1.8198591E0,2.6101081E0,9.714093E0,1.068313E2,3.4459095E1,5.5190754E0,6.475484E0,1.1152167E0,1.0320879E0,1.1507826E0,1.0419856E0,2.5108688E0,3.180084E0,1.5676572E0,3.9180496E0,7.24045E0,1.6509485E0,7.313883E0,2.4002101E0,5.8697193E1,4.813411E1,2.6695276E1,7.763818E0],"tree_param":{"num_deleted":"0","num_feature":"9","num_nodes":"55","size_leaf_vector":"1"}},{"base_weights":[-1.469143E-3,1.6754332E-1,-1.12831466E-1,2.5957003E-1,-3.017276E-1,-8.989596E-3,-5.2316105E-1,3.5832447E-1,-1.11846894E-1,3.1471595E-1,-5.509979E-1,5.836416E-1,-5.7180814E-2,-3.116839E-1,-2.494684E-1,1.894813E-1,5.097976E-1,-4.4198442E-1,3.200435E-1,-2.0887491E-1,2.9669753E-1,2.1186624E-2,-2.5029418E-1,8.935987E-2,7.725567E-1,1.1572354E-2,-3.7180957E-1,4.1033544E-2,-6.9902307E-1,4.1239373E-2,4.728882E-1,7.241968E-1,1.0213939E-1,1.5434526E-1,-6.960726E-1,3.135047E-1,-1.5687335E-1,-1.9232364E-1,1.0967822E-1,1.4404899E-1,-3.531152E-1,2.0648934E-1,-1.4393698E-1,3.1519905E-1,2.9835218E-1,8.630626E-2,-3.1136373E-1,-4.4319162E-1,1.075232E-1,-1.829637E-1,2.1975431E-1,-2.6347968E-1,-2.703153E-2,-7.657897E-2,2.079721E-1,2.1573888E-1,-2.1677293E-1,5.1789414E-2,2.4525742E-1,9.6742116E-2,-1.6386254E-1,-2.5155622E-1,2.1057617E-2,1.6537373E-1,-1.4234728E-1,-2.1731518E-1,5.887564E-2,2.2190799E-1,-1.03081614E-1,-2.3320403E-2,1.23591565E-1,-2.763186E-1,1.4042982E-2,3.664603E-2,-1.7062178E-1,1.3128366E-1,-1.1201521E-1],"categories":[2,4,6,8,9,10,11,12,13,14,15,1,5,9,11,12,0,1,4,5,1,2,3,6,0,2,4,5,6,1,2,3,4,5,6,7,0,3,7,11,0,1,2,3,5,6,7,8,9,10,11,12,13,14,15,2,7,0,1,2,3,4,5,0,5,2,3,1,0,1,2,3,4,5,6,0,2,3,4,5,6,7],"categories_nodes":[0,1,2,3,5,10,12,13,17,19,32,36,44,47,50],"categories_segments":[0,11,16,20,24,29,36,40,55,57,63,65,67,68,75],"categories_sizes":[11,5,4,4,5,7,4,15,2,6,2,2,1,7,7],"default_left":[1,1,1,1,0,1,0,0,0,0,1,0,1,1,0,0,0,1,0,1,0,0,0,0,0,0,0,0,0,0,0,0,1,0,0,0,1,0,0,0,0,0,0,0,1,0,0,1,0,0,1,0,0,0,0,0,0,0,0,0,0,0,0,0,0,0,0,0,0,0,0,0,0,0,0,0,0],"id":16,"left_children":[1,3,5,7,9,11,13,15,17,19,21,23,25,27,-1,29,31,33,35,37,-1,39,-1,41,43,45,47,49,51,53,55,57,59,-1,61,-1,63,-1,-1,-1,65,-1,-1,-1,67,69,71,73,-1,-1,75,-1,-1,-1,-1,-1,-1,-1,-1,-1,-1,-1,-1,-1,-1,-1,-1,-1,-1,-1,-1,-1,-1,-1,-1,-1,-1],"loss_changes":[3.973818E0,3.6999645E0,5.4179173E0,2.631476E0,2.3572412E0,2.9629872E0,1.4159551E0,1.3368697E0,2.3659682E0,1.875989E0,1.7171288E0,6.596234E-1,2.0760922E0,2.3288507E0,0E0,1.1609054E0,2.456544E0,2.609129E0,2.7014532E0,1.1002417E0,0E0,9.335321E-1,0E0,1.4512604E0,4.1382408E-1,1.947227E0,1.0556967E0,1.2690026E0,8.0271125E-1,3.954958E0,3.331961E0,8.271227E-1,1.7679632E0,0E0,9.040561E-1,0E0,1.4527806E0,0E0,0E0,0E0,7.5929E-1,0E0,0E0,0E0,1.2274438E0,3.5258067E0,3.356016E0,1.213696E0,0E0,0E0,1.2475247E0,0E0,0E0,0E0,0E0,0E0,0E0,0E0,0E0,0E0,0E0,0E0,0E0,0E0,0E0,0E0,0E0,0E0,0E0,0E0,0E0,0E0,0E0,0E0,0E0,0E0,0E0],"parents":[2147483647,0,0,1,1,2,2,3,3,4,4,5,5,6,6,7,7,8,8,9,9,10,10,11,11,12,12,13,13,15,15,16,16,17,17,18,18,19,19,21,21,23,23,24,24,25,25,26,26,27,27,28,28,29,29,30,30,31,31,32,32,34,34,36,36,40,40,44,44,45,45,46,46,47,47,50,50],"right_children":[2,4,6,8,10,12,14,16,18,20,22,24,26,28,-1,30,32,34,36,38,-1,40,-1,42,44,46,48,50,52,54,56,58,60,-1,62,-1,64,-1,-1,-1,66,-1,-1,-1,68,70,72,74,-1,-1,76,-1,-1,-1,-1,-1,-1,-1,-1,-1,-1,-1,-1,-1,-1,-1,-1,-1,-1,-1,-1,-1,-1,-1,-1,-1,-1],"split_conditions":[NaN,NaN,NaN,NaN,3.037441E4,NaN,1.0560842E5,4.1E1,4.8E1,2.629184E4,NaN,3.8E1,NaN,NaN,-2.494684E-1,7.361756E4,5.3E1,NaN,5.2E1,NaN,2.9669753E-1,4.706394E4,-2.5029418E-1,3.4E1,2.02611E4,5.5E1,6.2E1,3.9E1,4.7E1,5.5E1,5.2E1,3.1E1,NaN,1.5434526E-1,1.226303E5,3.135047E-1,NaN,-1.9232364E-1,1.0967822E-1,1.4404899E-1,1.0033551E5,2.0648934E-1,-1.4393698E-1,3.1519905E-1,NaN,4.5E1,5.8E1,NaN,1.075232E-1,-1.829637E-1,NaN,-2.6347968E-1,-2.703153E-2,-7.657897E-2,2.079721E-1,2.1573888E-1,-2.1677293E-1,5.1789414E-2,2.4525742E-1,9.6742116E-2,-1.6386254E-1,-2.5155622E-1,2.1057617E-2,1.6537373E-1,-1.4234728E-1,-2.1731518E-1,5.887564E-2,2.2190799E-1,-1.03081614E-1,-2.3320403E-2,1.23591565E-1,-2.763186E-1,1.4042982E-2,3.664603E-2,-1.7062178E-1,1.3128366E-1,-1.1201521E-1],"split_indices":[2,4,3,1,5,1,5,8,0,5,2,0,4,2,0,5,8,4,0,4,0,5,0,0,5,0,8,8,0,0,0,0,2,0,5,0,1,0,0,0,5,0,0,0,1,0,0,2,0,0,4,0,0,0,0,0,0,0,0,0,0,0,0,0,0,0,0,0,0,0,0,0,0,0,0,0,0],"split_type":[1,1,1,1,0,1,0,0,0,0,1,0,1,1,0,0,0,1,0,1,0,0,0,0,0,0,0,0,0,0,0,0,1,0,0,0,1,0,0,0,0,0,0,0,1,0,0,1,0,0,1,0,0,0,0,0,0,0,0,0,0,0,0,0,0,0,0,0,0,0,0,0,0,0,0,0,0],"sum_hessian":[2.0912611E2,8.286261E1,1.262635E2,6.96506E1,1.3212013E1,1.01578896E2,2.4684603E1,5.5049084E1,1.4601514E1,3.7286189E0,9.483395E0,6.8033834E0,9.477551E1,1.5836082E1,8.848519E0,2.7096376E1,2.7952707E1,8.262374E0,6.33914E0,2.4873538E0,1.241265E0,3.447019E0,6.0363755E0,2.2885604E0,4.514823E0,7.856958E1,1.6205929E1,8.7564125E0,7.0796704E0,1.8542728E1,8.553649E0,1.780963E1,1.0143078E1,1.5191156E0,6.743258E0,2.0427375E0,4.296402E0,1.3532676E0,1.1340863E0,1.4213305E0,2.0256886E0,1.0130966E0,1.2754638E0,2.0795786E0,2.435244E0,6.4399086E1,1.4170498E1,1.5120872E1,1.0850564E0,1.3666214E0,7.389791E0,5.127878E0,1.9517921E0,1.3164541E1,5.378186E0,7.4230947E0,1.1305546E0,2.9897885E0,1.481984E1,7.945503E0,2.197575E0,5.6066837E0,1.1365747E0,1.1026073E0,3.193795E0,1.0186769E0,1.0070118E0,1.3528935E0,1.0823507E0,4.333309E1,2.1065994E1,4.662405E0,9.508093E0,2.7526467E0,1.2368225E1,5.5964437E0,1.7933472E0],"tree_param":{"num_deleted":"0","num_feature":"9","num_nodes":"77","size_leaf_vector":"1"}}]},"name":"gbtree"},"name":"dart","weight_drop":[5.91716E-1,1E0,7.5614375E-1,6.688964E-1,4.5516616E-1,5.91716E-1,3.7807187E-1,7.692308E-1,7.692308E-1,7.692308E-1,7.692308E-1,1E0,4.3478262E-1,1E0,7.692308E-1,1E0,7.692308E-1]},"learner_model_param":{"base_score":"2.5760543E-1","boost_from_average":"1","num_class":"0","num_feature":"9","num_target":"1"},"objective":{"name":"reg:logistic","reg_loss_param":{"scale_pos_weight":"1"}}},"version":[2,1,0]}