{"learner":{"attributes":{},"feature_names":["Age","Employment","Education","Marital","Occupation","Income","Gender","Hours"],"feature_types":["float","c","c","c","c","float","c","float"],"gradient_booster":{"model":{"gbtree_model_param":{"num_parallel_tree":"1","num_trees":"17"},"iteration_indptr":[0,1,2,3,4,5,6,7,8,9,10,11,12,13,14,15,16,17],"tree_info":[0,0,0,0,0,0,0,0,0,0,0,0,0,0,0,0,0],"trees":[{"base_weights":[1.0276604E-7,1.1311675E0,-6.246701E-1,1.8647436E0,3.016738E-1,4.795274E-1,-8.5842466E-1,2.3262596E0,4.544178E-1,1.5196589E0,2.8379744E-2,1.5616982E0,4.4008292E-2,-1.684445E-1,-1.0167325E0,3.989051E-1,2.5404937E0,-6.5215945E-1,6.888034E-1,2.4488766E0,5.6281936E-1,2.4474129E-1,-9.443151E-1,5.070777E-1,2.2347095E0,4.8622468E-1,-1.6662017E-1,3.045871E-1,-9.824513E-1,-3.784358E-1,-1.0767032E0,3.0148074E-1,-1.9748858E-1,5.549652E-2,2.669053E0,-2.3154344E-1,-5.947298E-2,1.099846E0,1.6851237E-1,8.476612E-2,8.866572E-1,-5.5893075E-2,1.1797233E0,5.5959636E-1,-5.423247E-1,-1.0200611E0,-5.947298E-2,3.9642468E-1,-3.680459E-1,2.8353417E-1,7.5677407E-1,1.13630556E-1,-9.752761E-1,-3.9343223E-1,7.917819E-1,4.1352995E-2,-3.5750678E-1,-7.5718933E-1,3.3100522E-1,-8.390837E-1,-1.1835754E0,-2.3154344E-1,1.3733326E-1,2.2900523E-1,-2.0371209E-1,8.375127E-1,2.0022123E-1,1.5212332E-1,5.335717E-1,-2.4259111E-1,1.6934502E-1,-2.4259111E-1,2.1545567E-1,5.174834E-1,4.6767168E-2,-3.6153015E-2,2.3072915E-1,9.540538E-2,-2.5307912E-1,-8.5984424E-2,-3.343091E-1,4.6767168E-2,-2.1873604E-1,-2.912245E-1,1.0331987E-1,-3.2101154E-1,-1.0858453E-1,1.7426227E-1,-2.2749811E-1,3.895387E-1,-2.888278E-3,-2.9978555E-1,1.6648958E-2,-1.732389E-1,3.1575656E-1,-3.026602E-1,-8.411397E-2,-1.2807941E-1,-3.5775372E-1],"categories":[0,1,3,4,5,2,4,6,9,10,11,12,13,14,15,0,2,4,6,8,9,10,11,12,13,14,15,0,1,3,4,5,6,9,11,13,0,3,4,5,6,8,9,10,11,12,13,0,1,3,5,6,7,8,9,10,11,12,13,14,15,0,1,2,4,5,6,8,9,10,11,12,13,14,15,0,1,2,3,5,0,1,3,5,7,9,10,11,12,13,0,1,2,3,4,6,7,8,11,13,0,1,2,3,5,0,1,2,3,4,5,6,7,8,10,11,12,13,0,2,4,8,9,10,11,14,0,1,2,3,4,5,0,1,6,0,2,3,4,5,6,7,8,9,10,11,12,13,0,2,4,4,0,1,0,1,3,4,5,6,7,8,9,10,11,12,13,0,1,3,4,5,6,0,1,3,5,7,9,10,11,13],"categories_nodes":[0,1,2,3,4,10,12,13,14,21,23,26,28,30,32,34,42,44,45,48,53,54,60],"categories_segments":[0,5,15,27,36,47,61,75,80,90,100,101,105,118,126,132,135,148,151,152,154,167,173],"categories_sizes":[5,10,12,9,11,14,14,5,10,10,1,4,13,8,6,3,13,3,1,2,13,6,9],"default_left":[0,1,0,1,0,0,0,0,0,0,1,1,1,1,0,1,0,0,0,0,0,1,1,0,0,0,1,0,0,0,1,0,1,0,1,0,0,0,0,0,0,1,1,0,1,0,0,0,0,0,0,0,0,1,0,0,0,0,1,1,0,0,0,0,0,0,0,0,0,0,0,0,0,0,0,0,0,0,0,0,0,0,0,0,0,0,0,0,0,0,0,0,0,0,0,0,0,0,0],"id":0,"left_children":[1,3,5,7,9,11,13,15,17,19,21,23,25,27,29,31,33,35,37,39,41,43,45,47,49,-1,51,53,55,57,59,-1,61,63,65,-1,-1,67,69,-1,-1,71,73,75,77,79,-1,-1,81,-1,-1,83,85,87,89,-1,-1,91,93,95,97,-1,-1,-1,-1,-1,-1,-1,-1,-1,-1,-1,-1,-1,-1,-1,-1,-1,-1,-1,-1,-1,-1,-1,-1,-1,-1,-1,-1,-1,-1,-1,-1,-1,-1,-1,-1,-1,-1],"loss_changes":[2.4291861E2,7.386055E1,5.7576942E1,4.1063797E1,1.946081E1,1.8470444E1,1.9832962E1,1.9018524E1,4.909833E0,8.152044E0,1.0516972E1,6.8580456E0,9.926667E0,1.3920872E1,5.287094E0,2.3813152E0,1.3740936E1,3.815639E-2,2.9538279E0,4.80587E0,2.5771956E0,1.0408148E1,3.1198883E-1,4.5338016E0,5.838394E-2,0E0,6.129375E0,8.179926E0,3.2675114E0,4.0980663E0,2.4464722E0,0E0,1.8133743E0,2.1612473E0,8.280334E0,0E0,0E0,2.3244772E0,3.4200044E0,0E0,0E0,3.0511172E0,1.5953927E0,4.3125715E0,3.4197977E0,2.3526287E-1,0E0,0E0,7.795232E-1,0E0,0E0,5.4937487E0,1.6017437E-2,4.059317E0,5.6804914E0,0E0,0E0,1.9519172E0,4.3305483E0,4.028942E0,1.06170654E-1,0E0,0E0,0E0,0E0,0E0,0E0,0E0,0E0,0E0,0E0,0E0,0E0,0E0,0E0,0E0,0E0,0E0,0E0,0E0,0E0,0E0,0E0,0E0,0E0,0E0,0E0,0E0,0E0,0E0,0E0,0E0,0E0,0E0,0E0,0E0,0E0,0E0,0E0],"parents":[2147483647,0,0,1,1,2,2,3,3,4,4,5,5,6,6,7,7,8,8,9,9,10,10,11,11,12,12,13,13,14,14,15,15,16,16,17,17,18,18,19,19,20,20,21,21,22,22,23,23,24,24,26,26,27,27,28,28,29,29,30,30,32,32,33,33,34,34,37,37,38,38,41,41,42,42,43,43,44,44,45,45,48,48,51,51,52,52,53,53,54,54,57,57,58,58,59,59,60,60],"right_children":[2,4,6,8,10,12,14,16,18,20,22,24,26,28,30,32,34,36,38,40,42,44,46,48,50,-1,52,54,56,58,60,-1,62,64,66,-1,-1,68,70,-1,-1,72,74,76,78,80,-1,-1,82,-1,-1,84,86,88,90,-1,-1,92,94,96,98,-1,-1,-1,-1,-1,-1,-1,-1,-1,-1,-1,-1,-1,-1,-1,-1,-1,-1,-1,-1,-1,-1,-1,-1,-1,-1,-1,-1,-1,-1,-1,-1,-1,-1,-1,-1,-1,-1],"split_conditions":[NaN,NaN,NaN,NaN,NaN,4.711862E4,5.361487E4,3.2E1,3.1E1,5E1,NaN,3.3E1,NaN,NaN,NaN,1.942123E4,3E1,2.9E1,4.602574E4,3.7E1,6.556306E4,NaN,5.423897E4,NaN,2.208663E4,4.8622468E-1,NaN,4.3E1,NaN,2.8163206E5,NaN,3.0148074E-1,NaN,6E1,NaN,-2.3154344E-1,-5.947298E-2,3.349389E4,5.514782E4,8.476612E-2,8.866572E-1,4E1,NaN,3.6E1,NaN,NaN,-5.947298E-2,3.9642468E-1,NaN,2.8353417E-1,7.5677407E-1,2.7E1,2.998773E5,NaN,NaN,4.1352995E-2,-3.5750678E-1,5.6E1,2.8E1,3.9E1,NaN,-2.3154344E-1,1.3733326E-1,2.2900523E-1,-2.0371209E-1,8.375127E-1,2.0022123E-1,1.5212332E-1,5.335717E-1,-2.4259111E-1,1.6934502E-1,-2.4259111E-1,2.1545567E-1,5.174834E-1,4.6767168E-2,-3.6153015E-2,2.3072915E-1,9.540538E-2,-2.5307912E-1,-8.5984424E-2,-3.343091E-1,4.6767168E-2,-2.1873604E-1,-2.912245E-1,1.0331987E-1,-3.2101154E-1,-1.0858453E-1,1.7426227E-1,-2.2749811E-1,3.895387E-1,-2.888278E-3,-2.9978555E-1,1.6648958E-2,-1.732389E-1,3.1575656E-1,-3.026602E-1,-8.411397E-2,-1.2807941E-1,-3.5775372E-1],"split_indices":[3,2,2,4,4,5,5,0,0,0,2,0,2,3,4,5,7,0,5,0,5,4,5,6,5,0,1,0,4,5,2,0,2,0,1,0,0,5,5,0,0,7,4,0,1,1,0,0,4,0,0,0,5,4,4,0,0,7,0,0,4,0,0,0,0,0,0,0,0,0,0,0,0,0,0,0,0,0,0,0,0,0,0,0,0,0,0,0,0,0,0,0,0,0,0,0,0,0,0],"split_type":[1,1,1,1,1,0,0,0,0,0,1,0,1,1,1,0,0,0,0,0,0,1,0,1,0,0,1,0,1,0,1,0,1,0,1,0,0,0,0,0,0,0,1,0,1,1,0,0,1,0,0,0,0,1,1,0,0,0,0,0,1,0,0,0,0,0,0,0,0,0,0,0,0,0,0,0,0,0,0,0,0,0,0,0,0,0,0,0,0,0,0,0,0,0,0,0,0,0,0],"sum_hessian":[3.4178198E2,1.213065E2,2.2047548E2,6.3712914E1,5.7593594E1,3.8335735E1,1.8213974E2,4.7514713E1,1.6198198E1,9.718919E0,4.7874676E1,1.0258859E1,2.8076878E1,3.4376175E1,1.4776357E2,5.039439E0,4.2475277E1,2.5197196E0,1.3678478E1,4.1395397E0,5.5793796E0,3.9775574E1,8.099099E0,4.6794796E0,5.5793796E0,2.5197196E0,2.5557158E1,2.2137537E1,1.2238639E1,1.3318519E1,1.3444504E2,2.1597598E0,2.8796797E0,2.1597598E0,4.0315514E1,1.4398398E0,1.0798799E0,7.0192194E0,6.6592593E0,1.0798799E0,3.0596597E0,3.2396398E0,2.3397398E0,2.8616817E1,1.1158759E1,7.0192194E0,1.0798799E0,2.1597598E0,2.5197196E0,1.7997998E0,3.7795796E0,1.9617817E1,5.939339E0,9.178979E0,1.2958559E1,1.9797797E0,1.0258859E1,8.639039E0,4.6794796E0,4.4455055E1,8.998999E1,1.4398398E0,1.4398398E0,1.0798799E0,1.0798799E0,3.7615814E1,2.6996996E0,4.6794796E0,2.3397398E0,1.6198199E0,5.039439E0,1.6198199E0,1.6198199E0,1.0798799E0,1.2598598E0,6.839239E0,2.1777578E1,2.8796797E0,8.279079E0,1.2598598E0,5.7593594E0,1.2598598E0,1.2598598E0,2.8796797E0,1.6738138E1,4.4994993E0,1.4398398E0,2.3397398E0,6.839239E0,7.5591593E0,5.3993993E0,6.4792795E0,2.1597598E0,2.1597598E0,2.5197196E0,3.3476276E1,1.0978779E1,1.6198199E0,8.837017E1],"tree_param":{"num_deleted":"0","num_feature":"8","num_nodes":"99","size_leaf_vector":"1"}},{"base_weights":[-3.2654516E-2,3.9632002E-1,-8.1578803E-1,1.0624843E0,1.1447182E-1,-7.173787E-2,-9.906165E-1,1.2331461E0,4.3133405E-1,4.1097903E-1,-3.849965E-1,1.98377E-1,-3.197763E-1,-1.0250752E0,7.28319E-2,1.59474E0,8.791627E-1,-7.0896196E-1,7.568779E-1,5.8177507E-1,-3.546172E-1,-8.6948025E-1,-1.0061256E-1,-2.6503718E-1,4.0716428E-1,-8.07567E-1,-1.112097E0,2.434226E-1,-1.394427E-1,-3.4474938E-3,1.7028608E0,1.2777151E0,1.1667029E-2,-4.2176045E-2,-2.5688687E-1,1.2865211E0,-4.8511755E-3,6.702211E-1,-5.165763E-1,-7.9069835E-1,2.0273957E-1,1.579204E-2,-9.7380996E-1,1.8827413E-1,-7.805895E-1,9.039948E-1,-2.3001663E-1,-9.9682635E-1,-2.4001631E-1,-6.327574E-1,-3.4970906E-1,1.6626342E-1,5.295293E-1,4.2050096E-1,1.5958482E-2,4.377715E-1,-1.1098215E-1,5.5215E-2,4.391708E-1,2.5169697E-1,-1.2160243E-1,-2.4338551E-1,2.147953E-1,1.4939462E-1,-2.540718E-1,-5.000298E-3,-2.789286E-1,2.795147E-1,-1.0584328E-1,2.0198208E-1,-1.9638743E-1,-3.045045E-1,-3.8967866E-2,1.1354811E-1,-2.8615358E-1,-4.7375802E-2,-3.2268572E-1,4.0220294E-2,3.4612548E-1,2.1552648E-1,-2.2878239E-1,-3.277288E-1,-1.9287303E-1,2.3381743E-1,-1.9638257E-1,1.650798E-1,-3.1248367E-1],"categories":[0,1,3,4,5,0,1,3,4,5,6,9,10,11,12,13,0,2,4,8,9,10,11,14,15,0,2,4,6,9,10,11,12,13,14,15,0,1,3,4,5,0,1,3,4,5,6,8,9,11,12,13,0,1,2,3,5,6,0,2,3,4,6,7,8,11,13,0,2,4,8,9,10,11,14,15,0,1,4,0,1,3,4,5,3,6,7,9,10,11,12,13,14,15,0,0,1,2,5,7,10,11,12,13,0,3,4,6,0,1,4,0,1,2,4,0,1,2,3,4,5,6,7,8,9,0],"categories_nodes":[0,1,2,3,4,5,7,9,13,14,16,19,24,26,31,38,40,41,43],"categories_segments":[0,5,16,25,36,41,52,58,67,76,79,84,94,95,104,108,111,115,125],"categories_sizes":[5,11,9,11,5,11,6,9,9,3,5,10,1,9,4,3,4,10,1],"default_left":[1,0,0,1,0,1,1,0,0,1,0,0,0,1,1,0,0,0,1,1,1,0,1,0,1,1,0,0,0,0,0,1,0,0,0,0,0,0,0,0,1,1,1,1,1,1,0,0,0,0,0,0,0,0,0,0,0,0,0,0,0,0,0,0,0,0,0,0,0,0,0,0,0,0,0,0,0,0,0,0,0,0,0,0,0,0,0],"id":1,"left_children":[1,3,5,7,9,11,13,15,17,19,21,23,-1,25,27,29,31,33,35,37,39,41,43,-1,45,47,49,-1,-1,-1,51,53,55,-1,-1,57,59,61,63,65,67,69,71,73,75,77,79,81,83,85,-1,-1,-1,-1,-1,-1,-1,-1,-1,-1,-1,-1,-1,-1,-1,-1,-1,-1,-1,-1,-1,-1,-1,-1,-1,-1,-1,-1,-1,-1,-1,-1,-1,-1,-1,-1,-1],"loss_changes":[1.13393654E2,4.0834087E1,1.5466263E1,6.4404373E0,2.3024334E1,6.6037874E0,3.6160202E0,5.0510025E0,6.2219806E0,1.2938339E1,7.908103E0,4.7780585E0,0E0,8.749542E-1,1.9523139E0,4.137356E0,9.56362E0,2.0767713E-1,5.0080767E0,8.116606E0,4.627902E0,1.9857521E0,7.552261E0,0E0,5.615357E0,3.028244E0,9.1322327E-1,0E0,0E0,0E0,6.103821E-1,2.8053684E0,5.9150095E0,0E0,0E0,1.1614151E0,2.395181E0,5.6292686E0,2.6087942E0,1.1165075E0,3.9187121E0,1.8658721E0,5.3234863E-1,6.2840877E0,1.9307852E0,1.7298975E0,4.7307334E0,5.880356E-2,4.2819595E0,4.756795E0,0E0,0E0,0E0,0E0,0E0,0E0,0E0,0E0,0E0,0E0,0E0,0E0,0E0,0E0,0E0,0E0,0E0,0E0,0E0,0E0,0E0,0E0,0E0,0E0,0E0,0E0,0E0,0E0,0E0,0E0,0E0,0E0,0E0,0E0,0E0,0E0,0E0],"parents":[2147483647,0,0,1,1,2,2,3,3,4,4,5,5,6,6,7,7,8,8,9,9,10,10,11,11,13,13,14,14,15,15,16,16,17,17,18,18,19,19,20,20,21,21,22,22,24,24,25,25,26,26,30,30,31,31,32,32,35,35,36,36,37,37,38,38,39,39,40,40,41,41,42,42,43,43,44,44,45,45,46,46,47,47,48,48,49,49],"right_children":[2,4,6,8,10,12,14,16,18,20,22,24,-1,26,28,30,32,34,36,38,40,42,44,-1,46,48,50,-1,-1,-1,52,54,56,-1,-1,58,60,62,64,66,68,70,72,74,76,78,80,82,84,86,-1,-1,-1,-1,-1,-1,-1,-1,-1,-1,-1,-1,-1,-1,-1,-1,-1,-1,-1,-1,-1,-1,-1,-1,-1,-1,-1,-1,-1,-1,-1,-1,-1,-1,-1,-1,-1],"split_conditions":[NaN,NaN,NaN,NaN,NaN,NaN,5.6E1,NaN,3.7E1,NaN,3.7E1,2.7E1,-3.197763E-1,NaN,NaN,3.1E1,NaN,2.8E1,3.411218E4,NaN,4.2E1,2.715465E4,7.310798E4,-2.6503718E-1,NaN,3.7E1,NaN,2.434226E-1,-1.394427E-1,-3.4474938E-3,9.60848E3,NaN,2.917756E4,-4.2176045E-2,-2.5688687E-1,1.636622E4,5E1,2.6E1,NaN,2.9E1,NaN,NaN,2.1960219E5,NaN,3E1,3.398418E4,7.485957E4,1.8912956E5,4.1E1,6.717679E4,-3.4970906E-1,1.6626342E-1,5.295293E-1,4.2050096E-1,1.5958482E-2,4.377715E-1,-1.1098215E-1,5.5215E-2,4.391708E-1,2.5169697E-1,-1.2160243E-1,-2.4338551E-1,2.147953E-1,1.4939462E-1,-2.540718E-1,-5.000298E-3,-2.789286E-1,2.795147E-1,-1.0584328E-1,2.0198208E-1,-1.9638743E-1,-3.045045E-1,-3.8967866E-2,1.1354811E-1,-2.8615358E-1,-4.7375802E-2,-3.2268572E-1,4.0220294E-2,3.4612548E-1,2.1552648E-1,-2.2878239E-1,-3.277288E-1,-1.9287303E-1,2.3381743E-1,-1.9638257E-1,1.650798E-1,-3.1248367E-1],"split_indices":[3,4,2,2,3,4,7,1,0,4,0,0,0,2,1,0,3,0,5,2,0,5,5,0,6,0,4,0,0,0,5,1,5,0,0,5,0,0,1,0,2,4,5,6,7,5,5,5,0,5,0,0,0,0,0,0,0,0,0,0,0,0,0,0,0,0,0,0,0,0,0,0,0,0,0,0,0,0,0,0,0,0,0,0,0,0,0],"split_type":[1,1,1,1,1,1,0,1,0,1,0,0,0,1,1,0,1,0,0,1,0,0,0,0,1,0,1,0,0,0,0,1,0,0,0,0,0,0,1,0,1,1,0,1,0,0,0,0,0,0,0,0,0,0,0,0,0,0,0,0,0,0,0,0,0,0,0,0,0,0,0,0,0,0,0,0,0,0,0,0,0,0,0,0,0,0,0],"sum_hessian":[3.3557462E2,2.1713126E2,1.1844335E2,6.3730614E1,1.5340063E2,2.2803703E1,9.563965E1,4.9415062E1,1.4315552E1,9.636885E1,5.703178E1,1.856118E1,4.242523E0,9.2672874E1,2.9667776E0,2.2710829E1,2.6704235E1,2.9177277E0,1.1397824E1,7.898768E1,1.7381178E1,2.0333572E1,3.6698208E1,2.4799433E0,1.6081236E1,2.9419588E1,6.3253284E1,1.0353196E0,1.931458E0,1.4886901E0,2.122214E1,1.7973717E1,8.730518E0,1.002897E0,1.9148306E0,6.316739E0,5.081085E0,7.346187E1,5.5258055E0,9.516624E0,7.864553E0,2.2331533E0,1.810042E1,2.6263386E1,1.0434824E1,8.800478E0,7.2807584E0,2.1495264E1,7.924324E0,7.6495E0,5.5603783E1,1.5998559E0,1.9622282E1,1.6190163E1,1.7835543E0,1.2322474E0,7.4982715E0,1.1578709E0,5.1588683E0,1.2829583E0,3.7981267E0,1.6999832E0,7.176189E1,1.2325823E0,4.2932234E0,1.6199288E0,7.8966956E0,3.1085312E0,4.7560215E0,1.125302E0,1.1078513E0,1.7064487E1,1.0359327E0,2.308688E1,3.1765068E0,3.8482406E0,6.586583E0,2.531965E0,6.268513E0,2.4927514E0,4.788007E0,1.5280794E1,6.2144694E0,2.0366557E0,5.887668E0,1.8758492E0,5.7736506E0],"tree_param":{"num_deleted":"0","num_feature":"8","num_nodes":"87","size_leaf_vector":"1"}},{"base_weights":[-4.455786E-2,2.6556852E-1,-7.1283036E-1,8.6046326E-1,7.794561E-2,-1.4729607E-1,-8.843445E-1,9.96162E-1,-2.0497145E-1,6.031853E-1,-1.281119E-1,9.119707E-2,-2.9859912E-1,-9.225434E-1,7.073064E-2,1.1919605E0,5.3977865E-1,2.1534774E-1,-4.9506974E-1,1.5268137E0,4.6310344E-1,-4.189589E-1,1.6394225E-1,4.773117E-1,-2.9401514E-1,-5.6791484E-1,-9.800093E-1,-1.2608036E-1,2.0627129E-1,-1.9672023E-2,1.260375E0,-1.7683113E-1,8.2016194E-1,-7.215678E-1,6.006024E-2,1.334023E-1,5.1794904E-1,2.0145467E-1,8.0259174E-1,5.1441735E-1,-5.188885E-1,2.699053E-1,-6.623892E-1,-4.0601462E-1,8.116572E-1,5.708509E-1,-7.4682987E-1,-3.0504984E-1,-9.1300465E-2,-7.2089344E-1,-3.287722E-1,4.7918756E-2,4.010944E-1,-1.926096E-1,8.052881E-2,3.1934708E-1,9.5469594E-2,-2.9825142E-1,-4.051602E-2,1.9994739E-1,-1.600154E-1,2.8028706E-1,-3.813559E-2,-2.1975537E-1,4.5161173E-1,-2.1146123E-1,-4.093986E-2,-2.4577046E-2,1.7463297E-1,-1.9290613E-2,-2.569305E-1,-2.4485429E-1,9.190028E-2,3.167349E-1,-3.8311437E-2,2.7285782E-1,-5.6520905E-2,-4.566141E-2,-3.0659002E-1,1.6414064E-1,-1.6141976E-1,-2.718955E-2,-3.0424842E-1],"categories":[0,1,3,4,5,0,2,4,6,8,9,10,11,12,13,14,15,0,2,4,8,9,10,15,0,1,3,4,5,6,9,11,12,13,0,3,4,5,6,8,9,10,11,13,0,1,3,4,5,6,8,9,11,12,13,0,1,6,0,2,3,4,6,0,1,2,3,5,10,11,12,13,0,2,3,4,0,0,1,3,4,5,6,7,8,9,10,11,12,13,0,1,3,4,5,0,1,2,3,0,1,2,0,0,1,2,4,0,1,2,3,4,5,6,7,8,9,10],"categories_nodes":[0,1,2,3,4,5,7,9,13,24,26,32,37,38,44,45,48,49],"categories_segments":[0,5,17,24,34,44,55,58,63,72,76,77,90,95,99,102,103,107],"categories_sizes":[5,12,7,10,10,11,3,5,9,4,1,13,5,4,3,1,4,11],"default_left":[1,0,0,1,0,1,1,0,0,0,0,0,0,0,1,0,0,0,0,1,0,0,1,0,1,1,0,0,0,0,0,1,1,1,0,0,0,0,1,0,1,1,0,0,1,1,0,0,1,1,0,0,0,0,0,0,0,0,0,0,0,0,0,0,0,0,0,0,0,0,0,0,0,0,0,0,0,0,0,0,0,0,0],"id":2,"left_children":[1,3,5,7,9,11,13,15,17,19,21,23,-1,25,27,29,31,-1,33,35,37,39,41,43,45,47,49,-1,-1,-1,51,53,55,57,-1,-1,-1,59,61,63,65,67,69,71,73,75,77,-1,79,81,-1,-1,-1,-1,-1,-1,-1,-1,-1,-1,-1,-1,-1,-1,-1,-1,-1,-1,-1,-1,-1,-1,-1,-1,-1,-1,-1,-1,-1,-1,-1,-1,-1],"loss_changes":[6.670544E1,2.4482243E1,9.7637825E0,7.8142166E0,1.829323E1,5.1341786E0,2.9133415E0,3.543995E0,2.1693082E0,5.4515133E0,1.0407023E1,3.171424E0,0E0,9.746437E-1,1.4795523E0,2.832634E0,3.3389502E0,0E0,1.0494995E0,4.9271297E-1,3.6371088E0,5.9809294E0,5.55914E0,3.4479225E0,4.6637883E0,2.6577773E0,1.1103287E0,0E0,0E0,0E0,2.3466568E0,1.2687219E0,1.0841842E0,5.93554E-1,0E0,0E0,0E0,9.065147E0,2.3568974E0,9.043916E0,3.8750105E0,6.108114E0,7.8906465E-1,1.2918732E0,1.9677987E0,1.2732277E0,1.0772233E0,0E0,2.3863206E0,4.06301E0,0E0,0E0,0E0,0E0,0E0,0E0,0E0,0E0,0E0,0E0,0E0,0E0,0E0,0E0,0E0,0E0,0E0,0E0,0E0,0E0,0E0,0E0,0E0,0E0,0E0,0E0,0E0,0E0,0E0,0E0,0E0,0E0,0E0],"parents":[2147483647,0,0,1,1,2,2,3,3,4,4,5,5,6,6,7,7,8,8,9,9,10,10,11,11,13,13,14,14,15,15,16,16,18,18,19,19,20,20,21,21,22,22,23,23,24,24,25,25,26,26,30,30,31,31,32,32,33,33,37,37,38,38,39,39,40,40,41,41,42,42,43,43,44,44,45,45,46,46,48,48,49,49],"right_children":[2,4,6,8,10,12,14,16,18,20,22,24,-1,26,28,30,32,-1,34,36,38,40,42,44,46,48,50,-1,-1,-1,52,54,56,58,-1,-1,-1,60,62,64,66,68,70,72,74,76,78,-1,80,82,-1,-1,-1,-1,-1,-1,-1,-1,-1,-1,-1,-1,-1,-1,-1,-1,-1,-1,-1,-1,-1,-1,-1,-1,-1,-1,-1,-1,-1,-1,-1,-1,-1],"split_conditions":[NaN,NaN,NaN,NaN,NaN,NaN,5.6E1,NaN,2.787889E4,NaN,4.2E1,9.124371E4,-2.9859912E-1,NaN,4.4E1,3E1,4.1E1,2.1534774E-1,5.9E1,1.305735E4,4.9E1,2.063231E4,7.06037E4,3E1,NaN,4E1,NaN,-1.2608036E-1,2.0627129E-1,-1.9672023E-2,3.8E1,3.5E1,NaN,4E1,6.006024E-2,1.334023E-1,5.1794904E-1,NaN,NaN,1.422059E4,4.4E1,2.715465E4,2.9E1,7.06037E4,NaN,NaN,1.1624234E5,-3.0504984E-1,NaN,NaN,-3.287722E-1,4.7918756E-2,4.010944E-1,-1.926096E-1,8.052881E-2,3.1934708E-1,9.5469594E-2,-2.9825142E-1,-4.051602E-2,1.9994739E-1,-1.600154E-1,2.8028706E-1,-3.813559E-2,-2.1975537E-1,4.5161173E-1,-2.1146123E-1,-4.093986E-2,-2.4577046E-2,1.7463297E-1,-1.9290613E-2,-2.569305E-1,-2.4485429E-1,9.190028E-2,3.167349E-1,-3.8311437E-2,2.7285782E-1,-5.6520905E-2,-4.566141E-2,-3.0659002E-1,1.6414064E-1,-1.6141976E-1,-2.718955E-2,-3.0424842E-1],"split_indices":[3,2,2,4,4,4,7,1,5,1,7,5,0,4,0,0,7,0,0,5,7,5,5,0,3,7,6,0,0,0,7,0,4,7,0,0,0,3,1,5,0,5,0,5,1,6,5,0,1,2,0,0,0,0,0,0,0,0,0,0,0,0,0,0,0,0,0,0,0,0,0,0,0,0,0,0,0,0,0,0,0,0,0],"split_type":[1,1,1,1,1,1,0,1,0,1,0,0,0,1,0,0,0,0,0,0,0,0,0,0,1,0,1,0,0,0,0,0,1,0,0,0,0,1,1,0,0,0,0,0,1,1,0,0,1,1,0,0,0,0,0,0,0,0,0,0,0,0,0,0,0,0,0,0,0,0,0,0,0,0,0,0,0,0,0,0,0,0,0],"sum_hessian":[3.1994803E2,2.1894461E2,1.0100341E2,5.1636135E1,1.6730847E2,2.3936457E1,7.706695E1,4.5860188E1,5.7759495E0,4.659944E1,1.2070904E2,1.9378962E1,4.5574956E0,7.41359E1,2.931051E0,3.0964138E1,1.4896049E1,1.028832E0,4.7471175E0,4.8330865E0,4.1766354E1,6.0261795E1,6.0447243E1,9.558741E0,9.820221E0,1.18557E1,6.22802E1,1.8094354E0,1.1216155E0,1.599791E0,2.9364347E1,4.293064E0,1.0602984E1,3.5521212E0,1.1949965E0,1.2555892E0,3.577497E0,2.4487146E1,1.727921E1,5.4267063E0,5.4835087E1,5.4173744E1,6.273499E0,2.5657592E0,6.9929814E0,3.2850935E0,6.5351276E0,5.5215564E0,6.334143E0,2.1479048E1,4.0801155E1,2.1115491E0,2.7252798E1,1.8833973E0,2.4096668E0,6.3776793E0,4.225305E0,1.9505043E0,1.6016169E0,1.5053611E1,9.433535E0,1.5130908E1,2.1483004E0,2.51847E0,2.9082365E0,3.632573E1,1.8509361E1,2.5817333E1,2.835641E1,1.8629371E0,4.410562E0,1.535733E0,1.0300262E0,5.452122E0,1.5408593E0,2.1348813E0,1.1502123E0,2.558626E0,3.9765017E0,2.5152068E0,3.8189363E0,7.2363834E0,1.4242664E1],"tree_param":{"num_deleted":"0","num_feature":"8","num_nodes":"83","size_leaf_vector":"1"}},{"base_weights":[-4.4658516E-2,1.8944594E-1,-6.233638E-1,-9.3810993E-1,2.5088477E-1,-1.740912E-1,-7.874582E-1,4.7086842E-2,-3.2010946E-1,4.238725E-1,-1.6135842E-1,2.4844851E-2,-2.8022128E-1,-8.5614747E-1,-1.8488243E-1,5.762272E-1,9.75714E-2,1.0109928E0,-2.322976E-1,1.7395239E-1,-6.8945336E-1,-5.868253E-1,-9.8583096E-1,5.349256E-1,-7.29503E-1,7.5419885E-1,3.6211976E-1,3.108007E-1,-2.7221116E-1,-1.277841E-1,5.249612E-1,-1.21294335E-1,-8.671732E-1,-2.2078265E-1,3.2044843E-1,-6.2400807E-2,-2.371061E-1,-8.086537E-1,2.250488E-2,-8.206111E-2,-3.0192676E-1,3.5564625E-1,-1.0826082E-1,-2.5814814E-2,-2.6311085E-1,1.2719133E-1,3.1596294E-1,1.4271757E-1,-1.6143973E-1,2.1770803E-2,2.2072147E-1,1.361309E-1,-1.5773784E-1,3.2238227E-1,-5.8051888E-2,-3.2064357E-1,-1.3889278E-2,-8.024042E-2,1.400165E-1,-2.8278777E-1,-1.1771447E-1,3.0278108E-1,-1.5989658E-1],"categories":[0,1,3,4,5,0,2,4,8,9,10,0,1,3,4,5,6,7,8,9,10,11,12,13,4,6,9,10,11,12,13,14,15,0,1,3,4,5,6,8,9,11,12,13,0,1,3,4,5,6,9,10,11,0,1,2,4,6,1,2,3,5,0,2,4,8,9,10,0,1,4,0,1,2,4,6,8,9,10,11,12,13,14,15,9,13,14,15,0,1,2,0,1,2,3,4,5,6,7,9,10,11,13,0,1,2,3,4,5,6,7,0,1,3,0,2,3,4,5,9,10,11],"categories_nodes":[0,2,3,4,5,9,10,11,13,14,15,18,20,22,23,26,28],"categories_segments":[0,5,11,24,33,44,53,58,62,68,71,84,88,91,103,111,114],"categories_sizes":[5,6,13,9,11,9,5,4,6,3,13,4,3,12,8,3,8],"default_left":[1,0,0,0,1,1,1,0,0,1,0,1,0,1,1,1,0,0,1,0,1,1,0,1,0,0,1,0,1,0,0,0,0,0,0,0,0,0,0,0,0,0,0,0,0,0,0,0,0,0,0,0,0,0,0,0,0,0,0,0,0,0,0],"id":3,"left_children":[1,3,5,7,9,11,13,-1,-1,15,17,19,-1,21,23,25,27,29,31,33,35,37,39,41,43,45,47,49,51,-1,-1,53,55,-1,57,-1,-1,59,61,-1,-1,-1,-1,-1,-1,-1,-1,-1,-1,-1,-1,-1,-1,-1,-1,-1,-1,-1,-1,-1,-1,-1,-1],"loss_changes":[4.1256615E1,1.5265701E1,6.3278084E0,1.7800331E0,1.4797525E1,3.7641902E0,2.4885406E0,0E0,0E0,7.190325E0,5.3724732E0,2.312355E0,0E0,1.4167976E0,3.455477E0,3.5055885E0,3.8378525E0,4.6860633E0,4.0572615E0,2.6122766E0,1.8084407E-2,2.8618994E0,2.6871872E-1,2.7267218E0,3.87249E-1,4.8093815E0,5.0563664E0,3.0502536E0,3.5417185E0,0E0,0E0,4.6499376E0,1.3785315E0,0E0,1.505302E0,0E0,0E0,4.9179077E-1,4.1490264E0,0E0,0E0,0E0,0E0,0E0,0E0,0E0,0E0,0E0,0E0,0E0,0E0,0E0,0E0,0E0,0E0,0E0,0E0,0E0,0E0,0E0,0E0,0E0,0E0],"parents":[2147483647,0,0,1,1,2,2,3,3,4,4,5,5,6,6,9,9,10,10,11,11,13,13,14,14,15,15,16,16,17,17,18,18,19,19,20,20,21,21,22,22,23,23,24,24,25,25,26,26,27,27,28,28,31,31,32,32,34,34,37,37,38,38],"right_children":[2,4,6,8,10,12,14,-1,-1,16,18,20,-1,22,24,26,28,30,32,34,36,38,40,42,44,46,48,50,52,-1,-1,54,56,-1,58,-1,-1,60,62,-1,-1,-1,-1,-1,-1,-1,-1,-1,-1,-1,-1,-1,-1,-1,-1,-1,-1,-1,-1,-1,-1,-1,-1],"split_conditions":[NaN,2.6E1,NaN,NaN,NaN,NaN,5E1,4.7086842E-2,-3.2010946E-1,NaN,NaN,NaN,-2.8022128E-1,NaN,NaN,NaN,7.419912E4,4.159024E4,NaN,2.7E1,NaN,3.7E1,NaN,NaN,3E1,4.9E1,NaN,4.24704E4,NaN,-1.277841E-1,5.249612E-1,2.9E1,3.3057322E5,-2.2078265E-1,3.9E1,-6.2400807E-2,-2.371061E-1,1.8912956E5,4.1E1,-8.206111E-2,-3.0192676E-1,3.5564625E-1,-1.0826082E-1,-2.5814814E-2,-2.6311085E-1,1.2719133E-1,3.1596294E-1,1.4271757E-1,-1.6143973E-1,2.1770803E-2,2.2072147E-1,1.361309E-1,-1.5773784E-1,3.2238227E-1,-5.8051888E-2,-3.2064357E-1,-1.3889278E-2,-8.024042E-2,1.400165E-1,-2.8278777E-1,-1.1771447E-1,3.0278108E-1,-1.5989658E-1],"split_indices":[3,0,2,4,2,4,7,0,0,4,1,1,0,2,1,2,5,5,2,0,1,0,4,4,0,7,1,5,4,0,0,0,5,0,7,0,0,5,0,0,0,0,0,0,0,0,0,0,0,0,0,0,0,0,0,0,0,0,0,0,0,0,0],"split_type":[1,0,1,1,1,1,0,0,0,1,1,1,0,1,1,1,0,0,1,0,1,0,1,1,0,0,1,0,1,0,0,0,0,0,0,0,0,0,0,0,0,0,0,0,0,0,0,0,0,0,0,0,0,0,0,0,0,0,0,0,0,0,0],"sum_hessian":[3.026558E2,2.1596414E2,8.669164E1,1.0422176E1,2.0554196E2,2.374402E1,6.294762E1,1.0748549E0,9.3473215E0,1.4476617E2,6.0775784E1,1.9584732E1,4.1592884E0,5.6128555E1,6.8190656E0,9.81654E1,4.6600784E1,2.7116196E0,5.8064163E1,1.682834E1,2.7563925E0,2.0038454E1,3.6090103E1,2.944807E0,3.8742585E0,5.2228886E1,4.5936512E1,2.9658297E1,1.6942486E1,1.064651E0,1.6469686E0,5.043673E1,7.6274347E0,1.775706E0,1.5052634E1,1.0080241E0,1.7483685E0,1.4450564E1,5.587889E0,1.4153377E0,3.4674763E1,1.5185697E0,1.4262375E0,1.0179238E0,2.8563344E0,2.5967873E1,2.6261011E1,4.1207928E1,4.728584E0,1.975429E1,9.904007E0,4.1815767E0,1.2760909E1,2.0816267E0,4.8355103E1,5.880836E0,1.7465986E0,2.8338754E0,1.2218759E1,9.975596E0,4.4749684E0,1.7184271E0,3.869462E0],"tree_param":{"num_deleted":"0","num_feature":"8","num_nodes":"63","size_leaf_vector":"1"}},{"base_weights":[-4.5196865E-2,2.6575437E-1,-3.3359516E-1,3.1192508E-1,-7.169474E-1,1.1422997E0,-3.8809574E-1,3.71127E-1,-5.797769E-1,-2.7665365E-1,-2.0498654E-1,3.9139727E-1,6.619199E-2,4.2721514E-2,-5.432194E-1,2.8764448E-1,1.0015824E0,7.307636E-2,-8.839199E-1,-1.8592623E-1,1.00573726E-1,4.0915802E-1,-3.1478494E-1,-3.9158472E-1,-9.332574E-1,-2.3629515E-1,3.215419E-1,1.1421338E0,-9.408413E-2,-1.04579404E-1,1.420966E-1,-2.980361E-1,-5.6121103E-2,-2.3554616E-1,5.541557E-1,-5.310412E-1,6.454916E-1,-5.841913E-1,-1.2625913E-1,-9.926853E-1,6.577805E-2,2.532786E-1,7.4844934E-2,-3.356128E-2,3.993387E-1,2.318918E-1,-8.715829E-2,-2.4005327E-1,-3.0186873E-2,-1.0513679E-1,3.524908E-1,-4.897846E-2,-2.2265765E-1,3.531926E-2,-1.8278955E-1,-3.980768E-2,-3.0646932E-1],"categories":[0,1,3,4,5,6,9,10,11,12,13,14,15,0,1,2,4,5,6,8,9,10,11,12,13,14,15,0,3,11,0,0,0,1,2,4,0,1,2,3,4,5,6,7,8,9,10,11,0,1,3,5,7,9,11,13,0,5,10,11,13,0,1,2,3,4,6,8,9,10,11,12,13,14,15,0,3,5,6,7,8,9,10,11,12,13,14,0,1,2,3,4,5,0],"categories_nodes":[0,1,2,3,4,5,8,10,13,14,16,26,34,36,38],"categories_segments":[0,5,13,27,30,31,32,36,48,56,61,62,75,87,93],"categories_sizes":[5,8,14,3,1,1,4,12,8,5,1,13,12,6,1],"default_left":[0,1,0,1,0,1,0,1,1,0,1,0,0,1,1,0,1,1,1,0,0,0,1,0,1,0,0,0,0,0,0,0,0,0,1,0,1,1,1,0,0,0,0,0,0,0,0,0,0,0,0,0,0,0,0,0,0],"id":4,"left_children":[1,3,5,7,9,11,13,15,17,-1,19,-1,-1,21,23,25,27,29,31,-1,-1,33,35,37,39,-1,41,43,-1,-1,-1,-1,-1,-1,45,47,49,51,53,55,-1,-1,-1,-1,-1,-1,-1,-1,-1,-1,-1,-1,-1,-1,-1,-1,-1],"loss_changes":[2.6019154E1,6.561756E0,1.2545858E1,7.2954473E0,5.0147533E-1,5.51878E-1,9.77021E0,6.363531E0,1.8001006E0,0E0,9.1727257E-1,0E0,0E0,5.3085732E0,5.9811306E0,4.372262E0,3.0154505E0,7.903393E-1,2.7510166E-1,0E0,0E0,3.8917186E0,4.616268E0,3.9629927E0,2.2256145E0,0E0,3.9425478E0,3.2779312E0,0E0,0E0,0E0,0E0,0E0,0E0,3.622841E0,1.9287233E0,2.6444387E0,2.9043808E0,4.1377563E0,5.6134415E-1,0E0,0E0,0E0,0E0,0E0,0E0,0E0,0E0,0E0,0E0,0E0,0E0,0E0,0E0,0E0,0E0,0E0],"parents":[2147483647,0,0,1,1,2,2,3,3,4,4,5,5,6,6,7,7,8,8,10,10,13,13,14,14,15,15,16,16,17,17,18,18,21,21,22,22,23,23,24,24,26,26,27,27,34,34,35,35,36,36,37,37,38,38,39,39],"right_children":[2,4,6,8,10,12,14,16,18,-1,20,-1,-1,22,24,26,28,30,32,-1,-1,34,36,38,40,-1,42,44,-1,-1,-1,-1,-1,-1,46,48,50,52,54,56,-1,-1,-1,-1,-1,-1,-1,-1,-1,-1,-1,-1,-1,-1,-1,-1,-1],"split_conditions":[NaN,NaN,NaN,NaN,NaN,NaN,5.054868E4,5.958877E4,NaN,-2.7665365E-1,NaN,3.9139727E-1,6.619199E-2,NaN,NaN,2.5E1,NaN,3.349389E4,4.5E1,-1.8592623E-1,1.00573726E-1,1.247584E4,5.3E1,5E1,5.8E1,-2.3629515E-1,NaN,3.1E1,-9.408413E-2,-1.04579404E-1,1.420966E-1,-2.980361E-1,-5.6121103E-2,-2.3554616E-1,NaN,3.814298E4,NaN,5.361487E4,NaN,1.8E1,6.577805E-2,2.532786E-1,7.4844934E-2,-3.356128E-2,3.993387E-1,2.318918E-1,-8.715829E-2,-2.4005327E-1,-3.0186873E-2,-1.0513679E-1,3.524908E-1,-4.897846E-2,-2.2265765E-1,3.531926E-2,-1.8278955E-1,-3.980768E-2,-3.0646932E-1],"split_indices":[3,2,2,4,6,6,5,5,1,0,2,0,0,4,4,7,1,5,7,0,0,5,0,7,0,0,2,0,0,0,0,0,0,0,2,5,2,5,3,7,0,0,0,0,0,0,0,0,0,0,0,0,0,0,0,0,0],"split_type":[1,1,1,1,1,1,0,0,1,0,1,0,0,1,1,0,1,0,0,0,0,0,0,0,0,0,1,0,0,0,0,0,0,0,1,0,1,0,1,0,0,0,0,0,0,0,0,0,0,0,0,0,0,0,0,0,0],"sum_hessian":[2.8815182E2,1.3869225E2,1.4945958E2,1.3312038E2,5.5718694E0,4.611774E0,1.4484781E2,1.25379944E2,7.740432E0,3.4054477E0,2.1664214E0,3.567736E0,1.0440379E0,3.8539246E1,1.06308556E2,1.1200492E2,1.3375021E1,2.701437E0,5.0389953E0,1.1422505E0,1.0241709E0,1.8960577E1,1.9578667E1,7.799175E1,2.8316803E1,2.7433705E0,1.0926155E2,1.2202555E1,1.1724669E0,1.3792825E0,1.3221544E0,3.9867113E0,1.0522839E0,1.5747539E0,1.7385824E1,1.634478E1,3.2338865E0,4.449205E1,3.3499702E1,2.7060163E1,1.2566383E0,1.1938979E1,9.732258E1,1.6516613E0,1.0550893E1,1.387609E1,3.5097337E0,9.5279665E0,6.816814E0,1.239846E0,1.9940405E0,1.2697625E1,3.1794428E1,2.2759718E1,1.0739985E1,1.0609441E0,2.599922E1],"tree_param":{"num_deleted":"0","num_feature":"8","num_nodes":"57","size_leaf_vector":"1"}},{"base_weights":[-4.309173E-2,9.4841786E-2,-4.6433666E-1,-2.939044E-1,1.2959354E-1,-2.8381425E-1,-8.8688225E-1,2.9689944E-1,-4.8448484E-2,-5.118811E-1,1.12348504E-1,-9.216331E-1,-9.529127E-2,5.6123686E-1,5.8512236E-3,8.5970217E-1,-1.5346295E-1,-1.5802015E-1,-6.7285556E-1,5.1536345E-1,-2.9520747E-1,-2.891176E-1,-8.8801205E-2,1.2461764E0,4.6824583E-1,-6.9283444E-1,9.57034E-2,5.3467467E-2,1.1705955E0,-7.981049E-1,-6.70431E-2,-2.3697971E-1,1.261134E-1,3.841419E-2,-7.5370455E-1,7.701247E-1,-1.1962982E-1,2.0991017E-1,-5.004662E-1,1.2102761E-1,4.0745416E-1,4.437202E-3,1.9571681E-1,-2.5555545E-2,-2.903262E-1,1.0367669E-1,-5.689083E-2,1.9646809E-1,-1.6340768E-1,4.12728E-1,9.290099E-2,-2.967087E-1,1.4987761E-1,-1.3275194E-1,2.3837252E-2,1.6102642E-1,-1.5008858E-1,-9.315821E-2,1.1490398E-1,-1.2485371E-1,-2.7829814E-1,3.1794858E-1,-1.2206879E-3,-2.0986897E-1,1.01365626E-1],"categories":[0,1,3,4,5,1,3,5,11,12,13,0,2,4,6,8,9,10,11,12,13,14,15,0,1,3,4,5,6,7,9,10,11,12,0,2,4,6,1,2,3,4,5,0,2,3,4,5,6,7,8,9,10,11,12,13,14,15,0,1,0,1,5,6,0,1,2,3,4,5,6,7,8,0,1,3,5,6,7,8,9,0,1,2,2,4,5,0],"categories_nodes":[0,2,4,7,8,9,10,18,26,27,28,32,34,35],"categories_segments":[0,5,11,23,34,38,43,58,60,64,73,81,84,87],"categories_sizes":[5,6,12,11,4,5,15,2,4,9,8,3,3,1],"default_left":[1,0,1,0,1,1,1,1,0,1,1,1,0,0,0,0,0,0,1,1,0,0,0,0,0,0,0,0,1,1,0,0,1,1,0,1,0,0,1,0,0,0,0,0,0,0,0,0,0,0,0,0,0,0,0,0,0,0,0,0,0,0,0,0,0],"id":5,"left_children":[1,3,5,-1,7,9,11,13,15,17,19,21,-1,23,25,27,29,31,33,35,37,-1,-1,39,41,43,45,47,49,51,53,-1,55,57,59,61,-1,-1,63,-1,-1,-1,-1,-1,-1,-1,-1,-1,-1,-1,-1,-1,-1,-1,-1,-1,-1,-1,-1,-1,-1,-1,-1,-1,-1],"loss_changes":[1.60503E1,7.9072633E0,4.944562E0,0E0,6.0526266E0,4.5028963E0,1.013298E-1,8.047696E0,9.579579E0,1.6825857E0,3.2393968E0,1.9530201E-1,0E0,2.9087334E0,3.2565432E0,2.54908E0,4.940587E0,2.0973368E0,1.2525902E0,2.5928223E0,2.3884592E0,0E0,0E0,1.3911247E-2,4.1551237E0,9.051719E-1,3.3386998E0,1.776848E0,8.937397E-1,3.0969243E0,4.443276E0,0E0,2.4646575E0,4.945025E-1,7.386217E-1,1.8023801E0,0E0,0E0,1.7147412E0,0E0,0E0,0E0,0E0,0E0,0E0,0E0,0E0,0E0,0E0,0E0,0E0,0E0,0E0,0E0,0E0,0E0,0E0,0E0,0E0,0E0,0E0,0E0,0E0,0E0,0E0],"parents":[2147483647,0,0,1,1,2,2,4,4,5,5,6,6,7,7,8,8,9,9,10,10,11,11,13,13,14,14,15,15,16,16,17,17,18,18,19,19,20,20,23,23,24,24,25,25,26,26,27,27,28,28,29,29,30,30,32,32,33,33,34,34,35,35,38,38],"right_children":[2,4,6,-1,8,10,12,14,16,18,20,22,-1,24,26,28,30,32,34,36,38,-1,-1,40,42,44,46,48,50,52,54,-1,56,58,60,62,-1,-1,64,-1,-1,-1,-1,-1,-1,-1,-1,-1,-1,-1,-1,-1,-1,-1,-1,-1,-1,-1,-1,-1,-1,-1,-1,-1,-1],"split_conditions":[NaN,2.4E1,NaN,-2.939044E-1,NaN,3.7E1,1.9405427E5,NaN,NaN,NaN,NaN,5E1,-9.529127E-2,1.87591E4,3.1E1,2.513457E4,3.7E1,2.8E1,NaN,1.393183E5,4E1,-2.891176E-1,-8.8801205E-2,3.5E1,3.373079E4,4.344515E4,NaN,NaN,NaN,2.0160608E5,3.9E1,-2.3697971E-1,NaN,7.419912E4,NaN,NaN,-1.1962982E-1,2.0991017E-1,5E1,1.2102761E-1,4.0745416E-1,4.437202E-3,1.9571681E-1,-2.5555545E-2,-2.903262E-1,1.0367669E-1,-5.689083E-2,1.9646809E-1,-1.6340768E-1,4.12728E-1,9.290099E-2,-2.967087E-1,1.4987761E-1,-1.3275194E-1,2.3837252E-2,1.6102642E-1,-1.5008858E-1,-9.315821E-2,1.1490398E-1,-1.2485371E-1,-2.7829814E-1,3.1794858E-1,-1.2206879E-3,-2.0986897E-1,1.01365626E-1],"split_indices":[3,0,4,0,2,0,5,4,1,1,2,7,0,5,0,5,7,0,3,5,0,0,0,0,5,5,1,4,2,5,0,0,2,5,2,6,0,0,7,0,0,0,0,0,0,0,0,0,0,0,0,0,0,0,0,0,0,0,0,0,0,0,0,0,0],"split_type":[1,0,1,0,1,0,0,1,1,1,1,0,0,0,0,0,0,0,1,0,0,0,0,0,0,0,1,1,1,0,0,0,1,0,1,1,0,0,0,0,0,0,0,0,0,0,0,0,0,0,0,0,0,0,0,0,0,0,0,0,0,0,0,0,0],"sum_hessian":[2.7447702E2,2.0735503E2,6.7122E1,5.6442475E0,2.0171078E2,4.8200977E1,1.8921026E1,1.0364661E2,9.806417E1,3.0405022E1,1.7795958E1,1.7248976E1,1.6720499E0,5.382921E1,4.9817398E1,9.41946E0,8.8644714E1,1.0126394E1,2.0278627E1,8.814825E0,8.981132E0,1.5655284E1,1.5936922E0,4.9521756E0,4.8877033E1,4.9119E0,4.4905495E1,2.9475663E0,6.4718947E0,9.505321E0,7.913939E1,2.5887897E0,7.5376043E0,2.1233451E0,1.8155283E1,7.016821E0,1.7980044E0,1.1240221E0,7.8571095E0,1.1208041E0,3.8313715E0,1.4428078E1,3.4448956E1,1.9380722E0,2.973828E0,2.3827477E1,2.107802E1,1.4224756E0,1.5250906E0,4.743488E0,1.7284068E0,8.493562E0,1.0117593E0,2.1645102E1,5.749429E1,4.639385E0,2.898219E0,1.1041522E0,1.0191928E0,7.3284273E0,1.0826856E1,4.8376307E0,2.1791902E0,6.4830284E0,1.374081E0],"tree_param":{"num_deleted":"0","num_feature":"8","num_nodes":"65","size_leaf_vector":"1"}},{"base_weights":[-3.92516E-2,-8.176789E-1,1.5108071E-2,-2.8357613E-1,-2.7704296E-1,9.7977325E-2,-3.0466062E-1,-2.124698E-1,5.7236202E-2,1.2438095E-1,-6.2809163E-1,1.1688858E-1,-5.0354147E-1,1.6066684E-1,-3.4044787E-1,3.5547543E-2,-2.7709615E-1,-2.514341E-1,4.305991E-1,-5.981805E-1,3.8105813E-1,1.8250579E-1,-6.038162E-1,-5.311493E-1,3.4011254E-1,4.4173613E-1,-7.1088743E-1,9.4582283E-1,-1.1097255E-1,-3.351785E-1,-7.434558E-1,-8.052525E-2,2.2329143E-1,2.8290479E-2,1.3006201E-1,-2.987367E-1,1.3667017E-1,-5.5100095E-2,-2.5162175E-1,-1.2181217E-1,3.271989E-1,2.6263928E-2,2.1829866E-1,5.8312006E-3,-2.8524485E-1,3.7443727E-1,1.23614315E-2,-2.1861656E-1,7.586871E-2,9.612616E-3,-2.0064811E-1,-1.4319139E-2,-2.532048E-1],"categories":[0,0,1,3,4,5,9,13,14,15,0,2,4,6,7,8,9,10,11,12,13,14,15,0,3,4,11,4,0,1,2,3,4,5,6,7,8,9,10,11,12,13,14,0,1,2,3,4,5,6,7,0,1,2,0,2,3,4,5,0,1,2,3,4,5,6,8,9,10,11],"categories_nodes":[1,2,5,6,9,10,19,20,22,26,27],"categories_segments":[0,1,6,10,23,27,28,43,51,54,59],"categories_sizes":[1,5,4,13,4,1,15,8,3,5,11],"default_left":[0,0,1,0,0,1,0,0,0,1,0,1,1,1,1,0,0,0,0,1,1,1,1,0,1,0,1,1,0,0,0,0,0,0,0,0,0,0,0,0,0,0,0,0,0,0,0,0,0,0,0,0,0],"id":6,"left_children":[1,3,5,7,-1,9,11,-1,-1,13,15,17,19,21,23,-1,-1,25,27,29,31,33,35,37,39,41,43,45,47,49,51,-1,-1,-1,-1,-1,-1,-1,-1,-1,-1,-1,-1,-1,-1,-1,-1,-1,-1,-1,-1,-1,-1],"loss_changes":[1.1180328E1,7.126198E-1,6.5930867E0,1.0002037E0,0E0,3.8635836E0,4.3530045E0,0E0,0E0,3.2824037E0,1.674814E0,2.0991583E0,3.1571665E0,3.0851355E0,2.0206532E0,0E0,0E0,3.0391273E0,2.8041847E0,9.733381E-1,1.1416767E0,3.8120227E0,2.6050582E0,1.0713172E0,2.5221071E0,3.4417403E-1,9.873154E-1,1.3329692E0,1.4455703E0,1.6394969E0,1.3443136E0,0E0,0E0,0E0,0E0,0E0,0E0,0E0,0E0,0E0,0E0,0E0,0E0,0E0,0E0,0E0,0E0,0E0,0E0,0E0,0E0,0E0,0E0],"parents":[2147483647,0,0,1,1,2,2,3,3,5,5,6,6,9,9,10,10,11,11,12,12,13,13,14,14,17,17,18,18,19,19,20,20,21,21,22,22,23,23,24,24,25,25,26,26,27,27,28,28,29,29,30,30],"right_children":[2,4,6,8,-1,10,12,-1,-1,14,16,18,20,22,24,-1,-1,26,28,30,32,34,36,38,40,42,44,46,48,50,52,-1,-1,-1,-1,-1,-1,-1,-1,-1,-1,-1,-1,-1,-1,-1,-1,-1,-1,-1,-1,-1,-1],"split_conditions":[2.6E1,NaN,NaN,2.4E1,-2.7704296E-1,NaN,NaN,-2.124698E-1,5.7236202E-2,NaN,NaN,6.297592E4,5.5E1,6.5E1,5.4E1,3.5547543E-2,-2.7709615E-1,4.5239E4,9.124371E4,NaN,NaN,4.7E1,NaN,4.7E1,4.006893E4,3.398418E4,NaN,NaN,9.913605E4,4.5E1,5.054868E4,-8.052525E-2,2.2329143E-1,2.8290479E-2,1.3006201E-1,-2.987367E-1,1.3667017E-1,-5.5100095E-2,-2.5162175E-1,-1.2181217E-1,3.271989E-1,2.6263928E-2,2.1829866E-1,5.8312006E-3,-2.8524485E-1,3.7443727E-1,1.23614315E-2,-2.1861656E-1,7.586871E-2,9.612616E-3,-2.0064811E-1,-1.4319139E-2,-2.532048E-1],"split_indices":[0,3,3,0,0,2,2,0,0,4,1,5,7,0,0,0,0,5,5,2,2,0,4,0,5,5,3,4,5,0,5,0,0,0,0,0,0,0,0,0,0,0,0,0,0,0,0,0,0,0,0,0,0],"split_type":[0,1,1,0,0,1,1,0,0,1,1,0,0,0,0,0,0,0,0,1,1,0,1,0,0,0,1,1,0,0,0,0,0,0,0,0,0,0,0,0,0,0,0,0,0,0,0,0,0,0,0,0,0],"sum_hessian":[2.6292438E2,1.6245646E1,2.4667871E2,3.2944562E0,1.295119E1,1.9645918E2,5.0219532E1,1.4781656E0,1.8162907E0,1.9036522E2,6.093972E0,1.6230185E1,3.398935E1,1.7718777E2,1.317744E1,1.8982165E0,4.195756E0,7.556606E0,8.673579E0,3.0996922E1,2.9924266E0,1.7300676E2,4.181007E0,1.0464655E1,2.712784E0,3.0275497E0,4.529056E0,4.0623884E0,4.611191E0,1.2206269E1,1.8790651E1,1.1669714E0,1.8254552E0,1.2904185E2,4.3964905E1,3.0956452E0,1.0853615E0,5.6636176E0,4.8010373E0,1.5905563E0,1.1222278E0,1.935787E0,1.0917628E0,1.3472171E0,3.1818392E0,2.7602537E0,1.3021349E0,1.3376007E0,3.27359E0,6.241123E0,5.9651465E0,2.5592334E0,1.6231419E1],"tree_param":{"num_deleted":"0","num_feature":"8","num_nodes":"53","size_leaf_vector":"1"}},{"base_weights":[-3.741519E-2,-7.5116783E-1,4.8392327E-3,-2.8476807E-1,-3.877637E-1,4.221545E-1,-3.8908403E-2,-6.770456E-1,1.1009393E-1,5.744557E-1,-3.273634E-1,9.1062486E-2,-1.9778414E-1,-2.4571095E-1,-1.4157435E-2,-7.937374E-2,6.5400237E-1,1.0234802E-1,-2.098857E-1,2.4384465E-2,5.5957E-1,2.2107099E-1,-2.912259E-1,7.6948977E-1,2.2289927E-1,9.67388E-2,-2.7817434E-1,7.059393E-1,-1.2930317E-1,4.1972974E-1,-4.8893836E-1,7.3823005E-2,-4.0279803E-1,1.21683076E-1,3.357873E-1,2.0424967E-1,-2.2080411E-1,-8.135089E-3,1.0290766E-1,2.6399174E-1,-1.4469635E-1,-5.99907E-2,2.390649E-1,1.7812261E-1,-1.4145164E-1,-2.5362545E-3,-1.9239815E-1,1.0320238E-1,-2.1516486E-1,-9.184145E-2,-2.387598E-1],"categories":[0,1,2,4,6,8,9,10,11,12,13,14,15,0,1,2,0,0,1,3,4,5,0,1,7,0,1,3,4,5,6,7,9,10,11,12,13,2,3,5,6,7,9,10,11,12,13,14,15,0,3,4,5,6,8,0,1,2,3,0,2,3,4,5,0,2,3,5,6,7,8,9,10,11,12,13,14,0,5,11,13],"categories_nodes":[2,4,5,6,10,12,19,20,21,29,31,32],"categories_segments":[0,13,16,17,22,25,37,49,55,59,64,77],"categories_sizes":[13,3,1,5,3,12,12,6,4,5,13,4],"default_left":[0,1,0,0,1,1,0,1,0,0,1,1,0,0,0,0,1,0,0,1,1,1,0,0,0,1,0,0,0,1,0,1,1,0,0,0,0,0,0,0,0,0,0,0,0,0,0,0,0,0,0],"id":7,"left_children":[1,3,5,-1,7,9,11,13,-1,15,17,19,21,-1,-1,-1,23,-1,-1,25,27,29,31,33,35,37,39,41,-1,43,45,47,49,-1,-1,-1,-1,-1,-1,-1,-1,-1,-1,-1,-1,-1,-1,-1,-1,-1,-1],"loss_changes":[7.708454E0,6.601019E-1,4.437916E0,0E0,1.7177987E0,2.8208776E0,4.5633664E0,4.2788506E-1,0E0,1.4766469E0,1.3665498E0,3.7900262E0,3.9532926E0,0E0,0E0,0E0,7.3104906E-1,0E0,0E0,2.3832047E0,2.4971504E0,2.8417187E0,3.356122E0,1.3140583E0,2.8012588E0,2.6816032E0,5.3967233E0,1.2762117E0,0E0,2.6284966E0,3.276193E-1,4.513437E0,2.1388483E0,0E0,0E0,0E0,0E0,0E0,0E0,0E0,0E0,0E0,0E0,0E0,0E0,0E0,0E0,0E0,0E0,0E0,0E0],"parents":[2147483647,0,0,1,1,2,2,4,4,5,5,6,6,7,7,9,9,10,10,11,11,12,12,16,16,19,19,20,20,21,21,22,22,23,23,24,24,25,25,26,26,27,27,29,29,30,30,31,31,32,32],"right_children":[2,4,6,-1,8,10,12,14,-1,16,18,20,22,-1,-1,-1,24,-1,-1,26,28,30,32,34,36,38,40,42,-1,44,46,48,50,-1,-1,-1,-1,-1,-1,-1,-1,-1,-1,-1,-1,-1,-1,-1,-1,-1,-1],"split_conditions":[2.6E1,4E1,NaN,-2.8476807E-1,NaN,NaN,NaN,1.4093086E5,1.1009393E-1,3.1E1,NaN,5.773091E4,NaN,-2.4571095E-1,-1.4157435E-2,-7.937374E-2,5.2E1,1.0234802E-1,-2.098857E-1,NaN,NaN,NaN,4.159024E4,5.26506E4,4.112417E4,4.2E1,1.576295E4,3.1E1,-1.2930317E-1,NaN,5.26506E4,NaN,NaN,1.21683076E-1,3.357873E-1,2.0424967E-1,-2.2080411E-1,-8.135089E-3,1.0290766E-1,2.6399174E-1,-1.4469635E-1,-5.99907E-2,2.390649E-1,1.7812261E-1,-1.4145164E-1,-2.5362545E-3,-1.9239815E-1,1.0320238E-1,-2.1516486E-1,-9.184145E-2,-2.387598E-1],"split_indices":[0,7,2,0,4,6,3,5,0,0,4,5,4,0,0,0,0,0,0,2,4,1,5,5,5,7,5,0,0,3,5,2,4,0,0,0,0,0,0,0,0,0,0,0,0,0,0,0,0,0,0],"split_type":[0,0,1,0,1,1,1,0,0,0,1,0,1,0,0,0,0,0,0,1,1,1,0,0,0,0,0,0,0,1,0,1,1,0,0,0,0,0,0,0,0,0,0,0,0,0,0,0,0,0,0],"sum_hessian":[2.5447154E2,1.3285108E1,2.4118645E2,7.5553303E0,5.7297773E0,2.2064083E1,2.1912236E2,4.2165737E0,1.5132036E0,1.8531973E1,3.5321093E0,1.2075973E2,9.836263E1,3.1957762E0,1.0207974E0,1.4033868E0,1.7128586E1,1.2932073E0,2.238902E0,1.06635414E2,1.4124313E1,1.7691986E1,8.067065E1,1.2890455E1,4.2381315E0,8.6604866E1,2.0030544E1,1.2556324E1,1.5679889E0,1.4143509E1,3.5484774E0,1.8963375E1,6.170727E1,7.3765583E0,5.5138965E0,3.0646098E0,1.1735218E0,5.8217575E1,2.8387291E1,2.5055883E0,1.7524956E1,1.0361552E0,1.1520169E1,1.2112384E1,2.0311248E0,1.1085811E0,2.4398963E0,1.455659E1,4.406785E0,5.0955566E1,1.0751708E1],"tree_param":{"num_deleted":"0","num_feature":"8","num_nodes":"51","size_leaf_vector":"1"}},{"base_weights":[-3.265424E-2,-6.853415E-1,9.607992E-4,-1.5899324E-1,-8.250443E-1,1.019991E-1,-1.2769249E-1,-1.7375585E-1,6.655417E-2,-2.7223095E-1,-8.352572E-2,1.8344215E-1,-2.814811E-1,4.5246076E-2,-4.322952E-1,3.2811177E-1,-2.0629495E-2,-5.970609E-1,2.4108237E-1,1.1292286E-1,-6.693077E-1,-1.6557889E-1,-7.6086676E-1,5.788215E-1,1.4081223E-1,-3.0688062E-1,2.2408439E-1,-2.5464508E-1,-9.0539426E-1,8.5317147E-1,-8.142253E-2,-1.2129416E-1,3.6629248E-1,5.075422E-2,-2.791443E-1,-3.4717116E-1,6.433625E-1,-8.1298405E-1,-8.483661E-2,1.0119567E-1,2.445426E-1,2.5508013E-2,3.1377187E-1,2.0484936E-1,-1.2136333E-1,1.5546575E-1,-3.6162484E-2,4.451165E-2,-2.4965668E-1,-3.0097318E-1,-1.0974702E-1,3.5665616E-1,4.3823194E-2,2.2104512E-1,-1.2699352E-1,1.6174579E-2,-2.3007943E-1,1.4426756E-1,-2.2720182E-1,-1.5569144E-1,3.3160686E-2,-2.9851811E-2,3.293184E-1,-1.23685755E-1,-2.8404716E-1],"categories":[0,2,4,6,8,9,10,11,12,13,14,15,0,1,3,4,5,11,12,13,0,3,11,0,1,5,6,0,1,3,5,6,7,9,10,11,12,13,14,15,0,1,3,4,5,6,7,11,12,13,4,0,1,2,4,5,6,7,8,9,10,11,12,13,14,15,0,1,2,3,4,5,6,8,9,10,0,2,3,4,5,6,7,8,9,10,11,12,13],"categories_nodes":[1,2,5,6,11,13,15,18,25,26,30],"categories_segments":[0,1,12,20,23,27,40,50,51,66,76],"categories_sizes":[1,11,8,3,4,13,10,1,15,10,13],"default_left":[0,0,1,0,0,1,0,0,0,0,0,0,1,1,1,0,0,0,0,1,0,1,1,0,1,0,1,1,1,0,1,1,0,0,0,0,0,1,0,0,0,0,0,0,0,0,0,0,0,0,0,0,0,0,0,0,0,0,0,0,0,0,0,0,0],"id":8,"left_children":[1,3,5,7,9,11,13,-1,-1,-1,-1,15,17,19,21,23,25,27,29,31,33,35,37,39,41,43,45,47,49,51,53,55,57,-1,-1,59,61,63,-1,-1,-1,-1,-1,-1,-1,-1,-1,-1,-1,-1,-1,-1,-1,-1,-1,-1,-1,-1,-1,-1,-1,-1,-1,-1,-1],"loss_changes":[5.4102154E0,7.569394E-1,3.074037E0,7.3211455E-1,1.6646719E-1,4.1883698E0,5.499586E0,0E0,0E0,0E0,0E0,3.2500339E0,4.035333E0,3.328244E0,3.183867E0,2.9399E0,3.3269622E0,1.3531008E0,1.9639637E0,3.7413826E0,1.463402E0,3.4734025E0,1.8479729E-1,1.2769718E0,1.8373282E0,2.3891077E0,2.6628861E0,2.1015675E0,2.904129E-2,6.330857E-1,2.3256085E0,3.7883427E0,4.249629E0,0E0,0E0,1.529242E0,1.5965863E0,3.8589E-1,0E0,0E0,0E0,0E0,0E0,0E0,0E0,0E0,0E0,0E0,0E0,0E0,0E0,0E0,0E0,0E0,0E0,0E0,0E0,0E0,0E0,0E0,0E0,0E0,0E0,0E0,0E0],"parents":[2147483647,0,0,1,1,2,2,3,3,4,4,5,5,6,6,11,11,12,12,13,13,14,14,15,15,16,16,17,17,18,18,19,19,20,20,21,21,22,22,23,23,24,24,25,25,26,26,27,27,28,28,29,29,30,30,31,31,32,32,35,35,36,36,37,37],"right_children":[2,4,6,8,10,12,14,-1,-1,-1,-1,16,18,20,22,24,26,28,30,32,34,36,38,40,42,44,46,48,50,52,54,56,58,-1,-1,60,62,64,-1,-1,-1,-1,-1,-1,-1,-1,-1,-1,-1,-1,-1,-1,-1,-1,-1,-1,-1,-1,-1,-1,-1,-1,-1,-1,-1],"split_conditions":[2.6E1,NaN,NaN,2.4E1,8.421506E5,NaN,NaN,-1.7375585E-1,6.655417E-2,-2.7223095E-1,-8.352572E-2,NaN,3.9E1,NaN,3.795586E4,NaN,4.9E1,4.3E1,NaN,3.8E1,4.6E1,3.349389E4,5.4E1,4.9E1,2.1727734E5,NaN,NaN,5.958877E4,5E1,6.680894E4,NaN,3.2E1,6.1E1,5.075422E-2,-2.791443E-1,6.8E1,4.1E1,1.7E1,-8.483661E-2,1.0119567E-1,2.445426E-1,2.5508013E-2,3.1377187E-1,2.0484936E-1,-1.2136333E-1,1.5546575E-1,-3.6162484E-2,4.451165E-2,-2.4965668E-1,-3.0097318E-1,-1.0974702E-1,3.5665616E-1,4.3823194E-2,2.2104512E-1,-1.2699352E-1,1.6174579E-2,-2.3007943E-1,1.4426756E-1,-2.2720182E-1,-1.5569144E-1,3.3160686E-2,-2.9851811E-2,3.293184E-1,-1.23685755E-1,-2.8404716E-1],"split_indices":[0,3,2,0,5,4,4,0,0,0,0,1,0,2,5,4,7,7,1,0,0,5,0,7,5,2,4,5,7,5,4,0,0,0,0,0,7,7,0,0,0,0,0,0,0,0,0,0,0,0,0,0,0,0,0,0,0,0,0,0,0,0,0,0,0],"split_type":[0,1,1,0,0,1,1,0,0,0,0,1,0,1,0,1,0,0,1,0,0,0,0,0,0,1,1,0,0,0,1,0,0,0,0,0,0,0,0,0,0,0,0,0,0,0,0,0,0,0,0,0,0,0,0,0,0,0,0,0,0,0,0,0,0],"sum_hessian":[2.4556017E2,1.1077901E1,2.3448225E2,2.7720246E0,8.305877E0,1.3145265E2,1.0302961E2,1.0703094E0,1.7017152E0,6.644316E0,1.6615602E0,1.0885566E2,2.2596992E1,6.626119E1,3.6768414E1,6.3342987E1,4.5512672E1,1.3999831E1,8.597161E0,6.129755E1,4.9636436E0,2.1124578E1,1.5643837E1,2.6192575E1,3.7150414E1,2.0859032E1,2.465364E1,7.4984236E0,6.501408E0,2.39886E0,6.1983013E0,3.2123547E1,2.9174004E1,1.262537E0,3.7011065E0,1.771804E1,3.4065373E0,1.3474408E1,2.169429E0,1.4154781E1,1.2037793E1,3.6024014E1,1.1264004E0,1.3353294E0,1.9523703E1,1.3029436E1,1.1624205E1,4.8542004E0,2.6442232E0,4.775964E0,1.7254443E0,1.1646408E0,1.2342191E0,1.4862182E0,4.712083E0,2.5987654E1,6.135891E0,2.6993004E1,2.181E0,1.2785246E1,4.932794E0,1.5892235E0,1.8173138E0,4.3954525E0,9.078957E0],"tree_param":{"num_deleted":"0","num_feature":"8","num_nodes":"65","size_leaf_vector":"1"}},{"base_weights":[-3.0207187E-2,-7.559787E-1,-8.03403E-3,-2.621438E-1,-6.068514E-3,8.887425E-2,-1.2534112E-1,-1.4723017E-2,2.87293E-1,7.609862E-1,-1.6864735E-1,-8.429899E-1,3.279516E-2,6.5683454E-1,-1.5759312E-2,3.262844E-1,2.813895E-2,-1.096237E-1,-7.891542E-1,-7.645375E-2,-2.8242955E-1,1.721665E-1,-2.3485054E-1,6.007619E-2,9.8447573E-1,5.635606E-1,-2.7334768E-1,2.8405123E-4,-4.2839292E-1,-2.969486E-1,-3.0724123E-1,1.0786914E-1,-3.3686697E-2,1.6116105E-1,-1.1179889E-1,2.5758275E-1,-9.670256E-2,5.2249104E-1,1.8278039E-1,9.915489E-3,3.2881674E-1,-2.8209695E-1,-3.6852203E-2,2.5684701E-2,-2.169445E-1,-1.8860431E-1,2.9854879E-2,-2.0738788E-1,6.532002E-2],"categories":[0,1,0,1,3,4,5,0,0,1,2,4,5,6,8,9,10,11,12,13,14,15,0,3,4,6,7,9,11,13,1,2,0,1,2,3,6,7,9,10,11,12,13,14,15,0,1,3,4,5,0,1,5,0,1,3,4,5,6,8,9,10,12,0,1,3,4,6,0,2,3,4,5,6,7,8,9,10,11,12],"categories_nodes":[1,2,5,6,8,10,12,14,17,18,21,22,23],"categories_segments":[0,2,7,8,22,30,32,45,50,51,53,63,68],"categories_sizes":[2,5,1,14,8,2,13,5,1,2,10,5,12],"default_left":[0,1,0,0,0,0,0,0,0,0,1,0,1,1,1,0,0,1,0,0,0,1,0,1,0,0,0,1,1,0,0,0,0,0,0,0,0,0,0,0,0,0,0,0,0,0,0,0,0],"id":9,"left_children":[1,3,5,-1,-1,7,9,11,13,15,17,19,21,23,25,-1,-1,27,29,-1,-1,31,33,35,37,39,41,43,45,47,-1,-1,-1,-1,-1,-1,-1,-1,-1,-1,-1,-1,-1,-1,-1,-1,-1,-1,-1],"loss_changes":[3.8437574E0,5.9624815E-1,2.6615713E0,0E0,0E0,2.640694E0,4.1926894E0,3.3815367E0,4.942897E0,1.0124702E0,3.640915E0,2.994585E-2,3.0825906E0,3.8256168E0,3.9109259E0,0E0,0E0,3.2967658E0,6.996627E-1,0E0,0E0,2.929864E0,3.2164905E0,2.7524745E0,2.564312E0,2.2450073E0,1.701489E0,4.442983E0,2.613453E0,1.0055513E0,0E0,0E0,0E0,0E0,0E0,0E0,0E0,0E0,0E0,0E0,0E0,0E0,0E0,0E0,0E0,0E0,0E0,0E0,0E0],"parents":[2147483647,0,0,1,1,2,2,5,5,6,6,7,7,8,8,9,9,10,10,11,11,12,12,13,13,14,14,17,17,18,18,21,21,22,22,23,23,24,24,25,25,26,26,27,27,28,28,29,29],"right_children":[2,4,6,-1,-1,8,10,12,14,16,18,20,22,24,26,-1,-1,28,30,-1,-1,32,34,36,38,40,42,44,46,48,-1,-1,-1,-1,-1,-1,-1,-1,-1,-1,-1,-1,-1,-1,-1,-1,-1,-1,-1],"split_conditions":[2.4E1,NaN,NaN,-2.621438E-1,-6.068514E-3,NaN,NaN,3.3E1,NaN,1.0170748E5,NaN,5.5E1,NaN,4E1,NaN,3.262844E-1,2.813895E-2,NaN,NaN,-7.645375E-2,-2.8242955E-1,NaN,NaN,NaN,3.3E1,8.993548E4,3.6E1,1.2657284E5,1.157473E5,4.9E1,-3.0724123E-1,1.0786914E-1,-3.3686697E-2,1.6116105E-1,-1.1179889E-1,2.5758275E-1,-9.670256E-2,5.2249104E-1,1.8278039E-1,9.915489E-3,3.2881674E-1,-2.8209695E-1,-3.6852203E-2,2.5684701E-2,-2.169445E-1,-1.8860431E-1,2.9854879E-2,-2.0738788E-1,6.532002E-2],"split_indices":[0,4,3,0,0,6,2,7,4,5,1,0,2,7,1,0,0,6,2,0,0,4,1,4,0,5,0,5,5,7,0,0,0,0,0,0,0,0,0,0,0,0,0,0,0,0,0,0,0],"split_type":[0,1,1,0,0,1,1,0,1,0,1,0,1,0,1,0,0,1,1,0,0,1,1,1,0,0,0,0,0,0,0,0,0,0,0,0,0,0,0,0,0,0,0,0,0,0,0,0,0],"sum_hessian":[2.382292E2,6.081316E0,2.3214789E2,5.0800705E0,1.0012454E0,1.27259895E2,1.04887985E2,8.4215546E1,4.304435E1,4.114119E0,1.0077387E2,3.6610553E0,8.055449E1,1.8868603E1,2.4175747E1,2.3389318E0,1.7751871E0,9.309517E1,7.678701E0,1.0394752E0,2.6215801E0,5.3205494E1,2.7348999E1,7.1071534E0,1.176145E1,7.07535E0,1.7100397E1,6.9969604E1,2.312556E1,3.2127798E0,4.465921E0,3.1915646E1,2.1289848E1,3.7034454E0,2.3645554E1,1.8982266E0,5.2089267E0,2.69043E0,9.07102E0,4.076312E0,2.999038E0,2.1822038E0,1.4918193E1,6.337584E1,6.593769E0,1.6626574E1,6.498988E0,1.6247596E0,1.5880203E0],"tree_param":{"num_deleted":"0","num_feature":"8","num_nodes":"49","size_leaf_vector":"1"}},{"base_weights":[-2.4845386E-2,-5.9504914E-1,-1.5611505E-3,-2.517691E-1,-2.3047026E-1,1.6948591E-1,-6.3623354E-2,1.4118987E-1,-1.8475275E-1,3.2048348E-1,-5.172239E-2,-1.2338605E-2,-3.4448326E-1,-5.2172303E-2,5.726964E-1,-1.4749008E-1,2.2897081E-1,1.532267E-2,-4.5271248E-1,-7.0409304E-3,-5.04537E-1,-4.7361463E-1,3.3401173E-1,7.789454E-1,1.5043339E-1,9.6599646E-2,-4.4918168E-1,-2.3145754E-2,8.072451E-1,-7.194475E-1,-5.592287E-3,-2.8272352E-1,4.859403E-1,-6.1884604E-2,-8.084245E-1,2.8447513E-3,-1.8029808E-1,3.27572E-1,-6.188182E-2,1.1436495E-1,2.7085474E-1,-1.1166666E-1,1.6547778E-1,8.8565916E-2,-1.9971976E-1,-3.412336E-3,-1.9717775E-1,9.5292047E-4,-2.1183412E-1,1.8244691E-2,2.943032E-1,9.530986E-3,-2.8030005E-1,1.3360012E-1,-1.4259633E-1,-1.9182447E-1,1.2275629E-1,-8.966644E-2,3.1229576E-1,9.163474E-2,-2.2102161E-1,-8.088565E-2,-2.837704E-1],"categories":[0,2,4,6,8,9,10,11,12,13,14,15,0,1,2,3,4,5,6,7,8,9,10,11,0,1,3,4,5,6,7,9,11,12,13,0,1,3,4,5,0,1,2,4,0,5,0,4,0,0,1,2,3,5,0,0,0,1,2,3,5,6,7,8,9,10,11,12,13,14,15,0,1,2,3,4,5,6,7],"categories_nodes":[2,4,5,6,12,14,18,20,25,30,32,33,34],"categories_segments":[0,12,24,35,40,44,46,48,49,54,55,56,71],"categories_sizes":[12,12,11,5,4,2,2,1,5,1,1,15,8],"default_left":[0,1,0,0,1,1,1,0,0,1,1,1,1,1,0,0,0,1,1,0,0,0,1,1,0,1,0,1,0,1,0,1,1,1,0,0,0,0,0,0,0,0,0,0,0,0,0,0,0,0,0,0,0,0,0,0,0,0,0,0,0,0,0],"id":10,"left_children":[1,3,5,-1,7,9,11,-1,-1,13,15,17,19,21,23,25,-1,27,29,31,33,35,37,39,41,43,45,47,49,51,53,55,57,59,61,-1,-1,-1,-1,-1,-1,-1,-1,-1,-1,-1,-1,-1,-1,-1,-1,-1,-1,-1,-1,-1,-1,-1,-1,-1,-1,-1,-1],"loss_changes":[3.0976632E0,6.214769E-1,2.4017358E0,0E0,1.6543434E0,2.0286288E0,2.3866892E0,0E0,0E0,3.4077563E0,2.087028E0,1.7293768E0,1.3786988E0,2.6682696E0,1.756741E0,1.7721748E0,0E0,4.1011868E0,9.96544E-1,1.3942356E0,2.2831764E0,4.8495507E-1,3.7608025E0,3.5641384E-1,1.9455938E0,2.28605E0,9.651079E-1,2.3172495E0,7.491727E-1,8.766811E-1,1.0891433E0,1.8814588E0,1.9162022E0,2.2437637E0,5.006418E-1,0E0,0E0,0E0,0E0,0E0,0E0,0E0,0E0,0E0,0E0,0E0,0E0,0E0,0E0,0E0,0E0,0E0,0E0,0E0,0E0,0E0,0E0,0E0,0E0,0E0,0E0,0E0,0E0],"parents":[2147483647,0,0,1,1,2,2,4,4,5,5,6,6,9,9,10,10,11,11,12,12,13,13,14,14,15,15,17,17,18,18,19,19,20,20,21,21,22,22,23,23,24,24,25,25,26,26,27,27,28,28,29,29,30,30,31,31,32,32,33,33,34,34],"right_children":[2,4,6,-1,8,10,12,-1,-1,14,16,18,20,22,24,26,-1,28,30,32,34,36,38,40,42,44,46,48,50,52,54,56,58,60,62,-1,-1,-1,-1,-1,-1,-1,-1,-1,-1,-1,-1,-1,-1,-1,-1,-1,-1,-1,-1,-1,-1,-1,-1,-1,-1,-1,-1],"split_conditions":[2.6E1,4E1,NaN,-2.517691E-1,NaN,NaN,NaN,1.4118987E-1,-1.8475275E-1,3.3E1,5.9E1,6.1E1,NaN,3.398418E4,NaN,5.6E1,2.2897081E-1,5.8E1,NaN,1.9405427E5,NaN,2.842193E4,1.8E1,3.5E1,4.7E1,NaN,4.201218E4,5.7E1,2.535805E4,1.576295E4,NaN,5E1,NaN,NaN,NaN,2.8447513E-3,-1.8029808E-1,3.27572E-1,-6.188182E-2,1.1436495E-1,2.7085474E-1,-1.1166666E-1,1.6547778E-1,8.8565916E-2,-1.9971976E-1,-3.412336E-3,-1.9717775E-1,9.5292047E-4,-2.1183412E-1,1.8244691E-2,2.943032E-1,9.530986E-3,-2.8030005E-1,1.3360012E-1,-1.4259633E-1,-1.9182447E-1,1.2275629E-1,-8.966644E-2,3.1229576E-1,9.163474E-2,-2.2102161E-1,-8.088565E-2,-2.837704E-1],"split_indices":[0,7,2,0,2,4,3,0,0,0,0,0,1,5,1,7,0,0,2,5,6,5,7,7,7,1,5,0,5,5,1,7,6,2,4,0,0,0,0,0,0,0,0,0,0,0,0,0,0,0,0,0,0,0,0,0,0,0,0,0,0,0,0],"split_type":[0,0,1,0,1,1,1,0,0,0,0,0,1,0,1,0,0,0,1,0,1,0,0,0,0,1,0,0,0,0,1,0,1,1,1,0,0,0,0,0,0,0,0,0,0,0,0,0,0,0,0,0,0,0,0,0,0,0,0,0,0,0,0],"sum_hessian":[2.323847E2,8.153721E0,2.2423099E2,4.103461E0,4.0502596E0,5.9237648E1,1.6499333E2,1.3581502E0,2.6921093E0,3.4939224E1,2.4298426E1,1.4040031E2,2.4593029E1,1.4422493E1,2.0516731E1,2.2476213E1,1.8222119E0,1.330107E2,7.389617E0,8.247906E0,1.6345123E1,6.788171E0,7.6343217E0,1.3216573E1,7.3001595E0,1.2799955E1,9.676258E0,1.2777468E2,5.2360106E0,4.2469673E0,3.14265E0,5.5633173E0,2.6845887E0,7.1434236E0,9.201699E0,1.6095084E0,5.1786623E0,2.7523806E0,4.8819413E0,4.107686E0,9.108887E0,3.2013595E0,4.0987997E0,1.0640414E1,2.159541E0,3.4570613E0,6.2191963E0,1.239913E2,3.783379E0,1.2436706E0,3.9923398E0,1.1341741E0,3.112793E0,1.6299143E0,1.5127356E0,3.720969E0,1.8423481E0,1.3032764E0,1.3813121E0,4.980075E0,2.1633484E0,2.4725115E0,6.7291875E0],"tree_param":{"num_deleted":"0","num_feature":"8","num_nodes":"63","size_leaf_vector":"1"}},{"base_weights":[-2.1814536E-2,7.410685E-2,-1.3156933E-1,1.255853E-1,-3.4105033E-1,-7.290719E-1,-6.2190175E-2,6.5933686E-1,8.95372E-2,-6.0818017E-1,1.16449036E-1,-2.6811254E-1,8.363497E-2,2.0498428E-1,-2.1535434E-1,8.987906E-1,-4.2009126E-2,2.644511E-1,-1.383051E-3,-2.649689E-1,-2.6923576E-1,4.1587564E-1,-1.3216087E-1,-1.06494375E-1,3.9227542E-1,6.0348757E-2,-3.6704218E-1,3.5884488E-1,-4.9304883E-3,3.763317E-1,-6.184982E-1,3.3135638E-1,-1.0453279E-1,-6.59497E-1,2.6364923E-1,-7.8009136E-2,7.313999E-1,-6.425145E-1,2.2263804E-1,9.3983805E-1,1.2428816E-1,2.2878873E-1,-3.8765872E-1,-1.02751225E-1,-5.152324E-1,-1.4062245E-1,1.5294191E-1,-1.1663534E-2,-2.646945E-1,4.555249E-2,2.8563836E-1,-9.611358E-2,2.2519914E-2,-2.4757725E-1,-4.4874046E-2,1.6045773E-1,-4.1031335E-2,1.19157E-2,3.1959456E-1,2.7889295E-2,-2.654774E-1,1.9292699E-1,-1.5909736E-1,4.883173E-2,3.2706764E-1,1.7890413E-1,-9.899155E-2,-1.2501706E-1,1.2339219E-1,2.5837967E-2,-2.058216E-1,-2.3322691E-1,6.3374005E-2,6.024367E-2,-1.7610338E-1],"categories":[0,2,4,6,8,9,10,11,12,13,14,15,1,3,5,12,0,2,4,6,0,1,3,4,5,6,8,9,0,2,3,8,9,11,0,1,2,3,4,5,1,2,5,0,1,0,1,2,3,0,3,4,5,6,7,8,9,11,12,13,0,2,3,4,5,6,7,8,9,10,11,12,13,0,1,2,3,4,5,6,8],"categories_nodes":[0,1,6,7,14,15,17,34,36,40,42,44],"categories_segments":[0,12,16,20,28,34,40,43,45,49,60,73],"categories_sizes":[12,4,4,8,6,6,3,2,4,11,13,8],"default_left":[1,1,0,0,1,1,1,0,1,0,0,0,0,0,0,1,0,1,0,0,0,1,0,0,0,1,0,0,0,0,0,0,0,1,0,0,1,0,0,0,1,0,1,0,1,0,0,0,0,0,0,0,0,0,0,0,0,0,0,0,0,0,0,0,0,0,0,0,0,0,0,0,0,0,0],"id":11,"left_children":[1,3,5,7,9,11,13,15,17,19,21,-1,-1,23,25,27,-1,29,31,33,-1,35,-1,37,39,41,43,-1,-1,45,47,49,51,53,55,-1,57,59,61,63,65,67,69,71,73,-1,-1,-1,-1,-1,-1,-1,-1,-1,-1,-1,-1,-1,-1,-1,-1,-1,-1,-1,-1,-1,-1,-1,-1,-1,-1,-1,-1,-1,-1],"loss_changes":[2.4125946E0,2.6594427E0,4.382118E0,2.050864E0,1.7543883E0,2.0773768E0,4.004757E0,1.4236884E0,1.6523541E0,6.416538E-1,1.1701338E0,0E0,0E0,2.1290398E0,2.6153004E0,1.4762673E0,0E0,3.7429144E0,2.4146733E0,1.3147314E0,0E0,1.120676E0,0E0,2.6520877E0,3.193268E0,1.8141983E0,1.5191722E0,0E0,0E0,3.8663545E0,6.3460696E-1,1.7108206E0,2.105565E0,1.6546404E-1,4.0462244E-1,0E0,7.05266E-1,1.0927632E0,3.365709E0,6.709423E-1,3.6915836E0,2.2033753E0,9.949164E-1,3.4838831E0,1.426971E0,0E0,0E0,0E0,0E0,0E0,0E0,0E0,0E0,0E0,0E0,0E0,0E0,0E0,0E0,0E0,0E0,0E0,0E0,0E0,0E0,0E0,0E0,0E0,0E0,0E0,0E0,0E0,0E0,0E0,0E0],"parents":[2147483647,0,0,1,1,2,2,3,3,4,4,5,5,6,6,7,7,8,8,9,9,10,10,13,13,14,14,15,15,17,17,18,18,19,19,21,21,23,23,24,24,25,25,26,26,29,29,30,30,31,31,32,32,33,33,34,34,36,36,37,37,38,38,39,39,40,40,41,41,42,42,43,43,44,44],"right_children":[2,4,6,8,10,12,14,16,18,20,22,-1,-1,24,26,28,-1,30,32,34,-1,36,-1,38,40,42,44,-1,-1,46,48,50,52,54,56,-1,58,60,62,64,66,68,70,72,74,-1,-1,-1,-1,-1,-1,-1,-1,-1,-1,-1,-1,-1,-1,-1,-1,-1,-1,-1,-1,-1,-1,-1,-1,-1,-1,-1,-1,-1,-1],"split_conditions":[NaN,NaN,3.8E1,1.527518E4,3.7E1,2.0160608E5,NaN,NaN,3.4E1,4.3E1,4.9E1,-2.6811254E-1,8.363497E-2,4.4E1,NaN,NaN,-4.2009126E-2,NaN,3.4E1,3.7E1,-2.6923576E-1,3.033118E4,-1.3216087E-1,4.3E1,5E1,5.026474E4,4.3E1,3.5884488E-1,-4.9304883E-3,3.1E1,5E1,3.3E1,4.8E1,4.306227E4,NaN,-7.8009136E-2,NaN,3E1,6.478302E4,2.187761E4,NaN,2.61582E4,NaN,3.9E1,NaN,-1.4062245E-1,1.5294191E-1,-1.1663534E-2,-2.646945E-1,4.555249E-2,2.8563836E-1,-9.611358E-2,2.2519914E-2,-2.4757725E-1,-4.4874046E-2,1.6045773E-1,-4.1031335E-2,1.19157E-2,3.1959456E-1,2.7889295E-2,-2.654774E-1,1.9292699E-1,-1.5909736E-1,4.883173E-2,3.2706764E-1,1.7890413E-1,-9.899155E-2,-1.2501706E-1,1.2339219E-1,2.5837967E-2,-2.058216E-1,-2.3322691E-1,6.3374005E-2,6.024367E-2,-1.7610338E-1],"split_indices":[2,4,7,5,0,5,1,4,7,7,0,0,0,0,4,2,0,1,0,0,0,5,0,7,0,5,7,0,0,0,0,0,0,5,3,0,4,0,5,5,4,5,4,0,2,0,0,0,0,0,0,0,0,0,0,0,0,0,0,0,0,0,0,0,0,0,0,0,0,0,0,0,0,0,0],"split_type":[1,1,0,0,0,0,1,1,0,0,0,0,0,0,1,1,0,1,0,0,0,0,0,0,0,0,0,0,0,0,0,0,0,0,1,0,1,0,0,0,1,0,1,0,1,0,0,0,0,0,0,0,0,0,0,0,0,0,0,0,0,0,0,0,0,0,0,0,0,0,0,0,0,0,0],"sum_hessian":[2.2723737E2,1.2143379E2,1.0580358E2,1.08657974E2,1.2775817E1,1.0018072E1,9.578551E1,5.780319E0,1.02877655E2,7.8581533E0,4.917664E0,8.70873E0,1.309343E0,3.477931E1,6.10062E1,4.3522177E0,1.4281017E0,3.4533306E1,6.834435E1,4.470294E0,3.387859E0,3.363073E0,1.5545907E0,1.3221838E1,2.1557472E1,2.1865784E1,3.9140415E1,3.0532608E0,1.2989569E0,3.1158869E1,3.3744352E0,1.56496105E1,5.269474E1,2.4180348E0,2.0522594E0,1.1262767E0,2.2367964E0,4.6677933E0,8.554045E0,6.25992E0,1.5297551E1,1.6246727E1,5.619057E0,1.4670168E1,2.4470247E1,3.9074762E0,2.7251392E1,1.4143661E0,1.9600691E0,1.3104617E1,2.544993E0,2.3576359E1,2.9118382E1,1.3581278E0,1.059907E0,1.0233723E0,1.0288872E0,1.0925691E0,1.1442274E0,1.30993E0,3.3578634E0,5.5826383E0,2.971407E0,1.3527079E0,4.9072123E0,7.3484173E0,7.949134E0,3.298336E0,1.2948391E1,2.446376E0,3.172681E0,4.190456E0,1.0479712E1,2.065709E0,2.240454E1],"tree_param":{"num_deleted":"0","num_feature":"8","num_nodes":"75","size_leaf_vector":"1"}},{"base_weights":[-2.0739455E-2,5.6624395E-4,-4.078119E-1,-5.567741E-1,1.1973988E-2,-7.882693E-1,-6.229997E-2,-2.1425813E-1,-6.226352E-3,7.420894E-2,-7.072739E-2,-6.5490484E-2,-2.6230922E-1,3.7980813E-1,-4.5839113E-1,2.7447029E-3,3.6329305E-1,-2.4676343E-2,-6.4315534E-1,-7.3018245E-2,2.2705562E-1,-2.2445135E-1,5.6514047E-2,6.373489E-2,-4.4958228E-1,6.6820556E-1,-5.3308748E-2,1.02492444E-1,-3.490799E-1,-2.5210628E-1,-2.6254776E-1,1.5503797E-1,-5.101533E-4,7.084151E-2,-2.1971963E-1,-8.075768E-2,2.4582541E-1,1.1580209E-1,-1.5482551E-1,-3.3190012E-2,7.5292595E-2,1.0027492E-2,-1.788635E-1,5.1193137E-2,-2.1111025E-1],"categories":[3,11,0,1,3,4,0,1,2,3,4,5,6,7,8,9,1,2,0,3,4,5,6,7,8,9,11,12,13,0,4,6,8,9,10,11,12,13,14,0,4,5,1,3,4,5,6,0,1,2,3,4,5,6,7,8,9,10,11,12,13,0,2,3,5,6,7,0,2,3,4,5,6,7,10,5],"categories_nodes":[0,4,6,10,16,17,18,23,24,26,28,30],"categories_segments":[0,2,6,16,18,29,39,42,47,61,67,75],"categories_sizes":[2,4,10,2,11,10,3,5,14,6,8,1],"default_left":[1,0,1,0,0,0,1,0,0,1,1,0,0,1,1,1,1,1,1,0,0,0,0,0,1,0,0,0,0,0,1,0,0,0,0,0,0,0,0,0,0,0,0,0,0],"id":12,"left_children":[1,3,5,7,9,11,13,-1,-1,15,17,-1,-1,19,21,23,25,27,29,-1,-1,-1,-1,31,33,35,37,39,41,-1,43,-1,-1,-1,-1,-1,-1,-1,-1,-1,-1,-1,-1,-1,-1],"loss_changes":[1.838202E0,1.356092E0,1.479529E0,3.461635E-1,1.0807613E0,7.649994E-2,1.4314466E0,0E0,0E0,2.4723823E0,2.3629243E0,0E0,0E0,1.1099753E0,9.3565863E-1,2.7046525E0,3.0490432E0,3.5242295E0,2.8067684E-1,0E0,0E0,0E0,0E0,2.5608459E0,2.4321396E0,2.172616E0,2.4256725E0,1.9746003E0,2.2924337E0,0E0,8.336491E-1,0E0,0E0,0E0,0E0,0E0,0E0,0E0,0E0,0E0,0E0,0E0,0E0,0E0,0E0],"parents":[2147483647,0,0,1,1,2,2,3,3,4,4,5,5,6,6,9,9,10,10,13,13,14,14,15,15,16,16,17,17,18,18,23,23,24,24,25,25,26,26,27,27,28,28,30,30],"right_children":[2,4,6,8,10,12,14,-1,-1,16,18,-1,-1,20,22,24,26,28,30,-1,-1,-1,-1,32,34,36,38,40,42,-1,44,-1,-1,-1,-1,-1,-1,-1,-1,-1,-1,-1,-1,-1,-1],"split_conditions":[NaN,2.4E1,4E1,2.2300188E5,NaN,2.4E1,NaN,-2.1425813E-1,-6.226352E-3,4.668999E4,NaN,-6.5490484E-2,-2.6230922E-1,3.506355E4,4.6E1,3.979537E4,NaN,NaN,NaN,-7.3018245E-2,2.2705562E-1,-2.2445135E-1,5.6514047E-2,NaN,NaN,3.1E1,NaN,4.3E1,NaN,-2.5210628E-1,NaN,1.5503797E-1,-5.101533E-4,7.084151E-2,-2.1971963E-1,-8.075768E-2,2.4582541E-1,1.1580209E-1,-1.5482551E-1,-3.3190012E-2,7.5292595E-2,1.0027492E-2,-1.788635E-1,5.1193137E-2,-2.1111025E-1],"split_indices":[4,0,7,5,3,7,2,0,0,5,1,0,0,5,0,5,4,2,2,0,0,0,0,1,2,0,2,0,4,0,2,0,0,0,0,0,0,0,0,0,0,0,0,0,0],"split_type":[1,0,0,0,1,0,1,0,0,0,1,0,0,0,0,0,1,1,1,0,0,0,0,1,1,0,1,0,1,0,1,0,0,0,0,0,0,0,0,0,0,0,0,0,0],"sum_hessian":[2.2186948E2,2.1124066E2,1.062882E1,3.2781E0,2.0796255E2,4.4487104E0,6.1801105E0,2.2769861E0,1.0011138E0,1.18723045E2,8.923951E1,1.0477768E0,3.4009335E0,2.9398382E0,3.2402723E0,9.6000374E1,2.2722673E1,8.35603E1,5.679204E0,1.2417922E0,1.698046E0,2.1294243E0,1.110848E0,8.5351036E1,1.0649339E1,1.2771338E1,9.951335E0,6.0520027E1,2.3040276E1,2.9452796E0,2.7339244E0,9.90103E0,7.5450005E1,3.1578412E0,7.491498E0,1.6656154E0,1.1105723E1,5.190171E0,4.7611647E0,2.4955254E1,3.5564774E1,9.382698E0,1.3657578E1,1.6887945E0,1.04513E0],"tree_param":{"num_deleted":"0","num_feature":"8","num_nodes":"45","size_leaf_vector":"1"}},{"base_weights":[-2.1218866E-2,-8.21869E-3,-5.377999E-1,-2.1151774E-2,5.468896E-1,7.622595E-2,-2.4573062E-1,-1.0655549E-2,-2.277188E-1,3.3730382E-1,-1.1767284E-1,1.0424058E-2,-3.164111E-1,-5.6289982E-2,1.2977201E-1,2.1019557E-1,-8.9189E-1,8.816987E-3,-8.8624716E-2,1.484944E-3,1.8131813E-1,1.8284492E-1,-1.6784896E-1,-9.653858E-2,-3.7371156E-1],"categories":[9,14,15,4,3,0,0,1,10,11,12,13,0,1,2],"categories_nodes":[0,2,3,12,13,15],"categories_segments":[0,3,4,5,6,12],"categories_sizes":[3,1,1,1,6,3],"default_left":[1,1,0,1,1,0,0,1,0,0,0,1,0,1,1,1,1,0,0,0,0,0,0,0,0],"id":13,"left_children":[1,3,5,7,9,-1,-1,11,-1,-1,-1,13,15,17,19,21,23,-1,-1,-1,-1,-1,-1,-1,-1],"loss_changes":[1.4668307E0,1.5530682E0,1.4026514E0,1.6245378E0,3.1123457E0,0E0,0E0,1.3493658E0,0E0,0E0,0E0,1.5706483E0,4.2791977E0,2.6033597E0,4.1857495E0,2.756461E0,9.3893194E-1,0E0,0E0,0E0,0E0,0E0,0E0,0E0,0E0],"parents":[2147483647,0,0,1,1,2,2,3,3,4,4,7,7,11,11,12,12,13,13,14,14,15,15,16,16],"right_children":[2,4,6,8,10,-1,-1,12,-1,-1,-1,14,16,18,20,22,24,-1,-1,-1,-1,-1,-1,-1,-1],"split_conditions":[NaN,7E1,NaN,NaN,4.1E1,7.622595E-2,-2.4573062E-1,6E1,-2.277188E-1,3.3730382E-1,-1.1767284E-1,4.3E1,NaN,NaN,4.2E1,NaN,3.548335E4,8.816987E-3,-8.8624716E-2,1.484944E-3,1.8131813E-1,1.8284492E-1,-1.6784896E-1,-9.653858E-2,-3.7371156E-1],"split_indices":[2,7,1,4,0,0,0,7,0,0,0,0,1,4,7,2,5,0,0,0,0,0,0,0,0],"split_type":[1,0,1,1,0,0,0,0,0,0,0,0,1,1,0,1,0,0,0,0,0,0,0,0,0],"sum_hessian":[2.1807814E2,2.1371573E2,4.362418E0,2.0978987E2,3.925853E0,1.1688284E0,3.1935897E0,2.0784782E2,1.942038E0,2.30892E0,1.616933E0,1.9534605E2,1.2501773E1,1.25642044E2,6.970401E1,6.8595304E0,5.642242E0,9.314487E1,3.2497177E1,5.5989574E1,1.3714437E1,4.653576E0,2.2059546E0,2.8919713E0,2.7502708E0],"tree_param":{"num_deleted":"0","num_feature":"8","num_nodes":"25","size_leaf_vector":"1"}},{"base_weights":[-1.8485434E-2,-5.392335E-1,-8.236854E-3,-2.0921089E-1,-6.4220317E-3,4.528404E-3,-4.3337548E-1,2.5657754E-2,-3.2865134E-1,-9.069102E-1,1.8063042E-1,-2.9478833E-1,4.0661734E-2,-5.984764E-1,-7.103695E-2,-3.1001657E-1,-8.474971E-2,2.9444048E-1,-7.793781E-1,5.9358828E-2,-6.137677E-1,-2.2719808E-2,-2.4179365E-1,2.5929993E-1,-3.5076606E-1,1.941674E-1,-5.8354087E-2,-3.327542E-1,8.294439E-2,1.3279584E-1,8.706432E-3,6.8964094E-2,-2.594049E-1,-3.1874344E-2,1.8111214E-1,1.78527E-2,-2.0754041E-1],"categories":[0,3,11,0,1,2,0,1,3,4,5,6,7,8,9,10,11,12,6,9,10,11,12,13,14,0,1,2,3,4,5,6,7,8,0,1,3,4,5,6,7,8,9,0,1,2,3,4,5,6,7,8,10,11,12,13,0,1,2,3],"categories_nodes":[5,6,11,12,14,17,20,24],"categories_segments":[0,3,6,18,25,34,43,56],"categories_sizes":[3,3,12,7,9,9,13,4],"default_left":[0,0,1,0,0,1,1,0,1,0,0,1,1,0,1,0,0,0,1,0,0,0,0,0,1,0,0,0,0,0,0,0,0,0,0,0,0],"id":14,"left_children":[1,3,5,-1,-1,7,9,11,13,15,-1,17,19,21,23,-1,-1,25,27,29,31,-1,-1,33,35,-1,-1,-1,-1,-1,-1,-1,-1,-1,-1,-1,-1],"loss_changes":[1.1499057E0,3.2564867E-1,1.158648E0,0E0,0E0,1.4721048E0,3.5976014E0,9.5646584E-1,8.2437706E-1,7.683849E-2,0E0,2.7729023E0,2.3433073E0,5.85078E-1,7.853481E-1,0E0,0E0,9.4448626E-1,2.1042037E0,2.1291487E0,1.3259847E0,0E0,0E0,5.703281E-1,6.699715E-1,0E0,0E0,0E0,0E0,0E0,0E0,0E0,0E0,0E0,0E0,0E0,0E0],"parents":[2147483647,0,0,1,1,2,2,5,5,6,6,7,7,8,8,9,9,11,11,12,12,13,13,14,14,17,17,18,18,19,19,20,20,23,23,24,24],"right_children":[2,4,6,-1,-1,8,10,12,14,16,-1,18,20,22,24,-1,-1,26,28,30,32,-1,-1,34,36,-1,-1,-1,-1,-1,-1,-1,-1,-1,-1,-1,-1],"split_conditions":[2.4E1,2.4377644E5,6.5E1,-2.0921089E-1,-6.4220317E-3,NaN,NaN,1.247584E4,3.5E1,7.3E1,1.8063042E-1,NaN,NaN,5.9042E4,NaN,-3.1001657E-1,-8.474971E-2,NaN,5.4E1,2.063231E4,NaN,-2.2719808E-2,-2.4179365E-1,4.7E1,NaN,1.941674E-1,-5.8354087E-2,-3.327542E-1,8.294439E-2,1.3279584E-1,8.706432E-3,6.8964094E-2,-2.594049E-1,-3.1874344E-2,1.8111214E-1,1.78527E-2,-2.0754041E-1],"split_indices":[0,5,0,0,0,4,4,5,0,0,0,2,2,5,2,0,0,4,0,5,4,0,0,7,4,0,0,0,0,0,0,0,0,0,0,0,0],"split_type":[0,0,0,0,0,1,1,0,0,0,0,1,1,0,1,0,0,1,0,0,1,0,0,0,1,0,0,0,0,0,0,0,0,0,0,0,0],"sum_hessian":[2.152943E2,3.1591084E0,2.121352E2,2.15445E0,1.0046585E0,2.0691179E2,5.2234073E0,1.9544048E2,1.1471311E1,3.6694775E0,1.5539297E0,7.9075875E0,1.8753288E2,4.9566116E0,6.5146985E0,2.5067408E0,1.1627367E0,3.7455914E0,4.1619964E0,1.8320792E2,4.324966E0,1.7963035E0,3.1603081E0,3.020624E0,3.4940746E0,1.987734E0,1.7578574E0,3.1329157E0,1.0290805E0,1.244039E1,1.7076753E2,1.0106635E0,3.3143024E0,1.8007959E0,1.219828E0,1.9607463E0,1.5333283E0],"tree_param":{"num_deleted":"0","num_feature":"8","num_nodes":"37","size_leaf_vector":"1"}},{"base_weights":[-1.88837E-2,-2.8511519E-2,4.0547183E-1,5.1405734E-1,-3.838827E-2,2.7184615E-1,-1.0305234E-1,2.165594E-1,6.314854E-3,-1.913358E-2,-3.330374E-1,9.089105E-2,-6.530672E-2,7.2994284E-2,-7.6181793E-1,6.738047E-1,-7.0327725E-3,1.4170781E-1,-1.4363538E-1,7.063411E-1,-3.9730036E-1,-2.716867E-1,-3.249428E-1,3.1837016E-1,-6.873362E-2,-2.1240088E-1,4.5859467E-2,-1.56106055E-2,1.441601E-1,2.2098942E-1,-5.0293576E-2,3.5500088E-1,-6.955111E-2,-2.6444116E-1,8.883168E-2,4.6144273E-2,-1.7640279E-1],"categories":[0,1,2,4,5,6,7,8,9,10,11,12,13,14,15,0,1,0,1,2,4,5,6,0,2,3,4,6,7,8,9,11,12,13,14,15,0,1,2,3,4,5,6,7,8,9,10,11,13,0,1,2,0,1,2,3,4,5,6,7,8,9],"categories_nodes":[1,3,9,10,12,18,20,21],"categories_segments":[0,15,17,23,24,36,49,52],"categories_sizes":[15,2,6,1,12,13,3,10],"default_left":[1,0,1,0,1,0,0,0,0,1,0,0,0,0,1,0,0,1,0,1,0,1,0,0,0,0,0,0,0,0,0,0,0,0,0,0,0],"id":15,"left_children":[1,3,5,7,9,-1,-1,-1,-1,11,13,15,17,19,21,23,25,27,29,31,33,35,-1,-1,-1,-1,-1,-1,-1,-1,-1,-1,-1,-1,-1,-1,-1],"loss_changes":[8.8598436E-1,1.1462162E0,2.116444E0,3.7695432E-1,1.1701918E0,0E0,0E0,0E0,0E0,1.000247E0,2.2596645E0,3.33116E0,2.2653146E0,2.4892488E0,6.8923545E-1,3.1787932E0,5.8114114E0,2.5528932E0,2.2568653E0,1.8494425E0,1.904469E0,6.02942E-1,0E0,0E0,0E0,0E0,0E0,0E0,0E0,0E0,0E0,0E0,0E0,0E0,0E0,0E0,0E0],"parents":[2147483647,0,0,1,1,2,2,3,3,4,4,9,9,10,10,11,11,12,12,13,13,14,14,15,15,16,16,17,17,18,18,19,19,20,20,21,21],"right_children":[2,4,6,8,10,-1,-1,-1,-1,12,14,16,18,20,22,24,26,28,30,32,34,36,-1,-1,-1,-1,-1,-1,-1,-1,-1,-1,-1,-1,-1,-1,-1],"split_conditions":[7E1,NaN,4.1E1,NaN,6E1,2.7184615E-1,-1.0305234E-1,2.165594E-1,6.314854E-3,NaN,NaN,2.316066E4,NaN,4.063829E4,3.548335E4,5.2E1,3.306402E4,4.3E1,NaN,4.1E1,NaN,NaN,-3.249428E-1,3.1837016E-1,-6.873362E-2,-2.1240088E-1,4.5859467E-2,-1.56106055E-2,1.441601E-1,2.2098942E-1,-5.0293576E-2,3.5500088E-1,-6.955111E-2,-2.6444116E-1,8.883168E-2,4.6144273E-2,-1.7640279E-1],"split_indices":[7,2,0,1,7,0,0,0,0,1,1,5,2,5,5,7,5,0,4,0,4,4,0,0,0,0,0,0,0,0,0,0,0,0,0,0,0],"split_type":[0,1,0,1,0,0,0,0,0,1,1,0,1,0,0,0,0,0,1,0,1,1,0,0,0,0,0,0,0,0,0,0,0,0,0,0,0],"sum_hessian":[2.130248E2,2.0921101E2,3.813788E0,2.8276892E0,2.0638332E2,2.160005E0,1.6537828E0,1.6626582E0,1.165031E0,1.947235E2,1.1659825E1,5.7275322E1,1.3744818E2,6.414966E0,5.244859E0,7.39198E0,4.9883343E1,3.750835E1,9.993983E1,2.5197294E0,3.895237E0,2.807687E0,2.4371724E0,5.0498285E0,2.3421516E0,8.628647E0,4.1254696E1,2.4401701E1,1.3106648E1,1.8654917E0,9.807433E1,1.4971997E0,1.0225298E0,2.1339734E0,1.7612636E0,1.416298E0,1.3913889E0],"tree_param":{"num_deleted":"0","num_feature":"8","num_nodes":"37","size_leaf_vector":"1"}},{"base_weights":[-1.1789046E-2,4.887597E-2,-8.9850634E-2,1.1834556E-1,-2.1505575E-1,3.8970117E-3,-3.7184587E-1,-1.7390195E-1,1.9704598E-1,1.7486687E-1,-7.440957E-1,7.6096416E-2,-6.7438984E-1,-5.581142E-1,-3.737783E-2,8.004295E-2,-9.956067E-1,3.8388532E-1,1.304281E-2,7.483726E-1,-1.04376785E-1,8.656448E-2,-1.0012256E0,1.2046862E-1,-5.6715024E-1,-4.2902743E-3,-2.6459688E-1,5.4652775E-3,-7.483862E-1,-4.8299372E-1,5.930524E-1,3.9515415E-1,-3.6363962E-1,-2.9651813E-2,-4.067655E-1,2.201969E-1,8.979723E-1,-1.14158496E-1,4.9921134E-1,9.4582146E-1,1.1883129E-2,-4.399383E-1,2.2771075E-1,-2.0254251E-1,2.0184985E-1,-1.1467726E0,-3.8463835E-2,3.969369E-1,-4.159999E-3,-2.1921733E-1,-4.2701043E-2,2.1839331E-1,-4.6031025E-1,8.018198E-2,-9.53609E-1,6.8440564E-2,-7.2521746E-1,-6.4132296E-2,2.7094492E-1,1.8637034E-1,-3.0450776E-2,-2.4890198E-1,7.035468E-2,1.0200407E-1,-1.06485546E-1,3.4569627E-1,-2.7075803E-3,2.0155903E-2,-1.3332318E-1,-2.0979796E-2,2.489977E-1,3.3907905E-1,7.319332E-2,-2.8197545E-1,1.1424712E-2,-1.08151324E-1,1.5585253E-1,-3.9361194E-1,-2.7782662E-2,-1.5739934E-1,1.5249945E-1,-6.501685E-2,5.8047973E-2,1.5121254E-2,-2.0863676E-1,1.06243335E-1,-6.54164E-2,-3.2115543E-1,-1.17507026E-1,-4.5409475E-2,-2.5384086E-1],"categories":[0,1,3,4,0,0,2,3,5,9,2,3,6,7,8,9,10,11,12,13,14,15,4,1,2,0,0,2,3,4,5,6,7,8,9,10,11,12,13,14,15,0,1,3,4,5,0,1,0,1,2,3,3,4,5,6,7,9,10,11,13,0,0,1,2,3,4,5,6,7,8,9,10,11,12,13,0,1,2,3,4,0,3,4,6,9,11,12,0,0,1,2,3,8,0,1,2,3,4,5,6,0,1,4],"categories_nodes":[0,2,4,8,10,11,12,13,15,16,19,23,27,29,30,35,36,37,38,39,53],"categories_segments":[0,4,5,10,22,23,25,26,41,46,48,52,61,62,76,81,88,89,94,101,103],"categories_sizes":[4,1,5,12,1,2,1,15,5,2,4,9,1,14,5,7,1,5,7,2,1],"default_left":[0,1,1,0,1,1,1,0,0,0,0,1,0,0,0,1,0,1,1,1,1,1,0,0,0,0,0,0,0,1,0,0,0,0,0,1,0,1,0,1,0,0,1,0,0,1,0,0,1,0,0,0,1,1,1,0,0,0,0,0,0,0,0,0,0,0,0,0,0,0,0,0,0,0,0,0,0,0,0,0,0,0,0,0,0,0,0,0,0,0,0],"id":16,"left_children":[1,3,5,7,9,11,13,15,17,19,21,23,25,27,29,31,33,35,37,39,41,43,45,47,49,-1,-1,51,53,55,57,59,61,-1,-1,63,65,67,69,71,-1,73,75,-1,-1,77,-1,79,81,-1,-1,-1,83,85,87,-1,89,-1,-1,-1,-1,-1,-1,-1,-1,-1,-1,-1,-1,-1,-1,-1,-1,-1,-1,-1,-1,-1,-1,-1,-1,-1,-1,-1,-1,-1,-1,-1,-1,-1,-1],"loss_changes":[1.0044751E0,2.2161627E0,2.4521768E0,2.2245617E0,5.3389654E0,3.5069299E0,1.420759E0,4.4064727E0,2.5904372E0,2.5358055E0,2.4157114E0,1.914247E0,9.315281E-1,1.5901575E0,2.9128187E0,2.4876769E0,1.4716249E0,2.9514704E0,2.4732108E0,6.829374E-1,1.3481065E0,2.0163302E0,9.211216E-1,2.1146479E0,1.9816744E-1,0E0,0E0,1.9255111E0,1.9579396E0,1.2038585E0,1.2740245E0,1.2176104E0,2.280579E0,0E0,0E0,2.1681023E0,2.0204873E0,1.9333007E0,1.6185045E0,2.397666E-1,0E0,1.448585E0,1.2664504E0,0E0,0E0,1.1118383E0,0E0,2.2239597E0,1.8594306E0,0E0,0E0,0E0,4.5371157E-1,3.3206064E-1,1.6837311E-1,0E0,2.00557E-1,0E0,0E0,0E0,0E0,0E0,0E0,0E0,0E0,0E0,0E0,0E0,0E0,0E0,0E0,0E0,0E0,0E0,0E0,0E0,0E0,0E0,0E0,0E0,0E0,0E0,0E0,0E0,0E0,0E0,0E0,0E0,0E0,0E0,0E0],"parents":[2147483647,0,0,1,1,2,2,3,3,4,4,5,5,6,6,7,7,8,8,9,9,10,10,11,11,12,12,13,13,14,14,15,15,16,16,17,17,18,18,19,19,20,20,21,21,22,22,23,23,24,24,27,27,28,28,29,29,30,30,31,31,32,32,35,35,36,36,37,37,38,38,39,39,41,41,42,42,45,45,47,47,48,48,52,52,53,53,54,54,56,56],"right_children":[2,4,6,8,10,12,14,16,18,20,22,24,26,28,30,32,34,36,38,40,42,44,46,48,50,-1,-1,52,54,56,58,60,62,-1,-1,64,66,68,70,72,-1,74,76,-1,-1,78,-1,80,82,-1,-1,-1,84,86,88,-1,90,-1,-1,-1,-1,-1,-1,-1,-1,-1,-1,-1,-1,-1,-1,-1,-1,-1,-1,-1,-1,-1,-1,-1,-1,-1,-1,-1,-1,-1,-1,-1,-1,-1,-1],"split_conditions":[NaN,5.1E1,NaN,2.668244E4,NaN,1.2055481E5,1.0041586E5,2.387425E4,NaN,3.061509E4,NaN,NaN,NaN,NaN,5.2E1,NaN,NaN,4.3E1,5.145779E4,NaN,3.8E1,3.5E1,6.2E1,NaN,5.8E1,-4.2902743E-3,-2.6459688E-1,NaN,3.2E1,NaN,NaN,5.2E1,1.779018E4,-2.9651813E-2,-4.067655E-1,NaN,NaN,NaN,NaN,NaN,1.1883129E-2,4.273677E4,3.373079E4,-2.0254251E-1,2.0184985E-1,5E1,-3.8463835E-2,1.576295E4,3.588085E4,-2.1921733E-1,-4.2701043E-2,2.1839331E-1,3.844849E4,NaN,6.344623E4,6.8440564E-2,1.4296461E5,-6.4132296E-2,2.7094492E-1,1.8637034E-1,-3.0450776E-2,-2.4890198E-1,7.035468E-2,1.0200407E-1,-1.06485546E-1,3.4569627E-1,-2.7075803E-3,2.0155903E-2,-1.3332318E-1,-2.0979796E-2,2.489977E-1,3.3907905E-1,7.319332E-2,-2.8197545E-1,1.1424712E-2,-1.08151324E-1,1.5585253E-1,-3.9361194E-1,-2.7782662E-2,-1.5739934E-1,1.5249945E-1,-6.501685E-2,5.8047973E-2,1.5121254E-2,-2.0863676E-1,1.06243335E-1,-6.54164E-2,-3.2115543E-1,-1.17507026E-1,-4.5409475E-2,-2.5384086E-1],"split_indices":[3,0,6,5,4,5,5,5,2,5,1,1,3,2,7,2,2,0,5,1,7,7,0,4,7,0,0,3,0,2,4,7,5,0,0,4,4,2,4,2,0,5,5,0,0,7,0,5,5,0,0,0,5,1,5,0,5,0,0,0,0,0,0,0,0,0,0,0,0,0,0,0,0,0,0,0,0,0,0,0,0,0,0,0,0,0,0,0,0,0,0],"split_type":[1,0,1,0,1,0,0,0,1,0,1,1,1,1,0,1,1,0,0,1,0,0,0,1,0,0,0,1,0,1,1,0,0,0,0,1,1,1,1,1,0,0,0,0,0,0,0,0,0,0,0,0,0,1,0,0,0,0,0,0,0,0,0,0,0,0,0,0,0,0,0,0,0,0,0,0,0,0,0,0,0,0,0,0,0,0,0,0,0,0,0],"sum_hessian":[2.1018382E2,1.1848101E2,9.170281E1,9.423023E1,2.425078E1,6.956314E1,2.2139671E1,1.973527E1,7.4494965E1,1.4346399E1,9.90438E0,6.367332E1,5.889817E0,1.37907915E1,8.348879E0,1.5765567E1,3.9697025E0,3.6423622E1,3.8071342E1,4.147774E0,1.0198626E1,2.4979804E0,7.4063997E0,6.032474E1,3.3485808E0,1.6649119E0,4.2249055E0,3.7259443E0,1.0064847E1,5.0284295E0,3.3204496E0,9.282411E0,6.483156E0,1.5029801E0,2.4667222E0,2.8710384E1,7.713236E0,3.0782568E1,7.2887745E0,2.9824467E0,1.1653273E0,4.911241E0,5.287384E0,1.020504E0,1.4774764E0,6.079292E0,1.3271081E0,1.8065163E1,4.225958E1,1.8977475E0,1.4508333E0,1.2398101E0,2.486134E0,2.1189744E0,7.945873E0,1.2923795E0,3.7360501E0,1.0081129E0,2.3123364E0,6.2063985E0,3.0760126E0,3.426474E0,3.0566819E0,2.4098864E1,4.6115212E0,5.8127055E0,1.9005302E0,2.0385332E1,1.0397237E1,2.968954E0,4.3198204E0,1.8783917E0,1.104055E0,1.9281965E0,2.9830446E0,1.6751342E0,3.6122499E0,5.0439043E0,1.0353873E0,1.5480129E0,1.6517149E1,2.0315325E1,2.1944254E1,1.031487E0,1.4546471E0,1.0067266E0,1.1122478E0,5.828189E0,2.1176841E0,1.04213E0,2.6939201E0],"tree_param":{"num_deleted":"0","num_feature":"8","num_nodes":"91","size_leaf_vector":"1"}}]},"name":"gbtree"},"learner_model_param":{"base_score":"2.3538704E-1","boost_from_average":"1","num_class":"0","num_feature":"8","num_target":"1"},"objective":{"name":"reg:logistic","reg_loss_param":{"scale_pos_weight":"1"}}},"version":[3,0,0]}