{"learner":{"attributes":{},"feature_names":["Sepal.Length","Sepal.Width","Petal.Length","Petal.Width"],"feature_types":["float","float","float","float"],"gradient_booster":{"model":{"cats":{"enc":[],"feature_segments":[],"sorted_idx":[]},"gbtree_model_param":{"num_parallel_tree":"1","num_trees":"51"},"iteration_indptr":[0,3,6,9,12,15,18,21,24,27,30,33,36,39,42,45,48,51],"tree_info":[0,1,2,0,1,2,0,1,2,0,1,2,0,1,2,0,1,2,0,1,2,0,1,2,0,1,2,0,1,2,0,1,2,0,1,2,0,1,2,0,1,2,0,1,2,0,1,2,0,1,2],"trees":[{"base_weights":[-4.4042842E-8,4.2658964E-1,-5.5280906E-1,3.512195E-1,-2.1355934E-1],"categories":[],"categories_nodes":[],"categories_segments":[],"categories_sizes":[],"default_left":[0,0,0,0,0],"id":0,"left_children":[1,-1,3,-1,-1],"loss_changes":[5.3977165E1,0E0,1.4388029E1,0E0,0E0],"parents":[2147483647,0,0,2,2],"right_children":[2,-1,4,-1,-1],"split_conditions":[3E0,4.2658964E-1,1E0,3.512195E-1,-2.1355934E-1],"split_indices":[2,0,3,0,0],"split_type":[0,0,0,0,0],"sum_hessian":[6.6666664E1,1.8222221E1,4.8444443E1,3.5555553E0,4.4888885E1],"tree_param":{"num_deleted":"0","num_feature":"4","num_nodes":"5","size_leaf_vector":"1"}},{"base_weights":[-4.4042842E-8,-2.1329483E-1,2.7640447E-1,8.113879E-1,-6.0693645E-1,-1.7560977E-1,1.0120481E0,-3.2511625E-8,-2.1140942E-1,1.2676057E0,-4.0000004E-1,-1.2857145E-1,1.2857142E-1,4.2206898E-1,8.5714287E-1,-7.663455E-9,-1.6363637E-1,3.5999998E-1,8.780487E-2],"categories":[],"categories_nodes":[],"categories_segments":[],"categories_sizes":[],"default_left":[0,0,1,0,0,0,1,1,0,0,0,0,0,0,0,0,0,0,0],"id":1,"left_children":[1,-1,3,5,7,-1,9,11,-1,13,15,-1,-1,-1,17,-1,-1,-1,-1],"loss_changes":[1.349429E1,0E0,2.3858555E1,9.343166E0,1.1405511E0,0E0,1.0490816E1,8.5714287E-1,0E0,1.4720154E-1,2.9090917E-1,0E0,0E0,0E0,1.3045297E0,0E0,0E0,0E0,0E0],"parents":[2147483647,0,0,2,2,3,3,4,4,6,6,7,7,9,9,10,10,14,14],"right_children":[2,-1,4,6,8,-1,10,12,-1,14,16,-1,-1,-1,18,-1,-1,-1,-1],"split_conditions":[3E0,-2.1329483E-1,5E0,1E0,1.8E0,-1.7560977E-1,1.7E0,2.7E0,-2.1140942E-1,1.7E0,6.2E0,-1.2857145E-1,1.2857142E-1,4.2206898E-1,5E0,-7.663455E-9,-1.6363637E-1,3.5999998E-1,8.780487E-2],"split_indices":[2,0,2,3,3,0,3,1,0,3,0,0,0,0,2,0,0,0,0],"split_type":[0,0,0,0,0,0,0,0,0,0,0,0,0,0,0,0,0,0,0],"sum_hessian":[6.6666664E1,1.8222221E1,4.8444443E1,3.0222221E1,1.8222221E1,3.5555553E0,2.6666664E1,2.6666665E0,1.5555554E1,2.2666666E1,3.9999998E0,1.3333333E0,1.3333333E0,1.5111111E1,7.5555553E0,1.3333333E0,2.6666665E0,3.9999998E0,3.5555553E0],"tree_param":{"num_deleted":"0","num_feature":"4","num_nodes":"19","size_leaf_vector":"1"}},{"base_weights":[-4.4042842E-8,-5.123596E-1,1.317919E0,-6.674817E-1,3E-1,5.454545E-1,4.228188E-1,-2.1818185E-1,-4.7107443E-1,2.5714284E-1,-7.663455E-9,-2.0224722E-1,7.31707E-2,-3.600001E-2,7.2E-2],"categories":[],"categories_nodes":[],"categories_segments":[],"categories_sizes":[],"default_left":[1,1,0,0,0,1,0,0,0,0,0,0,0,0,0],"id":2,"left_children":[1,3,5,7,-1,9,-1,-1,11,-1,-1,-1,13,-1,-1],"loss_changes":[4.6367058E1,1.2267168E1,5.8953094E-1,1.9107246E-1,0E0,6.233767E-1,0E0,0E0,1.5353012E0,0E0,0E0,0E0,1.7560975E-1,0E0,0E0],"parents":[2147483647,0,0,1,1,2,2,3,3,5,5,8,8,12,12],"right_children":[2,4,6,8,-1,10,-1,-1,12,-1,-1,-1,14,-1,-1],"split_conditions":[5E0,1.7E0,1.8E0,1.7E0,3E-1,2.7E0,4.228188E-1,-2.1818185E-1,5E0,2.5714284E-1,-7.663455E-9,-2.0224722E-1,6.1E0,-3.600001E-2,7.2E-2],"split_indices":[2,3,3,3,0,1,0,0,2,0,0,0,0,0,0],"split_type":[0,0,0,0,0,0,0,0,0,0,0,0,0,0,0],"sum_hessian":[6.6666664E1,4.8444443E1,1.8222221E1,4.4444443E1,3.9999998E0,2.6666665E0,1.5555554E1,3.1999998E1,1.2444444E1,1.3333333E0,1.3333333E0,8.888888E0,3.5555553E0,1.7777777E0,1.7777777E0],"tree_param":{"num_deleted":"0","num_feature":"4","num_nodes":"15","size_leaf_vector":"1"}},{"base_weights":[-3.4168485E-4,2.9381695E-1,-4.795568E-1,2.584874E-1,-1.9041544E-1],"categories":[],"categories_nodes":[],"categories_segments":[],"categories_sizes":[],"default_left":[0,0,0,0,0],"id":3,"left_children":[1,-1,3,-1,-1],"loss_changes":[3.0710785E1,0E0,9.687757E0,0E0,0E0],"parents":[2147483647,0,0,2,2],"right_children":[2,-1,4,-1,-1],"split_conditions":[3E0,2.9381695E-1,1E0,2.584874E-1,-1.9041544E-1],"split_indices":[2,0,3,0,0],"split_type":[0,0,0,0,0],"sum_hessian":[6.3411022E1,2.0485565E1,4.2925457E1,3.9789739E0,3.8946484E1],"tree_param":{"num_deleted":"0","num_feature":"4","num_nodes":"5","size_leaf_vector":"1"}},{"base_weights":[-2.4443127E-3,-1.8967861E-1,2.1077424E-1,5.8630186E-1,-5.310392E-1,-1.5716514E-1,7.2174895E-1,-1.1891692E-2,-1.8797643E-1,2.6615298E-1,-3.47654E-1,-1.1812804E-1,1.0422445E-1,6.5132235E-3,-1.4811872E-1],"categories":[],"categories_nodes":[],"categories_segments":[],"categories_sizes":[],"default_left":[0,0,1,0,0,0,1,1,0,0,0,0,0,0,0],"id":4,"left_children":[1,-1,3,5,7,-1,9,11,-1,-1,13,-1,-1,-1,-1],"loss_changes":[8.838771E0,0E0,1.4011745E1,5.359457E0,8.384938E-1,0E0,5.6060314E0,6.4038223E-1,0E0,0E0,2.6593596E-1,0E0,0E0,0E0,0E0],"parents":[2147483647,0,0,2,2,3,3,4,4,6,6,7,7,10,10],"right_children":[2,-1,4,6,8,-1,10,12,-1,-1,14,-1,-1,-1,-1],"split_conditions":[3E0,-1.8967861E-1,5E0,1E0,1.8E0,-1.5716514E-1,1.7E0,2.7E0,-1.8797643E-1,2.6615298E-1,6.2E0,-1.1812804E-1,1.0422445E-1,6.5132235E-3,-1.4811872E-1],"split_indices":[2,0,2,3,3,0,3,1,0,0,0,0,0,0,0],"split_type":[0,0,0,0,0,0,0,0,0,0,0,0,0,0,0],"sum_hessian":[6.3826744E1,1.5645831E1,4.8180912E1,3.212695E1,1.6053963E1,3.181568E0,2.8945381E1,2.6702292E0,1.3383734E1,2.5215202E1,3.7301798E0,1.2479876E0,1.4222414E0,1.2984065E0,2.4317732E0],"tree_param":{"num_deleted":"0","num_feature":"4","num_nodes":"15","size_leaf_vector":"1"}},{"base_weights":[2.793695E-3,-4.5590258E-1,8.998838E-1,-5.894442E-1,2.1078867E-1,4.024035E-1,9.516827E-1,-1.9473207E-1,-3.9849868E-1,1.9691887E-1,-1.1828873E-2,8.448931E-2,2.970305E-1,-1.7900391E-1,4.477736E-2,-4.220809E-2,6.430513E-2],"categories":[],"categories_nodes":[],"categories_segments":[],"categories_sizes":[],"default_left":[1,1,0,0,0,1,0,0,0,0,0,0,0,0,1,0,0],"id":5,"left_children":[1,3,5,7,-1,9,11,-1,13,-1,-1,-1,-1,-1,15,-1,-1],"loss_changes":[2.6991467E1,7.129607E0,1.8887901E-1,1.9091415E-1,0E0,4.5516568E-1,2.196846E-1,0E0,1.0796123E0,0E0,0E0,0E0,0E0,0E0,1.7587295E-1,0E0,0E0],"parents":[2147483647,0,0,1,1,2,2,3,3,5,5,6,6,8,8,14,14],"right_children":[2,4,6,8,-1,10,12,-1,14,-1,-1,-1,-1,-1,16,-1,-1],"split_conditions":[4.9E0,1.7E0,5.1E0,1.7E0,2.1078867E-1,2.5E0,6.1E0,-1.9473207E-1,4.8E0,1.9691887E-1,-1.1828873E-2,8.448931E-2,2.970305E-1,-1.7900391E-1,6E0,-4.220809E-2,6.430513E-2],"split_indices":[2,3,2,3,0,1,0,0,2,0,0,0,0,0,0,0,0],"split_type":[0,0,0,0,0,0,0,0,0,0,0,0,0,0,0,0,0],"sum_hessian":[6.359716E1,4.2406067E1,2.1191092E1,3.8463654E1,3.9424152E0,2.8252995E0,1.8365791E1,2.747836E1,1.0985293E1,1.4856416E0,1.339658E0,1.447688E0,1.6918104E1,7.35219E0,3.6331038E0,1.8165519E0,1.8165519E0],"tree_param":{"num_deleted":"0","num_feature":"4","num_nodes":"17","size_leaf_vector":"1"}},{"base_weights":[-3.5242827E-4,2.3546144E-1,-4.2895487E-1,2.0904069E-1,-1.7404601E-1],"categories":[],"categories_nodes":[],"categories_segments":[],"categories_sizes":[],"default_left":[0,0,0,0,0],"id":6,"left_children":[1,-1,3,-1,-1],"loss_changes":[1.9612091E1,0E0,6.8207583E0,0E0,0E0],"parents":[2147483647,0,0,2,2],"right_children":[2,-1,4,-1,-1],"split_conditions":[3E0,2.3546144E-1,1E0,2.0904069E-1,-1.7404601E-1],"split_indices":[2,0,3,0,0],"split_type":[0,0,0,0,0],"sum_hessian":[5.6273754E1,1.957677E1,3.6696983E1,3.917852E0,3.277913E1],"tree_param":{"num_deleted":"0","num_feature":"4","num_nodes":"5","size_leaf_vector":"1"}},{"base_weights":[-7.5903325E-3,-1.7345342E-1,1.6709806E-1,4.589986E-1,-4.7354293E-1,-1.4179935E-1,5.6382656E-1,4.360349E-3,-1.7237149E-1,6.9158775E-1,-3.0100015E-1,-1.0574595E-1,9.35003E-2,2.3575564E-1,4.431037E-1,1.27451075E-2,-1.3519499E-1,1.7668039E-1,-5.967556E-2],"categories":[],"categories_nodes":[],"categories_segments":[],"categories_sizes":[],"default_left":[0,0,1,0,0,0,1,1,0,0,0,0,0,0,0,0,0,0,0],"id":7,"left_children":[1,-1,3,5,7,-1,9,11,-1,13,15,-1,-1,-1,17,-1,-1,-1,-1],"loss_changes":[5.944527E0,0E0,8.7622385E0,3.3818626E0,7.1684027E-1,0E0,3.4266167E0,5.0182647E-1,0E0,2.5335217E-1,2.476818E-1,0E0,0E0,0E0,9.9313223E-1,0E0,0E0,0E0,0E0],"parents":[2147483647,0,0,2,2,3,3,4,4,6,6,7,7,9,9,10,10,14,14],"right_children":[2,-1,4,6,8,-1,10,12,-1,14,16,-1,-1,-1,18,-1,-1,-1,-1],"split_conditions":[3E0,-1.7345342E-1,5E0,1E0,1.8E0,-1.4179935E-1,1.7E0,2.7E0,-1.7237149E-1,1.7E0,6.2E0,-1.0574595E-1,9.35003E-2,2.3575564E-1,6.8E0,1.27451075E-2,-1.3519499E-1,1.7668039E-1,-5.967556E-2],"split_indices":[2,0,2,3,3,0,3,1,0,3,0,0,0,0,0,0,0,0,0],"split_type":[0,0,0,0,0,0,0,0,0,0,0,0,0,0,0,0,0,0,0],"sum_hessian":[5.7669792E1,1.29760685E1,4.4693726E1,3.0898651E1,1.37950735E1,2.770122E0,2.8128529E1,2.5743384E0,1.1220736E1,2.4682491E1,3.4460368E0,1.1231334E0,1.4512048E0,1.632637E1,8.35612E0,1.2630751E0,2.1829615E0,6.876793E0,1.4793274E0],"tree_param":{"num_deleted":"0","num_feature":"4","num_nodes":"19","size_leaf_vector":"1"}},{"base_weights":[8.005785E-3,-3.9988798E-1,7.2026366E-1,-5.3004783E-1,5.592985E-1,6.514654E-2,7.45767E-1,-1.7931262E-1,-3.299826E-1,2.0033523E-1,5.513614E-2,3.2885107E-1,2.382467E-1,-1.625786E-1,7.9448454E-2,1.6407481E-1,-1.4249076E-2,-3.2352317E-2,7.0771135E-2],"categories":[],"categories_nodes":[],"categories_segments":[],"categories_sizes":[],"default_left":[1,1,0,0,0,0,0,0,0,0,0,1,0,0,0,0,0,0,0],"id":8,"left_children":[1,3,5,7,9,-1,11,-1,13,-1,-1,15,-1,-1,17,-1,-1,-1,-1],"loss_changes":[1.7180977E1,4.992691E0,1.1430931E-1,2.5806427E-1,8.0186486E-2,0E0,1.4395142E-1,0E0,9.744216E-1,0E0,0E0,3.374279E-1,0E0,0E0,1.5826844E-1,0E0,0E0,0E0,0E0],"parents":[2147483647,0,0,1,1,2,2,3,3,4,4,6,6,8,8,11,11,14,14],"right_children":[2,4,6,8,10,-1,12,-1,14,-1,-1,16,-1,-1,18,-1,-1,-1,-1],"split_conditions":[4.9E0,1.7E0,6.1E0,1.7E0,3.2E0,6.514654E-2,5.1E0,-1.7931262E-1,4.8E0,2.0033523E-1,5.513614E-2,2.5E0,2.382467E-1,-1.625786E-1,3.1E0,1.6407481E-1,-1.4249076E-2,-3.2352317E-2,7.0771135E-2],"split_indices":[2,3,0,3,1,0,2,0,2,0,0,1,0,0,1,0,0,0,0],"split_type":[0,0,0,0,0,0,0,0,0,0,0,0,0,0,0,0,0,0,0],"sum_hessian":[5.714619E1,3.661575E1,2.053044E1,3.263468E1,3.981069E0,1.4495583E0,1.9080881E1,2.2901848E1,9.732835E0,2.484859E0,1.4962101E0,2.7950232E0,1.6285858E1,6.1998215E0,3.5330129E0,1.4826956E0,1.3123277E0,1.7494749E0,1.7835381E0],"tree_param":{"num_deleted":"0","num_feature":"4","num_nodes":"19","size_leaf_vector":"1"}},{"base_weights":[-1.6405527E-3,2.0297569E-1,-3.9208412E-1,1.7820181E-1,-1.6179313E-1],"categories":[],"categories_nodes":[],"categories_segments":[],"categories_sizes":[],"default_left":[0,0,0,0,0],"id":9,"left_children":[1,-1,3,-1,-1],"loss_changes":[1.3238895E1,0E0,4.9262633E0,0E0,0E0],"parents":[2147483647,0,0,2,2],"right_children":[2,-1,4,-1,-1],"split_conditions":[3E0,2.0297569E-1,1E0,1.7820181E-1,-1.6179313E-1],"split_indices":[2,0,3,0,0],"split_type":[0,0,0,0,0],"sum_hessian":[4.7992344E1,1.7266476E1,3.0725868E1,3.597297E0,2.7128572E1],"tree_param":{"num_deleted":"0","num_feature":"4","num_nodes":"5","size_leaf_vector":"1"}},{"base_weights":[-1.0780524E-2,-1.6130984E-1,1.383189E-1,3.793747E-1,-4.2588437E-1,-1.2873742E-1,4.6716133E-1,2.0337364E-2,-1.6060373E-1,5.7727516E-1,-2.634044E-1,2.0929575E-2,-1.021571E-2,2.0233867E-1,3.4781808E-1,1.4376868E-2,-1.2384024E-1,1.8536647E-1,7.360661E-4],"categories":[],"categories_nodes":[],"categories_segments":[],"categories_sizes":[],"default_left":[0,0,1,0,0,0,1,0,0,0,0,0,0,0,0,0,0,0,0],"id":10,"left_children":[1,-1,3,5,7,-1,9,11,-1,13,15,-1,-1,-1,17,-1,-1,-1,-1],"loss_changes":[4.100569E0,0E0,5.7024198E0,2.2639694E0,6.295841E-1,0E0,2.3003201E0,1.1673582E-2,0E0,2.899146E-1,2.1440849E-1,0E0,0E0,0E0,8.437958E-1,0E0,0E0,0E0,0E0],"parents":[2147483647,0,0,2,2,3,3,4,4,6,6,7,7,9,9,10,10,14,14],"right_children":[2,-1,4,6,8,-1,10,12,-1,14,16,-1,-1,-1,18,-1,-1,-1,-1],"split_conditions":[3E0,-1.6130984E-1,5E0,1E0,1.8E0,-1.2873742E-1,1.7E0,6.4E0,-1.6060373E-1,1.7E0,6.2E0,2.0929575E-2,-1.021571E-2,2.0233867E-1,5E0,1.4376868E-2,-1.2384024E-1,1.8536647E-1,7.360661E-4],"split_indices":[2,0,2,3,3,0,3,0,0,3,0,0,0,0,2,0,0,0,0],"split_type":[0,0,0,0,0,0,0,0,0,0,0,0,0,0,0,0,0,0,0],"sum_hessian":[5.024778E1,1.0507577E1,3.9740204E1,2.8073425E1,1.1666779E1,2.3688118E0,2.5704613E1,2.458569E0,9.208209E0,2.2520115E1,3.1844978E0,1.1399355E0,1.3186336E0,1.4457308E1,8.062807E0,1.2528679E0,1.9316299E0,4.0818048E0,3.9810028E0],"tree_param":{"num_deleted":"0","num_feature":"4","num_nodes":"19","size_leaf_vector":"1"}},{"base_weights":[1.2492206E-2,-3.54862E-1,6.135249E-1,-4.835506E-1,4.6961233E-1,2.5105122E-1,1.9784632E-1,-1.6779886E-1,-2.8116122E-1,1.7154832E-1,4.2512767E-2,1.4117128E-1,-2.1716848E-2,-1.505724E-1,8.482858E-2,-3.3069745E-2,7.431441E-2],"categories":[],"categories_nodes":[],"categories_segments":[],"categories_sizes":[],"default_left":[1,1,0,0,0,1,0,0,0,0,0,0,0,0,1,0,0],"id":11,"left_children":[1,3,5,7,9,11,-1,-1,13,-1,-1,-1,-1,-1,15,-1,-1],"loss_changes":[1.1402955E1,3.630321E0,1.6071033E-1,2.7581596E-1,8.111787E-2,3.051855E-1,0E0,0E0,8.265167E-1,0E0,0E0,0E0,0E0,0E0,1.704767E-1,0E0,0E0],"parents":[2147483647,0,0,1,1,2,2,3,3,4,4,5,5,8,8,14,14],"right_children":[2,4,6,8,10,12,-1,-1,14,-1,-1,-1,-1,-1,16,-1,-1],"split_conditions":[4.9E0,1.7E0,1.8E0,1.7E0,3.2E0,2.7E0,1.9784632E-1,-1.6779886E-1,4.8E0,1.7154832E-1,4.2512767E-2,1.4117128E-1,-2.1716848E-2,-1.505724E-1,6E0,-3.3069745E-2,7.431441E-2],"split_indices":[2,3,3,3,1,1,0,0,2,0,0,0,0,0,0,0,0],"split_type":[0,0,0,0,0,0,0,0,0,0,0,0,0,0,0,0,0],"sum_hessian":[4.965964E1,3.1075638E1,1.8584003E1,2.7237722E1,3.837914E0,2.81852E0,1.5765484E1,1.8534414E1,8.703308E0,2.3587434E0,1.4791706E0,1.4080104E0,1.4105098E0,5.1972284E0,3.5060802E0,1.7425628E0,1.7635174E0],"tree_param":{"num_deleted":"0","num_feature":"4","num_nodes":"17","size_leaf_vector":"1"}},{"base_weights":[-2.5335872E-3,1.8239218E-1,-3.6212113E-1,1.5673748E-1,-1.5164798E-1],"categories":[],"categories_nodes":[],"categories_segments":[],"categories_sizes":[],"default_left":[0,0,0,0,0],"id":12,"left_children":[1,-1,3,-1,-1],"loss_changes":[9.204331E0,0E0,3.6099162E0,0E0,0E0],"parents":[2147483647,0,0,2,2],"right_children":[2,-1,4,-1,-1],"split_conditions":[3E0,1.8239218E-1,1E0,1.5673748E-1,-1.5164798E-1],"split_indices":[2,0,3,0,0],"split_type":[0,0,0,0,0],"sum_hessian":[3.9924404E1,1.4542835E1,2.5381569E1,3.1712813E0,2.2210287E1],"tree_param":{"num_deleted":"0","num_feature":"4","num_nodes":"5","size_leaf_vector":"1"}},{"base_weights":[-1.1975419E-2,-1.5149948E-1,1.18297346E-1,3.0867153E-1,-4.3785676E-1,-1.1730472E-1,3.801694E-1,3.333951E-2,-1.5512554E-1,4.6854264E-1,-2.2289293E-1,1.7085202E-1,1.1544719E-1,2.574474E-2,-1.1623824E-1,1.1886624E-1,-9.552162E-2],"categories":[],"categories_nodes":[],"categories_segments":[],"categories_sizes":[],"default_left":[0,0,1,0,0,0,1,0,0,0,1,0,0,0,0,0,0],"id":13,"left_children":[1,-1,3,5,7,-1,9,-1,-1,11,13,-1,15,-1,-1,-1,-1],"loss_changes":[2.8828008E0,0E0,3.902021E0,1.5039306E0,4.7007215E-1,0E0,1.4414229E0,0E0,0E0,7.2577906E-1,2.3057152E-1,0E0,8.803395E-1,0E0,0E0,0E0,0E0],"parents":[2147483647,0,0,2,2,3,3,4,4,6,6,9,9,10,10,12,12],"right_children":[2,-1,4,6,8,-1,10,-1,-1,12,14,-1,16,-1,-1,-1,-1],"split_conditions":[3E0,-1.5149948E-1,5.1E0,1E0,6.1E0,-1.1730472E-1,1.8E0,3.333951E-2,-1.5512554E-1,7.2E0,6.1E0,1.7085202E-1,1.6E0,2.574474E-2,-1.1623824E-1,1.1886624E-1,-9.552162E-2],"split_indices":[2,0,2,3,0,0,3,0,0,0,0,0,3,0,0,0,0],"split_type":[0,0,0,0,0,0,0,0,0,0,0,0,0,0,0,0,0],"sum_hessian":[4.295412E1,8.376486E0,3.4577637E1,2.6091412E1,8.486225E0,2.0046577E0,2.4086754E1,1.0194671E0,7.466758E0,2.1202745E1,2.884007E0,1.6011517E1,5.1912293E0,1.1692252E0,1.7147818E0,3.2042766E0,1.9869528E0],"tree_param":{"num_deleted":"0","num_feature":"4","num_nodes":"17","size_leaf_vector":"1"}},{"base_weights":[1.4505151E-2,-3.068151E-1,5.590974E-1,-4.4884184E-1,4.2913723E-1,3.0926803E-2,5.920242E-1,-1.5985014E-1,-2.62573E-1,3.49827E-2,1.5738198E-1,6.814567E-2,1.8679523E-1,-1.411661E-1,6.0153276E-2,-3.378269E-2,6.2022634E-2],"categories":[],"categories_nodes":[],"categories_segments":[],"categories_sizes":[],"default_left":[1,1,0,0,0,0,0,0,0,0,0,0,0,0,1,0,0],"id":14,"left_children":[1,3,5,7,9,-1,11,-1,13,-1,-1,-1,-1,-1,15,-1,-1],"loss_changes":[7.7724304E0,3.1155388E0,1.8630266E-1,2.3446465E-1,8.904934E-2,0E0,2.7888775E-2,0E0,6.5979534E-1,0E0,0E0,0E0,0E0,0E0,1.3910982E-1,0E0,0E0],"parents":[2147483647,0,0,1,1,2,2,3,3,4,4,6,6,8,8,14,14],"right_children":[2,4,6,8,10,-1,12,-1,14,-1,-1,-1,-1,-1,16,-1,-1],"split_conditions":[5E0,1.7E0,6.1E0,5E0,6.2E0,3.0926803E-2,5.1E0,-1.5985014E-1,1.7E0,3.49827E-2,1.5738198E-1,6.814567E-2,1.8679523E-1,-1.411661E-1,6E0,-3.378269E-2,6.2022634E-2],"split_indices":[2,3,0,2,0,0,2,0,3,0,0,0,0,0,0,0,0],"split_type":[0,0,0,0,0,0,0,0,0,0,0,0,0,0,0,0,0],"sum_hessian":[4.2436512E1,2.6963896E1,1.5472617E1,2.292908E1,4.0348167E0,1.3201743E0,1.4152443E1,1.4520821E1,8.408258E0,1.4639293E0,2.5708873E0,1.7477162E0,1.2404727E1,4.8345675E0,3.573691E0,1.7468019E0,1.826889E0],"tree_param":{"num_deleted":"0","num_feature":"4","num_nodes":"17","size_leaf_vector":"1"}},{"base_weights":[-3.4645454E-3,1.6792487E-1,-3.35512E-1,1.4087653E-1,-4.7561908E-1,-1.5516734E-1,-2.8475806E-1,-1.3064472E-1,4.846085E-2],"categories":[],"categories_nodes":[],"categories_segments":[],"categories_sizes":[],"default_left":[0,0,0,0,0,0,0,0,0],"id":15,"left_children":[1,-1,3,-1,5,-1,7,-1,-1],"loss_changes":[6.4992476E0,0E0,2.6887796E0,0E0,4.495144E-3,0E0,4.5012346E-1,0E0,0E0],"parents":[2147483647,0,0,2,2,4,4,6,6],"right_children":[2,-1,4,-1,6,-1,8,-1,-1],"split_conditions":[3E0,1.6792487E-1,1E0,1.4087653E-1,1.580001E1,-1.5516734E-1,3.7E0,-1.3064472E-1,4.846085E-2],"split_indices":[2,0,3,0,0,0,1,0,0],"split_type":[0,0,0,0,0,0,0,0,0],"sum_hessian":[3.274855E1,1.18919115E1,2.085664E1,2.7429757E0,1.8113665E1,1.3467878E1,4.645785E0,3.4910119E0,1.1547732E0],"tree_param":{"num_deleted":"0","num_feature":"4","num_nodes":"9","size_leaf_vector":"1"}},{"base_weights":[-1.54331075E-2,-1.440583E-1,9.804273E-2,4.5458135E-1,-1.7482063E-1,5.170434E-1,-1.31444065E-2,1.1160633E-2,-1.4276756E-1,2.5095308E-1,1.6962682E-1,-1.9768877E-1,1.3053183E-1,1.09548226E-1,2.336498E-3,-1.5289903E-1,5.2721485E-2,1.2131836E-1,-6.1302237E-2],"categories":[],"categories_nodes":[],"categories_segments":[],"categories_sizes":[],"default_left":[0,0,0,1,1,0,0,1,0,0,0,1,0,0,0,0,0,0,0],"id":16,"left_children":[1,-1,3,5,7,9,-1,11,-1,13,-1,15,-1,-1,-1,-1,17,-1,-1],"loss_changes":[2.0268588E0,0E0,3.0956068E0,4.4971633E-1,1.0291206E0,1.6042471E-2,0E0,1.1732583E0,0E0,9.9506274E-2,0E0,7.232765E-1,0E0,0E0,0E0,0E0,6.116096E-1,0E0,0E0],"parents":[2147483647,0,0,2,2,3,3,4,4,5,5,7,7,9,9,11,11,16,16],"right_children":[2,-1,4,6,8,10,-1,12,-1,14,-1,16,-1,-1,-1,-1,18,-1,-1],"split_conditions":[1E0,-1.440583E-1,1.8E0,5.1E0,5E0,2.6E0,-1.31444065E-2,3.8E0,-1.4276756E-1,6.4E0,1.6962682E-1,5.6E0,1.3053183E-1,1.09548226E-1,2.336498E-3,-1.5289903E-1,6E0,1.2131836E-1,-6.1302237E-2],"split_indices":[3,0,3,2,2,1,0,2,0,0,0,0,0,0,0,0,0,0,0],"split_type":[0,0,0,0,0,0,0,0,0,0,0,0,0,0,0,0,0,0,0],"sum_hessian":[3.653907E1,6.5363903E0,3.000268E1,1.2718286E1,1.7284395E1,1.1268618E1,1.4496679E0,1.1279573E1,6.004821E0,2.6854732E0,8.583144E0,7.9143825E0,3.365191E0,1.4858912E0,1.199582E0,3.063008E0,4.8513746E0,1.8066523E0,3.0447223E0],"tree_param":{"num_deleted":"0","num_feature":"4","num_nodes":"19","size_leaf_vector":"1"}},{"base_weights":[1.8845184E-2,-2.7216166E-1,5.026703E-1,-4.108246E-1,3.7306726E-1,1.5654384E-1,1.7011605E-1,-1.5193623E-1,-2.1248299E-1,2.6976539E-2,1.4088087E-1,1.1499187E-1,-3.463385E-2,-1.3273984E-1,7.4797735E-2,-3.1964593E-2,6.710874E-2],"categories":[],"categories_nodes":[],"categories_segments":[],"categories_sizes":[],"default_left":[1,1,0,0,0,1,0,0,0,0,0,0,0,0,1,0,0],"id":17,"left_children":[1,3,5,7,9,11,-1,-1,13,-1,-1,-1,-1,-1,15,-1,-1],"loss_changes":[5.33876E0,2.2754042E0,2.2828579E-1,2.7172184E-1,8.6781025E-2,2.6707414E-1,0E0,0E0,5.7676053E-1,0E0,0E0,0E0,0E0,0E0,1.457215E-1,0E0,0E0],"parents":[2147483647,0,0,1,1,2,2,3,3,4,4,5,5,8,8,14,14],"right_children":[2,4,6,8,10,12,-1,-1,14,-1,-1,-1,-1,-1,16,-1,-1],"split_conditions":[5E0,1.7E0,1.8E0,1.7E0,6.2E0,2.7E0,1.7011605E-1,-1.5193623E-1,5E0,2.6976539E-2,1.4088087E-1,1.1499187E-1,-3.463385E-2,-1.3273984E-1,6E0,-3.1964593E-2,6.710874E-2],"split_indices":[2,3,3,3,0,1,0,0,2,0,0,0,0,0,0,0,0],"split_type":[0,0,0,0,0,0,0,0,0,0,0,0,0,0,0,0,0],"sum_hessian":[3.594662E1,2.2719175E1,1.32274475E1,1.8999397E1,3.719777E0,2.6127326E0,1.0614716E1,1.1770741E1,7.2286563E0,1.4368593E0,2.282918E0,1.2016401E0,1.4110925E0,3.714677E0,3.5139792E0,1.7125925E0,1.8013866E0],"tree_param":{"num_deleted":"0","num_feature":"4","num_nodes":"17","size_leaf_vector":"1"}},{"base_weights":[-6.8696328E-3,1.5699944E-1,-3.1507942E-1,1.2663925E-1,-4.4869372E-1,-1.4920554E-1,-2.4480483E-1,-1.22531705E-1,5.116587E-2],"categories":[],"categories_nodes":[],"categories_segments":[],"categories_sizes":[],"default_left":[0,0,0,0,0,0,0,0,0],"id":18,"left_children":[1,-1,3,-1,5,-1,7,-1,-1],"loss_changes":[4.6970086E0,0E0,1.9784877E0,0E0,3.5598755E-2,0E0,4.112097E-1,0E0,0E0],"parents":[2147483647,0,0,2,2,4,4,6,6],"right_children":[2,-1,4,-1,6,-1,8,-1,-1],"split_conditions":[3E0,1.5699944E-1,1E0,1.2663925E-1,1.580001E1,-1.4920554E-1,3.7E0,-1.22531705E-1,5.116587E-2],"split_indices":[2,0,3,0,0,0,1,0,0],"split_type":[0,0,0,0,0,0,0,0,0],"sum_hessian":[2.6734106E1,9.571192E0,1.7162914E1,2.302065E0,1.4860849E1,1.0835607E1,4.0252423E0,2.8995817E0,1.1256609E0],"tree_param":{"num_deleted":"0","num_feature":"4","num_nodes":"9","size_leaf_vector":"1"}},{"base_weights":[-1.4584465E-2,-1.3604215E-1,8.7248564E-2,4.102942E-1,-1.5621488E-1,4.7655016E-1,-1.2959722E-2,6.1973496E-3,-1.342577E-1,2.1720265E-1,1.5769489E-1,-3.7472636E-1,1.8852906E-1,9.735032E-2,1.0540234E-4,-1.3978542E-1,-2.934097E-2,-3.858685E-2,3.1751224E-1,1.2182185E-1,-8.5682166E-4],"categories":[],"categories_nodes":[],"categories_segments":[],"categories_sizes":[],"default_left":[0,0,0,1,1,0,0,1,0,0,0,1,0,0,0,0,0,0,0,0,0],"id":19,"left_children":[1,-1,3,5,7,9,-1,11,-1,13,-1,15,17,-1,-1,-1,-1,-1,19,-1,-1],"loss_changes":[1.4702616E0,0E0,2.1735888E0,3.7521255E-1,7.606636E-1,1.8018007E-2,0E0,8.5347944E-1,0E0,7.798837E-2,0E0,5.5056036E-2,3.7987277E-1,0E0,0E0,0E0,0E0,0E0,1.764999E-1,0E0,0E0],"parents":[2147483647,0,0,2,2,3,3,4,4,5,5,7,7,9,9,11,11,12,12,18,18],"right_children":[2,-1,4,6,8,10,-1,12,-1,14,-1,16,18,-1,-1,-1,-1,-1,20,-1,-1],"split_conditions":[1E0,-1.3604215E-1,1.8E0,5.1E0,5E0,2.6E0,-1.2959722E-2,5.5E0,-1.342577E-1,6.4E0,1.5769489E-1,1.5E0,2.3E0,9.735032E-2,1.0540234E-4,-1.3978542E-1,-2.934097E-2,-3.858685E-2,3.5E0,1.2182185E-1,-8.5682166E-4],"split_indices":[3,0,3,2,2,1,0,0,0,0,0,2,3,0,0,0,0,0,1,0,0],"split_type":[0,0,0,0,0,0,0,0,0,0,0,0,0,0,0,0,0,0,0,0,0],"sum_hessian":[3.101134E1,5.189979E0,2.582136E1,1.0802521E1,1.5018839E1,9.381089E0,1.421432E0,1.0271163E1,4.747676E0,2.3566723E0,7.024417E0,2.9833076E0,7.287855E0,1.2444795E0,1.1121929E0,1.7306035E0,1.2527041E0,2.107817E0,5.1800385E0,3.848629E0,1.3314095E0],"tree_param":{"num_deleted":"0","num_feature":"4","num_nodes":"21","size_leaf_vector":"1"}},{"base_weights":[2.086847E-2,-2.5335237E-1,4.435831E-1,-3.7883717E-1,3.1445011E-1,9.647969E-3,4.8271096E-1,-4.4922268E-1,-1.037817E-1,2.0529814E-2,1.3240236E-1,1.5949287E-1,1.6143009E-1,-1.5158413E-1,-2.4460858E-1,4.770541E-2,-1.1377316E-1,1.0305658E-1,-3.1120975E-2,3.3442862E-2,-1.16354376E-1],"categories":[],"categories_nodes":[],"categories_segments":[],"categories_sizes":[],"default_left":[1,1,0,1,0,0,0,1,0,0,0,1,0,0,1,0,0,0,0,0,0],"id":20,"left_children":[1,3,5,7,9,-1,11,13,15,-1,-1,17,-1,-1,19,-1,-1,-1,-1,-1,-1],"loss_changes":[3.7639654E0,1.5258456E0,1.898613E-1,2.7520514E-1,9.8412395E-2,0E0,1.2147403E-1,2.4780273E-2,3.9964306E-1,0E0,0E0,1.8654391E-1,0E0,0E0,2.8399295E-1,0E0,0E0,0E0,0E0,0E0,0E0],"parents":[2147483647,0,0,1,1,2,2,3,3,4,4,6,6,7,7,8,8,11,11,14,14],"right_children":[2,4,6,8,10,-1,12,14,16,-1,-1,18,-1,-1,20,-1,-1,-1,-1,-1,-1],"split_conditions":[4.9E0,1.7E0,6.1E0,6E0,1.9E0,9.647969E-3,5.1E0,3.2E0,6.3E0,2.0529814E-2,1.3240236E-1,2.5E0,1.6143009E-1,-1.5158413E-1,4.6E0,4.770541E-2,-1.1377316E-1,1.0305658E-1,-3.1120975E-2,3.3442862E-2,-1.16354376E-1],"split_indices":[2,3,0,0,3,0,2,1,0,0,0,1,0,0,0,0,0,0,0,0,0],"split_type":[0,0,0,0,0,0,0,0,0,0,0,0,0,0,0,0,0,0,0,0,0],"sum_hessian":[3.0501654E1,1.874328E1,1.1758372E1,1.5623318E1,3.1199636E0,1.1793723E0,1.0579E1,1.1935792E1,3.6875255E0,1.5854275E0,1.5345364E0,2.115242E0,8.463758E0,8.215558E0,3.720234E0,2.1034703E0,1.5840553E0,1.0653827E0,1.0498593E0,1.1308225E0,2.5894115E0],"tree_param":{"num_deleted":"0","num_feature":"4","num_nodes":"21","size_leaf_vector":"1"}},{"base_weights":[-7.6737804E-3,1.4865488E-1,-2.9615033E-1,1.1521787E-1,-4.2395723E-1,-1.4384821E-1,-2.1323676E-1,-1.15919985E-1,5.15841E-2],"categories":[],"categories_nodes":[],"categories_segments":[],"categories_sizes":[],"default_left":[0,0,0,0,0,0,0,0,0],"id":21,"left_children":[1,-1,3,-1,5,-1,7,-1,-1],"loss_changes":[3.4890559E0,0E0,1.4895432E0,0E0,5.36623E-2,0E0,3.7190405E-1,0E0,0E0],"parents":[2147483647,0,0,2,2,4,4,6,6],"right_children":[2,-1,4,-1,6,-1,8,-1,-1],"split_conditions":[3E0,1.4865488E-1,1E0,1.1521787E-1,1.580001E1,-1.4384821E-1,3.7E0,-1.15919985E-1,5.15841E-2],"split_indices":[2,0,3,0,0,0,1,0,0],"split_type":[0,0,0,0,0,0,0,0,0],"sum_hessian":[2.202523E1,7.764283E0,1.4260948E1,1.938567E0,1.2322381E1,8.742689E0,3.579692E0,2.4673243E0,1.1123674E0],"tree_param":{"num_deleted":"0","num_feature":"4","num_nodes":"9","size_leaf_vector":"1"}},{"base_weights":[-1.6121734E-2,-1.2826934E-1,7.418179E-2,3.7844166E-1,-1.4787924E-1,1.3929054E-1,3.6324326E-2,-7.3942356E-3,-1.2688571E-1,2.7089493E-2,-9.980419E-3,-1.749498E-1,1.0827641E-1,-1.3886744E-1,2.8582321E-2,1.0214751E-1,-5.834352E-2],"categories":[],"categories_nodes":[],"categories_segments":[],"categories_sizes":[],"default_left":[0,0,0,1,1,0,1,1,0,0,0,1,0,0,0,0,0],"id":22,"left_children":[1,-1,3,5,7,-1,9,11,-1,-1,-1,13,-1,-1,15,-1,-1],"loss_changes":[1.0572921E0,0E0,1.6428486E0,2.8247058E-1,5.4934585E-1,0E0,1.4758115E-2,7.0997566E-1,0E0,0E0,0E0,4.7489467E-1,0E0,0E0,4.5284972E-1,0E0,0E0],"parents":[2147483647,0,0,2,2,3,3,4,4,6,6,7,7,11,11,14,14],"right_children":[2,-1,4,6,8,-1,10,12,-1,-1,-1,14,-1,-1,16,-1,-1],"split_conditions":[1E0,-1.2826934E-1,1.8E0,5E0,5E0,1.3929054E-1,6.3E0,3.8E0,-1.2688571E-1,2.7089493E-2,-9.980419E-3,5.6E0,1.0827641E-1,-1.3886744E-1,6E0,1.0214751E-1,-5.834352E-2],"split_indices":[3,0,3,2,2,0,0,2,0,0,0,0,0,0,0,0,0],"split_type":[0,0,0,0,0,0,0,0,0,0,0,0,0,0,0,0,0],"sum_hessian":[2.6602804E1,4.1157575E0,2.2487045E1,9.190431E0,1.3296615E1,7.0611696E0,2.1292613E0,9.481246E0,3.815369E0,1.0316274E0,1.0976338E0,6.8775053E0,2.603741E0,2.3204367E0,4.5570683E0,1.6806024E0,2.876466E0],"tree_param":{"num_deleted":"0","num_feature":"4","num_nodes":"17","size_leaf_vector":"1"}},{"base_weights":[2.2862004E-2,-2.2297814E-1,4.060241E-1,-3.445906E-1,2.7477664E-1,1.097259E-3,4.5163548E-1,-1.4012673E-1,-1.407054E-1,1.18130736E-1,7.0793703E-3,4.4218145E-2,1.5233177E-1,-1.1305983E-1,6.865493E-2,-2.704957E-2,5.687208E-2],"categories":[],"categories_nodes":[],"categories_segments":[],"categories_sizes":[],"default_left":[1,1,0,0,0,0,0,0,0,0,0,0,0,0,1,0,0],"id":23,"left_children":[1,3,5,7,9,-1,11,-1,13,-1,-1,-1,-1,-1,15,-1,-1],"loss_changes":[2.6520572E0,1.1364961E0,1.999098E-1,2.9080355E-1,1.0833797E-1,0E0,9.349704E-2,0E0,3.6152902E-1,0E0,0E0,0E0,0E0,0E0,1.02446124E-1,0E0,0E0],"parents":[2147483647,0,0,1,1,2,2,3,3,4,4,6,6,8,8,14,14],"right_children":[2,4,6,8,10,-1,12,-1,14,-1,-1,-1,-1,-1,16,-1,-1],"split_conditions":[4.9E0,1.7E0,6.1E0,1.7E0,3.2E0,1.097259E-3,5.1E0,-1.4012673E-1,4.8E0,1.18130736E-1,7.0793703E-3,4.4218145E-2,1.5233177E-1,-1.1305983E-1,6E0,-2.704957E-2,5.687208E-2],"split_indices":[2,3,0,3,1,0,2,0,2,0,0,0,0,0,0,0,0],"split_type":[0,0,0,0,0,0,0,0,0,0,0,0,0,0,0,0,0],"sum_hessian":[2.619336E1,1.6210573E1,9.982787E0,1.3274926E1,2.9356468E0,1.1263895E0,8.856398E0,7.4861493E0,5.7887764E0,1.6067743E0,1.3288723E0,1.9443525E0,6.912045E0,2.3442988E0,3.4444778E0,1.598831E0,1.8456467E0],"tree_param":{"num_deleted":"0","num_feature":"4","num_nodes":"17","size_leaf_vector":"1"}},{"base_weights":[-1.0755842E-2,2.7843785E-1,-1.3842244E-1,4.418758E-1,-1.07062444E-1,1.5701936E-1,-3.7719388E-2],"categories":[],"categories_nodes":[],"categories_segments":[],"categories_sizes":[],"default_left":[1,1,0,1,0,0,0],"id":24,"left_children":[1,3,-1,5,-1,-1,-1],"loss_changes":[2.6088314E0,1.4261687E0,0E0,5.360962E-1,0E0,0E0,0E0],"parents":[2147483647,0,0,1,1,3,3],"right_children":[2,4,-1,6,-1,-1,-1],"split_conditions":[1E0,3.8E0,-1.3842244E-1,5.6E0,-1.07062444E-1,1.5701936E-1,-3.7719388E-2],"split_indices":[3,2,0,0,0,0,0],"split_type":[0,0,0,0,0,0,0],"sum_hessian":[1.8031979E1,1.1216344E1,6.8156347E0,9.163464E0,2.0528805E0,8.080759E0,1.0827047E0],"tree_param":{"num_deleted":"0","num_feature":"4","num_nodes":"7","size_leaf_vector":"1"}},{"base_weights":[-1.5367605E-2,2.6131472E-1,-1.2865287E-1,1.1849558E-1,-3.3798616E-2,-2.641931E-1,4.566873E-2,-3.5996053E-1,3.4208164E-2,2.4488641E-1,-1.1689369E-1,-1.4397682E-1,-1.3775204E-2,3.9999887E-1,-3.9938107E-2,1.8092642E-2,1.5134597E-1],"categories":[],"categories_nodes":[],"categories_segments":[],"categories_sizes":[],"default_left":[0,0,1,0,0,1,0,1,0,1,0,0,0,0,0,0,0],"id":25,"left_children":[1,3,5,-1,-1,7,9,11,-1,13,-1,-1,-1,15,-1,-1,-1],"loss_changes":[7.8334564E-1,4.0834656E-1,4.28876E-1,0E0,0E0,4.0585577E-1,8.3855116E-1,2.8979862E-1,0E0,4.3395415E-1,0E0,0E0,0E0,1.4184046E-1,0E0,0E0,0E0],"parents":[2147483647,0,0,1,1,2,2,5,5,6,6,7,7,9,9,13,13],"right_children":[2,4,6,-1,-1,8,10,12,-1,14,-1,-1,-1,16,-1,-1,-1],"split_conditions":[3E0,6.9E0,1E0,1.1849558E-1,-3.3798616E-2,3.8E0,1.9E0,5.6E0,3.4208164E-2,4.9E0,-1.1689369E-1,-1.4397682E-1,-1.3775204E-2,3.2E0,-3.9938107E-2,1.8092642E-2,1.5134597E-1],"split_indices":[1,0,3,0,0,2,3,0,0,2,0,0,0,1,0,0,0],"split_type":[0,0,0,0,0,0,0,0,0,0,0,0,0,0,0,0,0],"sum_hessian":[2.2919283E1,6.2784386E0,1.6640844E1,4.583855E0,1.6945833E0,9.071743E0,7.5691004E0,7.2773557E0,1.7943878E0,5.492813E0,2.0762873E0,4.883636E0,2.3937194E0,3.8534458E0,1.6393673E0,1.2774931E0,2.5759525E0],"tree_param":{"num_deleted":"0","num_feature":"4","num_nodes":"17","size_leaf_vector":"1"}},{"base_weights":[2.4196131E-2,-1.963593E-1,3.6783415E-1,-3.1894004E-1,2.5489843E-1,7.324303E-2,1.3453272E-1,-4.021592E-1,-6.271303E-2,5.0191833E-3,1.1883371E-1,-1.3153074E-2,4.3479517E-2,-1.4196843E-1,-1.6406251E-1,5.033918E-2,-1.0284119E-1,-9.681914E-2,3.761972E-2],"categories":[],"categories_nodes":[],"categories_segments":[],"categories_sizes":[],"default_left":[1,1,0,1,0,0,0,1,0,0,0,0,0,0,0,0,0,0,0],"id":26,"left_children":[1,3,5,7,9,11,-1,13,15,-1,-1,-1,-1,-1,17,-1,-1,-1,-1],"loss_changes":[1.8648353E0,9.1422874E-1,1.9498003E-1,2.367419E-1,1.2024802E-1,3.3687957E-2,0E0,7.615459E-2,3.284748E-1,0E0,0E0,0E0,0E0,0E0,2.067271E-1,0E0,0E0,0E0,0E0],"parents":[2147483647,0,0,1,1,2,2,3,3,4,4,5,5,7,7,8,8,14,14],"right_children":[2,4,6,8,10,12,-1,14,16,-1,-1,-1,-1,-1,18,-1,-1,-1,-1],"split_conditions":[4.9E0,1.7E0,1.8E0,6E0,1.9E0,6.4E0,1.3453272E-1,3.2E0,6.3E0,5.0191833E-3,1.1883371E-1,-1.3153074E-2,4.3479517E-2,-1.4196843E-1,1.9E0,5.033918E-2,-1.0284119E-1,-9.681914E-2,3.761972E-2],"split_indices":[2,3,3,0,3,0,0,1,0,0,0,0,0,0,2,0,0,0,0],"split_type":[0,0,0,0,0,0,0,0,0,0,0,0,0,0,0,0,0,0,0],"sum_hessian":[2.2651909E1,1.4057831E1,8.594079E0,1.1285445E1,2.7723856E0,2.256413E0,6.337666E0,8.088775E0,3.1966708E0,1.4482615E0,1.324124E0,1.004392E0,1.2520211E0,5.468847E0,2.6199276E0,1.9734622E0,1.2232087E0,1.618058E0,1.0018697E0],"tree_param":{"num_deleted":"0","num_feature":"4","num_nodes":"19","size_leaf_vector":"1"}},{"base_weights":[-1.9756457E-2,1.339515E-1,-2.6478004E-1,9.2764676E-2,-3.7733215E-1,-1.3505812E-1,-1.5663123E-1,-1.0306378E-1,5.7678163E-2],"categories":[],"categories_nodes":[],"categories_segments":[],"categories_sizes":[],"default_left":[0,0,0,0,0,0,0,0,0],"id":27,"left_children":[1,-1,3,-1,5,-1,7,-1,-1],"loss_changes":[1.9392645E0,0E0,8.3227247E-1,0E0,8.5645795E-2,0E0,3.232388E-1,0E0,0E0],"parents":[2147483647,0,0,2,2,4,4,6,6],"right_children":[2,-1,4,-1,6,-1,8,-1,-1],"split_conditions":[1E0,1.339515E-1,1.9E0,9.2764676E-2,3.9E0,-1.3505812E-1,1.580001E1,-1.0306378E-1,5.7678163E-2],"split_indices":[3,0,2,0,1,0,0,0,0],"split_type":[0,0,0,0,0,0,0,0,0],"sum_hessian":[1.4939761E1,4.863188E0,1.0076573E1,1.3654927E0,8.711081E0,5.767258E0,2.9438221E0,1.9268547E0,1.0169675E0],"tree_param":{"num_deleted":"0","num_feature":"4","num_nodes":"9","size_leaf_vector":"1"}},{"base_weights":[-1.2549133E-2,5.7571422E-2,-1.1672972E-1,-1.9179046E-1,2.230614E-1,-4.0347797E-1,1.6939765E-1,3.0472314E-1,-9.330137E-2,-1.3404138E-1,-3.813636E-2,9.799261E-2,-2.6376287E-2,1.4663059E-1,1.6776164E-1,3.562356E-1,1.019749E-2,3.5532583E-2,1.3437626E-1,8.843488E-2,-6.004774E-2],"categories":[],"categories_nodes":[],"categories_segments":[],"categories_sizes":[],"default_left":[1,1,0,1,1,1,0,0,0,0,0,0,0,0,0,0,0,0,0,0,0],"id":28,"left_children":[1,3,-1,5,7,9,11,13,-1,-1,-1,-1,-1,-1,15,17,19,-1,-1,-1,-1],"loss_changes":[5.8269364E-1,8.169462E-1,0E0,6.816479E-1,6.067259E-1,7.296145E-3,1.7714539E-1,1.8738985E-1,0E0,0E0,0E0,0E0,0E0,0E0,2.23542E-1,2.2247314E-2,3.7006146E-1,0E0,0E0,0E0,0E0],"parents":[2147483647,0,0,1,1,3,3,4,4,5,5,6,6,7,7,14,14,15,15,16,16],"right_children":[2,4,-1,6,8,10,12,14,-1,-1,-1,-1,-1,-1,16,18,20,-1,-1,-1,-1],"split_conditions":[5.2E0,5.5E0,-1.1672972E-1,1E0,1.9E0,1.6E0,1.5E0,3E0,-9.330137E-2,-1.3404138E-1,-3.813636E-2,9.799261E-2,-2.6376287E-2,1.4663059E-1,6E0,8.80001E0,5.1E0,3.5532583E-2,1.3437626E-1,8.843488E-2,-6.004774E-2],"split_indices":[2,0,0,3,3,2,3,1,0,0,0,0,0,0,0,1,2,0,0,0,0],"split_type":[0,0,0,0,0,0,0,0,0,0,0,0,0,0,0,0,0,0,0,0,0],"sum_hessian":[2.022008E1,1.7759956E1,2.460124E0,7.0212874E0,1.0738668E1,4.352979E0,2.668308E0,9.686913E0,1.0517563E0,3.2298443E0,1.1231351E0,1.4889942E0,1.1793138E0,3.0370898E0,6.649822E0,2.4537823E0,4.19604E0,1.3205787E0,1.1332036E0,1.6127918E0,2.5832484E0],"tree_param":{"num_deleted":"0","num_feature":"4","num_nodes":"21","size_leaf_vector":"1"}},{"base_weights":[2.763011E-2,-2.902494E-1,2.2652636E-1,-1.4952907E-1,2.7315311E-2,-1.9451441E-1,3.3922958E-1,5.4899585E-2,-4.5298398E-2,-9.360617E-2,1.0216141E-2,6.083957E-2,4.104073E-1,5.3795528E-2,-2.4404308E-2,5.3551786E-2,1.3544713E-1],"categories":[],"categories_nodes":[],"categories_segments":[],"categories_sizes":[],"default_left":[0,0,0,0,0,1,0,0,0,0,0,1,0,0,0,0,0],"id":29,"left_children":[1,3,5,-1,7,9,11,-1,-1,-1,-1,13,15,-1,-1,-1,-1],"loss_changes":[1.3957075E0,5.778314E-1,7.066389E-1,0E0,1.4776082E-1,1.04262814E-1,1.9328594E-1,0E0,0E0,0E0,0E0,7.214691E-2,1.3192892E-3,0E0,0E0,0E0,0E0],"parents":[2147483647,0,0,1,1,2,2,4,4,5,5,6,6,11,11,12,12],"right_children":[2,4,6,-1,8,10,12,-1,-1,-1,-1,14,16,-1,-1,-1,-1],"split_conditions":[6.1E0,1.9E0,5E0,-1.4952907E-1,3.1E0,1E0,1.8E0,5.4899585E-2,-4.5298398E-2,-9.360617E-2,1.0216141E-2,2.3E0,3E0,5.3795528E-2,-2.4404308E-2,5.3551786E-2,1.3544713E-1],"split_indices":[0,3,2,0,1,3,3,0,0,0,0,1,1,0,0,0,0],"split_type":[0,0,0,0,0,0,0,0,0,0,0,0,0,0,0,0,0],"sum_hessian":[2.0035307E1,7.534398E0,1.2500909E1,4.206966E0,3.3274322E0,2.4863632E0,1.0014545E1,1.7623879E0,1.5650443E0,1.4010031E0,1.08536E0,2.4167845E0,7.597761E0,1.1758522E0,1.2409323E0,1.9478352E0,5.6499257E0],"tree_param":{"num_deleted":"0","num_feature":"4","num_nodes":"17","size_leaf_vector":"1"}},{"base_weights":[-2.0821257E-2,2.4624321E-1,-1.2879546E-1,4.160603E-1,-7.464328E-2,1.2934058E-2,1.5211955E-1],"categories":[],"categories_nodes":[],"categories_segments":[],"categories_sizes":[],"default_left":[1,1,0,0,0,0,0],"id":30,"left_children":[1,3,-1,5,-1,-1,-1],"loss_changes":[1.5797275E0,8.4378326E-1,0E0,2.1336448E-1,0E0,0E0,0E0],"parents":[2147483647,0,0,1,1,3,3],"right_children":[2,4,-1,6,-1,-1,-1],"split_conditions":[1E0,5.6E0,-1.2879546E-1,3.3E0,-7.464328E-2,1.2934058E-2,1.5211955E-1],"split_indices":[3,0,0,1,0,0,0],"split_type":[0,0,0,0,0,0,0],"sum_hessian":[1.2511259E1,7.8054557E0,4.7058034E0,5.9306474E0,1.8748083E0,1.4523835E0,4.478264E0],"tree_param":{"num_deleted":"0","num_feature":"4","num_nodes":"7","size_leaf_vector":"1"}},{"base_weights":[-8.236249E-3,5.725001E-2,-1.1020336E-1,-1.7428719E-1,2.032764E-1,-3.759708E-1,1.5382554E-1,3.012943E-1,-1.371581E-1,-1.2524654E-1,-3.4021262E-2,9.086911E-2,-2.3521086E-2,1.19624436E-1,2.3725942E-2,2.3313178E-2,-8.619067E-2,-4.1885324E-2,5.6915376E-2],"categories":[],"categories_nodes":[],"categories_segments":[],"categories_sizes":[],"default_left":[1,1,0,1,1,1,0,0,0,0,0,0,0,0,1,0,0,0,0],"id":31,"left_children":[1,3,-1,5,7,9,11,13,15,-1,-1,-1,-1,-1,17,-1,-1,-1,-1],"loss_changes":[4.6810076E-1,6.083101E-1,0E0,5.2712023E-1,4.03451E-1,3.6975145E-3,1.4177358E-1,2.2693074E-1,1.227638E-1,0E0,0E0,0E0,0E0,0E0,1.16890684E-1,0E0,0E0,0E0,0E0],"parents":[2147483647,0,0,1,1,3,3,4,4,5,5,6,6,7,7,8,8,14,14],"right_children":[2,4,-1,6,8,10,12,14,16,-1,-1,-1,-1,-1,18,-1,-1,-1,-1],"split_conditions":[5.2E0,5.5E0,-1.1020336E-1,1E0,1.8E0,1.6E0,1.5E0,3.5E0,6E0,-1.2524654E-1,-3.4021262E-2,9.086911E-2,-2.3521086E-2,1.19624436E-1,3.7E0,2.3313178E-2,-8.619067E-2,-4.1885324E-2,5.6915376E-2],"split_indices":[2,0,0,3,3,2,3,1,0,0,0,0,0,0,2,0,0,0,0],"split_type":[0,0,0,0,0,0,0,0,0,0,0,0,0,0,0,0,0,0,0],"sum_hessian":[1.8010792E1,1.5943875E1,2.0669155E0,6.0915985E0,9.852277E0,3.6823072E0,2.409291E0,7.739028E0,2.1132493E0,2.6700795E0,1.0122277E0,1.2820325E0,1.1272585E0,5.4048257E0,2.3342023E0,1.0677036E0,1.0455457E0,1.2565693E0,1.0776329E0],"tree_param":{"num_deleted":"0","num_feature":"4","num_nodes":"19","size_leaf_vector":"1"}},{"base_weights":[2.318015E-2,-1.6412733E-1,3.2150206E-1,-2.81543E-1,2.1861982E-1,1.859707E-2,1.2209592E-1,-3.7243813E-1,-5.2187957E-2,4.4768886E-3,1.0238071E-1,-1.362031E-1,-3.167922E-2,-4.2822286E-2,3.163873E-2],"categories":[],"categories_nodes":[],"categories_segments":[],"categories_sizes":[],"default_left":[1,1,0,1,0,0,0,1,0,0,0,0,0,0,0],"id":32,"left_children":[1,3,5,7,9,-1,-1,11,13,-1,-1,-1,-1,-1,-1],"loss_changes":[1.1083617E0,6.128278E-1,1.4390904E-1,1.8537116E-1,8.091453E-2,0E0,0E0,1.0165846E-1,7.146177E-2,0E0,0E0,0E0,0E0,0E0,0E0],"parents":[2147483647,0,0,1,1,2,2,3,3,4,4,7,7,8,8],"right_children":[2,4,6,8,10,-1,-1,12,14,-1,-1,-1,-1,-1,-1],"split_conditions":[4.9E0,1.7E0,1.8E0,6E0,1.9E0,1.859707E-2,1.2209592E-1,3.2E0,3.5E0,4.4768886E-3,1.0238071E-1,-1.362031E-1,-3.167922E-2,-4.2822286E-2,3.163873E-2],"split_indices":[2,3,3,0,3,0,0,1,1,0,0,0,0,0,0],"split_type":[0,0,0,0,0,0,0,0,0,0,0,0,0,0,0],"sum_hessian":[1.789108E1,1.1266814E1,6.624267E0,8.824217E0,2.4425967E0,2.0688505E0,4.5554166E0,5.8728943E0,2.9513226E0,1.3395432E0,1.1030533E0,3.9606967E0,1.9121978E0,1.9346496E0,1.016673E0],"tree_param":{"num_deleted":"0","num_feature":"4","num_nodes":"15","size_leaf_vector":"1"}},{"base_weights":[-2.3143418E-2,2.2456504E-1,-1.2349581E-1,3.6848432E-1,-8.706439E-2,4.5109636E-1,-9.178925E-3,3.726231E-2,1.4904463E-1],"categories":[],"categories_nodes":[],"categories_segments":[],"categories_sizes":[],"default_left":[1,1,0,1,0,0,0,0,0],"id":33,"left_children":[1,3,-1,5,-1,7,-1,-1,-1],"loss_changes":[1.2177579E0,6.838908E-1,0E0,2.2897673E-1,0E0,2.0052671E-2,0E0,0E0,0E0],"parents":[2147483647,0,0,1,1,3,3,5,5],"right_children":[2,4,-1,6,-1,8,-1,-1,-1],"split_conditions":[1E0,3.8E0,-1.2349581E-1,5.5E0,-8.706439E-2,3.3E0,-9.178925E-3,3.726231E-2,1.4904463E-1],"split_indices":[3,2,0,0,0,1,0,0,0],"split_type":[0,0,0,0,0,0,0,0,0],"sum_hessian":[1.0693161E1,6.7875133E0,3.9056475E0,5.526605E0,1.2609078E0,4.4707875E0,1.0558176E0,1.004614E0,3.4661736E0],"tree_param":{"num_deleted":"0","num_feature":"4","num_nodes":"9","size_leaf_vector":"1"}},{"base_weights":[-1.18218E-2,4.8612956E-2,-1.0564757E-1,-1.2659861E-1,2.4223734E-1,-1.06218666E-1,6.8703756E-2,1.441357E-1,4.0399168E-2,1.7104639E-1,-4.477278E-2,7.655773E-2,-1.14951134E-1,7.8061216E-2,1.4776818E-2,-1.9969298E-3,-5.5578712E-2],"categories":[],"categories_nodes":[],"categories_segments":[],"categories_sizes":[],"default_left":[1,1,0,1,0,0,0,0,0,0,0,0,0,0,0,0,0],"id":34,"left_children":[1,3,-1,5,7,-1,9,-1,11,13,-1,-1,15,-1,-1,-1,-1],"loss_changes":[3.6910114E-1,5.534911E-1,0E0,4.1290227E-1,3.490868E-1,0E0,1.4918031E-1,0E0,2.0420507E-1,3.3204682E-2,0E0,0E0,2.7172577E-2,0E0,0E0,0E0,0E0],"parents":[2147483647,0,0,1,1,3,3,4,4,6,6,8,8,9,9,12,12],"right_children":[2,4,-1,6,8,-1,10,-1,12,14,-1,-1,16,-1,-1,-1,-1],"split_conditions":[1.9E0,1E0,-1.0564757E-1,5.5E0,6.1E0,-1.06218666E-1,3.5E0,1.441357E-1,1.5E0,3E0,-4.477278E-2,7.655773E-2,6.8E0,7.8061216E-2,1.4776818E-2,-1.9969298E-3,-5.5578712E-2],"split_indices":[3,3,0,0,0,0,1,0,3,1,0,0,0,0,0,0,0],"split_type":[0,0,0,0,0,0,0,0,0,0,0,0,0,0,0,0,0],"sum_hessian":[1.611293E1,1.4411071E1,1.7018605E0,7.7469683E0,6.664102E0,3.203289E0,4.543679E0,2.4234715E0,4.2406306E0,3.2382576E0,1.3054217E0,1.5100658E0,2.7305648E0,1.2134498E0,2.024808E0,1.5058686E0,1.2246964E0],"tree_param":{"num_deleted":"0","num_feature":"4","num_nodes":"17","size_leaf_vector":"1"}},{"base_weights":[2.7833879E-2,-1.01032116E-1,1.5018545E-1,-1.19305015E-1,2.7387193E-1,-1.2998685E-1,4.9501646E-2,1.1901261E-1,1.2734929E-1,-4.749909E-2,2.3207371E-1,8.076878E-2,1.1257845E-1,8.116025E-2,-3.182141E-2],"categories":[],"categories_nodes":[],"categories_segments":[],"categories_sizes":[],"default_left":[0,0,0,0,1,0,0,0,0,0,1,0,0,0,0],"id":35,"left_children":[1,-1,3,5,7,-1,-1,9,-1,-1,11,13,-1,-1,-1],"loss_changes":[8.085529E-1,0E0,4.797775E-1,5.1036066E-1,1.7101121E-1,0E0,0E0,2.2715536E-1,0E0,0E0,7.193649E-2,1.5523495E-1,0E0,0E0,0E0],"parents":[2147483647,0,0,2,2,3,3,4,4,7,7,10,10,11,11],"right_children":[2,-1,4,6,8,-1,-1,10,-1,-1,12,14,-1,-1,-1],"split_conditions":[4.9E0,-1.01032116E-1,6.1E0,1.9E0,5.1E0,-1.2998685E-1,4.9501646E-2,1.8E0,1.2734929E-1,-4.749909E-2,3E0,6.4E0,1.1257845E-1,8.116025E-2,-3.182141E-2],"split_indices":[2,0,0,3,2,0,0,3,0,0,1,0,0,0,0],"split_type":[0,0,0,0,0,0,0,0,0,0,0,0,0,0,0],"sum_hessian":[1.5991016E1,3.5775154E0,1.2413501E1,3.9162104E0,8.497291E0,1.611982E0,2.3042283E0,5.0724206E0,3.4248698E0,1.3530196E0,3.7194011E0,2.568924E0,1.1504772E0,1.0522525E0,1.5166714E0],"tree_param":{"num_deleted":"0","num_feature":"4","num_nodes":"15","size_leaf_vector":"1"}},{"base_weights":[-2.9239366E-2,1.1408047E-1,-2.3187472E-1,-1.188632E-2,-1.18023716E-1,-7.800718E-2,8.432529E-2],"categories":[],"categories_nodes":[],"categories_segments":[],"categories_sizes":[],"default_left":[0,0,1,0,0,0,0],"id":36,"left_children":[1,-1,3,5,-1,-1,-1],"loss_changes":[9.3072236E-1,0E0,2.5877866E-1,3.762417E-1,0E0,0E0,0E0],"parents":[2147483647,0,0,2,2,3,3],"right_children":[2,-1,4,6,-1,-1,-1],"split_conditions":[3E0,1.1408047E-1,1E0,3.5E0,-1.18023716E-1,-7.800718E-2,8.432529E-2],"split_indices":[2,0,3,1,0,0,0],"split_type":[0,0,0,0,0,0,0],"sum_hessian":[9.153538E0,2.739879E0,6.4136586E0,3.1700888E0,3.24357E0,1.7772592E0,1.3928294E0],"tree_param":{"num_deleted":"0","num_feature":"4","num_nodes":"7","size_leaf_vector":"1"}},{"base_weights":[-9.264175E-3,4.7533225E-2,-9.891091E-2,-1.019225E-1,2.1497585E-1,-9.6951656E-2,7.024949E-2,1.3184732E-1,3.0868312E-2,1.678211E-1,-4.2021606E-2,6.933047E-2,-1.06435426E-1,7.363059E-2,1.7094932E-2,4.0179098E-4,-5.317113E-2],"categories":[],"categories_nodes":[],"categories_segments":[],"categories_sizes":[],"default_left":[1,1,0,1,0,0,0,0,0,0,0,0,0,0,0,0,0],"id":37,"left_children":[1,3,-1,5,7,-1,9,-1,11,13,-1,-1,15,-1,-1,-1,-1],"loss_changes":[2.9887262E-1,3.7455666E-1,0E0,3.321734E-1,2.7443513E-1,0E0,1.3412161E-1,0E0,1.5941635E-1,2.1603152E-2,0E0,0E0,2.7659528E-2,0E0,0E0,0E0,0E0],"parents":[2147483647,0,0,1,1,3,3,4,4,6,6,8,8,9,9,12,12],"right_children":[2,4,-1,6,8,-1,10,-1,12,14,-1,-1,16,-1,-1,-1,-1],"split_conditions":[1.9E0,1E0,-9.891091E-2,5.5E0,6.1E0,-9.6951656E-2,3.5E0,1.3184732E-1,1.5E0,3E0,-4.2021606E-2,6.933047E-2,6.8E0,7.363059E-2,1.7094932E-2,4.0179098E-4,-5.317113E-2],"split_indices":[3,3,0,0,0,0,1,0,3,1,0,0,0,0,0,0,0],"split_type":[0,0,0,0,0,0,0,0,0,0,0,0,0,0,0,0,0],"sum_hessian":[1.45604E1,1.3091593E1,1.4688069E0,7.124085E0,5.967508E0,2.7338803E0,4.390205E0,2.063712E0,3.9037962E0,3.1369812E0,1.2532234E0,1.3101023E0,2.593694E0,1.1307874E0,2.0061939E0,1.4173218E0,1.176372E0],"tree_param":{"num_deleted":"0","num_feature":"4","num_nodes":"17","size_leaf_vector":"1"}},{"base_weights":[2.8574001E-2,-1.16602995E-1,2.9498178E-1,-2.372561E-1,2.1556345E-1,1.6980799E-2,1.1817367E-1,-1.1595316E-1,-8.23246E-2,6.844946E-3,9.292024E-2,-2.117164E-1,2.3591394E-2,-8.278994E-2,-1.7028378E-2],"categories":[],"categories_nodes":[],"categories_segments":[],"categories_sizes":[],"default_left":[1,1,0,0,0,0,0,0,1,0,0,0,0,0,0],"id":38,"left_children":[1,3,5,7,9,-1,-1,-1,11,-1,-1,13,-1,-1,-1],"loss_changes":[6.3136095E-1,4.8025948E-1,1.127775E-1,1.6081473E-1,5.4227397E-2,0E0,0E0,0E0,1.2824349E-1,0E0,0E0,1.6604662E-2,0E0,0E0,0E0],"parents":[2147483647,0,0,1,1,2,2,3,3,4,4,8,8,11,11],"right_children":[2,4,6,8,10,-1,-1,-1,12,-1,-1,14,-1,-1,-1],"split_conditions":[5E0,1.7E0,1.8E0,5E0,6.2E0,1.6980799E-2,1.1817367E-1,-1.1595316E-1,6E0,6.844946E-3,9.292024E-2,5.9E0,2.3591394E-2,-8.278994E-2,-1.7028378E-2],"split_indices":[2,3,3,2,0,0,0,0,0,0,0,0,0,0,0],"split_type":[0,0,0,0,0,0,0,0,0,0,0,0,0,0,0],"sum_hessian":[1.4434917E1,9.707305E0,4.727612E0,7.3304067E0,2.3768988E0,1.8476728E0,2.879939E0,2.9723E0,4.3581066E0,1.1878717E0,1.1890271E0,2.2411861E0,2.1169205E0,1.0322381E0,1.208948E0],"tree_param":{"num_deleted":"0","num_feature":"4","num_nodes":"15","size_leaf_vector":"1"}},{"base_weights":[-3.2875624E-2,1.0788915E-1,-2.2090198E-1,7.8509385E-3,-1.14877835E-1,-7.859027E-2,7.6342955E-2],"categories":[],"categories_nodes":[],"categories_segments":[],"categories_sizes":[],"default_left":[0,0,1,0,0,0,0],"id":39,"left_children":[1,-1,3,5,-1,-1,-1],"loss_changes":[7.38412E-1,0E0,2.497181E-1,3.155274E-1,0E0,0E0,0E0],"parents":[2147483647,0,0,2,2,3,3],"right_children":[2,-1,4,6,-1,-1,-1],"split_conditions":[1E0,1.0788915E-1,5.5E0,3.4E0,-1.14877835E-1,-7.859027E-2,7.6342955E-2],"split_indices":[3,0,0,1,0,0,0],"split_type":[0,0,0,0,0,0,0],"sum_hessian":[7.9289384E0,2.2724745E0,5.656464E0,2.7398152E0,2.9166489E0,1.2786797E0,1.4611354E0],"tree_param":{"num_deleted":"0","num_feature":"4","num_nodes":"7","size_leaf_vector":"1"}},{"base_weights":[-6.7039914E-3,4.8567176E-2,-9.260124E-2,-1.5330817E-1,1.5790775E-1,-8.922975E-2,2.539905E-2,2.3600918E-1,-3.1645916E-2,9.660008E-2,3.187244E-4],"categories":[],"categories_nodes":[],"categories_segments":[],"categories_sizes":[],"default_left":[1,1,0,1,1,0,0,0,0,0,0],"id":40,"left_children":[1,3,-1,5,7,-1,-1,9,-1,-1,-1],"loss_changes":[2.5367367E-1,3.1010723E-1,0E0,1.9865751E-1,2.0786543E-1,0E0,0E0,1.4449686E-1,0E0,0E0,0E0],"parents":[2147483647,0,0,1,1,3,3,4,4,7,7],"right_children":[2,4,-1,6,8,-1,-1,10,-1,-1,-1],"split_conditions":[5.2E0,5.5E0,-9.260124E-2,1E0,1.8E0,-8.922975E-2,2.539905E-2,3.5E0,-3.1645916E-2,9.660008E-2,3.187244E-4],"split_indices":[2,0,0,3,3,0,0,1,0,0,0],"split_type":[0,0,0,0,0,0,0,0,0,0,0],"sum_hessian":[1.3300873E1,1.1952318E1,1.3485552E0,4.057973E0,7.8943453E0,2.3717122E0,1.6862605E0,6.1690674E0,1.7252777E0,4.2449E0,1.9241673E0],"tree_param":{"num_deleted":"0","num_feature":"4","num_nodes":"11","size_leaf_vector":"1"}},{"base_weights":[2.7569778E-2,-8.740165E-2,3.1560808E-1,-3.1327838E-1,4.0789112E-2,1.8744158E-2,1.1323232E-1,-1.14559904E-1,-2.4151789E-2,-5.1545694E-2,9.137154E-2,9.174465E-2,-1.0498302E-1,3.2874528E-1,-6.1108686E-2,2.9283578E-2,1.24370374E-1],"categories":[],"categories_nodes":[],"categories_segments":[],"categories_sizes":[],"default_left":[1,0,0,0,1,0,0,0,0,1,0,0,0,0,0,0,0],"id":41,"left_children":[1,3,5,7,9,-1,-1,-1,-1,11,-1,13,-1,15,-1,-1,-1],"loss_changes":[4.9534348E-1,3.2776478E-1,4.2880625E-2,3.3976883E-2,2.0627862E-1,0E0,0E0,0E0,0E0,3.1649002E-1,0E0,4.3706405E-1,0E0,2.5300533E-2,0E0,0E0,0E0],"parents":[2147483647,0,0,1,1,2,2,3,3,4,4,9,9,11,11,13,13],"right_children":[2,4,6,8,10,-1,-1,-1,-1,12,-1,14,-1,16,-1,-1,-1],"split_conditions":[5.1E0,6E0,3E0,1.9E0,1.8E0,1.8744158E-2,1.1323232E-1,-1.14559904E-1,-2.4151789E-2,6.3E0,9.137154E-2,3.3E0,-1.0498302E-1,5.1E0,-6.1108686E-2,2.9283578E-2,1.24370374E-1],"split_indices":[2,0,1,3,3,0,0,0,0,0,0,1,0,2,0,0,0],"split_type":[0,0,0,0,0,0,0,0,0,0,0,0,0,0,0,0,0],"sum_hessian":[1.31247835E1,9.878365E0,3.246419E0,3.0537326E0,6.8246317E0,1.0320313E0,2.2143877E0,1.8639839E0,1.1897488E0,5.651103E0,1.1735287E0,4.28567E0,1.3654332E0,2.3154767E0,1.9701933E0,1.2057031E0,1.1097735E0],"tree_param":{"num_deleted":"0","num_feature":"4","num_nodes":"17","size_leaf_vector":"1"}},{"base_weights":[-3.4798007E-2,1.6956283E-1,-1.0815408E-1,3.1298032E-1,-5.8199193E-2,-3.99134E-3,1.24560155E-1],"categories":[],"categories_nodes":[],"categories_segments":[],"categories_sizes":[],"default_left":[1,1,0,0,0,0,0],"id":42,"left_children":[1,3,-1,5,-1,-1,-1],"loss_changes":[5.903499E-1,3.5090837E-1,0E0,1.5140149E-1,0E0,0E0,0E0],"parents":[2147483647,0,0,1,1,3,3],"right_children":[2,4,-1,6,-1,-1,-1],"split_conditions":[1E0,5.6E0,-1.0815408E-1,3.3E0,-5.8199193E-2,-3.99134E-3,1.24560155E-1],"split_indices":[3,0,0,1,0,0,0],"split_type":[0,0,0,0,0,0,0],"sum_hessian":[6.9506054E0,4.565518E0,2.3850877E0,3.3737586E0,1.1917592E0,1.0123148E0,2.3614438E0],"tree_param":{"num_deleted":"0","num_feature":"4","num_nodes":"7","size_leaf_vector":"1"}},{"base_weights":[-1.0214586E-2,4.151782E-2,-8.886301E-2,-9.4792806E-2,1.9315724E-1,-1.7996006E-1,5.3098153E-2,1.1974754E-1,2.5612153E-2,-2.8106393E-2,-1.0104328E-1,5.486754E-2,-3.8832307E-2,-4.411163E-2,2.1055661E-2],"categories":[],"categories_nodes":[],"categories_segments":[],"categories_sizes":[],"default_left":[1,1,0,1,0,0,0,0,1,1,0,0,0,0,0],"id":43,"left_children":[1,3,-1,5,7,9,-1,-1,11,13,-1,-1,-1,-1,-1],"loss_changes":[2.080329E-1,2.68008E-1,0E0,1.9463375E-1,1.9851168E-1,1.2987992E-1,0E0,0E0,1.3106649E-1,5.7823695E-2,0E0,0E0,0E0,0E0,0E0],"parents":[2147483647,0,0,1,1,3,3,4,4,5,5,8,8,9,9],"right_children":[2,4,-1,6,8,10,-1,-1,12,14,-1,-1,-1,-1,-1],"split_conditions":[1.9E0,1E0,-8.886301E-2,6.3E0,6.1E0,3.5E0,5.3098153E-2,1.1974754E-1,4.5E0,5.6E0,-1.0104328E-1,5.486754E-2,-3.8832307E-2,-4.411163E-2,2.1055661E-2],"split_indices":[3,3,0,0,0,1,0,0,2,0,0,0,0,0,0],"split_type":[0,0,0,0,0,0,0,0,0,0,0,0,0,0,0],"sum_hessian":[1.2229593E1,1.1080181E1,1.1494126E0,6.032431E0,5.0477495E0,4.850376E0,1.1820548E0,1.6440059E0,3.4037437E0,3.0635862E0,1.7867901E0,1.600609E0,1.8031349E0,1.1618357E0,1.9017506E0],"tree_param":{"num_deleted":"0","num_feature":"4","num_nodes":"15","size_leaf_vector":"1"}},{"base_weights":[3.1563092E-2,-8.2741976E-2,1.2267254E-1,-6.800546E-2,2.3661797E-1,-1.0744847E-1,1.2884283E-1,1.07836634E-1,1.2303916E-1,5.6609757E-2,-3.6334114E-3,6.888612E-2,-2.4399813E-2],"categories":[],"categories_nodes":[],"categories_segments":[],"categories_sizes":[],"default_left":[0,0,0,0,0,0,0,0,0,0,0,0,0],"id":44,"left_children":[1,-1,3,5,7,-1,9,-1,11,-1,-1,-1,-1],"loss_changes":[3.9920315E-1,0E0,2.497851E-1,3.2031044E-1,5.281982E-2,0E0,3.2619007E-2,0E0,1.3051845E-1,0E0,0E0,0E0,0E0],"parents":[2147483647,0,0,2,2,3,3,4,4,6,6,8,8],"right_children":[2,-1,4,6,8,-1,10,-1,12,-1,-1,-1,-1],"split_conditions":[4.9E0,-8.2741976E-2,1.9E0,6.1E0,5.00001E0,-1.0744847E-1,6.1E0,1.07836634E-1,3.4E0,5.6609757E-2,-3.6334114E-3,6.888612E-2,-2.4399813E-2],"split_indices":[2,0,3,0,3,0,2,0,1,0,0,0,0],"split_type":[0,0,0,0,0,0,0,0,0,0,0,0,0],"sum_hessian":[1.2046907E1,2.2909355E0,9.755972E0,3.8000631E0,5.9559083E0,1.2047584E0,2.5953047E0,1.821314E0,4.1345944E0,1.5839512E0,1.0113534E0,2.6362374E0,1.498357E0],"tree_param":{"num_deleted":"0","num_feature":"4","num_nodes":"13","size_leaf_vector":"1"}},{"base_weights":[-3.930251E-2,1.5814608E-1,-1.04308225E-1,2.852294E-1,-5.1332723E-2,2.7705671E-2,9.83046E-2],"categories":[],"categories_nodes":[],"categories_segments":[],"categories_sizes":[],"default_left":[1,1,0,0,0,0,0],"id":45,"left_children":[1,3,-1,5,-1,-1,-1],"loss_changes":[4.9028486E-1,2.5993118E-1,0E0,2.61724E-3,0E0,0E0,0E0],"parents":[2147483647,0,0,1,1,3,3],"right_children":[2,4,-1,6,-1,-1,-1],"split_conditions":[3E0,5.6E0,-1.04308225E-1,3.5E0,-5.1332723E-2,2.7705671E-2,9.83046E-2],"split_indices":[2,0,0,1,0,0,0],"split_type":[0,0,0,0,0,0,0],"sum_hessian":[6.148757E0,4.045686E0,2.1030715E0,3.0154998E0,1.0301858E0,1.1168182E0,1.8986815E0],"tree_param":{"num_deleted":"0","num_feature":"4","num_nodes":"7","size_leaf_vector":"1"}},{"base_weights":[-7.1599074E-3,4.148599E-2,-8.1530966E-2,-6.122746E-2,1.8775567E-1,-1.735678E-1,1.2187558E-1,3.7351176E-3,8.83832E-2,7.715551E-3,-1.09371394E-1,8.1628144E-2,-1.9354189E-2,-8.120405E-3,1.117201E-2],"categories":[],"categories_nodes":[],"categories_segments":[],"categories_sizes":[],"default_left":[1,1,0,1,1,0,0,0,0,1,0,0,0,0,0],"id":46,"left_children":[1,3,-1,5,7,9,11,-1,-1,13,-1,-1,-1,-1,-1],"loss_changes":[1.7058651E-1,1.8159676E-1,0E0,1.7348243E-1,8.843121E-2,1.7601384E-1,1.1284456E-1,0E0,0E0,4.6492466E-3,0E0,0E0,0E0,0E0,0E0],"parents":[2147483647,0,0,1,1,3,3,4,4,5,5,6,6,9,9],"right_children":[2,4,-1,6,8,10,12,-1,-1,14,-1,-1,-1,-1,-1],"split_conditions":[5.2E0,3E0,-8.1530966E-2,1E0,2.6E0,3.5E0,1.7E0,3.7351176E-3,8.83832E-2,6E0,-1.09371394E-1,8.1628144E-2,-1.9354189E-2,-8.120405E-3,1.117201E-2],"split_indices":[2,2,0,3,1,1,3,0,0,0,0,0,0,0,0],"split_type":[0,0,0,0,0,0,0,0,0,0,0,0,0,0,0],"sum_hessian":[1.1376439E1,1.0322051E1,1.0543876E0,6.405435E0,3.9166157E0,4.002086E0,2.403349E0,1.9060633E0,2.0105524E0,2.5456188E0,1.4564674E0,1.0761927E0,1.3271563E0,1.2069181E0,1.3387008E0],"tree_param":{"num_deleted":"0","num_feature":"4","num_nodes":"15","size_leaf_vector":"1"}},{"base_weights":[3.0268455E-2,-6.734478E-2,8.6172536E-2,-2.819279E-1,4.502741E-2,-1.0086947E-1,-2.4770329E-2,1.2705027E-1,-5.5973355E-2,2.8404617E-1,-8.82019E-2,1.5121636E-2,1.1606585E-1,-7.08685E-3,-3.3823077E-2],"categories":[],"categories_nodes":[],"categories_segments":[],"categories_sizes":[],"default_left":[1,0,0,0,1,0,0,0,0,0,0,0,0,0,0],"id":47,"left_children":[1,3,-1,5,7,-1,-1,9,-1,11,13,-1,-1,-1,-1],"loss_changes":[3.2562062E-1,2.4559975E-1,0E0,9.667784E-3,1.6051015E-1,0E0,0E0,2.2487435E-1,0E0,6.834635E-2,2.4983939E-3,0E0,0E0,0E0,0E0],"parents":[2147483647,0,0,1,1,3,3,4,4,7,7,9,9,10,10],"right_children":[2,4,-1,6,8,-1,-1,10,-1,12,14,-1,-1,-1,-1],"split_conditions":[5.1E0,6E0,8.6172536E-2,1.9E0,6.4E0,-1.0086947E-1,-2.4770329E-2,3.3E0,-5.5973355E-2,5.1E0,6.3E0,1.5121636E-2,1.1606585E-1,-7.08685E-3,-3.3823077E-2],"split_indices":[2,0,0,3,0,0,0,1,0,2,0,0,0,0,0],"split_type":[0,0,0,0,0,0,0,0,0,0,0,0,0,0,0],"sum_hessian":[1.1210031E1,8.658838E0,2.5511928E0,2.45739E0,6.201448E0,1.3917409E0,1.0656492E0,4.9129615E0,1.2884864E0,2.6561093E0,2.2568521E0,1.2672334E0,1.388876E0,1.1619232E0,1.094929E0],"tree_param":{"num_deleted":"0","num_feature":"4","num_nodes":"15","size_leaf_vector":"1"}},{"base_weights":[-4.0574014E-2,9.065069E-2,-1.97091E-1,-6.8163374E-3,-9.695663E-2,-5.624006E-2,5.2653003E-2],"categories":[],"categories_nodes":[],"categories_segments":[],"categories_sizes":[],"default_left":[0,0,1,0,0,0,0],"id":48,"left_children":[1,-1,3,5,-1,-1,-1],"loss_changes":[4.1094267E-1,0E0,1.2020992E-1,1.3352793E-1,0E0,0E0,0E0],"parents":[2147483647,0,0,2,2,3,3],"right_children":[2,-1,4,6,-1,-1,-1],"split_conditions":[3E0,9.065069E-2,5.4E0,3.4E0,-9.695663E-2,-5.624006E-2,5.2653003E-2],"split_indices":[2,0,0,1,0,0,0],"split_type":[0,0,0,0,0,0,0],"sum_hessian":[5.5502324E0,1.4482508E0,4.1019816E0,2.0550613E0,2.0469203E0,1.0181125E0,1.0369487E0],"tree_param":{"num_deleted":"0","num_feature":"4","num_nodes":"7","size_leaf_vector":"1"}},{"base_weights":[-4.657152E-3,4.4896655E-2,-5.6853104E-2,-5.194952E-2,2.0846577E-1,-1.5514226E-1,1.1267093E-1,9.503E-2,-1.3579388E-2,1.4132538E-2,-1.0342918E-1,7.919328E-2,-2.0581018E-2,-5.5901203E-3,1.4332343E-2],"categories":[],"categories_nodes":[],"categories_segments":[],"categories_sizes":[],"default_left":[1,1,0,1,1,0,0,0,0,0,0,0,0,0,0],"id":49,"left_children":[1,3,-1,5,7,9,11,-1,-1,13,-1,-1,-1,-1,-1],"loss_changes":[1.1579989E-1,1.6995594E-1,0E0,1.3826182E-1,1.2247473E-1,1.5865783E-1,1.0914013E-1,0E0,0E0,4.7395015E-3,0E0,0E0,0E0,0E0,0E0],"parents":[2147483647,0,0,1,1,3,3,4,4,5,5,6,6,9,9],"right_children":[2,4,-1,6,8,10,12,-1,-1,14,-1,-1,-1,-1,-1],"split_conditions":[5.1E0,3E0,-5.6853104E-2,1E0,1.5E0,3.5E0,1.7E0,9.503E-2,-1.3579388E-2,3.1E0,-1.0342918E-1,7.919328E-2,-2.0581018E-2,-5.5901203E-3,1.4332343E-2],"split_indices":[2,2,0,3,3,1,3,0,0,1,0,0,0,0,0],"split_type":[0,0,0,0,0,0,0,0,0,0,0,0,0,0,0],"sum_hessian":[1.0712818E1,9.045187E0,1.6676311E0,6.1099825E0,2.9352047E0,3.7910986E0,2.3188837E0,1.8830262E0,1.0521785E0,2.4919822E0,1.2991165E0,1.0152439E0,1.3036398E0,1.48842E0,1.0035621E0],"tree_param":{"num_deleted":"0","num_feature":"4","num_nodes":"15","size_leaf_vector":"1"}},{"base_weights":[2.7648078E-2,-4.691093E-2,9.767811E-2,-9.5722266E-2,6.466369E-2,-8.435265E-2,1.5436032E-1,4.153389E-2,-8.765553E-2,3.0498794E-1,-2.7635522E-2,1.14081435E-1,2.4361111E-2],"categories":[],"categories_nodes":[],"categories_segments":[],"categories_sizes":[],"default_left":[1,0,0,0,0,1,0,0,0,1,0,0,0],"id":50,"left_children":[1,3,-1,-1,5,7,9,-1,-1,11,-1,-1,-1],"loss_changes":[2.7263993E-1,3.2856858E-1,0E0,0E0,1.2026715E-1,2.0999885E-1,2.2717217E-1,0E0,0E0,2.9099792E-2,0E0,0E0,0E0],"parents":[2147483647,0,0,1,1,4,4,5,5,6,6,9,9],"right_children":[2,4,-1,-1,6,8,10,-1,-1,12,-1,-1,-1],"split_conditions":[1.9E0,6E0,9.767811E-2,-9.5722266E-2,5.2E0,2.7E0,3.4E0,4.153389E-2,-8.765553E-2,6.3E0,-2.7635522E-2,1.14081435E-1,2.4361111E-2],"split_indices":[3,0,0,0,2,1,1,0,0,0,0,0,0],"split_type":[0,0,0,0,0,0,0,0,0,0,0,0,0],"sum_hessian":[1.0585482E1,9.140645E0,1.4448366E0,2.1169772E0,7.0236673E0,2.6615362E0,4.362131E0,1.4456441E0,1.2158922E0,2.560179E0,1.8019521E0,1.392462E0,1.167717E0],"tree_param":{"num_deleted":"0","num_feature":"4","num_nodes":"13","size_leaf_vector":"1"}}]},"name":"gbtree"},"learner_model_param":{"base_score":"[3.3333334E-1,3.3333334E-1,3.3333334E-1]","boost_from_average":"1","num_class":"3","num_feature":"4","num_target":"1"},"objective":{"name":"multi:softprob","softmax_multiclass_param":{"num_class":"3"}}},"version":[3,1,0]}