{"learner":{"attributes":{"best_iteration":"30","best_ntree_limit":"31"},"feature_names":["edlevel","age","outwork","female","married","kids","hhninc","educ","self"],"feature_types":["c","float","c","c","c","c","float","float","c"],"gradient_booster":{"model":{"gbtree_model_param":{"num_parallel_tree":"1","num_trees":"31","size_leaf_vector":"0"},"tree_info":[0,0,0,0,0,0,0,0,0,0,0,0,0,0,0,0,0,0,0,0,0,0,0,0,0,0,0,0,0,0,0],"trees":[{"base_weights":[7E-1],"categories":[],"categories_nodes":[],"categories_segments":[],"categories_sizes":[],"default_left":[0],"id":0,"left_children":[-1],"loss_changes":[0E0],"parents":[2147483647],"right_children":[-1],"split_conditions":[2.1000001E-1],"split_indices":[0],"split_type":[0],"sum_hessian":[2.2785613E3],"tree_param":{"num_deleted":"0","num_feature":"9","num_nodes":"1","size_leaf_vector":"0"}},{"base_weights":[7E-1,2.1000001E-1,5.1266734E-2],"categories":[],"categories_nodes":[],"categories_segments":[],"categories_sizes":[],"default_left":[1,0,0],"id":1,"left_children":[1,-1,-1],"loss_changes":[1.3769531E-1,0E0,0E0],"parents":[2147483647,0,0],"right_children":[2,-1,-1],"split_conditions":[2.5E1,2.1000001E-1,5.1266734E-2],"split_indices":[6,0,0],"split_type":[0,0,0],"sum_hessian":[2.811011E3,2.8097688E3,1.2421613E0],"tree_param":{"num_deleted":"0","num_feature":"9","num_nodes":"3","size_leaf_vector":"0"}},{"base_weights":[7E-1,2.1000001E-1,4.5596424E-2],"categories":[],"categories_nodes":[],"categories_segments":[],"categories_sizes":[],"default_left":[1,0,0],"id":2,"left_children":[1,-1,-1],"loss_changes":[2.0214844E-1,0E0,0E0],"parents":[2147483647,0,0],"right_children":[2,-1,-1],"split_conditions":[2.5E1,2.1000001E-1,4.5596424E-2],"split_indices":[6,0,0],"split_type":[0,0,0],"sum_hessian":[3.4676575E3,3.46635E3,1.3075035E0],"tree_param":{"num_deleted":"0","num_feature":"9","num_nodes":"3","size_leaf_vector":"0"}},{"base_weights":[7E-1,2.1000001E-1,4.0585484E-2],"categories":[],"categories_nodes":[],"categories_segments":[],"categories_sizes":[],"default_left":[1,0,0],"id":3,"left_children":[1,-1,-1],"loss_changes":[2.65625E-1,0E0,0E0],"parents":[2147483647,0,0],"right_children":[2,-1,-1],"split_conditions":[2.5E1,2.1000001E-1,4.0585484E-2],"split_indices":[6,0,0],"split_type":[0,0,0],"sum_hessian":[4.2777285E3,4.2763604E3,1.368501E0],"tree_param":{"num_deleted":"0","num_feature":"9","num_nodes":"3","size_leaf_vector":"0"}},{"base_weights":[7E-1,2.1000001E-1,3.6154877E-2],"categories":[],"categories_nodes":[],"categories_segments":[],"categories_sizes":[],"default_left":[1,0,0],"id":4,"left_children":[1,-1,-1],"loss_changes":[3.2421875E-1,0E0,0E0],"parents":[2147483647,0,0],"right_children":[2,-1,-1],"split_conditions":[2.5E1,2.1000001E-1,3.6154877E-2],"split_indices":[6,0,0],"split_type":[0,0,0],"sum_hessian":[5.2770767E3,5.275652E3,1.4251847E0],"tree_param":{"num_deleted":"0","num_feature":"9","num_nodes":"3","size_leaf_vector":"0"}},{"base_weights":[7E-1,2.1000001E-1,5.779337E-1,2.7630946E-1,2.1000001E-1,1.6984756E-1,2.1000001E-1,7E-1,5.729754E-2,2.1000001E-1,-3.31797E-2,1.8237945E-1,-1.792812E-2,-3.31797E-2,8.046426E-2,3.0810053E-2,-4.113697E-2],"categories":[0,0,2,0,0,0],"categories_nodes":[3,5,7,8,11,12],"categories_segments":[0,1,2,3,4,5],"categories_sizes":[1,1,1,1,1,1],"default_left":[1,0,1,1,0,0,0,1,1,0,0,1,0,0,0,0,0],"id":5,"left_children":[1,-1,3,5,-1,7,-1,9,11,-1,-1,13,15,-1,-1,-1,-1],"loss_changes":[4.0625E-1,0E0,7.324644E0,2.8191473E0,0E0,2.7774777E0,0E0,2.0576608E0,3.5146594E-1,0E0,0E0,3.8140208E-1,3.5942656E-1,0E0,0E0,0E0,0E0],"parents":[2147483647,0,0,2,2,3,3,5,5,7,7,8,8,11,11,12,12],"right_children":[2,-1,4,6,-1,8,-1,10,12,-1,-1,14,16,-1,-1,-1,-1],"split_conditions":[7.3E0,2.1000001E-1,5.7E1,NaN,2.1000001E-1,NaN,2.1000001E-1,NaN,NaN,2.1000001E-1,-3.31797E-2,NaN,NaN,-3.31797E-2,8.046426E-2,3.0810053E-2,-4.113697E-2],"split_indices":[6,0,1,4,0,8,0,0,8,0,0,2,0,0,0,0,0],"split_type":[0,0,0,1,0,1,0,1,1,0,0,1,1,0,0,0,0],"sum_hessian":[6.509933E3,6.450909E3,5.9023678E1,4.7514473E1,1.1509205E1,4.1759872E1,5.7546024E0,5.7546024E0,3.600527E1,2.8773012E0,2.8773012E0,1.298686E1,2.301841E1,2.8773012E0,1.0109558E1,1.1509205E1,1.1509205E1],"tree_param":{"num_deleted":"0","num_feature":"9","num_nodes":"17","size_leaf_vector":"0"}},{"base_weights":[7E-1,2.1000001E-1,6.071311E-1,1.094295E-1,7E-1,-7.4564345E-2,2.918511E-1,7E-1,2.5658026E-1,-1.6786735E-1,7.5105615E-2,1.7394982E-1,5.7617587E-1,7E-1,4.8302174E-1,6.501673E-2,5.784009E-1,-6.1569676E-2,1.56466E-2,7.900993E-4,8.158554E-2,-2.9917732E-2,5.2827424E-1,2.1000001E-1,1.56466E-2,2.1000001E-1,-4.68388E-2,3.0756983E-1,7E-1,9.768938E-2,-1.1553803E-1,7E-1,1.3548066E-1,3.0481178E-2,-3.4536265E-2,-4.0842645E-2,1.8332943E-2,6.606925E-2,2.1000001E-1,1.701628E-1,5.737011E-2,2.1000001E-1,1.56466E-2,-5.8926973E-2,-7.4203624E-3,2.1000001E-1,1.56466E-2,-2.9609716E-2,7.0390746E-2],"categories":[0,0,1,0,0,0,0,1,2,1,3,0,1,2,3],"categories_nodes":[3,4,7,10,11,12,13,19,27,31],"categories_segments":[0,1,3,4,5,6,8,9,11,12],"categories_sizes":[1,2,1,1,1,2,1,2,1,3],"default_left":[1,0,0,0,1,0,0,1,0,0,1,1,0,1,0,0,0,0,0,0,0,0,0,0,0,0,0,0,1,0,1,1,0,0,0,0,0,0,0,0,0,0,0,0,0,0,0,0,0],"id":6,"left_children":[1,-1,3,5,7,9,11,13,15,17,19,21,23,25,27,29,31,-1,-1,33,-1,35,37,-1,-1,-1,-1,39,41,-1,43,45,47,-1,-1,-1,-1,-1,-1,-1,-1,-1,-1,-1,-1,-1,-1,-1,-1],"loss_changes":[2.8891602E0,0E0,2.4616669E1,2.7631562E0,1.0604141E1,5.915692E-1,1.2814443E0,5.3010254E0,3.4408815E0,2.2320062E-1,2.427887E-1,2.2238562E0,1.2408993E0,4.884842E0,6.836565E0,1.754979E0,2.4760828E0,0E0,0E0,1.6432868E-1,0E0,2.0508876E-1,9.442134E-1,0E0,0E0,0E0,0E0,2.4643803E0,1.4195061E0,0E0,1.5891263E-1,1.4195061E0,2.618225E-1,0E0,0E0,0E0,0E0,0E0,0E0,0E0,0E0,0E0,0E0,0E0,0E0,0E0,0E0,0E0,0E0],"parents":[2147483647,0,0,2,2,3,3,4,4,5,5,6,6,7,7,8,8,9,9,10,10,11,11,12,12,13,13,14,14,15,15,16,16,19,19,21,21,22,22,27,27,28,28,30,30,31,31,32,32],"right_children":[2,-1,4,6,8,10,12,14,16,18,20,22,24,26,28,30,32,-1,-1,34,-1,36,38,-1,-1,-1,-1,40,42,-1,44,46,48,-1,-1,-1,-1,-1,-1,-1,-1,-1,-1,-1,-1,-1,-1,-1,-1],"split_conditions":[4.9E0,2.1000001E-1,4.3E1,NaN,NaN,5.7E0,4.1E1,NaN,5.6E0,3.600001E1,NaN,NaN,NaN,NaN,1.181824E1,5.5E1,7.3E0,-6.1569676E-2,1.56466E-2,NaN,8.158554E-2,3.5E1,1.144142E1,2.1000001E-1,1.56466E-2,2.1000001E-1,-4.68388E-2,NaN,1.8E1,9.768938E-2,1.45E1,NaN,1.5E1,3.0481178E-2,-3.4536265E-2,-4.0842645E-2,1.8332943E-2,6.606925E-2,2.1000001E-1,1.701628E-1,5.737011E-2,2.1000001E-1,1.56466E-2,-5.8926973E-2,-7.4203624E-3,2.1000001E-1,1.56466E-2,-2.9609716E-2,7.0390746E-2],"split_indices":[6,0,1,4,0,6,1,5,6,7,3,5,0,0,7,1,6,0,0,0,0,1,7,0,0,0,0,2,7,0,7,0,7,0,0,0,0,0,0,0,0,0,0,0,0,0,0,0,0],"split_type":[0,0,0,1,1,0,0,1,0,0,1,1,1,1,0,0,0,0,0,1,0,0,0,0,0,0,0,1,0,0,0,1,0,0,0,0,0,0,0,0,0,0,0,0,0,0,0,0,0],"sum_hessian":[8.0226313E3,7.631777E3,3.9085483E2,8.067554E1,3.101793E2,4.045904E1,4.0216496E1,2.5475531E2,5.542396E1,2.4847645E1,1.5611398E1,2.9567503E1,1.0648991E1,1.3275029E2,1.2200502E2,3.5496635E1,1.9927324E1,2.1297981E1,3.5496635E0,1.2061734E1,3.5496635E0,1.9349785E1,1.0217718E1,7.099327E0,3.5496635E0,1.2641723E2,6.333063E0,8.417832E1,3.7826702E1,1.4198654E1,2.1297981E1,1.0648991E1,9.278334E0,6.5169945E0,5.5447392E0,8.700795E0,1.0648991E1,6.6680546E0,3.5496635E0,2.4847645E1,5.9330677E1,3.427704E1,3.5496635E0,1.0648991E1,1.0648991E1,7.099327E0,3.5496635E0,2.7613394E0,6.5169945E0],"tree_param":{"num_deleted":"0","num_feature":"9","num_nodes":"49","size_leaf_vector":"0"}},{"base_weights":[7E-1,5.656473E-1,7E-1,6.9737107E-1,4.4385156E-1,7E-1,4.8511335E-1,7E-1,1.4293216E-1,5.796602E-1,2.8868496E-1,7E-1,2.4086459E-1,2.3438297E-1,7E-1,5.541337E-1,7E-1,3.5066542E-1,5.6744635E-2,6.52609E-1,4.2030782E-1,2.16235E-1,4.0298346E-1,5.435451E-1,7E-1,1.7577103E-1,5.023355E-1,7E-1,1.9078039E-1,7E-1,3.8338882E-1,4.6510297E-1,7E-1,7E-1,5.461805E-1,4.831401E-1,-1.8714449E-1,2.8631276E-1,-1.6685738E-3,6.845277E-1,-7.02067E-2,2.349367E-1,7E-1,1.4211163E-1,5.018708E-1,7E-1,3.5054964E-1,1.0798041E-1,7E-1,7E-1,-4.976235E-2,2.4531193E-3,3.0982685E-1,1.6916549E-1,2.1000001E-1,2.1000001E-1,1.0180336E-1,6.2225133E-2,2.9963848E-1,7E-1,1.0441415E-1,2.1000001E-1,3.0350682E-1,1.7108518E-1,9.167835E-2,2.1000001E-1,-5.0748643E-2,3.1324245E-2,2.1000001E-1,2.1000001E-1,5.0827965E-2,1.0168569E-1,2.1000001E-1,-2.7266122E-2,-6.5509565E-2,-6.5509565E-2,1.374256E-1,2.3118109E-2,-2.6558945E-2,8.207258E-2,2.1000001E-1,8.149275E-2,-6.3851535E-2,2.1000001E-1,5.625863E-2,2.1000001E-1,1.0492892E-1,-4.5636766E-2,6.1182465E-2,2.1000001E-1,-6.7463475E-3,2.1000001E-1,-3.7447058E-2,7.9463385E-2,1.776307E-1,-1.1812589E-2,1.8510339E-1,2.1000001E-1,5.328081E-2,1.0209554E-1,2.1000001E-1,8.149275E-2,-2.9253209E-2,-5.3152153E-3,1.5346327E-1,1.0180336E-1,-9.73859E-3,1.0214519E-1,-1.1454574E-2,1.278585E-1,5.8194038E-2,8.746842E-2,2.1000001E-1,2.1000001E-1,-7.222279E-2,1.0551588E-1,-5.28151E-3],"categories":[0,0,1,0,0,0,2,0,0,0,0,0,0,0,0,1,3,0,1,0,0,0],"categories_nodes":[1,2,4,7,11,19,21,25,26,27,30,34,38,41,42,47,52,60],"categories_segments":[0,1,3,4,5,6,7,8,9,10,11,12,13,14,17,19,20,21],"categories_sizes":[1,2,1,1,1,1,1,1,1,1,1,1,1,3,2,1,1,1],"default_left":[0,1,1,1,1,1,1,0,1,0,0,0,1,0,0,0,0,0,0,1,0,1,0,1,1,1,1,1,1,0,0,0,0,0,0,0,0,0,0,0,0,0,1,0,0,0,1,1,1,0,0,0,0,0,0,0,0,0,0,0,1,0,1,0,0,0,0,0,0,0,0,0,0,0,0,0,0,0,0,0,0,0,0,0,0,0,0,0,0,0,0,0,0,0,0,0,0,0,0,0,0,0,0,0,0,0,0,0,0,0,0,0,0,0,0,0,0],"id":7,"left_children":[1,3,5,7,9,11,13,15,17,19,21,23,25,27,29,31,33,35,37,39,41,43,45,47,49,51,53,55,57,59,61,63,65,67,69,71,73,75,77,79,81,83,85,87,89,91,93,95,97,99,-1,101,103,105,-1,-1,-1,107,109,111,113,-1,115,-1,-1,-1,-1,-1,-1,-1,-1,-1,-1,-1,-1,-1,-1,-1,-1,-1,-1,-1,-1,-1,-1,-1,-1,-1,-1,-1,-1,-1,-1,-1,-1,-1,-1,-1,-1,-1,-1,-1,-1,-1,-1,-1,-1,-1,-1,-1,-1,-1,-1,-1,-1,-1,-1],"loss_changes":[6.8697754E1,6.1184204E1,2.1311523E1,3.9043396E1,4.1858093E1,1.966211E1,3.7174118E1,1.788678E1,2.261691E0,1.2076569E1,7.6372604E0,5.6640625E0,1.5387397E0,6.6266413E0,8.907623E0,1.3807983E1,4.9214478E0,2.738998E0,1.2242498E0,1.6821655E1,1.8868519E1,1.2061905E1,8.121223E0,2.9007668E1,5.169922E0,1.8133378E0,1.5362754E0,2.0967674E-1,3.5746994E0,4.5248566E0,2.785036E0,9.760941E0,1.6806427E1,4.5248413E0,2.6431862E1,1.4478879E0,4.3997765E-3,1.7052283E0,5.111123E-1,7.4881287E0,1.601219E0,5.8473253E0,3.9300385E0,8.333937E0,1.7457571E1,1.1398922E1,6.6952744E0,7.654191E0,1.7926178E1,1.9047852E0,0E0,9.6994066E-1,2.917387E0,3.458495E-1,0E0,0E0,0E0,3.337666E0,1.7730036E0,4.0600586E0,3.1311862E0,0E0,1.2541919E0,0E0,0E0,0E0,0E0,0E0,0E0,0E0,0E0,0E0,0E0,0E0,0E0,0E0,0E0,0E0,0E0,0E0,0E0,0E0,0E0,0E0,0E0,0E0,0E0,0E0,0E0,0E0,0E0,0E0,0E0,0E0,0E0,0E0,0E0,0E0,0E0,0E0,0E0,0E0,0E0,0E0,0E0,0E0,0E0,0E0,0E0,0E0,0E0,0E0,0E0,0E0,0E0,0E0,0E0],"parents":[2147483647,0,0,1,1,2,2,3,3,4,4,5,5,6,6,7,7,8,8,9,9,10,10,11,11,12,12,13,13,14,14,15,15,16,16,17,17,18,18,19,19,20,20,21,21,22,22,23,23,24,24,25,25,26,26,27,27,28,28,29,29,30,30,31,31,32,32,33,33,34,34,35,35,36,36,37,37,38,38,39,39,40,40,41,41,42,42,43,43,44,44,45,45,46,46,47,47,48,48,49,49,51,51,52,52,53,53,57,57,58,58,59,59,60,60,62,62],"right_children":[2,4,6,8,10,12,14,16,18,20,22,24,26,28,30,32,34,36,38,40,42,44,46,48,50,52,54,56,58,60,62,64,66,68,70,72,74,76,78,80,82,84,86,88,90,92,94,96,98,100,-1,102,104,106,-1,-1,-1,108,110,112,114,-1,116,-1,-1,-1,-1,-1,-1,-1,-1,-1,-1,-1,-1,-1,-1,-1,-1,-1,-1,-1,-1,-1,-1,-1,-1,-1,-1,-1,-1,-1,-1,-1,-1,-1,-1,-1,-1,-1,-1,-1,-1,-1,-1,-1,-1,-1,-1,-1,-1,-1,-1,-1,-1,-1,-1],"split_conditions":[4.8E1,NaN,NaN,4.367305E0,NaN,1.3E1,5.2E1,NaN,1.05E1,1.8E1,4E1,NaN,6E1,1.35E1,3.9E0,1.35E1,4.4E1,6E0,4.5E0,NaN,4.367305E0,NaN,4.1E1,1.05E1,1.1E1,NaN,NaN,NaN,1.5E1,3.600001E1,NaN,3.45E0,4.4E1,7.78E-1,NaN,5.7E0,3.7E1,4.1E1,NaN,2.6E1,1.7E0,NaN,NaN,2.05E0,3.505345E0,1.080549E1,3.4E0,NaN,3E0,5.3E-1,-4.976235E-2,5.7E1,NaN,6.1E1,2.1000001E-1,2.1000001E-1,1.0180336E-1,2.834968E0,4.065E0,2.468E0,NaN,2.1000001E-1,5.176241E0,1.7108518E-1,9.167835E-2,2.1000001E-1,-5.0748643E-2,3.1324245E-2,2.1000001E-1,2.1000001E-1,5.0827965E-2,1.0168569E-1,2.1000001E-1,-2.7266122E-2,-6.5509565E-2,-6.5509565E-2,1.374256E-1,2.3118109E-2,-2.6558945E-2,8.207258E-2,2.1000001E-1,8.149275E-2,-6.3851535E-2,2.1000001E-1,5.625863E-2,2.1000001E-1,1.0492892E-1,-4.5636766E-2,6.1182465E-2,2.1000001E-1,-6.7463475E-3,2.1000001E-1,-3.7447058E-2,7.9463385E-2,1.776307E-1,-1.1812589E-2,1.8510339E-1,2.1000001E-1,5.328081E-2,1.0209554E-1,2.1000001E-1,8.149275E-2,-2.9253209E-2,-5.3152153E-3,1.5346327E-1,1.0180336E-1,-9.73859E-3,1.0214519E-1,-1.1454574E-2,1.278585E-1,5.8194038E-2,8.746842E-2,2.1000001E-1,2.1000001E-1,-7.222279E-2,1.0551588E-1,-5.28151E-3],"split_indices":[1,2,0,6,3,7,1,5,7,7,1,8,1,7,6,7,1,6,6,0,6,4,1,7,6,2,5,3,7,7,2,6,1,6,2,6,1,1,5,1,6,0,0,6,6,7,6,4,6,6,0,1,4,1,0,0,0,6,6,6,0,0,6,0,0,0,0,0,0,0,0,0,0,0,0,0,0,0,0,0,0,0,0,0,0,0,0,0,0,0,0,0,0,0,0,0,0,0,0,0,0,0,0,0,0,0,0,0,0,0,0,0,0,0,0,0,0],"split_type":[0,1,1,0,1,0,0,1,0,0,0,1,0,0,0,0,0,0,0,1,0,1,0,0,0,1,1,1,0,0,1,0,0,0,1,0,0,0,1,0,0,1,1,0,0,0,0,1,0,0,0,0,1,0,0,0,0,0,0,0,1,0,0,0,0,0,0,0,0,0,0,0,0,0,0,0,0,0,0,0,0,0,0,0,0,0,0,0,0,0,0,0,0,0,0,0,0,0,0,0,0,0,0,0,0,0,0,0,0,0,0,0,0,0,0,0,0],"sum_hessian":[9.856267E3,3.8319614E3,6.024305E3,1.8386791E3,1.9932823E3,5.553168E3,4.7113736E2,1.7122446E3,1.264345E2,1.0614868E3,9.317956E2,5.4585728E3,9.459509E1,2.7328906E2,1.978483E2,8.6269104E2,8.495536E2,3.617505E1,9.025945E1,7.260282E2,3.3545862E2,5.720709E2,3.597246E2,2.504075E2,5.2081655E3,7.707852E1,1.751657E1,1.751657E1,2.5577248E2,1.0509941E2,9.274888E1,5.911842E2,2.7150684E2,6.218382E2,2.277154E2,2.9106993E1,7.068055E0,1.751657E1,7.274288E1,6.9537415E2,3.0653996E1,2.1019882E2,1.2525979E2,4.5539267E2,1.1667827E2,2.9612558E1,3.3011206E2,1.00720276E2,1.4968724E2,5.201616E3,6.5491486E0,3.40606E1,4.301792E1,8.758285E0,8.758285E0,1.3137426E1,4.3791423E0,1.1799668E2,1.377758E2,9.196199E1,1.3137426E1,1.3137426E1,7.961145E1,3.547105E2,2.3647368E2,2.4961111E2,2.1895712E1,1.3137426E1,6.087008E2,1.138577E2,1.138577E2,2.472785E1,4.3791423E0,2.6889126E0,4.3791423E0,4.3791423E0,1.3137426E1,3.821687E1,3.4526016E1,4.3791424E1,6.5158276E2,8.758285E0,2.1895712E1,1.3137426E1,1.970614E2,9.022665E1,3.503314E1,7.882456E1,3.765681E2,7.444542E1,4.2232853E1,1.3137426E1,1.6475132E1,2.4523196E2,8.488009E1,7.882456E1,2.1895712E1,8.3203705E1,6.6483536E1,1.751657E1,5.1840996E3,8.758285E0,2.5302315E1,1.6743067E1,2.6274853E1,4.3791423E0,4.3791423E0,3.0653996E1,8.734269E1,6.130799E1,7.6467804E1,2.6274853E1,6.568713E1,4.3791423E0,8.758285E0,6.913586E1,1.0475598E1],"tree_param":{"num_deleted":"0","num_feature":"9","num_nodes":"117","size_leaf_vector":"0"}},{"base_weights":[5.463544E-1,4.3299547E-1,7E-1,6.264788E-1,3.6257184E-1,7E-1,3.865954E-1,3.6951482E-1,7E-1,4.2179415E-1,2.7916974E-1,3.5868993E-1,7E-1,3.168079E-1,7E-1,7E-1,2.529557E-1,7E-1,4.8975995E-1,4.9644473E-1,3.2946187E-1,4.296181E-1,1.8653299E-1,6.076598E-3,7E-1,7E-1,6.2811893E-1,7E-1,2.5187346E-1,-9.739914E-2,7E-1,7E-1,1.5331608E-1,4.1396126E-1,1.7382452E-1,2.5895745E-1,2.1000001E-1,3.1975555E-1,7E-1,4.0039E-1,6.775905E-1,6.351573E-1,2.6257786E-1,2.544805E-1,6.1738807E-1,2.1803094E-1,9.877924E-2,9.7993806E-2,-1.2340386E-1,-5.736221E-2,7E-1,7E-1,3.2601404E-1,7E-1,3.86248E-1,-3.190041E-2,7E-1,2.4960652E-2,3.068562E-1,-1.3344625E-1,1.4864081E-2,7E-1,2.0447288E-2,-3.5123803E-2,2.1000001E-1,1.1380366E-1,-1.1509955E-2,8.5004404E-2,2.1000001E-1,6.0988072E-2,-4.0766682E-2,-6.7617126E-2,1.0971638E-1,7.90717E-2,2.1000001E-1,2.1000001E-1,9.422022E-2,7.841616E-2,1.5688697E-1,1.5064482E-1,2.1000001E-1,2.1000001E-1,8.2044125E-2,1.14187725E-1,6.008104E-2,1.0842237E-1,2.6971815E-2,8.5336596E-2,2.1000001E-1,5.4138526E-2,1.5661067E-1,5.9515588E-2,5.6909868E-3,-9.087307E-3,5.9058852E-2,1.6123226E-2,-5.807399E-2,3.771492E-2,-6.906956E-2,1.4864081E-2,2.1000001E-1,2.1000001E-1,1.6477406E-1,5.898702E-3,2.1000001E-1,-2.2899643E-2,2.1000001E-1,1.0395908E-1,2.1000001E-1,-7.8850016E-2,3.265953E-2,2.1000001E-1,1.6123226E-2,-4.9506556E-2,2.8886328E-2,1.8578947E-1,7.0510805E-2,-2.3998873E-2,-7.8850016E-2,2.1000001E-1,1.431919E-2],"categories":[0,0,0,0,0,0,3,0,2,0,0,1,2,0,3,0,0,0,0,1,2],"categories_nodes":[1,3,4,5,7,16,43,44,46,48,49,56,57,58,61],"categories_segments":[0,1,2,3,4,5,7,9,10,13,14,15,16,17,18],"categories_sizes":[1,1,1,1,1,2,2,1,3,1,1,1,1,1,3],"default_left":[1,0,1,0,1,0,0,1,0,0,0,1,0,0,0,0,1,0,1,1,0,0,1,1,0,1,0,0,0,0,0,0,0,0,1,0,0,1,1,0,0,1,0,0,0,1,0,0,1,1,0,1,1,0,1,0,0,0,0,0,0,1,0,0,0,0,0,0,0,0,0,0,0,0,0,0,0,0,0,0,0,0,0,0,0,0,0,0,0,0,0,0,0,0,0,0,0,0,0,0,0,0,0,0,0,0,0,0,0,0,0,0,0,0,0,0,0,0,0,0,0],"id":8,"left_children":[1,3,5,7,9,11,13,15,17,19,21,23,25,27,29,31,33,35,37,39,41,43,45,47,49,51,53,55,57,59,61,63,65,67,69,71,-1,73,75,77,79,81,83,85,87,89,91,93,95,97,99,101,103,105,107,109,111,113,115,117,-1,119,-1,-1,-1,-1,-1,-1,-1,-1,-1,-1,-1,-1,-1,-1,-1,-1,-1,-1,-1,-1,-1,-1,-1,-1,-1,-1,-1,-1,-1,-1,-1,-1,-1,-1,-1,-1,-1,-1,-1,-1,-1,-1,-1,-1,-1,-1,-1,-1,-1,-1,-1,-1,-1,-1,-1,-1,-1,-1,-1],"loss_changes":[2.5811377E2,1.02210205E2,5.328174E1,8.709857E1,2.7118042E1,1.387915E1,1.550972E1,3.6397446E1,2.6643982E1,2.2048096E1,3.1871918E1,2.9682697E1,5.2822266E0,1.2510536E1,1.7822392E1,2.7329933E1,8.554375E0,4.7869873E0,3.5339645E1,3.0698822E1,2.9349625E1,2.8549194E1,3.9053345E0,1.1129885E0,5.382263E0,1.0136353E1,6.6717285E1,8.151894E0,5.134758E0,1.5916517E-1,1.981781E0,2.50121E1,4.047581E0,8.579948E0,4.186654E0,1.4852568E0,0E0,1.4346043E1,1.6137222E1,1.972142E1,1.6975555E1,2.3818153E1,8.648407E0,7.945366E0,2.2837723E1,1.1836521E1,2.9937823E0,6.991713E-1,4.9331915E-1,3.5295063E-1,2.2188072E0,1.128418E0,1.1743612E1,5.958618E0,1.848143E1,5.530429E-1,4.4402847E0,1.1200438E0,7.297535E0,1.407862E-1,0E0,1.4614258E0,0E0,0E0,0E0,0E0,0E0,0E0,0E0,0E0,0E0,0E0,0E0,0E0,0E0,0E0,0E0,0E0,0E0,0E0,0E0,0E0,0E0,0E0,0E0,0E0,0E0,0E0,0E0,0E0,0E0,0E0,0E0,0E0,0E0,0E0,0E0,0E0,0E0,0E0,0E0,0E0,0E0,0E0,0E0,0E0,0E0,0E0,0E0,0E0,0E0,0E0,0E0,0E0,0E0,0E0,0E0,0E0,0E0,0E0,0E0],"parents":[2147483647,0,0,1,1,2,2,3,3,4,4,5,5,6,6,7,7,8,8,9,9,10,10,11,11,12,12,13,13,14,14,15,15,16,16,17,17,18,18,19,19,20,20,21,21,22,22,23,23,24,24,25,25,26,26,27,27,28,28,29,29,30,30,31,31,32,32,33,33,34,34,35,35,37,37,38,38,39,39,40,40,41,41,42,42,43,43,44,44,45,45,46,46,47,47,48,48,49,49,50,50,51,51,52,52,53,53,54,54,55,55,56,56,57,57,58,58,59,59,61,61],"right_children":[2,4,6,8,10,12,14,16,18,20,22,24,26,28,30,32,34,36,38,40,42,44,46,48,50,52,54,56,58,60,62,64,66,68,70,72,-1,74,76,78,80,82,84,86,88,90,92,94,96,98,100,102,104,106,108,110,112,114,116,118,-1,120,-1,-1,-1,-1,-1,-1,-1,-1,-1,-1,-1,-1,-1,-1,-1,-1,-1,-1,-1,-1,-1,-1,-1,-1,-1,-1,-1,-1,-1,-1,-1,-1,-1,-1,-1,-1,-1,-1,-1,-1,-1,-1,-1,-1,-1,-1,-1,-1,-1,-1,-1,-1,-1,-1,-1,-1,-1,-1,-1],"split_conditions":[4.8E1,NaN,3.9E0,NaN,NaN,NaN,6E0,NaN,2.514789E0,4.6E1,2.882E0,1.1E1,6E1,4.9E1,5.4E1,1.080549E1,NaN,8.7E-1,1.1E1,2.931185E0,1E1,4.8E1,3.527E0,2E0,5.1E1,1.5E1,2E0,4.065E0,1E1,5.3E1,6.4E1,1.998E0,4E1,1.8E1,3.6E0,3.6E1,2.1000001E-1,4.6E1,2.6E1,1.144142E1,4.3E1,2.2E0,3.05E0,NaN,NaN,3.5E0,NaN,5.3E1,NaN,NaN,2.15E0,3.664E0,3E0,5.3E-1,3.826966E0,4E0,NaN,NaN,NaN,5.1E1,1.4864081E-2,NaN,2.0447288E-2,-3.5123803E-2,2.1000001E-1,1.1380366E-1,-1.1509955E-2,8.5004404E-2,2.1000001E-1,6.0988072E-2,-4.0766682E-2,-6.7617126E-2,1.0971638E-1,7.90717E-2,2.1000001E-1,2.1000001E-1,9.422022E-2,7.841616E-2,1.5688697E-1,1.5064482E-1,2.1000001E-1,2.1000001E-1,8.2044125E-2,1.14187725E-1,6.008104E-2,1.0842237E-1,2.6971815E-2,8.5336596E-2,2.1000001E-1,5.4138526E-2,1.5661067E-1,5.9515588E-2,5.6909868E-3,-9.087307E-3,5.9058852E-2,1.6123226E-2,-5.807399E-2,3.771492E-2,-6.906956E-2,1.4864081E-2,2.1000001E-1,2.1000001E-1,1.6477406E-1,5.898702E-3,2.1000001E-1,-2.2899643E-2,2.1000001E-1,1.0395908E-1,2.1000001E-1,-7.8850016E-2,3.265953E-2,2.1000001E-1,1.6123226E-2,-4.9506556E-2,2.8886328E-2,1.8578947E-1,7.0510805E-2,-2.3998873E-2,-7.8850016E-2,2.1000001E-1,1.431919E-2],"split_indices":[1,2,6,5,3,8,6,8,6,1,6,7,1,1,1,7,0,6,7,6,7,1,6,6,1,7,6,6,7,1,1,6,1,7,6,1,0,1,1,7,1,6,6,0,5,6,0,1,5,0,6,6,6,6,6,6,4,5,5,1,0,0,0,0,0,0,0,0,0,0,0,0,0,0,0,0,0,0,0,0,0,0,0,0,0,0,0,0,0,0,0,0,0,0,0,0,0,0,0,0,0,0,0,0,0,0,0,0,0,0,0,0,0,0,0,0,0,0,0,0,0],"split_type":[0,1,0,1,1,1,0,1,0,0,0,0,0,0,0,0,1,0,0,0,0,0,0,0,0,0,0,0,0,0,0,0,0,0,0,0,0,0,0,0,0,0,0,1,1,0,1,0,1,1,0,0,0,0,0,0,1,1,1,0,0,1,0,0,0,0,0,0,0,0,0,0,0,0,0,0,0,0,0,0,0,0,0,0,0,0,0,0,0,0,0,0,0,0,0,0,0,0,0,0,0,0,0,0,0,0,0,0,0,0,0,0,0,0,0,0,0,0,0,0,0],"sum_hessian":[1.1747998E4,7.5169014E3,4.2310967E3,2.0037802E3,5.513121E3,3.6846475E3,5.464492E2,9.001621E2,1.1036182E3,3.2215205E3,2.2916008E3,1.22348114E2,3.5622996E3,4.7416574E2,7.228348E1,2.240856E2,6.760765E2,4.9073917E2,6.1287897E2,1.7789025E3,1.442618E3,8.7191473E2,1.419686E3,9.150072E1,3.0847397E1,2.4461199E3,1.1161796E3,6.298996E1,4.111758E2,2.780006E1,4.4483418E1,1.319998E2,9.208579E1,2.2139015E2,4.5468634E2,2.6128294E1,4.6461087E2,4.3447568E2,1.7840327E2,1.1645801E3,6.143223E2,2.57448E2,1.18517E3,4.523512E2,4.1956354E2,1.0436118E3,3.7607416E2,5.3654774E1,3.7845943E1,9.237589E0,2.1609808E1,2.3711453E3,7.497451E1,3.758204E2,7.403592E2,1.5132622E1,4.7857338E1,8.048196E1,3.3069385E2,2.239761E1,5.402452E0,3.9291954E1,5.191463E0,3.719857E1,9.480123E1,4.18077E1,5.027809E1,1.5606033E2,6.532981E1,4.154958E2,3.919055E1,4.5184865E0,2.1609808E1,4.074634E2,2.701226E1,6.776905E1,1.10634224E2,5.4716846E2,6.174117E2,4.5307114E2,1.6125122E2,1.1885394E2,1.3859404E2,4.076777E2,7.774923E2,2.7347372E2,1.7887747E2,1.507163E2,2.6884726E2,9.302449E2,1.1336698E2,1.6662808E2,2.0944609E2,2.3655214E1,2.9999557E1,1.0804904E1,2.7041039E1,4.6187944E0,4.6187944E0,5.402452E0,1.6207355E1,2.3009136E3,7.023187E1,4.8388283E1,2.6586231E1,9.699706E0,3.661207E2,7.349567E2,5.402452E0,5.402452E0,9.730169E0,3.7052433E1,1.0804904E1,2.1609808E1,5.887215E1,6.0383278E1,2.7031055E2,1.6995157E1,5.402452E0,3.5705307E1,3.5866473E0],"tree_param":{"num_deleted":"0","num_feature":"9","num_nodes":"121","size_leaf_vector":"0"}},{"base_weights":[4.1954264E-1,5.7378143E-1,3.4387013E-1,7E-1,4.477512E-1,2.872055E-1,5.287817E-1,3.8754305E-1,7E-1,4.0870535E-1,7E-1,3.5603625E-1,2.4703489E-1,3.8870478E-1,6.5268314E-1,1.9367191E-1,7E-1,7.339691E-2,7E-1,3.433985E-1,6.1642104E-1,7E-1,5.4492108E-3,2.8811607E-1,4.9401087E-1,7E-1,2.3313859E-1,7E-1,2.6365262E-1,7E-1,2.0862977E-1,7.223371E-2,3.5327637E-1,7E-1,1.9390386E-1,1.7199118E-1,-1.7599118E-1,7E-1,5.218771E-1,2.7862638E-1,4.5494846E-1,2.6275688E-1,7E-1,7E-1,2.5733814E-1,-1.5852824E-1,2.4984406E-1,3.7200463E-1,1.3852103E-1,1.5717547E-1,7E-1,6.455309E-2,7E-1,2.1155927E-1,3.4274116E-1,7E-1,3.6424053E-1,2.3536289E-1,7E-1,4.1211817E-1,7E-1,6.5044457E-1,1.5763584E-1,-6.99518E-2,3.5179615E-2,1.5586391E-1,1.927004E-2,2.1000001E-1,2.7018609E-2,1.835767E-1,-1.2966769E-2,-6.3015334E-2,6.5843076E-2,-8.85984E-2,3.3771012E-2,-1.2120913E-2,2.1000001E-1,2.1000001E-1,8.980646E-2,5.6727163E-2,1.4059125E-1,1.7366165E-1,5.828063E-2,1.0298022E-1,1.2703796E-2,5.33962E-2,2.1000001E-1,2.1000001E-1,8.3532825E-2,1.611247E-1,3.181463E-2,9.998094E-4,-5.6988843E-2,8.252812E-2,4.389177E-2,1.4358549E-1,7.126353E-2,7.679347E-2,-2.9188963E-2,-6.681917E-2,7.07558E-2,2.1000001E-1,1.3384545E-1,-2.7218556E-2,4.9514234E-2,-4.230112E-2,2.1000001E-1,8.2525745E-2,5.096997E-2,1.6408345E-1,4.8754998E-2,5.571857E-2,2.1000001E-1,3.8907353E-2,1.9264157E-1,3.2369398E-2,8.93029E-2,2.1000001E-1,1.9572891E-2,2.1000001E-1,9.844095E-2,2.1000001E-1,-2.5194557E-2,2.1000001E-1,-5.787148E-2,8.801639E-2,1.7075216E-3],"categories":[0,0,0,0,0,0,0,0,0,0,1,2,0,0,0,0,0,3,0,1,2,0,0,0,0,0,3,1,2],"categories_nodes":[0,3,4,6,19,23,26,27,30,32,33,36,41,42,44,45,46,47,50,51,55,61,62],"categories_segments":[0,1,2,3,4,5,6,7,8,9,12,13,14,15,16,17,18,21,22,23,24,25,27],"categories_sizes":[1,1,1,1,1,1,1,1,1,3,1,1,1,1,1,1,3,1,1,1,1,2,2],"default_left":[0,0,1,0,1,1,1,1,0,1,1,1,0,0,1,1,0,1,0,0,0,1,1,1,1,0,1,1,1,0,0,0,0,1,0,0,1,0,0,1,1,0,0,1,1,1,1,0,1,0,1,0,0,0,0,0,0,0,0,0,0,1,0,0,0,0,0,0,0,0,0,0,0,0,0,0,0,0,0,0,0,0,0,0,0,0,0,0,0,0,0,0,0,0,0,0,0,0,0,0,0,0,0,0,0,0,0,0,0,0,0,0,0,0,0,0,0,0,0,0,0,0,0,0,0,0,0],"id":9,"left_children":[1,3,5,7,9,11,13,15,17,19,21,23,25,27,29,31,33,35,37,39,41,43,45,47,49,51,53,55,57,59,61,63,65,67,69,71,73,75,77,79,81,83,85,87,89,91,93,95,97,99,101,103,105,107,109,111,113,115,117,119,121,123,125,-1,-1,-1,-1,-1,-1,-1,-1,-1,-1,-1,-1,-1,-1,-1,-1,-1,-1,-1,-1,-1,-1,-1,-1,-1,-1,-1,-1,-1,-1,-1,-1,-1,-1,-1,-1,-1,-1,-1,-1,-1,-1,-1,-1,-1,-1,-1,-1,-1,-1,-1,-1,-1,-1,-1,-1,-1,-1,-1,-1,-1,-1,-1,-1],"loss_changes":[1.5591455E2,9.424487E1,9.389282E1,4.4728577E1,3.191858E1,1.891394E1,3.626483E1,5.2528137E1,2.2584045E1,3.1322968E1,2.8813904E1,2.3570953E1,2.8543854E1,5.4210663E1,5.572885E1,7.401413E0,4.887436E0,1.4752648E0,1.2796631E1,1.266835E1,4.5862274E1,6.396637E0,2.4740179E0,2.1258423E1,7.299606E1,2.2894394E1,9.911835E0,6.384964E0,1.1530777E1,4.096118E1,5.376357E0,3.037434E0,7.911627E0,2.3615189E0,2.1075072E0,8.1934476E-1,6.2364995E-1,3.711731E0,2.8069183E1,1.9015297E1,2.085144E1,4.647587E0,1.6676697E1,3.9804688E0,1.4304581E0,1.8871701E-1,2.453494E-2,1.5474258E1,1.6968143E1,1.1093752E1,9.7969055E0,9.186851E-1,4.47596E0,9.294373E0,2.5408386E1,1.252945E0,3.8917055E0,5.9524765E0,7.7548046E0,1.8000847E1,2.5573547E1,8.628885E0,4.5225887E0,0E0,0E0,0E0,0E0,0E0,0E0,0E0,0E0,0E0,0E0,0E0,0E0,0E0,0E0,0E0,0E0,0E0,0E0,0E0,0E0,0E0,0E0,0E0,0E0,0E0,0E0,0E0,0E0,0E0,0E0,0E0,0E0,0E0,0E0,0E0,0E0,0E0,0E0,0E0,0E0,0E0,0E0,0E0,0E0,0E0,0E0,0E0,0E0,0E0,0E0,0E0,0E0,0E0,0E0,0E0,0E0,0E0,0E0,0E0,0E0,0E0,0E0,0E0,0E0],"parents":[2147483647,0,0,1,1,2,2,3,3,4,4,5,5,6,6,7,7,8,8,9,9,10,10,11,11,12,12,13,13,14,14,15,15,16,16,17,17,18,18,19,19,20,20,21,21,22,22,23,23,24,24,25,25,26,26,27,27,28,28,29,29,30,30,31,31,32,32,33,33,34,34,35,35,36,36,37,37,38,38,39,39,40,40,41,41,42,42,43,43,44,44,45,45,46,46,47,47,48,48,49,49,50,50,51,51,52,52,53,53,54,54,55,55,56,56,57,57,58,58,59,59,60,60,61,61,62,62],"right_children":[2,4,6,8,10,12,14,16,18,20,22,24,26,28,30,32,34,36,38,40,42,44,46,48,50,52,54,56,58,60,62,64,66,68,70,72,74,76,78,80,82,84,86,88,90,92,94,96,98,100,102,104,106,108,110,112,114,116,118,120,122,124,126,-1,-1,-1,-1,-1,-1,-1,-1,-1,-1,-1,-1,-1,-1,-1,-1,-1,-1,-1,-1,-1,-1,-1,-1,-1,-1,-1,-1,-1,-1,-1,-1,-1,-1,-1,-1,-1,-1,-1,-1,-1,-1,-1,-1,-1,-1,-1,-1,-1,-1,-1,-1,-1,-1,-1,-1,-1,-1,-1,-1,-1,-1,-1,-1],"split_conditions":[NaN,2.468E0,5.2E1,NaN,NaN,1E1,NaN,5E1,7.78E-1,1.080549E1,6.1E1,4.2E1,1.422E0,1.75E0,1.15E1,1.05E1,1.998E0,6.1E1,1.181824E1,NaN,5.2E1,1.2E1,3E0,NaN,2.5E0,1.2E0,NaN,NaN,5E0,1.080549E1,NaN,1.5E0,NaN,NaN,5.2E1,3.6E1,NaN,8.5E0,5.8E1,5.3E1,6E1,NaN,NaN,4E0,NaN,NaN,NaN,NaN,2.8E1,1.693E0,NaN,NaN,1.05E1,3.25506E0,4.3E1,NaN,1.25E0,5.6E1,1.6E1,5.3E1,6.1E1,NaN,NaN,-6.99518E-2,3.5179615E-2,1.5586391E-1,1.927004E-2,2.1000001E-1,2.7018609E-2,1.835767E-1,-1.2966769E-2,-6.3015334E-2,6.5843076E-2,-8.85984E-2,3.3771012E-2,-1.2120913E-2,2.1000001E-1,2.1000001E-1,8.980646E-2,5.6727163E-2,1.4059125E-1,1.7366165E-1,5.828063E-2,1.0298022E-1,1.2703796E-2,5.33962E-2,2.1000001E-1,2.1000001E-1,8.3532825E-2,1.611247E-1,3.181463E-2,9.998094E-4,-5.6988843E-2,8.252812E-2,4.389177E-2,1.4358549E-1,7.126353E-2,7.679347E-2,-2.9188963E-2,-6.681917E-2,7.07558E-2,2.1000001E-1,1.3384545E-1,-2.7218556E-2,4.9514234E-2,-4.230112E-2,2.1000001E-1,8.2525745E-2,5.096997E-2,1.6408345E-1,4.8754998E-2,5.571857E-2,2.1000001E-1,3.8907353E-2,1.9264157E-1,3.2369398E-2,8.93029E-2,2.1000001E-1,1.9572891E-2,2.1000001E-1,9.844095E-2,2.1000001E-1,-2.5194557E-2,2.1000001E-1,-5.787148E-2,8.801639E-2,1.7075216E-3],"split_indices":[2,6,1,5,4,7,2,1,6,7,1,1,6,6,7,7,6,1,7,3,1,7,6,3,6,6,4,3,6,7,5,6,0,3,1,1,5,7,1,1,1,4,5,6,5,0,0,4,1,6,5,3,7,6,1,8,6,1,7,1,1,0,0,0,0,0,0,0,0,0,0,0,0,0,0,0,0,0,0,0,0,0,0,0,0,0,0,0,0,0,0,0,0,0,0,0,0,0,0,0,0,0,0,0,0,0,0,0,0,0,0,0,0,0,0,0,0,0,0,0,0,0,0,0,0,0,0],"split_type":[1,0,0,1,1,0,1,0,0,0,0,0,0,0,0,0,0,0,0,1,0,0,0,1,0,0,1,1,0,0,1,0,1,1,0,0,1,0,0,0,0,1,1,0,1,1,1,1,0,0,1,1,0,0,0,1,0,0,0,0,0,1,1,0,0,0,0,0,0,0,0,0,0,0,0,0,0,0,0,0,0,0,0,0,0,0,0,0,0,0,0,0,0,0,0,0,0,0,0,0,0,0,0,0,0,0,0,0,0,0,0,0,0,0,0,0,0,0,0,0,0,0,0,0,0,0,0],"sum_hessian":[1.3374312E4,4.3998247E3,8.974486E3,1.8101206E3,2.5897043E3,6.871365E3,2.1031213E3,4.6216418E2,1.3479564E3,2.323664E3,2.6604034E2,2.529427E3,4.341938E3,9.8906714E2,1.1140542E3,3.8218555E2,7.9978645E1,5.7767773E1,1.2901886E3,1.7698634E3,5.538006E2,2.0629434E2,5.9746E1,1.6970939E3,8.323331E2,1.2148321E2,4.220455E3,1.9887192E2,7.901952E2,8.7187085E2,2.4218338E2,2.1786855E2,1.64317E2,5.9983982E1,1.9994661E1,4.1622776E1,1.6144997E1,8.724234E2,4.1776517E2,1.1219147E3,6.4794867E2,2.617229E2,2.920777E2,1.7214941E2,3.414493E1,3.5965908E1,2.3780088E1,1.0863906E3,6.107032E2,3.6839597E2,4.6393716E2,5.6911892E1,6.457132E1,3.5286416E3,6.9181335E2,1.3888794E2,5.9983982E1,7.52464E2,3.77312E1,4.9915942E2,3.7271143E2,2.3843803E1,2.1833957E2,2.7459475E1,1.9040906E2,1.0380589E2,6.051111E1,5.3319096E1,6.664887E0,6.664887E0,1.3329774E1,4.22306E0,3.7399715E1,1.1404942E1,4.740055E0,6.664887E0,8.6575854E2,1.5807146E2,2.596937E2,7.639337E2,3.5798096E2,4.3834476E2,2.0960394E2,1.9129156E2,7.043134E1,6.199779E1,2.300799E2,1.4799344E2,2.4155975E1,1.108956E1,2.305537E1,5.994318E0,2.997159E1,1.778577E1,5.994318E0,6.045111E2,4.818796E2,4.0759885E2,2.0310437E2,6.2890022E1,3.0550595E2,3.052992E2,1.5863797E2,2.2398859E1,3.451303E1,6.0211315E0,5.8550186E1,1.3953158E3,2.133326E3,3.2337643E2,3.6843692E2,5.590201E0,1.3329774E2,3.3324436E1,2.6659548E1,2.4796733E2,5.0449664E2,1.826839E1,1.946281E1,6.6684044E1,4.3247537E2,3.313061E2,4.1405327E1,1.3329774E1,1.051403E1,1.1482239E2,1.0351719E2],"tree_param":{"num_deleted":"0","num_feature":"9","num_nodes":"127","size_leaf_vector":"0"}},{"base_weights":[3.2972753E-1,4.425074E-1,2.7205202E-1,7E-1,4.1212937E-1,2.2521093E-1,4.205269E-1,5.4674894E-2,7E-1,2.5705147E-1,4.7248524E-1,2.558301E-1,1.6458087E-1,6.068025E-1,3.510676E-1,-1.5826814E-1,2.7567545E-1,2.7789098E-1,7E-1,-5.388614E-2,2.9344717E-1,2.7371857E-1,5.344646E-1,5.69902E-1,2.4839054E-1,3.4416568E-1,1.4342836E-1,7E-1,1.6622362E-1,7E-1,3.0161178E-1,2.0915193E-2,-9.374337E-2,5.1227663E-2,1.2741628E-1,7E-1,7.940971E-2,7E-1,-4.2617146E-2,-1.2255492E-1,4.4906768E-1,2.1031182E-1,4.2081186E-1,2.1000001E-1,2.3790342E-1,3.5099596E-1,6.024721E-1,7E-1,1.3059786E-1,3.8186092E-2,2.6011717E-1,1.8180357E-1,5.675559E-1,1.3456176E-1,5.844474E-1,1.7964269E-1,7E-1,6.0748935E-1,9.975208E-2,7E-1,2.560812E-1,2.859649E-1,7E-1,3.2356557E-2,-2.6484353E-2,-7.8317985E-2,2.1000001E-1,4.1207455E-2,-8.573774E-2,2.1000001E-1,9.469084E-2,1.3725346E-2,-3.523251E-2,-6.7889415E-2,4.0862947E-3,1.5994602E-1,9.488652E-2,2.1000001E-1,5.7733048E-2,3.2859955E-2,2.1000001E-1,9.521937E-2,2.2747707E-2,2.1000001E-1,6.635592E-2,1.9001338E-1,2.9723074E-2,7.229662E-2,2.1000001E-1,-8.151103E-3,1.9002359E-1,7.13576E-2,-1.9501124E-2,2.1000001E-1,7.440581E-2,1.0797301E-2,1.2993817E-1,3.2468417E-3,2.1000001E-1,7.195739E-2,2.6163701E-2,2.1000001E-1,-6.0803536E-2,2.1000001E-1,-2.0481108E-2,2.1000001E-1,7.261501E-2,-1.0116737E-2,2.1000001E-1,-3.8356684E-2,4.4171102E-2,-1.0029203E-1,2.1000001E-1,6.32875E-4,2.0543456E-1,9.459607E-2,2.5526322E-2,2.1000001E-1,-4.4455133E-2],"categories":[0,0,0,2,0,1,3,0,0,0,0,1,3,0,1,2,3,1,2,3,0,0,0,0],"categories_nodes":[0,3,5,6,17,19,23,28,31,38,40,49,52,53,54],"categories_segments":[0,1,2,4,7,8,9,10,13,16,17,20,21,22,23],"categories_sizes":[1,1,2,3,1,1,1,3,3,1,3,1,1,1,1],"default_left":[0,0,1,1,1,0,1,0,0,0,0,0,0,0,0,0,1,0,0,1,1,0,1,1,0,0,1,0,0,1,0,0,0,0,0,0,1,0,1,0,0,0,0,0,0,0,0,1,0,0,0,1,1,1,1,0,1,0,0,0,0,1,0,0,0,0,0,0,0,0,0,0,0,0,0,0,0,0,0,0,0,0,0,0,0,0,0,0,0,0,0,0,0,0,0,0,0,0,0,0,0,0,0,0,0,0,0,0,0,0,0,0,0,0,0,0,0,0,0],"id":10,"left_children":[1,3,5,7,9,11,13,15,17,19,21,23,25,27,29,31,33,35,37,39,41,43,45,47,49,51,53,55,57,59,61,63,-1,-1,-1,65,67,69,71,73,75,77,79,-1,81,83,85,87,89,91,93,95,97,99,101,103,105,107,109,111,113,115,117,-1,-1,-1,-1,-1,-1,-1,-1,-1,-1,-1,-1,-1,-1,-1,-1,-1,-1,-1,-1,-1,-1,-1,-1,-1,-1,-1,-1,-1,-1,-1,-1,-1,-1,-1,-1,-1,-1,-1,-1,-1,-1,-1,-1,-1,-1,-1,-1,-1,-1,-1,-1,-1,-1,-1,-1],"loss_changes":[9.633765E1,6.8783325E1,6.815985E1,1.9526596E1,4.526593E1,1.3811829E1,3.0224854E1,2.3056173E0,1.1817429E1,1.541494E1,4.284143E1,1.1440063E1,9.473633E0,4.6628937E1,3.2478973E1,7.0048845E-1,3.0200863E-1,6.2564826E0,8.616852E0,5.008729E0,1.281147E1,2.2703724E1,3.296466E1,2.5753521E1,1.1929962E1,9.4522E0,8.698021E0,2.7337463E1,5.3603024E0,1.901474E1,1.1182968E1,1.2870125E-1,0E0,0E0,0E0,5.37901E0,1.0862626E0,5.097656E-1,1.1456204E-1,1.7970529E0,2.6136875E-2,1.0888889E1,5.32538E1,0E0,1.049221E1,5.488698E1,3.0095825E1,2.2227402E0,6.910107E0,5.31306E0,2.8021149E1,5.6292524E0,1.0206818E1,1.0955345E1,2.8024113E1,2.7488842E1,2.009372E1,3.371438E0,1.767715E0,9.375969E0,1.07749405E1,8.69532E0,1.08599205E1,0E0,0E0,0E0,0E0,0E0,0E0,0E0,0E0,0E0,0E0,0E0,0E0,0E0,0E0,0E0,0E0,0E0,0E0,0E0,0E0,0E0,0E0,0E0,0E0,0E0,0E0,0E0,0E0,0E0,0E0,0E0,0E0,0E0,0E0,0E0,0E0,0E0,0E0,0E0,0E0,0E0,0E0,0E0,0E0,0E0,0E0,0E0,0E0,0E0,0E0,0E0,0E0,0E0,0E0,0E0,0E0],"parents":[2147483647,0,0,1,1,2,2,3,3,4,4,5,5,6,6,7,7,8,8,9,9,10,10,11,11,12,12,13,13,14,14,15,15,16,16,17,17,18,18,19,19,20,20,21,21,22,22,23,23,24,24,25,25,26,26,27,27,28,28,29,29,30,30,31,31,35,35,36,36,37,37,38,38,39,39,40,40,41,41,42,42,44,44,45,45,46,46,47,47,48,48,49,49,50,50,51,51,52,52,53,53,54,54,55,55,56,56,57,57,58,58,59,59,60,60,61,61,62,62],"right_children":[2,4,6,8,10,12,14,16,18,20,22,24,26,28,30,32,34,36,38,40,42,44,46,48,50,52,54,56,58,60,62,64,-1,-1,-1,66,68,70,72,74,76,78,80,-1,82,84,86,88,90,92,94,96,98,100,102,104,106,108,110,112,114,116,118,-1,-1,-1,-1,-1,-1,-1,-1,-1,-1,-1,-1,-1,-1,-1,-1,-1,-1,-1,-1,-1,-1,-1,-1,-1,-1,-1,-1,-1,-1,-1,-1,-1,-1,-1,-1,-1,-1,-1,-1,-1,-1,-1,-1,-1,-1,-1,-1,-1,-1,-1,-1,-1,-1,-1,-1],"split_conditions":[NaN,9.6E-1,5.2E1,NaN,1.2E0,NaN,NaN,6.2E1,7.78E-1,1.2E0,4.6E1,1.25E0,1E1,6E1,5.3E1,4.7E1,1.15E1,NaN,1.181824E1,NaN,5.3E1,2.6E1,9E0,NaN,1.693E0,3.505345E0,5.1E1,1E1,NaN,1E1,6.4E1,NaN,-9.374337E-2,5.1227663E-2,1.2741628E-1,1E1,6.2E1,1.144142E1,NaN,6.3E1,NaN,8.5E0,1.144142E1,2.1000001E-1,2.75E0,5.4E1,4.6E0,1.05E1,1.181824E1,NaN,1.8E0,4.2E1,NaN,NaN,NaN,5.3E1,1.15E1,6.2E1,1E1,1.05E0,2.7E0,4E0,1.080549E1,3.2356557E-2,-2.6484353E-2,-7.8317985E-2,2.1000001E-1,4.1207455E-2,-8.573774E-2,2.1000001E-1,9.469084E-2,1.3725346E-2,-3.523251E-2,-6.7889415E-2,4.0862947E-3,1.5994602E-1,9.488652E-2,2.1000001E-1,5.7733048E-2,3.2859955E-2,2.1000001E-1,9.521937E-2,2.2747707E-2,2.1000001E-1,6.635592E-2,1.9001338E-1,2.9723074E-2,7.229662E-2,2.1000001E-1,-8.151103E-3,1.9002359E-1,7.13576E-2,-1.9501124E-2,2.1000001E-1,7.440581E-2,1.0797301E-2,1.2993817E-1,3.2468417E-3,2.1000001E-1,7.195739E-2,2.6163701E-2,2.1000001E-1,-6.0803536E-2,2.1000001E-1,-2.0481108E-2,2.1000001E-1,7.261501E-2,-1.0116737E-2,2.1000001E-1,-3.8356684E-2,4.4171102E-2,-1.0029203E-1,2.1000001E-1,6.32875E-4,2.0543456E-1,9.459607E-2,2.5526322E-2,2.1000001E-1,-4.4455133E-2],"split_indices":[2,6,1,8,6,0,0,1,6,6,1,6,7,1,1,1,7,5,7,3,1,1,7,8,6,6,1,7,0,7,1,0,0,0,0,7,1,7,0,1,0,7,7,0,6,1,6,7,7,4,6,1,8,2,8,1,7,1,7,6,6,6,7,0,0,0,0,0,0,0,0,0,0,0,0,0,0,0,0,0,0,0,0,0,0,0,0,0,0,0,0,0,0,0,0,0,0,0,0,0,0,0,0,0,0,0,0,0,0,0,0,0,0,0,0,0,0,0,0],"split_type":[1,0,0,1,0,1,1,0,0,0,0,0,0,0,0,0,0,1,0,1,0,0,0,1,0,0,0,0,1,0,0,1,0,0,0,0,0,0,1,0,1,0,0,0,0,0,0,0,0,1,0,0,1,1,1,0,0,0,0,0,0,0,0,0,0,0,0,0,0,0,0,0,0,0,0,0,0,0,0,0,0,0,0,0,0,0,0,0,0,0,0,0,0,0,0,0,0,0,0,0,0,0,0,0,0,0,0,0,0,0,0,0,0,0,0,0,0,0,0],"sum_hessian":[1.4828125E4,5.0150083E3,9.813117E3,1.6685515E2,4.8481533E3,7.4616274E3,2.3514893E3,4.706548E1,1.19789665E2,1.3597306E3,3.4884226E3,4.9556987E3,2.505929E3,6.3657874E2,1.7149105E3,2.4114262E1,2.2951218E1,6.807453E1,5.1715134E1,1.4243056E2,1.2173E3,8.304856E2,2.657937E3,1.1292221E2,4.8427764E3,2.6245087E2,2.243478E3,4.5276437E2,1.8381433E2,1.9185516E2,1.5230554E3,1.1553776E1,1.2560486E1,1.4728893E1,8.222325E0,1.9600863E1,4.8473667E1,3.6201675E1,1.551346E1,1.25985916E2,1.644465E1,7.381409E2,4.791591E2,1.5276222E1,8.152094E2,7.204607E2,1.9374762E3,2.7031185E1,8.589102E1,2.5611282E2,4.5866636E3,1.530364E2,1.0941447E2,2.2005417E3,4.293631E1,1.01770935E2,3.5099344E2,2.2998909E1,1.6081541E2,9.387828E1,9.797689E1,1.4781339E3,4.492146E1,6.4392524E0,5.1145234E0,5.354242E0,1.424662E1,4.2373875E1,6.099791E0,3.0434324E1,5.767349E0,7.2911353E0,8.222325E0,7.113284E1,5.485307E1,8.222325E0,8.222325E0,6.9558735E0,7.3118506E2,2.604944E2,2.1866469E2,5.463044E2,2.68905E2,9.661499E1,6.238457E2,1.8251627E3,1.1231352E2,1.1875433E1,1.5155752E1,6.6097534E1,1.979349E1,8.6816895E1,1.6929594E2,1.0273804E2,4.483926E3,9.7571014E1,5.5465393E1,2.5599073E1,8.381539E1,6.81329E2,1.5192126E3,8.222325E0,3.4713985E1,8.222325E0,9.354861E1,2.5384409E2,9.714936E1,6.5542574E0,1.644465E1,2.7466885E1,1.3334854E2,8.222325E0,8.565595E1,6.215803E1,3.5818855E1,1.2891705E3,1.889634E2,3.0144876E1,1.4776583E1],"tree_param":{"num_deleted":"0","num_feature":"9","num_nodes":"119","size_leaf_vector":"0"}},{"base_weights":[2.596906E-1,7E-1,2.4947935E-1,1.1073612E-1,7E-1,2.0135832E-1,3.247412E-1,-6.3649796E-2,1.5211535E-1,-1.5488477E-2,7E-1,2.6922268E-1,1.750301E-1,4.1526452E-1,2.528051E-1,2.087502E-1,-4.9645863E-2,-2.9710636E-1,3.0365255E-1,7E-1,5.466013E-2,1.284698E-1,3.7148422E-1,6.193415E-1,1.6898161E-1,5.7156104E-1,2.8065637E-1,3.1117156E-1,1.0556803E-1,2.3689103E-1,-3.424055E-2,3.876395E-2,-1.508272E-1,-1.01245314E-1,-6.7425005E-2,3.6923498E-2,1.6472678E-1,3.1242943E-1,7E-1,7.567573E-2,-3.750505E-2,7E-1,1.18386135E-1,7E-1,2.7297935E-1,7E-1,1.16889395E-1,2.0525463E-1,1.1592758E-1,-1.8955216E-1,6.0468745E-1,1.1613979E-1,3.7216428E-1,1.456953E-1,3.6680514E-1,2.894599E-1,6.1794594E-2,7.7995844E-2,5.5459965E-2,3.6440223E-2,-2.1160148E-2,-2.3746574E-2,-6.1489426E-2,2.1000001E-1,2.0116705E-2,2.1000001E-1,-8.682337E-2,1.1771756E-2,-3.1609997E-2,2.1000001E-1,-2.8119838E-2,2.5387036E-2,8.6551756E-2,6.4637974E-2,2.1000001E-1,6.793231E-2,2.1000001E-1,2.1000001E-1,4.4245012E-2,2.1000001E-1,-4.1524093E-3,4.8969235E-2,7.787138E-2,5.174874E-2,1.9103056E-2,-9.38012E-2,-2.5164064E-2,-6.773588E-2,1.878398E-1,6.725851E-2,-1.1392249E-2,1.23083495E-1,-2.9847965E-2,1.7620522E-1,1.757822E-2,9.9073105E-2,2.1000001E-1,1.5089893E-1,9.0422025E-3,7.391166E-2,-1.0395012E-3],"categories":[0,0,0,0,1,2,0,0,0,0,0,3,3,0,0,0,0,0,0,0],"categories_nodes":[4,5,6,16,18,23,24,37,38,40,41,42,43,44,49,51,53,55],"categories_segments":[0,1,2,3,6,7,8,9,10,11,12,13,14,15,16,17,18,19],"categories_sizes":[1,1,1,3,1,1,1,1,1,1,1,1,1,1,1,1,1,1],"default_left":[0,1,1,0,1,0,0,0,1,0,0,1,0,0,0,1,0,0,1,0,0,0,0,1,1,0,0,0,0,0,0,0,0,0,0,0,0,0,1,0,1,1,1,0,1,0,0,0,0,0,0,0,0,0,0,0,0,0,0,0,0,0,0,0,0,0,0,0,0,0,0,0,0,0,0,0,0,0,0,0,0,0,0,0,0,0,0,0,0,0,0,0,0,0,0,0,0,0,0,0,0],"id":11,"left_children":[1,3,5,7,9,11,13,-1,15,17,19,21,23,25,27,29,31,33,35,37,39,41,43,45,47,49,51,53,55,57,-1,59,61,-1,-1,-1,-1,63,65,-1,67,69,71,73,75,77,79,81,83,85,87,89,91,93,95,97,99,-1,-1,-1,-1,-1,-1,-1,-1,-1,-1,-1,-1,-1,-1,-1,-1,-1,-1,-1,-1,-1,-1,-1,-1,-1,-1,-1,-1,-1,-1,-1,-1,-1,-1,-1,-1,-1,-1,-1,-1,-1,-1,-1,-1],"loss_changes":[8.906946E1,3.581375E1,5.758264E1,1.4292375E0,2.5576233E1,1.7305908E1,4.0310486E1,0E0,1.0759971E0,4.666532E0,8.95108E0,3.8999466E1,1.8707993E1,5.7625E1,2.9708359E1,6.904261E-1,1.9591932E-1,4.654169E-3,1.0121975E0,7.0290833E0,4.2230216E-1,8.140846E0,6.516341E1,2.0237492E1,1.3269501E1,3.213385E1,2.2202263E1,2.2757675E1,7.9026003E0,3.3017635E-2,0E0,1.18261576E-1,2.3015112E-2,0E0,0E0,0E0,0E0,7.9808154E0,6.5816345E0,0E0,8.91787E-2,3.4143534E0,6.4620323E0,3.2646255E1,3.619947E1,3.537201E0,6.1422634E0,9.319351E0,8.286579E0,6.7279637E-1,2.1819824E1,8.827772E0,1.7101883E1,2.40128E1,2.6776947E1,1.0445909E1,9.589603E0,0E0,0E0,0E0,0E0,0E0,0E0,0E0,0E0,0E0,0E0,0E0,0E0,0E0,0E0,0E0,0E0,0E0,0E0,0E0,0E0,0E0,0E0,0E0,0E0,0E0,0E0,0E0,0E0,0E0,0E0,0E0,0E0,0E0,0E0,0E0,0E0,0E0,0E0,0E0,0E0,0E0,0E0,0E0,0E0],"parents":[2147483647,0,0,1,1,2,2,3,3,4,4,5,5,6,6,8,8,9,9,10,10,11,11,12,12,13,13,14,14,15,15,16,16,17,17,18,18,19,19,20,20,21,21,22,22,23,23,24,24,25,25,26,26,27,27,28,28,29,29,31,31,32,32,37,37,38,38,40,40,41,41,42,42,43,43,44,44,45,45,46,46,47,47,48,48,49,49,50,50,51,51,52,52,53,53,54,54,55,55,56,56],"right_children":[2,4,6,8,10,12,14,-1,16,18,20,22,24,26,28,30,32,34,36,38,40,42,44,46,48,50,52,54,56,58,-1,60,62,-1,-1,-1,-1,64,66,-1,68,70,72,74,76,78,80,82,84,86,88,90,92,94,96,98,100,-1,-1,-1,-1,-1,-1,-1,-1,-1,-1,-1,-1,-1,-1,-1,-1,-1,-1,-1,-1,-1,-1,-1,-1,-1,-1,-1,-1,-1,-1,-1,-1,-1,-1,-1,-1,-1,-1,-1,-1,-1,-1,-1,-1],"split_conditions":[9.6E-1,3.8E1,4.8E1,1E1,NaN,NaN,NaN,-6.3649796E-2,2.9E1,1.080549E1,1.144142E1,1.9E0,1.25E0,2.882E0,6E1,1.4E1,NaN,6E1,NaN,7.78E-1,4.1E1,8.5E0,2.060616E0,NaN,NaN,1.05E0,1.05E1,2.36E0,1E1,1.3E1,-3.424055E-2,3.4E1,3E1,-1.01245314E-1,-6.7425005E-2,3.6923498E-2,1.6472678E-1,NaN,NaN,7.567573E-2,NaN,NaN,NaN,NaN,NaN,1.080549E1,1E0,3.95E0,3.05E0,NaN,4.9E1,NaN,6.3E1,NaN,5.9E1,NaN,1.85E0,7.7995844E-2,5.5459965E-2,3.6440223E-2,-2.1160148E-2,-2.3746574E-2,-6.1489426E-2,2.1000001E-1,2.0116705E-2,2.1000001E-1,-8.682337E-2,1.1771756E-2,-3.1609997E-2,2.1000001E-1,-2.8119838E-2,2.5387036E-2,8.6551756E-2,6.4637974E-2,2.1000001E-1,6.793231E-2,2.1000001E-1,2.1000001E-1,4.4245012E-2,2.1000001E-1,-4.1524093E-3,4.8969235E-2,7.787138E-2,5.174874E-2,1.9103056E-2,-9.38012E-2,-2.5164064E-2,-6.773588E-2,1.878398E-1,6.725851E-2,-1.1392249E-2,1.23083495E-1,-2.9847965E-2,1.7620522E-1,1.757822E-2,9.9073105E-2,2.1000001E-1,1.5089893E-1,9.0422025E-3,7.391166E-2,-1.0395012E-3],"split_indices":[6,1,1,7,8,2,3,0,1,7,7,6,6,6,1,7,0,1,2,6,1,7,6,8,3,6,7,6,7,7,0,1,1,0,0,0,0,5,2,0,0,0,3,5,4,7,6,6,6,4,1,4,1,5,1,4,6,0,0,0,0,0,0,0,0,0,0,0,0,0,0,0,0,0,0,0,0,0,0,0,0,0,0,0,0,0,0,0,0,0,0,0,0,0,0,0,0,0,0,0,0],"split_type":[0,0,0,0,1,1,1,0,0,0,0,0,0,0,0,0,1,0,1,0,0,0,0,1,1,0,0,0,0,0,0,0,0,0,0,0,0,1,1,0,1,1,1,1,1,0,0,0,0,1,0,1,0,1,0,1,0,0,0,0,0,0,0,0,0,0,0,0,0,0,0,0,0,0,0,0,0,0,0,0,0,0,0,0,0,0,0,0,0,0,0,0,0,0,0,0,0,0,0,0,0],"sum_hessian":[1.6201416E4,2.8489896E2,1.5916517E4,1.03551865E2,1.813471E2,9.711098E3,6.205419E3,1.129377E1,9.225809E1,4.99182E1,1.3142891E2,2.7118167E3,6.999281E3,2.7456108E3,3.4598083E3,7.2010056E1,2.0248035E1,2.6554714E1,2.3363487E1,1.0975917E2,2.1669731E1,1.1420938E3,1.5697228E3,9.2641075E1,6.9066396E3,1.2689539E3,1.476657E3,2.4768452E3,9.8296295E2,6.6482185E1,5.5278716E0,1.1135228E1,9.112807E0,1.4691833E1,1.1862881E1,1.4325388E1,9.038099E0,4.905667E1,6.07025E1,6.3401556E0,1.5329576E1,1.3778578E1,1.1283152E3,2.81037E2,1.2886858E3,3.0889368E1,6.175171E1,4.1003574E3,2.8062822E3,5.272901E1,1.2162249E3,5.285957E2,9.480613E2,6.2411084E2,1.8527344E3,1.8791608E2,7.950469E2,4.3274185E1,2.3207998E1,6.275408E0,4.8598204E0,4.9808464E0,4.131961E0,1.01437025E1,3.8912968E1,5.4478695E1,6.2238054E0,7.3919E0,7.9376755E0,8.581308E0,5.197269E0,9.4271704E2,1.8559819E2,1.4013792E2,1.4089908E2,1.211261E3,7.7424835E1,1.8697319E1,1.2192049E1,7.8642535E0,5.3887455E1,2.314034E3,1.7863237E3,1.3463651E3,1.4599171E3,2.344931E1,2.9279697E1,3.037598E1,1.1858489E3,3.1046326E2,2.1813246E2,8.772981E2,7.076316E1,1.018627E2,5.2224817E2,1.7037015E3,1.4903293E2,1.0253989E2,8.53762E1,2.0694807E2,5.880988E2],"tree_param":{"num_deleted":"0","num_feature":"9","num_nodes":"101","size_leaf_vector":"0"}},{"base_weights":[2.066974E-1,7E-1,1.9711792E-1,1.6477536E-1,7E-1,1.6360465E-1,2.4730407E-1,2.0159985E-1,-1.4464001E-1,-2.9833877E-2,7E-1,2.1949297E-1,1.4157379E-1,3.064485E-1,1.978472E-1,8.5125715E-2,4.035083E-1,-7.699185E-2,1.9861646E-2,-8.673669E-2,1.7542978E-1,7E-1,8.2256794E-2,1.0587041E-1,2.9788166E-1,5.4654276E-1,1.3597262E-1,6.329864E-1,2.775553E-1,2.3953103E-1,8.6176604E-2,1.21028766E-1,-1.8114926E-2,2.1000001E-1,2.0295814E-1,3.172178E-2,8.071834E-2,7E-1,-2.2034895E-1,1.5742569E-1,-3.2978002E-2,-2.5681261E-2,1.5204352E-1,6.4887977E-1,2.1594353E-1,7E-1,1.01502486E-1,1.6329381E-1,9.492773E-2,-1.4333272E-1,7E-1,1.6712284E-1,3.395535E-1,1.5077212E-1,3.1824005E-1,2.228987E-1,5.1289022E-2,-6.9449015E-2,4.6310294E-2,-3.9708976E-2,6.117888E-2,1.0298673E-1,8.979121E-3,2.6910719E-2,2.1000001E-1,-4.123597E-2,-8.202655E-2,5.574316E-2,2.8091308E-2,1.0112414E-2,-2.8274508E-2,9.831495E-2,-1.1771091E-2,5.8582943E-2,-3.3876076E-2,5.1356044E-2,2.1000001E-1,2.0723414E-2,1.12051144E-1,2.1000001E-1,3.6490813E-2,2.0133187E-1,-3.5608187E-3,5.709097E-2,2.8397555E-2,3.4280214E-2,-7.041679E-3,4.8309127E-3,-1.0455342E-1,-5.749717E-2,2.1000001E-1,1.0111529E-1,2.5337523E-2,8.801819E-2,1.5582043E-1,1.0240602E-1,2.3358462E-2,8.137019E-2,2.0077713E-1,1.0924622E-1,7.6361448E-3,1.4507144E-3,7.15945E-2],"categories":[0,0,0,0,0,1,0,0,0,0,0,0,3,1,2,3,3,1,2,3,0,2,0,1,2,0,0,0],"categories_nodes":[4,5,6,8,15,21,25,26,29,34,37,38,39,40,41,43,47,48,49,52,55],"categories_segments":[0,1,2,3,4,6,7,8,9,10,11,12,13,16,17,20,21,22,25,26,27],"categories_sizes":[1,1,1,1,2,1,1,1,1,1,1,1,3,1,3,1,1,3,1,1,1],"default_left":[0,0,1,1,1,0,0,1,1,0,0,1,0,0,0,0,0,0,0,0,1,1,1,0,0,1,1,0,0,1,0,0,0,0,1,0,0,0,1,1,1,0,1,0,1,0,0,0,1,0,0,0,1,0,0,0,1,0,0,0,0,0,0,0,0,0,0,0,0,0,0,0,0,0,0,0,0,0,0,0,0,0,0,0,0,0,0,0,0,0,0,0,0,0,0,0,0,0,0,0,0,0,0],"id":12,"left_children":[1,3,5,7,9,11,13,15,17,19,21,23,25,27,29,31,33,-1,-1,-1,35,37,39,41,43,45,47,49,51,53,55,57,59,-1,61,-1,-1,63,65,67,69,71,73,75,77,79,81,83,85,87,89,91,93,95,97,99,101,-1,-1,-1,-1,-1,-1,-1,-1,-1,-1,-1,-1,-1,-1,-1,-1,-1,-1,-1,-1,-1,-1,-1,-1,-1,-1,-1,-1,-1,-1,-1,-1,-1,-1,-1,-1,-1,-1,-1,-1,-1,-1,-1,-1,-1,-1],"loss_changes":[8.8824585E1,4.0007614E1,2.8751953E1,1.6399379E0,2.5183136E1,1.2611023E1,1.9983551E1,2.9465008E0,3.8579702E-1,2.6159494E0,1.434108E1,2.5808731E1,1.6636871E1,2.9249329E1,1.7363861E1,3.048401E-1,3.7552986E0,0E0,0E0,0E0,1.5115023E-1,1.0231812E1,3.4184134E-1,7.2076874E0,4.9219208E1,2.0206833E1,8.134888E0,4.7694405E1,1.95728E1,1.894725E1,4.838148E0,7.4927145E-1,5.8351547E-1,0E0,8.0529094E-1,0E0,0E0,3.0019531E0,1.8106103E-2,2.550304E-2,6.924607E-2,1.493011E0,1.0079693E1,4.0747482E1,3.2206627E1,4.1073036E0,4.164539E0,8.068558E0,6.659048E0,2.2741082E0,1.6448822E1,1.4479685E1,1.5083008E1,1.7756931E1,2.3581406E1,5.7470684E0,7.0600605E0,0E0,0E0,0E0,0E0,0E0,0E0,0E0,0E0,0E0,0E0,0E0,0E0,0E0,0E0,0E0,0E0,0E0,0E0,0E0,0E0,0E0,0E0,0E0,0E0,0E0,0E0,0E0,0E0,0E0,0E0,0E0,0E0,0E0,0E0,0E0,0E0,0E0,0E0,0E0,0E0,0E0,0E0,0E0,0E0,0E0,0E0],"parents":[2147483647,0,0,1,1,2,2,3,3,4,4,5,5,6,6,7,7,8,8,9,9,10,10,11,11,12,12,13,13,14,14,15,15,16,16,20,20,21,21,22,22,23,23,24,24,25,25,26,26,27,27,28,28,29,29,30,30,31,31,32,32,34,34,37,37,38,38,39,39,40,40,41,41,42,42,43,43,44,44,45,45,46,46,47,47,48,48,49,49,50,50,51,51,52,52,53,53,54,54,55,55,56,56],"right_children":[2,4,6,8,10,12,14,16,18,20,22,24,26,28,30,32,34,-1,-1,-1,36,38,40,42,44,46,48,50,52,54,56,58,60,-1,62,-1,-1,64,66,68,70,72,74,76,78,80,82,84,86,88,90,92,94,96,98,100,102,-1,-1,-1,-1,-1,-1,-1,-1,-1,-1,-1,-1,-1,-1,-1,-1,-1,-1,-1,-1,-1,-1,-1,-1,-1,-1,-1,-1,-1,-1,-1,-1,-1,-1,-1,-1,-1,-1,-1,-1,-1,-1,-1,-1,-1,-1],"split_conditions":[9.6E-1,7.78E-1,4.8E1,6.1E1,NaN,NaN,NaN,5.4E1,NaN,6.2E1,1.144142E1,1.9E0,1.25E0,1.35E0,6E1,NaN,5.5E1,-7.699185E-2,1.9861646E-2,-8.673669E-2,1.15E1,NaN,4.5E1,1.65E0,2.060616E0,NaN,NaN,5.6E1,1.05E1,NaN,1E1,1E1,3.6E1,2.1000001E-1,NaN,3.172178E-2,8.071834E-2,NaN,NaN,NaN,NaN,NaN,1.76E0,NaN,1.05E1,1.080549E1,1E0,NaN,NaN,NaN,1.05E0,5.3E1,NaN,1.05E1,5.9E1,NaN,1.15E1,-6.9449015E-2,4.6310294E-2,-3.9708976E-2,6.117888E-2,1.0298673E-1,8.979121E-3,2.6910719E-2,2.1000001E-1,-4.123597E-2,-8.202655E-2,5.574316E-2,2.8091308E-2,1.0112414E-2,-2.8274508E-2,9.831495E-2,-1.1771091E-2,5.8582943E-2,-3.3876076E-2,5.1356044E-2,2.1000001E-1,2.0723414E-2,1.12051144E-1,2.1000001E-1,3.6490813E-2,2.0133187E-1,-3.5608187E-3,5.709097E-2,2.8397555E-2,3.4280214E-2,-7.041679E-3,4.8309127E-3,-1.0455342E-1,-5.749717E-2,2.1000001E-1,1.0111529E-1,2.5337523E-2,8.801819E-2,1.5582043E-1,1.0240602E-1,2.3358462E-2,8.137019E-2,2.0077713E-1,1.0924622E-1,7.6361448E-3,1.4507144E-3,7.15945E-2],"split_indices":[6,6,1,1,8,2,3,1,5,1,7,6,6,6,1,0,1,0,0,0,7,2,1,6,6,8,3,1,7,3,7,7,1,0,4,0,0,4,0,0,0,0,6,5,7,7,6,0,0,2,6,1,2,7,1,4,7,0,0,0,0,0,0,0,0,0,0,0,0,0,0,0,0,0,0,0,0,0,0,0,0,0,0,0,0,0,0,0,0,0,0,0,0,0,0,0,0,0,0,0,0,0,0],"split_type":[0,0,0,0,1,1,1,0,1,0,0,0,0,0,0,1,0,0,0,0,0,1,0,0,0,1,1,0,0,1,0,0,0,0,1,0,0,1,1,1,1,1,0,1,0,0,0,1,1,1,0,0,1,0,0,1,0,0,0,0,0,0,0,0,0,0,0,0,0,0,0,0,0,0,0,0,0,0,0,0,0,0,0,0,0,0,0,0,0,0,0,0,0,0,0,0,0,0,0,0,0,0,0],"sum_hessian":[1.7422287E4,3.0430017E2,1.7117986E4,1.4037004E2,1.6393015E2,1.0266494E4,6.8514927E3,1.2575232E2,1.4617727E1,4.7198215E1,1.16731926E2,2.9002144E3,7.36628E3,3.1177935E3,3.7336992E3,8.0649796E1,4.510252E1,9.404787E0,5.2129397E0,2.067415E1,2.6524063E1,7.886712E1,3.7864807E1,1.1849736E3,1.7152408E3,9.917618E1,7.2671035E3,2.5174763E2,2.866046E3,2.7179949E3,1.0157044E3,5.9711998E1,2.0937796E1,1.2514064E1,3.2588455E1,1.6426792E1,1.0097271E1,6.7209175E1,1.1657946E1,2.2694687E1,1.5170118E1,3.079729E2,8.7700073E2,3.2331943E2,1.3919214E3,3.5810074E1,6.3366108E1,4.3611577E3,2.9059463E3,6.83458E1,1.8340184E2,1.0318284E3,1.8342175E3,1.2788132E3,1.4391818E3,2.0539317E2,8.103112E2,4.6456037E0,5.5066395E1,1.4091303E1,6.8464932E0,1.7451075E1,1.51373825E1,8.375236E0,5.883394E1,5.9517183E0,5.7062273E0,1.438196E1,8.312726E0,7.4794292E0,7.6906896E0,1.0520762E1,2.9745212E2,7.5420374E2,1.22797005E2,1.4949533E2,1.7382411E2,7.2115497E2,6.7076636E2,2.3066475E1,1.2743598E1,9.701958E0,5.366415E1,3.1283237E3,1.2328337E3,2.4979602E3,4.0798596E2,3.8978645E1,2.936716E1,2.0305305E1,1.6309653E2,3.3667316E2,6.951552E2,1.4616924E3,3.7252515E2,3.5284042E2,9.259728E2,1.2707792E3,1.6840248E2,1.1924149E2,8.615167E1,6.501426E2,1.6016861E2],"tree_param":{"num_deleted":"0","num_feature":"9","num_nodes":"103","size_leaf_vector":"0"}},{"base_weights":[1.6738735E-1,6.654673E-1,1.5842994E-1,1.3551866E-1,7E-1,1.3617347E-1,2.0170152E-1,1.643898E-1,-1.3076524E-1,-2.6524147E-2,7E-1,2.2155331E-1,1.1769195E-1,2.7648944E-1,1.4595412E-1,6.998624E-2,3.1617522E-1,-7.182419E-2,1.7066928E-2,-2.712661E-1,1.4338323E-1,7E-1,6.883017E-2,1.5152545E-1,4.0464264E-1,1.4578088E-1,6.49163E-2,6.915934E-1,2.4775213E-1,2.7659735E-1,8.522675E-2,9.850008E-2,-1.5557185E-2,1.8858774E-1,1.6309714E-1,-9.212341E-2,-5.2736226E-2,2.6393902E-2,6.439742E-2,7.717924E-3,7E-1,1.0681075E-1,-2.5221406E-2,2.8736678E-1,2.1375353E-2,4.083937E-2,6.969039E-1,1.2218496E-1,2.6442832E-1,1.0849846E-1,-1.5337622E-3,-2.0387602E-1,7E-1,1.979754E-1,4.7694463E-1,5.5095005E-1,1.516661E-1,-2.7401892E-2,1.2160398E-1,-6.480193E-2,3.762337E-2,-3.5587166E-2,5.0213777E-2,2.111031E-2,9.6797176E-2,6.65127E-2,-6.132821E-2,2.27269E-2,2.1000001E-1,4.532859E-2,1.7582456E-2,2.8442772E-2,2.0694976E-1,-3.0226775E-3,1.0779316E-1,-5.3917494E-2,4.1150447E-2,2.1000001E-1,3.8930044E-2,1.2860194E-1,3.4106176E-2,1.6321117E-1,5.7594646E-2,1.4699342E-2,5.0911337E-2,-8.469173E-3,6.5054625E-2,1.2221028E-2,-8.705506E-2,2.1000001E-1,4.763242E-2,1.7713788E-1,4.8832994E-2,-2.7499255E-2,1.8227912E-1,6.8166144E-3,2.1000001E-1,3.259064E-2,2.1000001E-1,-4.1153908E-2,3.1914756E-2,5.911721E-2,-1.4352469E-3],"categories":[0,0,0,2,0,2,3,0,1,0,0,0,0,0,0,0,0,0,0],"categories_nodes":[4,8,12,13,14,15,21,22,25,30,39,40,45,46,48,51],"categories_segments":[0,1,2,4,5,7,9,10,11,12,13,14,15,16,17,18],"categories_sizes":[1,1,2,1,2,2,1,1,1,1,1,1,1,1,1,1],"default_left":[0,0,1,1,1,0,1,1,1,0,0,1,0,0,1,0,0,0,0,0,1,0,1,1,1,1,1,0,1,0,1,0,0,0,0,0,0,0,0,1,0,0,0,1,0,1,0,0,0,1,1,1,0,0,0,0,0,0,0,0,0,0,0,0,0,0,0,0,0,0,0,0,0,0,0,0,0,0,0,0,0,0,0,0,0,0,0,0,0,0,0,0,0,0,0,0,0,0,0,0,0,0,0],"id":13,"left_children":[1,3,5,7,9,11,13,15,17,19,21,23,25,27,29,31,33,-1,-1,35,37,39,41,43,45,47,49,51,53,55,57,59,61,-1,63,-1,-1,-1,-1,65,67,69,-1,71,73,75,77,79,81,83,85,87,89,91,93,95,97,99,101,-1,-1,-1,-1,-1,-1,-1,-1,-1,-1,-1,-1,-1,-1,-1,-1,-1,-1,-1,-1,-1,-1,-1,-1,-1,-1,-1,-1,-1,-1,-1,-1,-1,-1,-1,-1,-1,-1,-1,-1,-1,-1,-1,-1],"loss_changes":[8.2230835E1,4.625255E1,1.7433136E1,1.158642E0,2.4771698E1,1.8870407E1,2.5624527E1,1.8963633E0,3.1996492E-1,2.0290315E0,1.5360428E1,2.7245697E1,1.4587112E1,3.1175781E1,2.797387E1,2.0601186E-1,2.3394637E0,0E0,0E0,1.4256477E-2,9.5246315E-2,1.0435562E1,2.4003844E-1,2.7259045E1,6.255877E1,1.7956375E1,9.9106045E0,2.8795418E1,2.7961594E1,3.8283943E1,9.879707E0,5.60393E-1,4.3128535E-1,0E0,5.042969E-1,0E0,0E0,0E0,0E0,1.0802418E0,3.252365E0,6.0117424E-2,0E0,5.8407166E1,8.385834E0,5.618618E0,3.454721E1,1.3914841E1,2.1469284E1,7.5180054E0,7.9141936E0,7.6889694E-1,1.4481888E1,2.7839607E1,3.260166E1,6.549017E1,2.4676449E1,8.669596E0,1.737869E1,0E0,0E0,0E0,0E0,0E0,0E0,0E0,0E0,0E0,0E0,0E0,0E0,0E0,0E0,0E0,0E0,0E0,0E0,0E0,0E0,0E0,0E0,0E0,0E0,0E0,0E0,0E0,0E0,0E0,0E0,0E0,0E0,0E0,0E0,0E0,0E0,0E0,0E0,0E0,0E0,0E0,0E0,0E0,0E0],"parents":[2147483647,0,0,1,1,2,2,3,3,4,4,5,5,6,6,7,7,8,8,9,9,10,10,11,11,12,12,13,13,14,14,15,15,16,16,19,19,20,20,21,21,22,22,23,23,24,24,25,25,26,26,27,27,28,28,29,29,30,30,31,31,32,32,34,34,39,39,40,40,41,41,43,43,44,44,45,45,46,46,47,47,48,48,49,49,50,50,51,51,52,52,53,53,54,54,55,55,56,56,57,57,58,58],"right_children":[2,4,6,8,10,12,14,16,18,20,22,24,26,28,30,32,34,-1,-1,36,38,40,42,44,46,48,50,52,54,56,58,60,62,-1,64,-1,-1,-1,-1,66,68,70,-1,72,74,76,78,80,82,84,86,88,90,92,94,96,98,100,102,-1,-1,-1,-1,-1,-1,-1,-1,-1,-1,-1,-1,-1,-1,-1,-1,-1,-1,-1,-1,-1,-1,-1,-1,-1,-1,-1,-1,-1,-1,-1,-1,-1,-1,-1,-1,-1,-1,-1,-1,-1,-1,-1,-1],"split_conditions":[9.6E-1,7.78E-1,5.1E1,6.1E1,NaN,1E1,1.85E0,5.4E1,NaN,6.2E1,1.144142E1,4.5E1,NaN,NaN,NaN,NaN,5.5E1,-7.182419E-2,1.7066928E-2,6E1,1.15E1,NaN,NaN,2.1E0,2.305E0,NaN,3.5E1,5.3E1,1.1E1,2.75E0,NaN,1E1,3.6E1,1.8858774E-1,6E1,-9.212341E-2,-5.2736226E-2,2.6393902E-2,6.439742E-2,NaN,NaN,4.1E1,-2.5221406E-2,1.8E0,4.065E0,NaN,NaN,1.422E0,NaN,2.305E0,1.4E1,NaN,5.5E1,5.3E1,5.6E1,2.243704E0,6.3E0,5.7E1,5.9E1,-6.480193E-2,3.762337E-2,-3.5587166E-2,5.0213777E-2,2.111031E-2,9.6797176E-2,6.65127E-2,-6.132821E-2,2.27269E-2,2.1000001E-1,4.532859E-2,1.7582456E-2,2.8442772E-2,2.0694976E-1,-3.0226775E-3,1.0779316E-1,-5.3917494E-2,4.1150447E-2,2.1000001E-1,3.8930044E-2,1.2860194E-1,3.4106176E-2,1.6321117E-1,5.7594646E-2,1.4699342E-2,5.0911337E-2,-8.469173E-3,6.5054625E-2,1.2221028E-2,-8.705506E-2,2.1000001E-1,4.763242E-2,1.7713788E-1,4.8832994E-2,-2.7499255E-2,1.8227912E-1,6.8166144E-3,2.1000001E-1,3.259064E-2,2.1000001E-1,-4.1153908E-2,3.1914756E-2,5.911721E-2,-1.4352469E-3],"split_indices":[6,6,1,1,8,7,6,1,5,1,7,1,0,5,0,0,1,0,0,1,7,5,3,6,6,4,1,1,7,6,8,7,1,0,1,0,0,0,0,2,4,1,0,6,6,8,4,6,2,6,7,3,1,1,1,6,6,1,1,0,0,0,0,0,0,0,0,0,0,0,0,0,0,0,0,0,0,0,0,0,0,0,0,0,0,0,0,0,0,0,0,0,0,0,0,0,0,0,0,0,0,0,0],"split_type":[0,0,0,0,1,0,0,0,1,0,0,0,1,1,1,1,0,0,0,0,0,1,1,0,0,1,0,0,0,0,1,0,0,0,0,0,0,0,0,1,1,0,0,0,0,1,1,0,1,0,0,1,0,0,0,0,0,0,0,0,0,0,0,0,0,0,0,0,0,0,0,0,0,0,0,0,0,0,0,0,0,0,0,0,0,0,0,0,0,0,0,0,0,0,0,0,0,0,0,0,0,0,0],"sum_hessian":[1.845382E4,3.247138E2,1.8129107E4,1.469133E2,1.778005E2,1.1974332E4,6.154775E3,1.3288792E2,1.4025379E1,4.685885E1,1.3094167E2,2.128807E3,9.845525E3,2.626814E3,3.5279612E3,8.283157E1,5.005635E1,8.707867E0,5.317512E0,1.8956512E1,2.7902336E1,9.215395E1,3.878771E1,1.5411694E3,5.876375E2,6.4244575E3,3.4210679E3,1.6858441E2,2.4582295E3,1.1183947E3,2.4095664E3,6.201043E1,2.0821148E1,1.5438326E1,3.4618027E1,1.2174088E1,6.782424E0,1.6956234E1,1.0946102E1,2.179697E1,7.035698E1,3.1311424E1,7.4762845E0,7.5350604E2,7.876633E2,2.6228635E2,3.2535117E2,5.360435E3,1.0640225E3,2.0656504E3,1.3554175E3,3.4860104E1,1.337243E2,2.0211366E3,4.3709293E2,3.488656E2,7.695291E2,5.883145E2,1.8212518E3,4.3339195E0,5.767651E1,1.3542715E1,7.2784324E0,2.2805475E1,1.181255E1,1.0828836E1,1.0968133E1,8.60368E0,6.1753304E1,1.5206423E1,1.6105001E1,5.104971E2,2.4300897E2,7.2148627E2,6.6177086E1,7.9466324E1,1.8282004E2,2.1858975E2,1.06761406E2,1.4328032E2,5.217155E3,2.1761586E2,8.4640656E2,1.0483297E3,1.0173206E3,1.208546E3,1.4687154E2,9.229591E0,2.563051E1,8.361257E1,5.0111732E1,1.6504337E2,1.8560931E3,8.172373E1,3.553692E2,1.5978453E2,1.8908107E2,7.334371E2,3.609201E1,3.2313678E2,2.651777E2,1.1400725E3,6.811793E2],"tree_param":{"num_deleted":"0","num_feature":"9","num_nodes":"103","size_leaf_vector":"0"}},{"base_weights":[1.375033E-1,5.9348977E-1,1.291535E-1,1.1001028E-1,7E-1,8.889593E-2,1.4457789E-1,1.3274656E-1,-1.178607E-1,-2.4172602E-2,7E-1,6.951528E-2,3.433041E-1,1.8466556E-1,1.15534715E-1,5.7813108E-2,2.4511912E-1,-6.671004E-2,1.4695542E-2,-2.5400776E-1,1.1824749E-1,7E-1,5.7622623E-2,5.6716368E-2,2.6764482E-1,7E-1,6.49596E-2,2.4561931E-1,1.23547055E-1,8.009374E-2,1.4288837E-1,8.0731E-2,-1.337238E-2,1.3352372E-1,1.3326277E-1,-8.709049E-2,-4.822575E-2,2.2073906E-2,5.21398E-2,5.6842715E-3,7E-1,1.0844817E-1,-2.7448993E-2,9.2203446E-2,1.2748129E-2,4.2091258E-2,7E-1,7E-1,1.288593E-1,-2.0624106E-1,1.7697681E-1,2.0986709E-1,6.286097E-1,8.8321656E-2,2.2972369E-1,1.7259628E-1,1.2685508E-2,1.5905908E-1,-2.0130651E-2,-6.027994E-2,3.0846471E-2,-3.1771306E-2,4.1586015E-2,6.520977E-2,4.579206E-3,5.374907E-2,-5.6274593E-2,1.9262282E-2,2.1000001E-1,2.551308E-2,4.3529138E-2,6.2670377E-3,-2.2441756E-2,2.1552281E-2,1.5346062E-1,5.040111E-2,-7.3212385E-3,8.5545816E-2,-2.0793695E-2,2.1000001E-1,-6.1134268E-2,-1.2122848E-1,2.1000001E-1,-3.221355E-2,2.1000001E-1,-8.451482E-2,-1.00599015E-2,1.5652566E-1,1.0592064E-2,2.1000001E-1,5.9269216E-2,-1.1673919E-3,2.1000001E-1,3.1204231E-2,-6.848615E-2,2.1000001E-1,4.121682E-2,2.7774949E-2,8.491953E-2,3.6808457E-2,-2.1642803E-3,3.8275972E-2,8.656798E-2,-3.1218193E-2,1.0162423E-1],"categories":[0,0,0,0,0,0,1,0,0,0,0,1,2,3,0,0,1,3,0,0,0],"categories_nodes":[2,4,8,11,13,15,21,34,39,40,41,42,49,50,51,52,55],"categories_segments":[0,1,2,3,4,5,7,8,9,10,11,13,14,15,18,19,20],"categories_sizes":[1,1,1,1,1,2,1,1,1,1,2,1,1,3,1,1,1],"default_left":[0,0,0,1,1,1,0,1,1,0,0,1,1,0,0,0,0,0,0,0,1,0,1,0,1,0,0,0,1,0,1,0,0,0,1,0,0,0,0,1,0,0,1,0,0,0,0,0,0,1,1,0,0,0,0,0,0,1,1,0,0,0,0,0,0,0,0,0,0,0,0,0,0,0,0,0,0,0,0,0,0,0,0,0,0,0,0,0,0,0,0,0,0,0,0,0,0,0,0,0,0,0,0,0,0],"id":14,"left_children":[1,3,5,7,9,11,13,15,17,19,21,23,25,27,29,31,33,-1,-1,35,37,39,41,43,45,47,49,51,53,55,57,59,61,-1,63,-1,-1,-1,-1,65,67,69,71,73,75,77,79,81,83,85,87,89,91,93,95,97,99,101,103,-1,-1,-1,-1,-1,-1,-1,-1,-1,-1,-1,-1,-1,-1,-1,-1,-1,-1,-1,-1,-1,-1,-1,-1,-1,-1,-1,-1,-1,-1,-1,-1,-1,-1,-1,-1,-1,-1,-1,-1,-1,-1,-1,-1,-1,-1],"loss_changes":[7.349963E1,4.9222916E1,1.1771698E1,8.14201E-1,2.4483475E1,2.5909935E1,1.5951996E1,1.169914E0,2.6395434E-1,1.588808E0,1.626036E1,1.2381802E1,3.9424355E1,2.1436157E1,7.703743E0,1.4084715E-1,1.1920555E0,0E0,0E0,1.607263E-2,6.1861575E-2,1.0544312E1,1.7849033E-1,7.1658144E0,5.218116E1,1.6980202E1,6.60937E0,3.935759E1,1.0748318E1,2.1628494E1,1.1840523E1,4.247859E-1,3.2018894E-1,0E0,3.669008E-1,0E0,0E0,0E0,0E0,8.0103225E-1,3.4720764E0,9.629846E-3,3.8142897E-2,2.1665539E1,1.1844129E1,6.780569E0,1.2053871E1,1.9235031E1,7.994136E0,8.2096624E-1,7.4867787E0,1.627266E1,4.1998642E1,1.0773228E1,4.0979534E1,1.2898369E1,4.396208E0,1.6613632E1,1.2267766E1,0E0,0E0,0E0,0E0,0E0,0E0,0E0,0E0,0E0,0E0,0E0,0E0,0E0,0E0,0E0,0E0,0E0,0E0,0E0,0E0,0E0,0E0,0E0,0E0,0E0,0E0,0E0,0E0,0E0,0E0,0E0,0E0,0E0,0E0,0E0,0E0,0E0,0E0,0E0,0E0,0E0,0E0,0E0,0E0,0E0,0E0],"parents":[2147483647,0,0,1,1,2,2,3,3,4,4,5,5,6,6,7,7,8,8,9,9,10,10,11,11,12,12,13,13,14,14,15,15,16,16,19,19,20,20,21,21,22,22,23,23,24,24,25,25,26,26,27,27,28,28,29,29,30,30,31,31,32,32,34,34,39,39,40,40,41,41,42,42,43,43,44,44,45,45,46,46,47,47,48,48,49,49,50,50,51,51,52,52,53,53,54,54,55,55,56,56,57,57,58,58],"right_children":[2,4,6,8,10,12,14,16,18,20,22,24,26,28,30,32,34,-1,-1,36,38,40,42,44,46,48,50,52,54,56,58,60,62,-1,64,-1,-1,-1,-1,66,68,70,72,74,76,78,80,82,84,86,88,90,92,94,96,98,100,102,104,-1,-1,-1,-1,-1,-1,-1,-1,-1,-1,-1,-1,-1,-1,-1,-1,-1,-1,-1,-1,-1,-1,-1,-1,-1,-1,-1,-1,-1,-1,-1,-1,-1,-1,-1,-1,-1,-1,-1,-1,-1,-1,-1,-1,-1,-1],"split_conditions":[9.6E-1,7.78E-1,NaN,6.1E1,NaN,5.3E1,2.75E0,5.4E1,NaN,6.2E1,1.144142E1,NaN,1.9E0,NaN,1.080549E1,NaN,5.5E1,-6.671004E-2,1.4695542E-2,6E1,1.15E1,NaN,4.5E1,4.6E1,2.8E0,5.5E1,2.15E0,2.575324E0,1.1E1,1E1,6.1E1,1E1,3.6E1,1.3352372E-1,NaN,-8.709049E-2,-4.822575E-2,2.2073906E-2,5.21398E-2,NaN,NaN,NaN,NaN,4.5E1,2.15E0,3.5E1,3.826966E0,1.65E0,6.1E1,NaN,NaN,NaN,NaN,2.6E0,1.35E0,NaN,3.7E1,5.6E1,3.826966E0,-6.027994E-2,3.0846471E-2,-3.1771306E-2,4.1586015E-2,6.520977E-2,4.579206E-3,5.374907E-2,-5.6274593E-2,1.9262282E-2,2.1000001E-1,2.551308E-2,4.3529138E-2,6.2670377E-3,-2.2441756E-2,2.1552281E-2,1.5346062E-1,5.040111E-2,-7.3212385E-3,8.5545816E-2,-2.0793695E-2,2.1000001E-1,-6.1134268E-2,-1.2122848E-1,2.1000001E-1,-3.221355E-2,2.1000001E-1,-8.451482E-2,-1.00599015E-2,1.5652566E-1,1.0592064E-2,2.1000001E-1,5.9269216E-2,-1.1673919E-3,2.1000001E-1,3.1204231E-2,-6.848615E-2,2.1000001E-1,4.121682E-2,2.7774949E-2,8.491953E-2,3.6808457E-2,-2.1642803E-3,3.8275972E-2,8.656798E-2,-3.1218193E-2,1.0162423E-1],"split_indices":[6,6,5,1,8,1,6,1,5,1,7,4,6,4,7,0,1,0,0,1,7,5,1,1,6,1,6,6,7,7,1,7,1,0,4,0,0,0,0,2,4,0,0,1,6,1,6,6,1,2,0,8,2,6,6,3,1,1,6,0,0,0,0,0,0,0,0,0,0,0,0,0,0,0,0,0,0,0,0,0,0,0,0,0,0,0,0,0,0,0,0,0,0,0,0,0,0,0,0,0,0,0,0,0,0],"split_type":[0,0,1,0,1,0,0,0,1,0,0,1,0,1,0,1,0,0,0,0,0,1,0,0,0,0,0,0,0,0,0,0,0,0,1,0,0,0,0,1,1,1,1,0,0,0,0,0,0,1,1,1,1,0,0,1,0,0,0,0,0,0,0,0,0,0,0,0,0,0,0,0,0,0,0,0,0,0,0,0,0,0,0,0,0,0,0,0,0,0,0,0,0,0,0,0,0,0,0,0,0,0,0,0,0],"sum_hessian":[1.932358E4,3.4622067E2,1.897736E4,1.5313332E2,1.9308736E2,5.25877E3,1.3718591E4,1.396199E2,1.3513409E1,4.6620617E1,1.4646675E2,4.887701E3,3.7106873E2,5.7611895E3,7.957401E3,8.46723E1,5.4947605E1,8.104364E0,5.4090443E0,1.753669E1,2.9083927E1,1.0687443E2,3.959232E1,4.592329E3,2.9537222E2,1.5570744E2,2.153613E2,2.882971E3,2.8782185E3,3.4679946E3,4.4894062E3,6.3949814E1,2.0722485E1,1.864244E1,3.6305164E1,1.1102678E1,6.434012E0,1.7409733E1,1.1674194E1,2.1889273E1,8.498515E1,2.4612774E1,1.49795475E1,2.5406528E3,2.051676E3,2.4867967E2,4.6692566E1,1.03151E2,5.2556435E1,6.2705704E1,1.526556E2,2.6382388E3,2.4473215E2,2.1625862E3,7.1563245E2,1.4612288E3,2.0067659E3,4.0842886E3,4.0511752E2,4.06198E0,5.9887833E1,1.30692425E1,7.6532416E0,2.0705385E1,1.5599779E1,1.1573584E1,1.0315689E1,8.801453E0,7.61837E1,1.7046877E1,7.565897E0,7.6894665E0,7.2900805E0,2.4241106E3,1.1654206E2,3.954805E2,1.6561956E3,7.766649E1,1.7101318E2,3.2335606E1,1.4356958E1,1.5180985E1,8.797002E1,3.881581E1,1.3740625E1,4.3197037E1,1.9508667E1,4.3677315E1,1.0897827E2,6.1268337E1,2.5769705E3,8.728317E1,1.5744897E2,2.0611008E3,1.0148518E2,8.490914E1,6.3072327E2,8.484966E2,6.1273224E2,3.066097E2,1.7001562E3,3.2873516E3,7.969372E2,3.2890686E2,7.6210655E1],"tree_param":{"num_deleted":"0","num_feature":"9","num_nodes":"105","size_leaf_vector":"0"}},{"base_weights":[1.14185065E-1,5.2373457E-1,1.0646431E-1,9.006E-2,7E-1,1.3680425E-1,8.988336E-2,1.01053126E-1,-6.887058E-2,7E-1,8.112207E-2,6.364069E-1,1.3324246E-1,7.376071E-2,1.3492134E-1,4.7931273E-2,1.6718103E-1,7E-1,7.386504E-2,-8.180529E-2,2.7468583E-1,2.1000001E-1,1.6251057E-1,-1.18028104E-1,1.3947374E-1,3.140906E-1,7.0307374E-2,6.3817635E-2,1.9338213E-1,8.16599E-2,4.1355233E-4,9.979624E-2,8.5505866E-2,-7.3524795E-2,7E-1,1.0224991E-1,-1.9923318E-2,1.764845E-2,-1.9957414E-1,2.3487307E-2,1.0203846E-1,3.0160552E-1,-7.190532E-2,-1.7040265E-1,6.508347E-2,3.4829873E-1,1.3044827E-1,7E-1,5.789171E-2,7.573549E-2,-4.28006E-2,2.3988812E-1,1.3393854E-2,1.1547382E-1,4.4023412E-1,-5.5911265E-2,3.2199908E-2,3.46884E-2,-1.0493851E-2,5.227378E-2,1.6602076E-4,1.315896E-2,-7.639331E-2,4.3943368E-2,2.1000001E-1,4.199997E-2,1.5082037E-2,-3.8482647E-2,-7.8744866E-2,-2.5671156E-2,1.3669427E-1,-7.596606E-2,-2.0421438E-2,-3.2694027E-2,2.1000001E-1,4.5117415E-2,2.2539001E-2,-9.860106E-3,2.1000001E-1,3.9415017E-2,-7.82862E-2,4.1357547E-2,1.9650238E-2,-3.7552103E-2,5.9097473E-2,2.1000001E-1,4.374335E-2,-1.3674771E-3,1.0525786E-1,6.1734566E-3,1.0140321E-1,1.6414161E-1,-1.985575E-2],"categories":[0,0,0,1,2,0,0,0,0,1,2,3,0,0,0,0,3,0,0,0],"categories_nodes":[2,4,11,14,17,18,19,20,22,23,25,32,33,34,41,48],"categories_segments":[0,1,2,5,6,7,8,9,12,13,14,15,16,17,18,19],"categories_sizes":[1,1,3,1,1,1,1,3,1,1,1,1,1,1,1,1],"default_left":[0,0,0,1,0,0,1,1,0,0,1,0,0,0,1,1,0,1,1,1,0,0,1,1,0,0,1,0,0,0,0,0,1,1,0,1,0,0,0,0,0,0,0,0,0,1,1,0,1,0,0,0,1,0,1,0,0,0,0,0,0,0,0,0,0,0,0,0,0,0,0,0,0,0,0,0,0,0,0,0,0,0,0,0,0,0,0,0,0,0,0,0,0],"id":15,"left_children":[1,3,5,7,9,11,13,15,-1,17,19,21,23,25,27,29,31,33,35,37,39,-1,41,43,45,47,49,51,53,55,57,-1,59,61,63,65,-1,-1,67,-1,-1,69,-1,71,-1,73,75,77,79,81,83,85,87,89,91,-1,-1,-1,-1,-1,-1,-1,-1,-1,-1,-1,-1,-1,-1,-1,-1,-1,-1,-1,-1,-1,-1,-1,-1,-1,-1,-1,-1,-1,-1,-1,-1,-1,-1,-1,-1,-1,-1],"loss_changes":[6.338202E1,4.7276276E1,9.894241E0,5.831969E-1,2.7021515E1,1.2295059E1,9.238342E0,5.3566885E-1,0E0,1.703267E1,2.2877538E0,9.610931E0,1.083419E1,7.76371E0,1.3938873E1,1.3976572E-1,8.9791846E-1,8.698212E0,1.8475556E-1,6.7045224E-1,3.982489E-1,0E0,2.066653E0,2.9796875E0,1.2662094E1,2.1028881E1,5.68211E0,1.345487E1,3.5362373E1,3.7101674E-1,1.5580593E-1,0E0,3.5601297E-1,3.3766088E-1,3.5581818E0,6.667277E-2,0E0,0E0,6.4437985E-2,0E0,0E0,1.64523E0,0E0,1.2168107E0,0E0,4.522775E1,7.1205215E0,5.876335E0,2.3796017E0,5.602852E0,8.403682E0,1.915351E1,7.146987E0,2.9579111E1,2.393209E1,0E0,0E0,0E0,0E0,0E0,0E0,0E0,0E0,0E0,0E0,0E0,0E0,0E0,0E0,0E0,0E0,0E0,0E0,0E0,0E0,0E0,0E0,0E0,0E0,0E0,0E0,0E0,0E0,0E0,0E0,0E0,0E0,0E0,0E0,0E0,0E0,0E0,0E0],"parents":[2147483647,0,0,1,1,2,2,3,3,4,4,5,5,6,6,7,7,9,9,10,10,11,11,12,12,13,13,14,14,15,15,16,16,17,17,18,18,19,19,20,20,22,22,23,23,24,24,25,25,26,26,27,27,28,28,29,29,30,30,32,32,33,33,34,34,35,35,38,38,41,41,43,43,45,45,46,46,47,47,48,48,49,49,50,50,51,51,52,52,53,53,54,54],"right_children":[2,4,6,8,10,12,14,16,-1,18,20,22,24,26,28,30,32,34,36,38,40,-1,42,44,46,48,50,52,54,56,58,-1,60,62,64,66,-1,-1,68,-1,-1,70,-1,72,-1,74,76,78,80,82,84,86,88,90,92,-1,-1,-1,-1,-1,-1,-1,-1,-1,-1,-1,-1,-1,-1,-1,-1,-1,-1,-1,-1,-1,-1,-1,-1,-1,-1,-1,-1,-1,-1,-1,-1,-1,-1,-1,-1,-1,-1],"split_conditions":[9.6E-1,7.78E-1,NaN,6.2E1,NaN,2.6E1,5.2E1,5.4E1,-6.887058E-2,1.144142E1,1.05E1,NaN,1.2E0,1.25E0,NaN,2.9E1,5.5E1,NaN,NaN,NaN,NaN,2.1000001E-1,NaN,NaN,1.35E0,NaN,5E1,1.75E0,6.3E0,1E1,1E1,9.979624E-2,NaN,NaN,NaN,5.9E1,-1.9923318E-2,1.764845E-2,9.21E-1,2.3487307E-2,1.0203846E-1,NaN,-7.190532E-2,6.3E1,6.508347E-2,5.8E1,5.8E1,5.1E1,NaN,1E1,3.600001E1,5.6E1,5E0,3.600001E1,1.15E1,-5.5911265E-2,3.2199908E-2,3.46884E-2,-1.0493851E-2,5.227378E-2,1.6602076E-4,1.315896E-2,-7.639331E-2,4.3943368E-2,2.1000001E-1,4.199997E-2,1.5082037E-2,-3.8482647E-2,-7.8744866E-2,-2.5671156E-2,1.3669427E-1,-7.596606E-2,-2.0421438E-2,-3.2694027E-2,2.1000001E-1,4.5117415E-2,2.2539001E-2,-9.860106E-3,2.1000001E-1,3.9415017E-2,-7.82862E-2,4.1357547E-2,1.9650238E-2,-3.7552103E-2,5.9097473E-2,2.1000001E-1,4.374335E-2,-1.3674771E-3,1.0525786E-1,6.1734566E-3,1.0140321E-1,1.6414161E-1,-1.985575E-2],"split_indices":[6,6,2,1,2,1,1,1,0,7,7,0,6,6,2,1,1,8,3,4,0,0,3,3,6,8,1,6,6,7,7,0,4,0,5,1,0,0,6,0,0,4,0,1,0,1,1,1,3,7,7,1,6,7,7,0,0,0,0,0,0,0,0,0,0,0,0,0,0,0,0,0,0,0,0,0,0,0,0,0,0,0,0,0,0,0,0,0,0,0,0,0,0],"split_type":[0,0,1,0,1,0,0,0,0,0,0,1,0,0,1,0,0,1,1,1,1,0,1,1,0,1,0,0,0,0,0,0,1,1,1,0,0,0,0,0,0,1,0,0,0,0,0,0,1,0,0,0,0,0,0,0,0,0,0,0,0,0,0,0,0,0,0,0,0,0,0,0,0,0,0,0,0,0,0,0,0,0,0,0,0,0,0,0,0,0,0,0,0],"sum_hessian":[2.0061363E4,3.6995874E2,1.9691404E4,1.5837498E2,2.1158376E2,6.956009E3,1.2735395E4,1.5377014E2,4.604838E0,1.40754E2,7.0829765E1,4.798232E1,6.9080264E3,9.380142E3,3.3552537E3,8.6227066E1,6.7543076E1,9.705846E1,4.3695538E1,3.877189E1,3.2057877E1,1.3332596E1,3.4649723E1,1.6673312E2,6.7412935E3,1.316012E2,9.24854E3,1.5148674E3,1.8403862E3,5.0010517E1,3.6216553E1,2.1305483E1,4.623759E1,1.4356161E1,8.270229E1,3.6567238E1,7.1282997E0,1.7898685E1,2.0873203E1,8.561335E0,2.349654E1,2.5931637E1,8.718086E0,1.4461345E2,2.2119675E1,2.7773245E2,6.4635605E3,3.2513023E1,9.9088165E1,8.825338E3,4.2320245E2,3.3641418E2,1.1784532E3,1.4000028E3,4.4038342E2,3.8243575E0,4.6186157E1,7.978219E0,2.8238335E1,2.210057E1,2.413702E1,9.170414E0,5.1857467E0,1.2212674E1,7.0489624E1,2.0201538E1,1.63657E1,1.1208703E1,9.664499E0,7.507201E0,1.8424435E1,7.911249E1,6.550097E1,1.2153857E2,1.5619388E2,4.7495522E3,1.7140084E3,1.0853286E1,2.1659739E1,8.100502E1,1.8083143E1,1.2465441E3,7.5787935E3,3.1535138E2,1.0785107E2,4.0873665E1,2.9554053E2,1.1198663E3,5.8586872E1,9.8224146E2,4.177614E2,3.635567E2,7.682674E1],"tree_param":{"num_deleted":"0","num_feature":"9","num_nodes":"93","size_leaf_vector":"0"}},{"base_weights":[9.47077E-2,4.6164608E-1,8.757346E-2,2.323397E-1,7E-1,1.11437164E-1,7.434756E-2,7.4265175E-2,3.871133E-1,-3.985445E-3,7E-1,5.31101E-1,1.082716E-1,8.2783885E-2,1.3069731E-2,8.3380245E-2,-6.423722E-2,6.7339104E-1,1.0816138E-1,1.0256773E-1,-7.3570274E-2,2.1000001E-1,-1.76515E-2,2.1000001E-1,1.2910008E-1,-4.0901262E-2,1.16640985E-1,6.72197E-2,1.2581275E-1,-4.085841E-2,7.405665E-2,3.9994203E-2,1.3558377E-1,-5.0493833E-2,7E-1,-2.751969E-2,1.7431325E-1,1.9893795E-2,3.6252122E-2,2.335942E-1,-6.678995E-2,1.8543017E-1,-1.6027158E-1,7E-1,1.06359996E-1,2.9550493E-1,6.355494E-2,2.4388304E-1,8.5085325E-2,-1.6577616E-1,-2.4215106E-3,-4.0508464E-2,1.4272156E-1,1.7621683E-2,-5.8101676E-3,7.71311E-2,2.136062E-2,-7.1623944E-2,1.9994073E-2,2.1000001E-1,1.4532419E-2,1.8077996E-3,-4.0422607E-2,2.7969023E-2,7.858997E-2,-2.2850337E-2,1.0184594E-1,1.660032E-1,-2.6297783E-2,-1.0255275E-1,-2.2149224E-2,3.5358027E-2,2.1000001E-1,4.2482E-3,3.5410386E-2,2.1000001E-1,1.8690886E-2,-1.4163379E-2,2.0829272E-2,1.8533587E-2,1.3107008E-1,7.436044E-2,1.8309657E-2,-1.4469488E-2,-7.372134E-2,1.2519577E-1,-4.122262E-3,2.9598312E-2,-5.0922025E-2,-1.1645101E-2,8.350708E-2],"categories":[0,0,0,1,2,3,0,1,2,0,0,1,2,3,0,0,1,3,0,1,0,0],"categories_nodes":[2,4,8,10,11,14,17,19,24,28,31,39,45],"categories_segments":[0,1,2,5,6,9,10,11,14,15,18,20,21],"categories_sizes":[1,1,3,1,3,1,1,3,1,3,2,1,1],"default_left":[0,0,0,0,1,0,1,1,0,0,1,0,0,1,0,1,0,1,1,0,0,0,0,0,1,0,0,0,1,0,0,0,0,0,0,0,1,0,0,0,0,0,0,1,0,0,0,0,0,0,0,1,1,0,0,0,0,0,0,0,0,0,0,0,0,0,0,0,0,0,0,0,0,0,0,0,0,0,0,0,0,0,0,0,0,0,0,0,0,0,0],"id":16,"left_children":[1,3,5,7,9,11,13,15,17,19,21,23,25,27,29,31,-1,33,35,37,-1,-1,-1,-1,39,41,43,45,47,49,51,53,55,57,59,61,63,-1,-1,65,-1,67,69,71,73,75,77,79,81,83,85,87,89,-1,-1,-1,-1,-1,-1,-1,-1,-1,-1,-1,-1,-1,-1,-1,-1,-1,-1,-1,-1,-1,-1,-1,-1,-1,-1,-1,-1,-1,-1,-1,-1,-1,-1,-1,-1,-1,-1],"loss_changes":[5.420932E1,4.892772E1,6.4080353E0,8.009758E0,1.510083E1,9.57029E0,6.7622833E0,4.483924E-1,1.3165707E1,8.338267E-1,4.1095886E0,1.0209149E1,8.986679E0,7.692917E0,5.21397E0,3.5579896E-1,0E0,7.6548843E0,7.691011E-1,6.9097877E-3,0E0,0E0,0E0,0E0,1.4322436E0,1.0375527E1,5.04041E1,7.0481224E0,1.4662647E1,4.0400453E0,5.8576937E0,9.963216E-2,5.447545E-1,3.3706337E-1,3.7913704E0,1.0430524E-1,3.8339305E-1,0E0,0E0,9.9153554E-1,0E0,1.338031E1,3.9180593E0,1.41237335E1,7.2347336E0,1.6643463E1,5.415062E0,2.7481121E1,8.88035E0,1.8490577E0,3.0679579E0,5.0444922E0,1.146895E1,0E0,0E0,0E0,0E0,0E0,0E0,0E0,0E0,0E0,0E0,0E0,0E0,0E0,0E0,0E0,0E0,0E0,0E0,0E0,0E0,0E0,0E0,0E0,0E0,0E0,0E0,0E0,0E0,0E0,0E0,0E0,0E0,0E0,0E0,0E0,0E0,0E0,0E0],"parents":[2147483647,0,0,1,1,2,2,3,3,4,4,5,5,6,6,7,7,8,8,9,9,10,10,11,11,12,12,13,13,14,14,15,15,17,17,18,18,19,19,24,24,25,25,26,26,27,27,28,28,29,29,30,30,31,31,32,32,33,33,34,34,35,35,36,36,39,39,41,41,42,42,43,43,44,44,45,45,46,46,47,47,48,48,49,49,50,50,51,51,52,52],"right_children":[2,4,6,8,10,12,14,16,18,20,22,24,26,28,30,32,-1,34,36,38,-1,-1,-1,-1,40,42,44,46,48,50,52,54,56,58,60,62,64,-1,-1,66,-1,68,70,72,74,76,78,80,82,84,86,88,90,-1,-1,-1,-1,-1,-1,-1,-1,-1,-1,-1,-1,-1,-1,-1,-1,-1,-1,-1,-1,-1,-1,-1,-1,-1,-1,-1,-1,-1,-1,-1,-1,-1,-1,-1,-1,-1,-1],"split_conditions":[9.6E-1,9.21E-1,NaN,7.78E-1,NaN,2.6E1,1.181824E1,6.2E1,NaN,3.9E1,NaN,NaN,1.3E0,5.2E1,NaN,5.4E1,-6.423722E-2,NaN,1.05E1,NaN,-7.3570274E-2,2.1000001E-1,-1.76515E-2,2.1000001E-1,NaN,5.9E1,1.35E0,1.25E0,NaN,4.3E1,2.75E0,NaN,5.5E1,6E1,1.2800002E2,6E1,5.7E1,1.9893795E-2,3.6252122E-2,NaN,-6.678995E-2,1E1,6.3E1,5.9E1,3.6E1,NaN,1.693E0,1.080549E1,5.3E1,3.75E0,2.05E0,2.9E1,3.1E1,1.7621683E-2,-5.8101676E-3,7.71311E-2,2.136062E-2,-7.1623944E-2,1.9994073E-2,2.1000001E-1,1.4532419E-2,1.8077996E-3,-4.0422607E-2,2.7969023E-2,7.858997E-2,-2.2850337E-2,1.0184594E-1,1.660032E-1,-2.6297783E-2,-1.0255275E-1,-2.2149224E-2,3.5358027E-2,2.1000001E-1,4.2482E-3,3.5410386E-2,2.1000001E-1,1.8690886E-2,-1.4163379E-2,2.0829272E-2,1.8533587E-2,1.3107008E-1,7.436044E-2,1.8309657E-2,-1.4469488E-2,-7.372134E-2,1.2519577E-1,-4.122262E-3,2.9598312E-2,-5.0922025E-2,-1.1645101E-2,8.350708E-2],"split_indices":[6,6,2,6,3,1,7,1,0,1,0,0,6,1,4,1,0,8,7,0,0,0,0,0,3,1,6,6,0,1,6,0,1,1,1,1,1,0,0,4,0,7,1,1,1,8,6,7,1,6,6,1,1,0,0,0,0,0,0,0,0,0,0,0,0,0,0,0,0,0,0,0,0,0,0,0,0,0,0,0,0,0,0,0,0,0,0,0,0,0,0],"split_type":[0,0,1,0,1,0,0,0,1,0,1,1,0,0,1,0,0,1,0,1,0,0,0,0,1,0,0,0,1,0,0,1,0,0,0,0,0,0,0,1,0,0,0,0,0,1,0,0,0,0,0,0,0,0,0,0,0,0,0,0,0,0,0,0,0,0,0,0,0,0,0,0,0,0,0,0,0,0,0,0,0,0,0,0,0,0,0,0,0,0,0],"sum_hessian":[2.0722223E4,3.93995E2,2.0328229E4,3.2756137E2,6.643362E1,7.2462593E3,1.3081968E4,1.6278471E2,1.6477664E2,3.0458767E1,3.5974854E1,5.3001484E1,7.193258E3,1.149857E4,1.5833983E3,1.5848634E2,4.298374E0,8.0622665E1,8.415398E1,2.1526104E1,8.932661E0,2.8987167E1,6.987686E0,1.6448132E1,3.6553352E1,3.819333E2,6.8113247E3,8.446063E3,3.0525066E3,8.4050525E2,7.4289307E2,8.7517334E1,7.096901E1,1.3563347E1,6.705932E1,2.7773342E1,5.638064E1,8.764798E0,1.2761307E1,2.8440136E1,8.113216E0,1.3168993E2,2.5024335E2,8.9498245E1,6.721826E3,1.3218759E2,8.313876E3,7.8160815E2,2.2708984E3,1.9698904E2,6.4351624E2,2.7855066E2,4.6434238E2,6.6521965E1,2.0995363E1,2.3541405E1,4.742761E1,4.8043437E0,8.759003E0,5.7974335E1,9.084983E0,2.1873709E1,5.899632E0,3.0359959E1,2.602068E1,7.3169346E0,2.1123203E1,5.5667233E1,7.60227E1,7.9757126E1,1.7048624E2,4.2122765E1,4.737548E1,7.557296E2,5.9660967E3,3.746794E1,9.471964E1,4.1846478E2,7.895411E3,4.0285236E2,3.7875583E2,2.9115607E2,1.9797423E3,8.040133E1,1.1658771E2,1.5956459E1,6.2755975E2,1.3423239E2,1.4431827E2,1.9887532E2,2.6546707E2],"tree_param":{"num_deleted":"0","num_feature":"9","num_nodes":"91","size_leaf_vector":"0"}},{"base_weights":[7.920931E-2,4.009965E-1,7.2700694E-2,1.9046612E-1,7E-1,-1.13660954E-1,7.4142985E-2,6.163699E-2,3.079156E-1,-4.1988916E-3,7E-1,-2.4199557E-1,-4.9958516E-2,1.7760815E-1,7.0227176E-2,7.506452E-2,-9.481152E-2,5.070803E-1,8.8946335E-2,8.583358E-2,-6.8432584E-2,2.1000001E-1,-1.5610175E-2,-2.7616483E-1,-1.411852E-1,2.3209557E-1,-1.7411935E-1,1.1334332E-1,4.956944E-1,-2.2388356E-2,7.360802E-2,3.363885E-2,1.299601E-1,-5.6191396E-2,9.75414E-3,2.1000001E-1,3.031959E-1,-2.4333257E-2,1.4110029E-1,1.690215E-2,3.0120825E-2,-4.4552796E-2,-9.308135E-2,-5.0807398E-2,-3.0264776E-2,1.321979E-1,1.0530467E-1,-1.2080306E-1,-2.7745605E-1,2.601044E-1,-1.6625013E-2,-8.5722305E-2,2.1000001E-1,-5.3979717E-2,1.973309E-1,7.7156305E-2,7.839501E-3,1.925014E-2,6.366258E-4,6.098194E-2,2.3786081E-2,1.4886792E-1,-2.9942568E-3,1.5473402E-3,-3.661649E-2,2.3240097E-2,6.1980393E-2,2.4357824E-2,4.8981603E-2,-1.7617922E-2,-5.658658E-2,-1.6564546E-2,-1.0773617E-1,1.10892944E-1,-6.187746E-2,6.078134E-2,-3.805712E-2,-3.5371184E-2,-2.4188103E-3,1.5905473E-1,-2.173451E-2,-3.9332192E-2,2.0245801E-1,2.2618372E-2,1.2975499E-1,5.245227E-2,-2.5077026E-2],"categories":[0,0,0,1,2,3,0,0,0,1,2,3,3,0,0,0,0,0,1,2,0,1,2,0,1,3],"categories_nodes":[4,5,8,10,11,14,16,19,23,25,26,27,29,45,49,56],"categories_segments":[0,1,2,5,6,7,8,9,12,13,14,15,16,17,20,23],"categories_sizes":[1,1,3,1,1,1,1,3,1,1,1,1,1,3,3,3],"default_left":[0,0,0,0,1,1,0,1,0,0,1,0,1,1,0,1,1,0,1,0,0,0,0,1,0,1,1,0,1,1,1,1,0,0,0,0,0,0,1,0,0,0,0,0,0,0,0,0,0,0,0,0,0,0,0,1,1,0,0,0,0,0,0,0,0,0,0,0,0,0,0,0,0,0,0,0,0,0,0,0,0,0,0,0,0,0,0],"id":17,"left_children":[1,3,5,7,9,11,13,15,17,19,21,23,25,27,29,31,33,35,37,39,-1,-1,-1,41,43,45,47,49,51,53,55,57,59,-1,-1,-1,61,63,65,-1,-1,-1,-1,-1,-1,67,-1,69,71,73,75,77,-1,79,81,83,85,-1,-1,-1,-1,-1,-1,-1,-1,-1,-1,-1,-1,-1,-1,-1,-1,-1,-1,-1,-1,-1,-1,-1,-1,-1,-1,-1,-1,-1,-1],"loss_changes":[4.454161E1,5.2311676E1,5.615425E0,5.2554483E0,1.5117035E1,1.3008292E0,8.374435E0,3.5896593E-1,7.896286E0,6.5403616E-1,3.9583282E0,1.436193E-1,3.843037E0,1.5361597E1,6.2475967E0,3.4767747E-1,1.6720483E-1,5.319475E0,5.230309E-1,4.300609E-3,0E0,0E0,0E0,1.2175059E-1,4.7531724E-4,3.5296905E-1,3.850217E-1,1.1997408E1,4.1557434E1,4.892329E0,4.4905624E0,8.6051784E-2,2.2993064E-1,0E0,0E0,0E0,3.5950541E0,8.2992405E-2,2.3561704E-1,0E0,0E0,0E0,0E0,0E0,0E0,1.8242985E-2,0E0,2.0734733E-1,4.354211E-1,1.5164686E1,8.106742E0,1.906383E-1,0E0,6.6806207E0,1.3987925E1,1.1399071E1,1.5073767E1,0E0,0E0,0E0,0E0,0E0,0E0,0E0,0E0,0E0,0E0,0E0,0E0,0E0,0E0,0E0,0E0,0E0,0E0,0E0,0E0,0E0,0E0,0E0,0E0,0E0,0E0,0E0,0E0,0E0,0E0],"parents":[2147483647,0,0,1,1,2,2,3,3,4,4,5,5,6,6,7,7,8,8,9,9,10,10,11,11,12,12,13,13,14,14,15,15,16,16,17,17,18,18,19,19,23,23,24,24,25,25,26,26,27,27,28,28,29,29,30,30,31,31,32,32,36,36,37,37,38,38,45,45,47,47,48,48,49,49,50,50,51,51,53,53,54,54,55,55,56,56],"right_children":[2,4,6,8,10,12,14,16,18,20,22,24,26,28,30,32,34,36,38,40,-1,-1,-1,42,44,46,48,50,52,54,56,58,60,-1,-1,-1,62,64,66,-1,-1,-1,-1,-1,-1,68,-1,70,72,74,76,78,-1,80,82,84,86,-1,-1,-1,-1,-1,-1,-1,-1,-1,-1,-1,-1,-1,-1,-1,-1,-1,-1,-1,-1,-1,-1,-1,-1,-1,-1,-1,-1,-1,-1],"split_conditions":[9.6E-1,9.21E-1,1.05E0,7.78E-1,NaN,NaN,1.35E0,6.1E1,NaN,3.9E1,NaN,NaN,5E1,1.1E1,NaN,5.4E1,NaN,5.5E1,1.05E1,NaN,-6.8432584E-2,2.1000001E-1,-1.5610175E-2,NaN,3.3E1,NaN,NaN,NaN,6.1E1,NaN,4.7E0,2.6E1,5.5E1,-5.6191396E-2,9.75414E-3,2.1000001E-1,1E1,6E1,5.7E1,1.690215E-2,3.0120825E-2,-4.4552796E-2,-9.308135E-2,-5.0807398E-2,-3.0264776E-2,NaN,1.0530467E-1,5.9E1,5.1E1,NaN,1.2E0,1.25E0,2.1000001E-1,3E1,5.2E1,4.6E0,NaN,1.925014E-2,6.366258E-4,6.098194E-2,2.3786081E-2,1.4886792E-1,-2.9942568E-3,1.5473402E-3,-3.661649E-2,2.3240097E-2,6.1980393E-2,2.4357824E-2,4.8981603E-2,-1.7617922E-2,-5.658658E-2,-1.6564546E-2,-1.0773617E-1,1.10892944E-1,-6.187746E-2,6.078134E-2,-3.805712E-2,-3.5371184E-2,-2.4188103E-3,1.5905473E-1,-2.173451E-2,-3.9332192E-2,2.0245801E-1,2.2618372E-2,1.2975499E-1,5.245227E-2,-2.5077026E-2],"split_indices":[6,6,6,6,3,5,6,1,0,1,0,2,1,7,8,1,5,1,7,0,0,0,0,0,1,2,2,4,1,4,6,1,1,0,0,0,7,1,1,0,0,0,0,0,0,0,0,1,1,0,6,6,0,1,1,6,0,0,0,0,0,0,0,0,0,0,0,0,0,0,0,0,0,0,0,0,0,0,0,0,0,0,0,0,0,0,0],"split_type":[0,0,0,0,1,1,0,0,1,0,1,1,0,0,1,0,1,0,0,1,0,0,0,1,0,1,1,1,0,1,0,0,0,0,0,0,0,0,0,0,0,0,0,0,0,1,0,0,0,1,0,0,0,0,0,0,1,0,0,0,0,0,0,0,0,0,0,0,0,0,0,0,0,0,0,0,0,0,0,0,0,0,0,0,0,0,0],"sum_hessian":[2.128002E4,4.2068478E2,2.0859334E4,3.4758612E2,7.309866E1,1.5959723E2,2.0699738E4,1.6648988E2,1.8109624E2,3.0472406E1,4.262626E1,5.201308E1,1.0758414E2,7.532295E2,1.9946508E4,1.5380908E2,1.2680796E1,9.414781E1,8.6948425E1,2.217333E1,8.299076E0,3.5760834E1,6.865425E0,3.7547173E1,1.4465908E1,3.2617714E1,7.496642E1,6.2775653E2,1.25473E2,7.0228705E2,1.924422E4,8.857831E1,6.5230774E1,7.0722322E0,5.608564E0,3.5760834E1,5.8386974E1,2.7579199E1,5.9369225E1,8.940909E0,1.3232421E1,9.045465E0,2.8501709E1,6.6295137E0,7.836394E0,1.8874235E1,1.3743479E1,5.0882668E1,2.408376E1,2.9436096E2,3.3339557E2,7.5659584E1,4.9813416E1,6.1466455E2,8.762249E1,1.8258955E4,9.8526514E2,4.4468525E1,4.4109787E1,2.5429039E1,3.9801735E1,3.5760834E1,2.262614E1,2.191329E1,5.665909E0,3.1221077E1,2.8148146E1,8.513317E0,1.0360918E1,2.7540213E1,2.3342455E1,6.922116E0,1.7161644E1,2.3854027E2,5.5820686E1,1.1126793E2,2.2212762E2,5.3126205E1,2.2533375E1,1.7988312E1,5.966763E2,5.234544E1,3.5277054E1,1.8170088E4,8.886806E1,3.4825146E2,6.370137E2],"tree_param":{"num_deleted":"0","num_feature":"9","num_nodes":"87","size_leaf_vector":"0"}},{"base_weights":[6.6429116E-2,3.4553924E-1,6.0540773E-2,1.5404837E-1,7E-1,7.7773206E-2,4.7012065E-2,5.1435042E-2,2.4147159E-1,-4.325738E-3,7E-1,2.9377699E-2,9.9753775E-2,5.6183115E-2,-1.8689608E-2,5.7959918E-2,-5.5646714E-2,3.7810978E-1,7.3618725E-2,7.216203E-2,-6.337981E-2,2.1000001E-1,-1.3782399E-2,6.930347E-2,-8.558044E-2,9.211866E-2,3.8905695E-1,6.539322E-2,-2.2575052E-2,1.9434778E-2,-7.30921E-2,7.3806904E-2,-1.6225168E-2,1.73494E-1,2.3346154E-1,-2.1510981E-2,1.15412526E-1,1.4397458E-2,2.516978E-2,1.6427201E-1,2.0530222E-2,6.111526E-1,-1.0206153E-1,1.9230689E-1,7.202151E-2,1.8395008E-1,7E-1,2.283453E-2,8.4037036E-2,6.749945E-2,-5.0918236E-2,-6.4609195E-3,1.7228065E-1,-1.5265813E-1,9.172775E-3,-6.57532E-3,3.0052105E-2,2.992633E-2,-1.9248927E-2,1.0864041E-1,-2.575067E-3,1.3247547E-3,-3.3074487E-2,1.9403987E-2,4.9711857E-2,-1.2724801E-2,7.4958384E-2,-4.7468226E-3,7.8841165E-2,2.1000001E-1,-3.1096498E-2,8.729129E-3,-4.067525E-2,2.6449108E-2,1.3086042E-1,2.9498758E-2,7.802463E-3,2.1000001E-1,-5.4715417E-2,2.1000001E-1,-1.0093508E-2,2.3644594E-2,-5.9696995E-3,2.2871077E-2,9.348202E-2,-8.289486E-3,6.454728E-2,-2.0938307E-2,4.526054E-2,8.721958E-3,-3.3613387E-2,2.1000001E-1,2.1929951E-2,-7.602201E-3,-5.7979334E-2,-3.5479836E-2,2.9485004E-2],"categories":[0,0,0,1,2,3,0,1,1,2,3,0,1,3,0,0],"categories_nodes":[2,4,8,10,15,19,24,26,44],"categories_segments":[0,1,2,5,6,8,11,14,15],"categories_sizes":[1,1,3,1,2,3,3,1,1],"default_left":[0,0,0,0,1,1,1,1,0,0,1,0,1,1,0,0,0,0,1,0,0,0,0,0,0,0,1,0,0,0,0,0,0,0,0,0,1,0,0,0,1,0,0,1,0,0,0,1,1,0,1,0,0,0,1,0,0,0,0,0,0,0,0,0,0,0,0,0,0,0,0,0,0,0,0,0,0,0,0,0,0,0,0,0,0,0,0,0,0,0,0,0,0,0,0,0,0],"id":18,"left_children":[1,3,5,7,9,11,13,15,17,19,21,23,25,27,29,31,-1,33,35,37,-1,-1,-1,39,41,43,45,47,49,51,53,55,57,-1,59,61,63,-1,-1,65,67,69,71,73,75,77,79,81,83,85,87,89,91,93,95,-1,-1,-1,-1,-1,-1,-1,-1,-1,-1,-1,-1,-1,-1,-1,-1,-1,-1,-1,-1,-1,-1,-1,-1,-1,-1,-1,-1,-1,-1,-1,-1,-1,-1,-1,-1,-1,-1,-1,-1,-1,-1],"loss_changes":[3.574827E1,5.275576E1,4.9657135E0,3.2897043E0,1.5126686E1,9.967758E0,7.197687E0,2.7449372E-1,4.5245447E0,5.135316E-1,3.827362E0,1.3449005E1,1.420063E1,7.604004E0,3.0372276E0,1.9728601E-1,0E0,3.0266523E0,3.6155018E-1,2.705738E-3,0E0,0E0,0E0,1.0068514E1,8.737233E0,1.2632408E1,1.9321465E1,7.4437103E0,2.8068085E0,3.4105535E0,3.950343E0,3.495381E-1,1.7418802E-1,0E0,2.029371E0,6.584775E-2,1.4978111E-1,0E0,0E0,1.306024E1,1.2667183E1,5.118416E0,3.2525358E0,2.6600517E1,6.331949E0,2.9365192E1,4.7379303E0,6.8432183E0,1.155838E1,3.7038178E0,3.1941178E0,2.7704551E0,8.549374E0,1.5809207E0,3.3908324E0,0E0,0E0,0E0,0E0,0E0,0E0,0E0,0E0,0E0,0E0,0E0,0E0,0E0,0E0,0E0,0E0,0E0,0E0,0E0,0E0,0E0,0E0,0E0,0E0,0E0,0E0,0E0,0E0,0E0,0E0,0E0,0E0,0E0,0E0,0E0,0E0,0E0,0E0,0E0,0E0,0E0,0E0],"parents":[2147483647,0,0,1,1,2,2,3,3,4,4,5,5,6,6,7,7,8,8,9,9,10,10,11,11,12,12,13,13,14,14,15,15,17,17,18,18,19,19,23,23,24,24,25,25,26,26,27,27,28,28,29,29,30,30,31,31,32,32,34,34,35,35,36,36,39,39,40,40,41,41,42,42,43,43,44,44,45,45,46,46,47,47,48,48,49,49,50,50,51,51,52,52,53,53,54,54],"right_children":[2,4,6,8,10,12,14,16,18,20,22,24,26,28,30,32,-1,34,36,38,-1,-1,-1,40,42,44,46,48,50,52,54,56,58,-1,60,62,64,-1,-1,66,68,70,72,74,76,78,80,82,84,86,88,90,92,94,96,-1,-1,-1,-1,-1,-1,-1,-1,-1,-1,-1,-1,-1,-1,-1,-1,-1,-1,-1,-1,-1,-1,-1,-1,-1,-1,-1,-1,-1,-1,-1,-1,-1,-1,-1,-1,-1,-1,-1,-1,-1,-1],"split_conditions":[9.6E-1,9.21E-1,NaN,7.78E-1,NaN,3.2E1,1.181824E1,6.2E1,NaN,3.9E1,NaN,1.7E1,1.7E1,6E1,4.065E0,NaN,-5.5646714E-2,5.5E1,1.05E1,NaN,-6.337981E-2,2.1000001E-1,-1.3782399E-2,2.468E0,NaN,1.76E0,NaN,2.5E0,1E1,3.505345E0,1.5E1,1.05E1,1E1,1.73494E-1,1E1,6E1,5.7E1,1.4397458E-2,2.516978E-2,1.7E0,4.5E0,2.6E1,2.9E1,1.05E1,NaN,3.9E0,4.3E1,2.9E1,5.9E1,3.505345E0,1.15E1,3.05E0,3.527E0,3.1E1,4.3E1,-6.57532E-3,3.0052105E-2,2.992633E-2,-1.9248927E-2,1.0864041E-1,-2.575067E-3,1.3247547E-3,-3.3074487E-2,1.9403987E-2,4.9711857E-2,-1.2724801E-2,7.4958384E-2,-4.7468226E-3,7.8841165E-2,2.1000001E-1,-3.1096498E-2,8.729129E-3,-4.067525E-2,2.6449108E-2,1.3086042E-1,2.9498758E-2,7.802463E-3,2.1000001E-1,-5.4715417E-2,2.1000001E-1,-1.0093508E-2,2.3644594E-2,-5.9696995E-3,2.2871077E-2,9.348202E-2,-8.289486E-3,6.454728E-2,-2.0938307E-2,4.526054E-2,8.721958E-3,-3.3613387E-2,2.1000001E-1,2.1929951E-2,-7.602201E-3,-5.7979334E-2,-3.5479836E-2,2.9485004E-2],"split_indices":[6,6,3,6,3,1,7,1,0,1,0,7,7,1,6,0,0,1,7,0,0,0,0,6,0,6,4,6,7,6,7,7,7,0,7,1,1,0,0,6,6,1,1,7,4,6,1,1,1,6,7,6,6,1,1,0,0,0,0,0,0,0,0,0,0,0,0,0,0,0,0,0,0,0,0,0,0,0,0,0,0,0,0,0,0,0,0,0,0,0,0,0,0,0,0,0,0],"split_type":[0,0,1,0,1,0,0,0,1,0,1,0,0,0,0,1,0,0,0,1,0,0,0,0,1,0,1,0,0,0,0,0,0,0,0,0,0,0,0,0,0,0,0,0,1,0,0,0,0,0,0,0,0,0,0,0,0,0,0,0,0,0,0,0,0,0,0,0,0,0,0,0,0,0,0,0,0,0,0,0,0,0,0,0,0,0,0,0,0,0,0,0,0,0,0,0,0],"sum_hessian":[2.176309E4,4.484544E2,2.1314635E4,3.6709744E2,8.1356964E1,9.37206E3,1.1942576E4,1.6960786E2,1.9748956E2,3.0480516E1,5.0876446E1,2.9279067E3,6.444153E3,1.0479875E4,1.4627013E3,1.657972E2,3.8106818E0,1.08177E2,8.931256E1,2.2730371E1,7.750145E0,4.411736E1,6.759086E0,2.1734495E3,7.5445715E2,6.27974E3,1.6441281E2,9.382805E3,1.0970703E3,8.60394E2,6.023074E2,1.366186E2,2.9178577E1,4.411736E1,6.405964E1,2.740942E1,6.1903137E1,9.093315E0,1.3637056E1,7.36673E2,1.4367766E3,1.6600359E1,7.378568E2,1.0477804E3,5.23196E3,1.3344795E2,3.0964874E1,2.858915E3,6.523889E3,2.6225226E2,8.3481805E2,7.365609E2,1.2383306E2,3.0574106E2,2.9656635E2,2.95405E1,1.0707811E2,8.217204E0,2.0961372E1,4.150115E1,2.2558495E1,2.1947224E1,5.4621954E0,3.1955156E1,2.9947983E1,2.1587195E2,5.20801E2,1.2501302E3,1.8664632E2,8.701619E0,7.8987403E0,1.502255E2,5.8763135E2,7.352075E2,3.1257285E2,3.3280442E3,1.9039156E3,5.011779E1,8.3330154E1,2.2251774E1,8.7130995E0,1.2372617E3,1.6216532E3,6.3089795E3,2.1490982E2,1.5998943E2,1.0226283E2,7.6400354E2,7.081453E1,5.5163367E2,1.8492723E2,1.3373974E1,1.1045908E2,7.432517E1,2.3141588E2,1.2190305E2,1.7466328E2],"tree_param":{"num_deleted":"0","num_feature":"9","num_nodes":"97","size_leaf_vector":"0"}},{"base_weights":[5.5849127E-2,2.9614684E-1,5.056044E-2,1.24063276E-1,7E-1,2.6663043E-2,5.944748E-2,2.4656365E-2,1.7935814E-1,-4.3805335E-3,7E-1,1.2647057E-2,2.3721932E-1,8.577743E-2,3.9895605E-2,-1.14659425E-2,5.0438765E-2,1.2012472E-1,3.567658E-1,6.0898256E-2,-5.845603E-2,2.1000001E-1,-1.2150936E-2,1.8263905E-3,1.8029286E-1,4.9583268E-1,-3.0642882E-2,6.3260235E-2,1.4959878E-1,2.1757811E-2,7.9951525E-2,-6.4771004E-2,3.173346E-2,5.954175E-2,-2.2625212E-2,6.723412E-2,2.4244368E-1,1.230922E-1,2.0445368E-4,1.2290526E-2,2.1130163E-2,-4.4458866E-2,2.5453743E-2,-9.804784E-3,7E-1,-1.2144549E-1,5.7853687E-1,1.03910536E-1,-8.202573E-2,8.353816E-2,-2.3226364E-2,7E-1,1.2235323E-1,5.1632933E-2,-3.3058085E-2,-2.8732346E-2,1.1842246E-1,-5.0487593E-3,-4.3164812E-2,2.8992401E-2,-9.599952E-5,2.2340454E-2,8.191008E-3,3.6376815E-2,-3.4828412E-3,1.7818999E-2,8.268072E-2,-2.0250538E-2,6.369522E-2,4.7737E-2,-2.6455447E-3,4.8363037E-2,-2.9019868E-2,2.1000001E-1,-1.0209402E-2,-3.8277863E-3,2.1000001E-1,1.2864205E-1,-3.9663732E-2,3.911011E-2,1.1493572E-2,2.1000001E-1,-1.6513642E-2,2.1000001E-1,5.1284913E-2,-3.5215635E-2,5.705027E-2,3.4526568E-2,1.7979221E-3,6.0774576E-2,-1.2698369E-2,-2.534121E-2,5.0839122E-2,3.7996143E-3,5.3721298E-2],"categories":[0,0,3,0,0,0,1,2,1,2,3,0,0,0,0,1,3,0,1,2,0,0],"categories_nodes":[2,4,10,11,16,18,19,32,36,46,48,49,51,54,56],"categories_segments":[0,1,2,3,4,5,8,11,12,13,14,17,18,20,21],"categories_sizes":[1,1,1,1,1,3,3,1,1,1,3,1,2,1,1],"default_left":[0,0,0,1,1,1,0,0,1,0,1,1,0,0,1,0,1,0,0,0,0,0,0,0,1,0,0,0,0,1,0,0,1,1,0,0,1,0,0,0,0,1,0,0,0,0,1,0,0,0,0,0,0,0,0,0,1,0,0,0,0,0,0,0,0,0,0,0,0,0,0,0,0,0,0,0,0,0,0,0,0,0,0,0,0,0,0,0,0,0,0,0,0,0,0],"id":19,"left_children":[1,3,5,7,9,11,13,15,17,19,21,23,25,27,29,31,33,35,37,39,-1,-1,-1,41,43,45,47,49,51,53,55,57,59,61,-1,63,65,-1,-1,-1,-1,67,69,71,73,-1,75,-1,77,79,81,83,85,87,89,91,93,-1,-1,-1,-1,-1,-1,-1,-1,-1,-1,-1,-1,-1,-1,-1,-1,-1,-1,-1,-1,-1,-1,-1,-1,-1,-1,-1,-1,-1,-1,-1,-1,-1,-1,-1,-1,-1,-1],"loss_changes":[2.8173828E1,4.9635777E1,4.6079445E0,2.1166477E0,1.5130859E1,1.7365555E1,8.140766E0,1.3011038E-1,2.5611057E0,4.033335E-1,3.713913E0,1.0011506E1,2.5456255E1,9.677349E0,6.595456E0,1.3732196E-1,9.768239E-2,1.1953027E0,1.1725821E0,1.7153621E-3,0E0,0E0,0E0,5.671946E0,4.833614E1,1.4156967E1,3.5414217E0,8.743431E0,3.889492E1,1.0239597E1,1.1835373E1,9.855662E-2,6.8932556E-2,3.4738153E-2,0E0,5.641801E-1,3.244393E-1,0E0,0E0,0E0,0E0,1.0385555E1,1.5731459E1,4.123044E0,1.29017105E1,0E0,1.6399986E1,0E0,4.168945E0,8.546909E0,2.2318125E1,2.6532822E0,2.7878485E1,1.1719093E1,4.827016E0,8.195926E0,1.3404364E1,0E0,0E0,0E0,0E0,0E0,0E0,0E0,0E0,0E0,0E0,0E0,0E0,0E0,0E0,0E0,0E0,0E0,0E0,0E0,0E0,0E0,0E0,0E0,0E0,0E0,0E0,0E0,0E0,0E0,0E0,0E0,0E0,0E0,0E0,0E0,0E0,0E0,0E0],"parents":[2147483647,0,0,1,1,2,2,3,3,4,4,5,5,6,6,7,7,8,8,9,9,10,10,11,11,12,12,13,13,14,14,15,15,16,16,17,17,18,18,19,19,23,23,24,24,25,25,26,26,27,27,28,28,29,29,30,30,31,31,32,32,33,33,35,35,36,36,41,41,42,42,43,43,44,44,46,46,48,48,49,49,50,50,51,51,52,52,53,53,54,54,55,55,56,56],"right_children":[2,4,6,8,10,12,14,16,18,20,22,24,26,28,30,32,34,36,38,40,-1,-1,-1,42,44,46,48,50,52,54,56,58,60,62,-1,64,66,-1,-1,-1,-1,68,70,72,74,-1,76,-1,78,80,82,84,86,88,90,92,94,-1,-1,-1,-1,-1,-1,-1,-1,-1,-1,-1,-1,-1,-1,-1,-1,-1,-1,-1,-1,-1,-1,-1,-1,-1,-1,-1,-1,-1,-1,-1,-1,-1,-1,-1,-1,-1,-1],"split_conditions":[9.6E-1,9.21E-1,NaN,5.4E1,NaN,5.4E1,2.75E0,1.144142E1,1.1E1,3.9E1,NaN,NaN,5.6E1,2.305E0,1.1E1,3.8E1,NaN,6.3E1,NaN,NaN,-5.845603E-2,2.1000001E-1,-1.2150936E-2,2.7E0,2.8E0,1.65E0,1.509637E0,2.1E0,2.35E0,1E1,3.505345E0,3.4E1,NaN,2.6E1,-2.2625212E-2,5.9E1,NaN,1.230922E-1,2.0445368E-4,1.2290526E-2,2.1130163E-2,5E1,3.6E1,3.5E1,3.75E0,-1.2144549E-1,NaN,1.03910536E-1,NaN,NaN,2.8E1,NaN,1.05E1,5.4E1,NaN,1.2800002E2,NaN,-5.0487593E-3,-4.3164812E-2,2.8992401E-2,-9.599952E-5,2.2340454E-2,8.191008E-3,3.6376815E-2,-3.4828412E-3,1.7818999E-2,8.268072E-2,-2.0250538E-2,6.369522E-2,4.7737E-2,-2.6455447E-3,4.8363037E-2,-2.9019868E-2,2.1000001E-1,-1.0209402E-2,-3.8277863E-3,2.1000001E-1,1.2864205E-1,-3.9663732E-2,3.911011E-2,1.1493572E-2,2.1000001E-1,-1.6513642E-2,2.1000001E-1,5.1284913E-2,-3.5215635E-2,5.705027E-2,3.4526568E-2,1.7979221E-3,6.0774576E-2,-1.2698369E-2,-2.534121E-2,5.0839122E-2,3.7996143E-3,5.3721298E-2],"split_indices":[6,6,5,1,3,1,6,7,7,1,0,4,1,6,7,1,0,1,0,0,0,0,0,6,6,6,6,6,6,7,6,1,4,1,0,1,5,0,0,0,0,1,1,1,6,0,8,0,0,3,1,0,7,1,8,1,8,0,0,0,0,0,0,0,0,0,0,0,0,0,0,0,0,0,0,0,0,0,0,0,0,0,0,0,0,0,0,0,0,0,0,0,0,0,0],"split_type":[0,0,1,0,1,0,0,0,0,0,1,1,0,0,0,0,1,0,1,1,0,0,0,0,0,0,0,0,0,0,0,0,1,0,0,0,1,0,0,0,0,0,0,0,0,0,1,0,1,1,0,1,0,0,1,0,1,0,0,0,0,0,0,0,0,0,0,0,0,0,0,0,0,0,0,0,0,0,0,0,0,0,0,0,0,0,0,0,0,0,0,0,0,0,0],"sum_hessian":[2.2179906E4,4.7645834E2,2.170345E4,3.8488113E2,9.157721E1,5.884344E3,1.58191045E4,1.380844E2,2.4679675E2,3.048402E1,6.109319E1,5.518085E3,3.662593E2,6.739638E3,9.079466E3,5.7741386E1,8.034301E1,1.862786E2,6.0518158E1,2.3209835E1,7.274185E0,5.442662E1,6.6665683E0,5.1844653E3,3.3361945E2,1.8591377E2,1.8034555E2,4.9834043E3,1.756234E3,6.250644E3,2.828822E3,2.562391E1,3.2117477E1,7.5415245E1,4.9277663E0,1.3112845E2,5.5150146E1,5.2475555E1,8.042602E0,9.225183E0,1.3984652E1,1.7518207E3,3.4326448E3,2.7529822E2,5.832122E1,1.5308535E1,1.7060522E2,2.0942587E1,1.5940297E2,4.0369277E3,9.4647675E2,4.382216E1,1.7124119E3,4.04574E3,2.204904E3,7.3961005E2,2.089212E3,1.6710218E1,8.913692E0,9.95127E0,2.2166206E1,5.0652927E1,2.4762316E1,7.749359E1,5.3634857E1,8.886266E0,4.626388E1,1.6082358E3,1.4358484E2,6.9976337E2,2.7328813E3,9.248892E1,1.828093E2,3.4466637E1,2.3854584E1,3.7229828E1,1.333754E2,1.358472E1,1.4581824E2,1.9823989E3,2.0545288E3,3.816674E1,9.0831E2,3.3591908E1,1.023025E1,3.774194E2,1.3349924E3,1.6918901E3,2.3538499E3,8.2666084E1,2.122238E3,5.7771423E2,1.618958E2,7.618789E2,1.3273331E3],"tree_param":{"num_deleted":"0","num_feature":"9","num_nodes":"95","size_leaf_vector":"0"}},{"base_weights":[4.728394E-2,2.5310484E-1,4.256413E-2,1.0117583E-1,7E-1,-1.1943896E-1,4.3770358E-2,2.0685673E-2,1.4392732E-1,-4.3757446E-3,7E-1,-1.6721785E-1,2.6382102E-2,1.1544337E-1,4.087935E-2,-1.00569185E-2,4.2239685E-2,9.8419145E-2,2.709816E-1,5.1553693E-2,-5.370007E-2,2.1000001E-1,-1.0698749E-2,-2.2945726E-1,-1.273215E-1,1.4575996E-1,-1.0494126E-1,5.0619014E-2,3.0804533E-1,-3.3098627E-2,4.349956E-2,-5.7166893E-2,2.713779E-2,4.990145E-2,-2.0230906E-2,5.6007363E-2,1.9161077E-1,9.2104055E-2,1.7733022E-4,1.0511149E-2,1.7806213E-2,-2.5249842E-1,-3.077686E-2,-8.3962634E-2,-8.559187E-2,-7.050899E-2,2.2054058E-1,-1.3197932E-2,4.3260708E-1,1.2766613E-1,7E-1,-6.0045913E-2,1.4188425E-1,4.616953E-2,-2.7853314E-2,-4.3615997E-3,-3.8986884E-2,2.4359055E-2,-8.231866E-5,1.6819188E-2,-8.1777276E-4,2.3353724E-2,-2.615596E-2,1.5166441E-2,6.4656325E-2,-5.1522356E-2,-9.028849E-2,-1.2642898E-2,-5.7027448E-2,8.179028E-2,3.936002E-2,1.0742216E-2,-5.2790202E-2,2.1000001E-1,-5.196638E-2,9.6171744E-2,-1.5771532E-2,8.237326E-3,2.1000001E-1,6.2613964E-2,-2.6357505E-2,-3.5920154E-2,1.3070977E-1,1.4868128E-2,-4.988677E-3,-2.9759306E-2,1.6803574E-2],"categories":[0,3,0,0,0,0,1,2,1,2,3,0,0,0,0,2,0,0,0,1,2,1,2,0,0,0],"categories_nodes":[4,10,11,14,16,18,19,23,24,27,29,30,32,36,46,47,48,49,54],"categories_segments":[0,1,2,3,4,5,8,11,12,13,14,15,16,17,18,21,23,24,25],"categories_sizes":[1,1,1,1,1,3,3,1,1,1,1,1,1,1,3,2,1,1,1],"default_left":[0,0,0,1,1,0,0,0,1,0,1,1,1,0,0,0,1,0,0,0,0,0,0,1,0,0,0,1,1,1,1,0,1,1,0,0,1,0,0,0,0,0,0,0,1,0,0,0,1,0,0,0,0,1,1,0,0,0,0,0,0,0,0,0,0,0,0,0,0,0,0,0,0,0,0,0,0,0,0,0,0,0,0,0,0,0,0],"id":20,"left_children":[1,3,5,7,9,11,13,15,17,19,21,23,25,27,29,31,33,35,37,39,-1,-1,-1,41,43,45,-1,47,49,51,53,55,57,59,-1,61,63,-1,-1,-1,-1,65,-1,-1,67,-1,69,71,73,75,77,79,81,83,85,-1,-1,-1,-1,-1,-1,-1,-1,-1,-1,-1,-1,-1,-1,-1,-1,-1,-1,-1,-1,-1,-1,-1,-1,-1,-1,-1,-1,-1,-1,-1,-1],"loss_changes":[2.1875885E1,4.2350998E1,4.3094482E0,1.375711E0,1.5130486E1,1.1404614E0,4.5257263E0,9.3293205E-2,1.4853492E0,3.1671858E-1,3.61557E0,2.7609205E-1,1.8969445E0,1.0561664E1,4.075535E0,1.04182415E-1,7.2758764E-2,7.564751E-1,6.661539E-1,1.0926425E-3,0E0,0E0,0E0,1.1084628E-1,4.6731913E-1,9.604645E-1,0E0,1.5486277E1,1.6876415E1,3.40137E0,3.8685722E0,7.9291895E-2,4.9528945E-2,2.5372788E-2,0E0,4.2836338E-1,1.9246936E-1,0E0,0E0,0E0,0E0,1.00583315E-1,0E0,0E0,2.7365896E-1,0E0,9.076154E-2,4.3543625E0,1.5401827E1,5.335741E0,5.11734E0,4.684284E0,7.455931E0,4.1676407E0,4.390252E0,0E0,0E0,0E0,0E0,0E0,0E0,0E0,0E0,0E0,0E0,0E0,0E0,0E0,0E0,0E0,0E0,0E0,0E0,0E0,0E0,0E0,0E0,0E0,0E0,0E0,0E0,0E0,0E0,0E0,0E0,0E0,0E0],"parents":[2147483647,0,0,1,1,2,2,3,3,4,4,5,5,6,6,7,7,8,8,9,9,10,10,11,11,12,12,13,13,14,14,15,15,16,16,17,17,18,18,19,19,23,23,24,24,25,25,27,27,28,28,29,29,30,30,31,31,32,32,33,33,35,35,36,36,41,41,44,44,46,46,47,47,48,48,49,49,50,50,51,51,52,52,53,53,54,54],"right_children":[2,4,6,8,10,12,14,16,18,20,22,24,26,28,30,32,34,36,38,40,-1,-1,-1,42,44,46,-1,48,50,52,54,56,58,60,-1,62,64,-1,-1,-1,-1,66,-1,-1,68,-1,70,72,74,76,78,80,82,84,86,-1,-1,-1,-1,-1,-1,-1,-1,-1,-1,-1,-1,-1,-1,-1,-1,-1,-1,-1,-1,-1,-1,-1,-1,-1,-1,-1,-1,-1,-1,-1,-1],"split_conditions":[9.6E-1,9.21E-1,1.05E0,5.4E1,NaN,1.35E1,1.4E0,1.144142E1,1.1E1,3.9E1,NaN,NaN,5.2E1,1.3E0,NaN,3.8E1,NaN,6.3E1,NaN,NaN,-5.370007E-2,2.1000001E-1,-1.0698749E-2,NaN,NaN,3.4E1,-1.0494126E-1,NaN,1.1E1,NaN,NaN,3.4E1,NaN,4.6E1,-2.0230906E-2,6.1E1,NaN,9.2104055E-2,1.7733022E-4,1.0511149E-2,1.7806213E-2,3.3E1,-3.077686E-2,-8.3962634E-2,5.9E1,-7.050899E-2,NaN,NaN,NaN,NaN,5.6E1,3.6E1,5.2E1,4.7E0,NaN,-4.3615997E-3,-3.8986884E-2,2.4359055E-2,-8.231866E-5,1.6819188E-2,-8.1777276E-4,2.3353724E-2,-2.615596E-2,1.5166441E-2,6.4656325E-2,-5.1522356E-2,-9.028849E-2,-1.2642898E-2,-5.7027448E-2,8.179028E-2,3.936002E-2,1.0742216E-2,-5.2790202E-2,2.1000001E-1,-5.196638E-2,9.6171744E-2,-1.5771532E-2,8.237326E-3,2.1000001E-1,6.2613964E-2,-2.6357505E-2,-3.5920154E-2,1.3070977E-1,1.4868128E-2,-4.988677E-3,-2.9759306E-2,1.6803574E-2],"split_indices":[6,6,6,1,3,7,6,7,7,1,0,5,1,6,8,1,0,1,0,0,0,0,0,2,4,1,0,2,7,4,0,1,4,1,0,1,5,0,0,0,0,1,0,0,1,0,0,0,4,4,1,1,1,6,5,0,0,0,0,0,0,0,0,0,0,0,0,0,0,0,0,0,0,0,0,0,0,0,0,0,0,0,0,0,0,0,0],"split_type":[0,0,0,0,1,0,0,0,0,0,1,1,0,0,1,0,1,0,1,1,0,0,0,1,1,0,0,1,0,1,1,0,1,0,0,0,1,0,0,0,0,0,0,0,0,0,1,1,1,1,0,0,0,0,1,0,0,0,0,0,0,0,0,0,0,0,0,0,0,0,0,0,0,0,0,0,0,0,0,0,0,0,0,0,0,0,0],"sum_hessian":[2.2529225E4,5.038707E2,2.2025355E4,3.99656E2,1.042147E2,1.6205763E2,2.1863297E4,1.3915205E2,2.6050394E2,3.0483715E1,7.373098E1,1.2195261E2,4.0105022E1,8.4617694E2,2.101712E4,5.757127E1,8.158077E1,1.9311046E2,6.7393486E1,2.362256E1,6.8611555E0,6.714493E1,6.5860543E0,4.5781254E1,7.617135E1,3.0908985E1,9.196035E0,6.340399E2,2.1213704E2,7.185387E2,2.0298582E4,2.5163185E1,3.2408085E1,7.676325E1,4.8175263E0,1.3381284E2,5.9297623E1,5.9349243E1,8.044245E0,9.339264E0,1.4283297E1,3.7906578E1,7.8746777E0,1.5134869E1,6.1036484E1,4.7218685E0,2.6187119E1,5.4410443E2,8.993552E1,1.5197777E2,6.015927E1,6.232199E2,9.531874E1,1.956676E4,7.3182086E2,1.6626064E1,8.537121E0,1.0244004E1,2.2164082E1,6.865826E1,8.10499E0,1.1650163E2,1.7311205E1,9.046028E0,5.0251595E1,1.5920687E1,2.1985891E1,4.4102722E1,1.6933758E1,1.5245798E1,1.0941319E1,4.187965E2,1.25307915E2,6.156742E1,2.8368095E1,7.3032936E1,7.894483E1,1.1397045E1,4.8762226E1,5.783549E1,5.6538446E2,5.0735462E1,4.458328E1,1.856455E4,1.00220905E3,3.9532986E2,3.36491E2],"tree_param":{"num_deleted":"0","num_feature":"9","num_nodes":"87","size_leaf_vector":"0"}},{"base_weights":[3.984969E-2,2.1363454E-1,3.5696726E-2,8.3172984E-2,6.57887E-1,1.314275E-2,4.2172153E-2,1.733626E-2,1.1688376E-1,-4.3220595E-3,7E-1,4.2238057E-2,-1.6841253E-2,1.1344923E-1,3.8390018E-2,-8.824298E-3,3.5401884E-2,8.1154816E-2,2.1167117E-1,4.3756798E-2,-4.914451E-2,2.1000001E-1,-9.409308E-3,2.0847645E-1,3.8188215E-2,1.3342908E-2,-9.254569E-2,7E-1,7.0041545E-2,5.7968903E-2,2.5948752E-2,-2.6257887E-2,2.5236722E-2,4.188347E-2,-1.8059678E-2,4.671472E-2,1.5391012E-1,7.121257E-2,1.5380219E-4,9.003304E-3,1.5052169E-2,6.6428203E-3,9.1624334E-2,4.993977E-2,-8.735594E-2,-1.6389E-1,3.8052812E-2,2.1000001E-1,-1.5510103E-1,1.6766949E-1,-3.8940907E-2,4.2261693E-4,7.979392E-2,4.8880488E-2,-1.1372412E-2,-3.9591588E-2,-3.3503684E-4,1.5884003E-2,5.298493E-3,2.8035177E-2,-2.2526963E-3,1.2938369E-2,5.1525693E-2,1.2304577E-2,-2.7400823E-2,1.7102697E-1,1.9788017E-2,6.5508676E-3,9.130476E-2,-8.167669E-2,-1.3519118E-2,-2.3493197E-2,-6.488193E-2,-5.3639773E-2,4.0549513E-2,-6.762982E-2,-1.485159E-2,1.8522143E-2,2.1000001E-1,-8.783997E-2,2.7083152E-3,-3.5828464E-2,7.697768E-3,1.2065481E-1,2.0955179E-2,3.460736E-2,3.963056E-3,-1.9899797E-2,6.330091E-3],"categories":[0,0,3,0,2,3,0,0,0,1,2,1,2,3,0,0,0,1,2,3,0,0,0],"categories_nodes":[4,5,10,13,14,16,18,19,26,30,36,45,50,53,54],"categories_segments":[0,1,2,3,6,7,8,11,14,15,16,17,20,21,22],"categories_sizes":[1,1,1,3,1,1,3,3,1,1,1,3,1,1,1],"default_left":[0,0,0,1,1,1,0,0,1,0,1,0,1,0,0,1,1,0,0,0,0,0,0,0,0,1,1,1,0,1,0,0,0,1,0,0,1,0,0,0,0,1,0,1,0,1,1,0,0,0,0,0,0,1,1,0,0,0,0,0,0,0,0,0,0,0,0,0,0,0,0,0,0,0,0,0,0,0,0,0,0,0,0,0,0,0,0,0,0],"id":21,"left_children":[1,3,5,7,9,11,13,15,17,19,21,23,25,27,29,31,33,35,37,39,-1,-1,-1,-1,41,43,45,47,49,51,53,55,-1,57,-1,59,61,-1,-1,-1,-1,63,65,67,69,71,73,-1,75,77,79,81,83,85,87,-1,-1,-1,-1,-1,-1,-1,-1,-1,-1,-1,-1,-1,-1,-1,-1,-1,-1,-1,-1,-1,-1,-1,-1,-1,-1,-1,-1,-1,-1,-1,-1,-1,-1],"loss_changes":[1.6478283E1,3.0832693E1,3.2578182E0,9.1480446E-1,1.4912121E1,4.343608E0,4.668371E0,6.698088E-2,9.0748644E-1,2.4856636E-1,3.5302353E0,6.652446E0,5.6050205E0,2.2415071E1,4.0082893E0,9.68776E-2,5.434981E-2,4.937272E-1,4.021783E-1,6.9747865E-4,0E0,0E0,0E0,0E0,4.2342367E0,6.468908E0,6.5208225E0,1.5561949E1,8.672197E0,8.032038E0,8.616527E0,1.3262917E-1,0E0,2.021347E-2,0E0,3.4818664E-1,1.1868441E-1,0E0,0E0,0E0,0E0,5.3274784E0,1.1412819E1,9.196709E0,3.646971E0,2.010932E0,5.243106E0,0E0,1.5187842E-1,3.4949463E1,4.6989665E0,5.324966E0,1.4835384E1,1.4785581E1,6.840994E0,0E0,0E0,0E0,0E0,0E0,0E0,0E0,0E0,0E0,0E0,0E0,0E0,0E0,0E0,0E0,0E0,0E0,0E0,0E0,0E0,0E0,0E0,0E0,0E0,0E0,0E0,0E0,0E0,0E0,0E0,0E0,0E0,0E0,0E0],"parents":[2147483647,0,0,1,1,2,2,3,3,4,4,5,5,6,6,7,7,8,8,9,9,10,10,11,11,12,12,13,13,14,14,15,15,16,16,17,17,18,18,19,19,24,24,25,25,26,26,27,27,28,28,29,29,30,30,31,31,33,33,35,35,36,36,41,41,42,42,43,43,44,44,45,45,46,46,48,48,49,49,50,50,51,51,52,52,53,53,54,54],"right_children":[2,4,6,8,10,12,14,16,18,20,22,24,26,28,30,32,34,36,38,40,-1,-1,-1,-1,42,44,46,48,50,52,54,56,-1,58,-1,60,62,-1,-1,-1,-1,64,66,68,70,72,74,-1,76,78,80,82,84,86,88,-1,-1,-1,-1,-1,-1,-1,-1,-1,-1,-1,-1,-1,-1,-1,-1,-1,-1,-1,-1,-1,-1,-1,-1,-1,-1,-1,-1,-1,-1,-1,-1,-1,-1],"split_conditions":[9.6E-1,9.21E-1,4.2E1,5.4E1,NaN,NaN,4.4E1,1.144142E1,1.1E1,3.9E1,NaN,8.5E0,1.15E1,NaN,NaN,4.5E1,NaN,6.3E1,NaN,NaN,-4.914451E-2,2.1000001E-1,-9.409308E-3,2.0847645E-1,3.664E0,3.1E0,NaN,4.367305E0,4.065E0,1.3E0,NaN,1E1,2.5236722E-2,2.6E1,-1.8059678E-2,5.8E1,NaN,7.121257E-2,1.5380219E-4,9.003304E-3,1.5052169E-2,1.1E1,3.75E0,2.931185E0,3.45E0,NaN,1.8E0,2.1000001E-1,4.3E1,3.75E0,NaN,5.3E1,1.35E0,NaN,NaN,-3.9591588E-2,-3.3503684E-4,1.5884003E-2,5.298493E-3,2.8035177E-2,-2.2526963E-3,1.2938369E-2,5.1525693E-2,1.2304577E-2,-2.7400823E-2,1.7102697E-1,1.9788017E-2,6.5508676E-3,9.130476E-2,-8.167669E-2,-1.3519118E-2,-2.3493197E-2,-6.488193E-2,-5.3639773E-2,4.0549513E-2,-6.762982E-2,-1.485159E-2,1.8522143E-2,2.1000001E-1,-8.783997E-2,2.7083152E-3,-3.5828464E-2,7.697768E-3,1.2065481E-1,2.0955179E-2,3.460736E-2,3.963056E-3,-1.9899797E-2,6.330091E-3],"split_indices":[6,6,1,1,3,2,1,7,7,1,0,7,7,0,2,1,0,1,0,0,0,0,0,0,6,6,4,6,6,6,4,7,0,1,0,1,5,0,0,0,0,7,6,6,6,0,6,0,1,6,2,1,6,8,2,0,0,0,0,0,0,0,0,0,0,0,0,0,0,0,